svm_type c_svc
kernel_type linear
nr_class 2
total_sv 988
rho -0.354723
label 1 -1
nr_sv 519 469
SV
0.05758623770631608 26:1 108:1 113:3 301:1 303:1 330:1 384:1 423:1 479:1 725:1 800:2 839:1 922:1 1156:1 1199:2 1226:1 1373:6 1449:1 1702:1 1714:2 1914:2 2002:1 2140:3 2343:1 2362:2 2414:1 2554:1 2679:1 
0.01179144780593658 82:2 93:2 108:1 113:5 270:2 322:2 356:2 396:2 479:4 520:2 630:1 651:1 674:2 1027:2 1101:2 1156:1 1169:1 1177:2 1195:2 1199:2 1226:1 1295:2 1373:12 1423:2 1426:1 1453:1 1554:2 1572:2 1652:1 1696:1 1848:2 1937:1 1983:2 2248:4 2343:1 2362:4 2397:1 2409:2 2679:1 
0.1054121807147075 14:3 54:1 108:2 113:11 143:2 146:2 170:1 226:11 230:9 236:1 316:2 330:4 355:2 369:1 417:1 421:6 484:1 486:1 496:1 528:1 545:1 549:3 617:1 646:4 650:1 659:1 785:1 800:11 823:4 888:1 927:1 945:5 994:1 1004:1 1063:1 1140:15 1165:1 1303:1 1343:3 1359:1 1366:1 1371:2 1373:7 1449:8 1486:2 1505:1 1575:1 1653:1 1688:1 1702:6 1810:6 1833:5 1848:7 1865:2 1936:2 1991:1 1994:1 2091:1 2105:1 2117:1 2121:1 2126:1 2202:1 2246:4 2263:3 2338:1 2362:11 2363:6 2409:2 2417:2 2516:1 2520:1 2528:2 2542:4 2596:1 2712:1 
0.0007850145361609815 108:4 113:10 143:3 146:2 170:5 226:8 227:1 230:2 297:2 320:1 321:2 330:8 342:1 347:5 355:1 363:4 369:2 417:1 420:3 469:3 549:6 592:1 615:4 646:2 650:1 715:1 733:2 757:3 782:1 800:12 818:1 879:1 895:1 897:1 904:5 907:2 924:1 945:7 990:1 997:1 1063:1 1075:1 1140:8 1156:3 1208:1 1352:2 1371:1 1373:3 1415:2 1446:3 1449:6 1586:1 1612:1 1663:1 1677:1 1688:1 1695:1 1696:2 1702:3 1763:1 1765:1 1810:3 1833:2 1907:1 2045:1 2047:1 2126:1 2144:2 2263:3 2290:1 2350:1 2362:9 2387:1 2416:1 2465:1 2501:1 2571:1 2596:1 2665:1 
0.2350680541840472 14:1 108:3 113:5 121:1 143:2 230:3 250:1 330:3 355:1 363:2 421:2 428:1 545:1 646:3 688:1 800:3 823:1 891:1 904:2 1063:1 1140:8 1343:1 1371:1 1373:2 1431:1 1449:3 1493:2 1579:1 1637:1 1702:2 1810:2 1840:2 1842:2 1869:1 1903:1 1949:1 1974:1 1980:1 1994:1 2117:1 2126:1 2203:1 2263:2 2278:1 2314:1 2362:3 2409:1 2429:2 2434:2 2542:1 
0.6330698850731841 87:1 113:2 170:1 800:1 899:1 929:1 1063:1 1167:1 1449:1 1505:1 1791:1 1909:1 2056:1 2115:1 2287:1 2369:1 2409:1 
0.07844516449481241 14:1 113:2 143:3 146:1 222:1 226:1 330:1 428:1 445:1 543:1 549:2 646:1 800:3 888:1 934:1 945:1 1140:2 1260:1 1343:1 1366:1 1373:3 1459:1 1486:2 1564:1 1637:1 1681:1 1865:2 1967:1 2117:1 2126:1 2255:1 2314:1 2362:2 2409:2 2417:2 2528:2 2633:1 
0.04416545908194888 49:1 61:1 90:2 108:1 113:6 121:1 135:4 155:1 173:2 212:1 268:1 287:1 321:1 330:10 355:1 360:1 385:2 394:1 469:1 472:3 549:1 606:1 698:4 732:1 800:9 803:6 922:5 955:1 1063:1 1068:1 1158:1 1228:3 1295:1 1301:1 1355:2 1373:5 1400:1 1449:1 1450:1 1535:1 1648:1 1650:2 1669:1 1717:1 1742:1 1784:1 1903:1 1905:2 1922:1 2029:1 2142:3 2194:1 2236:2 2308:1 2356:1 2362:14 2363:1 2374:1 2385:7 2409:2 2516:1 2533:3 2571:1 2605:1 2665:1 
0.003531699821890972 26:2 88:2 108:4 113:6 170:2 220:2 291:1 315:1 316:1 320:1 330:6 351:1 418:1 536:1 579:1 581:1 696:3 800:7 871:1 897:1 922:1 945:1 953:1 954:1 965:1 1063:2 1082:1 1102:2 1156:3 1201:1 1229:1 1242:2 1258:1 1260:3 1308:1 1335:1 1342:1 1373:6 1385:1 1447:1 1449:1 1550:1 1587:1 1695:1 1696:1 1705:1 1903:1 1923:1 1967:3 1975:1 1982:3 2064:3 2082:1 2178:1 2221:7 2251:1 2361:1 2362:3 2409:1 2410:2 2509:6 2605:1 2621:1 2626:3 2631:1 2665:1 2682:1 
0.307775390663185 9:1 14:1 108:3 113:9 143:10 165:1 226:2 230:14 330:8 355:3 363:1 364:1 417:1 421:2 472:1 484:1 492:5 496:1 545:1 549:3 590:1 592:1 646:6 659:1 688:2 790:1 800:11 818:1 823:5 850:1 880:1 888:1 898:1 904:5 932:1 1038:2 1063:5 1075:1 1140:16 1165:1 1198:1 1223:1 1343:2 1366:1 1370:1 1373:5 1433:1 1495:1 1550:2 1555:1 1637:6 1653:2 1677:1 1688:1 1701:1 1702:2 1715:1 1719:2 1785:1 1795:1 1810:2 1903:1 2091:1 2126:1 2192:1 2200:1 2211:1 2221:2 2263:2 2282:1 2314:5 2325:1 2356:1 2361:3 2362:6 2363:2 2392:1 2409:2 2416:1 2417:2 2542:5 2582:1 
0.01952525153659213 70:2 82:1 93:2 95:4 100:1 108:5 113:8 135:1 143:2 212:2 220:3 230:4 268:1 316:1 321:3 330:8 343:1 355:4 373:1 394:1 399:1 404:1 469:1 472:5 549:1 562:2 606:1 619:2 633:1 683:2 731:1 800:17 823:2 828:2 999:2 1022:1 1044:1 1063:1 1080:3 1140:8 1156:2 1182:1 1289:1 1373:9 1435:1 1473:1 1493:2 1495:7 1529:1 1535:1 1540:3 1582:1 1618:1 1678:2 1719:1 1729:7 1793:2 1799:1 1811:1 2029:1 2041:2 2074:1 2185:2 2194:2 2248:2 2280:1 2286:3 2353:1 2361:1 2362:5 2363:1 2409:2 2445:1 2465:1 2551:2 2559:3 2571:3 2617:2 2661:2 2676:1 
0.122689634420214 14:1 36:1 108:5 113:9 133:1 143:3 146:1 219:2 226:7 230:8 268:2 316:2 330:3 355:3 363:1 421:2 472:1 479:1 484:1 496:2 545:1 549:5 590:1 646:2 659:1 686:2 781:1 800:9 823:2 888:1 904:1 922:1 940:1 945:7 1043:2 1075:1 1140:13 1156:2 1198:1 1245:2 1343:1 1366:1 1369:3 1370:1 1371:2 1373:7 1428:1 1434:2 1449:6 1493:2 1568:1 1579:1 1653:3 1688:1 1702:2 1715:1 1763:1 1810:2 1833:1 1848:4 1865:2 1903:1 1974:1 1996:1 2003:1 2117:1 2126:1 2148:1 2187:1 2194:2 2313:1 2314:1 2325:1 2356:1 2361:1 2362:7 2363:2 2392:1 2409:2 2417:2 2441:1 2487:1 2489:1 2497:1 2520:1 2542:3 2557:1 2571:4 2589:1 2683:2 
0.01103598026737747 108:2 113:5 135:1 143:2 170:1 185:1 191:1 216:1 278:4 285:1 316:4 330:3 365:1 369:1 399:1 415:1 431:1 469:1 472:1 480:1 503:1 526:1 706:1 720:1 730:1 774:1 800:4 896:1 900:1 907:1 922:1 973:1 1007:1 1063:1 1080:1 1188:1 1202:1 1242:1 1247:1 1255:1 1260:1 1349:2 1373:5 1386:1 1432:1 1446:1 1461:1 1503:3 1507:1 1597:1 1692:1 1695:1 1714:1 1771:1 1803:1 1903:1 1963:1 1967:1 2070:1 2087:1 2183:1 2409:1 2477:1 2592:1 2596:1 2665:1 
0.04185753469782845 14:3 108:2 113:7 143:6 146:1 184:1 226:6 230:8 316:2 330:2 355:3 363:4 369:1 417:1 421:3 484:2 492:2 496:1 545:1 549:4 577:3 582:1 590:2 592:1 612:1 646:3 659:1 757:1 800:10 823:2 888:1 904:2 945:4 979:1 1038:1 1063:2 1075:2 1140:14 1156:2 1165:1 1198:1 1343:1 1358:2 1366:1 1370:2 1373:7 1406:1 1449:2 1476:1 1493:2 1579:1 1637:1 1658:1 1677:1 1702:3 1810:3 1848:2 1865:2 2091:1 2117:1 2126:1 2258:1 2263:2 2314:1 2362:7 2363:2 2411:1 2417:2 2434:2 2529:1 2542:2 2571:1 
1 113:1 135:1 143:1 170:1 330:1 355:1 396:1 479:1 549:1 577:1 586:1 800:1 856:1 888:1 1140:1 1182:1 1260:1 1358:1 1373:2 1509:1 1856:1 1865:1 1967:1 2314:1 2361:1 2362:1 2417:1 2490:1 2527:1 
0.1101420902826792 113:1 124:1 143:2 146:1 222:1 226:1 230:2 279:1 330:1 369:1 428:1 549:2 577:2 800:3 922:1 945:1 1140:2 1274:1 1292:1 1358:2 1373:1 1555:1 1579:1 1903:1 2126:1 2164:1 2362:3 2562:1 
0.2621340220812848 113:4 322:2 356:2 479:3 549:2 640:2 686:2 1083:2 1177:2 1195:2 1226:1 1329:2 1373:6 1423:2 1629:1 1653:2 1866:2 2112:1 2177:2 2343:1 2409:2 
0.8417355236624254 113:3 330:1 377:1 496:1 545:1 549:2 719:1 742:2 826:2 922:1 1156:2 1373:4 1903:1 2125:1 2361:2 2409:2 2439:2 2665:1 
0.2077567777799187 39:1 72:2 113:3 121:1 322:1 330:3 469:1 472:1 754:1 833:1 916:1 922:1 1063:1 1140:1 1175:1 1176:4 1358:1 1446:2 1449:1 1822:1 1825:4 1833:2 1892:1 1916:1 2023:1 2345:1 2362:1 2465:1 
0.2949304336619605 113:2 326:1 356:2 479:1 520:2 548:4 1018:1 1226:1 1267:1 1373:12 1652:2 1714:2 1720:2 1832:4 1854:4 1865:2 2112:1 2300:2 2343:1 2459:2 
0.5521167739893352 9:1 14:3 108:5 113:6 143:5 165:1 187:4 226:2 230:2 330:3 355:2 363:8 417:2 421:3 484:1 492:2 496:1 545:1 549:2 590:4 659:1 688:3 730:2 800:9 818:2 823:1 888:1 904:2 1038:3 1063:2 1075:1 1140:14 1165:1 1343:3 1366:1 1369:5 1370:4 1373:7 1428:3 1495:1 1505:2 1507:2 1637:2 1693:3 1702:3 1768:3 1785:1 1810:3 1839:1 1866:2 2061:2 2091:1 2117:1 2118:1 2126:1 2201:1 2263:3 2314:3 2361:3 2362:10 2363:3 2409:2 2434:2 2571:5 2582:2 
0.4417362451905936 67:1 113:2 135:1 266:1 296:1 322:1 330:1 374:2 426:2 549:2 588:1 668:2 729:3 773:1 800:1 1007:1 1063:1 1140:1 1156:2 1249:1 1358:2 1373:3 1446:1 1572:2 1693:1 1702:1 1810:1 1836:1 1839:1 1851:1 1903:1 1995:1 2110:1 2197:1 2245:1 2325:1 2361:2 2362:5 2712:1 
0.006552491779927706 29:1 44:3 55:1 102:1 108:4 113:6 135:1 143:2 163:1 170:2 194:1 230:1 271:2 316:1 330:4 355:2 369:2 386:1 469:1 476:1 572:2 618:1 698:1 727:1 733:1 800:11 824:4 907:2 922:3 924:1 945:1 1048:1 1053:1 1063:2 1080:4 1082:1 1151:2 1154:1 1156:1 1202:1 1237:2 1260:3 1300:4 1320:1 1337:1 1342:2 1373:7 1392:1 1446:1 1449:2 1555:1 1560:1 1594:3 1604:2 1650:4 1684:1 1755:1 1810:2 1874:1 1897:1 1903:1 1967:3 2070:1 2087:1 2208:1 2251:1 2322:1 2341:1 2361:2 2362:12 2383:2 2409:2 2431:1 2457:1 2569:1 2621:1 2665:4 2692:1 2700:1 
0.03232929138115576 113:2 168:1 270:4 326:1 356:2 479:1 549:6 554:1 674:4 738:4 1018:1 1022:1 1121:1 1131:4 1226:1 1373:12 1570:2 1573:2 1714:2 2112:1 2313:2 2343:1 
0.2628297957592921 108:1 113:5 155:1 170:1 230:3 234:1 266:1 313:1 320:1 322:1 330:1 355:2 369:1 396:1 401:1 479:1 486:1 526:1 549:1 584:1 662:1 773:1 800:5 818:1 856:2 910:3 1044:1 1063:2 1111:1 1140:4 1141:1 1156:2 1238:1 1260:1 1347:2 1373:3 1382:1 1449:1 1509:1 1571:1 1588:2 1650:2 1702:1 1720:1 1879:1 1900:1 1945:1 1967:1 2037:1 2068:1 2075:1 2361:1 2362:5 2391:2 2409:2 2665:2 
0.005782136131847311 9:1 14:2 36:2 108:4 113:10 143:3 165:1 187:1 188:1 226:1 230:12 330:8 355:1 363:1 367:1 410:2 411:1 417:1 421:4 472:2 484:1 492:5 496:1 545:1 549:3 582:1 592:1 646:6 659:1 678:2 778:1 781:1 785:1 800:7 818:1 823:5 888:1 904:6 907:1 1038:2 1063:6 1075:3 1140:16 1143:2 1156:1 1165:1 1198:1 1228:2 1366:1 1369:1 1373:5 1449:1 1465:1 1495:1 1653:3 1654:1 1677:1 1688:2 1696:2 1702:4 1761:1 1768:1 1785:1 1810:4 1866:2 2061:2 2091:1 2096:1 2100:1 2117:1 2126:1 2192:1 2258:1 2282:1 2314:1 2325:2 2355:2 2356:2 2362:1 2363:4 2392:2 2416:1 2502:1 2542:2 2571:1 2582:1 2607:1 
1 113:3 250:2 330:1 377:1 496:1 545:1 549:2 719:1 741:2 922:1 1373:2 1903:1 1949:2 2125:1 2361:2 2409:2 2429:2 2665:1 
0.02620920875813931 76:2 86:1 108:7 113:10 135:2 143:1 153:1 170:2 203:1 230:3 250:3 322:1 330:3 397:1 463:1 465:1 472:1 479:3 488:1 518:1 703:1 766:2 776:2 800:4 1027:1 1063:2 1088:1 1097:1 1101:1 1140:3 1156:2 1158:1 1202:1 1239:2 1260:3 1291:2 1322:1 1363:1 1373:9 1444:1 1449:2 1453:3 1545:1 1591:1 1682:1 1721:1 1746:1 1750:1 1758:1 1802:1 1840:1 1870:1 1915:2 1916:1 1949:5 1960:1 1967:3 1983:1 2003:1 2116:1 2125:1 2142:2 2166:1 2325:1 2334:1 2361:1 2362:7 2380:1 2387:1 2393:3 2409:4 2429:5 2434:2 2506:5 2527:3 2605:1 2665:4 
0.04390321532198311 14:1 76:2 103:3 108:6 113:13 124:3 143:2 193:3 230:4 298:1 313:3 319:1 321:4 330:3 434:2 442:1 470:1 472:1 479:3 502:5 518:1 548:1 549:1 733:2 768:1 776:1 800:4 851:1 852:1 913:1 922:1 1012:1 1027:1 1073:1 1088:3 1101:1 1140:6 1141:3 1182:1 1232:2 1258:1 1260:4 1306:1 1343:1 1373:16 1433:3 1449:5 1453:1 1514:3 1535:1 1636:1 1650:5 1682:6 1792:6 1817:1 1865:1 1866:1 1879:3 1915:1 1928:1 1967:4 1968:1 1983:1 2003:1 2029:1 2037:1 2241:1 2325:3 2358:1 2361:2 2362:10 2409:9 2434:2 2451:1 2453:1 2470:1 2529:1 2571:4 2647:3 2665:2 2693:2 2709:1 
0.04933999265952668 9:1 108:5 113:3 143:1 152:2 159:1 170:1 236:1 250:1 303:1 304:1 316:1 330:3 337:1 369:1 422:1 440:1 488:1 684:1 685:1 725:1 763:1 800:3 842:1 868:1 871:1 897:1 922:1 930:1 936:1 945:1 970:1 982:3 1000:1 1012:1 1025:2 1063:2 1125:1 1196:1 1211:1 1257:2 1328:1 1335:1 1373:7 1414:1 1537:1 1541:1 1586:1 1587:1 1714:1 1810:1 1903:1 2075:1 2077:3 2215:1 2238:1 2242:1 2253:1 2362:2 2409:1 2425:1 2465:1 2519:1 2528:1 2622:5 
0.2282878967362359 108:3 113:5 129:1 146:1 170:1 234:2 316:1 320:1 330:3 368:1 469:1 470:1 562:1 718:2 800:1 945:2 1121:1 1156:1 1248:1 1280:1 1342:1 1368:1 1373:2 1440:1 1449:4 1528:4 1545:1 1573:1 1841:1 1903:1 2037:1 2121:1 2195:5 2326:1 2348:1 2465:1 2488:1 2605:1 2665:2 
0.04634332453919763 41:2 108:3 113:8 135:1 137:1 143:2 157:2 170:1 171:1 207:2 220:2 232:1 316:2 321:2 322:1 330:3 369:1 447:2 465:1 476:1 486:1 508:1 549:2 698:1 727:1 755:3 800:11 825:2 840:3 918:1 922:3 932:2 945:1 951:4 1048:1 1063:5 1074:1 1080:1 1087:2 1116:2 1129:1 1147:1 1156:4 1197:2 1206:4 1225:2 1260:2 1281:1 1323:3 1373:3 1390:2 1446:6 1447:1 1449:1 1473:1 1517:1 1585:1 1611:1 1624:1 1696:1 1714:1 1788:4 1805:1 1903:1 1967:2 1987:1 2199:2 2207:1 2280:1 2283:1 2327:1 2338:1 2361:3 2362:3 2434:2 2478:1 2642:1 2645:1 2656:1 2683:2 2700:1 
0.04955482628387299 113:7 182:1 322:3 479:4 594:2 595:2 630:1 730:2 776:1 1018:1 1073:1 1156:1 1195:2 1226:1 1260:1 1373:9 1419:2 1505:2 1507:2 1571:2 1652:2 1817:2 1937:2 1967:1 2020:1 2161:2 2343:1 2397:1 2409:2 2679:1 
0.2890627987935584 14:4 108:3 113:12 135:1 143:2 167:1 226:7 230:12 316:1 330:2 355:2 363:1 381:1 417:1 421:4 428:2 484:1 486:1 496:1 545:1 549:5 646:2 659:1 675:1 729:2 800:11 818:2 823:5 888:1 904:2 927:1 978:1 1004:1 1055:2 1063:1 1075:1 1140:17 1165:1 1260:1 1343:3 1359:1 1365:7 1366:1 1369:3 1371:1 1373:6 1381:1 1428:2 1449:6 1486:2 1555:1 1653:1 1658:1 1702:4 1715:1 1785:1 1810:4 1833:1 1848:3 1866:2 1903:1 1936:2 1967:1 2091:1 2126:1 2164:1 2200:1 2204:1 2245:1 2291:1 2338:1 2349:1 2362:9 2363:5 2409:2 2434:2 2528:2 2542:6 2571:3 2673:1 2712:1 
0.1912128616296267 37:2 108:2 113:5 170:2 322:2 356:2 479:4 554:1 630:1 849:2 1018:1 1177:2 1195:2 1226:1 1239:1 1373:9 1419:2 1423:2 1437:1 1533:1 1650:2 1817:1 1894:1 2137:1 2179:2 2228:2 2343:1 2362:2 2409:2 2440:1 2543:1 2602:1 2679:1 
0.3299542392315343 14:1 108:3 113:11 143:9 226:3 330:7 355:1 363:1 381:1 417:1 421:4 472:1 484:1 496:1 545:1 549:2 590:1 646:7 659:1 683:1 688:1 729:6 780:1 785:1 790:1 800:11 818:1 823:5 888:7 932:1 953:2 1055:1 1075:1 1140:18 1165:1 1343:1 1365:2 1366:1 1369:1 1370:1 1373:12 1397:1 1555:1 1579:1 1650:2 1653:2 1688:2 1702:4 1715:2 1785:1 1810:4 1848:7 1866:6 1903:1 1936:2 1991:1 2091:1 2126:1 2231:2 2263:1 2314:6 2325:1 2356:1 2362:3 2363:4 2392:1 2409:2 2542:3 2571:1 2673:1 
0.2782910315528789 14:2 36:2 54:1 108:2 113:11 124:1 143:4 226:2 230:19 330:2 355:4 363:2 381:1 417:2 421:1 492:9 496:1 545:1 549:4 590:2 592:2 634:1 729:2 800:10 818:2 823:4 888:1 893:2 904:9 994:1 1038:2 1055:2 1063:9 1075:4 1140:22 1165:1 1198:2 1284:1 1358:2 1365:1 1366:1 1370:2 1373:4 1428:9 1505:1 1555:1 1579:4 1653:2 1677:1 1702:2 1785:1 1810:3 1866:2 1903:1 1980:1 2091:1 2126:2 2192:1 2282:2 2350:1 2361:2 2362:4 2363:3 2434:2 2542:4 2673:1 
0.06659962694541552 54:1 108:1 113:4 143:3 205:1 226:1 227:1 316:1 320:1 342:1 355:2 363:2 369:1 417:1 428:1 549:3 592:1 757:3 800:6 897:1 904:1 922:1 1075:1 1142:1 1365:1 1373:2 1431:1 1447:1 1586:1 1650:2 1677:1 1776:2 1926:1 2263:1 2352:1 2356:2 2361:2 2362:2 2409:2 2416:1 2550:1 2665:1 2690:1 
0.3704415812538931 113:5 143:2 199:1 230:1 316:1 330:3 342:2 355:2 363:1 417:1 496:1 549:3 592:1 671:1 757:1 800:5 904:4 1023:1 1063:1 1075:1 1140:3 1156:1 1343:1 1373:1 1493:1 1505:2 1572:1 1677:1 1721:1 1833:2 1848:1 2056:2 2070:1 2076:2 2118:1 2192:1 2245:1 2287:2 2325:1 2356:1 2362:5 2376:1 2409:2 2416:1 
0.0171945180799974 76:1 108:1 113:5 121:1 126:1 143:1 170:1 242:1 321:1 322:1 330:6 340:1 355:2 363:1 369:1 384:1 447:1 465:2 469:1 479:1 536:1 580:2 615:1 687:2 719:1 767:5 800:4 845:1 886:1 916:1 922:3 969:1 1034:1 1066:1 1128:2 1151:1 1156:1 1223:1 1230:1 1355:1 1373:6 1380:1 1449:2 1450:1 1451:1 1453:1 1455:1 1459:1 1584:1 1598:1 1650:2 1688:1 1759:1 1771:1 1828:1 2059:1 2070:1 2072:1 2090:1 2140:1 2194:2 2206:1 2258:1 2362:4 2367:2 2409:1 2428:1 2539:1 2592:1 2665:1 
0.03589950586731857 14:2 29:1 75:2 108:4 113:7 143:7 156:1 226:3 230:6 236:1 316:3 320:1 330:5 355:4 363:3 381:1 421:4 428:1 471:1 484:1 492:2 496:2 545:1 548:1 549:3 577:2 590:1 619:1 646:2 650:1 659:1 681:1 683:1 729:2 733:1 800:11 818:1 882:1 888:1 892:1 904:3 977:1 1038:2 1055:1 1063:4 1075:4 1140:12 1156:1 1165:1 1168:1 1198:2 1303:2 1315:1 1343:2 1358:2 1365:2 1366:1 1370:1 1373:9 1406:1 1428:1 1439:1 1449:2 1493:2 1527:1 1579:1 1584:1 1637:2 1653:1 1658:1 1677:2 1702:4 1785:1 1810:4 1833:1 1848:1 1866:2 1903:1 1904:2 1915:1 2047:1 2091:1 2117:1 2126:1 2166:1 2192:1 2314:2 2345:1 2358:1 2361:2 2362:9 2363:2 2416:2 2434:2 2441:1 2486:2 2542:1 2557:1 2596:1 2621:1 2673:2 2683:1 2714:1 
0.03014843519563296 4:1 22:2 47:1 108:3 113:6 170:2 190:1 321:2 322:1 355:4 369:2 399:3 460:1 511:1 548:1 561:1 577:4 580:1 615:1 623:1 653:1 796:1 800:6 803:5 874:1 922:2 953:1 1027:1 1063:3 1156:2 1178:1 1230:1 1255:1 1260:2 1358:2 1373:2 1409:1 1429:1 1446:2 1512:1 1555:1 1595:2 1688:1 1697:1 1784:1 1812:1 1849:1 1891:2 1903:1 1967:2 1979:1 2113:1 2171:2 2182:1 2361:2 2362:5 2385:2 2446:1 2571:1 2665:3 2670:3 
0.09460660731943417 22:1 47:1 108:2 113:2 149:2 170:1 321:2 330:1 331:1 355:1 479:1 511:1 548:2 577:2 700:1 773:2 800:3 803:1 1015:2 1063:1 1167:1 1178:1 1198:1 1358:2 1373:6 1377:1 1418:2 1595:1 1812:1 1891:2 1979:2 2171:1 2362:3 2670:1 2678:2 
0.07233970884472551 113:1 121:1 294:1 330:1 549:1 577:2 617:1 800:1 910:1 1181:1 1358:1 1373:2 1509:1 1557:1 1642:1 1702:1 2007:1 2338:1 2391:1 
0.07275205074517278 41:2 89:1 108:3 113:7 135:1 143:2 207:1 302:1 319:1 320:2 321:2 336:1 399:1 422:1 447:2 469:1 472:1 485:1 547:1 657:1 727:2 755:1 800:8 825:1 840:3 922:1 932:1 951:2 1048:1 1063:2 1080:1 1107:1 1156:4 1218:1 1307:1 1342:4 1373:9 1392:1 1446:4 1447:1 1449:2 1520:1 1555:1 1585:2 1652:2 1691:1 1695:1 1696:1 1748:1 1781:1 1805:3 1903:1 2004:1 2199:4 2218:1 2252:1 2361:4 2362:1 2363:1 2397:1 2414:2 2477:1 2478:2 2596:1 2665:1 2700:1 
0.2762603529400035 67:1 113:3 322:1 330:1 353:1 369:1 426:1 469:1 548:2 588:1 782:1 800:2 803:1 922:2 951:2 1007:1 1063:1 1140:1 1249:1 1260:1 1373:4 1483:3 1563:1 1568:1 1606:1 1693:1 1696:2 1702:1 1722:2 1768:1 1789:1 1810:1 1836:1 1839:1 1851:1 1886:1 1903:1 1967:1 2110:1 2197:1 2325:1 2361:2 2362:5 2385:1 2665:1 2712:1 
0.03398765489660307 14:2 108:3 113:3 135:1 140:1 143:2 232:1 268:1 316:1 330:7 369:1 373:1 461:1 469:1 566:1 705:1 800:8 898:1 922:4 954:1 1063:1 1133:1 1156:1 1167:2 1373:3 1431:1 1432:1 1446:2 1447:2 1449:2 1464:7 1676:1 1679:1 1696:4 1801:2 1916:1 1922:1 2059:1 2125:1 2155:1 2194:1 2241:2 2304:1 2361:1 2362:3 2363:1 2378:1 2402:1 2423:1 2424:2 2447:1 2553:2 2571:1 2683:1 
0.0507818486246188 14:2 36:1 108:4 113:8 124:1 143:8 146:1 170:1 199:1 226:5 230:14 279:1 316:2 330:4 355:1 363:2 417:1 484:2 492:3 496:2 545:1 548:1 549:2 590:4 592:1 627:1 634:1 646:5 659:1 800:8 823:2 888:1 893:3 904:4 934:1 993:1 1038:1 1063:6 1075:3 1140:19 1156:1 1165:1 1198:1 1343:2 1358:2 1366:1 1370:4 1373:14 1449:1 1579:4 1677:2 1702:5 1810:5 1848:3 1865:2 1935:1 1980:1 2003:2 2091:1 2101:2 2108:1 2117:1 2126:2 2192:1 2216:2 2246:4 2282:1 2361:1 2362:1 2363:5 2365:1 2375:1 2381:1 2468:1 2489:1 2542:2 2564:1 2571:1 2619:1 
0.2622116310067527 113:3 250:2 330:1 377:1 496:1 545:1 548:4 719:1 740:2 922:1 1373:4 1561:2 1720:2 1903:1 1949:2 2125:1 2361:2 2409:2 2429:2 2665:1 
0.3681047426595745 113:3 322:1 330:1 377:1 479:1 496:1 545:1 548:4 594:1 661:2 719:1 743:2 922:1 1373:5 1418:2 1419:1 1765:1 1832:2 1903:1 2124:2 2125:1 2233:1 2361:2 2409:2 2665:1 
0.09155748666092693 14:2 108:4 113:8 143:6 192:2 205:1 216:1 226:5 230:2 234:1 236:1 267:1 316:1 320:2 322:2 330:2 355:1 384:1 399:1 417:2 428:3 472:1 496:1 503:1 545:1 548:2 549:2 615:1 617:1 646:1 661:2 757:2 800:14 823:1 825:1 843:1 888:1 904:3 907:2 922:1 945:1 1020:1 1023:5 1026:4 1063:1 1115:1 1140:2 1156:1 1198:1 1274:2 1315:1 1331:1 1366:1 1373:8 1375:3 1400:1 1432:2 1446:1 1449:1 1483:4 1569:1 1579:3 1677:1 1695:1 1743:1 1745:1 1833:3 1848:1 1883:1 1907:1 1939:1 1976:2 1980:1 2044:1 2070:1 2117:1 2123:1 2124:2 2126:1 2245:1 2246:4 2285:1 2315:2 2353:1 2362:17 2406:2 2409:2 2437:2 2493:1 2542:2 2580:2 2621:3 2713:1 
0.04594591331754869 14:3 36:1 108:4 113:11 143:3 187:2 226:2 230:15 330:8 342:2 355:2 363:1 410:2 411:1 417:2 421:4 472:1 484:1 492:7 496:1 545:1 548:1 549:2 590:1 592:1 646:7 659:1 678:1 759:1 778:1 779:1 784:1 787:1 800:7 823:5 888:1 904:9 1038:1 1063:7 1075:3 1140:19 1143:1 1198:1 1228:1 1366:1 1369:2 1370:1 1373:4 1434:2 1579:1 1653:2 1677:1 1688:1 1696:2 1702:4 1715:1 1768:1 1810:4 1865:2 1980:1 2003:2 2117:1 2126:1 2192:1 2246:2 2263:1 2282:2 2325:1 2355:2 2356:1 2362:2 2363:4 2392:1 2416:1 2434:2 2542:4 2571:2 
0.2851108760002933 11:1 113:4 121:1 155:1 204:1 221:1 230:2 294:1 320:1 330:1 410:2 472:1 688:1 773:1 800:3 823:1 907:1 908:1 910:1 1052:1 1140:2 1156:1 1181:1 1266:1 1373:3 1449:1 1509:1 1557:1 1571:1 1696:2 1702:1 1723:1 1847:1 1903:1 2007:1 2061:1 2338:1 2355:2 2361:1 2362:1 2391:2 
0.5515541083152897 9:1 36:1 113:4 143:2 226:2 230:1 250:2 316:1 330:2 355:1 417:1 548:2 592:1 757:1 759:1 800:5 869:1 954:1 1026:1 1140:2 1373:3 1449:1 1495:1 1568:1 1658:1 1833:2 2076:1 2126:1 2144:1 2192:1 2263:1 2269:1 2356:1 2362:3 2409:2 2501:1 2528:2 2529:1 2539:1 2622:2 
0.1077147040002901 101:1 108:2 113:2 135:1 143:1 330:1 355:1 367:1 369:1 607:1 800:2 845:1 922:1 1335:1 1358:1 1373:1 1430:1 1446:1 1449:3 1453:1 1535:1 1674:1 1892:1 1901:3 1916:1 2090:1 2338:1 2355:1 2362:1 2685:3 
1 113:1 121:1 330:1 469:1 472:2 526:1 615:2 719:1 800:2 922:1 939:1 1030:1 1180:1 1373:1 1528:2 1668:1 1776:1 1903:2 2195:2 2605:1 2665:1 
0.1853204123058993 113:3 322:2 479:4 594:2 595:2 615:2 630:1 800:1 1156:2 1195:2 1226:1 1373:7 1421:2 1569:2 1629:1 1652:5 1937:5 2343:1 2362:1 2526:2 2679:1 2706:1 
0.8488007142678781 113:2 135:2 379:1 1063:2 1352:2 1415:2 1696:2 1766:2 1903:2 2050:1 
0.0403748995677569 113:3 148:1 220:1 330:1 350:4 351:1 356:2 404:2 479:1 548:4 698:1 731:2 800:2 928:1 1063:1 1156:1 1226:1 1335:1 1373:12 1412:1 1449:1 1454:1 1545:1 1568:2 1569:2 1714:2 1817:2 2140:1 2300:2 2343:1 2362:1 2456:2 2499:2 2633:1 2665:1 2679:1 2702:2 2706:2 
0.1619771772920517 14:2 54:1 108:4 113:6 124:1 143:3 146:1 226:4 230:10 268:2 279:1 316:2 330:3 355:6 363:5 369:1 414:1 417:1 421:2 428:1 465:1 472:1 484:1 492:2 496:2 545:1 548:5 549:1 577:2 580:1 590:2 592:1 646:2 659:1 757:1 800:8 823:1 888:1 904:3 922:2 945:3 979:1 980:1 1038:1 1063:2 1075:2 1134:1 1140:12 1156:3 1165:1 1198:1 1223:1 1292:1 1342:1 1343:1 1358:2 1366:1 1370:2 1373:9 1406:1 1428:2 1446:1 1447:1 1449:2 1534:1 1579:3 1637:1 1688:2 1702:2 1781:1 1810:2 1839:1 1865:2 2044:1 2075:1 2091:1 2117:1 2126:1 2194:2 2263:2 2314:1 2325:1 2356:1 2362:6 2363:2 2392:2 2417:2 2434:2 2529:1 2539:1 2542:2 2665:1 2716:1 
0.01614185889459182 66:1 104:1 108:9 113:6 115:1 143:1 150:1 170:3 177:2 220:2 230:1 271:1 286:1 316:2 320:1 321:2 330:6 336:1 360:1 376:1 386:1 422:1 438:1 470:1 554:1 579:1 584:1 600:1 607:1 643:2 698:1 705:1 719:1 756:1 768:1 800:5 814:1 841:1 868:1 922:3 995:1 1023:1 1074:1 1116:1 1140:1 1156:1 1202:1 1233:1 1237:1 1260:1 1294:1 1317:1 1358:2 1373:7 1449:3 1480:2 1555:1 1643:1 1650:4 1687:1 1695:1 1705:4 1859:1 1903:1 1906:5 1946:1 1959:2 1967:1 2013:2 2048:1 2137:1 2276:2 2341:1 2362:6 2384:1 2387:1 2409:2 2465:3 2571:1 2605:1 2626:1 2665:3 
0.1744463029969847 54:1 108:2 113:13 143:3 167:1 170:1 226:5 230:9 245:2 316:2 320:1 347:1 355:1 363:1 417:2 421:2 486:1 496:1 527:1 545:1 800:11 823:5 856:2 888:3 904:4 907:1 927:2 978:1 1026:2 1063:1 1075:1 1140:12 1260:1 1303:2 1343:3 1359:1 1365:2 1366:1 1371:3 1373:14 1381:1 1428:2 1449:5 1486:2 1653:1 1658:1 1677:1 1702:4 1810:4 1833:2 1841:1 1845:6 1865:4 1903:1 1967:1 1980:1 1996:1 2011:4 2104:1 2107:1 2117:1 2126:1 2246:3 2263:1 2338:1 2349:1 2361:2 2362:5 2363:4 2409:1 2416:1 2434:2 2445:2 2466:1 2501:1 2528:2 2542:3 2571:1 
0.001395955740673681 9:1 14:8 36:1 108:4 113:10 143:2 165:1 226:2 230:14 238:1 250:2 274:1 320:1 330:6 355:3 363:1 417:1 421:4 472:1 484:1 492:6 496:1 545:1 548:2 634:1 646:6 659:1 784:2 800:4 818:1 823:4 869:1 888:1 898:2 904:6 907:1 1004:1 1063:6 1075:1 1140:18 1156:2 1165:1 1267:1 1343:2 1366:1 1369:2 1370:2 1371:1 1373:6 1495:1 1653:1 1688:1 1702:4 1724:1 1785:1 1810:4 1833:1 1866:2 1936:1 2029:2 2091:1 2105:1 2108:1 2117:1 2126:1 2308:1 2316:2 2325:1 2356:1 2362:6 2363:4 2392:1 2409:2 2528:2 2542:8 2571:2 2580:2 2582:1 2622:2 
0.01943553753428401 9:4 24:1 108:4 113:3 121:1 141:1 143:1 170:3 226:5 316:1 320:1 321:1 330:5 363:5 369:2 450:1 465:1 469:1 536:3 548:5 549:1 589:1 592:1 646:1 689:2 757:2 800:6 878:2 893:5 945:1 980:1 993:1 1075:1 1115:1 1140:9 1223:1 1343:1 1358:2 1373:4 1449:1 1495:1 1542:1 1702:5 1720:1 1748:1 1810:5 1903:1 1945:1 2029:1 2045:1 2047:1 2061:1 2099:1 2101:1 2106:2 2126:1 2204:1 2344:1 2350:1 2361:1 2362:4 2363:1 2529:2 2564:2 2571:2 2665:2 
0.005521331893401197 47:2 108:4 113:12 135:4 169:1 170:3 266:3 316:2 321:2 330:3 334:1 355:1 369:1 371:1 399:1 401:1 410:2 450:1 465:2 469:1 472:1 615:5 700:1 773:3 776:2 800:10 927:1 942:1 950:1 1027:2 1063:4 1066:2 1076:3 1101:2 1118:1 1156:3 1213:4 1230:1 1238:1 1276:1 1295:2 1305:1 1321:1 1342:1 1373:9 1449:9 1453:3 1494:1 1555:1 1696:2 1791:1 1802:1 1840:1 1862:1 1884:1 1903:2 1973:3 1983:2 1986:1 2055:2 2127:1 2142:2 2180:3 2182:1 2228:1 2282:1 2338:1 2355:2 2362:9 2458:2 2568:1 2627:2 2642:1 2665:4 
0.007046210847902456 108:2 113:6 143:2 190:1 212:1 223:1 250:2 316:4 320:3 321:1 330:4 369:1 456:1 469:1 486:1 496:1 508:3 510:2 561:3 576:1 642:1 712:1 727:1 747:1 800:3 931:1 935:1 960:1 1013:1 1063:1 1129:1 1152:1 1156:1 1210:3 1237:1 1260:2 1325:1 1335:1 1373:8 1394:1 1408:1 1413:1 1414:1 1432:1 1486:5 1586:1 1714:1 1820:5 1902:1 1903:1 1912:1 1946:1 1967:2 2025:3 2075:1 2089:3 2163:1 2168:1 2237:1 2283:1 2361:1 2362:3 2376:1 2409:1 2528:2 2529:2 2585:1 2648:1 2665:1 
0.071411482561189 73:1 108:2 113:3 157:1 250:1 304:1 321:2 322:1 369:1 561:1 800:5 875:1 922:1 982:2 1029:1 1048:1 1171:1 1260:2 1373:2 1401:1 1449:1 1594:1 1607:1 1612:1 1743:1 1748:1 1898:1 1903:1 1967:2 2000:3 2004:1 2070:1 2077:2 2245:1 2362:2 2409:1 2528:1 2593:1 2622:3 2665:1 
0.6219944944576079 9:2 108:1 113:3 143:2 226:2 230:1 250:2 297:1 330:2 355:1 363:1 592:1 757:1 759:1 800:2 866:1 922:1 979:1 1026:1 1075:1 1140:4 1156:1 1447:1 1495:1 1810:1 1846:2 1903:1 2076:1 2099:1 2100:1 2126:1 2192:1 2263:1 2359:1 2362:4 2409:1 2528:2 2622:2 
0.01239104208229387 108:1 113:14 124:3 135:1 143:1 190:1 216:1 230:2 313:1 316:1 320:2 330:2 353:1 355:3 358:2 396:1 399:2 472:5 479:1 486:1 519:7 620:1 653:1 693:1 739:2 770:1 800:3 856:1 904:1 922:2 925:1 928:1 936:1 1023:1 1031:4 1063:2 1067:2 1078:1 1140:3 1156:5 1191:3 1198:1 1254:2 1260:2 1291:1 1311:4 1342:1 1358:3 1359:1 1363:1 1373:22 1388:5 1433:1 1438:1 1447:2 1449:4 1508:1 1568:1 1635:2 1717:1 1738:2 1768:1 1776:1 1802:2 1817:1 1833:2 1840:1 1866:2 1886:1 1903:2 1967:2 2031:1 2056:1 2245:1 2263:1 2332:1 2361:3 2362:6 2372:1 2395:1 2409:4 2417:1 2434:2 2465:1 2522:3 2551:1 2559:4 2571:1 2588:1 2661:1 2665:8 2703:7 
0.5388422332244525 135:2 396:2 1063:2 1073:2 1332:2 1358:2 1373:4 1903:2 2120:1 2486:2 2528:2 
0.03587285449464832 108:2 113:3 170:1 266:2 330:1 355:1 366:1 615:1 773:1 777:2 795:1 800:2 868:1 922:1 950:1 1307:1 1317:1 1336:1 1362:1 1373:3 1446:1 1449:1 1695:1 1891:1 1903:1 1922:1 1979:1 2092:1 2142:1 2171:1 2327:1 2362:2 2385:1 2409:1 2436:1 2528:3 2602:1 2620:1 
0.08247017114168781 76:2 113:6 145:3 256:3 768:1 800:5 896:1 1070:1 1156:1 1358:2 1369:3 1373:5 1579:1 1719:2 1725:3 1840:2 1915:1 1978:3 2029:2 2355:3 2361:2 2362:5 2409:3 2434:2 2647:2 
0.04024133638142254 108:6 113:4 173:1 250:1 284:1 320:1 330:6 360:1 373:1 422:1 465:1 469:1 558:1 629:2 660:1 684:1 725:1 800:2 809:1 842:1 862:1 875:1 922:1 970:1 1036:1 1063:1 1099:1 1156:1 1238:3 1242:1 1257:1 1260:2 1342:1 1373:7 1392:1 1401:1 1446:1 1607:1 1714:1 1802:1 1830:1 1850:1 1903:1 1935:1 1943:1 1944:1 1967:2 2077:2 2116:3 2123:1 2283:1 2362:3 2373:2 2399:1 2409:1 2425:3 2436:1 2528:1 2571:1 2589:1 2605:1 2616:1 2622:6 2642:1 2665:1 2686:1 
0.05162541811365981 108:4 113:3 130:1 135:1 143:2 153:1 170:4 250:1 291:1 303:2 316:2 321:2 330:2 469:1 472:1 476:1 530:1 631:2 727:1 800:6 925:1 969:1 1063:2 1085:1 1116:1 1156:2 1239:1 1336:2 1342:1 1373:9 1376:1 1449:1 1559:1 1584:1 1602:1 1624:1 1695:1 1739:1 1748:1 1749:1 1757:1 1802:1 1809:1 1902:1 1903:1 1909:1 1946:1 1949:2 1964:1 2043:1 2122:2 2163:1 2230:1 2237:1 2360:1 2362:5 2396:1 2429:2 2436:1 2605:1 2626:2 2665:1 
1 113:1 740:2 925:2 929:2 1075:2 1373:4 1561:1 1650:2 1720:1 1846:3 
0.7027283740996098 14:1 108:1 113:4 143:1 226:3 230:4 330:1 358:2 363:1 421:1 496:1 545:1 646:1 679:1 688:3 800:3 823:1 875:1 907:1 1023:1 1063:1 1095:1 1140:5 1156:1 1365:3 1373:2 1449:2 1505:1 1702:1 1810:1 1840:3 2117:1 2126:1 2263:3 2362:8 2381:1 2409:2 2621:1 2673:1 2715:1 
0.05465027832987183 9:1 36:1 108:4 113:2 135:1 143:4 165:1 170:1 226:3 325:1 330:2 355:1 363:2 369:2 504:1 521:1 545:1 615:1 617:1 683:2 737:2 759:1 800:4 888:1 953:2 1026:1 1075:2 1140:4 1156:1 1198:1 1358:1 1365:1 1366:1 1373:4 1449:2 1495:1 1555:1 1677:1 1702:1 1785:1 1810:1 1846:2 1851:1 1903:1 1904:1 1980:1 2029:2 2115:2 2126:3 2192:1 2246:1 2362:2 2416:1 2420:2 2434:2 2529:2 2673:1 2685:2 
0.02714878331724339 108:3 113:8 143:5 146:1 184:1 226:4 230:6 330:4 342:2 355:2 363:2 417:2 421:2 496:1 545:1 592:2 688:1 757:1 779:1 785:1 800:10 823:2 888:1 904:2 945:3 953:2 1063:1 1075:3 1140:10 1156:1 1198:2 1303:5 1343:4 1366:1 1373:4 1406:1 1428:2 1434:2 1449:2 1495:1 1555:1 1650:2 1658:1 1677:1 1702:3 1810:3 1845:2 1846:5 1903:1 2029:2 2076:1 2102:1 2104:1 2126:2 2192:1 2263:1 2362:6 2363:2 2409:2 2416:1 2434:2 2449:1 2520:1 2529:2 2571:2 2617:1 
0.2232037734624593 14:2 35:1 108:2 111:1 113:7 143:4 170:3 219:1 226:6 230:4 330:2 355:2 363:1 381:1 417:2 426:1 428:3 492:1 496:1 545:1 592:1 617:1 773:1 800:7 823:1 888:1 904:4 1026:2 1055:1 1063:2 1075:3 1140:9 1198:5 1327:1 1365:4 1366:1 1373:5 1428:2 1512:1 1555:1 1563:1 1579:1 1623:1 1635:1 1644:2 1653:1 1702:3 1785:1 1810:3 1822:1 1833:2 1836:1 1846:3 1865:2 1866:1 1980:1 1991:2 2061:1 2110:1 2117:1 2126:2 2192:1 2263:1 2362:6 2409:2 2417:2 2434:2 2542:1 2571:2 2612:1 2673:1 2720:1 
0.1572739962131136 113:1 661:2 740:2 925:2 929:2 1075:2 1373:4 1574:1 1834:1 1846:3 2124:2 
0.05481641502274085 82:2 108:1 113:4 316:1 320:1 324:1 330:1 369:1 470:2 562:1 730:2 800:1 816:2 848:2 1140:2 1260:1 1373:5 1571:1 1572:1 1618:1 1696:2 1714:1 1846:1 1959:1 1967:1 1978:2 2003:2 2032:1 2255:1 2353:1 2362:2 2434:2 2661:1 
0.01822521984929117 102:1 108:10 113:6 143:3 153:3 160:1 250:1 316:2 330:2 410:1 422:1 446:1 497:1 501:1 503:1 572:1 756:1 831:2 859:1 870:2 922:1 930:1 938:1 975:1 1025:2 1063:1 1156:2 1188:1 1238:1 1250:1 1342:1 1373:7 1430:1 1446:1 1449:1 1537:1 1597:1 1599:1 1613:1 1688:1 1760:1 1838:1 1858:1 1859:1 1956:1 1963:1 2005:1 2010:1 2046:1 2057:4 2220:1 2271:3 2335:1 2359:2 2362:2 2380:1 2391:1 2396:1 2402:1 2409:1 2452:1 2528:1 2571:1 2605:1 2622:8 2639:1 
0.2431030985713457 71:1 108:5 113:3 143:1 250:2 256:1 286:1 320:1 322:1 330:3 345:1 359:1 369:1 380:1 469:1 472:1 498:1 579:1 709:1 791:1 800:2 875:1 903:1 922:1 1048:1 1156:1 1202:1 1260:1 1309:1 1342:1 1373:5 1445:1 1447:1 1449:1 1469:1 1537:1 1555:1 1594:1 1607:1 1613:1 1652:1 1705:1 1743:1 1838:1 1903:2 1934:1 1943:1 1967:1 2061:1 2073:1 2122:2 2239:1 2245:1 2362:3 2409:1 2441:1 2462:1 2528:1 2529:1 2616:1 2622:3 2665:1 2682:1 
0.02465317598059682 108:6 113:7 115:1 143:2 161:3 170:2 267:1 303:1 330:5 469:1 600:3 800:9 860:1 865:2 889:1 922:1 975:1 1037:1 1063:1 1129:1 1147:1 1154:1 1156:2 1172:1 1200:1 1203:1 1223:1 1252:1 1258:1 1260:3 1276:1 1297:1 1342:1 1373:5 1385:1 1387:3 1446:2 1449:3 1463:1 1502:1 1535:1 1537:1 1612:2 1650:3 1695:1 1756:1 1768:1 1830:1 1852:1 1853:1 1883:1 1903:1 1929:1 1931:1 1967:3 1969:2 2028:1 2123:1 2283:1 2309:2 2341:1 2346:1 2362:7 2363:1 2366:1 2380:1 2409:2 2479:5 2504:2 2629:1 2694:1 
1 113:3 144:1 280:2 356:2 929:1 1650:2 2115:2 2409:2 
0.1326833356839821 2:3 14:1 113:4 143:4 330:2 617:2 646:1 653:4 707:1 800:4 843:1 888:3 922:1 1023:2 1140:2 1274:1 1366:1 1373:4 1375:3 1425:2 1440:1 1528:2 1717:1 1723:3 1833:3 1840:3 1842:1 2086:1 2117:1 2195:2 2411:2 2434:2 2488:1 2493:1 2599:1 2603:1 
0.1485776158362992 16:1 33:1 108:3 113:6 135:1 143:2 169:1 170:1 310:2 321:1 322:1 330:4 365:1 375:1 399:1 401:1 410:1 517:1 686:8 800:2 922:2 940:1 1027:1 1063:1 1121:1 1325:1 1342:2 1362:4 1373:12 1449:1 1460:1 1512:1 1555:1 1597:1 1645:3 1649:1 1652:2 1653:7 1849:1 1903:2 1937:1 1973:1 1979:1 2286:2 2328:1 2338:1 2362:5 2387:1 2409:2 2430:2 2490:1 2548:3 2636:1 2683:1 2705:1 
0.02108967424325475 11:1 41:1 94:7 108:9 113:10 143:3 173:2 183:1 250:2 315:1 316:1 322:1 330:3 369:2 480:1 488:1 503:1 534:1 563:3 611:1 629:1 660:1 702:1 712:1 763:1 800:3 803:1 807:1 853:3 868:1 875:1 877:1 897:1 903:1 908:1 969:1 1065:1 1099:1 1144:1 1156:2 1202:1 1260:1 1270:1 1342:4 1372:1 1373:2 1374:1 1392:1 1401:1 1446:1 1449:3 1555:1 1705:2 1781:1 1795:1 1797:1 1903:1 1945:1 1949:2 1965:2 1967:1 1975:1 1984:1 2210:2 2239:1 2348:1 2362:2 2380:1 2396:3 2401:1 2409:2 2429:2 2432:2 2485:2 2504:2 2554:1 2571:1 2596:3 2675:1 
0.0329633432742319 108:3 113:5 143:4 216:1 250:2 316:1 321:2 330:2 331:1 346:1 462:1 517:1 597:5 748:1 800:3 1023:1 1063:1 1129:1 1199:1 1269:1 1335:1 1373:3 1452:2 1555:1 1705:1 1712:1 1795:1 1817:2 1894:1 1903:1 2116:2 2125:1 2152:1 2362:4 2409:1 2473:1 2493:2 2528:2 2583:3 2622:4 2665:1 
0.03613089977865275 9:2 14:2 35:1 108:4 113:6 143:5 165:1 226:5 230:6 236:2 250:2 321:1 330:2 342:1 355:3 363:2 417:2 421:4 428:2 496:1 545:1 592:1 646:2 688:2 757:1 779:1 780:1 800:12 818:1 823:1 888:1 904:3 998:2 1063:3 1075:2 1140:10 1156:1 1198:1 1343:3 1365:2 1366:1 1371:1 1373:7 1410:1 1431:2 1449:3 1495:1 1637:2 1642:1 1677:1 1702:4 1785:1 1810:4 1846:7 1865:1 1877:1 1936:1 1945:2 1949:2 2003:1 2016:1 2021:1 2076:1 2103:1 2104:1 2117:1 2126:2 2192:1 2231:1 2245:1 2263:2 2314:2 2359:1 2361:4 2362:6 2363:4 2409:1 2416:1 2429:2 2434:2 2542:3 2582:1 2673:1 
0.06035595025869097 25:1 26:1 108:3 113:7 115:1 135:1 143:1 170:1 230:1 322:3 324:1 330:2 354:1 364:2 369:1 370:1 384:1 385:2 577:3 602:1 639:1 648:1 772:1 800:11 823:1 824:1 868:1 877:1 904:1 922:1 924:1 1055:1 1063:3 1140:1 1156:1 1185:1 1204:1 1236:1 1238:1 1240:1 1373:7 1440:1 1449:4 1493:1 1525:1 1555:1 1569:1 1634:1 1696:1 1760:1 1810:1 1901:2 1903:1 1972:1 2075:1 2133:1 2150:3 2173:1 2310:1 2362:9 2380:1 2396:1 2463:1 2470:1 2492:1 2536:1 2569:1 2594:1 2596:1 2615:1 2621:1 2665:1 2672:1 
0.03750593785549911 86:1 108:1 113:4 135:1 143:1 320:1 321:1 330:3 358:2 398:1 420:1 422:1 440:1 456:1 469:1 770:1 800:4 868:1 875:1 922:1 937:1 1063:1 1156:1 1242:2 1260:3 1277:1 1342:1 1359:1 1373:2 1446:1 1447:1 1637:2 1903:1 1908:1 1967:3 1999:3 2225:1 2254:1 2362:2 2409:1 2571:1 2621:1 2646:1 2665:1 2687:1 
1 113:1 144:1 280:2 356:2 893:2 929:1 1358:2 2115:2 
0.1108297213412833 14:1 36:4 92:2 108:1 113:5 121:1 143:6 230:2 234:1 320:2 321:2 322:2 330:2 353:1 417:1 617:2 620:1 646:2 659:4 729:5 759:1 800:8 818:1 843:1 888:4 907:2 1023:3 1026:4 1063:1 1140:4 1260:1 1274:1 1343:4 1358:1 1373:10 1375:3 1431:1 1449:4 1493:2 1570:1 1579:1 1637:4 1717:1 1719:1 1745:1 1840:5 1842:4 1967:1 1976:2 2117:1 2131:1 2314:5 2315:4 2362:5 2434:2 2437:2 2470:1 2496:1 2501:1 2517:1 2571:2 2685:2 2715:4 
0.1135694712747573 2:1 14:1 46:1 108:1 113:1 143:2 417:1 612:2 615:1 617:1 800:3 882:1 888:2 922:1 1023:1 1274:1 1366:1 1373:3 1375:2 1425:1 1528:2 1833:3 1840:2 1866:3 1926:1 2007:3 2086:1 2117:1 2195:2 2312:1 2488:1 2493:1 2599:1 2603:1 
0.3308890486001578 14:2 35:1 46:1 108:1 111:1 113:8 143:4 146:1 155:1 170:1 226:3 230:6 266:1 320:1 322:1 325:1 330:1 355:1 363:1 378:1 395:1 417:1 421:2 428:1 443:2 486:1 496:1 545:1 592:1 615:2 688:1 729:3 746:1 773:1 800:7 856:2 857:1 888:1 904:1 910:1 945:1 1026:1 1063:1 1075:2 1140:9 1156:1 1198:2 1260:2 1315:1 1343:4 1366:1 1373:6 1428:1 1495:1 1555:1 1623:1 1637:1 1644:2 1702:2 1714:1 1768:1 1793:1 1810:2 1822:1 1846:3 1856:1 1865:2 1866:2 1886:1 1967:2 1990:1 1992:1 2003:1 2011:1 2117:1 2126:2 2192:1 2263:2 2314:1 2361:2 2362:11 2363:2 2409:2 2434:2 2441:1 2530:2 2542:2 
0.3578364466984105 14:2 108:6 113:7 143:6 226:5 236:2 342:1 355:3 363:2 381:1 417:1 421:2 492:2 496:1 545:1 592:1 688:2 757:1 800:8 818:1 888:1 904:3 1055:1 1063:2 1075:2 1140:8 1156:2 1198:1 1303:6 1343:2 1365:1 1366:1 1369:2 1373:3 1428:2 1434:2 1555:1 1637:2 1650:2 1677:1 1702:2 1785:1 1810:2 1846:4 1903:1 1980:1 2102:1 2108:1 2126:2 2192:1 2231:2 2246:1 2263:2 2356:1 2361:2 2362:8 2363:2 2409:2 2416:1 2434:2 2571:2 2673:1 
0.03150986558277638 14:1 108:2 113:8 143:5 226:2 330:3 355:2 363:4 369:2 381:1 417:2 492:1 496:1 545:1 738:2 757:2 800:8 818:1 823:1 888:1 893:2 904:3 907:1 990:1 1055:1 1063:3 1075:3 1140:9 1198:2 1343:3 1365:1 1366:1 1373:5 1428:1 1446:1 1555:1 1637:1 1677:1 1696:2 1702:4 1785:1 1810:4 1833:2 1845:1 1846:6 1865:1 1866:2 1903:1 1904:2 1980:1 2075:1 2126:2 2192:1 2204:1 2263:2 2314:1 2350:1 2361:2 2362:6 2363:2 2416:1 2434:2 2542:2 2607:1 2673:1 
0.07287340359420864 19:1 108:3 113:4 135:2 216:1 316:1 321:1 322:1 330:2 346:1 561:1 800:3 846:1 1027:1 1071:1 1076:1 1139:1 1151:1 1192:1 1342:1 1358:1 1362:1 1373:5 1449:2 1472:1 1553:1 1697:1 1864:1 1891:1 1907:1 1930:2 1976:1 1979:2 2067:1 2142:1 2182:2 2328:1 2362:3 2446:1 2483:1 2592:1 2602:2 2627:2 2665:3 2685:3 
0.04645296562447487 7:1 46:1 54:1 76:1 105:1 108:3 113:7 143:3 157:2 170:1 230:2 268:1 270:1 276:1 316:2 321:3 330:6 353:1 365:1 374:6 405:1 434:2 469:3 470:2 472:1 479:5 635:1 647:1 668:6 674:1 688:1 719:1 726:2 733:1 750:1 800:3 856:2 922:1 956:1 1063:4 1140:4 1156:1 1198:3 1232:2 1260:3 1291:1 1298:1 1322:1 1358:5 1363:1 1373:2 1440:1 1446:2 1449:3 1557:1 1590:1 1696:1 1702:1 1764:1 1768:1 1772:1 1810:1 1817:2 1886:1 1903:1 1916:1 1922:1 1967:3 2037:1 2068:1 2115:1 2144:1 2323:1 2325:2 2339:1 2358:1 2362:5 2363:1 2387:2 2445:2 2494:6 2527:1 2556:1 2570:1 2608:1 2621:1 2665:3 2669:1 
0.1388978755355301 54:1 76:2 113:9 220:1 330:2 470:1 479:1 768:1 800:4 874:1 896:1 1063:1 1070:1 1106:1 1156:2 1260:1 1291:2 1298:1 1373:2 1435:1 1446:1 1483:2 1579:1 1651:3 1696:3 1717:1 1842:2 1865:1 1915:2 1916:1 1967:1 2056:3 2144:1 2361:2 2362:4 2434:2 2527:1 2571:3 
0.01851074596368386 1:1 54:1 76:1 108:3 109:1 113:10 119:5 143:2 198:1 225:1 230:2 268:2 276:1 321:1 355:1 417:2 470:1 479:4 520:2 584:1 647:1 726:2 733:1 764:2 768:1 800:8 823:2 956:1 1001:1 1140:3 1198:3 1232:1 1260:2 1266:1 1271:4 1299:2 1347:1 1373:2 1467:1 1579:2 1696:1 1817:2 1894:1 1915:1 1967:2 2056:1 2068:1 2115:1 2358:2 2361:1 2362:6 2380:1 2409:3 2434:2 2556:1 2562:1 2621:1 2647:1 2650:1 2702:1 2715:1 
0.07495384405132778 109:2 268:2 479:4 615:2 647:2 726:2 826:2 925:1 956:2 1198:2 1260:2 1489:2 1591:1 1967:2 2115:2 2439:2 2556:2 
0.02255205942908658 1:1 32:5 54:1 108:3 109:1 113:12 134:1 135:1 139:1 143:2 230:1 246:1 268:2 276:1 320:3 321:1 330:8 355:1 369:2 397:1 469:1 470:2 472:3 479:6 520:5 565:1 647:1 651:1 726:2 733:2 762:3 764:5 800:8 823:2 856:1 904:1 945:1 956:1 1057:1 1063:2 1079:1 1129:1 1133:1 1140:2 1156:3 1198:3 1232:2 1249:1 1260:5 1322:1 1358:1 1363:2 1373:7 1417:1 1433:3 1446:2 1449:5 1482:3 1568:1 1614:1 1696:1 1703:1 1714:1 1748:1 1756:1 1817:1 1833:2 1834:1 1866:1 1967:5 2068:1 2070:1 2115:1 2144:1 2207:1 2355:3 2356:1 2358:2 2362:6 2380:1 2409:1 2434:2 2478:2 2527:2 2556:1 2565:6 2621:2 2665:2 2715:1 
0.01105445002156495 76:1 105:2 108:7 113:6 117:1 124:4 135:1 143:4 170:1 220:1 230:10 320:1 322:1 330:2 355:1 410:2 469:3 470:2 472:2 479:1 584:1 733:1 768:1 800:6 833:4 851:1 922:1 936:1 997:1 1027:1 1031:1 1063:4 1090:2 1101:1 1129:1 1140:5 1156:3 1223:1 1238:3 1260:6 1291:1 1347:1 1358:2 1363:1 1373:9 1376:1 1414:3 1435:1 1446:1 1447:1 1449:1 1475:2 1483:1 1569:2 1575:1 1590:2 1718:1 1722:1 1811:1 1833:5 1845:1 1903:1 1915:1 1916:3 1935:1 1967:6 1983:1 2002:2 2056:3 2144:1 2180:1 2194:6 2286:2 2306:1 2318:1 2325:1 2355:2 2361:1 2362:8 2449:2 2527:1 2571:3 2575:1 2621:1 2647:1 2665:8 
0.05726496472345054 1:1 54:1 109:1 113:6 268:2 330:2 479:5 615:2 647:1 726:1 768:1 800:1 896:1 956:1 1070:1 1156:3 1198:2 1260:4 1373:3 1440:1 1467:1 1539:3 1579:1 1591:1 1652:3 1709:3 1937:3 1967:4 2115:1 2361:1 2362:1 2377:3 2407:3 2409:2 2434:2 2478:2 2526:3 2527:2 2556:1 
0.4807062208234089 21:1 113:4 170:1 260:1 268:1 374:3 375:1 472:1 479:4 623:1 647:1 668:3 726:1 922:1 956:1 1007:1 1063:1 1154:1 1156:1 1198:1 1260:3 1446:1 1447:1 1556:1 1557:1 1696:1 1903:1 1967:3 2115:1 2378:1 2409:2 2527:1 2556:1 2647:1 2665:1 
0.06338609953988661 108:1 113:1 240:1 316:3 330:1 346:1 469:1 488:1 493:1 615:1 800:2 1063:3 1252:1 1342:1 1373:2 1449:2 1632:1 1652:1 1697:1 1907:1 1989:1 2115:1 2344:1 2362:2 2602:1 2665:1 2685:3 
0.04412876487001341 1:1 54:1 108:1 113:12 134:1 143:2 200:1 226:1 230:2 266:1 268:2 276:1 321:1 324:1 330:3 369:1 397:1 469:1 479:4 561:1 647:1 693:1 726:2 770:1 773:1 798:7 800:4 823:1 826:3 956:1 1133:1 1140:3 1156:2 1180:1 1198:3 1260:2 1277:1 1291:1 1365:1 1373:2 1417:1 1440:5 1446:1 1449:1 1557:1 1605:3 1614:1 1707:1 1817:1 1826:1 1903:1 1915:1 1967:2 2030:1 2037:1 2068:1 2115:1 2190:1 2263:1 2335:1 2358:1 2362:4 2409:2 2439:3 2499:1 2556:1 2571:2 2665:1 
0.04490820450064414 1:1 5:1 93:1 108:2 113:11 135:1 143:3 146:1 150:1 170:4 185:1 208:1 216:1 230:1 246:1 268:2 276:1 289:1 316:1 330:7 364:4 369:2 397:2 465:1 470:1 472:2 479:5 520:1 584:1 615:1 647:1 698:1 704:1 726:2 764:5 768:1 800:11 811:2 815:1 868:1 927:1 956:1 1063:2 1083:1 1121:5 1122:1 1123:1 1140:2 1156:2 1174:1 1198:3 1214:1 1249:1 1260:4 1277:1 1281:1 1291:1 1358:2 1373:12 1417:1 1433:5 1440:1 1446:2 1449:6 1504:1 1524:1 1557:1 1573:1 1688:1 1695:1 1696:1 1711:1 1752:2 1760:1 1826:1 1833:1 1916:1 1967:4 2002:1 2007:1 2068:1 2075:1 2115:1 2127:1 2141:3 2144:1 2211:1 2268:1 2338:1 2362:3 2451:1 2499:1 2527:1 2556:1 2596:1 2634:2 2661:1 2665:2 2668:1 2715:2 
0.05214359960238047 1:1 54:1 108:1 113:2 220:1 268:2 320:1 330:1 397:1 470:1 479:4 644:2 647:1 726:1 768:1 800:1 826:2 896:1 925:1 956:1 1054:1 1156:2 1198:2 1260:3 1291:1 1311:2 1373:3 1435:1 1489:3 1557:1 1579:1 1661:3 1922:1 1967:3 2115:1 2362:1 2439:2 2481:2 2527:1 2556:1 2635:3 2665:1 
1 1:1 4:2 7:1 49:1 71:3 108:3 113:10 125:3 143:3 170:2 230:1 268:2 276:1 321:3 330:6 353:1 355:1 363:1 376:1 399:1 469:3 470:3 472:1 479:5 530:1 584:1 647:1 686:4 698:2 725:1 726:2 733:1 750:1 800:6 820:1 821:2 856:1 875:1 904:1 924:1 930:1 956:1 995:1 1026:1 1063:3 1140:2 1152:1 1156:1 1198:3 1223:1 1238:3 1260:4 1281:1 1291:2 1294:1 1298:1 1327:1 1363:2 1373:7 1410:1 1446:2 1449:3 1458:1 1557:1 1597:2 1636:1 1653:1 1760:2 1802:1 1827:5 1837:5 1853:1 1859:1 1861:1 1903:2 1922:1 1929:1 1967:4 2068:1 2088:2 2115:1 2144:2 2159:2 2206:1 2285:1 2325:1 2338:1 2362:5 2387:1 2409:4 2445:1 2451:2 2512:2 2556:1 2594:1 2621:1 2665:4 2682:1 
0.004643822046203491 102:1 104:1 108:3 113:10 121:2 135:2 140:1 143:2 146:1 157:5 170:1 203:1 265:1 266:1 268:2 276:1 289:1 316:1 320:1 322:2 330:3 369:3 378:1 479:3 488:1 530:1 569:1 647:1 672:1 726:2 733:1 744:5 762:1 764:5 773:1 800:9 823:1 856:2 896:1 956:1 1053:1 1083:1 1140:4 1156:3 1180:1 1198:2 1199:1 1235:1 1260:2 1291:1 1311:1 1314:2 1344:1 1358:2 1363:1 1373:8 1433:1 1444:1 1449:3 1493:1 1504:1 1623:1 1693:1 1696:2 1697:1 1702:1 1765:1 1768:1 1772:3 1810:2 1822:1 1833:2 1842:1 1886:2 1967:2 2007:1 2068:1 2115:1 2194:1 2281:2 2325:2 2361:1 2362:9 2363:1 2434:2 2445:1 2456:1 2556:1 2562:1 2596:1 2661:1 2673:1 2702:1 
0.08635259801079488 1:1 108:1 109:1 113:5 143:1 230:1 246:1 255:1 268:2 276:1 319:1 330:1 420:1 472:1 479:4 639:1 647:1 651:2 726:2 764:4 800:2 956:1 1047:3 1140:2 1196:3 1198:3 1223:1 1260:2 1311:3 1373:6 1449:1 1579:1 1676:2 1696:2 1746:1 1752:3 1867:2 1873:3 1903:1 1967:2 2037:1 2068:1 2115:1 2325:1 2361:1 2362:3 2434:2 2555:1 2556:1 2647:1 
0.101894449992811 1:1 108:1 113:4 143:1 230:1 246:1 255:1 268:2 276:1 319:1 330:1 420:1 479:4 639:1 647:1 651:1 726:2 764:3 800:2 956:1 1047:2 1140:2 1196:2 1198:3 1223:1 1260:2 1311:2 1373:4 1449:1 1557:1 1676:1 1696:2 1746:1 1752:2 1867:2 1873:2 1903:1 1967:2 2037:1 2068:1 2115:1 2325:1 2362:2 2556:1 
0.01435330106321932 36:1 108:1 113:4 133:2 143:3 226:3 230:2 321:1 322:1 330:8 363:1 369:2 469:3 517:1 567:1 592:1 615:1 646:1 701:1 733:2 757:3 759:1 778:1 781:1 800:6 897:2 922:1 979:1 1026:1 1075:1 1140:8 1156:1 1373:6 1410:3 1644:2 1658:1 1702:2 1810:2 1841:5 1866:3 1903:1 1980:2 2023:1 2061:3 2070:1 2076:1 2104:1 2126:2 2144:2 2216:2 2246:2 2362:4 2459:1 2465:2 2502:1 2529:1 2665:1 
0.1802563797999916 1:1 113:8 143:1 220:1 230:1 268:2 276:1 320:1 330:1 393:3 414:4 470:1 479:4 647:1 726:2 731:1 760:1 764:1 800:3 956:1 1057:2 1140:2 1198:3 1260:2 1435:1 1440:1 1449:1 1482:1 1504:1 1557:1 1696:1 1817:1 1833:2 1916:1 1967:2 2068:1 2115:1 2167:2 2362:4 2456:1 2556:1 2562:2 2621:1 2702:1 
0.07497438025515507 1:1 7:1 109:1 113:8 117:1 143:1 230:1 268:2 276:1 320:1 330:1 410:2 470:1 472:1 479:6 615:3 647:1 726:2 800:1 823:1 922:1 925:1 956:1 1063:1 1140:2 1198:3 1260:4 1322:1 1358:2 1373:4 1447:1 1449:1 1569:2 1676:1 1696:3 1740:3 1826:1 1903:1 1916:1 1967:4 2068:1 2115:1 2325:1 2355:5 2361:1 2362:2 2409:2 2434:2 2527:1 2556:1 2647:1 
0.4454236761924598 1:1 76:2 98:1 100:1 109:1 113:11 135:1 143:2 220:1 230:1 250:4 268:2 276:1 320:1 321:1 330:3 349:2 354:1 369:1 390:1 397:1 412:3 470:2 479:5 506:1 584:1 647:1 726:2 729:1 750:1 766:3 768:1 800:4 823:1 898:1 924:1 936:1 956:1 1063:4 1140:2 1156:1 1182:1 1185:2 1198:3 1260:4 1291:1 1347:1 1363:2 1373:6 1435:1 1444:1 1449:2 1739:1 1760:1 1915:1 1949:7 1955:3 1967:4 2056:3 2067:1 2068:1 2115:1 2164:2 2194:2 2230:3 2325:1 2362:5 2393:1 2396:1 2409:5 2429:5 2434:2 2525:3 2527:1 2538:3 2556:1 2665:2 2675:1 
0.001870081101202851 76:1 108:5 109:1 113:13 170:1 208:2 230:1 265:1 268:1 276:1 309:1 322:1 330:4 399:1 469:1 470:1 472:2 479:5 520:1 565:1 614:6 623:1 647:1 693:1 726:2 733:1 764:7 768:1 800:9 811:4 856:1 936:1 956:1 1063:3 1140:3 1156:6 1198:2 1224:1 1260:6 1277:1 1291:2 1298:1 1315:1 1358:2 1373:5 1417:2 1446:1 1467:1 1475:1 1504:1 1614:2 1693:1 1696:2 1702:1 1768:1 1810:1 1826:1 1915:1 1916:1 1922:1 1967:6 2037:2 2068:1 2115:1 2266:1 2304:1 2318:1 2343:1 2361:2 2362:6 2363:1 2387:1 2409:4 2428:1 2434:2 2527:2 2553:1 2556:1 2621:2 2634:1 2647:1 2665:3 2679:1 
0.2840026005945521 108:3 113:6 133:3 143:6 185:1 208:2 226:3 230:5 232:1 258:2 320:4 330:2 363:3 369:1 403:2 421:1 496:1 515:1 545:2 646:2 729:2 759:2 782:1 800:8 823:2 888:2 904:7 907:4 1026:3 1140:11 1343:1 1373:13 1434:1 1442:1 1449:1 1465:1 1505:2 1579:2 1637:2 1653:2 1677:2 1702:5 1810:5 1833:4 1840:3 1866:2 1900:1 1998:1 2117:1 2314:1 2362:7 2363:2 2542:3 2557:1 2571:2 
0.8072025968426252 49:2 113:3 135:2 321:2 358:2 472:2 591:2 800:4 1044:2 1140:2 1156:2 1449:2 1563:2 2068:2 2266:2 2362:4 2409:2 2537:2 2586:2 2704:2 
1 49:2 113:3 135:2 321:2 472:2 591:2 800:4 1044:2 1140:2 1156:2 1440:2 1449:2 1563:2 1652:2 1937:2 2068:2 2266:2 2362:4 2526:2 2537:2 2586:2 2704:2 
0.5803498708312179 113:3 135:2 591:2 800:2 1044:2 1063:2 1140:2 1440:2 1449:2 1652:2 1937:2 2068:2 2362:2 2526:2 2537:2 2586:2 
1 49:2 113:3 135:2 321:2 358:2 472:2 591:2 800:4 1044:2 1140:2 1156:2 1268:2 1449:2 1563:2 2068:2 2266:2 2362:4 2409:2 2537:2 2586:2 2704:2 
0.3796553493841575 113:3 135:2 358:2 591:2 800:2 1044:2 1063:2 1140:2 1449:2 1811:2 2068:2 2362:2 2409:2 2537:2 2586:2 
0.03160656441815547 46:1 108:4 113:4 134:1 135:1 143:2 151:1 170:2 202:1 319:1 330:3 333:1 348:1 355:1 369:3 372:1 378:1 409:3 413:1 431:1 441:1 443:1 472:1 570:2 571:1 615:1 764:5 800:6 841:1 890:1 922:4 963:1 1007:1 1063:3 1098:1 1156:2 1342:1 1358:1 1369:1 1373:4 1449:4 1583:1 1599:1 1625:1 1696:1 1703:1 1726:1 1733:2 1754:1 1768:1 1773:1 1804:1 1817:1 1886:1 1950:1 2097:1 2142:1 2186:1 2237:1 2333:1 2343:4 2361:1 2362:5 2363:1 2368:1 2385:1 2387:1 2392:1 2434:2 2524:1 2537:1 2551:1 2595:1 2627:1 2630:1 2647:1 2651:1 2679:1 
0.03618778958806673 113:3 135:2 800:2 1044:2 1063:2 1140:2 1449:2 1624:2 1651:2 1696:2 1766:2 1966:2 2068:2 2362:2 
0.2902829252768697 113:3 135:2 591:2 764:2 800:2 1044:2 1063:2 1140:2 1449:2 1696:2 2068:2 2362:2 2537:2 2586:2 
0.4753536034103621 113:3 135:2 764:2 800:2 1044:2 1063:2 1140:2 1449:2 1624:2 1696:2 1766:2 1966:2 2068:2 2362:2 
0.1220546464194359 113:3 135:2 505:2 764:2 800:2 1044:2 1063:2 1140:2 1449:2 1696:2 1715:2 1966:2 2068:2 2362:2 2537:2 
0.8666412380938742 113:3 135:2 764:2 800:2 1044:2 1063:2 1140:2 1449:2 1624:2 1696:2 1766:2 1811:2 1966:2 2068:2 2362:2 
0.05693048873346746 108:1 113:4 143:2 170:2 194:1 220:1 288:1 316:1 320:2 330:1 359:1 376:2 462:1 469:1 470:1 536:1 600:1 698:1 800:3 821:1 922:1 1063:1 1117:1 1134:1 1156:2 1336:1 1363:1 1373:1 1387:1 1392:1 1446:1 1480:1 1530:1 1641:1 1650:4 1686:3 1705:1 1903:1 2157:1 2289:1 2362:1 2409:1 2571:2 2577:1 2628:1 2665:2 
0.5144791481880991 97:2 113:3 135:2 396:2 577:2 800:2 1044:2 1063:2 1140:2 1449:2 1624:2 1696:2 1966:2 2068:2 2362:2 
1 49:2 97:2 113:3 135:2 321:2 396:2 472:2 577:2 800:4 1044:2 1140:2 1156:2 1449:2 1563:2 1696:2 1966:2 2068:2 2266:2 2362:4 2537:2 2704:2 
1 113:1 259:2 741:2 929:2 957:2 1075:2 1358:2 1373:4 1846:3 
0.070182151393336 41:1 108:1 113:4 135:1 158:2 170:2 248:2 269:2 308:1 316:2 330:1 472:1 480:1 509:4 615:1 735:1 791:1 800:4 875:1 922:1 975:1 1063:1 1156:1 1203:2 1258:1 1320:1 1373:3 1447:1 1485:1 1516:1 1650:3 1695:1 1705:1 1903:1 1964:1 2087:1 2157:1 2234:1 2251:1 2280:1 2361:3 2362:5 2409:1 2465:2 2563:1 2692:1 
0.002421526933451096 14:1 54:1 73:1 76:3 108:2 113:15 143:4 190:6 220:1 226:1 230:4 260:1 321:2 325:2 330:7 358:7 363:2 405:1 434:1 450:1 469:1 470:2 472:1 497:1 526:1 568:1 733:4 797:1 800:8 820:1 823:1 851:1 904:1 924:1 936:1 945:1 1023:1 1063:4 1140:5 1156:3 1232:1 1249:1 1291:3 1298:1 1310:2 1317:1 1319:1 1347:1 1363:1 1368:1 1373:2 1414:4 1435:1 1446:1 1449:6 1467:1 1504:1 1817:2 1826:1 1846:2 1915:2 1916:1 1959:1 2003:2 2076:1 2144:1 2206:1 2285:1 2308:1 2325:2 2339:2 2359:1 2361:4 2362:8 2376:2 2409:3 2431:1 2434:2 2570:1 2571:4 2665:1 
1 108:1 113:2 170:1 280:1 320:1 355:1 356:1 800:1 875:1 929:1 961:1 1167:1 1200:1 1650:1 1791:1 2115:1 2362:1 2409:1 2664:1 
0.04710623206033798 71:1 108:1 113:3 137:1 143:6 170:1 236:2 308:1 316:1 321:1 330:6 435:1 469:1 509:1 530:1 540:2 727:1 800:6 922:1 971:1 1012:1 1037:2 1063:1 1171:1 1190:1 1242:1 1260:2 1261:1 1403:1 1446:2 1447:1 1449:1 1531:1 1624:1 1650:3 1705:1 1728:1 1903:1 1954:2 1967:2 2048:1 2057:1 2120:1 2251:1 2289:2 2362:3 2366:1 2409:1 2569:1 2679:1 2684:1 
0.01948176802438487 2:1 52:1 98:1 108:1 113:5 143:3 212:1 253:1 266:1 321:2 322:1 325:3 330:3 331:1 472:1 479:3 539:3 571:1 768:1 773:1 795:1 800:5 904:1 952:1 1007:1 1015:2 1026:1 1161:1 1167:1 1198:2 1310:1 1314:1 1370:1 1373:11 1377:1 1410:1 1424:1 1449:1 1515:1 1533:1 1535:1 1568:2 1784:1 1817:1 1834:2 1848:1 1865:1 1866:1 1960:2 1977:1 1988:1 2003:1 2113:1 2233:1 2280:1 2300:2 2306:1 2362:4 2363:2 2385:1 2434:2 2543:1 2679:1 2683:1 
0.2937705063979099 67:1 113:4 121:1 149:1 170:1 266:1 320:1 325:2 330:3 426:3 539:2 588:1 617:1 773:1 800:2 907:1 1140:3 1156:2 1373:5 1431:1 1446:1 1558:1 1572:2 1693:1 1702:1 1724:1 1768:1 1810:1 1839:1 1851:1 2059:1 2110:1 2120:1 2197:1 2325:1 2361:3 2362:3 2417:2 2571:1 2712:1 
0.09512239079727587 9:1 24:1 46:1 86:1 90:2 108:3 113:8 121:1 135:1 143:5 161:1 170:1 226:1 316:2 320:2 322:1 325:3 328:1 330:3 348:1 355:2 358:2 369:1 420:1 466:1 469:1 495:2 586:1 596:2 653:1 701:1 800:7 896:3 897:1 922:1 937:1 945:1 964:6 969:1 985:1 1068:1 1082:1 1105:1 1106:1 1111:1 1156:2 1158:2 1170:1 1171:2 1187:1 1202:1 1219:2 1238:1 1240:1 1260:4 1342:1 1373:8 1446:1 1447:2 1449:2 1695:1 1721:1 1723:1 1846:1 1903:1 1967:4 2001:1 2038:1 2076:1 2120:1 2142:1 2152:1 2192:1 2213:1 2225:1 2231:1 2304:1 2308:1 2348:2 2361:2 2362:5 2378:1 2409:2 2417:2 2428:1 2501:1 2541:1 2551:1 2554:1 2571:1 2630:1 2646:3 2665:2 
0.008378729694180596 17:2 108:5 113:8 143:4 153:1 159:1 164:1 271:1 316:3 322:1 330:4 351:1 422:1 469:2 472:1 526:1 561:2 642:1 685:1 800:2 954:2 973:1 1063:2 1130:3 1137:4 1156:3 1171:5 1185:1 1242:1 1260:10 1336:3 1373:2 1446:1 1449:1 1478:1 1486:5 1555:1 1663:1 1705:1 1903:1 1967:10 2048:1 2061:1 2069:1 2082:3 2089:1 2120:1 2122:1 2196:1 2240:1 2277:1 2330:1 2348:1 2409:4 2477:1 2528:2 2558:1 2561:2 2594:1 2626:1 2628:1 2665:3 
0.06322593103292873 69:4 108:4 113:4 143:2 170:2 195:2 212:1 316:1 322:1 330:4 354:1 359:1 369:3 376:1 497:1 509:1 526:1 530:1 540:1 572:1 600:1 800:3 818:1 835:1 922:1 924:1 953:1 965:1 971:1 996:1 1167:1 1190:1 1212:1 1238:1 1261:1 1317:1 1342:1 1373:6 1403:1 1411:1 1431:1 1446:1 1449:1 1514:1 1530:1 1537:1 1568:1 1594:1 1613:1 1643:1 1650:4 1652:1 1686:1 1705:1 1721:1 1728:2 1745:1 1757:1 1768:2 1831:1 1852:1 1903:1 1914:1 1915:1 1929:1 2075:1 2076:1 2095:1 2157:1 2247:1 2253:1 2289:1 2323:1 2346:1 2361:1 2362:1 2391:1 2400:2 2409:1 2582:1 2592:1 2665:1 2675:1 
0.05049904374063809 24:1 49:1 113:7 135:2 170:1 266:4 320:1 321:2 322:2 325:1 330:5 347:1 355:1 357:1 358:4 420:1 469:2 615:1 773:5 800:5 823:1 922:1 1015:1 1027:2 1063:2 1066:1 1076:1 1139:1 1295:2 1301:1 1321:1 1373:8 1409:1 1449:2 1483:1 1510:1 1574:1 1647:1 1649:1 1662:1 1743:1 1834:1 1894:1 1898:1 1903:1 2142:1 2182:1 2300:1 2348:1 2361:1 2362:10 2409:1 2458:1 2571:2 2670:1 
0.04802214003977532 14:3 108:4 113:6 143:4 146:1 226:4 230:4 325:3 330:1 342:1 347:1 355:1 363:1 417:1 421:2 496:1 545:1 646:1 759:1 800:9 823:1 888:1 904:2 907:1 1063:1 1075:2 1140:6 1198:1 1343:1 1366:1 1373:8 1434:1 1449:2 1483:2 1650:2 1653:1 1677:2 1702:2 1810:2 1833:1 1845:1 1846:1 1904:1 1980:1 2075:1 2099:1 2104:1 2117:1 2126:2 2192:1 2245:2 2246:3 2263:1 2362:5 2363:2 2409:2 2416:2 2434:2 2516:1 2542:2 2579:1 
0.8233247728773652 14:2 113:5 143:2 325:2 355:1 1023:2 1156:1 1262:2 1483:2 1569:1 1696:2 1833:1 2117:1 2345:1 2493:1 2685:2 
0.007711113536569626 49:2 55:1 108:3 113:11 135:3 139:1 143:2 170:1 179:1 220:2 316:3 319:1 320:1 330:10 358:7 369:3 397:1 399:2 472:2 548:1 550:1 579:1 606:1 623:1 699:1 790:1 800:5 868:1 874:1 922:1 937:2 1007:1 1010:1 1063:5 1105:1 1132:2 1181:1 1219:1 1242:2 1258:1 1260:4 1301:1 1340:1 1350:1 1356:1 1373:5 1435:1 1447:1 1449:6 1535:1 1550:2 1559:1 1582:1 1732:1 1762:1 1797:3 1816:8 1861:1 1903:1 1928:1 1967:4 1999:1 2029:1 2059:1 2213:3 2225:2 2231:1 2250:2 2256:4 2338:1 2343:3 2362:5 2399:2 2409:4 2482:2 2521:1 2589:3 2621:1 2634:3 2660:1 2665:2 2669:1 2679:3 2699:1 
0.1815848162934005 14:2 36:1 108:2 113:7 143:8 146:1 226:2 227:1 230:2 325:5 330:3 342:1 355:3 363:4 417:2 421:1 496:1 545:1 592:2 617:2 646:1 757:1 759:1 780:1 800:12 888:1 904:1 945:1 1026:3 1075:3 1140:6 1156:1 1198:3 1274:1 1343:2 1366:1 1373:6 1384:1 1449:3 1483:2 1493:2 1495:1 1532:1 1555:1 1579:1 1635:1 1637:2 1677:1 1696:2 1702:2 1721:1 1810:2 1833:2 1846:3 1980:1 1997:1 2076:1 2117:1 2126:1 2192:1 2245:2 2308:1 2314:4 2350:1 2362:3 2416:1 2434:2 2571:2 2614:1 2619:1 2673:1 2685:2 
0.04751212691303913 108:9 113:8 135:1 143:2 170:1 213:5 308:2 316:1 320:1 330:4 369:1 392:5 430:1 472:3 483:1 509:1 637:1 730:1 794:2 796:2 800:8 848:1 871:1 889:1 922:1 971:1 985:1 1063:1 1156:2 1171:1 1190:2 1207:1 1212:1 1236:1 1242:1 1260:9 1261:2 1373:5 1387:2 1446:2 1447:1 1449:1 1537:1 1559:1 1616:1 1630:1 1650:3 1686:3 1692:1 1700:1 1714:1 1760:1 1830:1 1852:1 1903:1 1929:1 1967:9 2037:1 2075:2 2142:1 2310:2 2323:1 2328:1 2346:1 2356:1 2361:1 2362:5 2400:1 2409:3 2569:1 2593:1 2629:1 2665:1 2696:1 
1 113:3 144:1 250:2 280:2 356:2 929:1 1373:2 2115:2 2409:2 2528:2 2622:2 
1 113:3 144:1 250:2 280:2 356:2 929:1 1373:2 2115:2 2409:2 2528:2 2622:2 
1 113:3 144:1 250:2 280:2 356:2 929:1 1373:2 2115:2 2409:2 2528:2 2622:2 
0.1703036987303957 14:2 36:1 108:4 113:8 143:8 146:1 174:1 226:8 230:6 250:2 297:1 321:1 325:2 330:2 363:1 421:3 496:1 545:1 617:1 646:1 650:1 782:1 783:3 800:7 823:2 888:1 904:1 945:4 1026:1 1063:2 1075:1 1140:11 1343:4 1366:1 1371:2 1373:7 1431:1 1434:4 1449:1 1483:2 1579:1 1653:1 1702:5 1724:2 1810:5 1833:1 1846:3 1936:1 2108:1 2117:1 2126:1 2131:1 2361:1 2362:5 2363:4 2376:1 2409:2 2528:2 2542:4 2571:1 2596:1 2622:2 2698:1 2712:1 
0.01346001292422258 80:1 108:6 113:15 118:1 135:1 143:1 167:1 180:2 250:1 275:3 300:1 303:1 321:2 324:1 330:8 334:3 369:1 419:3 472:1 517:2 561:2 653:1 693:1 800:2 823:2 825:1 831:1 868:1 872:1 894:2 1007:2 1027:1 1118:1 1209:2 1213:2 1260:1 1321:1 1338:1 1342:2 1362:6 1373:6 1432:1 1446:1 1449:5 1483:1 1486:9 1512:1 1525:1 1548:1 1555:1 1714:1 1791:2 1812:2 1845:1 1846:1 1891:1 1903:1 1909:1 1967:1 2029:2 2089:1 2171:1 2172:1 2196:1 2232:1 2267:1 2286:1 2338:1 2361:1 2362:3 2396:2 2409:2 2463:1 2475:1 2528:2 2548:6 2557:1 2558:1 2665:1 
0.08364625862028428 39:1 89:2 108:3 112:2 113:4 134:1 143:1 170:1 284:1 316:1 330:5 354:1 355:2 369:1 373:1 413:1 465:1 469:1 488:1 546:2 561:1 694:1 800:3 922:1 1063:1 1176:2 1252:1 1338:1 1373:2 1444:2 1447:1 1450:1 1555:1 1620:1 1636:1 1696:1 1704:1 1742:1 1784:1 1825:2 2043:1 2075:1 2275:1 2362:1 2430:1 2476:1 2491:1 2508:1 2554:1 2605:1 2665:1 2683:1 
1 113:1 259:2 325:1 743:2 929:2 957:2 1075:2 1358:2 1373:4 1846:2 
0.2029518654449547 113:3 144:1 280:2 356:2 929:1 1486:2 2115:2 2409:2 2528:2 
0.2358894523251832 14:3 56:1 108:5 113:7 143:5 170:1 226:1 259:2 330:4 342:2 355:3 363:1 417:2 421:3 474:1 492:2 496:1 520:2 545:1 617:1 646:2 654:1 682:1 800:6 879:1 888:1 904:4 957:2 1023:6 1038:1 1063:3 1075:1 1140:12 1343:8 1366:1 1373:5 1496:1 1579:1 1637:2 1677:1 1696:2 1702:4 1733:1 1810:3 1846:3 1865:2 1980:1 2003:2 2117:1 2126:1 2205:1 2223:3 2246:1 2260:1 2314:4 2361:4 2362:10 2363:4 2416:1 2434:2 2542:4 
0.0468781907749355 108:6 113:4 135:1 143:1 170:2 250:1 291:1 304:1 312:1 316:2 330:2 472:1 477:1 489:2 572:1 725:1 800:3 836:2 897:1 922:1 932:2 965:1 1074:1 1080:1 1086:1 1134:1 1171:1 1196:1 1202:1 1242:1 1260:4 1335:2 1358:1 1373:6 1414:1 1663:1 1739:1 1760:1 1780:1 1791:1 1817:1 1896:2 1903:1 1949:1 1967:4 1975:1 2015:1 2051:1 2196:4 2232:1 2334:1 2359:1 2362:1 2387:1 2396:2 2409:1 2429:3 2432:1 2436:2 2558:1 2571:1 2594:1 
0.3997107627142971 113:1 325:3 740:2 925:2 929:2 1075:2 1373:4 1561:1 1577:1 1650:2 
0.2134444205999901 108:5 113:5 143:4 146:1 204:1 226:3 227:1 230:2 325:4 330:2 355:1 363:1 421:1 592:1 615:1 653:2 688:1 757:2 759:1 800:7 922:2 945:3 954:2 1026:1 1070:1 1075:1 1116:1 1140:3 1143:1 1156:1 1343:2 1373:5 1434:1 1447:2 1650:2 1702:2 1717:1 1810:2 1886:1 1903:1 1919:1 2076:1 2126:1 2136:1 2144:1 2245:1 2263:2 2308:1 2338:1 2350:1 2356:1 2361:1 2362:4 2409:2 2529:1 2542:2 2564:1 2690:1 
0.002694606488654084 27:3 108:7 113:12 135:1 143:5 153:1 212:1 316:2 320:1 321:3 325:1 330:3 354:1 358:3 398:1 422:2 469:3 472:1 490:1 587:1 616:1 620:1 800:8 821:1 823:3 896:1 922:1 985:2 1037:1 1041:7 1063:2 1134:1 1156:2 1158:1 1171:2 1252:1 1260:4 1359:1 1373:5 1376:1 1446:1 1449:5 1545:1 1767:1 1810:1 1830:1 1903:1 1908:1 1967:4 2061:1 2070:1 2071:1 2094:1 2096:1 2207:1 2208:1 2223:1 2343:1 2362:8 2363:2 2395:1 2409:4 2428:1 2465:2 2489:1 2571:1 2611:3 2627:1 2646:2 2665:1 2679:1 2687:1 
0.01835389125831204 27:2 113:3 358:2 925:2 929:2 1373:4 2115:2 2369:2 2409:2 
0.02656592194216222 9:1 14:4 54:1 108:6 113:10 143:6 146:1 205:1 226:6 230:5 236:2 289:1 297:2 325:7 330:2 342:1 355:3 363:1 369:1 417:1 421:3 469:2 496:1 545:1 551:2 615:3 646:1 688:2 800:14 888:1 897:1 904:1 907:1 945:5 954:2 1014:1 1026:2 1063:6 1075:1 1140:11 1156:3 1198:1 1290:1 1303:2 1343:4 1366:1 1371:1 1373:11 1431:2 1434:3 1449:2 1477:2 1495:1 1505:1 1534:1 1555:1 1568:1 1650:2 1677:1 1702:3 1810:3 1833:2 1846:3 1886:2 1900:1 1904:1 1919:2 2029:2 2075:2 2076:1 2102:1 2103:1 2106:1 2126:2 2136:2 2192:1 2263:3 2359:1 2361:2 2362:14 2363:3 2409:2 2416:1 2434:2 2518:1 2539:1 2542:2 2564:1 2596:1 2617:1 2665:1 
0.05425891746157112 113:3 135:1 143:2 177:1 263:2 316:1 330:3 470:1 698:1 800:1 922:1 1037:1 1063:2 1092:2 1117:1 1184:1 1200:1 1207:1 1260:3 1322:1 1447:1 1537:1 1601:1 1650:2 1903:1 1967:3 2362:1 2409:1 2655:1 
0.05025644935938388 14:2 80:1 108:2 113:8 136:1 143:3 146:1 226:5 230:2 297:2 316:2 321:2 325:3 330:2 354:1 355:1 363:1 417:1 418:1 421:4 422:1 428:1 469:1 488:2 496:1 503:1 506:1 526:1 545:1 646:1 719:1 752:1 754:1 774:1 779:1 784:1 800:12 823:1 868:2 888:1 904:1 906:1 922:1 924:1 945:4 970:1 1007:1 1023:1 1063:1 1075:1 1140:10 1182:1 1202:1 1230:1 1343:6 1362:1 1366:1 1373:12 1428:1 1449:6 1451:1 1478:1 1486:3 1569:1 1637:1 1702:4 1759:1 1810:4 1833:1 1846:1 1865:2 1897:1 1963:1 2075:1 2089:1 2102:1 2107:1 2117:1 2126:1 2144:1 2152:1 2183:1 2263:2 2279:1 2283:1 2314:1 2338:1 2361:2 2362:9 2363:4 2409:2 2417:2 2428:1 2434:2 2467:1 2484:1 2528:2 2539:1 2542:4 2605:1 2700:1 2707:1 
0.05731026543476888 7:2 9:1 14:1 108:4 113:4 143:2 220:2 226:1 230:2 319:1 325:2 330:5 469:1 470:2 479:2 490:1 518:2 561:1 565:1 733:2 800:2 913:1 1026:1 1063:2 1111:1 1140:2 1156:1 1205:1 1249:1 1260:2 1291:1 1296:2 1298:2 1358:2 1373:7 1410:1 1417:1 1435:2 1446:1 1449:2 1450:1 1486:3 1498:1 1514:2 1590:1 1693:1 1717:1 1723:2 1866:1 1881:1 1886:1 1916:2 1967:2 2029:1 2061:1 2144:1 2242:1 2325:2 2327:1 2361:1 2362:2 2409:2 2463:1 2465:1 2528:2 2665:1 2683:1 
0.161438145127484 108:6 113:4 170:1 230:1 316:1 320:1 322:1 330:2 342:1 355:1 364:3 450:1 469:1 470:1 486:1 526:1 547:1 561:1 562:1 800:4 877:1 1019:1 1046:3 1063:1 1156:1 1202:1 1223:1 1342:2 1373:1 1446:1 1449:1 1666:2 1903:1 2037:1 2088:1 2250:1 2348:1 2362:3 2409:2 2493:1 2529:1 2564:1 2621:1 2651:1 2665:1 
0.03517140372972417 113:6 118:1 143:1 170:5 175:2 232:2 303:1 316:3 321:1 325:1 330:5 365:1 369:4 469:1 472:1 475:1 572:2 610:1 657:1 696:3 800:13 823:2 922:1 945:2 958:3 965:1 1048:1 1063:1 1111:1 1182:1 1242:1 1260:1 1342:1 1373:6 1445:1 1446:1 1447:2 1449:8 1471:9 1491:3 1526:1 1550:2 1576:1 1641:2 1721:4 1748:1 1781:1 1834:1 1846:1 1903:1 1967:1 2049:1 2221:7 2361:2 2362:13 2398:1 2409:1 2436:1 2621:1 2626:1 2652:1 2665:2 2670:1 
0.1058877876804586 9:4 14:2 108:4 113:9 143:5 165:1 226:5 230:8 320:1 325:4 330:6 363:1 417:2 421:3 469:3 496:1 545:1 592:1 615:1 646:2 688:1 759:1 783:1 800:8 818:1 823:1 888:1 897:1 907:1 954:2 1026:3 1075:3 1140:12 1198:1 1343:1 1366:1 1373:10 1446:1 1449:1 1495:2 1550:2 1653:1 1677:1 1702:3 1723:1 1785:1 1810:3 1833:1 1846:2 1865:2 1992:1 2076:1 2117:1 2126:1 2128:1 2144:2 2192:1 2221:3 2263:2 2318:1 2362:5 2363:2 2409:2 2416:1 2417:2 2434:2 2465:1 2529:1 2542:2 2582:1 
0.03032885624426896 42:1 71:1 85:1 108:2 113:6 143:2 170:1 316:2 330:5 387:1 416:1 436:6 488:2 500:1 503:2 504:1 530:1 665:3 800:9 819:2 871:2 911:2 975:1 1063:2 1065:1 1342:1 1349:2 1373:3 1386:2 1440:1 1443:1 1446:3 1447:1 1454:1 1473:1 1600:1 1652:1 1714:1 1732:1 1928:1 1975:1 1989:1 2132:1 2207:1 2251:1 2268:1 2362:2 2363:2 2434:2 2605:3 2685:8 2713:1 
0.102315502148584 40:1 108:9 113:7 170:1 222:1 239:1 259:2 319:1 320:1 321:4 330:4 351:1 420:1 465:1 469:2 472:2 520:3 526:1 534:1 623:1 643:1 654:3 719:1 725:1 800:4 825:1 861:1 864:1 914:2 935:1 957:7 1063:1 1096:2 1156:1 1171:2 1201:1 1242:2 1260:4 1294:2 1317:2 1373:2 1402:4 1441:1 1446:1 1449:3 1600:2 1696:2 1714:1 1733:4 1903:1 1922:1 1967:4 2009:2 2075:1 2144:1 2205:3 2223:3 2343:1 2362:3 2409:1 2465:1 2621:1 2660:1 2665:3 2679:1 
0.1272920154745026 14:1 54:1 108:1 113:8 143:2 146:1 170:2 219:1 226:2 230:8 259:2 325:2 330:4 354:2 355:1 399:1 417:1 421:2 428:1 472:1 474:1 492:2 496:1 520:1 545:1 617:2 677:1 800:4 823:1 888:1 904:4 907:1 924:2 945:1 957:3 1023:4 1063:3 1140:10 1156:1 1313:1 1366:1 1373:6 1449:1 1505:1 1559:1 1653:2 1654:1 1696:2 1702:2 1733:1 1810:2 1833:2 1865:2 2012:1 2117:1 2126:1 2223:2 2282:1 2362:1 2363:2 2417:2 2542:2 2571:4 
1 113:3 144:1 686:2 929:1 1653:2 1961:2 2115:2 2409:2 
0.03685451096617417 108:3 113:5 141:1 143:1 153:1 166:1 170:2 194:1 308:3 330:2 376:1 456:1 486:1 509:1 535:1 572:2 615:1 712:1 800:5 1059:1 1063:2 1152:1 1156:2 1171:1 1260:1 1261:1 1342:2 1373:3 1387:3 1446:1 1537:1 1555:1 1575:1 1650:3 1670:1 1686:2 1704:1 1705:1 1771:1 1807:1 1810:1 1903:1 1967:1 2183:1 2224:1 2242:1 2346:1 2362:3 2399:1 2401:1 2409:1 2477:1 2596:1 2665:1 2675:1 
0.02555511602259552 108:1 113:5 135:1 139:2 157:1 234:1 259:2 285:2 303:1 320:1 322:1 330:4 355:1 397:1 399:1 469:1 486:1 566:2 580:4 595:1 770:1 800:8 823:2 896:1 922:2 957:2 1027:1 1101:1 1321:3 1373:5 1408:1 1433:1 1446:2 1449:5 1450:1 1526:1 1652:1 1693:1 1696:1 1717:1 1733:1 1804:2 1834:1 1937:1 2002:1 2140:1 2206:2 2223:1 2252:1 2280:1 2326:1 2343:1 2361:1 2362:1 2367:1 2434:2 2458:1 2465:1 2552:1 2571:1 2642:1 2647:2 2679:1 
0.1730382609156751 9:3 14:2 36:2 54:1 108:8 113:6 143:7 165:1 170:1 226:4 230:8 236:3 297:1 306:1 316:1 325:4 355:1 417:1 421:2 425:1 492:1 496:1 515:1 545:1 551:1 592:1 615:1 688:1 779:1 800:10 888:2 904:1 1063:2 1075:2 1140:12 1198:1 1303:1 1343:3 1366:1 1373:11 1428:1 1431:1 1477:2 1495:1 1555:1 1637:1 1650:3 1653:1 1677:1 1702:4 1767:2 1785:1 1810:4 1880:1 1886:1 1903:1 1919:2 1945:3 1990:1 1996:1 2114:1 2126:2 2136:2 2192:1 2291:1 2314:3 2361:1 2362:9 2363:4 2380:1 2409:2 2416:1 2434:2 2517:1 2541:1 2542:3 2564:1 2673:1 2684:1 
0.2393355079480934 14:1 36:4 92:2 113:6 121:1 143:6 230:2 234:1 320:2 321:2 322:2 330:2 417:1 545:1 617:2 620:1 646:2 659:4 800:8 818:1 843:1 888:5 907:2 1023:3 1026:4 1063:1 1140:4 1260:1 1274:1 1343:4 1373:11 1375:4 1431:1 1449:4 1493:2 1569:1 1570:1 1579:1 1637:4 1658:1 1696:1 1717:1 1720:1 1745:1 1765:1 1840:4 1841:5 1862:3 1967:1 1976:2 2061:5 2314:4 2315:5 2330:1 2362:5 2434:2 2437:2 2472:1 2496:1 2518:1 2571:2 2685:1 2715:4 2717:1 
0.006578172405256756 108:3 113:8 135:3 136:4 141:1 143:3 170:3 264:1 292:1 312:1 320:1 325:1 330:4 369:4 416:1 438:1 610:1 611:1 613:1 623:1 752:6 800:9 868:2 875:1 922:2 924:1 943:1 954:1 1040:1 1048:1 1063:5 1080:1 1082:1 1102:3 1128:1 1155:1 1156:2 1171:1 1223:1 1260:2 1281:2 1336:2 1373:11 1392:1 1393:1 1446:2 1447:2 1449:5 1451:1 1481:1 1486:2 1525:1 1569:1 1708:1 1714:1 1748:1 1901:3 1903:1 1923:1 1934:1 1946:1 1967:2 1986:1 2015:2 2029:1 2064:1 2068:1 2069:1 2189:1 2252:1 2338:2 2340:1 2361:1 2362:2 2396:1 2409:1 2528:2 2571:1 2621:2 2656:1 
1 113:3 325:3 350:1 410:2 742:2 929:2 1075:2 1373:4 1569:1 1696:2 2355:2 
0.3548206389923681 67:1 113:4 325:2 330:1 355:1 410:2 426:2 588:1 800:1 1063:1 1156:1 1373:3 1404:1 1563:1 1575:1 1636:1 1693:1 1696:2 1789:1 1836:1 1851:1 1865:2 2110:1 2120:1 2231:3 2355:2 2361:2 2362:2 2471:1 2665:1 2712:1 
0.03997425278589932 20:1 108:2 113:8 135:1 143:2 170:2 197:1 316:2 472:1 559:5 561:1 570:4 620:1 705:1 713:2 768:2 800:5 922:1 943:1 1063:2 1156:2 1260:1 1359:1 1373:5 1428:1 1449:3 1527:2 1572:1 1575:1 1583:5 1650:4 1695:1 1758:1 1762:1 1808:1 1903:1 1967:1 2097:1 2155:2 2338:1 2343:1 2362:4 2409:2 2461:1 2551:1 2634:1 2637:1 2679:1 
0.01707924691010599 23:5 41:1 71:1 108:3 113:6 138:1 141:1 143:1 153:1 271:1 330:6 369:1 438:1 536:1 561:4 572:2 609:1 642:1 685:1 696:1 709:1 800:5 922:1 933:1 945:1 959:1 973:1 1040:1 1063:4 1138:1 1156:2 1242:4 1260:8 1308:2 1316:1 1335:1 1347:2 1373:9 1413:1 1449:1 1486:3 1490:1 1491:4 1514:1 1586:1 1637:1 1705:1 1708:1 1734:1 1781:1 1903:1 1967:8 1985:1 2010:1 2025:2 2075:1 2087:1 2089:1 2192:1 2196:4 2283:1 2359:2 2363:2 2380:1 2387:1 2396:1 2401:1 2409:1 2528:2 2529:1 2558:2 2571:3 2590:1 2621:1 2682:1 2683:1 2697:8 
1 113:1 325:3 651:2 743:2 929:2 1075:2 1189:1 1373:4 1575:1 2685:2 
0.699085986484272 113:1 325:3 741:2 925:2 929:2 1075:2 1373:4 1486:2 1723:1 2415:1 2528:2 
0.04447747348666715 31:1 108:3 113:5 143:2 197:1 198:1 250:1 320:1 322:1 330:2 476:1 488:1 523:1 561:1 716:1 800:4 807:1 903:1 917:2 945:1 975:1 1002:2 1260:2 1281:1 1373:4 1446:1 1449:1 1454:1 1462:1 1514:2 1537:1 1612:1 1739:2 1776:1 1840:1 1903:1 1949:1 1967:2 2039:1 2043:1 2239:1 2309:1 2338:1 2396:2 2409:1 2429:4 2495:1 2557:1 2571:1 2664:1 2665:1 2675:1 
0.4053469594176726 14:3 62:1 113:9 133:1 143:5 226:2 230:8 320:1 325:5 330:2 355:3 363:3 417:2 428:1 482:1 492:1 496:1 545:1 592:2 800:10 857:1 891:1 897:1 904:2 907:1 953:1 1014:1 1026:1 1063:5 1075:3 1140:9 1156:2 1198:2 1303:1 1343:2 1365:2 1373:5 1428:1 1446:1 1571:1 1637:2 1650:3 1677:1 1702:3 1765:1 1789:2 1864:1 1980:1 2075:1 2117:1 2126:2 2192:1 2245:1 2263:3 2278:1 2314:2 2350:1 2361:1 2362:10 2363:2 2409:2 2416:1 2434:2 2673:1 
0.02447280701812708 39:1 49:1 54:1 108:1 113:3 135:1 266:1 330:2 369:2 452:1 773:1 800:1 803:1 922:1 925:1 950:1 967:3 1176:2 1213:1 1362:1 1373:4 1446:1 1483:2 1597:1 1696:1 1825:2 1844:2 1891:1 1903:1 1979:1 2092:2 2142:1 2171:1 2209:1 2245:2 2362:3 2385:1 2548:1 2601:2 
0.04070590403256225 14:1 46:1 54:1 108:3 113:7 135:2 143:1 157:1 198:1 203:1 230:2 301:2 316:1 322:2 330:5 340:1 365:1 369:2 404:3 417:1 459:1 496:1 506:1 580:4 692:1 731:1 800:9 896:1 922:2 1022:1 1045:1 1063:1 1083:2 1140:3 1156:6 1373:6 1440:2 1446:1 1449:2 1467:1 1493:1 1535:1 1584:1 1590:1 1652:1 1730:7 1834:1 1891:1 1922:2 1927:1 1937:1 1960:1 1979:2 2008:1 2056:1 2059:1 2139:1 2152:1 2231:1 2361:1 2460:1 2465:2 2499:1 2526:3 2571:1 2627:1 2713:1 
0.1098958287979274 71:1 108:2 113:2 143:1 316:1 456:1 472:2 488:1 561:1 615:2 791:1 800:3 836:1 868:1 922:1 943:1 975:1 1063:1 1117:1 1342:1 1446:1 1449:2 1989:2 2060:3 2064:1 2359:1 2362:2 2363:1 2605:2 2653:1 2685:4 
0.03962393718922529 108:1 113:5 135:1 170:1 232:1 244:3 266:1 291:1 321:2 330:2 334:2 369:1 483:1 512:1 653:1 692:2 701:1 764:2 773:2 800:4 823:1 872:1 885:1 922:1 945:1 1063:3 1111:1 1156:2 1193:1 1213:1 1248:2 1321:1 1373:7 1446:1 1449:1 1475:1 1571:1 1696:1 1742:1 1802:1 1871:1 1894:3 1903:1 2056:1 2182:1 2362:6 2571:1 2575:1 2671:1 
0.2623019822222989 14:2 108:4 113:8 143:4 226:2 230:6 316:1 325:2 330:1 355:3 363:2 417:2 492:2 496:1 545:1 567:1 592:1 646:1 729:2 757:1 759:1 800:6 888:1 904:5 954:2 1026:1 1063:3 1075:2 1140:6 1156:1 1198:1 1366:1 1373:8 1449:1 1550:2 1572:1 1658:1 1677:2 1702:3 1789:4 1810:3 1833:1 1844:3 1866:2 1980:1 2076:1 2081:1 2117:1 2126:1 2192:1 2221:2 2246:2 2258:3 2263:1 2308:1 2315:1 2359:1 2361:1 2362:2 2363:2 2409:2 2434:2 2444:1 2571:1 
0.247593917327798 14:2 113:4 143:3 222:1 325:2 355:1 363:1 381:1 417:1 421:2 428:1 496:1 545:1 659:1 729:2 800:5 818:1 888:1 1055:1 1075:1 1140:6 1343:4 1366:1 1373:3 1428:1 1442:1 1486:2 1637:1 1702:2 1785:1 1810:2 1866:2 2056:1 2106:1 2117:1 2263:2 2314:2 2361:2 2362:5 2363:2 2409:2 2528:2 2542:2 
0.06579645421142906 71:1 108:5 113:5 135:1 138:1 139:1 143:3 153:2 170:1 191:1 232:1 250:2 285:2 316:3 321:1 330:2 369:2 410:1 472:1 474:1 475:1 558:1 572:2 756:1 800:4 922:1 941:1 982:1 1063:1 1156:2 1167:1 1193:1 1202:1 1260:1 1373:5 1449:1 1602:1 1607:1 1613:1 1628:1 1652:1 1714:1 1809:2 1838:1 1903:1 1943:1 1963:2 1967:1 2049:1 2077:3 2096:1 2123:1 2193:1 2267:1 2271:1 2351:1 2362:2 2385:1 2409:1 2465:2 2502:1 2528:1 2571:1 2616:1 2622:7 2671:1 
0.2107318018206065 14:2 113:6 143:2 226:1 230:3 250:2 321:1 325:2 330:3 347:2 355:2 363:1 496:1 545:1 580:1 678:1 722:1 800:5 904:2 922:1 999:1 1063:2 1075:1 1077:2 1111:1 1140:4 1156:2 1343:1 1373:7 1431:1 1449:2 1573:1 1637:1 1702:1 1721:1 1789:3 1851:2 1869:1 1980:1 2117:1 2126:1 2246:1 2263:2 2269:1 2314:1 2345:3 2361:1 2362:2 2363:2 2409:2 2528:2 2542:2 2571:3 2622:2 
0.1069988736258572 14:1 36:2 113:7 143:3 250:2 325:2 342:1 355:1 363:1 417:1 421:4 492:1 496:1 545:1 781:1 800:5 888:1 904:4 1063:3 1075:1 1140:10 1343:5 1366:1 1373:3 1428:2 1465:1 1555:1 1637:1 1677:1 1702:4 1724:2 1810:4 1903:1 1936:1 1992:1 1993:1 2294:1 2314:1 2361:2 2362:5 2363:4 2409:2 2415:2 2416:1 2528:2 2542:3 2622:2 
0.008320778688309216 16:1 54:2 100:1 108:7 113:5 135:1 143:2 167:1 199:1 202:1 247:1 259:2 277:2 301:1 319:2 321:1 325:1 330:2 333:1 348:1 355:3 369:2 372:1 378:1 413:1 424:1 472:1 570:2 575:1 719:1 800:9 808:1 823:1 890:1 922:4 954:1 957:2 963:1 1063:2 1097:1 1098:1 1121:1 1156:1 1198:1 1201:1 1253:1 1276:1 1373:7 1426:1 1447:2 1449:3 1555:1 1571:1 1579:1 1583:1 1625:1 1696:2 1703:1 1726:1 1768:1 1773:1 1842:1 1886:2 1903:1 1950:1 2007:2 2186:1 2320:1 2333:1 2343:1 2361:1 2362:6 2363:1 2368:1 2385:1 2387:1 2501:1 2510:1 2524:1 2537:1 2595:1 2621:1 2627:1 2630:1 2647:1 2679:1 2691:1 
0.04497515853463095 108:2 113:5 135:2 143:2 153:1 170:1 216:1 321:1 330:1 354:1 355:1 399:1 457:1 483:1 706:4 800:3 859:1 905:2 917:1 922:1 924:1 931:1 1007:1 1023:1 1063:1 1156:2 1229:1 1269:1 1342:2 1373:7 1408:1 1447:1 1449:5 1491:1 1525:1 1550:2 1705:1 1791:1 1866:1 1902:1 1903:1 1975:1 2142:1 2170:1 2188:1 2221:4 2380:1 2409:1 2476:1 2621:1 2665:1 2667:4 
1 113:3 144:1 280:2 356:2 929:1 1486:2 2115:2 2409:2 2528:2 
0.07794331962492328 39:2 49:1 101:2 108:1 113:5 135:2 266:1 321:2 325:1 330:3 369:3 532:1 773:1 800:2 803:2 922:1 950:1 1050:2 1076:1 1176:2 1213:2 1373:3 1446:1 1483:1 1576:1 1649:2 1696:2 1825:2 1844:1 1891:1 1903:1 1979:1 2142:1 2171:1 2362:6 2385:2 2409:1 2446:2 2571:1 
0.1268850604625598 14:1 39:2 83:1 108:3 113:8 143:6 146:1 226:6 230:3 292:1 320:1 325:4 330:2 342:1 355:3 363:2 417:1 496:1 545:1 592:1 646:1 676:1 757:1 759:1 772:1 800:10 888:1 904:1 945:2 954:1 1004:1 1023:1 1026:1 1063:3 1075:2 1140:7 1156:2 1176:2 1198:1 1303:2 1343:2 1366:1 1373:8 1449:2 1579:1 1653:1 1677:1 1688:1 1696:2 1702:2 1768:1 1810:3 1825:2 1844:3 1846:1 1865:2 1869:1 1980:1 2003:2 2076:1 2109:1 2117:1 2126:2 2192:1 2246:2 2258:1 2294:1 2318:1 2356:1 2361:1 2362:8 2363:2 2416:1 2431:1 2434:2 2712:1 
0.1003834573313532 8:2 49:1 108:7 113:4 124:1 135:2 165:1 216:1 316:1 322:2 330:2 623:1 701:1 773:1 776:3 788:2 800:1 922:1 1027:3 1063:2 1066:1 1077:1 1101:3 1139:1 1213:1 1238:1 1373:8 1440:1 1449:1 1453:3 1483:1 1505:3 1548:1 1724:2 1758:1 1840:1 1903:2 1909:1 1983:3 2134:2 2175:1 2214:1 2220:1 2286:1 2362:2 2458:1 2476:1 2665:1 2670:1 
0.02395523225617275 2:1 36:4 113:5 121:1 143:7 230:2 234:1 320:2 321:2 322:2 330:2 353:1 417:1 617:2 646:2 659:4 800:8 818:1 843:1 888:4 907:2 1023:3 1026:4 1063:1 1077:1 1095:1 1140:4 1260:1 1274:1 1343:4 1373:9 1375:3 1431:1 1449:4 1493:2 1570:1 1579:1 1637:4 1696:1 1717:1 1719:1 1724:4 1745:1 1840:5 1842:3 1903:1 1945:5 1967:1 1976:2 2022:2 2117:1 2131:1 2314:5 2362:5 2437:2 2466:1 2469:1 2496:1 2571:2 2685:2 2715:4 
0.1782353012643882 9:3 14:1 108:2 113:7 143:5 226:3 230:8 259:2 316:2 330:2 421:4 428:1 472:1 492:1 493:1 545:1 617:2 646:2 779:1 781:1 782:1 785:1 800:7 818:2 823:2 875:1 888:1 904:2 945:1 957:2 1023:3 1063:1 1140:12 1274:2 1342:1 1343:1 1358:1 1373:10 1449:4 1495:1 1637:1 1653:4 1654:1 1696:1 1702:4 1810:4 1840:2 1842:2 1866:1 1889:1 2061:1 2117:1 2126:1 2139:1 2183:1 2260:1 2314:2 2363:4 2434:2 2542:2 2571:2 2582:2 2612:1 2615:1 2618:1 2712:1 2715:2 
0.7969594592000526 113:3 144:1 280:2 356:2 410:2 929:1 1696:2 2115:2 2355:2 
0.01953734056229936 52:1 70:1 108:3 113:3 143:1 170:2 212:1 250:2 253:1 321:2 322:2 330:5 331:1 355:1 378:1 388:1 443:1 472:1 479:3 554:1 714:2 795:1 800:4 828:1 904:1 922:1 925:2 952:1 1007:1 1008:1 1015:2 1026:1 1063:3 1161:1 1169:1 1198:3 1290:1 1301:1 1310:1 1370:1 1373:10 1377:1 1410:1 1419:1 1437:1 1466:1 1513:1 1514:1 1515:1 1524:1 1535:1 1561:2 1573:1 1576:2 1720:1 1784:1 1824:1 1844:3 1886:2 1957:1 1960:2 1977:1 1988:1 2231:1 2280:1 2300:2 2306:1 2324:1 2332:1 2362:3 2363:2 2385:1 2403:1 2528:2 2530:1 2622:3 2679:1 2683:1 
0.03993185130707272 60:1 108:6 113:4 135:1 168:1 250:1 266:1 267:1 316:1 321:1 330:4 369:1 456:1 472:1 554:1 605:2 686:1 800:4 809:2 907:1 922:1 1012:1 1063:1 1065:2 1121:1 1231:1 1242:1 1260:2 1281:1 1373:7 1392:1 1405:1 1446:2 1597:2 1613:1 1748:2 1903:1 1954:2 1956:2 1967:2 1971:1 2014:1 2030:1 2077:5 2127:1 2247:1 2261:2 2338:1 2362:6 2409:1 2425:1 2528:1 2543:1 2621:1 2622:5 
0.07575799273125659 113:3 134:1 146:1 167:1 226:1 230:4 299:1 330:4 355:1 492:1 545:1 551:1 580:1 651:1 657:1 701:1 764:1 795:1 800:5 823:1 862:1 904:1 922:2 924:1 945:1 1063:3 1140:6 1156:1 1199:1 1255:1 1260:1 1304:1 1373:4 1374:1 1447:1 1449:3 1459:1 1476:1 1493:1 1496:1 1586:1 1603:1 1637:1 1658:1 1702:1 1789:1 1810:1 1840:1 1891:1 1903:1 1967:1 1979:1 2117:1 2126:1 2144:1 2164:1 2216:1 2314:1 2345:2 2571:2 2589:1 
0.0779195629252027 9:1 31:1 40:1 108:5 113:7 143:3 146:1 170:1 211:1 250:2 286:1 312:1 320:1 330:1 500:1 572:1 603:1 629:1 660:1 800:7 853:1 945:1 1025:1 1144:1 1156:1 1167:1 1231:1 1286:1 1316:1 1336:1 1373:12 1378:3 1401:1 1427:2 1446:1 1449:2 1521:1 1586:1 1656:1 1708:1 1734:1 1755:3 1810:1 1838:1 1903:1 1949:5 2039:1 2111:1 2123:1 2163:1 2328:1 2362:4 2396:1 2399:1 2409:3 2429:3 2504:1 2544:1 2628:1 
0.022579210923402 71:1 108:3 113:3 135:1 143:3 170:1 303:1 320:1 330:2 416:1 469:1 472:1 488:1 535:1 560:1 576:1 578:1 615:1 632:1 643:1 690:1 698:2 747:1 769:1 800:3 889:1 922:2 1063:1 1119:1 1156:1 1172:1 1260:2 1342:1 1373:2 1387:2 1447:1 1463:1 1579:1 1612:1 1630:1 1641:1 1650:2 1686:1 1830:1 1852:1 1903:1 1944:1 1967:2 1969:1 2001:1 2075:1 2157:1 2251:1 2361:1 2362:1 2409:1 2413:1 2504:1 2571:1 2629:1 2665:1 2696:2 
0.02521145344195118 15:1 108:3 113:9 143:2 146:1 167:1 170:2 205:1 226:6 255:1 294:1 306:2 316:3 321:2 330:6 355:1 363:4 369:1 401:1 417:1 421:1 425:2 459:2 461:1 465:1 472:1 496:1 599:1 611:1 646:2 686:4 800:12 862:1 904:1 922:2 924:1 945:6 1004:1 1063:1 1075:2 1140:8 1156:2 1167:1 1198:1 1265:1 1274:1 1290:1 1343:1 1370:1 1373:6 1449:5 1559:1 1586:1 1653:5 1702:3 1781:1 1810:3 1840:7 1842:2 1903:1 1904:1 1918:1 1974:1 2044:1 2076:1 2126:1 2153:1 2245:1 2263:1 2288:1 2292:1 2314:1 2345:2 2362:12 2409:1 2430:1 2434:2 2529:1 2542:2 2557:1 2564:1 2571:1 2684:1 2715:4 
0.03272016014158784 28:2 39:2 49:1 87:1 108:7 113:5 121:1 135:2 265:1 266:1 306:1 316:3 320:2 321:5 330:1 369:1 390:2 394:2 414:1 443:1 490:2 561:5 615:4 773:3 800:13 812:1 823:1 918:1 922:5 950:1 953:1 967:2 1009:1 1063:3 1118:2 1134:2 1156:1 1176:4 1224:3 1260:6 1315:1 1358:3 1373:9 1439:1 1446:5 1449:4 1483:2 1555:1 1577:1 1648:1 1652:1 1658:1 1684:1 1696:1 1719:1 1825:4 1826:1 1844:2 1894:1 1937:1 1963:1 1967:6 2030:3 2037:2 2092:2 2171:1 2206:1 2245:1 2255:2 2280:2 2362:8 2363:4 2434:2 2450:1 2511:1 2533:2 2541:1 2587:1 2601:2 2627:1 
0.05781943818632063 39:2 46:2 80:1 108:3 113:7 134:1 143:1 156:1 170:1 230:3 232:1 247:2 273:1 316:1 320:1 322:1 325:1 330:2 355:1 365:1 369:1 424:1 450:1 504:1 570:1 580:1 635:1 651:1 653:1 704:1 716:1 800:3 881:1 896:1 922:1 1063:2 1076:1 1139:1 1140:3 1156:1 1176:3 1236:1 1306:1 1359:1 1373:5 1433:1 1444:2 1449:8 1488:1 1506:1 1579:1 1583:2 1696:1 1744:1 1745:1 1825:2 1840:1 1845:1 2029:1 2037:1 2245:1 2362:4 2363:1 2390:1 2391:1 2551:1 2605:1 2621:1 2627:2 2643:1 2714:2 
0.1644096204299973 11:1 35:1 108:5 113:9 143:4 146:1 226:5 227:1 230:4 330:4 342:1 355:2 358:2 363:1 369:4 399:1 417:1 469:1 472:4 592:1 599:5 646:1 733:2 757:7 800:6 888:1 897:1 904:1 922:1 924:1 945:4 980:1 989:1 1023:3 1075:1 1140:13 1156:2 1168:1 1273:1 1286:1 1315:2 1324:2 1343:2 1366:1 1371:1 1373:7 1410:1 1434:5 1446:2 1447:1 1449:1 1470:1 1639:1 1677:1 1702:5 1768:5 1810:5 1833:1 1844:9 1863:1 1865:4 2003:2 2076:2 2079:1 2115:5 2126:1 2144:1 2148:1 2168:1 2350:2 2362:4 2409:2 2416:1 2417:2 2434:2 2465:1 2503:1 2529:1 2542:6 2551:2 2665:1 2690:1 
0.4273985080885769 14:3 36:1 113:6 143:2 146:1 226:5 230:6 325:2 330:2 355:1 363:1 417:1 421:3 486:1 496:1 545:1 646:2 711:1 754:1 779:1 784:2 800:8 823:3 888:1 945:4 1075:1 1140:10 1343:3 1366:1 1371:1 1373:5 1449:3 1486:2 1702:4 1810:4 1833:1 1844:2 1865:2 1936:1 1998:1 2117:1 2120:1 2126:1 2362:4 2363:4 2409:2 2417:2 2528:2 2542:3 2571:1 
0.05363814690326435 67:1 113:4 135:1 266:1 322:1 330:1 369:1 410:2 426:2 588:1 773:1 800:1 804:1 922:1 1007:1 1063:1 1156:1 1158:1 1249:1 1373:3 1432:1 1446:1 1575:1 1693:1 1696:2 1702:1 1768:1 1789:1 1810:1 1836:1 1839:1 1844:2 1851:2 1865:2 1886:1 1903:2 1945:3 2110:1 2197:1 2325:2 2355:2 2361:3 2362:5 2712:1 
0.1363091742924036 113:4 135:1 143:1 180:1 305:1 320:1 321:1 330:2 469:1 497:1 577:3 580:2 637:1 800:2 922:1 1063:3 1080:1 1214:1 1359:1 1373:2 1447:1 1449:2 1696:2 1735:1 1757:1 1870:1 2142:1 2305:1 2361:1 2362:1 2621:1 2665:3 
0.2957953386741921 108:2 113:8 143:4 170:1 187:1 226:3 230:2 316:2 330:1 363:2 428:1 492:1 496:1 545:1 577:4 592:1 646:1 650:1 800:4 888:1 904:3 1063:1 1075:1 1140:6 1198:1 1343:1 1366:1 1369:1 1373:5 1449:1 1493:2 1579:2 1677:1 1696:2 1702:3 1789:2 1810:3 1841:3 1845:2 1865:2 1903:1 1980:1 2003:2 2076:1 2117:1 2126:1 2131:1 2192:1 2246:3 2316:1 2362:1 2363:2 2434:2 2471:1 2472:1 2571:2 2596:1 
0.2597884771052922 9:1 108:1 113:9 143:3 226:1 230:1 238:1 284:1 325:1 330:1 342:1 355:3 363:2 399:1 417:2 580:1 592:1 759:1 800:7 887:1 904:2 953:2 954:1 1014:1 1075:2 1126:1 1140:6 1156:1 1198:1 1223:1 1352:3 1373:4 1415:4 1447:1 1449:1 1493:1 1495:1 1572:1 1677:1 1696:2 1702:5 1789:2 1810:5 1833:1 1844:4 1904:1 2002:1 2059:1 2075:1 2126:1 2192:1 2263:2 2314:1 2362:5 2434:2 2539:1 2542:1 
1 39:2 113:1 651:2 742:2 929:2 1075:2 1176:2 1373:4 1717:1 1825:2 1844:3 2659:1 
0.03727930607055465 18:1 108:8 113:7 135:1 143:2 153:1 163:1 232:1 330:5 469:1 472:1 486:1 566:1 577:2 662:1 698:2 800:4 806:1 904:1 925:2 1055:1 1063:1 1071:1 1076:1 1111:1 1140:2 1156:1 1236:1 1335:1 1359:2 1369:1 1373:4 1449:2 1467:2 1493:1 1579:2 1599:1 1696:1 1760:1 1842:1 2003:1 2049:1 2057:1 2087:1 2142:1 2355:2 2361:1 2362:1 2376:1 2380:1 2402:1 2529:1 2571:1 2621:1 
0.1391110411163869 113:5 135:1 232:1 316:1 330:2 369:1 469:2 472:2 486:1 569:1 577:2 637:1 705:1 800:2 806:1 823:1 827:1 904:1 922:1 1003:1 1055:1 1063:3 1080:1 1140:1 1156:2 1236:1 1260:2 1358:2 1359:3 1493:1 1535:1 1586:1 1801:1 1830:1 1903:1 1959:1 1967:2 2056:1 2280:1 2310:3 2314:1 2361:1 2362:1 2376:1 2402:1 2571:1 2665:1 
0.3271820387433081 113:1 651:2 742:2 929:2 951:2 1075:2 1373:4 1723:1 1844:3 2659:1 
0.06539851623474213 49:1 78:1 108:4 113:7 143:1 175:1 321:3 420:1 469:1 532:1 729:1 841:2 1063:2 1101:1 1202:1 1204:1 1238:1 1321:1 1342:2 1359:1 1362:1 1369:2 1373:7 1408:1 1446:1 1510:1 1545:1 1642:2 1688:1 1696:2 1748:1 1780:1 1791:1 1844:2 1870:1 1891:1 1973:1 1983:1 1989:1 2171:1 2209:1 2282:1 2338:1 2355:1 2362:2 2437:2 2458:1 2600:2 2665:1 2685:4 
1 113:1 651:2 741:2 929:2 1075:2 1373:4 1844:3 2685:2 
0.03684927289077459 39:2 49:1 108:3 110:1 113:5 155:1 221:1 266:1 321:1 330:4 366:1 369:1 371:3 385:1 420:1 439:1 469:1 532:1 615:1 728:1 773:2 800:5 922:1 950:1 1050:2 1055:1 1063:1 1101:1 1118:1 1176:2 1213:1 1373:4 1453:1 1576:1 1647:1 1696:2 1721:1 1825:2 1844:2 1903:1 1945:2 1983:1 2014:1 2071:1 2121:1 2282:1 2361:1 2362:4 2385:1 2394:1 2571:1 
0.02345684728437953 2:1 44:1 108:3 113:5 135:1 143:4 157:1 170:1 211:2 230:1 232:1 269:2 330:3 336:3 347:1 355:1 486:1 530:1 563:1 613:1 653:1 672:1 696:3 717:2 735:4 800:5 834:1 922:2 1063:2 1076:1 1170:1 1200:1 1203:1 1250:1 1260:1 1287:1 1307:1 1309:1 1373:5 1394:1 1416:1 1446:1 1449:4 1469:1 1531:1 1555:1 1650:2 1695:1 1705:1 1844:1 1874:1 1903:1 1922:1 1967:1 2129:1 2130:2 2142:1 2232:1 2234:4 2251:1 2253:1 2280:2 2336:1 2341:2 2362:7 2387:1 2409:1 2431:1 2457:1 2532:1 2569:1 2571:1 2593:1 2621:1 2651:1 2655:5 
0.06166992315223869 9:2 54:1 113:10 134:1 143:6 184:1 226:2 230:3 292:1 322:1 330:2 355:3 363:3 369:2 428:1 472:1 496:2 545:1 561:1 580:2 592:1 757:1 774:2 800:12 826:2 846:1 895:2 904:4 945:1 1075:2 1111:1 1126:1 1140:5 1156:4 1198:1 1255:1 1341:1 1373:4 1406:1 1447:1 1449:1 1493:2 1495:1 1555:1 1570:1 1601:1 1637:1 1653:1 1658:1 1677:1 1688:1 1702:2 1718:1 1760:1 1789:2 1810:2 1833:2 1844:5 1861:1 1903:1 2076:1 2081:1 2126:1 2206:1 2258:2 2263:1 2314:1 2345:3 2361:2 2362:4 2363:2 2395:1 2409:2 2434:2 2439:2 2539:3 2542:1 2564:1 2571:3 2587:1 2665:1 
0.1833584975072914 9:6 14:5 36:1 76:1 108:6 113:8 143:7 147:1 165:1 226:7 230:10 297:1 306:1 316:2 325:3 330:2 355:3 363:1 417:2 421:4 425:1 463:1 496:1 545:1 551:1 592:2 646:2 678:1 711:1 779:1 781:1 800:16 818:2 823:1 888:1 891:1 907:1 969:1 977:1 1063:2 1075:3 1140:14 1156:1 1198:1 1274:1 1303:1 1343:5 1366:1 1373:15 1431:1 1449:3 1477:2 1483:1 1495:1 1650:2 1653:1 1677:1 1702:4 1719:1 1785:1 1810:4 1833:1 1844:6 1857:1 1886:1 1919:1 1945:2 1996:1 2075:1 2081:1 2117:1 2126:2 2136:2 2192:1 2245:2 2263:1 2278:1 2314:1 2350:1 2361:1 2362:15 2363:4 2380:1 2409:2 2416:1 2420:1 2434:2 2541:2 2542:4 2564:1 2580:1 2582:2 2673:1 
1 113:1 741:2 925:2 929:2 1075:2 1373:4 1550:2 1844:3 2221:2 
0.06272075897279422 14:2 36:1 108:2 113:9 143:5 226:3 230:8 320:1 325:1 330:7 342:1 355:3 363:3 381:1 417:2 421:3 469:3 496:1 545:1 592:1 646:2 688:2 733:2 757:1 759:1 780:1 800:9 818:1 823:1 888:1 897:2 904:1 907:1 1026:2 1055:1 1063:1 1075:2 1140:10 1156:1 1198:1 1343:1 1365:2 1366:1 1373:6 1446:1 1550:2 1653:2 1677:1 1702:3 1724:1 1785:1 1810:3 1833:1 1844:4 1866:2 1993:1 2061:2 2076:1 2117:1 2126:1 2144:2 2192:1 2221:2 2263:2 2314:1 2356:1 2362:7 2363:2 2409:2 2416:1 2434:2 2465:1 2542:3 2673:1 
0.2322706946904876 9:1 14:1 113:4 143:1 226:2 230:2 363:1 369:1 486:2 545:1 686:2 708:1 800:4 823:1 1063:2 1075:1 1140:4 1373:6 1449:5 1493:2 1495:1 1653:2 1658:1 1702:2 1789:2 1833:1 1844:2 1876:2 2027:1 2117:1 2126:1 2314:1 2318:1 2362:1 2363:2 2409:2 2444:1 2515:1 2517:1 2571:2 2590:1 
0.6162340522030629 67:1 113:4 197:1 330:1 426:2 588:1 729:2 803:1 804:1 1063:1 1156:2 1373:3 1404:1 1446:1 1563:1 1574:2 1671:2 1693:1 1702:1 1768:1 1789:1 1810:1 1836:1 1844:2 1851:1 1865:1 1886:1 2024:1 2056:2 2110:1 2197:1 2361:2 2362:4 2385:1 2409:2 2712:1 
0.1884756243583196 100:2 108:5 113:6 143:6 197:1 208:2 226:4 230:9 320:2 330:2 340:1 347:2 363:2 381:1 403:2 417:1 421:2 426:1 472:1 474:2 545:2 588:1 615:1 646:2 753:1 778:1 783:1 800:9 808:2 818:2 823:4 888:2 904:2 907:2 1026:1 1055:2 1063:5 1075:2 1140:14 1156:2 1198:1 1313:1 1343:2 1365:1 1366:1 1373:9 1410:1 1433:6 1442:1 1449:7 1505:2 1574:1 1637:1 1653:1 1702:2 1785:1 1794:1 1810:2 1836:1 1844:5 1866:4 1872:5 1974:1 2012:1 2061:4 2110:1 2117:1 2126:1 2136:1 2314:1 2325:2 2361:6 2362:7 2363:3 2373:1 2374:1 2434:2 2464:1 2468:1 2542:8 2673:1 
0.06864736885672969 14:3 42:1 54:1 108:2 113:14 117:1 143:5 170:5 204:2 226:2 230:2 322:1 324:4 330:8 355:3 369:3 410:5 417:2 496:1 545:1 563:1 580:2 592:1 617:1 800:10 818:1 862:2 904:1 922:1 945:1 960:1 1055:1 1063:5 1129:1 1140:12 1156:4 1198:1 1208:1 1260:1 1303:6 1365:1 1373:4 1447:1 1449:1 1492:2 1493:6 1555:1 1696:5 1702:3 1714:2 1760:1 1789:1 1810:1 1840:2 1841:3 1842:1 1845:2 1903:1 1967:1 1975:1 2126:1 2192:1 2246:1 2258:1 2263:4 2314:1 2338:1 2355:2 2362:7 2365:1 2434:2 2477:1 2571:6 2589:1 2673:1 
0.05556329082883783 49:1 108:2 113:2 170:1 197:1 222:1 242:1 321:1 330:2 472:1 577:2 615:2 800:4 922:2 1101:2 1118:1 1321:1 1358:2 1373:4 1409:1 1720:1 1844:1 1903:1 1973:1 1983:2 2070:1 2085:1 2146:2 2362:1 2458:1 2571:2 
0.9572394732774151 42:1 108:2 113:2 143:1 239:1 320:1 330:1 355:1 369:1 386:1 615:1 687:1 698:1 709:1 800:1 868:1 875:1 961:1 1167:1 1446:1 1650:1 1934:1 2115:1 2362:1 2409:1 2539:1 2682:1 
1 113:3 144:1 280:2 356:2 929:1 1486:2 2115:2 2409:2 2528:2 
1 113:3 144:1 280:2 356:2 929:1 1486:2 2115:2 2409:2 2528:2 
0.7994974711668164 113:3 144:1 250:2 929:1 1373:2 1961:2 2115:2 2409:2 2528:2 2622:2 
0.01055208100488247 34:2 108:4 113:6 135:1 143:3 153:1 186:1 223:1 250:1 261:1 271:1 299:1 316:2 321:4 330:6 380:1 439:1 488:1 537:4 558:1 633:1 800:5 842:1 870:1 897:1 922:2 966:3 1025:1 1032:1 1048:1 1063:3 1125:2 1129:1 1155:1 1156:2 1186:1 1231:1 1260:1 1265:1 1275:1 1281:1 1294:2 1336:1 1342:2 1369:1 1373:7 1446:2 1449:1 1481:1 1497:1 1541:2 1555:1 1571:1 1586:1 1594:1 1607:1 1626:1 1628:1 1642:1 1647:1 1652:1 1675:1 1717:1 1731:1 1732:1 1748:1 1903:1 1934:1 1943:1 1946:1 1967:1 2057:2 2077:4 2122:1 2123:1 2132:1 2133:1 2142:1 2170:1 2172:4 2242:1 2252:1 2338:1 2361:1 2362:5 2409:1 2447:1 2519:1 2528:1 2557:1 2569:1 2571:1 2622:5 2682:2 2689:1 2718:1 
0.01914499488102751 71:2 108:3 113:5 137:1 143:1 157:1 170:1 250:1 266:2 290:1 316:1 330:5 337:1 354:1 355:1 369:5 380:2 410:2 439:1 472:1 475:1 488:2 516:1 554:1 558:1 561:1 636:1 698:1 709:1 725:1 800:3 922:2 954:1 1025:1 1031:1 1063:2 1156:1 1223:1 1238:2 1260:3 1373:5 1449:2 1514:2 1517:1 1594:3 1607:1 1613:1 1704:1 1757:1 1758:1 1760:1 1802:1 1838:1 1841:1 1849:1 1903:1 1943:1 1967:3 2010:1 2049:1 2077:2 2267:1 2359:1 2401:1 2409:1 2427:1 2528:1 2561:1 2622:3 
0.1183837471726434 113:2 330:3 355:1 364:1 552:1 574:1 580:1 636:1 800:1 823:1 868:1 896:1 922:1 1063:2 1079:1 1176:2 1260:1 1373:1 1446:1 1449:2 1696:1 1817:1 1825:3 1892:2 1967:1 2008:2 2125:1 2362:1 2602:1 
0.0568933560642936 14:2 39:2 108:1 110:1 113:6 143:6 170:1 226:3 230:4 284:1 316:1 320:1 321:2 322:1 325:1 330:2 332:1 355:2 363:1 428:1 486:1 492:1 496:1 545:2 646:1 697:1 704:1 729:2 756:1 800:7 888:1 904:2 922:1 953:2 1063:7 1075:1 1140:6 1156:1 1176:2 1294:1 1365:1 1366:1 1369:1 1373:15 1447:1 1449:1 1493:2 1568:1 1569:1 1696:2 1702:4 1719:1 1723:1 1789:4 1825:2 1833:1 1844:2 1866:2 1959:1 2063:1 2117:1 2119:1 2126:1 2216:1 2229:1 2298:1 2362:3 2363:4 2381:1 2486:1 2489:1 2493:1 2571:1 2580:2 2589:1 2642:1 2660:1 2673:1 
0.09213651876211752 14:1 39:2 113:8 143:4 170:1 226:1 230:4 320:1 325:2 330:2 355:2 363:1 381:1 417:1 496:1 545:1 580:1 592:1 646:1 729:2 733:1 800:9 818:4 823:2 888:1 945:3 992:1 1055:4 1063:1 1075:2 1140:7 1156:1 1176:2 1198:1 1274:1 1343:2 1366:1 1373:7 1447:1 1449:2 1579:1 1688:1 1696:2 1702:2 1785:1 1810:3 1825:2 1844:6 1866:2 1980:1 2076:1 2109:1 2117:1 2125:1 2126:1 2192:1 2246:1 2258:1 2314:1 2338:1 2362:6 2363:2 2434:2 2451:1 2493:1 2542:2 2712:1 
0.3455186087155778 14:2 108:1 113:7 143:2 179:1 226:2 230:3 316:1 330:2 347:1 355:3 358:2 363:1 417:1 496:1 545:1 551:1 580:1 646:1 800:8 904:1 1063:5 1111:1 1133:1 1140:7 1156:1 1259:1 1303:1 1304:1 1365:1 1373:6 1447:1 1449:1 1492:1 1637:1 1658:1 1702:3 1810:3 1844:2 1975:1 2117:1 2126:1 2258:1 2263:1 2269:1 2314:2 2361:1 2362:3 2363:2 2389:1 2409:2 2503:1 2571:1 2673:1 
0.06245868783878191 54:1 108:3 111:2 113:10 143:2 189:1 230:2 321:3 330:9 367:1 404:1 414:1 434:3 469:1 470:2 471:1 479:2 573:1 704:1 731:1 766:3 1034:1 1063:2 1118:2 1140:2 1156:1 1174:2 1213:1 1232:3 1249:1 1260:2 1291:1 1298:2 1310:1 1322:2 1343:2 1373:5 1417:2 1440:1 1446:2 1449:1 1550:4 1699:1 1765:1 1817:2 1844:1 1916:2 1967:2 2007:1 2037:1 2144:1 2221:5 2325:1 2358:3 2361:1 2362:4 2409:3 2445:1 2527:2 2575:1 2665:2 
1 14:2 113:3 143:3 330:1 355:1 358:2 363:1 381:1 417:1 421:2 496:1 545:1 646:1 729:2 800:7 818:1 888:1 904:1 1055:1 1063:1 1075:1 1140:5 1303:1 1343:2 1366:1 1373:2 1465:1 1555:1 1637:1 1702:2 1785:1 1810:2 1844:2 1866:2 2263:1 2314:2 2361:1 2362:3 2363:2 2409:1 2542:1 
0.02796590328917022 108:2 113:6 135:1 143:3 220:1 315:1 316:2 321:2 330:3 358:5 369:1 456:1 470:2 519:1 562:1 596:3 800:1 821:2 922:3 1063:1 1156:1 1294:1 1306:2 1351:2 1373:3 1383:1 1435:1 1447:2 1451:1 1462:1 1502:1 1555:1 1684:2 1698:6 1780:1 1791:3 1903:1 2130:2 2342:2 2359:1 2362:1 2409:2 2421:2 2465:1 2577:1 2665:3 2687:1 
0.1023549499237318 14:1 54:1 108:2 113:10 143:8 226:3 230:12 259:2 330:6 381:1 421:4 428:2 492:2 496:1 545:1 617:6 722:1 729:5 800:8 818:4 878:1 888:4 904:6 957:2 1023:4 1055:4 1063:4 1140:16 1365:3 1366:1 1373:13 1432:1 1559:2 1653:4 1696:2 1702:4 1785:1 1810:4 1833:6 1844:5 1866:5 1994:1 2117:1 2126:1 2147:2 2291:1 2363:4 2434:2 2542:2 2571:6 2673:1 
0.3595169704236424 14:2 108:2 113:8 143:5 226:5 230:9 320:1 325:2 330:7 355:2 363:1 417:1 421:3 469:3 496:1 545:1 592:1 646:2 675:1 688:1 729:2 733:1 759:1 766:1 800:7 823:1 888:1 904:1 907:1 1022:1 1026:3 1075:3 1140:11 1156:1 1198:1 1343:1 1366:1 1373:10 1446:1 1449:1 1519:1 1550:2 1653:1 1677:2 1702:3 1719:1 1721:1 1810:3 1833:1 1844:2 1847:2 1980:2 1997:1 2076:1 2117:1 2126:1 2144:2 2192:1 2221:2 2246:4 2263:3 2315:2 2362:4 2363:2 2380:1 2409:2 2434:2 2465:1 2542:2 2571:1 2621:1 
0.05937872409944135 9:1 73:1 75:1 107:1 108:5 113:4 135:1 143:2 153:2 170:4 190:1 193:1 230:1 232:1 275:1 316:1 320:1 321:1 322:1 330:1 354:1 369:1 384:1 399:1 472:1 530:1 571:1 602:1 639:3 800:6 831:1 839:1 846:1 922:1 924:1 932:1 938:1 1029:1 1063:3 1111:1 1140:1 1147:1 1156:2 1209:1 1236:2 1256:1 1260:3 1342:2 1369:1 1373:7 1399:5 1449:5 1529:1 1599:3 1634:1 1652:1 1695:2 1696:1 1758:1 1760:4 1780:1 1859:2 1903:1 1967:3 1978:2 2027:1 2031:1 2058:2 2075:1 2083:3 2121:1 2142:1 2144:1 2254:1 2303:1 2310:1 2328:1 2362:5 2371:1 2436:1 2536:1 2539:1 2571:1 2582:1 2589:1 2614:1 2621:1 2665:2 2695:4 2718:1 2720:1 
0.0152185219503555 2:1 108:4 113:4 143:1 157:1 194:1 209:1 230:1 308:1 321:2 322:1 330:1 356:1 472:1 479:1 480:1 486:1 640:1 690:1 800:4 835:1 865:1 875:1 971:4 1063:1 1144:1 1156:1 1202:2 1260:3 1342:3 1373:4 1387:1 1480:2 1530:1 1650:2 1695:2 1810:1 1830:1 1833:1 1903:1 1944:1 1967:3 2036:1 2178:3 2242:1 2321:1 2409:1 2451:1 2456:1 2504:1 2629:1 2702:1 
0.05924360556921617 49:1 55:1 108:1 113:4 135:1 169:1 243:1 316:1 321:1 322:1 330:1 472:1 488:1 530:1 532:1 615:1 636:1 773:1 800:5 1063:1 1167:1 1209:1 1230:1 1301:1 1317:1 1361:1 1373:6 1446:1 1696:2 1737:1 1854:2 1891:1 1903:1 1930:1 1959:1 1979:1 2133:1 2171:1 2361:3 2362:3 2446:1 2450:1 2523:1 2627:1 2685:4 
0.09238073683553695 55:1 108:1 113:2 316:1 322:1 472:1 488:1 615:1 636:1 800:2 899:1 929:1 1063:1 1167:1 1696:1 1737:1 1959:1 2115:1 2133:1 2361:2 2362:2 2369:1 2450:1 2523:1 2685:3 
1 113:1 651:2 740:2 929:2 1075:2 1373:4 1847:3 1866:1 2643:1 2685:2 
0.01948954194398333 9:1 108:6 113:5 135:1 143:2 170:3 226:1 230:1 275:1 282:1 316:3 330:4 335:1 355:1 399:1 469:1 472:1 497:1 577:4 639:1 694:1 794:1 800:5 877:1 922:1 988:1 1063:3 1103:5 1140:1 1156:2 1163:1 1238:1 1342:3 1373:3 1385:2 1446:1 1447:1 1449:3 1572:1 1695:1 1696:1 1760:1 1840:1 1903:1 1959:1 1972:1 2049:1 2142:1 2310:2 2361:1 2362:6 2380:1 2382:1 2383:1 2503:2 2569:1 2665:1 2672:2 
1 113:3 144:1 280:2 356:2 929:1 1486:2 2115:2 2409:2 2528:2 
1 113:3 144:1 280:2 356:2 929:1 1486:2 2115:2 2409:2 2528:2 
0.02440822188288667 113:1 651:2 743:2 929:2 951:2 1075:2 1373:4 1844:2 1847:1 2315:1 2643:1 
1 113:3 144:1 280:2 356:2 929:1 1644:2 2115:2 2409:2 
1 113:3 144:1 280:2 356:2 929:1 1644:2 2115:2 2409:2 
0.09968622681103392 9:1 14:1 38:1 108:4 113:10 143:6 165:1 170:2 185:1 226:8 230:6 316:3 320:1 321:1 330:1 347:2 363:1 428:3 459:2 471:1 472:1 496:2 545:1 617:1 646:3 729:2 733:1 753:1 759:1 800:13 815:1 818:1 823:4 850:1 878:1 888:3 904:5 907:1 1026:2 1063:2 1075:3 1089:1 1140:13 1198:1 1245:1 1315:1 1343:1 1366:1 1373:12 1442:1 1449:4 1493:1 1495:1 1579:1 1637:1 1644:2 1653:2 1658:3 1702:4 1785:1 1810:4 1833:5 1844:6 1847:1 1865:4 1872:1 1877:1 1903:1 1904:1 2003:7 2075:2 2101:1 2117:1 2126:2 2192:1 2201:1 2216:1 2263:1 2314:1 2362:6 2363:4 2373:1 2391:1 2409:2 2420:1 2434:2 2468:1 2542:3 2582:1 2640:1 2673:1 
0.279771747027359 46:1 108:1 113:3 135:1 143:1 155:1 170:1 197:1 230:1 330:1 378:1 396:1 586:1 800:1 804:1 856:2 910:1 1140:1 1182:1 1373:4 1509:1 1570:1 1644:2 1702:1 1768:2 1844:2 1856:1 1865:2 1886:2 2003:2 2037:1 2361:2 2362:3 2391:1 2409:2 
1 113:2 170:1 250:1 280:1 320:1 355:1 356:1 698:1 929:1 961:1 1167:1 1949:1 2115:1 2362:1 2409:1 2429:1 
0.08913590373582991 14:2 36:1 108:3 113:7 143:6 146:1 226:5 230:4 316:2 320:1 325:2 330:1 355:1 363:4 417:2 484:1 496:1 545:1 592:1 646:2 757:1 800:10 888:1 893:2 904:2 907:1 1063:1 1075:2 1140:9 1198:1 1343:3 1366:1 1373:9 1446:1 1555:1 1579:1 1677:2 1696:2 1702:4 1810:4 1833:1 1844:4 1847:2 1865:2 1903:1 1980:1 2003:2 2075:1 2126:2 2192:1 2246:4 2293:1 2308:1 2362:5 2363:2 2416:1 2434:2 2529:1 2712:1 
0.006010619714249849 113:4 162:1 226:1 230:1 316:1 322:1 330:2 355:1 367:2 369:1 428:1 530:1 534:1 580:2 760:2 767:2 800:1 896:1 904:1 922:1 1007:1 1111:1 1128:1 1140:1 1156:1 1184:1 1230:1 1255:1 1373:2 1447:1 1449:2 1535:1 1610:1 1644:2 1684:1 1706:2 2194:2 2362:2 2409:1 2428:1 2463:1 2539:2 2598:1 2600:1 2681:1 
0.1451147300633315 35:1 108:3 113:6 143:3 185:1 222:1 227:1 230:4 330:5 342:1 355:3 363:3 369:3 417:1 533:1 592:1 729:2 757:1 800:5 887:1 904:2 954:1 1022:1 1026:2 1075:1 1140:8 1156:1 1373:2 1410:1 1449:2 1550:2 1677:1 1702:3 1810:3 1847:2 2007:1 2045:1 2076:2 2144:1 2221:2 2263:3 2314:1 2335:1 2338:1 2350:1 2361:1 2409:1 2416:1 2529:1 2571:1 
0.041980771213049 24:1 49:1 52:1 60:1 99:2 104:1 108:2 113:3 126:1 143:2 149:2 170:3 212:1 251:1 316:1 320:1 321:1 322:1 324:2 326:1 330:6 354:1 378:1 385:1 401:3 443:3 450:1 469:1 472:1 479:3 507:1 615:3 624:1 651:2 795:1 800:17 838:1 856:1 868:2 904:1 907:1 936:1 952:1 1015:3 1026:1 1063:1 1066:1 1132:1 1167:1 1198:2 1227:1 1235:1 1260:4 1277:1 1293:1 1310:1 1314:1 1350:1 1358:1 1373:17 1377:1 1410:1 1412:1 1419:1 1432:1 1449:1 1515:1 1524:1 1558:1 1569:1 1573:2 1588:1 1620:1 1702:1 1799:1 1817:1 1841:1 1858:1 1886:2 1933:1 1959:2 1960:2 1967:4 1977:1 2037:1 2042:1 2113:1 2233:1 2245:1 2255:1 2300:3 2336:1 2343:1 2361:1 2362:11 2363:1 2385:1 2402:2 2450:1 2490:1 2530:2 2676:1 2678:1 2679:1 2683:1 2685:3 2686:1 2713:2 
0.2523391120510957 24:1 52:1 60:1 108:2 113:3 143:1 149:2 170:3 251:1 266:1 305:2 321:1 322:1 326:1 330:8 378:1 450:1 469:1 472:1 479:3 507:1 615:4 628:1 651:2 729:1 768:1 773:1 795:1 800:8 904:1 922:1 952:1 953:1 1015:3 1026:1 1027:1 1063:2 1066:1 1071:1 1167:1 1198:4 1202:1 1227:1 1310:1 1314:1 1373:12 1377:1 1410:1 1412:1 1419:1 1432:1 1449:1 1462:1 1515:1 1524:1 1535:1 1569:1 1588:1 1719:2 1802:1 1817:1 1840:3 1846:1 1933:1 1953:2 1960:2 1977:1 2042:1 2113:1 2233:1 2236:1 2300:3 2315:1 2343:1 2361:2 2362:4 2363:1 2385:1 2387:1 2450:2 2478:1 2490:1 2587:1 2678:1 2679:1 2685:2 
1 113:1 144:1 280:2 356:2 893:2 929:1 1358:2 2115:2 
0.05468813463063056 14:2 100:1 108:2 113:9 143:9 170:1 216:1 219:1 226:5 230:4 234:1 236:3 316:1 322:2 325:2 330:2 355:1 417:1 480:1 496:1 545:1 615:1 617:1 646:2 653:3 661:2 689:1 757:1 800:11 843:2 888:2 904:5 1023:6 1026:7 1140:4 1156:1 1274:1 1366:1 1373:8 1446:1 1449:2 1579:2 1677:1 1695:1 1743:1 1745:1 1833:2 1844:4 1847:3 1866:1 1907:2 1976:1 1980:1 2007:1 2117:1 2124:2 2126:1 2246:4 2330:4 2361:1 2362:3 2409:2 2434:2 2437:3 2468:1 2493:1 2540:1 2581:1 2596:1 2621:1 
0.392840695718813 113:1 250:2 742:2 925:2 929:2 1075:2 1373:4 1723:1 1847:3 1949:2 2429:2 2659:1 
0.5312164520744579 113:1 250:2 743:2 925:2 929:2 1075:2 1373:4 1847:2 1848:1 1949:2 2429:2 
0.166626846374007 14:3 36:1 49:1 108:1 113:9 143:3 146:1 170:1 173:1 174:1 226:4 230:7 232:1 250:2 289:2 297:3 347:1 355:2 363:1 399:1 417:1 421:5 486:1 492:1 496:1 545:1 615:1 780:1 781:2 800:8 823:2 888:1 904:2 907:2 945:2 953:1 1063:8 1075:1 1140:14 1156:1 1343:5 1366:1 1369:2 1371:2 1373:11 1428:1 1431:1 1449:3 1465:1 1483:2 1568:1 1637:2 1702:5 1719:2 1810:5 1833:4 1844:2 1847:2 1866:1 1872:2 1936:1 2099:1 2108:1 2117:1 2126:1 2165:1 2246:1 2314:3 2361:1 2362:9 2363:2 2381:1 2395:1 2409:2 2528:2 2542:7 2571:7 2580:1 2596:2 2607:1 2621:1 2622:2 2633:1 
0.4680684314474193 113:3 121:1 135:3 143:3 226:1 230:3 250:2 268:1 316:1 330:2 396:1 586:1 615:2 646:1 653:2 688:3 733:2 800:3 856:4 910:1 922:1 945:1 1063:3 1140:4 1182:1 1373:11 1447:1 1449:1 1483:1 1509:1 1573:2 1719:1 1720:1 1795:1 1844:1 1847:4 1856:3 1903:1 2194:1 2231:1 2269:1 2361:1 2362:5 2409:2 2528:2 2590:1 2622:2 
0.03136874902911884 75:1 108:4 113:4 143:1 170:1 220:1 226:1 275:1 330:1 369:1 450:1 469:1 530:1 577:3 637:1 639:1 691:1 770:1 800:2 806:1 904:1 1057:1 1063:1 1140:3 1156:2 1260:1 1312:1 1358:2 1373:3 1446:1 1449:2 1467:1 1493:2 1606:1 1760:1 1844:1 1967:1 1972:1 2080:1 2144:1 2246:1 2362:2 2375:1 2380:1 2382:1 2396:1 2618:2 
1 113:2 135:2 591:2 764:2 800:2 851:1 1044:2 1063:2 1140:2 1449:2 1696:2 2269:1 2362:2 2537:2 2586:2 
0.001135866226283069 14:3 105:1 113:5 143:4 184:1 187:1 226:1 230:2 284:1 316:1 330:1 355:1 363:1 369:1 421:3 492:1 496:1 545:1 592:1 646:1 757:1 764:3 780:1 800:5 888:2 904:1 945:1 1023:2 1063:1 1070:1 1075:1 1140:8 1143:1 1156:2 1198:1 1291:1 1292:1 1315:1 1343:2 1369:1 1373:3 1406:1 1493:2 1637:1 1696:1 1702:4 1810:4 1845:4 1865:2 2099:1 2102:1 2117:1 2202:1 2314:1 2361:2 2362:5 2363:2 2417:2 2434:2 2441:1 2541:1 2542:2 2571:1 2619:1 
0.07313415784441996 89:1 100:1 108:2 113:6 134:1 135:1 143:1 157:1 170:1 223:1 232:1 233:1 321:1 322:2 330:2 355:1 369:1 410:2 472:1 701:1 800:5 943:2 955:1 1035:1 1063:3 1156:1 1255:1 1307:1 1373:2 1444:1 1449:2 1649:1 1696:2 1740:1 1742:1 1760:1 1975:1 2035:1 2142:2 2168:1 2305:1 2310:1 2314:1 2317:1 2348:1 2355:2 2362:4 2465:1 2508:2 
0.03766531509579787 24:2 108:3 113:3 122:1 167:1 170:1 212:1 251:1 253:1 321:2 322:1 330:4 331:1 355:1 378:1 437:1 443:1 479:3 548:1 768:1 795:1 800:7 925:2 950:1 952:1 1007:1 1015:4 1159:1 1161:1 1167:1 1198:3 1199:1 1227:1 1310:1 1370:1 1373:9 1377:1 1419:1 1437:1 1486:2 1513:1 1515:1 1524:1 1535:1 1569:1 1685:1 1695:1 1817:1 1834:2 1845:1 1847:2 1960:2 1977:1 2113:1 2280:1 2300:5 2306:1 2308:2 2332:1 2362:3 2363:2 2385:1 2465:1 2490:1 2528:2 2587:1 2605:1 2678:1 2679:1 2683:1 
0.01440779397285629 108:1 113:5 143:1 222:1 232:1 266:1 324:1 330:3 410:1 469:1 470:1 472:2 519:1 520:4 555:1 577:4 584:1 615:1 773:1 792:4 800:6 1063:1 1077:1 1156:3 1158:1 1277:1 1291:2 1342:1 1358:2 1373:4 1417:1 1440:1 1446:2 1467:1 1610:1 1616:1 1658:1 1702:2 1768:2 1886:2 1903:1 1915:1 2041:1 2061:1 2070:1 2144:1 2222:1 2361:1 2362:7 2450:2 2562:1 2634:1 2665:1 2714:1 
0.06708929424850944 100:1 108:2 113:9 143:3 170:1 220:1 232:1 266:1 324:2 330:2 410:1 469:2 470:1 472:3 497:1 519:1 520:6 555:1 577:9 584:1 615:4 773:1 792:7 800:11 904:1 1007:1 1063:2 1077:1 1140:1 1156:3 1158:1 1169:1 1178:1 1182:1 1277:1 1291:2 1342:2 1358:4 1373:6 1417:1 1440:1 1446:2 1456:1 1467:1 1493:1 1610:1 1616:1 1630:1 1658:1 1702:2 1763:1 1768:2 1866:1 1886:2 1903:1 1915:3 2007:1 2041:1 2061:1 2070:1 2144:1 2222:3 2361:2 2362:11 2387:1 2409:1 2434:6 2450:2 2562:1 2621:1 2665:2 2714:1 
0.3462312134391626 14:1 54:1 113:4 143:4 146:1 222:1 226:3 230:3 259:2 330:2 421:2 428:1 492:1 496:1 527:1 545:1 617:2 786:1 800:4 888:1 904:1 945:3 957:2 1023:1 1063:1 1140:6 1366:1 1373:6 1653:2 1696:1 1702:2 1810:2 1833:2 1845:2 1865:2 2105:1 2117:1 2126:1 2363:2 2417:2 2466:1 2542:1 2571:2 2712:1 
