svm_type c_svc
kernel_type linear
nr_class 2
total_sv 969
rho -0.202904
label 1 -1
nr_sv 500 469
SV
0.06491747690089054 20:1 91:1 95:3 131:2 255:3 278:1 280:1 310:1 341:1 360:1 401:1 451:1 686:1 751:3 785:1 864:1 1125:1 1258:6 1335:1 1564:1 1573:2 1586:2 1730:1 1826:1 1866:1 1933:1 1970:3 2180:2 2357:1 
0.4883547030517483 95:1 346:2 562:2 751:2 1240:2 1258:4 1391:2 1582:1 1693:3 2189:1 2430:2 
0.04279896029054157 91:1 94:2 95:5 113:1 131:2 157:1 297:2 301:2 305:1 341:1 379:2 451:4 475:2 616:2 680:2 714:4 751:1 805:1 933:1 1219:2 1229:1 1248:1 1258:12 1302:2 1385:2 1445:2 1454:1 1590:2 1696:2 1730:1 1733:2 1806:2 1866:1 1970:2 1998:2 2007:1 2085:2 2180:4 2262:2 2397:1 
0.2073933200572965 91:1 95:4 187:1 301:2 339:2 341:1 451:2 477:1 751:2 762:1 842:1 902:1 1125:1 1126:2 1219:2 1229:3 1248:1 1258:7 1419:2 1454:1 1573:2 1677:2 1730:1 1733:1 1866:1 1970:2 1998:1 2109:1 2180:2 2210:1 2349:1 2397:2 
0.1171663873541255 8:3 11:1 46:2 91:2 95:7 121:3 146:1 200:12 207:9 219:1 273:1 289:2 310:4 339:2 352:2 358:2 389:6 429:2 457:1 468:2 502:1 503:1 524:2 590:1 598:2 616:2 617:4 619:1 624:2 734:1 751:11 771:4 831:2 868:1 922:1 928:1 979:1 1008:1 1048:15 1049:2 1183:1 1230:4 1258:7 1334:3 1335:9 1436:7 1448:1 1552:1 1555:2 1564:6 1669:6 1684:5 1696:4 1712:2 1817:1 1820:1 1935:1 2026:1 2066:4 2086:3 2180:11 2181:6 2318:2 2321:1 2325:1 2343:4 2496:1 
0.03358040696979906 91:4 95:9 121:4 146:5 200:9 202:2 207:2 248:2 250:1 273:1 298:1 299:2 310:8 326:2 331:5 339:5 346:5 352:2 358:2 388:3 438:3 503:1 524:5 617:2 619:1 675:1 695:2 708:4 731:1 751:15 766:1 823:1 836:1 839:1 847:6 850:2 865:1 918:1 924:1 979:1 1048:8 1102:1 1220:1 1258:3 1330:3 1335:6 1436:9 1459:1 1482:1 1528:2 1552:1 1555:1 1556:1 1564:3 1626:1 1628:1 1654:1 1669:3 1684:2 1749:1 1871:1 1874:1 1972:2 2007:2 2086:3 2111:1 2180:9 2204:1 2277:1 2306:1 2455:1 
0.3090017831152877 8:1 11:1 32:2 91:3 95:5 121:2 200:1 207:3 310:3 339:1 346:2 389:2 468:1 616:1 617:3 628:1 647:2 751:3 771:1 835:1 847:2 899:1 979:1 1048:8 1230:1 1258:2 1311:1 1335:3 1376:2 1452:1 1508:1 1555:1 1564:2 1669:2 1688:2 1690:2 1715:1 1820:1 2027:1 2066:1 2086:2 2100:1 2139:1 2179:1 2180:3 2216:1 2252:2 2343:1 2454:1 
0.5573917526040882 46:1 74:1 95:2 146:1 310:1 557:1 616:1 751:1 979:1 1121:1 1240:1 1335:1 1419:1 1647:1 1751:1 1947:1 2470:1 
0.01756587575675989 36:1 77:2 91:1 95:6 135:1 151:2 188:1 246:1 299:1 310:10 325:3 339:1 344:1 361:2 367:1 438:1 441:3 524:1 558:2 581:1 616:2 628:1 658:4 738:4 743:1 751:9 753:6 864:5 893:1 979:1 983:1 1012:1 1013:1 1121:3 1182:1 1240:2 1258:5 1335:1 1338:1 1412:1 1518:1 1535:2 1574:1 1597:1 1644:1 1654:1 1815:2 1971:3 2017:1 2059:2 2088:1 2132:1 2173:3 2174:1 2179:1 2180:14 2181:1 2193:1 2203:7 2262:1 2321:1 2324:1 2401:1 2447:1 2455:1 
0.00944918377247971 20:2 76:2 91:4 95:6 146:2 257:1 270:1 288:1 289:1 298:1 310:6 330:1 334:1 335:1 359:2 385:1 444:2 510:2 549:1 551:1 556:1 585:1 616:1 628:1 751:10 811:1 839:1 864:1 891:1 892:1 899:1 906:1 979:2 996:1 1014:3 1092:1 1122:1 1142:1 1144:3 1188:1 1207:1 1222:1 1229:1 1258:6 1269:1 1331:1 1335:1 1374:3 1436:1 1460:1 1556:1 1763:1 1795:3 1797:6 1802:1 1809:3 1892:3 2007:1 2010:3 2046:7 2075:1 2098:2 2179:1 2180:3 2229:2 2401:1 2416:1 2419:3 2455:1 2469:1 
0.3376983755792762 4:2 8:1 91:3 95:8 121:11 200:3 207:14 273:1 310:8 326:1 339:3 346:2 347:1 389:2 441:1 465:5 468:2 524:2 564:1 598:2 616:2 617:6 624:2 628:1 647:2 708:1 741:1 751:11 766:2 771:5 792:1 824:1 831:2 840:1 847:6 873:1 906:2 929:1 955:2 960:1 979:5 1048:16 1049:2 1090:1 1114:1 1230:4 1256:1 1258:5 1314:1 1508:6 1552:2 1558:1 1563:1 1564:2 1650:1 1669:2 1745:1 2024:1 2046:2 2086:2 2129:2 2139:5 2150:1 2174:1 2176:1 2179:3 2180:6 2181:2 2211:1 2343:6 2379:2 
0.1356224798551422 8:1 11:1 25:1 91:5 95:7 109:1 121:3 196:2 200:8 207:8 246:2 273:1 289:2 310:3 323:1 339:3 346:2 389:2 441:1 451:1 468:3 524:4 564:1 616:2 617:2 624:2 628:1 647:1 730:1 751:11 771:2 795:1 831:2 847:1 864:1 959:2 1048:13 1049:2 1090:1 1134:2 1230:4 1255:3 1256:1 1258:7 1290:1 1307:1 1315:2 1334:1 1335:6 1376:2 1436:8 1441:1 1452:1 1552:1 1555:2 1559:1 1564:2 1626:1 1654:4 1669:2 1684:1 1696:3 1712:2 1822:1 1978:1 2011:1 2017:2 2139:1 2150:1 2174:1 2179:1 2180:7 2181:2 2211:1 2246:2 2297:1 2299:1 2305:1 2325:1 2343:4 2370:1 2388:1 2471:2 
0.05800895515614942 40:1 41:3 91:2 95:5 121:2 146:1 163:1 170:1 195:1 265:1 289:4 310:3 343:1 348:1 352:1 371:1 381:2 395:1 438:1 441:1 454:1 477:1 500:1 503:1 616:1 628:1 666:1 680:1 725:1 738:1 751:4 837:1 844:1 850:1 864:1 901:1 931:1 979:1 994:1 1083:2 1094:1 1144:1 1236:2 1258:5 1270:1 1312:1 1330:1 1350:1 1556:1 1573:1 1622:1 1634:1 1662:1 1729:4 1780:1 1793:1 1795:1 1837:1 1872:1 1903:1 1908:1 1919:1 2005:2 2098:1 2287:1 2391:1 2455:1 
0.01175700118847047 8:3 11:1 91:2 95:6 121:7 161:1 194:1 200:7 207:8 289:2 310:2 339:3 346:6 352:1 389:3 465:2 468:2 524:4 552:1 564:2 598:2 617:3 624:3 708:2 750:1 751:12 771:2 831:2 847:3 955:1 979:2 1048:14 1049:2 1090:1 1230:1 1256:2 1258:7 1334:1 1335:2 1363:1 1376:2 1391:2 1436:5 1452:1 1508:1 1564:3 1654:1 1669:3 1696:1 1712:2 1855:3 2083:1 2086:3 2139:1 2180:7 2181:2 2194:1 2231:1 2252:2 2329:1 2343:2 
1 95:1 121:1 146:1 299:1 310:1 339:1 373:1 379:1 451:1 524:1 539:1 738:1 751:1 797:1 831:1 1048:1 1049:1 1144:1 1258:2 1391:1 1703:1 1712:1 1795:1 1855:1 1983:1 2139:1 2178:1 2179:1 2180:1 
0.1482695318339976 121:2 198:1 200:2 207:2 258:2 273:1 310:1 352:1 524:1 628:1 751:3 864:1 1048:2 1156:1 1258:1 1391:2 1436:2 1452:1 1745:1 1844:1 1855:2 1992:1 2180:3 2362:2 2454:1 
0.266358725507839 66:2 71:2 95:4 297:2 301:2 451:3 524:2 616:2 852:2 1219:2 1230:2 1258:6 1302:2 1355:1 1713:2 1730:1 1765:2 1866:1 1970:2 2236:1 2246:2 
0.6892608197880985 95:3 310:1 468:2 524:2 616:2 628:1 679:1 751:2 864:1 927:2 1222:2 1258:4 1958:2 2179:2 2430:2 2455:1 
0.08425155506207582 2:1 95:3 294:1 296:4 301:1 310:3 438:1 441:1 544:4 706:1 779:1 781:1 797:1 864:1 975:2 979:1 1048:1 1330:2 1335:1 1391:1 1684:2 1756:1 1850:1 1862:1 2166:1 2179:1 2180:1 2185:1 2277:1 
0.2920869254305299 451:1 523:2 692:2 1229:2 1258:12 1355:1 1475:2 1573:2 1576:2 1590:2 1638:2 1712:2 1730:1 1737:1 1866:1 1873:1 1970:2 2071:1 2144:4 2186:4 2256:1 
0.3811933360455093 4:2 8:3 11:1 40:2 46:2 91:5 95:6 121:7 167:4 200:3 207:2 310:3 339:2 346:9 389:3 465:2 468:2 524:2 564:4 598:2 616:2 624:2 647:3 751:9 766:3 771:1 831:2 847:2 955:3 979:2 1048:14 1230:3 1255:5 1256:4 1258:7 1307:3 1508:2 1554:3 1564:3 1632:3 1654:5 1669:3 1713:2 1780:2 1948:1 2025:1 2086:3 2139:3 2150:1 2179:3 2180:10 2181:3 2252:2 2379:3 2504:2 
0.6459660937949382 6:2 95:2 273:1 301:1 310:1 392:3 524:2 628:1 738:1 751:3 753:1 931:1 979:1 1023:1 1048:1 1258:3 1330:1 1391:2 1396:2 1445:2 1479:1 1554:1 1564:1 1669:1 1698:2 1821:1 2021:2 2065:1 2150:2 2179:2 2180:5 2203:1 2234:3 2496:1 
0.004312406317438167 223:1 273:2 323:2 384:4 451:1 524:4 620:1 943:1 1258:12 1355:1 1385:4 1430:1 1443:2 1446:2 1573:2 1630:4 1730:1 1866:1 1873:1 1970:2 2085:4 2256:1 
0.0006435874535506663 88:1 91:7 95:5 121:1 186:2 214:1 289:1 298:1 301:1 310:5 311:1 338:1 390:1 425:1 441:1 448:1 541:4 558:2 593:1 616:2 628:1 688:2 695:1 751:8 864:2 871:1 879:1 899:2 917:1 979:2 996:1 1011:1 1027:1 1036:1 1082:1 1090:5 1126:1 1129:1 1131:1 1144:3 1166:1 1229:1 1258:7 1276:1 1335:1 1437:1 1459:1 1580:9 1634:2 1705:2 1745:1 1795:3 1893:8 1905:1 2043:1 2068:1 2075:1 2076:1 2095:1 2180:9 2204:1 2216:1 2311:1 2329:1 2344:1 2366:2 2443:1 2471:2 
0.2068818036571508 91:1 93:2 95:5 135:1 146:1 162:1 207:3 216:1 298:1 301:1 310:1 339:2 352:1 373:1 379:1 451:1 457:1 500:1 524:1 558:2 616:2 626:1 751:7 753:1 766:1 797:2 854:3 960:1 979:2 1022:1 1048:4 1144:1 1258:3 1266:1 1322:1 1335:1 1444:1 1461:2 1564:1 1576:1 1745:1 1795:1 1860:2 1897:1 1908:1 1925:1 1983:1 2179:1 2180:5 2203:1 2207:2 2363:1 2404:1 2455:2 
1 32:2 95:3 310:1 468:2 524:2 616:2 628:1 679:1 864:1 899:2 1258:2 1958:2 2179:2 2216:2 2429:2 2455:1 
0.01677377612425443 32:5 65:2 73:1 75:1 91:7 95:10 106:2 121:1 133:1 146:2 150:1 177:1 207:3 288:2 301:1 310:3 370:1 428:1 430:1 441:1 449:1 451:3 459:1 492:1 539:3 616:4 639:1 738:2 751:6 899:3 979:2 1007:1 1013:1 1048:3 1094:1 1108:5 1144:3 1172:2 1209:1 1248:3 1250:1 1258:9 1335:2 1336:1 1380:1 1419:1 1451:1 1533:1 1577:1 1605:1 1620:1 1688:1 1716:1 1733:1 1748:1 1755:2 1756:1 1795:3 1806:1 1882:1 1925:1 1958:1 1971:2 1994:1 1998:1 2120:1 2150:1 2179:1 2180:7 2198:1 2204:1 2216:5 2252:2 2271:3 2349:2 2370:1 2401:1 2455:4 
0.0282089957654683 8:1 65:2 91:6 95:12 121:2 162:3 207:4 257:3 275:1 295:1 299:5 310:3 398:2 409:1 418:1 439:1 441:1 451:3 470:1 492:1 517:6 524:1 558:5 616:9 695:2 720:1 751:4 793:1 843:3 856:1 864:1 902:1 1048:6 1065:1 1092:1 1124:2 1137:1 1142:1 1144:4 1185:1 1230:1 1248:1 1258:16 1314:3 1322:3 1335:5 1412:1 1451:3 1475:1 1507:1 1580:1 1654:4 1677:1 1712:1 1713:1 1733:1 1755:1 1768:1 1795:4 1806:1 1860:1 1882:6 1945:5 1951:1 1991:3 1998:1 2109:1 2150:3 2179:2 2180:10 2252:2 2267:1 2329:1 2341:3 2349:1 2362:3 2363:3 2370:1 2437:3 2447:1 2455:2 2479:2 
0.04651976531216384 4:1 91:5 95:3 121:1 132:3 140:1 146:1 219:1 223:3 280:1 282:1 289:1 306:1 310:3 320:1 352:1 390:1 429:1 459:1 513:2 616:1 628:1 644:1 645:1 686:1 712:1 751:3 788:1 804:2 811:1 839:1 864:1 871:1 873:1 879:1 899:1 917:1 926:1 946:2 979:2 1104:1 1141:3 1222:1 1258:7 1277:5 1413:1 1417:2 1436:1 1459:1 1460:2 1525:1 1573:1 1603:1 1669:1 1673:1 1736:3 1762:1 1783:1 1908:1 1951:1 2040:1 2062:1 2180:2 2277:1 
0.2572280487067463 91:3 95:5 146:1 216:3 289:1 298:1 310:3 324:1 351:1 352:1 408:1 438:1 439:2 571:1 603:1 628:1 678:3 681:5 751:2 939:1 1229:1 1254:1 1258:2 1335:4 1419:1 1430:1 1436:3 1446:1 1643:4 1689:1 1860:1 2277:1 2289:1 2298:1 2401:1 2455:2 
0.05290420991180581 28:2 91:3 95:8 103:3 114:1 121:2 137:2 146:1 147:1 214:1 289:2 299:2 301:1 310:3 322:2 352:1 413:2 422:2 430:1 444:2 448:1 457:1 484:1 524:2 628:1 649:4 658:1 688:1 738:1 751:15 756:1 786:3 861:1 864:3 873:2 962:1 979:5 987:1 994:1 1001:2 1027:2 1036:1 1054:1 1099:2 1100:3 1101:4 1144:2 1163:1 1199:1 1210:5 1258:3 1276:1 1330:6 1331:1 1335:2 1361:1 1436:1 1458:1 1481:1 1496:1 1573:1 1664:3 1687:2 1795:2 1814:1 1832:4 2007:1 2023:2 2030:2 2102:1 2104:1 2179:3 2180:3 2252:2 2288:1 2435:1 2471:2 2486:1 2494:1 
0.08261531572810445 40:2 46:2 89:2 95:7 113:1 301:3 341:1 451:4 616:2 751:1 914:2 1144:1 1219:2 1229:2 1258:9 1298:2 1444:2 1454:1 1677:2 1730:1 1780:2 1795:1 1847:1 1866:1 1881:2 1889:1 1901:2 2109:1 2256:1 2300:2 2349:1 2397:2 
0.2074773728752105 8:4 91:3 95:10 121:3 145:1 200:8 207:12 273:1 289:1 310:2 339:2 346:2 358:2 389:4 429:2 457:1 468:2 524:4 598:2 616:2 617:2 624:2 628:1 635:1 738:1 751:11 766:3 771:5 831:2 847:2 868:1 928:1 971:3 979:1 1008:1 1048:17 1144:1 1230:4 1251:8 1255:3 1258:6 1265:1 1307:2 1334:1 1335:7 1373:1 1555:1 1564:4 1654:3 1669:4 1684:1 1696:2 1713:2 1745:1 1795:1 1992:1 2024:1 2028:1 2065:1 2086:1 2112:1 2170:1 2180:9 2181:5 2234:2 2252:2 2318:2 2343:7 2454:2 2496:1 
0.007126217350791141 91:9 95:8 121:2 140:1 146:1 186:2 263:1 276:4 280:1 289:1 299:1 310:2 338:1 352:2 355:3 371:1 376:2 407:1 429:2 441:2 451:1 457:1 459:1 531:3 616:2 618:1 668:1 686:1 688:1 717:1 751:4 776:1 778:1 788:2 799:1 811:2 864:1 956:2 979:3 1094:2 1144:5 1158:1 1159:1 1198:2 1229:1 1245:1 1253:3 1258:4 1275:1 1287:1 1335:1 1339:1 1359:2 1402:1 1455:2 1547:1 1590:3 1626:2 1660:1 1675:2 1684:1 1746:1 1757:1 1773:2 1795:5 1802:1 1924:1 1947:1 1951:4 1991:1 2030:1 2098:2 2179:1 2180:5 2277:1 2284:1 2312:1 2313:1 2318:5 2331:1 2389:1 2401:4 2449:1 2505:1 
0.1561533183085312 91:2 95:5 97:2 106:1 146:2 223:1 297:2 301:2 341:1 451:4 558:2 572:1 582:1 616:2 787:2 983:1 1192:2 1203:1 1213:1 1219:2 1258:9 1298:2 1302:2 1454:1 1527:1 1557:1 1677:1 1730:1 1737:2 1866:1 1970:2 2156:1 2180:2 2256:1 2458:2 
0.233745978492078 8:1 91:3 95:3 121:10 200:4 273:1 290:2 310:7 339:1 346:2 358:2 389:4 441:1 468:2 524:1 558:2 564:1 598:2 616:2 617:7 624:2 628:1 643:1 647:1 729:1 734:1 741:1 751:11 766:2 771:5 831:8 873:1 891:2 971:2 1048:18 1230:3 1251:3 1255:1 1256:1 1258:12 1334:7 1452:1 1552:2 1563:1 1564:4 1654:1 1669:4 1713:6 1745:1 1817:1 2086:1 2139:6 2150:1 2174:1 2180:3 2181:4 2211:1 2234:6 2343:5 
0.2977190978859894 8:2 25:2 46:2 91:2 95:11 121:6 200:4 202:1 207:19 310:2 339:4 346:6 389:1 411:2 447:1 465:9 468:2 524:4 564:2 598:2 628:1 708:2 751:10 766:3 771:4 831:2 847:10 922:1 955:2 971:3 979:9 1048:22 1090:2 1165:1 1230:2 1251:2 1256:2 1258:4 1307:9 1391:2 1452:4 1552:2 1564:2 1669:3 1713:2 1745:1 2066:1 2176:1 2179:2 2180:4 2181:3 2234:2 2252:2 2343:4 2362:1 
0.117137379078878 46:1 91:1 95:3 121:4 179:1 200:1 202:1 204:1 273:1 289:1 298:1 326:2 339:2 346:3 352:1 524:2 558:2 616:2 708:4 751:6 839:1 847:2 864:1 1050:1 1142:1 1251:1 1258:2 1311:1 1331:1 1459:1 1638:2 1766:1 2086:1 2174:2 2179:2 2180:2 2454:1 2455:1 2476:1 
0.1995078637488915 46:2 95:4 121:3 175:1 207:1 273:1 289:1 310:3 326:3 339:2 346:2 468:1 524:2 557:2 616:2 632:1 708:2 751:6 847:5 944:1 979:1 1048:3 1230:1 1258:1 1376:1 1419:2 1445:1 1577:1 1684:2 1696:1 1903:1 1909:2 1948:1 2065:1 2150:1 2174:1 2176:1 2180:5 2196:1 
0.02995145778852874 65:1 87:1 91:1 95:5 102:1 121:1 146:1 226:1 299:1 301:1 310:6 318:1 323:1 339:3 346:1 349:1 352:1 360:1 413:1 430:2 438:1 451:1 510:1 550:2 558:2 616:1 646:2 679:1 719:5 751:5 761:1 802:1 864:3 951:1 982:1 1035:2 1058:1 1114:1 1240:1 1248:1 1258:6 1264:1 1335:2 1338:1 1339:1 1343:1 1347:1 1457:1 1469:1 1552:1 1621:1 1634:1 1655:1 1682:1 1888:1 1903:1 1904:1 1970:1 2017:2 2029:1 2083:1 2179:1 2180:4 2185:3 2243:1 2336:1 2391:1 2455:1 
0.03985495176712417 8:2 11:1 21:1 64:2 91:4 95:6 121:7 136:1 194:1 200:4 207:6 219:1 244:1 273:1 289:3 298:1 310:5 326:2 339:4 346:7 389:4 440:1 465:2 468:3 470:1 503:1 523:1 524:2 564:1 592:1 598:2 617:2 619:1 624:2 628:1 641:1 643:1 695:1 751:12 766:2 795:1 826:1 831:2 847:5 905:1 936:2 955:2 971:2 979:4 1048:12 1071:1 1090:2 1183:2 1194:1 1230:3 1251:4 1256:1 1258:9 1307:1 1321:1 1335:2 1376:2 1391:2 1403:1 1452:1 1457:1 1508:2 1527:1 1559:1 1564:4 1669:4 1684:1 1696:1 1713:2 1739:1 1755:1 1855:2 1874:1 1994:1 2086:1 2139:2 2166:1 2176:1 2179:2 2180:9 2181:2 2234:2 2252:2 2296:2 2343:1 2416:1 2454:1 2471:1 2498:1 
0.08353715899897211 91:2 146:1 299:2 310:2 312:1 339:1 451:1 537:1 751:3 753:3 979:1 1090:1 1109:1 1112:1 1258:6 1297:2 1391:2 1423:1 1475:2 1644:2 1733:2 1743:1 1806:2 1855:2 1921:1 1974:1 1998:1 2093:1 2180:3 2368:2 2458:1 2465:2 
0.7042694647660059 95:1 298:1 310:1 327:1 524:1 590:1 628:1 751:1 850:1 854:1 1258:2 1335:1 1391:1 1515:1 1564:2 1855:2 1983:1 2179:1 2207:1 
0.0623545999903955 28:2 91:3 95:7 103:1 113:1 121:2 279:1 295:1 298:2 299:2 319:1 322:1 371:1 390:1 413:2 424:1 438:1 441:1 503:1 519:1 604:1 628:1 649:2 669:1 688:2 738:1 751:12 786:3 864:1 873:1 962:1 979:2 994:1 1099:2 1229:6 1258:9 1275:1 1330:4 1331:1 1335:2 1390:1 1458:2 1505:2 1553:1 1556:2 1609:1 1641:1 1664:3 1687:1 1745:1 1750:1 1933:2 2007:1 2023:4 2042:1 2076:1 2179:4 2180:1 2181:1 2287:1 2288:2 2436:1 2455:1 2486:2 
0.04309646654964697 95:2 301:1 310:1 337:1 352:1 392:2 438:1 523:1 628:1 649:2 731:1 751:2 753:1 864:2 931:1 979:1 1023:1 1048:1 1144:1 1246:3 1258:4 1441:1 1474:1 1475:2 1479:1 1554:1 1564:1 1578:2 1632:1 1646:1 1669:1 1698:2 1728:1 1795:1 2007:2 2021:2 2150:2 2179:2 2180:5 2203:1 2455:1 2496:1 
0.004769555673944694 8:2 91:3 95:3 120:1 121:2 214:1 246:1 289:1 310:9 352:1 355:1 370:1 438:1 474:1 536:1 591:1 664:1 738:1 743:1 751:9 840:1 864:4 889:2 892:1 902:2 979:1 1040:2 1074:2 1075:1 1258:3 1311:1 1312:1 1330:2 1331:2 1335:2 1540:1 1542:1 1654:1 1661:3 1756:1 1815:1 1888:1 1958:1 1966:8 1986:1 2007:4 2017:1 2127:2 2179:1 2180:4 2181:1 2197:1 2221:1 2263:1 2471:1 
0.07032320818703287 8:1 11:1 25:2 32:2 91:5 95:14 121:7 146:2 200:4 207:1 219:1 326:3 339:2 346:3 358:2 389:3 465:9 468:2 523:4 564:2 598:2 616:2 624:2 647:2 708:1 751:7 771:9 831:2 840:2 847:13 899:2 923:2 979:11 1048:22 1090:1 1144:2 1183:5 1230:5 1246:2 1255:2 1256:2 1258:6 1289:2 1307:9 1311:2 1315:2 1436:1 1452:2 1552:1 1564:3 1654:2 1669:3 1712:1 1795:2 1929:1 1934:1 1935:1 1936:1 1948:1 2065:3 2066:2 2150:1 2176:1 2179:2 2180:1 2181:2 2216:2 2252:2 2343:6 2370:1 2447:1 
0.5034335282901259 32:2 95:2 310:1 468:2 523:3 616:2 628:1 679:1 864:1 899:2 1258:4 1475:1 1576:2 1958:2 2051:2 2179:2 2216:2 2364:2 2455:1 
0.1495756815452014 87:2 95:2 151:1 301:1 310:1 451:1 468:2 523:3 616:2 628:1 679:1 688:1 864:1 1258:5 1297:2 1298:1 1475:1 1628:1 1660:2 1958:2 2179:2 2186:2 2300:1 2431:2 2455:1 
0.1146213532207327 8:2 11:1 87:2 91:4 95:6 121:8 171:2 179:1 195:1 200:6 207:2 216:1 219:1 245:1 289:1 298:2 301:2 310:2 322:1 339:2 360:1 371:1 441:1 468:2 477:1 523:1 524:2 590:1 616:2 617:1 708:2 751:15 771:1 831:2 847:4 850:2 864:1 941:1 944:6 947:4 979:1 1026:1 1048:2 1090:1 1156:3 1194:1 1216:1 1246:4 1258:8 1261:3 1312:2 1330:1 1334:1 1335:1 1436:1 1442:1 1452:3 1475:1 1556:1 1582:2 1598:1 1604:1 1660:2 1684:3 1725:1 1749:1 1775:1 1803:2 1870:1 1903:1 1953:1 1965:1 2065:1 2066:5 2107:1 2171:1 2180:17 2225:2 2254:2 2324:1 2343:2 2377:2 2416:3 2454:3 2497:1 
0.2068889298808252 5:1 58:2 95:4 135:1 178:1 197:1 207:2 298:2 310:1 327:1 441:1 628:2 647:1 751:4 753:1 771:1 850:2 851:1 854:1 965:1 1048:2 1149:1 1258:3 1335:2 1389:2 1444:1 1564:2 1579:1 1695:1 1983:1 2007:2 2179:2 2180:1 2207:2 2504:1 
0.5740941585048388 4:2 25:1 95:3 121:3 200:3 207:1 289:1 310:2 339:1 429:2 523:1 616:2 708:2 751:5 808:1 892:1 899:2 947:2 1048:2 1258:3 1277:2 1335:1 1441:1 1475:1 1684:2 1909:1 1972:1 2086:2 2091:1 2174:1 2176:1 2180:3 2306:1 2329:1 2336:1 
0.1024764360278054 2:1 9:3 91:2 95:2 121:1 310:1 339:1 349:2 352:1 696:1 738:1 751:2 761:1 864:1 907:3 1162:1 1222:1 1248:1 1258:1 1309:1 1330:1 1335:4 1389:1 1391:1 1412:1 1756:1 1829:1 2180:1 
1 95:1 310:1 339:2 438:1 441:2 500:1 628:2 679:1 681:2 751:2 864:1 882:1 948:1 1080:1 1258:1 1534:1 1638:1 1643:2 2179:1 2401:1 2455:1 
0.09618158468633789 95:3 301:2 339:2 341:1 451:4 751:3 1126:2 1219:2 1229:5 1258:7 1300:2 1442:2 1454:1 1700:2 1730:1 1866:1 1881:2 1918:1 2180:1 2236:1 2300:2 2397:5 
0.2990570126367064 95:2 248:2 379:2 738:2 979:2 1319:1 1431:2 1467:2 1528:2 2007:2 2303:1 
0.5099658810620654 95:2 248:2 628:2 738:2 979:2 1111:2 1319:1 1528:2 2007:2 2303:1 
0.2880205404732434 8:2 11:1 46:1 91:4 95:6 121:4 194:1 200:5 207:10 244:1 246:2 258:1 289:2 310:3 339:6 346:7 352:1 380:1 389:2 430:1 441:1 465:2 468:3 523:5 524:1 550:1 564:2 598:2 617:2 624:2 708:2 750:1 751:11 771:1 831:2 847:3 864:2 908:1 955:1 979:2 1042:1 1048:12 1049:2 1090:1 1114:1 1229:1 1230:1 1256:2 1258:9 1307:2 1330:1 1331:1 1335:2 1391:2 1411:1 1436:4 1452:3 1508:1 1552:2 1564:2 1641:1 1669:2 1712:2 1844:1 1855:2 1870:1 1908:1 2017:2 2086:2 2139:1 2150:2 2174:1 2180:6 2181:2 2211:2 2252:2 2329:1 2336:1 2343:2 2362:1 2454:1 2455:1 2501:1 
0.005090918104285253 15:2 56:1 88:1 91:9 95:6 97:1 121:1 129:1 146:3 153:2 207:1 223:1 251:1 257:4 266:1 289:2 298:1 299:2 310:6 319:1 344:2 357:1 362:2 390:1 406:1 439:1 444:2 529:5 549:1 558:4 573:1 615:2 616:2 628:1 658:1 664:1 679:1 693:2 707:1 720:1 751:6 762:1 787:1 804:1 864:3 923:1 944:1 987:1 1027:1 1048:1 1094:1 1126:1 1129:1 1144:1 1162:1 1174:1 1199:1 1213:1 1258:7 1335:3 1391:2 1516:1 1551:1 1556:1 1654:1 1705:1 1745:1 1783:1 1791:2 1795:1 1860:1 2018:2 2097:2 2103:1 2162:1 2180:6 2202:1 2204:1 2277:3 2401:1 2419:2 2455:3 
0.1819939032662729 11:1 46:1 91:2 95:11 121:5 145:1 146:1 200:6 207:9 228:2 289:2 298:1 326:1 331:1 339:1 346:2 389:2 429:2 457:1 468:2 501:1 616:1 628:1 751:11 771:5 797:2 831:4 847:5 850:1 868:2 940:1 947:2 979:1 1008:1 1048:12 1144:1 1183:2 1230:4 1251:2 1258:14 1265:1 1307:2 1335:6 1373:1 1555:3 1562:4 1564:4 1654:1 1669:4 1684:2 1693:5 1712:4 1795:1 1822:1 1934:1 1937:1 2044:1 2066:4 2086:2 2170:1 2179:2 2180:5 2181:4 2252:2 2261:2 2278:1 2306:1 2318:2 2343:3 
0.03960820206869869 4:5 18:1 91:4 95:2 121:1 146:3 200:6 202:1 289:1 298:1 299:1 310:5 346:6 352:2 376:2 382:1 411:5 430:1 438:1 510:3 523:4 524:1 541:1 617:1 628:1 648:2 708:3 751:6 822:2 908:1 915:1 921:1 1026:1 1048:9 1114:1 1197:1 1220:1 1230:1 1258:4 1335:1 1391:2 1436:1 1475:1 1564:5 1576:1 1609:1 1654:2 1669:5 1871:1 1874:1 1929:1 1931:1 1936:2 2028:1 2165:1 2179:2 2180:4 2181:1 2329:2 2404:1 2447:1 2455:2 2504:1 
0.0314727520338245 58:2 91:4 95:10 127:1 146:3 289:2 299:2 307:3 310:3 316:1 339:6 352:1 371:1 373:1 430:2 435:1 438:1 441:1 628:2 738:4 751:13 753:3 868:1 874:4 884:1 888:1 913:1 915:1 979:4 982:2 989:1 990:3 1085:1 1159:1 1208:2 1229:1 1248:3 1258:9 1335:10 1377:1 1389:2 1423:1 1552:1 1647:1 1655:1 1688:1 1709:1 1726:1 1733:2 1743:2 1745:1 1801:3 1806:2 1812:1 1884:2 1900:1 1925:2 1961:1 1971:2 1998:2 2007:2 2180:9 2203:3 2262:2 2272:2 2349:2 2420:2 2455:4 2458:1 2494:1 
0.02144638570337675 91:2 95:6 121:2 188:1 199:1 213:3 289:4 298:3 299:1 310:4 352:1 429:2 438:1 457:1 468:1 484:6 487:2 511:5 531:3 533:2 546:1 614:1 616:1 628:1 673:1 688:1 701:1 751:4 784:3 785:1 872:1 878:1 899:2 917:1 935:1 979:1 1036:1 1059:1 1122:1 1129:1 1141:1 1144:2 1147:1 1188:1 1214:1 1222:1 1258:8 1287:1 1293:1 1312:1 1459:1 1573:2 1674:1 1708:1 1740:1 1746:1 1783:1 1795:2 1908:1 1991:1 1995:1 2020:3 2104:1 2179:1 2180:3 2196:1 2309:1 2318:5 2329:2 2382:1 2400:1 2438:1 2455:1 
0.01590967417691419 91:2 95:3 137:1 211:3 223:2 237:1 282:1 299:2 301:1 311:1 352:1 390:1 429:1 531:1 616:1 627:1 628:1 669:1 751:5 819:1 839:1 864:1 899:1 946:1 962:1 1131:1 1144:2 1258:2 1277:3 1279:1 1335:1 1482:1 1598:1 1609:1 1654:1 1736:2 1795:2 1857:1 1903:1 2065:1 2161:1 2180:2 2395:1 2424:3 2455:1 2486:1 
0.6053088106456636 4:3 91:1 95:2 121:2 200:3 207:1 310:2 339:1 346:2 358:1 429:2 616:1 628:1 708:2 750:1 751:3 803:1 851:1 864:1 899:2 947:2 1048:4 1277:2 1331:1 1669:1 1694:1 1909:1 1929:1 1930:1 2086:1 2176:2 2180:4 
0.006348097377134407 65:1 91:1 95:10 121:2 207:1 219:2 270:2 299:1 310:1 374:4 398:1 401:3 470:1 505:4 571:3 616:4 695:2 751:2 793:1 931:1 1048:2 1124:1 1126:3 1229:3 1258:9 1360:3 1419:3 1433:4 1654:3 1677:1 1690:2 1755:1 2035:1 2179:2 2180:1 2199:1 2252:2 2397:3 2437:2 2447:2 
0.01252795507526137 78:2 91:1 95:14 116:2 121:1 162:1 195:1 207:2 289:1 298:2 310:2 337:1 339:3 348:2 371:2 379:1 403:3 405:7 426:1 441:5 451:1 457:1 469:1 593:1 616:4 628:2 653:1 722:1 738:1 751:8 797:1 847:1 864:2 870:4 879:1 944:1 949:4 979:2 992:1 1008:1 1048:3 1049:1 1090:1 1144:2 1172:1 1229:1 1236:1 1250:1 1258:22 1314:1 1331:2 1333:1 1335:4 1342:2 1388:1 1391:3 1419:1 1441:1 1548:2 1574:1 1595:2 1612:1 1632:1 1638:1 1654:1 1677:1 1684:2 1688:1 1713:2 1728:1 1742:1 1795:2 1833:2 1925:2 2038:4 2065:1 2086:1 2179:3 2180:6 2215:1 2252:2 2277:1 2330:1 2355:1 2359:4 2362:3 2385:1 2400:1 2440:5 2455:8 2466:1 2489:7 
0.3792642401789759 379:2 429:2 628:2 738:2 979:2 1258:4 1391:2 1950:1 2109:2 2296:2 2393:2 2460:2 
0.04715821418426643 91:2 95:3 125:2 146:1 310:1 339:2 429:3 616:1 628:1 743:1 747:2 751:2 753:1 804:1 864:1 867:1 888:1 998:1 1199:2 1203:1 1223:1 1248:1 1258:3 1330:1 1335:1 1526:1 1556:2 1611:1 1733:1 1806:1 1971:1 1998:1 2156:1 2180:2 2203:3 
0.001157160364614896 47:1 91:3 95:5 121:2 146:2 207:2 243:1 288:1 289:2 298:2 310:3 311:1 352:1 426:1 439:2 442:6 444:1 481:1 568:1 616:1 628:1 658:1 722:1 738:2 744:1 751:7 771:1 864:2 865:1 870:1 871:1 979:4 1021:1 1041:1 1048:2 1144:1 1172:1 1258:7 1316:1 1330:1 1331:1 1335:4 1389:1 1391:2 1393:1 1419:1 1436:1 1457:1 1582:1 1595:1 1596:1 1622:1 1654:1 1688:1 1699:1 1705:2 1723:1 1728:2 1731:2 1755:1 1769:1 1795:1 1833:5 1926:1 2131:2 2161:1 2176:1 2179:1 2180:5 2252:2 2324:2 2375:2 2379:1 2385:1 2404:1 2416:1 2442:1 2455:2 2480:1 
0.07714106519545251 65:2 95:6 124:3 616:3 720:1 751:6 837:1 985:1 1067:3 1094:3 1255:3 1258:5 1389:3 1391:2 1452:1 1688:2 1755:1 2063:3 2129:2 2179:2 2180:5 2252:2 2437:2 2447:2 
0.008357287293923472 67:1 91:3 95:5 121:2 146:2 219:1 289:2 319:2 330:1 373:1 552:3 616:1 639:1 738:1 751:2 892:1 931:2 944:1 979:1 1142:1 1208:2 1214:1 1229:1 1230:2 1248:2 1255:1 1258:1 1330:3 1335:1 1339:1 1419:2 1430:3 1516:1 1658:1 1716:1 1718:1 1925:1 1940:3 1971:1 1995:1 2109:1 2179:1 2180:7 2246:3 2272:1 2349:2 2416:1 2458:1 
0.0589629623805773 72:1 91:6 95:4 132:3 151:1 223:2 263:1 289:1 298:1 310:6 315:1 344:1 355:1 390:1 429:1 430:1 438:1 500:1 613:1 616:1 625:1 628:1 644:1 686:2 751:3 759:1 788:1 801:1 819:1 864:1 899:1 937:1 946:1 953:1 979:1 998:1 1113:2 1141:1 1144:2 1229:1 1258:7 1275:1 1277:6 1279:1 1330:1 1380:3 1547:1 1573:1 1654:1 1673:1 1683:1 1697:1 1774:1 1781:1 1795:2 1925:4 1953:1 2098:1 2104:1 2180:3 2192:2 2218:1 2242:1 2388:1 2401:1 2455:1 2473:1 2494:1 
0.03443016830234541 32:2 91:4 95:3 106:2 121:2 133:1 146:4 270:1 280:2 289:2 299:2 310:2 318:1 438:1 441:1 448:1 503:1 513:1 546:1 565:1 606:3 628:1 688:1 694:1 738:1 751:8 819:1 899:1 979:2 998:1 999:1 1027:1 1147:1 1223:2 1229:1 1258:9 1263:1 1310:1 1335:1 1428:1 1457:1 1496:1 1556:1 1609:2 1618:1 1668:1 1746:1 1751:1 1772:1 1783:1 1869:1 1925:1 1951:2 1991:1 2177:1 2180:5 2216:3 2395:1 2401:1 2419:2 2434:2 2455:1 2463:1 2466:1 
1 95:1 346:2 558:2 1240:2 1258:4 1576:1 1694:3 2051:2 2364:1 2466:2 
0.8397374944868045 8:1 11:1 46:1 91:1 95:4 121:1 200:4 207:4 310:1 346:1 389:1 468:2 616:2 617:1 647:3 751:4 771:1 819:1 850:1 944:1 979:1 1005:1 1048:5 1251:4 1258:2 1327:1 1335:2 1564:1 1669:1 1688:3 1833:2 2086:3 2180:8 2199:1 2416:1 2500:1 
0.06330420040179927 4:2 25:1 91:4 95:2 121:4 146:1 200:6 310:2 326:1 339:2 346:4 352:2 468:1 478:1 494:1 590:1 628:1 643:2 697:2 738:1 751:5 766:1 831:2 847:1 891:2 907:2 936:1 947:2 1048:4 1078:2 1090:1 1251:2 1258:4 1335:2 1391:1 1564:1 1669:1 1691:1 1694:2 1698:1 1745:1 1947:2 2066:2 2176:1 2180:2 2252:2 2329:2 2379:1 2447:2 
0.2084280140066715 8:2 11:1 91:2 92:1 95:7 121:6 124:1 146:3 196:1 200:8 207:5 310:2 339:2 346:4 348:1 392:2 457:1 465:1 468:2 590:1 592:1 616:2 708:1 751:7 753:1 766:1 771:1 797:1 831:2 847:4 854:1 947:2 971:2 979:2 1048:9 1049:2 1090:5 1230:1 1251:5 1258:5 1289:1 1307:2 1452:1 1474:1 1479:1 1532:2 1564:3 1609:1 1654:2 1669:3 1684:2 1694:3 1712:2 1713:1 1745:1 1817:2 1884:1 1961:1 2066:1 2086:1 2176:1 2180:6 2252:2 2343:1 2407:1 2454:3 2504:1 
0.1969739107171272 87:2 95:1 346:2 1240:2 1258:4 1412:1 1447:1 1660:2 1694:3 2051:2 2466:2 
0.0715221432437734 91:1 95:4 129:2 289:1 298:1 303:1 306:1 310:1 352:1 439:3 680:2 751:1 764:2 1048:2 1144:1 1178:1 1236:1 1258:5 1444:1 1445:1 1490:1 1573:1 1694:1 1780:2 1791:1 1795:1 2007:2 2063:2 2078:2 2171:1 2180:2 2252:2 2370:2 
0.002053234638788219 58:1 86:1 91:10 95:6 121:3 133:7 254:1 289:2 310:2 390:1 412:1 429:1 469:1 475:1 477:1 541:1 616:1 707:1 740:1 751:2 777:2 798:1 799:1 809:2 864:1 871:1 881:2 899:1 946:2 979:1 1083:1 1135:1 1229:1 1258:7 1277:8 1309:2 1330:1 1331:1 1335:1 1344:1 1413:1 1470:1 1483:1 1552:1 1599:2 1622:2 1654:1 1686:4 1705:1 1793:1 1828:1 1838:1 1872:1 1894:2 1925:1 2176:2 2180:2 2198:1 2207:1 2216:1 2221:1 2268:1 2401:1 2427:1 2432:1 2467:1 
0.2306708972890938 58:1 91:5 95:3 121:1 169:2 257:1 266:1 298:1 301:1 310:3 315:1 329:1 343:1 352:1 429:1 438:1 441:1 471:1 549:1 616:1 628:2 668:1 742:1 751:3 795:1 819:1 846:1 864:1 899:2 937:1 946:1 962:1 1094:2 1131:1 1144:1 1189:2 1229:2 1258:5 1277:3 1328:1 1331:2 1335:1 1413:1 1483:1 1598:1 1686:1 1745:1 1773:1 1795:1 1906:1 1951:2 2062:1 2065:1 2180:3 2329:1 2361:1 2455:1 2469:2 2504:1 
0.01408644731698664 91:6 95:7 97:1 121:2 141:4 146:2 245:1 280:1 310:5 438:1 441:1 558:3 573:4 594:5 616:2 628:1 740:1 751:11 800:1 841:1 864:1 954:1 979:1 1036:1 1054:1 1062:1 1073:1 1091:1 1095:1 1114:1 1136:1 1142:1 1144:3 1157:2 1159:1 1192:1 1229:1 1258:5 1269:1 1330:2 1335:3 1353:1 1383:1 1412:1 1413:1 1414:3 1482:2 1556:1 1617:1 1632:1 1683:1 1699:2 1701:1 1725:1 1769:1 1770:1 1795:3 1825:2 1854:1 1899:1 1953:1 2104:1 2133:2 2162:1 2167:1 2180:7 2181:1 2198:1 2311:2 2421:1 2480:1 
1 95:3 558:2 616:2 1240:1 1947:2 1970:2 2201:1 2210:2 
0.1158777408373694 1:4 8:1 11:1 95:3 121:4 228:1 310:2 571:1 590:3 617:1 667:1 681:2 751:4 831:4 864:1 944:3 1048:2 1156:2 1258:4 1261:4 1304:3 1574:1 1579:3 1643:2 1684:3 1688:2 1690:1 1742:4 2137:1 2231:2 2252:2 2298:2 
0.1588330131387919 11:1 22:1 58:1 91:3 95:6 121:2 146:1 286:2 299:1 301:1 310:4 331:1 348:1 356:1 371:1 373:2 616:2 628:2 738:1 751:2 864:2 913:1 931:1 979:1 1214:1 1229:4 1230:7 1248:4 1255:3 1258:12 1290:1 1335:2 1348:1 1421:1 1430:1 1519:1 1622:1 1745:1 1780:1 1801:1 1806:2 1884:1 2109:2 2180:5 2204:1 2228:1 2246:10 2327:1 2349:3 2397:1 2471:1 
0.01936682440437066 5:1 28:1 32:2 91:9 95:10 121:3 151:2 169:1 257:2 288:1 289:2 301:1 310:3 318:1 352:2 408:1 454:1 459:1 477:1 503:3 508:1 525:1 534:4 587:1 616:2 625:1 628:1 661:1 673:1 712:1 751:5 753:1 757:1 804:1 819:1 821:1 839:1 846:1 851:1 899:2 981:1 1052:2 1094:1 1113:1 1144:1 1153:1 1229:4 1257:1 1258:2 1259:1 1275:1 1279:1 1330:1 1335:3 1583:3 1585:7 1641:1 1650:1 1653:1 1654:1 1745:1 1794:2 1795:1 1802:2 1827:1 2033:2 2180:2 2198:1 2216:5 2220:1 2247:1 2250:2 2295:2 2311:2 2357:1 2404:1 2463:1 
0.02231981456752258 33:2 91:3 95:5 121:4 127:1 131:1 195:1 257:1 289:1 299:2 310:2 312:2 330:1 331:1 427:1 429:2 461:3 616:1 628:1 751:3 899:2 944:3 979:1 1036:1 1151:1 1222:1 1258:3 1277:4 1380:2 1425:1 1571:1 1650:1 1677:2 1745:1 1958:1 1982:1 2156:1 2180:4 2223:5 2284:1 2455:1 
0.01555798401003551 9:2 19:2 20:1 91:3 95:7 97:1 120:1 121:1 146:1 207:1 301:3 303:1 310:2 338:1 347:3 352:1 353:1 360:1 361:2 417:1 503:1 571:1 578:1 612:1 618:1 628:1 724:1 738:1 751:12 771:1 772:1 804:1 821:1 847:1 864:1 865:1 971:1 979:3 1048:1 1097:1 1128:1 1133:2 1137:1 1258:7 1335:4 1376:1 1401:1 1442:1 1622:1 1669:1 1745:1 1800:1 1855:3 1867:2 1908:1 1925:1 1968:1 1980:4 2000:1 2007:1 2135:1 2180:9 2198:1 2216:1 2274:1 2302:1 2366:1 2410:1 2416:1 2455:1 2460:1 
1 95:1 411:2 1240:1 1391:2 1947:2 1970:2 2201:1 2210:2 
0.09153231900342287 1:2 8:1 11:1 91:1 121:3 327:3 339:1 590:2 681:2 751:3 826:1 831:3 864:1 944:2 979:1 1156:1 1258:3 1261:3 1304:1 1643:2 1684:3 1688:1 1713:3 1766:1 2137:2 2194:2 2298:1 
0.1925919195553002 4:1 8:2 11:1 91:1 92:1 95:7 121:5 135:1 146:1 200:5 207:6 298:1 301:1 310:1 339:3 346:3 389:2 457:1 468:2 616:2 647:1 695:1 708:1 751:8 753:1 775:1 795:1 797:3 831:2 847:1 854:2 947:1 979:2 1022:1 1048:9 1090:2 1144:2 1194:1 1230:4 1258:6 1289:1 1307:1 1436:2 1508:1 1532:2 1562:1 1564:2 1573:1 1632:3 1648:1 1669:2 1694:3 1703:1 1712:2 1713:2 1728:3 1745:1 1795:2 1816:1 1818:1 1856:1 1950:1 2086:2 2139:1 2176:1 2179:2 2180:11 2181:2 2203:1 2234:3 2252:2 2343:2 2370:1 2422:1 2454:1 
0.5797442528551126 8:2 91:6 95:7 121:7 200:7 219:2 290:2 326:2 339:3 346:4 389:2 465:2 468:2 558:2 616:2 628:1 647:2 708:2 751:10 766:2 831:2 847:4 971:2 979:2 1048:8 1090:1 1183:6 1230:2 1251:2 1255:2 1258:3 1307:2 1315:2 1508:2 1564:2 1654:2 1669:2 1694:4 1745:1 1932:1 1938:1 2066:2 2086:2 2174:1 2176:1 2179:2 2180:8 2181:2 2252:2 
0.0459977656507756 8:1 91:2 95:8 109:1 121:7 200:4 202:1 310:3 326:1 339:2 346:7 352:2 384:2 411:2 465:1 468:2 628:1 708:2 751:8 766:2 771:1 831:2 847:4 850:1 918:1 936:2 971:2 979:3 1048:9 1090:2 1230:3 1251:2 1258:5 1307:1 1330:1 1508:1 1564:4 1669:4 1684:2 1693:1 1694:6 1712:1 1713:2 1745:1 1908:1 2007:2 2028:1 2066:1 2086:2 2139:1 2176:1 2179:2 2180:6 2181:2 2252:2 2343:2 2403:1 
0.05047667511507889 12:1 91:3 95:4 195:1 289:1 299:1 301:1 310:2 330:1 531:1 738:2 751:3 907:3 986:1 990:1 997:1 1047:1 1058:1 1084:1 1114:1 1203:2 1208:2 1229:1 1248:1 1258:5 1335:2 1391:1 1711:1 1733:1 1734:1 1749:1 1803:2 1806:3 1896:1 1971:1 2001:2 2180:3 2228:2 2262:1 2291:1 2391:1 2420:2 2455:3 2480:1 
0.04879701426608248 6:6 46:1 65:1 89:1 91:3 95:7 121:3 137:2 146:1 207:2 246:1 289:2 299:3 310:6 337:1 348:1 375:1 398:2 438:3 439:2 441:1 451:5 470:1 539:1 571:1 609:1 628:2 647:1 679:1 695:1 697:1 703:1 739:1 743:1 751:4 797:2 862:1 864:1 979:5 1039:1 1048:4 1090:3 1124:2 1144:3 1152:1 1172:3 1179:1 1209:1 1250:1 1258:2 1330:2 1335:3 1385:1 1391:5 1396:6 1463:1 1564:1 1627:1 1632:1 1635:1 1669:1 1677:2 1728:1 1756:1 1795:3 1860:1 1897:1 1947:1 1972:1 2007:1 2085:1 2148:1 2150:2 2160:1 2180:5 2181:1 2204:2 2261:2 2367:1 2405:1 2416:1 2439:6 2455:3 2457:1 
0.1791211011144269 46:1 65:2 95:9 310:2 439:1 444:1 451:1 539:1 720:1 751:6 817:1 837:1 979:1 985:1 1018:1 1144:1 1172:2 1179:1 1246:2 1258:2 1316:1 1330:1 1419:3 1452:1 1574:1 1654:3 1690:2 1712:1 1755:2 1756:1 1795:1 1972:1 2007:3 2152:3 2179:2 2180:4 2252:2 
0.0008149254728373915 65:1 91:1 95:3 112:1 146:2 246:1 253:1 296:2 310:1 331:1 339:3 451:2 544:4 628:1 697:1 720:1 739:1 751:1 781:2 837:1 892:1 979:1 985:1 1090:1 1144:1 1152:1 1172:1 1335:1 1391:2 1451:1 1452:1 1540:1 1565:1 1795:1 1947:1 1971:1 2007:1 2128:1 2180:1 
0.02166483635871218 46:1 65:1 91:3 93:1 95:10 100:4 121:4 174:1 207:2 246:2 299:1 339:1 340:1 439:1 451:4 470:2 562:2 616:3 695:1 697:1 720:1 739:1 751:8 771:2 862:1 1024:5 1048:3 1090:3 1124:1 1144:2 1149:1 1152:1 1172:2 1180:2 1258:2 1357:1 1419:1 1452:2 1495:1 1590:2 1677:2 1755:1 1795:2 1860:1 1897:1 1947:1 2007:1 2123:1 2156:1 2179:1 2180:6 2198:1 2252:2 2326:1 2362:1 2416:1 2437:1 2442:2 2500:1 
0.004600425071831906 66:1 91:2 95:5 121:1 125:3 207:1 246:2 310:1 352:1 429:3 441:1 451:6 492:1 539:2 571:1 628:1 697:1 739:1 771:1 862:1 979:1 1048:2 1090:3 1144:4 1152:1 1172:2 1236:1 1258:2 1335:1 1386:1 1391:1 1436:1 1540:1 1590:3 1645:2 1795:4 1897:1 1947:1 2007:2 2150:1 2180:1 2264:2 2288:1 2326:1 2466:1 
0.08668168751829526 246:2 339:2 401:2 451:4 697:2 739:2 927:2 1090:2 1144:2 1152:2 1172:2 1222:2 1795:2 1947:2 2120:1 2442:2 2466:1 
0.03739583712181876 46:1 91:3 95:11 112:1 118:1 121:2 157:1 193:1 207:1 209:1 229:1 246:2 298:3 299:1 310:8 339:1 352:2 370:1 438:1 439:2 441:3 451:6 470:2 535:1 539:2 562:5 591:1 616:1 695:2 697:1 711:3 738:1 739:1 751:11 771:2 797:1 847:1 862:1 979:2 1023:1 1036:1 1048:2 1087:3 1090:3 1124:2 1144:5 1152:1 1172:2 1209:1 1250:2 1258:7 1296:1 1314:3 1330:2 1335:5 1389:3 1391:1 1412:1 1436:1 1441:1 1456:2 1485:1 1489:1 1565:1 1573:1 1590:5 1609:1 1617:1 1677:1 1684:2 1713:1 1795:5 1897:1 1903:1 1947:1 1972:1 2007:1 2030:1 2174:1 2180:6 2198:1 2252:2 2288:2 2326:1 2354:5 2380:6 2416:2 2442:1 2455:2 2500:1 
0.01858414031580987 58:2 65:1 89:2 91:7 93:1 95:6 121:4 146:1 207:10 298:1 301:1 307:1 310:2 339:1 379:1 438:3 439:2 441:2 444:1 451:1 486:2 539:1 628:1 695:1 720:1 738:1 751:9 779:4 793:1 864:1 879:1 924:1 934:1 949:1 979:4 1021:2 1036:1 1048:5 1114:1 1141:3 1144:6 1172:1 1246:1 1250:1 1258:9 1263:1 1316:1 1330:1 1331:1 1332:1 1335:1 1389:2 1391:2 1419:3 1442:2 1448:1 1463:2 1575:1 1578:1 1654:3 1672:1 1684:5 1693:1 1733:1 1755:1 1756:3 1774:1 1795:6 1806:1 1826:2 1860:1 1925:3 1972:1 1998:1 2017:6 2109:2 2130:1 2142:1 2150:1 2179:1 2180:8 2265:2 2362:4 2416:1 2437:1 2455:8 
0.1185975565468371 46:1 95:3 246:2 310:1 339:1 451:4 539:1 571:1 616:1 628:1 651:2 697:1 720:1 739:1 751:3 765:2 837:1 969:1 970:2 1088:2 1090:2 1126:2 1144:3 1152:1 1172:1 1229:2 1258:2 1357:1 1452:1 1795:3 1947:1 2120:1 2180:1 2288:1 2326:1 2397:2 
0.3559059240295728 6:3 14:1 95:4 146:1 246:1 356:1 441:1 451:4 539:1 549:1 595:1 616:2 628:2 697:1 739:1 751:1 864:1 931:1 979:1 1062:1 1090:1 1144:3 1152:1 1172:1 1330:1 1331:1 1396:3 1734:2 1795:3 1947:1 2007:1 2128:1 2197:1 2437:1 2455:1 
0.07319017342674716 91:1 95:1 224:1 264:1 289:3 310:1 330:1 339:1 438:1 457:1 459:1 751:2 907:3 979:3 997:1 1136:1 1203:1 1229:2 1258:2 1335:2 1504:2 1749:1 1947:1 2165:1 2180:2 2214:1 2392:2 2455:1 2483:2 
0.03836169394840144 46:1 91:1 95:12 112:1 121:2 200:1 207:2 246:2 283:1 299:1 303:1 310:3 333:1 352:1 370:1 438:1 451:4 470:1 531:1 571:5 591:1 616:2 628:2 653:1 697:1 718:1 722:1 739:1 751:6 753:1 771:1 862:1 927:3 1048:3 1080:1 1090:3 1144:2 1152:1 1160:1 1172:3 1212:3 1222:3 1251:1 1258:2 1296:1 1330:1 1331:1 1335:1 1485:1 1566:1 1654:2 1677:1 1680:1 1755:1 1795:2 1860:1 1897:1 1947:1 2014:1 2016:7 2086:1 2180:4 2203:1 2326:1 2455:1 
0.04985620104448125 3:1 66:1 91:2 95:11 121:3 129:1 146:4 163:1 195:1 207:1 229:1 246:2 268:1 276:2 289:1 293:1 310:7 327:1 339:1 347:4 352:2 370:2 430:1 439:1 441:2 451:5 453:1 475:1 503:1 535:1 539:1 562:5 571:1 628:1 658:1 662:1 697:1 718:1 720:1 738:1 739:1 751:13 763:1 804:1 820:3 862:1 868:1 979:2 1000:2 1023:1 1031:1 1032:3 1048:2 1090:3 1107:1 1144:4 1152:1 1160:1 1163:1 1172:3 1236:1 1258:12 1296:1 1313:2 1314:5 1330:2 1335:7 1386:1 1391:2 1430:5 1436:1 1446:1 1549:1 1552:1 1556:1 1558:1 1570:1 1590:1 1622:1 1680:1 1684:1 1756:1 1795:4 1826:1 1860:1 1897:1 1908:1 1947:1 1961:1 1972:1 2007:1 2090:1 2126:1 2180:3 2226:1 2267:1 2326:1 2426:2 2455:2 2456:1 2500:2 
0.02887949107724647 46:1 91:1 95:1 246:2 298:1 310:1 370:1 401:3 439:1 444:1 451:4 539:1 596:2 628:1 697:1 720:1 739:1 743:1 751:3 837:1 927:2 969:1 1090:2 1144:3 1152:1 1172:2 1222:2 1258:3 1280:2 1316:1 1389:2 1407:3 1452:1 1795:3 1947:1 2038:2 2120:1 2154:3 2180:1 2326:1 2455:1 
1 36:1 52:2 58:3 91:3 95:10 121:3 146:2 207:2 246:2 299:3 310:6 337:1 339:1 346:1 357:1 371:1 375:1 438:3 439:3 441:1 451:5 503:1 616:4 628:3 658:2 686:1 695:1 697:1 703:1 739:1 743:1 751:7 768:1 769:2 797:1 819:1 847:1 862:1 865:1 871:1 923:2 947:1 979:3 1018:1 1033:1 1048:2 1059:1 1090:3 1114:1 1144:4 1152:1 1163:1 1172:4 1174:1 1179:1 1225:3 1230:1 1250:2 1258:7 1289:1 1330:2 1335:4 1345:1 1346:5 1433:5 1507:1 1529:2 1622:4 1701:1 1705:1 1707:1 1769:1 1795:4 1860:1 1867:1 1897:1 1920:2 1925:4 1947:1 1972:2 1989:2 2029:1 2107:1 2150:1 2180:5 2204:1 2246:4 2261:1 2267:2 2326:1 2416:1 2455:4 2469:1 
0.01574870817859839 66:1 86:1 88:1 91:3 95:10 120:1 121:2 131:1 137:5 146:1 177:1 187:1 246:2 268:1 289:1 298:1 301:2 310:3 327:1 340:1 352:3 451:3 458:2 459:1 503:2 562:5 633:1 639:1 695:1 697:1 711:1 738:2 739:1 751:12 753:1 758:1 771:1 797:3 837:1 854:1 862:1 968:1 997:1 1048:4 1080:1 1090:2 1144:2 1152:1 1172:3 1231:1 1236:1 1250:1 1251:1 1258:8 1314:1 1335:3 1376:1 1386:1 1391:2 1436:1 1486:1 1500:1 1554:1 1564:1 1628:1 1632:1 1635:3 1669:2 1684:2 1690:1 1728:2 1795:2 1808:2 1897:1 1911:5 1947:1 2007:2 2017:1 2038:1 2150:2 2179:3 2180:9 2181:1 2203:1 2207:1 2252:2 2261:1 2362:1 2422:1 
0.142449388951971 91:1 95:4 121:1 157:1 207:1 229:1 246:2 276:2 295:1 310:1 388:1 431:2 451:4 562:3 612:1 628:2 697:1 739:1 751:2 862:1 873:2 898:2 1048:2 1090:3 1114:1 1144:2 1152:1 1172:2 1258:4 1335:1 1523:2 1540:2 1605:1 1714:2 1795:2 1805:2 1860:1 1897:1 1947:1 2007:2 2038:2 2150:1 2180:2 2326:1 
0.1109191149757069 25:1 91:1 95:4 109:3 121:3 200:5 207:2 227:1 299:1 301:1 310:8 331:1 339:1 346:2 352:2 438:3 617:1 628:1 660:1 672:1 692:1 695:2 708:4 727:1 730:1 750:1 751:7 839:2 864:1 947:2 1048:8 1258:6 1289:3 1532:2 1564:2 1669:2 1689:5 1713:3 1850:1 1903:1 1909:1 1934:1 1972:2 2041:2 2066:4 2086:1 2180:4 2277:2 2307:1 2329:1 2455:1 2504:3 
0.190563933744717 38:3 95:8 121:1 193:2 207:1 246:2 298:1 310:1 340:1 380:4 410:1 439:1 444:1 451:4 562:1 571:1 628:1 697:1 710:1 739:1 751:3 862:1 1048:2 1087:1 1090:3 1144:2 1152:1 1172:2 1316:1 1335:1 1386:1 1486:1 1677:1 1684:2 1756:1 1795:2 1897:1 1947:1 1999:2 2007:1 2180:4 2326:1 2362:2 2416:1 
0.05730562409806519 58:2 95:8 121:1 207:1 246:2 298:1 310:1 339:3 375:1 439:1 441:1 451:6 539:1 612:3 616:2 628:1 697:1 739:1 751:1 771:1 862:1 864:1 934:1 979:1 1048:2 1090:3 1144:4 1152:1 1172:2 1209:1 1258:4 1331:1 1335:1 1389:5 1391:2 1442:2 1540:1 1680:1 1756:1 1795:4 1897:1 1947:1 2007:3 2150:1 2179:1 2180:2 2252:2 2326:1 2437:1 2442:1 2466:1 
0.3707962183163254 32:5 65:2 82:1 85:1 93:1 95:11 121:2 207:1 221:3 246:2 288:3 298:1 299:2 310:3 338:1 352:1 365:1 370:1 397:3 439:2 444:1 451:5 479:1 539:1 616:5 639:1 694:1 697:1 703:1 720:1 738:1 739:1 751:5 771:1 840:1 862:1 865:1 879:1 899:4 979:4 993:3 1048:2 1090:3 1144:4 1152:1 1172:3 1250:2 1258:6 1271:3 1316:1 1335:2 1419:3 1622:1 1755:1 1795:4 1860:1 1867:2 1896:1 1897:1 1947:1 1992:2 2017:2 2150:1 2180:5 2216:8 2234:1 2250:2 2252:2 2271:1 2326:1 2442:1 2455:2 2463:4 
0.0007504038277524477 65:1 91:5 95:13 146:1 207:1 246:1 285:1 301:1 310:4 341:1 371:1 386:1 438:1 439:1 441:2 451:5 486:1 535:2 539:2 562:7 595:1 616:4 653:1 695:1 697:1 720:1 739:1 743:1 751:15 758:1 797:1 862:1 879:1 979:3 1038:6 1048:3 1074:1 1090:2 1144:6 1152:1 1160:1 1172:4 1179:1 1194:1 1258:5 1296:2 1313:4 1330:1 1357:1 1386:1 1391:2 1485:2 1554:1 1564:1 1590:1 1632:1 1669:1 1680:1 1707:1 1730:1 1755:1 1756:1 1795:6 1860:2 1897:1 1947:1 2007:2 2126:2 2127:1 2142:1 2179:2 2180:6 2181:1 2204:1 2243:1 2252:2 2416:2 2426:1 2437:1 2442:1 2455:3 
0.2888152211125575 11:1 46:2 91:3 95:4 107:2 109:3 121:6 163:1 200:3 207:5 214:1 298:4 310:2 346:3 352:1 389:3 468:3 490:1 617:2 731:1 751:8 771:2 831:2 847:9 850:4 947:5 1048:11 1230:3 1258:13 1315:1 1325:1 1335:1 1354:1 1452:2 1508:2 1559:1 1564:5 1654:2 1669:5 1684:4 1688:1 1713:2 1745:1 1824:1 2126:2 2137:2 2139:1 2180:7 2181:2 2234:2 2343:3 
0.6742960720499895 36:2 95:3 299:2 386:2 441:2 616:2 738:2 751:6 960:2 1048:2 1335:2 1467:2 1474:2 1833:2 1897:2 2180:4 2402:2 2490:4 
0.9714027463515942 36:2 95:3 299:2 386:2 441:2 571:2 738:2 751:6 960:2 1048:2 1126:2 1229:2 1335:2 1467:2 1474:2 1897:2 2180:4 2397:2 2402:2 2490:4 
0.56494213812487 95:3 571:2 738:2 751:2 960:2 979:2 1048:2 1126:2 1229:2 1335:2 1467:2 1897:2 2180:2 2397:2 2402:2 2490:2 
1 36:2 95:3 299:2 386:2 441:2 616:2 738:2 751:6 960:2 1048:2 1150:2 1335:2 1467:2 1474:2 1833:2 1897:2 2180:4 2402:2 2490:4 
0.1934451452775822 95:3 616:2 738:2 751:2 960:2 979:2 1048:2 1335:2 1467:2 1833:2 1897:2 2180:2 2402:2 2490:2 
0.5291285486056263 95:3 616:2 738:2 751:2 960:2 979:2 1048:2 1335:2 1467:2 1672:2 1833:2 1897:2 2180:2 2402:2 2490:2 
0.05914115702684618 91:4 95:4 98:1 112:1 121:2 130:1 146:2 176:1 295:1 310:3 314:1 332:2 339:2 341:1 352:3 354:1 378:1 395:1 441:1 448:1 562:5 567:2 726:1 738:1 751:8 787:1 796:1 825:1 833:1 864:4 931:1 979:4 1009:1 1132:1 1147:1 1196:1 1229:1 1255:1 1258:4 1335:4 1391:1 1467:1 1470:1 1565:1 1584:1 1590:2 1632:1 1636:1 1663:1 1677:1 1728:2 1730:4 1787:1 1879:1 1971:1 2007:1 2009:1 2089:2 2157:1 2168:3 2169:1 2179:1 2180:5 2181:1 2187:1 2203:1 2204:1 2211:1 2252:2 2294:1 2315:1 2355:1 2396:1 2420:1 2422:2 2437:1 2443:1 2467:1 
1 95:3 562:2 738:2 751:2 871:2 960:2 979:2 1048:2 1111:2 1335:2 1496:2 1897:2 2007:2 2180:2 
0.02656572041275338 95:3 562:2 738:2 751:2 871:2 960:2 979:2 1048:2 1335:2 1467:2 1778:2 1897:2 2007:2 2180:2 2343:2 
0.7000371354586028 95:3 562:2 738:2 751:2 871:2 960:2 979:2 1048:2 1111:2 1335:2 1496:2 1672:2 1897:2 2007:2 2180:2 
0.052652737478816 15:1 49:2 91:1 95:4 121:2 146:2 172:1 257:1 267:1 289:1 298:2 310:1 343:1 357:3 427:1 438:1 439:1 444:1 510:1 558:4 573:1 616:1 628:1 658:1 687:1 751:5 769:1 864:1 979:1 1030:1 1042:1 1223:2 1250:1 1258:1 1275:1 1330:1 1405:1 1414:1 1514:1 1550:3 1614:1 1654:2 1933:1 1954:2 2074:1 2180:1 2375:1 2455:2 
0.2636938264148287 95:3 379:2 738:2 751:2 871:2 960:2 979:2 1048:2 1335:2 1431:2 1496:2 1855:2 1897:2 2007:2 2180:2 
1 36:2 95:3 299:2 379:2 386:2 441:2 738:2 751:6 871:2 960:2 1048:2 1335:2 1431:2 1467:2 1474:2 1855:2 1897:2 2007:2 2180:4 2490:2 
1 95:1 189:2 346:2 1240:2 1243:2 1258:4 1391:2 1694:3 2429:2 
0.07176935279348015 28:1 91:1 95:4 139:3 146:2 247:3 257:1 289:2 310:1 339:1 441:1 454:2 530:1 558:3 616:1 628:1 738:1 740:1 742:1 751:5 819:2 864:1 979:1 1095:3 1127:1 1142:1 1206:1 1258:3 1331:1 1370:1 1556:1 1919:1 2074:1 2075:1 2087:2 2102:1 2155:4 2179:3 2180:5 2277:2 2335:2 
1 91:1 95:2 146:1 298:1 310:1 339:1 558:1 616:1 751:1 819:1 897:1 1091:1 1240:1 1647:1 1947:1 1970:1 2180:1 2208:1 2210:1 
0.03637059036090803 58:1 91:1 95:3 114:1 121:6 133:1 146:1 214:1 219:2 257:1 289:1 299:1 310:6 311:1 341:1 357:2 369:1 399:1 434:1 438:1 503:1 558:3 616:1 628:1 688:1 751:6 864:1 954:3 979:1 1127:1 1144:2 1330:2 1331:1 1335:1 1409:1 1496:1 1550:1 1586:1 1699:1 1753:1 1769:2 1795:2 1799:2 1950:1 1951:1 2075:1 2098:1 2155:1 2180:3 2219:1 2366:2 2419:1 2472:1 
0.04468194952564211 1:1 43:1 82:1 91:1 95:5 96:1 98:1 121:3 151:1 188:1 201:1 234:1 299:2 301:1 310:4 312:1 341:1 441:1 451:3 458:1 473:1 582:1 720:1 747:1 751:5 753:1 847:1 931:1 947:1 983:1 1090:2 1112:1 1118:1 1256:1 1258:11 1289:1 1303:1 1328:1 1335:1 1395:1 1412:3 1441:2 1465:1 1520:3 1533:2 1638:2 1644:3 1677:1 1691:3 1696:1 1712:1 1713:1 1804:1 1943:1 2035:1 2102:1 2130:1 2180:4 2181:2 2203:2 2252:2 2370:1 2471:1 
0.2783816412925774 95:4 146:1 298:1 310:3 392:4 590:1 592:1 751:4 753:1 850:1 1048:3 1049:2 1159:1 1258:5 1311:1 1330:1 1445:2 1520:2 1554:1 1564:1 1581:1 1632:1 1654:1 1669:1 1691:2 1698:2 1888:1 1950:1 2021:2 2150:2 2179:4 2180:3 2203:1 2368:1 2496:1 
0.09483809321470464 4:1 18:1 73:1 77:2 91:3 95:8 121:5 141:1 146:1 200:1 289:2 290:1 298:2 301:1 308:1 310:3 311:2 318:1 332:1 339:2 352:1 354:1 388:1 408:2 432:1 438:1 467:2 535:1 568:2 601:1 616:2 628:1 660:1 738:1 751:9 832:2 837:3 839:1 864:1 880:1 912:1 979:1 983:1 990:1 996:1 1013:2 1018:1 1022:1 1049:2 1069:3 1072:1 1094:1 1133:1 1144:4 1229:1 1258:8 1320:1 1330:1 1331:2 1335:2 1436:1 1544:1 1556:1 1577:1 1579:1 1654:1 1691:3 1694:1 1742:1 1795:4 1825:1 1833:2 1861:1 1909:1 1925:1 1950:1 1971:1 1982:1 2037:1 2053:1 2127:1 2132:1 2164:6 2176:1 2178:1 2179:3 2180:5 2197:1 2243:1 2306:1 2338:1 2355:1 2357:1 2422:1 2455:2 
0.006738607334435741 30:2 32:3 50:1 91:4 95:4 121:4 146:1 151:3 152:1 310:2 311:1 441:2 457:2 459:1 460:7 503:1 525:2 541:1 563:1 616:1 628:1 751:4 752:2 811:1 828:1 864:1 899:1 911:1 979:2 1105:1 1113:1 1131:1 1144:2 1148:2 1229:2 1258:7 1279:1 1335:1 1436:1 1464:2 1647:1 1697:1 1795:2 1980:1 1995:2 2075:4 2098:1 2180:2 2216:3 2395:1 2500:2 
0.026479331780003 25:1 91:2 95:8 109:1 121:4 146:2 151:1 200:2 219:2 299:2 310:8 338:1 339:1 346:2 352:1 413:1 632:1 647:2 697:1 751:6 830:1 831:2 864:1 865:3 891:2 907:3 944:4 947:3 964:1 972:1 979:4 991:2 1048:3 1067:1 1090:1 1094:1 1144:1 1174:1 1258:4 1259:1 1335:4 1376:3 1378:1 1391:1 1436:1 1447:1 1472:1 1495:1 1504:1 1562:1 1564:2 1575:1 1577:1 1582:2 1646:5 1654:1 1689:3 1698:1 1792:1 1795:1 1862:2 1873:1 1908:1 1910:2 1972:2 2065:3 2143:1 2181:1 2252:2 2277:2 2307:1 2329:2 2370:1 2496:1 2500:6 
0.04338511673970661 91:5 95:8 121:4 133:1 140:1 213:1 250:1 251:1 257:1 289:3 301:1 310:4 311:5 335:1 390:1 408:1 429:2 438:2 441:1 500:1 531:2 614:1 616:4 628:1 645:2 659:1 751:5 892:2 901:2 979:2 1000:1 1014:3 1144:10 1167:4 1223:4 1258:2 1262:2 1330:1 1335:1 1365:1 1424:3 1745:1 1795:10 1867:2 1902:2 1950:1 1951:1 2020:1 2061:1 2098:1 2099:1 2154:1 2287:1 2318:5 2361:2 2419:2 2434:2 2455:3 2504:1 
0.02279662969886044 49:1 91:4 95:4 105:4 121:2 146:2 173:2 188:1 257:2 289:1 301:1 310:5 338:1 343:1 352:3 357:2 369:1 469:1 500:1 503:1 541:1 542:1 558:4 573:1 584:1 616:1 628:1 751:3 766:1 864:1 865:1 875:1 891:1 899:1 917:1 1105:1 1131:1 1199:1 1229:2 1258:6 1291:1 1310:1 1311:1 1330:1 1335:1 1405:1 1413:1 1441:1 1483:1 1516:1 1550:2 1577:1 1586:3 1604:1 1618:1 1632:2 1699:1 1753:1 1755:1 1769:2 1908:1 1909:1 1925:1 1927:1 2067:1 2074:1 2148:1 2155:1 2167:1 2179:1 2180:1 2207:1 2219:3 2379:1 2391:1 2455:1 2463:1 
0.038948922624178 18:1 36:1 95:5 146:1 298:1 299:2 301:2 310:5 331:1 339:2 377:1 388:1 408:1 438:2 616:1 628:1 738:2 751:5 753:5 771:1 864:1 979:2 982:1 990:1 1047:1 1182:1 1208:2 1246:1 1258:8 1288:2 1335:2 1389:1 1412:1 1447:1 1517:1 1519:1 1529:1 1598:1 1638:1 1644:1 1654:3 1806:2 1833:4 1950:1 1971:1 2156:1 2179:1 2180:10 2203:4 2262:2 2272:1 2458:1 
0.01545024380610254 8:3 11:1 91:4 95:5 121:5 200:6 207:4 310:1 326:3 331:1 339:1 346:3 389:2 468:2 558:2 616:2 617:1 751:9 771:1 831:2 847:4 850:1 936:1 947:1 979:1 1048:6 1090:1 1230:2 1246:2 1258:8 1315:1 1335:2 1436:1 1564:2 1669:2 1684:1 1691:3 1694:1 1908:1 1929:1 1934:1 2044:1 2065:2 2066:4 2086:1 2176:1 2180:5 2181:2 2252:2 2321:1 2343:2 2376:1 
0.41818181266101 8:2 11:1 95:4 121:2 339:1 751:1 907:2 944:3 1145:3 1246:2 1442:1 1684:1 1691:1 1950:1 2007:2 2166:1 
0.004154941639535426 36:2 47:1 91:3 95:10 110:1 118:1 121:2 146:1 159:2 235:1 289:3 290:1 295:1 298:2 310:10 341:3 352:3 370:1 371:2 441:2 444:2 448:1 523:1 549:1 581:1 595:1 616:4 628:1 738:3 741:1 746:2 751:5 804:1 817:1 832:1 864:1 880:2 906:2 931:1 979:5 1041:2 1142:1 1144:4 1182:1 1237:1 1242:1 1258:5 1316:1 1320:1 1331:1 1335:7 1412:1 1428:1 1589:1 1653:3 1707:1 1730:3 1768:1 1795:4 1833:7 1888:1 2037:3 2053:2 2072:2 2098:2 2180:5 2212:2 2218:2 2273:8 2290:2 2330:4 2388:3 2416:1 2426:3 2447:1 2452:2 2455:2 2457:1 2485:1 
0.33563832042432 4:1 8:2 11:1 25:1 91:2 95:6 121:10 200:3 202:2 207:2 310:3 326:2 339:3 346:7 348:1 389:1 468:2 590:2 617:1 708:3 729:1 751:13 831:2 847:2 851:1 907:2 925:1 947:4 1045:1 1048:6 1090:3 1156:1 1190:1 1230:2 1246:2 1251:1 1258:6 1335:3 1376:2 1410:1 1436:2 1452:1 1508:2 1564:2 1577:1 1654:2 1669:2 1684:2 1691:5 1694:2 1745:1 1823:1 1909:1 2007:2 2065:2 2066:1 2132:1 2139:4 2176:1 2180:3 2252:2 2409:1 2414:1 
0.05994964537470265 91:9 95:8 121:2 129:1 146:1 289:1 298:1 310:4 311:1 352:1 369:2 441:3 558:3 573:1 616:3 628:1 666:1 738:1 751:10 811:1 841:3 864:1 912:1 954:1 979:1 1002:5 1105:1 1127:2 1128:2 1144:9 1258:5 1310:2 1330:2 1331:1 1335:1 1392:2 1413:1 1414:2 1428:1 1493:5 1503:1 1550:5 1561:1 1573:1 1622:1 1683:1 1699:1 1751:1 1753:1 1769:1 1780:1 1795:9 1860:1 1886:1 1905:2 1908:2 1919:1 1971:1 2005:1 2098:1 2135:3 2148:1 2155:1 2167:1 2174:1 2179:1 2180:5 2219:1 2228:1 2366:1 2395:1 2421:1 2455:1 2482:2 
1 95:3 429:2 616:2 899:2 1240:1 1258:2 1277:2 1947:2 1970:2 2201:1 2210:2 
1 95:3 429:2 616:2 899:2 1240:1 1258:2 1277:2 1947:2 1970:2 2201:1 2210:2 
1 95:3 429:2 616:2 899:2 1240:1 1258:2 1277:2 1947:2 1970:2 2201:1 2210:2 
0.2821420077000856 8:2 11:1 25:2 91:4 95:5 121:8 200:9 207:6 299:1 310:2 346:2 358:2 389:3 429:2 468:2 503:1 590:1 616:2 617:1 619:1 731:1 732:3 751:7 771:2 831:2 847:1 851:1 899:2 947:1 979:2 1048:11 1230:5 1246:2 1258:7 1277:2 1311:1 1315:4 1335:1 1436:5 1452:1 1555:2 1564:5 1581:2 1654:1 1669:5 1684:1 1694:2 1798:1 1938:1 1950:2 2179:1 2180:5 2181:4 2196:1 2343:4 2484:1 2496:1 
0.141234346546795 91:3 95:4 112:1 121:1 146:1 263:1 289:1 296:2 310:5 338:1 339:2 352:1 355:1 378:1 430:1 438:1 459:1 516:2 531:1 544:2 602:1 604:4 639:2 654:1 751:3 781:1 864:1 979:1 1136:1 1226:1 1258:2 1331:1 1338:1 1492:1 1507:1 1597:1 1644:1 1745:1 1869:1 1908:1 2007:1 2068:1 2096:1 2180:1 2246:1 2286:1 2301:1 2314:2 2357:1 2401:1 2455:1 2471:1 
0.929385922011841 95:1 189:2 346:2 1240:2 1243:2 1258:4 1391:2 1691:1 1694:2 2431:2 
0.3026157170334864 95:3 429:2 616:2 1240:1 1947:2 1970:2 2201:1 2210:2 2318:2 
0.03881490102276939 8:3 11:1 48:1 91:5 95:7 121:7 146:1 189:2 200:2 310:4 326:3 339:3 346:2 389:3 446:1 465:2 468:2 590:1 617:2 642:1 751:6 823:1 831:2 847:5 944:6 955:1 979:3 1048:12 1184:1 1230:8 1243:2 1258:5 1378:1 1429:1 1452:1 1508:2 1564:4 1590:3 1669:3 1694:3 1712:2 2007:2 2049:3 2066:2 2139:4 2179:4 2180:10 2181:4 2252:2 2343:4 2370:2 2496:1 
0.001126743678752962 91:7 95:6 121:4 132:1 139:1 144:1 146:1 155:1 166:1 186:1 188:1 223:3 257:1 276:1 279:1 280:1 289:2 299:3 310:3 390:1 429:1 510:2 525:1 616:1 658:1 686:1 751:6 839:1 843:1 863:1 864:3 899:1 945:1 946:2 952:2 979:7 1082:1 1114:1 1123:2 1141:1 1144:2 1159:1 1190:1 1199:1 1224:1 1229:1 1258:4 1275:2 1277:4 1330:2 1335:4 1397:1 1417:5 1436:1 1459:1 1460:1 1515:1 1588:2 1640:1 1654:1 1673:1 1683:1 1686:2 1711:1 1736:5 1795:2 1827:1 1828:1 1953:1 2055:4 2062:1 2095:1 2096:1 2098:2 2141:1 2159:1 2179:1 2180:2 2216:1 2301:1 2312:1 2329:1 2366:1 
0.598183327222487 95:1 346:2 558:2 1240:2 1258:4 1450:1 1691:3 2051:2 2364:1 2466:2 
0.1397165858858927 91:5 95:4 121:4 178:1 200:4 202:2 207:2 310:2 339:2 346:2 376:1 389:1 558:2 616:2 628:1 647:1 708:3 751:8 864:2 892:2 947:2 985:1 1027:1 1048:3 1051:1 1230:2 1258:5 1315:1 1331:2 1335:1 1436:4 1564:2 1574:1 1669:2 1691:3 1728:1 1742:2 1759:1 1909:1 1950:1 1969:1 1972:1 2065:1 2086:2 2132:1 2174:1 2179:1 2180:4 2329:1 2343:2 2476:1 
0.009950383190045105 91:7 95:11 121:5 133:1 188:1 289:2 298:1 299:3 310:3 311:2 338:1 341:1 390:2 405:1 438:3 441:1 462:1 559:1 568:1 593:1 616:4 628:1 702:1 738:1 751:10 769:1 771:3 837:1 864:1 912:4 954:1 979:2 986:1 988:1 1008:1 1013:1 1042:1 1069:2 1136:1 1144:4 1160:1 1244:7 1258:5 1263:1 1330:1 1335:5 1419:1 1631:1 1654:1 1669:1 1683:1 1722:1 1730:1 1741:1 1795:4 1796:1 1833:3 1903:1 1926:1 1928:1 1950:1 2030:1 2031:1 2049:1 2124:2 2134:3 2180:8 2181:2 2215:1 2243:1 2244:4 2277:2 2299:1 2406:3 2420:1 2455:1 2504:1 
0.1347984161850271 95:3 616:2 1121:2 1240:2 1258:4 1833:2 1947:2 2134:2 2466:2 
0.002372808542504432 91:11 95:10 106:2 121:3 146:2 186:1 265:1 277:1 280:1 289:1 299:4 301:1 312:1 339:1 357:3 364:1 371:1 459:1 467:1 503:1 557:1 558:4 568:1 573:1 616:1 628:1 687:1 751:12 753:1 769:1 771:1 804:2 979:1 981:1 986:1 999:1 1008:1 1030:1 1069:1 1094:1 1114:2 1144:1 1159:1 1189:1 1208:3 1229:1 1248:2 1258:5 1269:1 1335:2 1362:1 1377:1 1436:1 1456:2 1497:1 1517:1 1529:2 1561:1 1620:1 1624:1 1647:4 1655:1 1726:1 1743:2 1795:1 1796:1 1801:1 1900:1 1925:1 1943:1 2032:1 2109:2 2179:1 2180:7 2207:1 2235:1 2262:2 2286:1 2317:3 2329:1 2349:2 2455:2 2480:1 
0.08099133082712226 4:2 8:4 46:2 91:6 95:8 121:7 179:1 200:8 207:5 219:2 268:1 310:2 326:2 339:6 346:2 352:1 358:2 376:1 389:3 438:2 468:2 503:1 558:2 616:2 617:1 647:2 751:17 831:2 839:1 847:2 850:1 851:2 892:2 936:2 947:2 979:6 1048:11 1051:2 1090:1 1171:1 1183:2 1230:4 1258:11 1311:2 1315:3 1335:2 1364:2 1411:1 1436:6 1441:1 1555:1 1564:3 1602:1 1669:3 1684:2 1691:7 1694:1 1728:2 1745:2 1759:2 1908:2 1909:1 1932:1 1936:1 1969:2 2086:3 2176:2 2179:2 2180:14 2181:3 2252:2 2323:1 2336:1 2343:2 2412:1 2447:2 2455:1 
0.01068257286187455 8:1 95:3 121:8 200:1 290:8 310:7 337:4 339:1 346:3 389:2 590:4 617:3 681:2 729:1 732:1 751:8 831:8 864:1 1005:2 1048:8 1061:1 1078:1 1230:2 1251:1 1258:11 1261:8 1444:4 1564:2 1643:2 1654:1 1669:2 1684:4 1688:5 1690:2 1745:1 1850:4 2111:1 2196:4 2252:2 2267:2 2343:2 
0.05150250536228568 49:2 95:3 121:2 153:1 289:1 301:1 310:3 434:2 439:1 480:2 558:2 616:1 628:1 658:2 738:1 751:1 755:1 864:1 951:1 954:2 979:2 1030:2 1091:1 1144:3 1209:1 1331:1 1413:1 1472:1 1795:3 1886:1 2097:2 2180:1 
0.03018803349301372 8:2 11:1 91:2 95:7 121:4 200:6 207:2 213:1 289:2 299:3 310:2 338:1 339:1 346:2 358:2 385:1 389:4 390:1 404:1 429:2 438:1 459:2 468:2 477:1 479:1 500:1 616:2 617:1 679:2 706:1 725:1 728:1 733:1 751:12 771:1 804:2 831:2 847:1 849:1 851:1 864:1 865:1 931:1 944:1 979:1 1045:1 1048:10 1049:2 1094:1 1230:6 1248:1 1258:12 1307:1 1335:7 1339:1 1365:1 1436:5 1442:1 1506:1 1508:1 1564:4 1621:1 1655:1 1669:4 1673:1 1684:1 1691:3 1712:2 1739:1 1793:1 1908:1 1932:1 1937:1 1972:1 1982:1 2005:1 2086:2 2101:1 2104:1 2139:1 2179:2 2180:9 2181:4 2243:1 2252:2 2279:1 2292:1 2318:3 2336:1 2343:4 2401:1 2454:1 2486:1 2492:1 
0.05161993504518032 4:1 8:1 91:4 95:4 121:2 200:1 207:2 257:2 295:1 310:5 375:2 429:2 438:1 439:2 444:2 451:2 462:1 492:2 531:1 535:1 616:2 695:2 751:3 856:1 947:1 979:2 1022:1 1023:1 1048:2 1098:1 1144:2 1172:1 1179:2 1199:1 1258:7 1289:1 1296:1 1316:2 1330:1 1335:2 1338:1 1379:1 1391:2 1463:1 1554:1 1574:1 1579:2 1691:2 1713:1 1723:1 1728:1 1756:2 1795:2 1813:2 1972:1 2062:1 2150:2 2179:1 2180:2 2274:1 2277:1 2318:3 2447:1 2455:1 2471:1 2504:1 
0.1309581306394812 91:6 95:4 146:1 207:1 289:1 298:1 301:1 310:2 326:1 339:1 347:3 376:1 408:1 438:1 439:2 457:1 500:1 519:1 531:1 540:1 616:2 628:1 751:5 821:1 915:1 944:1 979:1 1094:1 1114:1 1229:2 1258:1 1330:1 1335:1 1606:3 1860:1 1920:1 2072:1 2180:3 2329:1 2369:2 2416:1 2443:1 2455:1 
0.02540292914250578 95:5 99:1 121:1 146:5 152:2 214:2 280:1 289:3 299:2 310:5 348:1 352:4 438:1 441:1 518:1 541:2 566:1 586:1 616:1 628:1 751:13 771:2 806:1 851:1 864:1 899:1 906:2 962:1 979:1 998:1 1022:1 1144:1 1229:1 1258:6 1328:1 1330:1 1331:2 1335:8 1374:6 1402:1 1412:1 1436:2 1449:1 1514:2 1577:4 1609:1 1641:1 1691:1 1750:1 1795:1 1876:1 1891:1 1941:9 2046:7 2098:1 2179:2 2180:13 2190:5 2210:1 2213:1 2217:1 2222:5 2416:1 2419:1 2444:1 2455:2 2458:1 
0.1254017254087554 4:6 8:2 11:1 91:4 95:9 121:7 200:6 207:8 298:1 310:6 326:1 339:1 346:4 389:3 438:3 468:2 616:2 617:2 647:1 708:1 732:1 751:8 766:2 771:1 831:2 839:1 847:1 850:1 892:2 906:2 947:4 1048:12 1049:2 1090:1 1230:2 1258:10 1330:1 1335:1 1564:3 1579:1 1669:3 1684:1 1691:4 1694:2 1712:2 1818:1 1909:1 1962:1 1972:2 2046:3 2086:2 2142:1 2176:1 2180:5 2181:2 2252:2 2277:1 2329:1 2343:2 2379:2 
0.01497002649003268 17:8 29:1 58:1 72:1 91:2 95:6 121:2 146:1 289:2 310:5 363:1 383:1 459:3 477:2 478:1 503:1 571:1 740:1 751:9 767:2 811:2 907:8 979:2 981:1 1007:1 1033:1 1229:2 1236:2 1258:3 1270:2 1326:1 1330:3 1331:1 1342:1 1361:1 1413:1 1471:1 1504:1 1573:1 1589:1 1768:1 1802:1 1960:3 1967:1 2030:1 2075:1 2090:1 2180:2 2181:2 2252:2 2401:3 2497:1 
0.09646534812367961 91:9 95:7 146:1 189:2 198:1 222:1 295:1 298:1 299:4 310:4 311:2 322:1 335:1 341:1 388:1 430:1 438:2 441:2 500:1 508:1 595:1 615:2 616:1 628:1 679:1 686:1 743:1 751:5 857:2 878:1 979:1 1006:2 1092:1 1144:4 1174:2 1184:3 1199:2 1243:7 1258:2 1324:1 1330:1 1335:3 1357:1 1429:3 1471:2 1573:1 1590:7 1730:1 1795:4 1836:2 1908:1 1915:4 1955:1 1972:1 2007:2 2049:3 2098:2 2180:3 2277:1 2416:1 2452:1 2455:3 
0.2750669820527298 8:1 11:1 46:2 91:1 95:7 121:3 146:2 189:2 196:1 200:3 207:8 310:4 338:2 339:1 371:1 389:2 441:1 446:1 465:2 468:2 590:2 637:1 751:5 771:1 831:2 847:4 850:1 865:2 944:4 979:3 1048:10 1049:2 1191:1 1230:2 1243:3 1258:6 1335:1 1428:1 1436:2 1522:1 1552:1 1564:2 1590:2 1654:4 1669:2 1684:2 1691:1 1712:2 1839:1 1950:1 2007:2 2049:2 2180:1 2181:2 2343:2 2454:1 
1 95:3 281:2 616:2 1230:2 1240:1 1947:2 2201:1 2246:2 
0.05661807463130918 91:3 95:5 121:1 133:1 144:1 146:2 172:1 257:1 310:2 311:1 339:1 357:1 457:1 503:1 509:1 541:3 558:3 616:1 628:1 673:1 751:7 917:1 973:1 979:2 993:1 1059:1 1127:3 1144:1 1229:2 1258:3 1330:1 1393:1 1413:1 1414:3 1448:1 1536:1 1550:3 1634:1 1666:1 1669:1 1745:1 1795:1 2005:1 2052:1 2062:1 2068:1 2155:1 2167:1 2180:3 2218:1 2220:1 2287:1 2455:1 2463:1 
0.02459930131516509 91:1 95:4 118:2 137:1 189:2 216:2 265:3 280:1 298:1 301:1 310:4 339:1 341:1 370:1 371:1 438:1 457:1 536:2 550:4 722:1 738:1 751:8 771:2 837:1 864:2 1208:3 1229:1 1243:2 1258:5 1287:1 1314:1 1330:2 1335:5 1338:1 1402:1 1412:1 1554:1 1590:1 1654:1 1663:2 1730:1 1733:1 1806:1 1826:1 1881:1 1970:1 2007:1 2029:2 2034:4 2049:1 2076:1 2102:1 2179:1 2180:1 2185:1 2252:2 2272:1 2277:1 2356:1 2392:1 2397:1 2437:3 2483:1 2494:1 
0.009731230808380386 24:1 91:5 95:6 121:5 133:1 146:1 166:2 223:7 233:1 257:1 276:1 280:1 299:1 310:3 429:1 441:1 444:2 547:2 563:2 616:1 628:1 686:1 751:14 804:1 809:1 814:1 864:2 899:1 925:1 937:1 946:3 979:3 1123:1 1131:1 1144:1 1204:6 1223:2 1229:3 1258:3 1277:6 1330:4 1331:2 1335:1 1397:1 1401:1 1413:1 1417:7 1433:1 1444:1 1460:1 1483:1 1496:1 1515:2 1567:3 1574:1 1588:1 1620:1 1626:1 1665:3 1668:1 1795:1 1799:1 1867:3 1952:5 1968:2 2029:1 2068:1 2176:2 2179:2 2180:3 2221:1 2258:1 2268:1 2301:1 2438:3 
0.3176086294704625 4:4 8:2 25:2 46:1 91:8 95:6 121:8 146:1 200:6 207:8 219:3 289:1 326:1 339:2 346:2 358:1 376:1 389:2 465:1 468:2 490:1 558:3 616:2 628:1 647:1 708:1 728:1 751:10 766:1 831:3 847:2 979:2 1048:12 1051:1 1090:1 1183:1 1230:4 1251:1 1258:11 1273:1 1307:1 1311:1 1364:2 1508:1 1564:4 1631:2 1669:4 1691:4 1728:1 1745:1 1759:2 1816:1 1822:1 1946:1 1969:2 2029:1 2112:1 2139:4 2176:1 2179:1 2180:9 2181:4 2198:1 2252:2 2322:1 2338:1 2343:3 2379:1 2404:3 2472:1 
0.2252562763167981 8:1 25:4 79:2 95:5 121:7 207:2 216:1 298:2 299:2 301:2 310:2 468:1 590:2 593:2 617:2 624:4 685:1 751:8 766:1 831:5 850:2 907:1 944:3 947:4 979:1 1048:4 1144:1 1156:2 1230:4 1258:11 1261:4 1311:1 1335:4 1376:2 1442:1 1443:1 1452:1 1508:4 1574:1 1576:1 1582:5 1604:1 1628:1 1654:2 1688:3 1689:5 1709:3 1795:1 1803:2 2007:1 2086:1 2137:1 2139:4 2154:1 2179:1 2180:5 2252:2 2254:2 2283:1 2323:1 2500:4 2504:5 
0.01453814943719755 9:3 91:3 95:8 121:3 146:3 243:1 271:1 287:1 298:1 310:4 311:1 352:4 383:1 404:4 406:1 429:2 541:1 586:1 587:1 595:1 616:1 628:1 738:3 751:11 756:1 804:2 819:1 864:2 865:1 885:1 892:1 956:1 962:1 979:5 990:1 994:1 996:1 1014:3 1035:1 1114:1 1144:2 1163:2 1223:2 1257:1 1258:11 1275:1 1276:1 1330:2 1331:2 1335:7 1339:1 1368:1 1401:1 1442:1 1506:6 1567:1 1573:1 1609:1 1654:1 1691:1 1705:1 1763:1 1773:1 1783:1 1795:2 1812:1 1840:3 1892:1 1897:1 1902:1 2013:1 2076:1 2161:1 2179:1 2180:2 2216:1 2318:2 2372:1 2416:2 2447:1 
1 58:2 95:3 346:2 1218:1 1240:2 1258:4 1389:2 1442:1 1691:3 2007:2 2430:2 
0.3760953377117135 58:2 95:3 290:3 310:1 339:1 392:3 751:2 979:1 1258:3 1282:2 1389:2 1448:1 1474:1 1479:1 1507:1 1554:1 1646:1 1691:1 1698:2 1712:2 1950:2 2007:2 2021:1 2179:2 2180:2 2282:1 2455:1 2496:1 
0.04623076022984249 13:1 91:2 95:8 121:2 146:2 289:2 341:1 441:1 531:1 554:5 558:4 593:1 616:2 628:1 664:3 720:2 738:1 746:1 751:7 825:5 864:1 885:1 979:2 1008:1 1132:1 1144:1 1258:5 1307:1 1335:4 1403:2 1434:1 1445:1 1448:1 1478:1 1484:1 1556:1 1620:1 1667:1 1730:1 1795:1 1986:2 1990:2 2089:4 2180:4 2355:1 2357:1 2426:1 2428:2 
0.01708687951563741 16:6 28:1 58:1 91:3 93:2 95:6 115:1 121:1 133:1 206:1 213:1 251:1 257:2 310:6 352:1 406:2 429:2 510:1 531:4 541:3 585:1 614:1 616:1 628:1 645:1 659:2 668:1 751:7 864:1 876:1 896:1 901:1 956:1 979:4 1110:8 1144:8 1164:1 1188:2 1198:1 1222:1 1258:9 1267:1 1293:1 1335:1 1372:1 1374:5 1436:1 1459:1 1508:1 1567:2 1591:1 1641:1 1654:3 1795:8 1811:1 1838:1 1908:1 1919:1 2020:6 2098:4 2104:1 2176:3 2181:2 2198:1 2204:1 2216:1 2220:1 2318:3 2329:1 2389:1 2416:1 2469:1 2471:1 
0.01487697973602846 91:2 95:7 115:1 121:3 139:1 146:1 270:1 289:2 298:1 310:4 318:1 338:2 352:1 361:1 369:1 425:2 437:1 438:1 448:1 449:1 454:1 503:1 509:1 558:2 573:1 607:1 616:1 631:2 633:1 647:1 676:1 751:14 795:1 815:1 819:2 864:1 865:1 875:1 896:2 954:1 979:3 994:1 1036:1 1062:1 1094:4 1157:4 1163:1 1229:2 1258:8 1314:2 1335:2 1397:1 1405:1 1414:1 1436:2 1550:4 1556:2 1669:1 1683:1 1753:1 1769:1 1783:1 1827:1 1828:1 1854:1 1870:1 1876:1 1888:1 1908:1 2042:1 2088:1 2096:1 2102:1 2133:1 2162:2 2167:1 2179:1 2180:8 2181:1 2216:1 2219:3 2220:2 2230:1 2277:1 2332:1 2348:3 
0.07504801998040539 8:3 11:1 25:2 46:1 91:3 95:5 121:3 200:2 207:4 310:2 339:1 389:2 468:2 649:3 751:4 766:2 831:1 850:2 971:2 979:4 1048:4 1156:1 1230:2 1251:1 1258:6 1335:2 1436:1 1564:2 1575:1 1581:1 1646:2 1669:2 1688:3 1690:1 1713:1 2007:1 2139:1 2141:1 2180:3 2181:2 2234:1 2252:2 2343:2 2496:4 2500:2 
1 95:1 157:2 346:2 838:1 907:2 1240:2 1258:4 1448:1 1691:3 2431:2 
0.0308005882047142 8:1 25:4 79:1 91:1 95:7 121:9 207:2 216:1 219:2 290:8 298:2 301:2 310:2 337:1 339:1 468:2 590:2 617:2 624:4 627:2 628:1 667:1 685:1 705:1 751:11 766:1 831:8 847:3 850:2 851:1 907:2 944:3 947:5 979:1 991:1 1048:4 1144:1 1156:2 1230:4 1258:14 1311:1 1335:2 1376:2 1443:1 1452:1 1508:4 1577:1 1604:1 1654:2 1684:4 1691:6 1694:3 1745:1 1795:1 1803:2 2007:2 2065:6 2086:2 2132:1 2139:5 2179:1 2180:7 2234:3 2252:2 2254:2 
0.7346964608447464 95:1 346:2 429:2 1240:2 1258:4 1579:1 1691:3 1956:1 2318:2 2429:2 2466:2 
0.04712913320055982 32:4 91:3 95:5 121:2 169:1 174:1 257:2 280:1 298:1 301:1 310:2 448:1 459:1 464:3 497:1 531:1 616:1 628:1 676:1 694:2 740:1 751:4 757:1 846:1 899:1 1144:2 1163:1 1228:2 1258:4 1330:1 1335:2 1342:1 1352:1 1413:1 1436:1 1454:1 1482:1 1484:1 1559:1 1638:1 1654:1 1688:1 1795:2 1869:1 2073:4 2133:1 2208:1 2216:3 2304:1 2353:1 2455:1 2463:1 
0.2381960417534336 8:3 11:1 54:1 95:9 109:1 121:7 200:4 202:1 207:8 298:1 310:2 326:1 339:3 346:6 455:1 465:1 468:2 558:3 616:2 708:2 751:12 835:1 839:1 847:3 850:1 891:1 936:1 947:1 979:5 1022:1 1048:9 1090:2 1183:1 1230:2 1251:3 1258:5 1307:1 1330:1 1444:1 1508:2 1564:3 1628:1 1646:2 1691:5 1711:1 1908:1 2065:1 2066:1 2086:3 2100:1 2139:2 2176:1 2179:1 2180:10 2181:2 2252:2 2454:1 
0.04196126837343062 36:2 46:1 91:1 95:1 296:2 310:2 352:2 544:2 628:1 738:1 751:1 753:2 754:2 781:1 864:1 874:1 888:1 1246:2 1248:1 1258:4 1330:1 1384:3 1526:2 1616:2 1622:1 1718:1 1733:1 1806:1 1971:1 1998:1 2007:1 2065:2 2180:3 2203:2 2349:1 2466:1 
0.03595136686555855 8:1 46:1 66:2 91:3 95:7 121:2 137:1 174:1 177:1 207:2 232:3 255:1 278:2 289:1 290:1 301:2 310:5 323:1 348:1 352:2 410:1 468:1 474:1 479:1 550:4 571:2 652:1 718:1 738:2 743:2 751:15 837:1 864:2 943:1 961:1 979:2 1048:3 1119:7 1126:3 1139:1 1175:1 1229:1 1258:6 1330:1 1335:2 1357:1 1376:1 1412:2 1419:1 1457:1 1463:1 1533:1 1654:1 1661:1 1733:1 1767:1 1806:2 1834:1 1888:1 1982:1 2058:1 2179:1 2264:1 2277:2 2397:1 2411:1 2420:1 2497:1 
0.03732951766233292 58:1 91:2 95:2 121:1 289:1 339:2 441:2 459:1 531:1 740:1 742:1 751:3 782:1 804:1 864:1 885:1 907:4 917:1 979:1 1030:1 1229:1 1330:1 1335:2 1504:2 1629:3 1892:1 2176:1 2180:2 2181:1 2401:2 2445:1 
0.1046866248291755 91:1 95:5 146:1 214:1 230:1 270:1 299:2 310:2 316:2 324:2 352:1 379:1 426:1 486:1 488:1 562:2 628:1 652:2 660:1 666:1 738:1 751:6 753:2 771:1 814:1 829:1 864:1 874:1 979:3 1022:1 1151:1 1208:2 1258:7 1330:1 1335:1 1419:1 1428:1 1436:1 1444:1 1597:1 1654:1 1742:1 1790:3 1793:1 1796:1 1925:1 2007:1 2156:3 2180:6 2203:1 2459:1 
0.3721377405516036 8:2 11:1 91:4 95:8 121:6 200:3 207:6 289:1 310:1 339:3 346:4 465:2 468:2 616:2 617:1 672:1 708:2 751:7 831:2 847:7 892:2 906:2 947:2 979:3 1048:6 1090:1 1258:8 1335:1 1445:1 1564:3 1582:1 1646:4 1654:1 1669:3 1684:1 1691:2 1692:3 1713:2 1909:1 1913:1 2046:2 2066:3 2083:3 2086:2 2132:1 2176:2 2179:1 2180:2 2181:2 2234:2 2252:2 2260:1 
0.1651606312159042 8:2 11:1 95:3 121:4 198:1 339:1 346:2 389:2 429:2 468:2 616:2 624:1 751:5 766:2 831:2 971:2 1048:6 1230:4 1258:3 1307:1 1325:1 1419:1 1508:1 1564:2 1669:2 1691:1 1713:2 1936:1 1950:1 2086:2 2139:2 2179:2 2180:5 2181:2 2234:2 2318:2 2343:2 2454:1 
0.06853669003541202 8:2 11:1 91:2 95:7 121:5 146:1 200:4 202:1 207:6 248:2 289:1 299:1 310:4 339:4 346:6 377:1 390:1 394:1 455:1 457:1 468:2 617:1 708:2 751:9 847:3 944:1 947:1 979:2 991:1 1048:8 1061:1 1090:2 1230:2 1251:3 1258:8 1335:1 1501:1 1508:1 1522:1 1528:2 1564:2 1646:2 1654:2 1684:3 1691:4 1692:2 1909:1 2007:1 2066:1 2086:2 2139:1 2166:2 2176:1 2179:1 2180:7 2181:2 2196:1 2252:2 2336:1 2343:1 2454:2 
0.00430362991277818 52:1 58:2 91:5 95:5 115:1 118:1 121:3 133:2 146:1 170:1 214:1 223:3 265:2 289:3 299:1 310:3 315:1 352:2 429:1 441:1 446:1 541:2 606:1 616:1 628:1 686:1 707:1 738:1 751:6 806:1 864:1 899:2 937:1 946:1 979:1 1094:1 1131:1 1144:1 1229:1 1258:5 1277:7 1335:1 1483:2 1499:1 1546:1 1573:1 1654:1 1668:2 1686:2 1736:1 1793:3 1795:1 1876:1 1928:1 1953:1 2077:1 2177:1 2180:2 2203:1 2277:2 2307:1 2459:1 
0.2843733746801922 8:2 11:1 95:5 121:2 200:2 207:3 299:1 310:3 331:2 339:2 346:2 429:2 468:2 550:1 616:2 638:1 683:1 751:7 847:2 864:1 899:2 979:2 991:2 1022:1 1048:4 1230:1 1256:1 1258:7 1277:2 1311:1 1335:2 1446:1 1508:1 1564:1 1577:1 1646:3 1654:3 1691:1 1698:2 1715:1 1950:1 2066:2 2086:2 2091:1 2139:1 2166:3 2179:1 2180:2 2181:2 2343:2 
0.1050020695999765 8:1 25:2 95:6 121:4 326:2 339:1 346:2 358:1 389:4 429:2 465:1 468:2 616:2 628:1 730:1 751:5 831:2 847:5 899:2 979:3 1048:10 1230:5 1258:3 1277:2 1307:2 1354:1 1508:1 1564:4 1581:2 1669:4 1691:1 1745:1 1818:1 1819:1 1950:1 1956:2 2115:1 2139:1 2179:2 2180:5 2181:4 2343:3 
0.03334376930251624 11:1 46:2 85:1 91:7 95:5 121:2 145:1 175:1 176:1 189:2 256:2 278:1 295:2 299:1 310:2 314:1 327:2 332:2 339:3 341:1 352:2 354:1 372:1 378:1 441:1 545:1 567:2 628:1 679:1 738:1 751:10 758:1 771:1 825:1 833:1 864:4 892:1 933:1 979:2 1007:1 1009:1 1090:1 1092:1 1138:1 1159:1 1243:2 1258:7 1307:1 1331:2 1335:3 1430:1 1444:1 1452:1 1467:1 1565:1 1584:1 1632:1 1636:1 1690:1 1691:1 1728:2 1730:1 1745:1 1787:1 2007:2 2009:1 2089:2 2092:1 2126:1 2145:1 2157:1 2179:1 2180:6 2181:1 2187:1 2203:1 2204:1 2293:1 2306:1 2315:1 2396:1 2416:1 2420:1 2422:2 2437:1 2477:1 
0.02605967486902775 91:2 95:5 121:2 133:1 146:1 195:1 257:1 299:1 310:1 338:1 339:1 371:1 452:1 616:1 628:1 666:5 738:2 751:5 799:1 848:2 864:1 865:1 872:1 906:2 931:1 944:1 979:1 1046:4 1122:1 1151:1 1228:1 1229:2 1258:7 1287:1 1331:1 1335:5 1374:1 1401:1 1647:1 1713:1 1746:1 1802:1 1971:1 1997:1 2012:1 2046:4 2198:1 2286:1 2416:1 2455:1 
1 95:3 429:2 616:2 1240:1 1947:2 1970:2 2201:1 2210:2 2318:2 
0.01679613658762952 14:1 51:1 91:4 95:7 121:1 133:1 186:1 206:1 213:1 251:1 257:2 287:1 289:1 310:3 311:2 326:2 352:1 405:1 429:2 448:1 484:1 515:1 531:1 585:1 586:1 614:1 616:1 628:1 645:1 659:1 686:3 701:1 740:1 742:1 751:10 771:1 827:2 863:2 935:2 946:1 952:1 962:1 979:3 1059:1 1142:1 1144:9 1163:1 1198:1 1206:1 1207:1 1221:1 1223:2 1258:7 1279:1 1285:1 1312:1 1330:1 1335:3 1349:1 1370:1 1393:1 1413:1 1457:1 1459:1 1600:1 1640:1 1705:1 1795:9 1811:1 1908:1 1924:1 2010:1 2020:4 2101:3 2146:1 2179:1 2180:3 2196:1 2216:1 2277:1 2283:1 2318:3 2416:1 2458:1 
0.108740579443463 36:1 91:1 95:4 183:2 296:2 299:2 310:3 352:3 544:2 616:1 628:1 696:2 738:2 751:2 753:3 754:1 781:2 864:1 874:2 888:1 990:1 1246:1 1258:3 1330:1 1362:1 1449:1 1519:2 1654:1 1691:1 1733:1 1806:1 1971:1 1998:1 2007:2 2180:6 2203:3 2226:1 2262:2 
0.2119726897805589 8:1 11:1 69:1 91:3 95:8 121:7 200:8 207:3 271:1 296:2 298:1 310:2 326:2 339:3 346:4 468:2 544:2 617:1 636:1 708:2 724:1 751:12 781:2 831:2 847:2 892:1 928:1 944:1 947:2 979:3 1048:7 1090:1 1183:2 1230:3 1258:8 1335:2 1436:3 1452:1 1552:1 1564:2 1632:1 1669:3 1691:4 1692:3 1694:1 1712:2 1715:1 1909:1 1939:1 2007:2 2066:3 2083:1 2115:1 2142:1 2174:1 2176:1 2179:1 2180:8 2181:2 2249:1 2252:2 2370:2 2496:1 
0.02976031614999285 12:1 62:1 81:1 91:6 95:6 129:3 131:1 146:2 185:1 200:2 207:6 256:1 263:1 289:2 296:3 298:1 299:1 308:1 310:4 339:5 348:1 352:2 371:2 438:3 441:2 469:2 544:3 550:2 628:1 658:1 672:1 738:1 751:13 758:1 781:2 804:1 864:2 915:1 979:1 991:3 1022:1 1026:1 1039:1 1048:6 1229:2 1236:2 1256:1 1258:9 1296:1 1322:1 1330:1 1331:2 1334:1 1335:1 1369:3 1436:2 1445:1 1556:1 1654:1 1684:3 1692:1 1696:1 1739:1 1742:2 1755:1 1781:1 1859:1 1972:1 1981:2 2007:2 2038:1 2064:2 2109:3 2150:1 2180:9 2181:1 2184:2 2191:1 2261:2 2277:1 2296:2 2310:1 2359:4 2416:1 2455:6 2480:1 
0.05857955458299831 36:1 46:3 91:7 95:3 195:2 289:1 301:2 310:2 571:1 589:2 595:2 628:2 660:2 738:2 751:1 753:1 864:1 874:1 979:2 982:1 991:1 1047:1 1052:1 1122:1 1246:1 1248:3 1258:8 1288:1 1335:1 1421:1 1581:2 1620:1 1676:1 1733:3 1751:1 1806:3 1925:1 1998:3 2045:2 2109:1 2137:1 2180:2 2272:1 2286:1 2317:2 2349:3 2362:1 2379:1 2423:1 2427:1 2455:1 2458:1 
0.06667070454707165 1:1 11:1 25:5 95:3 121:8 207:2 216:1 298:2 299:2 301:2 310:2 337:1 590:2 617:2 624:4 628:1 685:1 751:8 766:1 831:4 850:2 907:2 944:3 947:4 979:1 991:1 1005:2 1048:4 1144:1 1156:2 1230:4 1258:9 1261:3 1311:1 1335:4 1376:2 1443:1 1452:1 1508:4 1574:1 1581:4 1604:1 1654:2 1688:4 1690:2 1795:1 1803:2 1849:2 2007:1 2129:1 2137:1 2139:5 2179:1 2180:5 2254:2 2278:1 2281:1 2404:5 2500:4 
0.2301129135569548 4:4 8:1 11:1 91:2 95:6 121:5 189:2 200:4 207:8 289:2 310:2 389:4 441:1 465:1 468:1 590:2 617:2 728:1 730:1 731:1 734:1 751:7 766:2 771:2 819:1 831:1 847:2 944:3 979:1 1005:1 1048:12 1156:2 1229:1 1230:5 1243:2 1258:10 1335:4 1391:1 1436:1 1508:1 1522:1 1564:4 1654:2 1669:4 1688:2 1690:1 1713:1 1732:1 1772:1 2005:1 2007:1 2139:2 2181:4 2252:2 2343:2 2379:2 2407:1 2410:1 2411:1 2413:1 2454:1 2483:1 2496:2 2500:2 2504:1 
1 58:2 95:3 1240:1 1389:2 1947:2 1970:2 2007:2 2201:1 2210:2 
0.4067256929080381 58:2 95:3 1240:1 1389:2 1947:2 1970:2 2007:2 2201:1 2210:2 
0.02477120327996379 43:1 91:3 95:2 96:1 121:1 138:1 146:2 188:1 223:1 234:1 257:1 290:1 299:2 301:2 305:1 309:1 310:5 312:1 339:1 341:1 429:2 441:1 451:3 453:1 499:1 572:1 599:1 674:2 747:1 751:4 754:1 847:1 864:1 899:2 931:1 947:1 979:3 1090:3 1112:1 1118:1 1171:1 1182:1 1256:1 1258:10 1277:3 1289:1 1298:1 1333:1 1372:1 1395:1 1412:1 1446:1 1449:2 1465:1 1533:2 1576:1 1632:1 1638:2 1644:3 1679:1 1692:2 1728:3 1804:1 2035:1 2056:1 2081:1 2102:1 2130:1 2149:1 2180:3 2181:2 2203:1 2316:1 2364:2 2422:1 2466:2 2471:1 
0.04496419876574557 91:6 95:4 132:1 165:1 223:6 245:1 283:1 289:1 299:1 310:4 329:1 352:1 429:1 441:1 582:1 616:1 620:1 628:1 644:1 738:1 751:4 759:4 850:1 864:1 881:2 899:1 917:1 979:1 981:2 1043:1 1117:1 1123:1 1144:2 1163:1 1258:7 1275:1 1277:5 1283:3 1330:2 1335:1 1430:1 1483:1 1593:1 1609:2 1622:2 1671:1 1795:2 1799:3 1951:1 1961:2 2067:1 2098:1 2180:6 2203:1 2246:1 2416:1 
0.06870276752071532 11:1 95:3 112:1 131:1 145:1 157:1 200:2 207:4 276:1 310:4 339:1 465:1 468:1 550:1 562:2 628:1 660:1 716:1 747:1 751:6 771:1 801:1 847:1 864:2 865:1 979:3 1048:6 1051:1 1144:1 1184:1 1258:4 1259:1 1331:1 1335:3 1347:1 1363:1 1376:1 1378:1 1436:2 1459:1 1508:1 1564:1 1623:1 1646:1 1654:2 1669:1 1688:1 1733:1 1750:1 1795:1 1806:1 1837:1 1972:1 1992:1 2041:1 2086:1 2139:1 2166:2 2388:1 
0.0311399336529592 4:1 32:3 38:1 91:6 95:7 121:3 146:1 186:1 266:1 280:1 287:1 298:1 310:2 541:1 579:1 616:3 625:1 628:1 751:8 899:2 946:1 1052:1 1053:1 1064:1 1113:1 1123:1 1198:1 1223:2 1258:12 1274:3 1279:1 1306:2 1330:1 1335:2 1341:3 1400:1 1413:1 1436:2 1459:1 1524:1 1567:1 1583:1 1591:1 1669:1 1686:1 1942:1 1953:1 1955:1 1991:1 2180:4 2216:6 2218:1 2228:1 2311:1 2344:1 2353:1 2457:1 
0.05748976211582739 58:1 91:3 95:3 121:3 146:1 280:1 298:1 310:2 339:1 383:1 438:1 441:1 459:1 509:1 527:1 546:1 548:1 558:2 573:1 607:1 615:1 616:1 628:1 658:2 701:1 721:2 738:1 751:4 864:2 979:1 1073:1 1144:2 1229:1 1258:2 1331:1 1353:1 1414:2 1452:1 1456:1 1482:1 1503:1 1514:1 1550:1 1654:1 1683:1 1699:1 1770:1 1781:1 1795:2 1825:2 1827:1 1908:1 2074:1 2075:1 2179:1 2180:1 2235:1 2311:1 2421:1 2455:1 2482:2 
0.02671457477439211 10:1 39:1 91:3 95:5 121:3 145:1 146:2 154:1 179:1 200:7 289:3 299:2 310:7 339:1 346:6 352:1 373:1 376:1 389:1 430:1 441:1 468:1 570:1 587:1 616:1 617:2 628:1 647:1 751:14 801:1 847:1 864:2 865:1 928:1 936:1 979:1 1005:2 1048:8 1090:1 1139:2 1148:1 1156:1 1171:1 1230:6 1256:1 1258:6 1273:2 1326:1 1335:5 1428:1 1436:7 1459:1 1540:1 1559:1 1564:4 1623:2 1641:1 1654:1 1669:4 1688:5 1870:1 1891:1 1909:1 1984:1 2029:2 2065:1 2086:1 2113:1 2137:2 2139:1 2166:2 2180:13 2246:5 2252:2 2329:1 2343:2 2471:1 2472:1 2500:4 
0.03252916463158546 36:1 61:1 74:1 91:7 95:5 283:3 289:3 296:4 298:2 299:5 310:1 325:2 339:4 352:1 365:3 367:2 372:1 380:1 462:2 531:5 544:4 622:2 738:2 751:14 753:3 758:1 771:1 781:2 861:1 864:5 888:1 891:1 932:1 979:3 1042:2 1077:1 1144:6 1194:1 1229:1 1246:2 1258:9 1284:1 1321:1 1330:5 1335:4 1384:2 1391:3 1450:1 1468:1 1518:1 1526:2 1547:1 1610:1 1616:2 1680:1 1692:2 1707:3 1728:1 1745:1 1793:1 1795:6 1860:2 1900:2 1998:1 2007:1 2029:2 2065:1 2078:2 2086:1 2102:2 2129:1 2156:1 2179:1 2180:8 2181:4 2203:1 2252:2 2266:1 2316:1 2338:1 2384:2 2397:1 2420:1 
0.02045333452707052 91:3 95:5 112:1 121:1 136:1 146:1 207:3 214:1 253:1 289:1 296:3 298:1 301:1 310:2 339:1 348:1 352:1 478:1 544:2 550:1 560:1 609:1 639:2 662:1 676:1 679:1 751:4 781:2 825:3 837:1 864:1 915:1 979:4 990:1 1008:1 1047:1 1048:3 1128:1 1185:1 1258:5 1307:1 1314:1 1335:8 1371:1 1387:1 1452:1 1600:1 1604:1 1691:1 1693:1 1742:1 1860:1 1990:1 2007:1 2065:1 2089:1 2126:2 2128:1 2137:1 2180:4 2181:1 2206:1 2207:1 2355:1 2401:1 2416:1 2420:2 2433:1 2447:1 2498:3 
0.218384279740732 5:1 91:6 95:9 121:5 200:6 202:3 207:4 310:4 326:2 339:2 346:2 352:4 371:1 419:1 438:1 441:4 570:5 616:2 617:1 695:2 708:8 751:8 831:2 839:1 847:2 864:1 865:1 908:1 944:3 1048:13 1049:2 1071:1 1194:2 1211:2 1230:2 1258:7 1289:2 1315:5 1330:2 1331:1 1335:1 1358:1 1436:5 1512:1 1555:1 1564:5 1632:5 1669:5 1684:1 1692:9 1710:1 1712:4 1767:1 1833:2 1909:2 1912:1 1947:5 1972:1 1978:1 1995:1 2180:4 2252:2 2277:1 2289:1 2310:1 2329:1 2343:6 2355:2 2370:2 2455:1 2476:1 
0.3921483259939818 8:3 11:1 25:1 95:4 121:3 200:6 207:6 310:2 339:1 346:2 358:1 389:3 429:2 457:1 468:2 616:2 617:2 671:1 706:1 728:1 733:2 751:8 754:1 771:3 831:2 1048:10 1049:2 1230:3 1258:5 1335:3 1436:5 1555:1 1564:4 1654:1 1669:4 1684:1 1691:1 1692:1 1712:2 1824:1 1950:2 2180:4 2181:4 2318:2 2343:3 
0.2805342506265834 95:4 121:1 160:1 236:1 283:1 298:1 299:1 310:2 438:1 469:1 550:2 738:1 751:2 864:1 979:3 994:1 1008:1 1107:1 1128:1 1258:2 1331:1 1335:2 1614:1 1618:2 1716:1 1855:3 1971:1 2007:2 2135:1 2179:1 2180:1 2416:1 2455:3 
0.3364455794927904 11:1 25:1 91:2 95:7 121:4 146:1 167:1 200:4 207:2 289:2 310:1 346:3 465:1 468:2 503:1 617:1 619:1 628:1 708:1 751:4 831:2 847:4 940:1 979:1 1048:6 1090:1 1230:1 1255:1 1258:5 1335:1 1376:2 1452:2 1564:3 1646:2 1654:2 1669:3 1689:2 1693:2 1712:2 1855:4 1909:1 2007:2 2066:4 2140:1 2176:1 2180:1 2181:2 2252:2 2282:1 2283:1 2370:2 2454:1 
0.1461076036353674 4:2 91:1 95:9 121:5 200:2 207:1 220:1 248:4 263:1 310:1 326:1 339:3 346:4 371:1 550:1 708:1 751:8 830:1 847:3 891:2 892:1 936:2 947:1 1034:1 1048:6 1090:1 1114:1 1194:1 1258:4 1331:1 1335:1 1376:1 1445:1 1528:4 1564:5 1646:2 1669:5 1684:1 1691:1 1692:4 1826:1 1888:1 1908:1 2007:2 2086:2 2139:1 2176:1 2180:5 2252:2 2336:1 2343:1 
1 95:1 157:2 296:2 346:2 544:2 781:2 1240:2 1258:4 1574:1 1692:3 2189:1 2430:2 
0.01312481326244966 37:1 91:8 95:7 121:2 133:2 143:1 214:1 310:5 438:1 441:1 457:1 482:2 536:1 626:1 658:2 738:1 751:5 847:1 971:1 979:1 986:1 990:1 1008:2 1022:1 1048:2 1128:1 1222:1 1255:1 1258:4 1312:1 1335:2 1357:2 1376:1 1389:2 1452:2 1470:2 1622:1 1654:1 1690:1 1855:2 1876:1 1919:1 1971:1 2007:1 2179:1 2180:1 2196:1 2198:1 2221:1 2329:1 2370:1 2416:1 2466:2 
0.1388827738040696 37:1 95:5 214:1 289:1 310:2 352:1 438:2 441:2 457:1 482:1 591:1 628:1 654:1 664:1 738:1 751:4 771:1 773:1 847:1 864:1 971:1 979:3 994:1 1008:3 1048:1 1128:1 1144:2 1332:2 1376:1 1391:2 1412:1 1419:1 1459:1 1654:1 1661:1 1683:1 1791:1 1795:2 1855:2 2102:1 2135:4 2139:1 2179:1 2180:1 2196:1 2207:1 2221:1 2455:1 
0.673073041159254 95:1 157:2 346:2 649:2 1240:2 1258:4 1579:1 1692:3 2189:1 2430:2 
1 95:1 157:2 346:2 907:2 1240:2 1258:4 1692:3 2429:2 
0.02464803158013353 36:1 91:3 95:4 135:1 183:2 197:1 296:2 299:1 310:4 339:1 352:2 361:1 388:1 407:1 438:1 544:2 565:1 628:1 691:1 751:5 753:2 754:1 781:2 864:1 874:1 888:1 971:1 979:1 1085:3 1248:1 1258:4 1362:1 1449:1 1517:1 1552:1 1577:1 1593:1 1654:1 1692:1 1722:1 1733:1 1885:1 1900:1 1998:1 2007:2 2156:1 2179:1 2180:4 2203:2 2213:1 2404:2 
0.01667672981461957 1:1 91:3 95:5 121:4 137:1 146:1 186:3 207:1 214:1 247:6 257:1 310:3 318:1 319:4 331:1 339:1 457:1 503:1 534:1 558:2 616:1 628:1 633:1 738:1 743:1 751:5 755:5 780:1 864:2 894:1 915:1 917:1 979:2 990:1 1072:1 1073:1 1091:1 1095:5 1135:1 1144:1 1166:1 1181:1 1189:2 1258:5 1295:1 1330:1 1335:4 1374:3 1409:1 1556:2 1596:1 1654:1 1692:1 1705:1 1742:1 1745:1 1795:1 1959:1 1963:1 1964:2 1971:1 2075:1 2102:2 2158:1 2162:2 2180:7 2204:1 2249:1 2309:1 2311:2 2332:1 2366:1 2395:1 2416:1 2443:1 2478:1 
0.09281519934467757 2:1 4:3 46:1 95:8 112:1 121:6 161:1 194:1 200:3 207:3 271:1 301:1 310:2 339:3 346:5 352:2 376:1 441:1 468:3 531:1 550:2 616:2 628:1 708:2 725:2 751:16 754:2 836:2 847:5 927:2 958:1 1022:1 1034:1 1048:5 1090:1 1222:2 1230:1 1258:4 1331:1 1335:1 1376:2 1436:1 1443:1 1472:1 1508:1 1552:1 1564:2 1575:1 1587:1 1622:1 1639:1 1646:2 1654:3 1669:2 1684:2 1692:3 1707:1 1745:1 1837:1 1909:1 1913:1 2029:1 2083:2 2086:2 2139:1 2166:3 2179:2 2180:4 2181:2 2215:1 2228:1 2252:2 2336:3 2343:1 2384:1 2454:1 2455:1 
0.2078891710232067 4:7 8:5 11:1 25:1 65:1 91:6 95:7 121:9 126:1 200:9 202:1 207:10 289:2 310:2 318:1 326:1 339:3 346:4 358:1 376:1 389:4 428:1 468:2 558:2 616:2 617:2 638:1 671:1 705:1 708:2 728:1 730:1 751:17 766:3 771:1 831:2 835:1 847:1 850:1 905:1 979:2 1048:14 1051:1 1078:1 1090:1 1156:1 1183:1 1230:6 1246:1 1251:1 1258:15 1273:1 1311:1 1335:3 1364:2 1564:4 1669:4 1684:1 1691:2 1692:6 1728:1 1759:1 1822:1 1908:1 1913:1 1950:1 1969:2 2029:1 2065:2 2086:1 2100:1 2129:1 2139:1 2176:1 2179:1 2180:15 2181:4 2198:1 2252:2 2338:2 2343:4 2377:1 2379:3 2404:2 
1 95:1 346:2 906:2 1240:2 1258:4 1692:3 2046:2 2429:2 2466:2 
0.06089993607972721 8:2 11:1 25:1 91:2 95:9 121:7 200:4 207:8 298:1 310:7 326:2 339:3 346:5 389:3 438:3 468:2 616:2 617:2 647:2 695:2 708:2 729:1 751:10 766:2 771:1 831:2 839:2 847:2 850:1 906:2 947:3 971:2 979:1 1048:10 1090:1 1230:3 1251:3 1258:6 1330:1 1564:3 1581:1 1669:3 1684:1 1691:1 1692:4 1713:2 1819:1 1909:1 1972:2 2046:2 2086:2 2139:1 2174:1 2176:1 2180:7 2181:2 2252:2 2277:1 2343:3 2504:2 
0.07617192750120443 65:2 95:5 97:3 121:1 207:1 298:1 310:1 339:2 439:1 444:1 451:2 539:2 616:3 751:5 779:3 931:3 1048:1 1144:2 1230:3 1258:5 1316:1 1335:4 1484:1 1576:1 1593:3 1654:3 1684:3 1692:2 1742:1 1755:2 1756:1 1765:3 1795:2 1951:3 1995:3 2065:1 2150:1 2179:2 2180:2 2246:3 2252:2 2389:1 
0.2336322676734005 4:2 8:1 11:1 95:3 121:1 200:3 207:2 346:2 352:1 457:2 468:1 616:2 751:4 754:1 771:1 979:2 1048:4 1230:2 1258:6 1335:5 1376:2 1476:1 1564:2 1646:2 1654:2 1684:1 1692:1 1720:2 1853:1 2086:1 2139:1 2142:1 2180:1 2181:2 2246:2 2260:1 2320:1 2322:1 2389:1 
0.4939842342155434 95:4 182:2 310:1 392:3 616:2 751:2 753:1 754:1 979:1 1258:3 1282:1 1330:1 1419:2 1447:2 1474:1 1479:1 1484:1 1554:1 1564:1 1632:1 1646:1 1669:1 1692:2 1698:2 1712:1 1728:1 1851:1 2021:2 2179:2 2180:4 2203:1 2234:2 2496:1 
0.2397015175929721 8:1 11:1 46:2 85:2 91:5 95:5 107:2 121:7 200:5 207:9 298:2 310:2 323:1 331:2 339:1 346:4 389:2 392:2 441:1 446:2 468:2 617:2 647:1 704:1 727:1 732:1 751:11 754:1 758:2 766:3 771:4 831:3 847:2 850:2 947:1 971:3 979:5 1048:14 1090:1 1191:1 1193:1 1230:3 1251:2 1258:9 1289:1 1314:6 1325:1 1335:7 1447:1 1479:1 1484:1 1508:1 1564:2 1669:2 1692:4 1713:4 1717:5 1839:1 1969:1 2021:1 2126:2 2139:1 2150:2 2179:6 2180:7 2181:3 2192:1 2193:1 2252:2 2276:1 2280:1 2343:8 2504:4 
0.05258065289346866 8:3 29:1 46:1 58:5 91:2 95:14 121:7 146:5 178:2 200:3 207:2 301:1 303:4 310:8 339:3 352:3 468:2 534:1 550:2 590:1 628:1 708:1 751:14 766:1 801:2 847:1 864:1 934:1 971:1 979:5 1036:1 1048:12 1090:1 1102:1 1144:1 1183:6 1251:2 1258:4 1331:1 1335:2 1375:2 1376:6 1389:2 1436:1 1564:3 1573:3 1622:1 1646:1 1654:6 1669:1 1688:2 1689:3 1690:1 1693:2 1745:1 1795:1 1802:1 2007:5 2066:1 2083:1 2086:4 2139:1 2176:1 2180:7 2184:1 2252:2 2287:1 2387:5 2388:1 
0.005097529945983777 36:1 91:2 95:2 146:1 198:1 226:1 299:1 310:2 339:2 441:1 470:2 628:1 715:2 751:4 864:2 1208:1 1258:4 1288:2 1391:2 1484:1 1576:1 1654:2 1692:1 1733:2 1801:1 1855:2 1900:1 1903:1 1917:1 1998:2 2180:1 2272:1 
0.8567914152363721 29:1 91:2 95:2 121:1 222:1 298:1 310:2 339:2 352:1 362:1 558:1 616:1 646:1 658:1 668:1 751:1 804:1 819:1 897:1 1330:1 1741:1 1773:1 1947:1 2180:1 2336:1 2469:1 
1 95:3 429:2 616:2 1240:1 1947:2 1970:2 2201:1 2210:2 2318:2 
1 95:3 429:2 616:2 1240:1 1947:2 1970:2 2201:1 2210:2 2318:2 
0.8076355346595274 95:3 281:2 429:2 616:2 899:2 1240:1 1258:2 1277:2 1947:2 2201:1 
0.01579869607031698 24:2 91:4 95:6 121:3 133:3 165:1 166:1 199:1 223:4 233:1 241:1 251:1 276:1 289:2 299:4 310:6 407:1 429:1 459:1 547:3 608:1 616:1 628:1 686:1 738:1 751:7 788:1 809:1 839:1 864:2 899:1 937:1 946:2 962:1 979:3 1036:1 1082:1 1123:2 1131:1 1144:1 1148:1 1158:1 1163:1 1174:2 1178:1 1204:4 1223:1 1229:3 1255:1 1258:7 1267:1 1277:5 1330:2 1331:1 1335:2 1368:1 1417:4 1444:1 1459:1 1460:1 1497:1 1499:1 1515:1 1517:1 1539:1 1559:1 1574:1 1588:2 1589:1 1609:1 1654:1 1745:1 1773:1 1783:1 1795:1 1951:1 1952:4 1953:2 1967:1 1968:1 1971:1 1997:1 2062:1 2076:1 2179:1 2180:5 2263:1 2301:1 2366:1 2372:1 2469:2 2502:1 
0.01760392415364466 48:1 91:1 95:3 121:2 200:4 202:2 310:2 339:1 346:5 352:1 411:2 628:1 632:2 708:3 751:3 754:1 803:1 831:2 864:1 918:1 1048:4 1230:1 1251:4 1258:4 1331:1 1564:2 1669:3 1691:1 1692:2 1713:2 1909:1 2007:2 2024:1 2111:1 2180:2 2234:2 2476:1 
0.07168501169657621 52:1 58:4 91:3 95:5 114:1 121:1 137:1 146:1 223:3 257:2 269:1 289:1 310:5 320:1 338:1 339:1 352:5 407:1 429:1 441:1 459:2 491:1 531:1 610:1 616:1 628:1 658:1 668:1 686:2 751:4 806:1 864:2 892:1 899:1 931:1 937:1 946:2 949:1 979:2 1114:1 1131:4 1144:3 1162:1 1258:5 1277:3 1331:2 1335:2 1455:1 1483:1 1618:1 1620:1 1622:1 1668:1 1686:1 1689:1 1795:3 1838:1 1876:1 1925:3 2030:1 2068:1 2075:1 2176:1 2203:2 2220:1 2312:1 2361:1 
0.08437660218498506 2:2 95:2 296:2 310:3 339:1 347:1 414:1 544:4 550:1 610:1 698:1 751:1 760:1 771:1 804:1 837:2 864:1 979:2 1144:1 1203:1 1258:1 1330:1 1335:2 1489:1 1677:1 1795:1 1814:1 1834:2 1958:1 2007:1 2180:1 
0.1494495867568209 8:2 11:1 91:1 95:5 121:6 146:1 200:4 207:4 263:1 289:1 296:2 298:1 299:2 301:1 310:2 313:1 339:2 346:2 457:1 465:1 468:3 544:2 565:1 617:1 657:1 662:1 707:1 751:8 754:1 781:2 831:2 847:2 864:1 891:2 944:1 979:7 1048:6 1174:1 1251:2 1255:1 1258:15 1331:1 1335:1 1376:2 1441:1 1442:1 1564:4 1579:1 1646:4 1654:1 1684:1 1691:1 1692:1 1713:2 1791:1 1890:1 1949:1 2007:2 2041:1 2057:1 2119:1 2129:1 2180:3 2181:4 2199:1 2234:2 2296:1 2299:1 2377:2 2388:1 2452:1 2454:1 2494:1 
0.2176314729053699 8:1 11:1 95:8 121:5 146:1 200:2 207:4 296:2 298:1 310:2 339:2 346:3 468:2 544:2 550:1 617:1 695:1 708:1 751:10 766:5 771:2 781:2 831:2 920:1 944:1 971:5 979:1 1048:7 1090:1 1156:1 1230:2 1258:7 1331:1 1335:3 1436:3 1452:1 1552:1 1564:2 1669:3 1691:2 1692:6 1713:2 1909:1 1939:1 1958:1 2007:2 2066:2 2083:1 2139:1 2176:1 2180:6 2181:2 2234:2 2252:2 2267:1 2343:2 2496:1 
0.05636283182664528 8:3 46:1 91:2 95:8 121:4 145:2 200:8 207:10 289:4 339:2 346:1 358:2 389:4 429:2 457:1 468:2 503:1 616:1 617:1 619:1 628:1 730:1 731:1 735:1 751:13 754:1 766:3 771:3 831:2 868:2 928:1 971:3 979:2 1008:2 1048:16 1144:2 1230:5 1251:8 1258:8 1265:2 1307:2 1325:1 1335:8 1373:2 1508:1 1555:2 1564:5 1654:1 1669:6 1684:1 1691:3 1692:1 1713:2 1745:1 1795:2 1816:1 1950:1 2086:2 2115:1 2139:2 2170:2 2180:8 2181:6 2234:2 2252:2 2318:2 2343:5 2496:2 
0.3827284693476299 8:2 11:1 91:1 95:6 121:3 159:1 200:3 207:3 289:1 310:2 331:1 339:3 346:1 468:2 495:2 550:1 591:1 616:2 617:1 751:9 754:1 847:1 929:1 979:5 1022:1 1048:7 1051:1 1143:1 1183:1 1184:1 1251:2 1258:6 1331:1 1335:1 1375:1 1508:1 1564:3 1654:1 1669:3 1692:1 1802:1 1833:2 2083:1 2086:2 2091:1 2139:2 2179:1 2180:3 2181:2 2205:1 2310:1 
0.06660585600971236 46:1 91:3 92:2 95:10 121:2 207:2 232:1 288:3 293:2 295:1 299:3 310:9 327:1 349:1 379:1 380:1 398:3 410:1 438:1 439:2 440:1 451:2 470:3 539:2 543:1 571:1 616:3 662:1 751:1 874:1 906:4 951:1 979:2 1023:1 1048:2 1124:3 1144:2 1172:1 1179:2 1209:2 1230:2 1258:5 1296:2 1330:2 1335:1 1560:1 1628:1 1677:2 1692:1 1756:2 1795:2 1860:1 1899:1 1900:2 1972:1 2035:1 2046:5 2150:1 2179:1 2180:4 2261:1 2455:2 
1 8:2 95:2 121:4 310:1 339:1 346:2 389:2 468:2 616:1 617:1 751:7 754:1 766:2 831:2 847:1 971:2 979:1 1048:5 1183:1 1230:2 1258:2 1354:1 1508:1 1564:2 1669:2 1692:1 1713:2 1745:1 1833:2 2086:1 2139:2 2179:1 2180:3 2181:2 2234:2 2343:1 
0.02372675697874003 91:2 95:6 121:3 288:1 289:2 299:2 310:3 352:1 405:1 439:3 444:1 568:4 616:2 628:1 738:1 751:2 769:2 864:3 917:1 979:1 1174:1 1185:2 1238:2 1258:3 1316:1 1317:6 1331:2 1338:2 1339:1 1352:1 1383:1 1547:2 1596:1 1647:3 1745:1 1833:5 1964:3 2176:1 2180:1 2241:2 2277:1 2375:1 2455:3 2468:1 
0.05585008402982545 62:2 95:5 267:1 298:1 299:1 310:2 352:1 377:1 392:4 494:1 560:1 628:1 751:2 753:1 830:1 864:1 1258:4 1330:1 1335:1 1445:3 1479:1 1638:1 1646:3 1654:1 1695:1 1698:3 1742:1 2007:2 2021:2 2063:2 2180:3 2269:1 2368:1 2496:1 
0.1864388268893343 8:1 11:1 46:1 91:2 95:9 121:8 189:2 200:4 207:12 310:6 389:4 465:2 468:2 590:6 683:1 751:8 754:1 766:5 822:1 831:5 847:6 944:4 971:5 979:4 1048:16 1230:4 1243:2 1251:4 1258:13 1312:1 1428:2 1522:2 1564:4 1654:6 1669:4 1684:6 1692:4 1713:5 1820:1 2007:2 2112:1 2181:4 2234:5 2252:2 2343:2 2454:2 
0.1822141883093985 8:2 11:1 91:2 95:8 121:6 200:6 207:9 288:1 298:1 310:7 339:2 346:4 389:3 438:3 468:2 616:2 617:2 635:1 647:1 695:1 708:1 751:8 771:1 831:2 847:3 850:1 906:2 943:1 947:4 1048:11 1090:1 1230:2 1258:10 1330:1 1335:1 1398:1 1564:3 1577:1 1582:2 1654:1 1669:3 1684:1 1691:2 1692:2 1695:2 1823:1 1909:1 1972:2 2046:2 2066:6 2086:3 2129:1 2176:1 2180:4 2181:2 2198:1 2234:2 2252:2 2277:1 2343:2 2416:1 
0.0427543853217605 4:1 64:1 90:1 91:5 95:4 98:1 121:2 124:1 133:2 146:4 207:1 214:1 230:1 246:1 254:1 259:4 289:1 298:1 299:1 301:1 310:1 338:1 347:1 352:2 360:1 371:1 417:1 426:1 441:1 478:1 496:5 503:1 578:1 610:1 612:3 627:1 628:1 723:1 738:1 751:8 777:1 785:1 864:1 865:1 873:1 881:1 979:3 998:1 1022:1 1048:1 1054:1 1103:1 1128:2 1144:3 1229:3 1255:1 1258:7 1335:5 1404:1 1470:3 1556:2 1613:1 1620:1 1622:4 1654:1 1705:2 1795:3 1853:1 1857:1 1887:2 1908:1 1914:3 1971:1 1972:1 2007:1 2063:2 2133:1 2135:1 2180:5 2191:1 2228:2 2336:2 2341:1 2379:1 2388:1 2400:1 2409:1 2416:1 2455:2 2467:1 2468:1 2502:1 
0.07404552175704032 95:4 216:1 217:2 253:1 310:2 339:1 383:1 457:1 531:1 751:2 907:2 979:2 1251:2 1330:1 1335:3 1466:2 1589:1 1654:1 2007:2 2179:1 2180:1 2418:2 2444:1 2502:1 
0.268693808972689 47:1 91:1 95:2 289:1 301:1 310:1 330:1 339:1 441:1 459:1 610:1 751:2 907:3 979:1 1121:1 1240:1 1594:1 1791:1 1947:1 1968:1 2007:1 2179:2 2180:2 2266:1 2327:1 2470:1 
1 95:1 157:2 346:2 560:1 907:2 1240:2 1258:4 1695:3 1713:1 2051:2 
0.01504193888981466 4:1 64:1 91:6 95:5 121:2 146:3 200:1 207:1 254:1 289:3 310:4 317:1 339:1 371:1 438:1 441:1 469:1 612:1 628:1 654:1 738:1 751:7 821:1 864:1 979:3 1015:6 1048:1 1068:1 1077:1 1128:1 1229:3 1258:3 1269:2 1330:1 1331:1 1335:3 1445:1 1556:1 1622:1 1688:1 1791:1 1800:1 1855:4 1876:1 1905:1 1925:1 1971:1 2007:1 2135:2 2179:1 2180:6 2198:1 2200:1 2201:1 2310:2 2366:1 2455:1 2460:2 
1 95:3 429:2 616:2 1240:1 1947:2 1970:2 2201:1 2210:2 2318:2 
0.9888940790406895 95:3 429:2 616:2 1240:1 1947:2 1970:2 2201:1 2210:2 2318:2 
0.05941920771923808 95:1 157:2 346:2 560:1 649:2 1240:2 1258:4 1582:1 1692:2 1695:1 2431:2 
0.3812538638102977 95:3 616:2 1240:1 1532:2 1947:2 1970:2 2201:1 2210:2 
1 95:3 616:2 1240:1 1532:2 1947:2 1970:2 2201:1 2210:2 
0.08894613395787827 4:2 8:1 11:1 26:1 91:4 95:9 121:6 146:2 163:1 200:10 207:6 289:3 298:1 299:1 310:1 331:2 346:4 440:1 441:1 468:3 590:1 616:2 617:3 628:1 695:1 704:1 751:13 754:1 763:1 766:2 771:4 792:1 822:1 831:4 847:5 850:1 936:1 947:3 979:2 1003:1 1048:13 1078:1 1090:1 1134:1 1139:2 1194:1 1230:3 1251:1 1258:12 1325:1 1335:4 1376:1 1452:1 1508:1 1532:2 1564:4 1669:4 1684:5 1692:5 1695:1 1712:4 1717:1 1721:1 1908:2 1931:1 2025:1 2041:1 2058:1 2086:4 2139:1 2176:1 2180:6 2181:4 2192:1 2199:1 2207:1 2234:2 2252:2 2280:1 2343:3 2370:7 2379:2 2454:3 
0.9629785272672431 91:1 95:3 121:1 135:1 146:1 207:1 299:1 310:1 379:1 616:2 738:1 751:1 754:1 797:2 854:1 979:1 1048:1 1258:4 1443:1 1484:1 1532:2 1564:1 1632:2 1692:2 1703:1 1712:2 1728:2 1860:1 1983:1 2178:1 2179:2 2180:3 2207:1 2370:2 2422:1 
1 32:1 95:2 146:1 298:1 310:1 339:1 616:1 658:1 897:1 899:1 1240:1 1947:1 1970:1 2180:1 2210:1 2216:1 
0.01009814804576473 37:1 64:1 91:2 95:4 121:1 146:3 254:1 273:1 298:1 310:2 500:1 540:1 580:1 612:3 628:1 738:1 751:7 766:1 864:1 890:1 1018:1 1048:2 1062:1 1128:1 1190:1 1258:3 1296:1 1330:2 1331:1 1335:1 1376:2 1391:2 1470:1 1622:1 1654:1 1791:1 1800:1 1855:3 1860:1 1867:1 1872:1 1918:2 1925:1 1971:1 1972:2 2014:1 2135:3 2151:2 2180:3 2198:1 2409:2 
0.3040677209389897 62:1 91:3 95:5 121:4 163:1 198:1 202:2 207:4 310:5 326:2 327:1 339:3 346:4 352:3 507:1 616:1 708:2 751:6 830:1 847:3 892:1 906:2 943:1 947:2 1048:8 1258:2 1289:2 1331:1 1335:3 1564:3 1654:1 1669:3 1695:1 1871:1 1909:2 1972:1 2046:2 2086:3 2139:1 2179:1 2234:2 2329:1 
0.2426462043400598 18:1 43:1 91:2 95:2 96:1 121:1 146:3 151:1 157:2 231:1 283:2 299:1 301:1 310:9 339:4 341:1 373:1 438:1 441:1 451:3 453:1 458:1 521:1 720:1 747:1 751:8 753:1 847:1 864:1 891:1 907:2 915:1 947:1 979:2 982:1 986:1 1090:4 1094:1 1112:1 1117:1 1195:1 1258:12 1289:1 1298:1 1312:1 1335:1 1337:1 1352:1 1395:1 1412:1 1442:1 1461:1 1533:2 1554:1 1582:1 1638:3 1644:3 1677:1 1688:2 1694:1 1730:1 1771:1 1789:2 1804:1 1806:1 1873:1 1925:1 1943:1 2035:1 2059:1 2129:2 2137:1 2179:2 2180:4 2181:1 2203:2 2204:1 2234:1 2266:2 2288:1 2368:2 2384:1 2394:1 2422:1 2465:1 
1 95:1 411:2 1240:1 1391:2 1947:2 1970:2 2201:1 2210:2 
0.1010906219604301 8:2 11:1 85:1 87:2 91:2 95:7 121:10 146:1 195:1 196:1 200:6 207:4 216:1 219:3 289:1 301:2 310:2 327:1 339:2 454:1 468:2 503:1 528:1 590:1 616:2 617:2 648:1 708:1 751:12 831:3 847:6 944:7 947:7 1048:4 1156:3 1258:8 1330:1 1335:2 1452:2 1556:1 1598:1 1604:1 1660:2 1684:2 1692:4 1695:3 1713:1 1742:3 1749:2 1803:1 1950:2 2066:5 2154:4 2179:1 2180:3 2252:2 2254:3 2280:1 2337:1 2378:1 2416:1 
1 32:2 95:1 346:2 899:2 1240:2 1258:4 1695:2 1696:1 2216:2 2431:2 2466:2 
0.2634606215240728 8:3 11:1 25:1 36:1 62:1 91:1 95:8 121:4 146:1 151:1 200:5 207:7 214:1 268:2 331:1 339:3 346:2 358:4 371:1 389:5 429:2 457:1 465:1 468:2 503:2 616:2 729:1 730:2 751:9 771:2 831:2 847:2 850:2 891:1 899:2 979:8 1048:14 1230:5 1246:2 1255:2 1258:11 1277:2 1307:1 1311:1 1335:3 1354:1 1436:3 1441:1 1508:2 1555:2 1564:5 1654:7 1669:5 1684:4 1692:2 1695:1 1713:1 1717:2 1798:1 1929:1 1938:1 1993:1 2066:1 2129:2 2139:3 2179:1 2180:9 2181:2 2199:1 2215:1 2343:7 2377:1 2403:1 2416:1 2425:1 
0.2358092544536532 95:3 121:3 200:1 207:3 246:1 289:1 290:1 299:1 310:2 339:2 379:1 429:2 616:2 617:1 628:1 647:3 695:2 738:3 751:3 797:4 854:1 864:1 899:2 979:3 1048:4 1246:1 1258:11 1277:2 1331:1 1335:1 1436:1 1446:2 1576:1 1650:1 1692:1 1695:4 1703:3 1742:2 1983:1 2017:1 2091:1 2129:1 2178:1 2179:2 2180:5 2389:1 
0.05941584324829775 37:1 64:1 91:4 95:4 121:1 146:1 193:1 200:1 254:1 310:1 352:1 438:1 444:1 503:1 576:1 612:1 650:1 722:1 751:4 847:1 915:1 979:1 1048:3 1144:1 1190:1 1258:3 1330:1 1335:2 1357:1 1376:3 1391:2 1475:1 1622:1 1692:1 1795:1 1800:1 1855:3 1972:1 2066:1 2135:1 2151:1 2180:2 2195:1 2198:1 2200:1 2216:1 2413:2 
1 95:2 562:2 738:2 751:2 793:1 960:2 979:2 1048:2 1335:2 1467:2 2007:2 2091:1 2180:2 2402:2 2490:2 
0.6047663467987228 95:1 346:2 411:2 1240:2 1258:4 1391:2 1574:1 1695:3 2051:2 2364:1 
0.01550735380851145 45:1 58:2 85:1 91:2 95:6 101:1 112:1 121:1 137:1 146:1 191:1 199:1 214:2 215:1 236:1 299:1 301:2 310:2 339:1 352:1 408:1 441:1 604:1 612:1 639:1 660:1 738:1 751:6 885:2 893:2 952:1 979:3 1258:2 1335:2 1389:2 1517:1 1519:1 1556:1 1597:1 1622:1 1802:1 1826:1 1837:1 1859:1 1971:2 1995:1 2007:2 2135:1 2139:1 2141:1 2180:4 2277:1 2314:2 
0.02457636473038866 18:2 62:1 91:3 95:2 96:1 131:1 145:1 146:1 188:1 231:1 234:1 299:2 301:1 310:5 312:1 339:1 341:1 373:1 402:1 429:2 451:3 453:1 523:1 572:1 599:1 720:1 747:1 751:7 888:1 931:1 966:1 1066:1 1090:3 1112:1 1256:1 1258:9 1298:1 1333:1 1395:1 1412:3 1442:1 1465:1 1533:2 1549:1 1556:1 1638:5 1644:4 1677:1 1693:1 1695:1 1728:1 1804:1 1943:1 2035:1 2077:1 2102:1 2130:1 2132:2 2180:3 2181:2 2203:1 2277:1 2318:2 2384:1 2394:1 2401:1 2422:1 2465:1 2466:2 2471:1 
0.08681758834889035 58:1 91:1 95:5 121:1 198:1 214:1 303:1 310:3 339:1 372:1 405:1 438:1 439:1 441:2 526:1 571:1 628:1 751:9 753:1 979:1 991:1 1013:1 1160:1 1172:2 1229:1 1258:4 1296:1 1330:2 1357:1 1391:2 1480:1 1564:2 1590:4 1632:2 1728:2 1755:1 1782:4 1855:4 1860:1 1863:1 1903:1 1919:1 1972:1 2047:2 2086:1 2179:1 2180:7 2203:1 2266:2 2362:1 2426:1 2455:1 2498:1 2504:1 
0.3501246537573331 8:1 11:1 46:1 95:2 121:4 189:2 198:1 200:4 207:3 310:2 389:2 465:1 468:2 501:1 590:2 735:1 751:4 831:2 847:1 944:1 979:1 1048:6 1049:2 1230:2 1243:2 1258:6 1436:4 1564:2 1654:2 1669:2 1684:2 1712:2 1935:1 2007:1 2044:2 2181:2 2278:1 2343:1 2454:1 2496:1 
1 95:3 616:2 1240:1 1532:2 1947:2 1970:2 2201:1 2210:2 
1 95:3 616:2 1240:1 1532:2 1947:2 1970:2 2201:1 2210:2 
1 95:1 346:2 1240:2 1258:4 1532:2 1695:3 2132:1 2364:1 2429:2 2466:2 
0.06734971889475147 8:4 11:1 62:1 91:3 95:7 121:8 146:1 163:1 200:6 207:7 289:4 298:3 310:2 331:1 339:1 346:3 389:3 414:1 440:1 468:2 494:1 616:2 617:4 628:1 708:1 751:14 763:1 766:2 771:4 831:4 847:4 850:1 882:1 947:2 971:2 979:1 1048:14 1049:5 1090:1 1139:1 1194:1 1230:3 1236:1 1251:2 1258:9 1289:1 1327:1 1335:3 1376:2 1508:2 1513:1 1532:2 1564:5 1639:1 1654:1 1669:5 1684:3 1692:1 1695:4 1712:4 1713:1 1717:1 1816:1 1932:1 1935:1 1949:1 2041:2 2066:1 2086:2 2139:3 2176:1 2180:7 2181:5 2194:1 2199:1 2207:1 2240:1 2252:2 2296:1 2343:4 2377:3 2414:1 2454:3 2504:1 
1 95:3 616:2 1240:1 1532:2 1947:2 1970:2 2201:1 2210:2 
0.8032876617499989 95:1 346:2 562:2 751:2 1240:2 1258:4 1391:2 1695:3 2051:2 
0.05448223316405962 8:2 11:1 25:2 26:1 62:1 91:5 95:7 121:3 131:1 146:1 200:8 207:4 250:1 299:2 301:1 310:2 339:2 346:5 352:1 394:1 441:1 468:2 490:1 562:2 570:3 590:2 635:1 640:1 695:2 732:1 751:10 754:1 771:2 808:1 820:1 831:2 850:1 877:1 905:1 911:1 979:1 1003:1 1027:1 1048:14 1049:2 1102:1 1144:2 1174:1 1183:1 1230:3 1258:7 1307:1 1335:7 1376:2 1425:1 1436:7 1459:1 1482:1 1552:1 1564:5 1626:2 1639:1 1654:1 1669:5 1684:1 1692:2 1695:3 1710:1 1712:2 1725:1 1795:2 1817:1 1890:1 1937:2 1938:1 2007:2 2133:1 2180:6 2181:3 2204:1 2242:2 2307:1 2343:2 2436:1 
0.1066132251356996 25:1 62:1 95:6 109:1 121:9 187:1 200:6 202:1 207:2 289:1 301:1 310:5 339:2 346:6 352:2 389:2 438:1 457:2 468:2 503:1 570:1 590:2 617:1 628:2 674:1 708:3 751:14 754:1 831:2 837:1 847:4 979:2 1048:10 1049:2 1090:1 1171:1 1230:1 1258:8 1330:1 1335:2 1376:2 1391:2 1436:5 1452:1 1508:1 1564:4 1654:3 1669:4 1684:2 1692:1 1695:3 1711:1 1712:2 1728:1 1745:1 1755:1 1852:1 1855:2 1909:1 2107:1 2139:1 2140:1 2166:1 2180:5 2195:1 2252:2 2286:1 2319:1 2329:2 2416:1 2454:1 2455:1 
0.07480166507874819 46:1 75:1 91:1 95:6 121:1 276:4 283:1 299:1 310:2 398:1 451:2 470:1 539:2 562:4 589:1 616:1 720:1 751:4 837:1 891:1 915:1 985:1 1124:1 1141:2 1144:2 1172:1 1246:1 1258:4 1452:1 1654:2 1677:1 1695:1 1756:2 1795:2 1860:1 2007:2 2035:1 2038:2 2120:1 2179:1 2180:3 2426:2 2435:2 
0.09446642338716463 91:1 95:5 165:1 298:1 299:1 310:6 339:1 352:3 371:1 438:1 458:1 631:2 751:3 811:1 907:3 979:1 996:3 1201:1 1229:1 1245:1 1258:4 1330:1 1335:1 1504:1 1556:1 1590:3 1803:1 1979:1 2007:2 2102:1 2263:1 2427:1 2445:2 2455:1 2471:1 
0.3062726694071494 4:1 91:1 95:2 120:1 238:1 310:1 338:1 531:1 743:1 751:1 804:1 811:1 865:1 907:3 979:2 1162:1 1258:1 1330:1 1335:2 1442:1 1654:1 1811:1 2007:1 2012:1 2277:1 2418:1 2444:1 
0.7265057255765389 95:2 121:1 310:1 393:1 616:1 751:2 927:1 1222:1 1240:1 1258:1 1391:1 1947:1 1970:1 2210:1 2470:1 
0.1366832241708837 4:2 8:1 11:1 25:1 54:1 91:5 95:8 109:1 121:1 136:1 146:5 163:1 196:1 200:9 207:6 248:2 289:1 310:5 326:1 331:3 339:3 346:3 352:1 389:4 394:1 468:2 638:2 647:1 660:1 705:1 708:2 731:1 734:1 736:1 751:11 763:3 771:3 847:5 936:1 958:1 979:2 1048:15 1051:2 1090:1 1114:1 1144:1 1173:1 1183:2 1230:5 1240:1 1258:10 1330:1 1335:7 1391:1 1436:8 1528:2 1564:6 1632:4 1637:1 1654:1 1669:6 1684:1 1693:3 1728:1 1731:1 1795:1 1817:1 1818:1 1823:1 1938:1 2007:1 2065:1 2088:1 2176:1 2180:6 2181:3 2252:2 2278:1 2329:2 2343:3 2409:1 2416:2 2471:3 
0.09586977111840568 74:1 91:3 95:6 121:2 142:1 146:1 207:2 253:1 289:3 298:1 310:4 352:4 429:3 441:1 567:2 616:2 628:1 670:2 751:3 899:3 931:1 979:4 1048:2 1090:1 1155:2 1258:1 1277:5 1335:1 1345:1 1489:1 1547:1 1554:3 1656:1 1674:1 1684:2 1688:1 1745:1 1768:1 1774:2 1967:1 2041:1 2086:1 2122:1 2161:1 2180:6 2205:2 2252:2 2255:1 2306:2 2314:1 2336:1 2338:1 2361:1 2446:1 2479:1 2491:4 
0.5471652224010431 95:2 121:1 200:2 207:1 310:3 352:1 429:2 616:2 751:1 899:2 936:1 944:1 947:1 979:1 1048:2 1251:2 1277:2 1335:1 1515:1 1564:1 1646:2 1909:1 2044:1 2091:1 2176:1 2179:1 2180:2 2196:1 
0.1980579716316381 37:2 82:1 95:3 121:1 207:2 219:2 289:2 544:2 1048:2 1258:1 2007:2 2063:2 2135:2 2198:1 2473:1 
0.2328968144208863 95:2 125:2 379:2 429:2 569:2 571:2 738:2 751:2 793:1 871:2 960:2 979:2 1048:2 1335:2 1431:2 1755:2 2091:1 2180:2 
0.04791880774859714 95:4 121:2 125:2 146:2 207:2 299:2 340:2 379:2 429:2 569:2 571:4 692:2 738:2 979:2 1048:2 1319:1 1431:2 1677:2 1971:2 2123:2 2263:2 2303:1 
0.4647802686185068 62:1 65:1 78:1 91:3 95:11 121:3 207:3 271:2 275:2 295:1 299:2 310:7 398:2 409:1 418:1 438:2 439:1 457:1 470:2 492:1 493:1 558:4 595:2 616:7 720:1 751:4 768:1 793:1 856:1 860:5 979:1 1023:1 1048:4 1065:1 1124:1 1181:1 1185:1 1248:1 1258:10 1330:2 1335:2 1339:1 1357:1 1459:1 1463:1 1575:1 1647:1 1677:2 1695:1 1733:1 1756:2 1768:1 1860:1 1972:2 1998:1 2035:1 2109:1 2132:1 2150:2 2156:1 2179:2 2180:5 2349:1 2404:1 2426:2 2455:4 2466:1 
0.05344829481129667 28:1 31:1 46:3 91:3 93:1 95:5 97:2 121:5 156:1 169:1 187:1 192:1 214:2 298:1 299:2 310:6 318:2 323:1 390:1 405:1 451:1 557:2 607:1 615:1 616:1 634:1 639:1 691:1 751:2 770:1 795:1 846:1 909:4 923:4 931:3 979:8 1047:2 1090:2 1130:1 1144:2 1159:1 1199:1 1257:2 1258:6 1275:1 1311:1 1330:2 1331:1 1333:5 1335:1 1339:1 1419:2 1497:1 1559:1 1593:1 1600:1 1620:1 1638:1 1654:2 1698:1 1791:1 1795:2 1806:1 1827:1 1828:1 1838:1 1852:1 1894:2 1942:1 2068:1 2095:1 2142:1 2150:1 2159:1 2176:2 2179:1 2180:6 2181:2 2204:1 2240:1 2329:1 2343:9 2377:1 2401:1 2427:1 2471:1 
0.2887862312198743 95:2 135:1 138:1 207:2 310:4 361:1 384:2 451:1 499:1 558:2 597:1 751:2 797:1 850:1 1112:1 1149:1 1258:6 1303:2 1554:2 1632:1 1644:2 1654:1 1695:2 1728:1 1986:1 2147:1 2180:3 2252:2 2465:1 2466:2 
