svm_type c_svc
kernel_type linear
nr_class 2
total_sv 1373
rho -1.00022
label 1 -1
nr_sv 714 659
SV
0.02668851186999435 1:1 3:2 4:4 6:6 
1 4:2 6:2 
1 1:1 3:1 4:3 6:14 
1 6:4 
0.9766705844092322 2:1 4:2 5:1 6:9 
0.8968572541827705 1:1 2:1 3:2 4:9 5:1 6:7 7:1 
1 1:10 3:2 4:8 6:17 
1 1:3 2:6 3:2 4:9 5:7 6:13 
0.44347885391741 1:1 4:4 6:6 
1 1:1 4:4 6:4 
0.5143406546908477 1:2 2:1 4:1 6:5 7:1 
0.6676461850768655 1:2 3:7 4:2 5:3 6:11 7:3 
1 1:6 3:3 4:20 5:6 6:14 7:1 
1 1:2 2:8 3:2 4:6 5:8 6:3 
1 1:13 3:2 4:13 6:22 7:3 
0.3531476374401797 1:5 3:3 4:6 6:14 
1 1:8 2:3 3:3 4:13 5:2 6:27 7:1 
1 1:2 2:1 4:9 5:2 6:9 7:1 
1 1:10 3:1 4:8 5:3 6:13 
1 1:10 2:2 4:4 5:1 6:21 7:1 
1 1:6 2:1 3:2 4:7 6:13 
1 4:2 6:4 
0.8511560030112203 5:2 6:5 
1 4:2 6:2 
1 1:2 
1 4:2 
0.9957822530682457 1:1 2:8 3:1 4:1 6:9 
0.9994065330498086 2:8 5:4 6:8 
1 1:2 2:3 3:2 4:10 5:3 6:10 
0.9922818542323094 2:1 4:2 5:2 6:2 
1 1:24 3:2 4:13 5:2 6:23 7:4 
1 
1 6:6 
1 1:10 2:2 3:4 4:4 5:3 6:6 7:1 
1 1:19 3:7 4:9 5:3 6:21 7:5 
1 1:8 3:1 4:8 5:1 6:5 
1 1:6 2:8 3:3 4:11 5:8 6:12 7:6 
0.07313942195360418 1:6 2:1 3:7 4:9 5:2 6:8 7:2 
1 1:2 
1 1:11 2:2 3:7 4:2 5:3 6:18 7:1 
1 1:19 2:1 3:3 4:9 5:4 6:12 7:1 
0.04942710600413646 1:5 4:5 6:11 
1 1:11 4:5 6:4 7:1 
0.6692906621258052 1:3 3:6 4:6 6:10 
1 1:12 2:8 3:3 4:6 5:3 6:24 7:2 
1 
0.3855695237555529 1:4 2:3 4:4 5:1 6:3 7:2 
0.9901470536355033 1:1 2:2 3:2 4:7 5:2 6:5 
1 1:11 3:12 4:8 5:3 6:28 7:2 
1 1:6 2:6 4:3 5:6 6:10 
1 6:3 
0.9592769694448575 3:2 4:5 6:3 
1 1:4 2:9 3:2 4:6 5:10 6:9 
1 1:11 3:2 4:2 6:11 
1 1:7 2:1 3:6 4:8 5:5 6:19 7:3 
1 1:2 2:4 3:9 4:9 5:5 6:15 7:3 
1 1:7 2:1 4:11 5:7 6:15 7:1 
1 1:2 2:1 4:6 5:4 6:10 
1 4:4 5:1 6:3 
1 4:2 6:2 
1 1:18 2:2 4:9 5:5 6:11 7:2 
1 1:9 3:1 4:2 6:11 7:1 
1 1:2 2:1 4:3 5:2 
0.2538225338417044 1:4 3:2 4:5 5:2 6:14 7:2 
1 1:8 2:14 3:5 4:9 5:14 6:10 7:5 
1 1:2 
1 1:7 4:2 5:2 6:15 7:2 
0.8623227247751414 1:2 2:4 3:2 5:2 6:4 
1 1:6 2:2 3:4 4:6 5:4 6:14 7:2 
0.4399352953947315 1:5 3:3 4:10 5:2 6:7 7:2 
0.8026641984247753 3:1 4:3 5:3 6:3 7:2 
1 1:9 2:1 3:5 4:16 5:2 6:18 
1 1:4 4:1 6:8 
1 1:2 2:1 4:9 5:5 6:6 7:3 
1 1:19 2:1 3:1 4:8 5:1 6:16 7:2 
0.9822469088376162 3:1 4:1 6:5 
0.9751761216827776 1:2 2:1 4:2 5:1 6:2 7:1 
0.9456651903354462 4:2 6:7 
1 1:11 2:10 3:4 4:13 5:10 6:11 
1 4:2 
1 
1 1:9 2:12 3:4 4:13 5:8 6:15 7:2 
1 1:7 4:4 5:2 6:2 
1 1:3 2:1 4:1 5:2 6:5 
1 4:4 5:1 6:3 
1 1:9 2:2 3:2 4:9 5:3 6:23 
1 1:22 3:1 4:16 5:1 6:21 7:2 
0.3515156395485726 1:4 2:4 3:1 4:9 5:4 6:7 7:4 
0.6029043164256558 3:2 4:7 5:2 6:6 
1 4:4 5:1 6:3 
1 1:6 2:1 3:2 4:5 6:28 
1 1:10 2:2 3:3 4:5 5:2 6:18 
1 1:12 2:3 3:7 4:12 5:11 6:26 7:3 
1 1:9 3:1 4:9 6:12 
0.9074890429409945 1:1 2:3 4:3 5:3 6:2 7:2 
1 1:3 2:1 4:1 6:4 
1 1:4 4:1 6:7 
1 4:1 
0.9766571603498685 4:5 6:8 
1 1:21 4:10 5:3 6:19 7:1 
1 4:2 6:4 
0.01029593754705385 1:5 4:6 5:1 6:12 7:1 
1 1:10 2:1 3:2 4:6 5:1 6:8 7:1 
0.9953968958651676 5:1 6:4 
1 1:3 2:3 3:3 4:8 5:4 6:15 7:2 
1 1:13 3:1 4:9 5:1 6:18 
1 1:11 3:4 4:13 6:23 7:1 
1 4:2 
0.9901904380215543 4:1 6:7 
1 4:1 
0.2041498546898637 3:3 4:3 6:6 
1 1:8 2:7 3:3 4:7 5:7 6:12 7:5 
1 1:2 2:2 4:6 5:3 6:11 
1 1:10 2:1 3:1 4:7 5:1 6:13 
0.9916025827727437 3:2 4:2 6:2 
0.8459672483702368 1:1 2:1 3:2 4:6 5:3 6:1 7:1 
0.5205901985146908 4:3 5:3 6:6 7:1 
1 1:8 4:5 6:5 
1 1:24 2:2 3:3 4:12 5:2 6:19 7:9 
1 1:11 4:4 5:3 6:15 7:1 
0.9127469770259666 1:1 4:3 6:5 
0.9689375654226678 1:5 4:2 5:4 6:5 7:1 
1 1:6 2:3 3:2 4:10 5:3 6:13 
1 4:1 
1 4:1 
1 7:1 
1 1:3 2:4 3:2 4:11 5:5 6:31 7:2 
0.5385374235030184 3:2 6:3 
0.651680692732478 1:3 4:2 6:5 
1 1:4 3:4 4:7 6:17 
1 1:6 2:4 3:2 4:3 5:4 6:16 
0.7517579154857814 1:4 3:2 4:2 6:2 
1 4:1 6:2 
0.9282008201773525 1:2 2:1 4:1 5:1 6:4 7:1 
1 4:1 6:1 
1 1:2 2:1 4:10 5:3 6:9 
1 1:6 2:8 3:2 4:7 5:8 6:11 7:6 
0.5893447691283239 1:6 2:2 4:3 5:3 6:12 7:3 
1 1:15 3:2 4:11 6:16 7:3 
1 1:4 4:3 5:1 6:5 
1 1:9 2:2 3:3 4:2 5:2 6:13 7:5 
0.97304133573781 4:3 5:1 6:10 
0.5651568573686275 3:3 4:2 6:4 
0.8714624390008228 1:7 3:1 4:4 6:4 7:1 
1 4:2 6:2 
1 1:1 4:3 5:1 6:3 
1 1:32 2:3 3:1 4:16 5:2 6:14 7:6 
1 1:20 2:8 4:4 5:6 6:21 7:4 
0.9691275381772738 1:1 4:3 5:2 6:5 
0.9959651256256757 1:1 4:2 5:2 6:3 
1 1:2 6:1 
1 1:5 4:3 6:5 
1 1:6 3:1 4:6 5:1 6:4 
1 1:23 2:1 3:5 4:14 5:1 6:20 
1 1:4 4:1 5:1 6:1 7:1 
1 1:6 4:1 5:1 6:1 7:1 
1 1:6 4:1 5:1 6:1 7:1 
1 1:24 2:1 3:2 4:23 5:5 6:30 7:5 
1 1:8 2:2 3:1 4:12 5:4 6:10 7:5 
0.9138652272790297 3:10 6:5 
1 1:10 4:3 5:2 6:9 
0.2692635742900453 1:2 3:1 4:1 5:3 6:5 
1 1:8 3:2 4:4 6:6 
1 1:14 3:1 4:11 5:1 6:11 7:1 
1 1:6 2:2 3:1 4:7 5:10 6:11 7:6 
1 1:1 4:6 6:5 
1 1:2 3:2 4:2 6:2 
1 1:2 3:2 4:2 6:4 
0.9634426754251739 3:2 6:2 
1 1:2 3:2 4:2 6:2 
0.1355489490958838 1:4 3:1 4:8 6:9 
1 3:2 
1 3:2 
0.5867435723232294 1:4 2:5 3:7 4:6 5:3 6:12 7:2 
1 3:2 
1 3:2 
1 3:2 
1 3:2 
0.9321774367347782 3:2 
0.001666329806311313 3:2 5:2 7:2 
0.07006993532852651 1:8 2:1 3:3 4:5 5:1 6:8 
1 1:2 3:2 4:2 6:2 
0.9547089000848566 3:2 4:2 
0.9798781344956405 1:2 3:2 4:4 6:2 
1 1:2 4:4 6:2 
1 4:1 
1 4:1 
1 4:1 
0.03119891474776771 3:6 4:2 6:2 
1 1:16 2:4 3:5 4:7 5:4 6:13 7:2 
1 1:10 2:2 3:1 4:7 5:4 6:10 
1 4:2 6:2 
1 4:1 
0.2572291660120781 1:3 2:2 3:2 4:4 5:6 6:7 7:2 
0.6337303102692718 1:7 2:4 3:3 4:6 5:4 6:11 7:1 
0.3974023825251005 1:5 2:3 4:5 5:1 6:10 
1 1:10 4:8 6:9 7:1 
1 1:5 2:3 3:2 4:9 5:3 6:14 7:2 
1 1:2 2:1 4:11 5:1 6:5 
1 1:1 2:2 3:1 4:8 5:7 6:8 
0.08264374898241236 1:6 2:4 3:2 4:5 5:5 6:11 7:2 
1 4:1 6:2 
1 1:16 2:2 3:4 4:8 5:2 6:15 
0.001023913938841245 1:6 3:3 4:5 6:10 
1 1:4 2:7 3:1 4:1 5:8 6:14 7:2 
1 4:1 
1 4:1 
1 4:1 
1 1:6 3:6 4:10 6:3 
1 1:4 4:9 
0.6589927677314653 2:1 3:10 4:4 5:1 6:6 
1 1:3 2:7 3:1 5:7 6:26 
1 1:5 2:4 3:2 4:7 5:3 6:19 7:2 
1 1:2 4:4 6:2 
1 4:1 
1 4:1 
1 1:10 3:1 4:11 5:3 6:13 7:1 
0.9646404891089293 1:3 2:5 3:4 4:10 5:3 6:10 7:2 
0.4862660613919689 1:4 3:1 4:1 6:5 7:2 
1 1:14 4:8 5:2 6:18 7:2 
1 1:9 2:2 3:8 4:6 5:5 6:19 7:1 
1 4:2 
1 1:8 4:6 5:1 6:10 
0.4837428540580573 1:7 2:1 3:7 4:4 5:5 6:8 7:6 
1 1:2 4:4 
1 1:13 2:2 3:6 4:7 5:6 6:26 7:3 
1 1:5 2:2 3:6 4:14 5:4 6:21 7:3 
1 4:3 6:1 
0.8950162836726502 1:2 2:4 3:3 4:3 5:5 6:7 
1 1:3 2:1 4:8 5:2 6:16 
0.9026664660936059 1:3 4:3 6:2 7:1 
1 1:10 2:1 3:5 4:6 5:1 6:11 
1 1:8 3:1 4:3 6:12 7:1 
1 1:2 3:1 4:4 6:15 
1 1:8 4:7 5:3 6:9 7:3 
1 4:2 6:2 
1 1:13 2:6 3:1 4:5 5:7 6:19 7:5 
0.002566271020378757 1:3 2:3 3:1 4:7 5:1 6:9 7:1 
1 4:3 6:2 
1 1:13 2:3 3:5 4:9 5:3 6:11 
1 1:8 3:2 4:7 5:3 6:12 7:3 
0.1942749025226581 1:6 3:7 4:5 5:1 6:13 7:1 
1 1:2 2:2 3:1 4:8 5:5 6:10 7:1 
1 1:1 2:1 4:1 5:1 6:3 7:1 
1 1:9 2:2 3:4 4:8 5:1 6:16 7:4 
1 4:2 5:2 7:2 
0.8805614605740881 1:2 4:2 5:2 6:3 7:3 
0.02146468561150363 1:5 2:3 3:3 4:3 5:4 6:12 7:4 
1 1:6 3:3 4:6 5:1 6:28 
1 1:12 2:1 3:1 4:12 5:3 6:11 7:3 
1 1:11 2:1 3:2 4:6 5:3 6:15 
1 1:6 3:1 4:10 5:2 6:13 7:2 
1 4:3 6:3 
1 4:2 
0.2181549043591358 1:1 2:1 4:2 5:1 6:5 7:1 
1 4:2 
0.9754350205236091 1:5 3:1 4:3 6:4 
0.8262842102529565 1:2 2:1 4:4 5:3 6:8 
1 1:22 2:2 3:7 4:14 5:3 6:13 7:1 
1 1:1 3:1 4:8 5:1 6:7 
1 1:12 2:14 3:2 4:6 6:11 7:5 
0.8916464389714367 1:1 3:1 4:3 5:1 6:3 7:2 
1 1:3 2:8 4:2 6:9 
0.926265751305628 4:4 5:2 6:6 7:1 
1 1:10 4:9 6:10 
1 1:4 4:9 5:2 6:8 
0.9959289222105722 2:1 4:3 5:1 6:4 
0.7736649156966192 1:5 2:1 4:6 6:13 
1 1:11 3:3 4:10 5:3 6:16 7:4 
0.9361508802326614 4:3 6:7 
0.7385201137282968 2:2 3:2 4:5 5:2 6:3 
0.8678434103817544 2:2 4:6 5:2 6:10 
1 1:8 2:8 3:7 4:10 5:7 6:11 7:2 
1 4:4 6:3 
1 4:1 
1 1:5 2:2 3:1 4:8 5:2 6:20 7:1 
1 1:12 3:6 4:6 5:1 6:13 7:1 
0.7995403307098022 1:1 4:4 5:3 6:8 
0.2543514292123623 1:6 2:2 3:2 4:8 5:2 6:10 7:2 
1 1:19 3:2 4:17 5:1 6:26 7:2 
1 1:3 2:4 3:1 4:4 5:6 6:20 
1 1:1 2:1 4:1 5:1 6:2 7:1 
0.2314692232249829 1:2 2:1 4:6 6:8 
1 4:1 5:2 7:2 
1 4:1 5:2 7:2 
1 1:4 4:9 6:3 
1 1:22 4:12 5:2 6:16 7:3 
1 1:9 2:2 3:2 4:12 5:4 6:21 7:1 
1 1:11 3:2 4:4 6:12 
1 4:4 5:1 6:6 
1 1:1 3:1 4:9 5:5 6:27 
0.9100048181051309 1:4 4:7 6:12 
1 1:12 2:2 4:4 5:3 6:7 7:2 
1 1:25 2:3 3:4 4:17 5:2 6:16 7:1 
1 1:2 3:5 4:6 6:14 7:1 
1 4:5 6:3 
1 1:4 3:3 4:6 5:1 6:17 
0.9629662902102852 2:1 4:3 5:4 7:2 
0.2913879163164689 1:1 3:3 4:7 5:2 6:4 7:2 
1 1:3 2:7 3:1 4:6 5:6 6:7 7:3 
1 1:6 6:6 
1 4:4 5:1 6:2 
1 1:2 4:3 6:2 
0.9895135813843935 1:2 3:6 4:8 6:12 
1 1:9 3:2 4:6 6:14 7:1 
1 4:2 6:2 
0.1771790991111698 1:1 2:2 4:6 5:4 6:10 7:2 
1 1:13 3:2 4:11 5:3 6:9 7:2 
1 4:2 
1 1:5 3:2 4:3 6:14 
1 4:2 
0.970311632976056 1:1 2:1 4:5 5:3 6:10 
1 1:14 2:10 3:9 4:10 5:4 6:15 7:1 
1 1:8 2:2 3:16 4:8 5:1 6:7 7:6 
1 1:13 2:2 3:3 4:8 5:4 6:24 7:1 
1 1:5 2:1 3:1 4:9 5:5 6:18 7:1 
1 1:3 2:2 3:1 4:8 5:2 6:15 
1 4:2 
1 1:10 2:1 3:1 4:8 5:4 6:7 7:2 
1 1:5 2:6 4:9 6:12 
1 4:4 6:5 
1 4:3 5:1 6:1 
1 1:19 2:10 3:2 4:12 5:6 6:4 7:5 
0.6749035755979491 1:3 2:1 3:2 4:8 5:4 6:11 
0.008350878702111438 1:6 3:2 4:2 6:10 7:1 
1 1:5 2:8 4:8 5:13 6:10 7:12 
1 1:4 4:4 6:4 
1 1:11 3:2 4:9 5:2 6:6 
1 4:1 
1 4:1 
1 4:1 
1 4:1 
1 1:23 3:2 4:14 6:19 7:4 
1 1:10 4:3 6:5 
1 4:2 6:2 
1 1:3 3:6 4:6 5:5 6:18 7:5 
0.2339395440094063 2:2 3:2 4:3 5:3 6:7 
1 1:4 4:10 5:3 6:11 7:1 
0.04840487497483213 1:4 4:5 6:6 
0.9418712443653516 1:2 2:2 3:1 4:6 6:3 
1 1:16 2:2 3:9 4:6 5:3 6:20 7:3 
1 1:2 2:2 4:9 5:2 6:4 
0.04067146186208149 1:3 2:3 3:1 4:8 5:3 6:12 7:3 
1 1:15 2:1 3:2 4:10 5:2 6:8 7:1 
0.9300879214456458 2:1 4:3 5:1 6:2 7:1 
1 1:16 3:4 4:9 5:1 6:13 
1 4:1 5:1 
1 1:2 2:2 4:6 6:2 
0.134330145595277 1:2 4:5 6:8 
1 1:12 2:3 3:5 4:4 5:2 6:20 7:5 
0.9943745587729685 1:1 4:3 6:2 
0.9514114675753093 1:1 2:2 3:1 4:1 6:5 
1 1:9 3:2 4:8 5:1 6:11 
1 1:7 3:1 4:7 6:2 
1 4:2 
0.6012556688657352 1:6 4:4 6:9 
1 1:16 3:1 4:11 5:2 6:15 7:2 
0.9700797521316138 1:1 3:2 4:3 6:1 
1 4:1 
1 4:1 
1 4:2 
1 4:1 
1 4:1 
0.6919818101794163 2:2 3:2 4:4 5:2 6:13 7:1 
1 4:2 
1 4:4 
1 1:1 2:4 5:3 6:14 7:4 
1 4:1 
1 4:3 6:2 
0.4744217794296931 3:4 4:1 5:2 6:11 7:1 
1 1:2 3:1 4:2 6:15 7:1 
0.08340624977402611 1:2 4:4 5:1 6:5 
1 1:10 3:2 4:15 5:1 6:22 7:2 
1 1:3 4:8 5:2 6:15 7:1 
1 1:3 2:2 3:5 4:8 5:2 6:19 7:2 
1 4:1 6:2 
0.5874626407603598 2:2 4:2 5:2 6:8 7:2 
1 4:2 
1 4:2 
1 1:3 2:5 3:2 4:10 5:4 6:7 7:2 
1 4:3 6:6 
0.9935614356388234 1:3 2:1 4:2 5:2 6:10 7:1 
1 
1 1:3 2:2 4:10 5:8 6:19 
1 1:1 2:5 3:5 4:4 5:5 6:33 
1 1:10 4:3 6:5 
1 4:2 6:2 
0.9991278016162531 2:6 3:1 4:2 5:4 6:6 7:6 
1 1:10 2:2 3:3 4:11 5:2 6:15 7:1 
1 2:9 3:3 5:9 6:13 7:6 
1 1:8 4:10 5:4 6:13 7:1 
1 1:10 4:13 5:4 6:22 7:1 
1 1:2 4:4 6:3 
1 1:9 3:14 4:5 5:2 6:14 7:1 
1 1:11 2:5 3:7 4:12 5:2 6:7 7:2 
1 1:10 2:3 3:9 4:8 5:3 6:14 7:1 
0.9998013288313784 1:2 2:2 3:8 4:8 5:1 6:19 7:2 
1 4:1 
1 4:1 
1 4:2 
1 1:2 2:2 4:8 5:7 6:15 7:1 
1 4:2 
1 4:1 
1 1:1 4:4 6:3 
1 1:5 2:1 3:3 4:9 5:5 6:29 
1 1:13 2:4 3:3 4:14 5:2 6:14 7:3 
1 1:2 4:5 6:14 
1 4:2 6:2 
1 1:7 2:3 4:12 5:4 6:10 7:1 
0.9053950795570588 6:7 
1 4:2 
1 6:2 
1 1:8 2:2 4:6 5:2 6:13 7:1 
0.9889836901894831 2:2 3:14 4:1 5:2 6:7 
0.595209001603528 3:2 4:2 6:11 
0.008431733833566555 1:4 4:3 6:10 7:1 
1 1:1 2:1 3:3 4:8 5:6 6:14 7:1 
1 1:4 2:7 3:2 4:1 5:4 6:6 
0.8771293153719486 1:2 4:1 5:1 6:5 7:1 
0.05485266337064927 1:5 2:2 3:4 4:2 5:3 6:12 7:1 
1 1:2 4:2 6:1 
0.7704172219348396 2:4 4:6 5:4 6:8 7:4 
1 1:6 2:2 3:3 4:15 5:2 6:10 7:2 
0.6670132838352475 1:1 2:1 3:1 4:1 5:3 6:8 
1 4:2 6:2 
1 4:2 
0.9899553036145372 3:2 4:1 6:1 
1 6:4 
1 4:2 6:2 
1 4:2 
1 4:2 
1 4:2 
1 4:2 
1 1:2 2:2 4:20 5:5 6:20 7:1 
1 1:12 2:2 3:3 4:7 5:4 6:12 
1 1:2 2:3 3:1 4:3 5:3 6:14 
1 1:18 2:5 3:5 4:12 5:7 6:20 7:5 
1 1:6 2:4 3:4 4:7 5:4 6:17 7:1 
1 1:8 3:5 4:8 6:17 
1 1:1 4:2 6:3 
1 1:2 4:4 6:9 
0.3048958670758603 1:4 2:1 3:2 4:6 5:2 6:14 
1 1:1 2:1 4:10 5:2 6:13 
1 1:2 3:1 4:10 5:5 6:11 
1 4:1 
1 4:1 
1 1:2 3:2 4:8 6:6 
1 1:7 3:5 4:4 5:2 6:26 7:2 
0.6742733081842817 1:1 3:3 4:4 6:1 
1 1:10 3:1 4:4 5:1 6:9 7:1 
1 1:14 2:2 4:6 5:6 6:11 7:1 
1 1:2 4:3 
1 4:2 
1 1:10 4:11 6:24 
1 1:4 4:2 6:3 
1 4:2 
1 1:11 4:3 6:12 
0.965341555311421 1:4 2:4 3:4 4:2 5:5 6:7 
1 1:2 4:5 6:3 
1 1:7 2:11 3:6 4:12 5:6 6:16 
1 4:1 6:2 
1 1:9 4:5 6:11 
1 
0.9016530737942348 1:4 2:5 3:3 4:5 5:3 6:7 
1 1:10 3:1 4:8 5:1 6:9 
0.9985960674144807 7:2 
1 1:12 2:1 3:4 4:11 5:1 6:8 7:1 
0.7906873683594442 2:2 5:2 6:10 
1 1:2 4:4 
1 1:4 2:1 4:11 5:5 6:7 7:1 
1 1:13 3:1 4:25 5:3 6:20 7:1 
1 1:7 2:3 3:2 4:1 5:5 6:17 7:2 
1 1:9 2:5 3:7 4:7 5:4 6:11 
0.9541500616503256 2:3 4:3 5:3 6:7 7:1 
1 4:1 6:2 
1 4:5 5:1 6:4 
0.5483921544633892 1:5 2:2 3:2 4:5 5:4 6:13 
1 1:6 3:7 4:15 5:6 6:14 7:2 
1 4:2 
0.9877013850658265 1:2 2:1 4:2 6:4 
0.9041015493782728 1:3 2:3 3:10 4:6 5:1 6:7 
0.9646802725706272 1:1 3:2 4:4 6:1 
0.9797796440477189 1:4 3:3 4:9 6:8 
1 1:16 2:2 3:10 4:11 5:1 6:15 7:1 
1 1:8 4:10 6:12 
1 1:7 3:4 4:5 6:17 
0.9804649120991946 1:1 2:2 4:3 5:3 6:1 7:1 
1 1:10 2:2 3:1 4:8 5:4 6:11 7:4 
1 1:17 3:2 4:11 5:2 6:10 7:3 
1 1:2 3:2 4:7 5:2 6:15 7:1 
1 1:12 3:2 4:5 6:16 7:1 
1 4:2 
1 1:11 2:4 3:4 4:14 5:5 6:10 7:5 
1 1:11 2:3 3:3 4:15 5:7 6:27 7:2 
1 4:2 6:2 
1 1:2 4:8 6:7 
1 1:6 2:4 3:4 4:11 5:5 6:12 7:1 
1 1:9 2:2 3:8 4:5 5:2 6:17 7:1 
1 1:6 3:1 4:14 5:2 6:10 7:2 
1 4:9 6:9 
1 4:2 6:1 
1 
1 1:10 2:3 4:5 5:3 6:24 
0.9925056123742352 4:3 6:1 
1 4:3 5:1 6:2 
1 1:19 2:1 4:18 5:4 6:18 7:2 
1 1:7 2:2 3:3 4:9 5:5 6:20 7:1 
1 1:3 4:2 6:2 
1 1:8 2:1 3:2 4:10 5:1 6:13 7:1 
1 4:1 
1 4:2 
1 1:4 2:1 3:1 4:8 6:17 
1 4:2 
1 1:27 2:2 3:2 4:13 5:2 6:22 7:4 
0.6728757792690909 1:3 3:10 5:2 6:7 7:3 
1 4:1 6:2 
1 1:26 2:1 4:16 6:12 7:3 
1 1:7 2:13 3:6 4:5 5:7 6:10 7:2 
1 
1 1:5 2:2 4:3 5:2 6:21 7:1 
1 1:2 4:3 
1 1:15 2:1 3:4 4:7 5:2 6:11 7:4 
1 4:2 6:2 
1 1:2 2:8 3:1 4:1 6:4 
1 4:7 6:8 
1 
1 1:1 2:9 3:10 4:1 5:13 6:15 7:1 
0.3637157253536091 1:4 2:1 3:7 4:1 6:6 7:1 
1 1:10 2:2 4:13 5:4 6:7 7:3 
1 1:11 3:1 4:16 6:11 
1 4:1 
1 1:2 4:2 6:2 
0.9996176507147587 1:7 2:4 3:1 4:4 6:9 
1 4:2 6:2 
0.9768685209942363 3:1 4:4 6:3 
1 4:2 6:2 
1 1:4 2:1 3:2 4:8 5:7 6:12 7:1 
1 4:1 
1 1:25 3:1 4:14 5:3 6:12 7:5 
1 6:2 
0.1031728833660598 1:3 2:4 3:2 4:5 5:3 6:11 
1 4:1 
1 1:10 2:2 3:2 4:6 6:7 
1 1:10 4:5 5:2 6:8 7:1 
1 1:11 2:3 3:1 4:8 5:12 6:28 7:7 
1 1:3 2:12 3:4 4:8 5:10 6:9 7:5 
1 1:8 3:7 4:9 5:3 6:11 7:4 
0.957512515482876 1:1 3:3 4:5 6:2 
1 1:16 3:3 4:11 5:2 6:13 7:1 
1 1:14 2:9 3:11 4:10 5:7 6:17 7:1 
0.9512715678367476 1:3 3:1 4:4 5:1 6:2 
1 1:6 2:2 3:4 4:9 5:1 6:12 7:2 
1 1:4 2:1 3:3 4:9 5:1 6:5 
1 1:2 4:4 
0.7935743795811785 1:2 2:3 3:3 4:5 5:4 6:13 
1 1:2 4:4 6:2 
1 1:10 3:3 4:5 5:1 6:13 
0.09261069548349488 1:2 2:1 3:2 4:8 5:5 6:10 7:2 
1 1:2 2:1 4:6 5:3 6:11 
0.9929237269063961 1:1 3:2 4:3 6:2 
1 4:2 
0.02711555202606981 1:5 2:2 3:2 4:7 5:5 6:12 7:2 
1 1:8 2:2 3:1 4:7 5:2 6:6 
1 1:4 4:4 5:1 6:3 
1 4:2 5:1 
1 1:6 2:6 3:4 4:6 5:5 6:11 7:4 
1 1:2 4:2 
1 1:12 3:1 4:7 5:1 6:14 7:3 
1 1:3 4:3 6:4 
1 4:2 
0.1341621314376609 1:2 2:1 4:4 5:1 6:5 
1 1:6 4:10 6:8 
0.9917248401187783 4:5 5:1 6:7 
1 1:13 2:1 4:16 5:1 6:10 7:3 
1 1:5 2:1 3:4 4:11 5:2 6:14 
1 1:8 2:1 4:6 5:3 6:12 7:2 
1 6:3 
1 4:3 6:2 
1 1:2 4:6 6:6 
1 1:7 2:5 3:6 4:7 5:8 6:12 7:2 
1 1:7 2:6 3:2 4:6 5:2 6:12 7:6 
1 1:15 2:1 4:4 5:2 6:18 7:1 
1 1:6 3:4 4:16 5:1 6:10 7:2 
1 1:13 2:1 4:9 5:2 6:16 7:1 
1 1:20 2:1 3:2 4:10 5:2 6:16 7:5 
1 1:4 2:2 5:2 6:2 7:1 
1 4:2 6:2 
1 1:9 2:2 4:6 5:4 6:25 7:5 
1 1:2 4:3 6:1 
0.2816470282776663 1:5 2:1 3:6 4:1 5:2 6:7 7:2 
1 1:11 2:3 3:4 4:8 5:3 6:13 7:3 
1 1:11 2:1 4:7 5:2 6:11 
0.5294344911608437 1:8 2:2 3:1 4:4 6:8 
1 4:2 6:2 
1 1:2 4:4 6:4 
1 6:7 
1 4:2 
1 1:2 4:4 
1 1:5 4:5 5:1 6:15 7:3 
0.2142633711169112 1:5 3:2 4:6 6:14 7:1 
1 1:3 3:7 4:10 6:10 
0.7770211739921281 2:2 3:1 4:1 5:3 6:7 
1 4:1 
1 1:2 
1 1:2 
0.9645409178996367 1:2 3:2 6:2 
1 1:7 2:5 3:3 4:9 5:5 6:24 7:2 
1 1:2 6:2 
1 1:2 
1 1:2 
1 1:2 
1 1:2 6:2 
1 1:4 4:2 
1 1:2 
1 1:4 4:2 
1 1:2 
1 1:2 
1 1:2 5:2 7:2 
1 1:2 
1 1:2 6:2 
1 1:2 
1 1:2 
1 1:2 
1 1:2 
1 1:4 4:2 6:2 
1 1:2 
1 1:2 
1 1:4 4:2 6:2 
1 1:2 5:2 7:2 
1 1:2 6:2 
1 1:4 4:2 
1 1:2 
1 1:24 2:1 4:8 5:2 6:13 7:1 
1 1:2 
1 1:2 
1 1:2 6:2 
1 1:2 3:1 6:1 
1 1:2 
1 1:2 6:2 
1 1:2 6:2 
1 1:2 
1 1:2 
1 1:2 6:2 
1 1:2 
1 1:2 
1 1:2 4:2 6:2 
1 1:2 6:2 
1 1:2 6:2 
1 1:2 3:1 6:1 
1 1:2 
1 1:2 
1 1:2 
1 1:21 2:2 3:4 4:25 5:9 6:24 7:8 
1 1:4 2:10 3:3 4:9 5:10 6:10 7:10 
1 1:2 2:4 3:1 4:12 5:4 6:14 7:5 
1 1:1 2:10 3:2 4:7 5:6 6:10 7:5 
1 1:1 4:10 5:2 6:5 7:2 
1 4:4 5:1 6:3 
0.6664655351081257 2:2 5:2 6:5 
1 1:14 2:5 4:8 5:6 6:16 7:1 
1 1:5 4:9 6:12 
1 1:11 2:4 3:2 4:5 5:3 6:27 7:1 
1 1:13 2:1 3:1 4:4 5:1 6:13 7:1 
1 4:3 5:1 6:2 
0.7443466494119507 1:3 4:3 5:2 6:6 
0.8349125974578206 1:2 2:2 3:3 4:3 5:5 6:12 7:1 
1 1:14 2:1 3:13 4:13 5:3 6:23 7:6 
1 4:1 6:2 
1 1:14 3:19 4:8 5:2 6:21 7:1 
1 1:8 2:15 3:2 4:7 5:9 6:11 7:10 
1 4:2 
1 1:5 2:1 3:4 4:10 5:2 6:18 7:2 
1 4:2 6:2 
0.8310010758807813 1:3 2:3 3:4 4:7 5:5 6:14 7:1 
1 1:9 4:4 5:1 6:5 
1 4:2 
1 4:10 5:1 6:12 
0.3471914778243976 1:3 2:2 3:1 4:1 5:1 6:6 7:5 
1 4:2 
1 1:4 2:2 3:1 4:3 5:1 6:12 
1 1:6 3:3 4:9 6:13 
1 1:7 2:2 3:3 4:16 5:3 6:6 7:3 
1 6:1 
1 1:22 3:1 4:17 5:1 6:23 7:2 
0.2996549385839284 1:6 2:1 3:5 4:4 5:2 6:14 
1 1:5 2:2 4:1 5:3 6:13 7:1 
1 6:2 
1 
1 6:2 
1 
1 6:2 
1 4:2 6:2 
1 4:2 6:2 
1 1:2 4:2 6:2 
1 6:2 
1 6:2 
1 1:2 4:4 6:2 
1 1:6 2:2 3:3 4:17 5:2 6:29 
1 1:6 3:4 4:16 6:30 7:2 
1 1:8 3:2 4:5 5:1 6:14 
1 1:2 4:2 6:2 
1 4:2 
1 1:2 
1 1:2 
1 6:4 
1 1:6 2:1 4:3 6:6 
1 2:5 4:8 5:11 6:13 7:3 
1 4:2 
1 1:8 2:1 4:8 5:2 6:11 
0.6320573978561441 2:1 3:2 4:1 5:1 6:1 
1 4:5 6:1 
1 3:1 4:2 6:2 
1 1:11 2:1 3:6 4:9 5:1 6:18 7:1 
1 
-1 4:2 5:1 6:2 
-1 4:2 6:9 
-1 4:4 6:5 7:2 
-1 2:1 4:1 5:1 6:10 
-1 4:4 5:1 6:6 
-1 1:12 2:1 3:5 4:4 5:1 6:13 7:2 
-1 1:4 2:4 3:2 4:10 5:7 6:14 7:4 
-1 1:4 2:1 4:4 5:1 6:1 
-1 2:1 4:3 5:1 6:1 7:1 
-1 1:8 2:1 3:2 4:11 5:3 6:19 
-1 1:4 3:2 4:2 5:1 6:5 
-1 1:4 2:3 3:1 4:5 5:3 6:14 7:2 
-1 1:2 2:1 3:2 4:2 5:1 6:7 
-1 1:6 3:2 4:2 6:20 7:1 
-1 1:2 2:2 3:2 4:6 5:2 6:8 7:1 
-1 1:2 2:2 3:1 4:5 5:2 6:12 
-1 1:7 3:1 4:6 5:3 6:18 7:1 
-1 1:6 2:11 3:2 4:8 5:10 6:6 7:3 
-1 1:12 3:6 4:9 6:14 
-1 4:4 6:4 
-1 6:2 
-1 1:20 3:2 4:6 5:1 6:16 7:5 
-1 1:1 2:2 3:2 4:9 5:2 6:10 7:2 
-1 1:16 2:1 3:7 4:12 5:5 6:20 7:4 
-1 1:11 4:4 6:8 
-1 1:4 3:3 4:9 6:18 
-1 1:6 2:3 3:3 4:4 5:4 6:8 
-1 1:4 2:1 3:3 4:11 5:2 6:11 
-1 1:2 3:1 4:3 5:1 6:2 
-1 1:2 4:3 5:1 6:2 
-1 2:2 4:9 5:2 6:14 
-1 1:11 3:1 4:6 5:3 6:21 
-1 1:13 3:8 4:6 5:1 6:19 7:1 
-1 1:4 3:2 4:6 5:2 6:1 
-1 1:8 2:4 3:2 4:7 5:4 6:20 
-1 1:6 2:2 3:8 4:7 6:6 
-1 3:1 4:1 6:1 
-1 1:4 2:5 3:3 4:6 5:5 6:6 7:3 
-1 1:8 3:2 4:1 6:8 
-1 1:18 2:2 3:4 4:16 5:5 6:25 7:4 
-1 1:6 2:5 3:3 4:9 5:8 6:7 7:1 
-1 1:1 2:1 4:2 5:1 6:10 7:2 
-1 1:2 3:2 6:2 
-1 1:15 3:8 4:10 5:2 6:15 7:5 
-1 
-1 2:6 3:6 4:5 5:7 6:3 
-1 1:15 2:8 3:6 4:13 5:6 6:18 7:3 
-1 1:9 2:10 4:10 5:3 6:13 7:2 
-1 1:5 2:1 3:5 4:9 5:2 6:13 7:1 
-1 1:2 3:3 4:6 6:9 
-1 1:4 4:4 6:7 
-1 1:7 2:3 3:1 4:8 5:1 6:12 7:1 
-1 1:7 2:1 3:1 4:4 5:3 6:14 7:1 
-1 1:2 2:1 4:2 5:1 6:2 7:1 
-1 3:2 5:2 6:4 7:2 
-1 1:2 2:4 5:2 6:2 
-1 2:4 4:2 5:2 6:2 
-1 1:8 3:1 4:9 6:9 
-1 1:26 3:1 4:9 5:3 6:10 7:1 
-1 1:2 2:1 3:4 4:8 5:2 6:13 7:1 
-1 2:1 4:3 5:1 6:4 
-1 4:2 6:1 
-1 1:6 2:14 3:3 4:11 5:14 6:8 7:6 
-1 1:16 2:2 3:1 4:6 5:1 6:8 7:2 
-1 2:4 5:4 6:1 
-1 1:2 3:3 4:7 6:11 
-1 6:2 
-1 1:3 2:2 4:2 5:2 6:11 
-1 1:6 2:5 4:6 5:5 6:23 
-1 4:2 
-1 2:1 3:2 4:4 5:2 6:7 7:2 
-1 2:10 3:2 4:2 5:1 6:6 
-1 2:1 4:5 6:1 7:1 
-1 1:3 2:4 3:5 4:5 5:4 6:9 7:3 
-1 
-1 4:2 
-1 
-1 1:7 4:4 5:2 6:10 
-1 1:2 4:2 5:5 6:5 
-1 1:7 2:2 3:3 4:6 5:1 6:7 
-1 1:4 2:1 4:2 5:4 6:4 7:4 
-1 1:6 2:2 3:11 4:7 5:3 6:12 7:2 
-1 1:17 3:1 4:11 6:9 7:1 
-1 1:1 4:1 5:1 6:4 
-1 1:1 2:2 4:4 5:2 6:4 7:2 
-1 4:2 6:2 
-1 1:1 2:1 4:2 5:1 6:3 7:1 
-1 4:2 
-1 4:2 6:2 
-1 1:2 2:1 3:3 4:4 5:1 6:6 7:1 
-1 1:11 3:1 4:4 6:7 
-1 1:2 4:3 5:1 6:3 7:1 
-1 1:2 3:4 5:2 6:5 
-1 1:15 2:1 3:4 4:8 5:1 6:13 7:2 
-1 1:1 2:1 4:4 5:1 6:4 
-1 1:9 2:2 3:4 4:11 5:3 6:15 
-1 1:1 2:4 4:4 5:4 6:11 7:1 
-1 1:2 2:2 4:4 6:5 
-1 1:1 2:1 4:3 5:3 6:6 
-1 1:9 2:2 3:2 4:10 5:4 6:19 7:2 
-1 1:2 4:2 5:2 6:13 
-1 1:3 2:2 3:2 4:5 5:6 6:1 7:1 
-1 1:2 2:3 4:8 5:3 6:8 7:1 
-1 1:3 2:5 3:2 4:3 5:4 6:5 7:1 
-1 1:2 4:2 6:12 
-1 4:1 
-1 1:2 3:2 4:1 6:14 7:1 
-1 2:2 3:1 4:2 5:2 6:11 
-1 1:5 3:3 4:6 5:1 6:10 
-1 1:2 3:1 4:5 5:1 6:2 7:1 
-1 1:6 4:1 6:4 
-1 2:4 3:2 4:7 5:6 6:8 7:6 
-1 2:5 3:3 5:3 6:10 
-1 1:8 2:2 4:10 5:2 6:11 
-1 4:2 
-1 1:2 2:1 4:2 5:1 6:3 7:1 
-1 1:5 3:1 4:4 5:4 6:20 7:3 
-1 1:3 4:8 6:7 
-1 1:4 2:1 3:2 4:6 5:3 6:11 7:1 
-1 1:10 2:2 3:4 4:14 5:2 6:10 7:3 
-1 3:1 4:1 6:5 
-1 3:4 4:5 6:9 
-1 1:4 3:2 4:3 6:17 7:1 
-1 1:1 2:3 4:1 5:2 6:8 7:1 
-1 1:6 3:2 4:12 6:23 
-1 4:6 6:5 
-1 1:2 2:1 3:2 4:2 5:1 6:2 7:1 
-1 1:5 2:31 3:3 4:6 5:13 6:10 7:2 
-1 1:1 3:1 4:1 5:1 6:2 
-1 1:11 2:1 3:4 4:7 5:1 6:13 7:1 
-1 1:11 2:1 4:6 5:2 6:4 7:1 
-1 1:3 2:1 3:2 4:4 5:1 6:6 
-1 1:13 3:2 4:9 6:9 
-1 1:8 3:1 4:4 6:9 
-1 1:20 2:2 3:4 4:14 5:1 6:16 7:1 
-1 1:7 2:2 3:1 4:2 5:2 6:8 7:1 
-1 6:3 
-1 3:2 6:4 
-1 1:1 4:1 5:2 
-1 1:2 2:3 4:2 5:5 6:4 7:3 
-1 1:2 2:2 4:2 5:4 6:3 7:2 
-1 1:18 3:2 4:6 5:6 6:11 7:6 
-1 1:8 3:1 4:4 5:1 6:5 7:1 
-1 1:11 3:6 4:12 5:4 6:10 7:1 
-1 1:5 4:5 5:2 6:8 7:1 
-1 1:6 2:2 4:7 5:2 6:13 7:2 
-1 1:7 2:1 3:1 4:4 5:1 6:14 
-1 1:4 3:2 4:2 5:4 6:7 7:4 
-1 1:1 2:1 3:1 4:2 5:1 6:2 
-1 1:24 2:1 3:2 4:23 5:5 6:30 7:5 
-1 1:12 2:1 3:2 4:8 5:2 6:9 
-1 1:3 4:1 5:2 6:8 
-1 1:14 4:8 5:1 6:12 
-1 1:12 4:7 5:1 6:10 
-1 1:8 3:2 4:4 6:5 
-1 1:2 2:6 3:2 4:1 5:8 6:9 
-1 2:2 4:3 5:2 6:7 7:2 
-1 1:17 3:4 4:8 5:2 6:25 7:1 
-1 1:17 3:4 4:8 5:2 6:29 7:1 
-1 1:5 4:1 5:2 6:4 
-1 1:5 4:1 5:2 6:2 
-1 1:5 4:1 5:4 6:5 
-1 1:5 4:1 5:3 6:3 
-1 1:2 3:2 4:2 6:4 
-1 3:2 6:2 
-1 3:2 6:2 
-1 3:2 
-1 1:1 3:1 4:4 5:1 6:10 7:3 
-1 1:2 3:2 4:2 6:2 
-1 4:4 5:1 6:2 
-1 4:4 
-1 1:2 3:2 4:2 6:2 
-1 1:2 3:2 4:2 6:2 
-1 1:2 3:2 4:2 6:4 
-1 1:6 3:6 4:7 5:3 6:7 7:5 
-1 3:2 
-1 3:2 4:2 
-1 1:2 4:3 5:1 6:6 
-1 3:2 6:2 
-1 1:13 4:6 5:1 6:13 7:2 
-1 2:2 4:4 5:4 6:6 7:4 
-1 1:10 2:1 3:4 4:7 5:1 6:12 7:2 
-1 1:6 2:1 3:2 4:8 5:1 6:8 7:2 
-1 1:8 2:4 3:5 4:7 5:7 6:14 7:3 
-1 1:1 3:3 4:3 5:1 6:11 7:1 
-1 1:7 2:2 3:3 4:8 5:7 6:28 7:3 
-1 4:3 6:10 
-1 2:1 3:6 4:3 5:1 6:3 7:2 
-1 1:9 4:4 6:2 
-1 1:17 4:7 5:1 6:11 7:2 
-1 1:16 2:3 3:2 4:8 5:4 6:17 7:3 
-1 2:2 4:2 5:1 6:4 7:1 
-1 1:21 2:2 3:6 4:10 5:2 6:18 7:2 
-1 1:10 2:1 3:4 4:7 5:3 6:21 7:2 
-1 2:2 4:2 5:9 6:9 7:1 
-1 4:2 
-1 4:2 
-1 1:1 4:5 6:10 
-1 1:33 2:2 3:4 4:18 5:4 6:13 7:5 
-1 1:14 2:7 4:3 5:3 6:7 7:1 
-1 1:3 3:2 4:4 6:18 
-1 1:19 2:1 3:2 4:12 5:3 6:14 
-1 1:14 4:6 6:17 7:1 
-1 1:5 3:2 4:7 6:10 
-1 4:2 
-1 1:1 2:1 4:2 5:1 6:5 7:1 
-1 4:2 
-1 1:2 2:1 4:11 5:1 6:16 7:1 
-1 4:2 
-1 1:19 2:2 4:14 6:26 7:1 
-1 1:5 2:1 4:5 5:2 6:10 
-1 2:1 3:1 4:6 5:6 6:17 7:1 
-1 4:2 6:2 
-1 1:4 4:9 5:2 6:7 
-1 1:2 4:5 6:7 
-1 1:4 3:2 4:5 6:9 
-1 1:2 2:2 3:5 4:4 5:3 6:8 7:1 
-1 1:1 4:3 
-1 1:9 2:1 3:6 4:6 5:1 6:14 
-1 1:1 2:1 4:1 5:1 6:1 7:1 
-1 1:6 3:2 4:17 5:2 6:18 
-1 1:5 2:3 4:11 5:4 6:7 7:3 
-1 1:1 2:5 3:3 4:5 5:2 6:8 7:1 
-1 1:5 3:1 4:11 5:2 6:13 7:3 
-1 1:3 2:1 3:1 4:9 6:4 
-1 1:11 3:1 4:6 6:12 
-1 1:6 2:2 4:2 5:4 6:15 7:3 
-1 
-1 1:2 4:4 6:2 
-1 1:10 3:1 4:12 5:2 6:13 7:2 
-1 1:4 3:3 4:6 6:12 
-1 1:6 3:1 4:6 6:8 
-1 1:5 3:2 4:10 5:1 6:9 
-1 4:2 6:2 
-1 1:6 3:2 4:7 6:12 
-1 1:2 2:3 4:6 5:1 6:7 7:1 
-1 3:1 4:5 6:4 
-1 1:6 4:4 6:5 
-1 2:4 4:4 5:4 7:4 
-1 1:2 2:2 4:11 5:4 6:10 7:4 
-1 4:2 6:2 
-1 2:1 3:7 4:9 5:2 6:15 7:2 
-1 1:1 4:3 5:1 6:8 7:1 
-1 1:16 2:4 3:1 4:11 5:6 6:19 7:2 
-1 1:13 2:4 4:6 5:6 6:9 7:2 
-1 1:1 4:2 6:1 
-1 1:3 2:3 4:11 5:3 6:11 7:3 
-1 1:6 2:2 3:4 4:11 6:12 7:1 
-1 1:1 4:2 5:2 6:13 
-1 1:8 6:6 
-1 1:3 2:1 3:1 4:3 5:1 6:7 
-1 1:1 2:4 4:4 5:4 6:10 7:4 
-1 1:1 4:3 6:15 
-1 1:3 4:6 6:5 
-1 1:4 3:7 4:7 5:3 6:8 7:1 
-1 4:1 6:3 
-1 1:13 2:1 3:1 4:6 5:2 6:11 7:4 
-1 4:2 
-1 1:1 3:4 4:5 6:9 
-1 1:1 4:10 6:16 
-1 1:7 2:2 3:6 4:3 5:3 6:10 
-1 2:1 4:10 5:1 6:7 
-1 1:2 3:5 4:2 5:1 6:2 
-1 1:2 2:1 3:2 4:4 5:1 6:11 
-1 1:3 2:6 3:11 4:4 5:4 6:10 
-1 4:5 5:1 6:2 
-1 1:7 2:1 4:12 5:2 6:11 
-1 4:6 5:2 6:10 7:2 
-1 1:5 2:2 4:1 5:2 6:12 
-1 1:8 2:1 4:6 5:1 6:5 
-1 4:2 
-1 4:2 
-1 1:9 3:2 4:4 5:2 6:13 7:1 
-1 4:1 
-1 1:2 4:3 
-1 1:2 4:3 
-1 1:2 4:3 
-1 1:12 2:2 4:8 5:1 6:5 7:2 
-1 1:8 3:3 4:5 6:10 
-1 1:4 3:1 4:7 6:9 
-1 1:10 2:6 3:1 4:4 5:6 6:14 7:2 
-1 1:2 3:1 4:8 6:10 
-1 1:4 2:1 4:7 5:1 6:7 
-1 1:2 4:4 6:2 
-1 1:4 3:1 4:12 5:2 6:7 
-1 1:4 4:6 6:6 
-1 1:7 3:1 4:11 6:13 
-1 4:3 6:6 
-1 1:11 3:4 4:16 5:3 6:12 
-1 1:4 2:1 3:3 4:4 5:1 6:7 7:1 
-1 4:1 
-1 1:6 3:3 4:15 5:2 6:10 
-1 1:4 2:1 4:5 5:1 6:6 
-1 1:4 3:2 4:6 6:13 
-1 1:4 2:6 4:6 5:5 6:17 7:1 
-1 4:2 
-1 1:16 4:5 5:3 6:15 7:4 
-1 1:18 2:2 3:2 4:12 5:2 6:6 
-1 4:1 5:1 
-1 1:10 4:4 6:9 
-1 2:1 4:6 5:5 6:5 
-1 1:5 2:8 3:4 4:7 5:7 6:10 
-1 1:14 2:3 3:4 4:10 5:4 6:13 7:1 
-1 1:1 2:4 4:2 5:5 6:9 
-1 6:3 
-1 3:3 4:8 6:10 
-1 4:2 
-1 4:2 
-1 1:4 2:2 3:3 4:12 5:6 6:11 
-1 4:1 
-1 4:1 6:2 
-1 1:5 3:3 4:7 5:3 6:14 7:1 
-1 4:5 5:1 6:7 
-1 1:2 4:6 6:2 
-1 4:2 6:1 
-1 4:2 6:1 
-1 1:8 2:8 3:2 4:12 5:5 6:11 7:6 
-1 4:3 6:2 
-1 2:2 4:2 5:1 6:3 
-1 1:5 4:5 5:2 6:7 
-1 1:14 2:2 3:4 4:16 5:3 6:16 
-1 1:11 2:1 4:8 5:2 6:14 
-1 4:3 6:2 
-1 4:2 
-1 1:8 2:9 3:7 4:6 5:7 6:13 7:2 
-1 1:2 2:2 3:3 4:5 5:1 6:13 7:2 
-1 1:4 4:4 5:1 
-1 1:6 2:1 4:7 5:1 6:7 
-1 1:21 2:2 4:17 5:3 6:25 
-1 1:22 3:3 4:8 5:1 6:20 7:1 
-1 1:3 2:4 4:7 5:2 6:13 
-1 1:7 2:2 3:9 4:7 5:7 6:20 7:1 
-1 1:16 2:6 4:14 5:2 6:13 7:1 
-1 1:2 6:3 
-1 1:2 6:3 
-1 1:17 2:3 4:17 5:4 6:10 7:6 
-1 1:8 3:11 4:7 5:1 6:29 7:1 
-1 1:14 3:2 4:7 6:15 7:1 
-1 1:2 4:4 
-1 4:3 5:1 
-1 1:2 4:3 6:2 
-1 4:2 
-1 1:2 2:1 4:3 5:2 6:7 
-1 1:3 4:6 5:1 6:3 
-1 4:2 6:1 
-1 1:9 3:1 4:3 5:1 6:15 7:1 
-1 1:4 4:4 5:1 
-1 1:2 2:2 4:8 5:2 6:7 
-1 1:4 3:1 4:6 6:12 
-1 1:9 2:3 3:2 4:5 5:3 6:21 7:2 
-1 1:1 3:7 4:4 5:3 6:9 
-1 1:5 3:1 4:3 5:3 6:3 
-1 1:6 2:1 3:4 4:15 5:2 6:22 7:3 
-1 4:1 6:2 
-1 4:4 5:1 6:3 
-1 4:4 6:2 
-1 4:4 6:2 
-1 1:6 3:3 4:4 6:3 
-1 4:8 5:1 6:3 
-1 1:10 2:3 3:4 4:12 5:2 6:11 7:3 
-1 1:12 4:10 6:4 
-1 4:2 6:2 
-1 1:12 2:2 3:3 4:7 5:4 6:13 
-1 1:4 2:1 3:2 4:4 5:1 6:7 
-1 1:9 2:2 3:4 4:3 5:2 6:8 
-1 4:1 6:2 
-1 4:2 6:2 
-1 1:4 2:6 3:1 4:10 5:4 6:14 7:3 
-1 1:1 3:3 4:2 6:8 7:1 
-1 1:9 2:1 3:1 4:14 5:5 6:11 
-1 1:6 2:2 3:7 4:5 5:1 6:14 7:2 
-1 1:11 2:1 3:5 4:14 6:20 
-1 1:12 2:1 4:12 5:1 6:24 
-1 1:4 2:8 3:2 4:4 5:7 6:7 7:5 
-1 5:1 6:1 
-1 4:2 
-1 1:4 2:1 4:1 6:6 
-1 1:10 2:15 3:2 4:8 5:11 6:11 7:5 
-1 1:17 2:2 3:1 4:11 5:2 6:20 
-1 1:9 3:3 4:4 6:7 
-1 1:3 4:9 6:8 
-1 1:3 3:1 4:8 6:7 
-1 1:11 2:1 3:1 4:10 5:1 6:16 
-1 1:4 4:5 6:7 
-1 2:2 4:1 6:3 
-1 1:12 4:6 6:5 
-1 3:2 5:1 6:1 
-1 1:10 2:2 3:3 4:11 5:3 6:21 
-1 1:12 2:2 3:5 4:7 5:2 6:22 
-1 1:3 2:1 3:1 5:2 6:4 
-1 1:5 2:1 4:4 5:1 6:16 
-1 1:2 2:1 4:4 5:1 6:1 
-1 1:2 2:3 4:4 5:4 6:13 
-1 1:6 2:2 3:2 4:9 5:6 6:11 7:2 
-1 1:19 2:10 3:5 4:20 5:4 6:24 7:5 
-1 
-1 1:4 4:4 5:1 7:1 
-1 4:3 6:2 
-1 1:9 2:2 3:1 4:9 5:2 6:12 7:2 
-1 1:6 2:1 3:2 4:9 5:2 6:12 7:1 
-1 1:6 4:5 5:1 6:11 
-1 2:2 4:3 5:2 6:1 7:2 
-1 4:3 5:1 6:1 
-1 1:4 4:4 6:4 
-1 1:14 3:2 4:3 5:4 6:14 7:4 
-1 1:3 2:2 4:2 5:2 6:5 
-1 1:16 2:1 3:2 4:14 5:5 6:16 7:1 
-1 4:8 5:3 6:3 7:1 
-1 1:3 4:1 6:3 7:1 
-1 1:10 2:2 4:4 6:10 7:2 
-1 1:4 2:1 3:3 4:10 5:3 6:10 7:2 
-1 1:4 2:1 4:5 6:5 
-1 1:2 4:3 5:3 6:2 7:2 
-1 1:3 2:1 4:3 5:1 6:8 
-1 1:3 4:4 6:1 
-1 4:1 
-1 4:1 
-1 4:1 
-1 4:1 
-1 1:2 3:1 4:7 5:2 6:6 
-1 4:2 
-1 1:4 3:1 4:12 5:2 6:9 7:1 
-1 2:2 5:2 
-1 2:3 5:2 6:1 7:1 
-1 1:3 2:3 3:2 4:2 5:3 6:17 7:1 
-1 1:10 2:1 4:7 5:3 6:6 
-1 1:13 2:1 3:7 4:9 5:4 6:21 7:1 
-1 4:1 6:2 
-1 1:3 4:4 6:1 
-1 1:3 2:1 3:1 4:1 5:4 6:10 7:1 
-1 2:10 4:6 5:10 6:8 7:8 
-1 1:4 2:1 3:4 4:6 5:1 6:15 
-1 1:7 3:1 4:7 5:1 6:10 7:2 
-1 3:1 4:8 5:1 6:7 7:1 
-1 1:6 2:1 4:5 5:1 6:9 7:1 
-1 1:2 4:4 6:3 
-1 1:4 3:3 4:1 6:6 
-1 1:12 3:5 4:3 6:24 
-1 1:1 2:1 4:1 6:6 
-1 4:2 6:1 
-1 1:11 4:6 5:2 6:5 
-1 4:1 
-1 1:6 2:3 3:2 4:2 5:2 6:13 7:5 
-1 4:2 
-1 1:5 2:3 3:3 4:6 5:2 6:12 
-1 
-1 1:2 2:3 3:3 4:9 5:3 6:10 7:4 
-1 2:1 4:3 5:1 6:6 7:1 
-1 
-1 1:12 3:1 4:12 5:1 6:15 7:2 
-1 1:3 2:2 3:5 4:5 5:2 6:7 
-1 1:2 4:1 6:7 
-1 1:4 2:2 4:1 5:1 6:9 7:1 
-1 1:24 2:4 3:3 4:18 5:2 6:21 7:9 
-1 1:2 4:4 6:8 7:1 
-1 1:6 2:3 4:5 5:1 6:10 7:1 
-1 
-1 1:2 
-1 2:3 3:3 4:1 5:5 6:19 7:2 
-1 1:6 2:7 3:3 4:8 5:5 6:11 
-1 1:10 4:20 5:4 6:22 7:2 
-1 1:4 3:3 4:3 6:10 7:1 
-1 1:5 2:4 3:5 4:3 5:10 6:21 7:3 
-1 
-1 1:5 2:1 3:3 4:2 5:1 6:25 
-1 1:2 4:8 6:12 
-1 1:14 2:1 3:12 4:5 5:1 6:19 7:1 
-1 1:9 3:3 4:10 6:17 
-1 1:4 4:3 6:4 7:2 
-1 2:1 3:5 4:5 5:1 6:13 
-1 1:13 3:2 4:5 6:4 
-1 4:2 5:1 6:2 
-1 1:2 2:6 3:3 4:5 5:6 6:11 7:5 
-1 1:20 2:1 3:2 4:10 5:4 6:15 7:8 
-1 1:2 4:4 
-1 1:9 2:5 3:12 4:10 5:4 6:21 7:6 
-1 1:11 2:2 3:5 4:13 5:2 6:18 7:3 
-1 1:4 2:1 3:5 4:6 6:9 7:2 
-1 1:3 2:8 4:7 5:9 6:11 7:2 
-1 1:12 3:2 4:10 6:18 7:1 
-1 1:4 2:12 3:5 4:7 5:12 6:7 7:6 
-1 4:1 
-1 4:1 
-1 4:3 5:2 6:4 
-1 1:6 2:1 3:3 4:12 5:4 6:15 7:1 
-1 1:4 3:2 4:2 6:10 
-1 4:3 6:3 
-1 1:20 2:6 3:1 4:12 5:6 6:8 7:3 
-1 1:4 3:2 4:1 6:11 
-1 2:5 3:2 4:8 5:5 6:10 7:2 
-1 1:8 3:4 4:5 6:10 
-1 1:20 3:3 4:11 5:2 6:12 
-1 1:7 3:2 4:8 5:2 6:8 7:2 
-1 1:5 2:1 3:4 4:3 5:3 6:10 7:1 
-1 1:14 2:1 3:1 4:7 5:8 6:22 7:5 
-1 1:6 2:2 4:5 5:2 6:15 
-1 1:4 2:1 3:2 4:8 5:2 6:4 7:2 
-1 1:4 3:6 4:2 5:1 6:23 7:1 
-1 4:1 
-1 4:1 
-1 1:7 2:2 3:1 4:4 5:1 6:7 7:1 
-1 1:15 3:1 4:6 6:15 7:3 
-1 4:1 
-1 1:10 2:1 4:22 5:1 6:24 7:1 
-1 4:3 5:2 6:2 
-1 4:5 6:4 
-1 4:2 6:2 
-1 3:1 4:5 5:3 6:11 
-1 4:1 
-1 4:1 
-1 1:10 4:5 5:1 6:15 7:1 
-1 1:4 2:1 3:1 4:4 5:1 6:5 7:1 
-1 4:1 5:2 7:2 
-1 4:1 5:2 7:2 
-1 4:1 5:2 7:2 
-1 1:3 3:7 4:4 5:1 6:8 7:1 
-1 1:8 4:2 6:6 
-1 1:3 4:3 5:1 6:8 
-1 4:3 6:12 
-1 1:2 2:3 4:1 5:1 6:4 
-1 4:3 6:2 
-1 4:1 6:4 
-1 1:5 4:3 6:3 
-1 4:4 6:2 
-1 1:15 4:8 5:3 6:15 
-1 1:5 3:3 4:10 5:1 6:20 7:1 
-1 1:16 2:3 3:6 4:15 5:9 6:25 7:6 
-1 1:4 4:3 6:10 
-1 1:3 3:2 4:4 5:1 6:4 
-1 1:2 
-1 1:2 
-1 1:2 
-1 1:2 
-1 1:2 
-1 1:2 6:2 
-1 1:2 6:2 
-1 1:4 4:2 
-1 1:2 
-1 1:2 
-1 1:2 
-1 1:2 
-1 1:2 
-1 1:2 
-1 1:4 4:2 
-1 1:2 
-1 1:2 3:2 6:2 
-1 4:2 
-1 1:2 4:2 6:2 
-1 1:4 2:8 3:6 4:16 5:11 6:10 7:6 
-1 1:2 6:2 
-1 1:4 4:2 
-1 1:10 3:2 4:15 5:5 6:13 
-1 1:2 2:2 3:3 4:5 5:6 6:19 7:2 
-1 4:1 
-1 4:1 
-1 4:1 
-1 1:2 
-1 1:2 
-1 1:2 
-1 1:2 
-1 1:2 
-1 1:2 
-1 1:2 6:2 
-1 1:2 
-1 1:4 2:2 3:3 4:5 5:2 6:14 7:1 
-1 1:2 
-1 1:2 
-1 1:2 
-1 1:2 
-1 1:4 4:2 
-1 1:2 
-1 1:2 4:2 6:2 
-1 1:2 2:8 3:11 4:7 5:3 6:17 7:2 
-1 1:8 4:2 6:8 
-1 1:5 2:3 3:2 4:15 5:3 6:11 7:3 
-1 1:2 2:1 4:4 5:1 6:1 
-1 1:6 3:4 4:13 6:19 
-1 1:13 2:1 3:4 4:9 5:5 6:10 7:2 
-1 1:4 3:10 4:10 5:2 6:12 7:1 
-1 1:14 2:2 3:1 4:9 5:2 6:11 
-1 2:1 4:3 5:1 6:1 
-1 1:1 3:3 4:4 6:1 
-1 4:3 6:2 
-1 1:4 3:5 4:12 5:2 6:32 7:2 
-1 1:8 4:5 6:6 
-1 1:2 3:1 4:2 5:3 6:7 7:1 
-1 1:1 4:7 5:2 6:4 
-1 4:2 
-1 1:9 2:2 3:4 4:8 5:1 6:16 
-1 1:1 4:2 6:1 
-1 1:5 3:1 4:12 5:3 6:11 7:3 
-1 1:5 4:4 5:2 6:8 7:1 
-1 1:2 4:3 
-1 1:2 4:2 6:1 
-1 1:8 3:5 4:1 6:22 
-1 1:5 3:5 4:5 6:7 
-1 4:2 
-1 3:4 6:5 
-1 4:2 6:2 
-1 1:2 2:3 3:1 4:7 5:3 6:13 7:3 
-1 1:1 2:5 3:2 4:5 5:3 6:11 7:2 
-1 1:3 2:4 4:1 5:3 6:11 
-1 1:25 2:1 3:1 4:13 5:1 6:25 7:1 
-1 1:11 2:2 3:3 4:19 5:1 6:17 7:1 
-1 1:16 3:4 4:5 5:1 6:15 7:1 
-1 1:5 2:5 4:7 5:4 6:10 7:2 
-1 1:2 2:2 3:2 4:13 5:4 6:5 7:2 
-1 4:2 
-1 1:4 4:4 5:1 
-1 1:2 4:3 6:2 
-1 1:2 2:4 3:2 4:10 5:4 6:5 7:4 
-1 1:8 2:3 4:8 5:8 6:10 7:3 
-1 1:2 2:6 3:2 4:8 5:9 6:10 7:3 
-1 1:8 2:1 3:2 4:7 5:2 6:15 
-1 1:3 2:2 3:2 4:10 5:2 6:13 7:1 
-1 1:1 2:9 3:3 4:7 5:9 6:7 7:8 
-1 1:9 2:2 3:5 4:8 5:3 6:23 
-1 1:5 4:3 6:6 
-1 1:10 2:2 3:2 4:11 5:3 6:5 7:2 
-1 1:5 3:4 5:1 6:9 7:2 
-1 1:7 2:2 3:6 4:6 5:1 6:13 7:1 
-1 1:9 3:5 4:9 5:1 6:20 7:1 
-1 1:4 3:2 4:6 5:2 6:8 
-1 1:7 2:3 3:1 4:6 5:2 6:12 7:2 
-1 
-1 
-1 
-1 
-1 1:2 
-1 4:2 6:2 
-1 1:2 4:6 6:4 
-1 4:2 6:2 
-1 6:4 
-1 6:6 
-1 6:6 
-1 6:6 
-1 5:2 6:4 
-1 
-1 1:16 3:3 4:14 5:1 6:12 7:1 
-1 1:12 3:3 4:12 5:1 6:10 7:1 
-1 1:2 6:2 
-1 4:2 6:2 
-1 2:1 4:2 5:2 6:4 
-1 1:38 3:1 4:19 5:1 6:23 7:10 
-1 1:9 2:2 3:2 4:6 5:5 6:7 
-1 2:2 4:4 5:2 6:5 7:2 
-1 1:2 
-1 4:3 6:1 
-1 1:2 2:1 5:1 7:1 
-1 1:10 2:3 3:1 4:4 5:1 6:11 7:1 
-1 1:6 2:7 4:7 5:9 6:19 7:4 
-1 2:9 3:2 4:5 5:9 6:8 7:3 
-1 1:4 4:2 6:5 
-1 1:4 3:2 4:1 5:3 6:8 
-1 1:2 2:3 3:4 4:12 5:3 6:14 7:3 
-1 1:4 2:8 3:14 4:7 5:5 6:17 7:12 
-1 1:18 3:3 4:15 5:2 6:16 7:5 
-1 1:1 4:3 6:2 
-1 
