svm_type c_svc
kernel_type linear
nr_class 2
total_sv 1377
rho -0.999809
label 1 -1
nr_sv 718 659
SV
1 
1 
1 
1 
1 1:1 2:1 3:1 4:9 5:1 6:5 7:1 
1 1:8 3:1 4:4 6:11 
1 1:1 2:6 3:1 4:9 5:7 6:9 
0.4431772466252836 1:1 4:4 6:5 
1 4:1 6:3 
0.1563942684146375 1:2 2:1 4:1 6:3 7:1 
1 1:2 3:7 4:2 5:3 6:11 7:3 
1 1:6 3:3 4:20 5:6 6:13 7:1 
1 1:2 2:8 3:1 4:6 5:8 6:3 
1 1:13 3:1 4:12 6:19 7:3 
0.7441619692958152 1:3 3:1 4:6 6:9 
1 1:4 2:3 3:3 4:9 5:1 6:18 7:1 
0.3893546710593103 1:2 2:1 4:7 5:2 6:4 7:1 
1 1:8 4:6 5:3 6:9 
1 1:10 2:1 4:4 5:1 6:16 7:1 
1 4:1 6:1 
1 5:1 6:2 
1 
1 1:2 
1 
0.5195861353117802 1:1 2:6 3:1 4:1 6:3 
1 
1 2:3 3:1 4:8 5:3 6:9 
1 2:1 4:1 5:1 
1 1:24 3:2 4:13 5:2 6:22 7:4 
1 
1 
0.1927368661534788 1:2 3:1 4:6 6:5 
0.8010899339725477 1:10 2:2 3:4 4:4 5:3 6:5 7:1 
1 1:19 3:6 4:9 5:2 6:13 7:4 
0.004987103605690957 1:8 3:1 4:6 6:5 
1 1:4 2:7 3:1 4:11 5:7 6:9 7:5 
0.1000984962414135 1:4 2:1 3:5 4:9 6:5 
1 1:2 
1 1:11 3:7 4:2 5:1 6:7 7:1 
1 1:16 3:3 4:9 6:4 7:1 
1 1:3 4:4 6:8 
0.8235651802858465 1:8 4:3 6:3 7:1 
1 1:3 3:6 4:6 6:9 
1 1:12 2:3 3:3 4:5 5:3 6:18 7:2 
1 
1 
0.7598366458043329 1:1 2:2 3:1 4:7 5:2 6:4 
1 1:8 3:10 4:6 5:3 6:25 7:2 
0.5612670302291866 1:4 2:3 4:2 5:2 6:2 
1 
0.9268083062144286 3:1 4:5 6:3 
1 2:9 3:1 4:6 5:9 6:4 
1 1:9 3:1 4:2 6:9 
1 1:7 2:1 3:6 4:7 5:5 6:17 7:3 
1 1:2 2:4 3:2 4:9 5:5 6:10 7:2 
1 1:7 2:1 4:10 5:7 6:10 7:1 
1 1:2 2:1 4:4 5:2 6:8 
1 4:4 5:1 6:1 
1 4:1 
1 1:16 2:2 4:6 5:2 6:4 7:2 
1 1:9 3:1 4:2 6:8 7:1 
1 1:2 2:1 4:3 5:2 
0.2545223979547593 1:4 3:1 4:3 5:2 6:9 7:2 
0.09353786585576419 1:2 2:1 3:4 4:2 5:2 6:5 7:3 
0.3294835029666418 1:3 2:1 3:1 4:8 5:3 6:4 7:2 
1 1:6 2:10 3:2 4:9 5:10 6:7 7:1 
1 1:2 
1 1:7 4:2 5:2 6:10 7:2 
1 1:2 
1 1:6 2:2 3:2 4:5 5:4 6:11 7:2 
1 1:3 3:2 4:10 6:5 
1 3:1 4:1 6:2 
1 1:5 2:1 3:3 4:16 5:2 6:15 
1 1:2 4:1 6:5 
1 1:2 2:1 4:9 5:3 6:6 7:1 
1 1:14 2:1 3:1 4:5 5:1 6:7 7:2 
1 3:1 4:1 6:3 
1 1:2 2:1 5:1 7:1 
1 
1 1:9 2:10 3:2 4:13 5:10 6:6 
1 
1 
1 1:9 2:8 3:4 4:13 5:8 6:12 7:2 
0.07214219394537703 1:7 4:4 6:2 
0.9887448080378727 1:3 2:1 4:1 5:2 6:5 
1 4:4 5:1 6:1 
1 1:7 2:2 3:1 4:9 5:2 6:17 
1 1:20 3:1 4:15 5:1 6:18 7:2 
1 1:4 2:4 4:9 5:4 6:5 7:4 
0.9518703280877254 3:1 4:7 5:2 6:5 
1 4:4 5:1 6:1 
1 1:6 2:1 3:2 4:3 6:17 
1 1:8 2:2 3:3 4:5 5:2 6:14 
1 1:12 2:1 3:7 4:4 5:1 6:8 
1 1:9 3:1 4:7 6:11 
0.7849106457278909 1:1 2:3 4:3 5:3 6:2 7:2 
1 1:3 4:1 6:4 
1 1:2 4:1 6:5 
1 
1 4:1 6:1 
1 1:19 4:6 6:9 
1 
1 1:2 4:3 6:9 7:1 
1 1:10 3:2 4:6 6:6 7:1 
1 5:1 6:2 
1 1:3 2:2 3:3 4:6 5:3 6:12 
1 1:12 4:8 6:12 
1 1:11 3:3 4:11 6:17 7:1 
1 
1 4:1 6:7 
1 
1 4:2 6:2 
1 1:4 2:7 3:2 4:7 5:7 6:7 7:5 
1 2:2 4:5 5:2 6:6 
1 
0.8834660698049154 2:1 4:3 5:1 6:4 
1 4:1 5:1 6:2 7:1 
0.6287079230915321 1:6 4:3 6:2 
1 1:12 2:2 3:3 4:8 5:1 6:12 7:4 
1 1:10 4:4 5:3 6:8 7:1 
1 1:1 4:2 6:2 
0.6642247947531997 1:4 4:2 5:3 6:3 7:1 
1 1:5 2:2 3:2 4:9 5:2 6:12 
1 
1 
1 
1 2:3 3:2 4:2 5:3 6:16 
1 
0.009136248175758088 1:6 2:1 3:1 4:6 5:2 6:7 7:2 
1 1:3 4:2 6:2 
1 1:2 3:3 4:7 6:14 
1 1:5 2:3 3:2 4:2 5:3 6:14 
1 1:3 3:2 4:1 6:1 
1 
1 1:1 2:1 4:1 5:1 6:2 7:1 
1 
0.9917173871049432 2:1 4:5 5:2 6:5 
1 1:4 2:8 3:1 4:7 5:8 6:9 7:6 
0.803379958497663 1:6 2:1 4:2 5:2 6:9 7:2 
1 1:15 3:2 4:11 6:11 7:3 
0.01497851970953544 1:4 4:3 5:1 6:5 
1 1:9 2:2 3:1 4:1 5:2 6:11 7:5 
1 5:1 6:1 
1 3:3 4:1 
1 
1 1:1 4:1 5:1 6:1 
1 1:20 2:3 3:1 4:10 5:2 6:8 
1 1:20 2:8 4:4 6:12 7:2 
1 1:1 4:1 5:2 
1 1:1 4:1 5:2 
1 1:2 6:1 
1 1:4 4:2 6:3 
0.7521441750669711 1:6 3:1 4:2 6:3 
1 1:23 2:1 3:1 4:10 5:1 6:12 
1 1:4 4:1 5:1 6:1 7:1 
1 1:4 4:1 5:1 6:1 7:1 
1 1:4 4:1 5:1 6:1 7:1 
1 3:1 
1 1:22 2:1 3:2 4:12 5:5 6:17 7:5 
1 1:8 2:2 3:1 4:10 5:3 6:8 7:5 
0.3126029160414505 3:4 6:2 
0.0004881072335846636 3:4 6:2 
1 1:8 4:2 5:2 6:5 
1 1:2 3:1 4:1 5:2 6:5 
1 1:2 3:1 4:1 6:2 
0.002233575749131569 1:8 3:2 4:4 6:6 
1 1:12 3:1 4:6 5:1 6:4 7:1 
0.8841569577315176 1:5 2:2 3:1 4:3 5:4 6:3 7:1 
1 1:1 4:6 6:5 
1 3:2 
0.1095020515270706 1:2 3:2 4:2 6:2 
1 3:2 
1 3:2 
0.008993924538282693 1:3 2:4 3:6 4:5 5:2 6:8 7:2 
1 3:2 
1 3:2 
1 3:2 
1 3:2 
1 3:2 
1 3:2 
1 1:2 3:2 4:2 6:2 
1 3:2 
0.4880319526047929 1:2 3:2 4:2 6:2 
1 
1 
1 
1 
1 3:4 4:1 6:1 
1 1:14 2:4 3:4 4:6 5:4 6:12 7:2 
1 1:10 2:1 3:1 4:7 5:4 6:10 
1 4:1 6:2 
1 
0.356282065217122 1:2 3:1 4:1 5:1 6:1 7:1 
1 3:1 4:2 5:1 6:2 
0.440113873823635 1:7 2:4 3:3 4:6 5:4 6:9 7:1 
0.09378025980854082 1:1 2:1 3:1 4:6 5:2 6:7 7:1 
0.1233137607350142 1:5 2:3 4:5 5:1 6:8 
1 1:10 4:6 6:4 7:1 
1 1:5 2:2 3:2 4:8 5:2 6:12 7:2 
1 1:2 2:1 4:11 5:1 6:5 
0.8155833828834728 1:1 2:1 3:1 4:2 5:1 6:2 
1 4:1 6:2 
1 1:15 2:1 3:3 4:7 5:1 6:13 
1 1:4 2:1 3:1 4:1 5:1 6:9 7:1 
1 
1 
1 
0.7114211364645063 1:4 4:9 
0.2955125230176526 2:1 3:7 4:4 5:1 6:4 
1 1:3 2:7 3:1 5:7 6:25 
1 1:5 2:2 3:2 4:7 5:2 6:15 7:2 
1 
1 
1 
1 1:8 3:1 4:7 5:2 6:7 7:1 
0.8489872877609878 1:1 2:1 3:3 4:8 6:6 
0.5317384928468681 1:4 3:1 4:1 6:5 7:2 
1 1:12 4:8 5:1 6:16 7:2 
1 1:9 2:2 3:8 4:6 5:5 6:17 7:1 
1 
0.01729707828779247 1:6 4:5 5:1 6:8 
1 1:6 2:1 3:7 4:3 5:5 6:7 7:5 
1 
1 1:10 3:6 4:5 5:3 6:12 7:3 
1 1:5 2:2 3:3 4:11 5:4 6:16 7:3 
1 4:2 
1 1:3 2:1 4:8 5:2 6:14 
1 1:3 4:2 6:1 7:1 
1 1:10 2:1 3:5 4:6 5:1 6:8 
1 1:6 3:1 4:2 6:11 7:1 
0.02065371561912884 1:7 2:1 3:1 4:4 5:1 6:8 7:1 
1 4:3 6:8 
1 1:8 4:7 5:3 6:8 7:3 
1 4:1 6:1 
1 1:10 3:1 4:2 6:13 7:2 
1 
0.7942735370002786 1:5 3:2 4:1 6:5 7:1 
1 1:10 2:3 3:5 4:6 5:3 6:8 
1 1:6 3:2 4:7 5:1 6:11 7:1 
1 1:6 3:7 4:5 5:1 6:11 7:1 
1 2:2 4:7 5:4 6:6 7:1 
1 1:1 2:1 4:1 5:1 6:2 7:1 
1 1:9 2:2 3:4 4:7 5:1 6:16 7:4 
1 
1 1:2 4:2 6:2 7:1 
0.4114948368420992 2:3 3:3 4:1 5:2 6:3 7:2 
1 1:6 3:3 4:6 6:21 
1 1:11 2:1 3:1 4:11 5:3 6:9 7:3 
1 1:10 2:1 3:2 4:5 5:3 6:14 
0.003844831936810558 1:6 3:1 4:5 5:1 6:6 7:2 
1 4:2 6:2 
1 
1 
0.830395468707719 1:1 2:2 3:2 4:7 5:2 6:9 7:1 
0.9921404887919287 1:1 2:1 4:2 5:2 6:5 
1 1:22 2:2 3:7 4:12 5:3 6:11 7:1 
0.9368742858382241 1:3 2:2 3:6 4:3 5:4 6:5 7:3 
1 1:1 3:1 4:8 5:1 6:6 
1 1:12 2:14 3:2 4:6 6:8 7:5 
0.005949116197716279 1:1 3:1 4:1 5:1 6:1 7:2 
1 1:3 2:8 4:2 6:6 
1 4:1 6:1 7:1 
1 1:8 4:9 6:8 
0.0339140405710138 1:4 4:5 5:1 6:4 
0.9360540248800689 2:1 4:3 5:1 6:4 
1 1:1 2:1 4:6 6:10 
1 1:10 3:2 4:8 5:1 6:11 7:3 
1 4:3 6:7 
0.6734781751035517 2:2 3:1 4:5 5:2 6:2 
1 2:2 4:6 5:2 6:10 
1 1:5 2:7 3:6 4:8 5:6 6:8 7:2 
1 4:4 6:1 
1 
1 1:5 2:2 3:1 4:7 5:2 6:19 7:1 
1 1:11 3:6 4:6 5:1 6:10 7:1 
0.9721390009268163 1:1 4:3 5:2 6:6 
1 1:18 3:2 4:16 5:1 6:19 7:2 
1 1:3 3:1 4:1 6:6 
1 1:1 2:1 4:1 5:1 6:2 7:1 
0.9850399385256173 2:1 4:4 6:6 
1 
1 
1 1:4 4:9 6:3 
1 1:15 4:6 5:2 6:9 7:3 
0.003835957464780395 1:3 4:5 5:1 6:7 7:1 
1 1:7 2:2 4:7 5:1 6:14 7:1 
1 1:9 3:2 4:2 6:7 
1 4:1 6:3 
0.7509177265693594 1:1 3:1 4:2 5:1 6:6 
1 1:10 2:1 4:4 5:2 6:3 7:2 
1 1:23 2:3 3:3 4:17 5:2 6:12 7:1 
1 1:2 3:2 4:5 6:11 7:1 
1 4:5 6:1 
1 1:2 3:1 4:6 5:1 6:12 
1 2:1 4:2 5:1 
0.5483230093380512 1:1 3:3 4:7 6:2 
0.3552713529903861 1:3 2:7 3:1 4:5 5:3 6:6 
1 1:6 6:4 
1 4:4 5:1 6:1 
1 4:3 6:1 
0.9990858435191861 3:4 4:8 6:10 
0.1565892235799448 1:4 4:6 6:8 
1 1:7 3:2 4:5 6:13 7:1 
1 
1 1:1 2:2 4:5 5:4 6:7 7:2 
1 1:10 3:2 4:10 5:3 6:7 7:1 
1 
1 1:4 3:2 4:2 6:11 
1 
0.9499707606337862 1:1 4:2 6:4 
0.5321129957708163 1:7 2:8 3:8 4:4 5:3 6:7 7:1 
1 1:7 2:2 3:8 4:8 5:1 6:6 7:5 
1 1:11 2:2 3:2 4:8 5:3 6:21 7:1 
1 1:1 2:1 4:9 5:4 6:14 7:1 
1 1:1 2:2 4:8 5:2 6:12 
0.01920984451871016 1:1 2:1 3:3 4:2 5:2 6:6 7:1 
1 
1 1:2 3:1 4:6 6:10 
1 1:10 2:1 3:1 4:7 5:4 6:6 7:2 
1 1:2 2:6 4:1 6:4 
1 4:2 6:1 
1 4:3 5:1 6:1 
1 1:19 2:10 3:2 4:11 5:6 6:2 7:5 
0.6669480749589471 1:1 2:1 3:2 5:3 6:4 
0.1477258502362937 1:6 3:2 4:2 6:9 7:1 
1 1:3 2:8 4:8 5:8 6:9 7:7 
1 1:1 2:1 3:2 4:1 5:1 6:1 
0.3729107158801024 1:4 4:3 6:3 
1 1:11 3:2 4:7 5:2 6:5 
1 
1 
1 
1 
1 1:17 3:2 4:11 6:14 7:2 
1 1:8 4:3 6:4 
1 
1 1:3 3:6 4:6 5:3 6:14 7:3 
1 1:4 4:10 5:3 6:9 7:1 
0.7288578620025248 1:2 4:5 6:3 
1 2:2 4:4 6:2 
1 1:16 2:2 3:9 4:6 5:3 6:20 7:3 
1 1:2 2:2 4:9 5:2 6:3 
1 1:3 2:3 3:1 4:8 5:3 6:11 7:3 
1 1:15 2:1 3:1 4:10 5:1 6:7 7:1 
0.8591586744100717 2:1 4:3 5:1 6:2 7:1 
1 1:14 3:4 4:8 5:1 6:12 
1 4:1 5:1 
1 4:4 6:2 
1 4:5 6:7 
1 1:12 2:1 3:4 4:3 5:1 6:17 7:3 
1 4:2 6:2 
0.4668056577550757 1:1 2:2 3:1 4:1 6:5 
1 1:9 3:2 4:5 6:9 
1 1:6 3:1 4:3 
1 
1 1:6 4:3 6:4 
1 1:15 3:1 4:10 5:2 6:14 7:2 
1 1:1 3:2 4:2 6:1 
1 
1 
1 
1 
1 
1 2:2 4:4 5:2 6:9 7:1 
1 
1 4:3 
1 1:1 2:3 5:2 6:11 7:3 
1 
1 4:2 6:2 
0.3715717563933623 1:2 4:5 6:4 
1 3:4 4:1 5:2 6:11 7:1 
1 1:2 3:1 4:1 6:11 7:1 
0.9799486674512882 4:4 5:1 6:4 
0.06559719206528461 1:2 2:1 3:1 4:6 5:1 6:9 7:1 
1 1:10 3:1 4:10 5:1 6:15 7:1 
0.5281223658590407 1:2 4:2 5:1 6:6 7:1 
1 1:3 2:2 3:1 4:4 5:2 6:14 7:2 
1 
0.9878784587252746 2:2 4:2 5:2 6:4 7:2 
1 
1 
0.2787739418371255 1:3 2:5 3:2 4:9 5:4 6:6 7:2 
1 6:3 
0.1785937212734661 1:3 2:1 4:2 5:2 6:7 7:1 
1 
0.5302652456953977 1:2 4:5 5:1 6:2 7:1 
1 1:3 4:6 5:3 6:8 
1 1:1 3:5 4:2 6:9 
1 1:8 4:3 6:4 
1 
0.6911108097952218 2:6 4:2 5:2 6:4 7:4 
1 1:8 2:2 3:3 4:11 5:1 6:10 
1 2:6 6:1 
0.9999265168850348 1:8 4:8 5:2 6:4 
1 1:10 4:8 5:2 6:6 
1 4:2 6:1 
1 1:9 3:12 4:5 5:2 6:14 7:1 
1 1:11 2:5 3:7 4:12 5:2 6:7 7:2 
1 1:10 2:3 3:7 4:8 5:3 6:13 7:1 
1 1:2 2:2 3:2 4:7 5:1 6:14 7:2 
1 
1 
1 
1 2:2 4:7 5:7 6:6 7:1 
1 
1 
1 1:1 4:3 6:1 
1 1:1 2:1 3:3 4:6 5:5 6:19 
1 1:12 2:4 3:3 4:12 5:2 6:14 7:3 
1 4:5 6:10 
1 
1 1:7 2:3 4:11 5:4 6:7 7:1 
1 
1 
1 
1 2:2 4:1 5:2 6:2 
1 3:2 4:2 6:8 
1 1:1 2:1 3:1 4:6 5:4 6:6 7:1 
0.4487249250201882 1:4 2:6 3:2 4:1 5:3 6:4 
1 1:2 4:1 5:1 6:4 7:1 
1 1:2 4:1 
1 2:4 4:6 5:4 6:7 7:4 
1 1:6 2:2 3:3 4:13 5:2 6:7 7:2 
1 1:1 2:1 3:1 4:1 5:3 6:8 
1 
1 
0.5901359149032107 1:6 4:4 5:1 6:4 7:1 
1 4:1 6:1 
1 6:1 
1 
1 
1 
1 
1 
1 1:1 2:2 4:9 5:1 6:12 7:1 
1 1:12 2:1 3:3 4:7 5:3 6:5 
1 1:12 2:4 3:5 4:7 5:5 6:13 7:4 
0.5163866604390971 1:5 2:2 3:4 4:4 5:2 6:11 7:1 
1 1:4 3:3 4:8 6:13 
1 1:1 4:2 6:3 
1 4:4 6:7 
0.9915912979763846 2:1 3:1 4:4 5:2 6:8 
1 1:1 2:1 4:8 5:2 6:9 
1 4:10 5:5 6:8 
1 
1 
0.7023317725704478 2:1 3:1 4:3 5:2 6:3 7:1 
1 1:1 2:1 3:1 4:9 5:1 6:6 
0.5553371809068171 3:1 4:6 6:3 
1 1:6 3:3 4:1 6:8 
1 1:7 3:3 4:3 5:1 6:20 7:1 
1 1:10 4:4 5:1 6:6 7:1 
1 1:13 2:2 4:5 5:5 6:9 7:1 
1 
1 
1 1:8 4:9 6:15 
1 1:2 4:2 6:2 
1 
1 1:9 4:2 6:9 
1 4:2 6:2 
0.9995256867695339 1:1 2:10 3:5 4:2 5:5 6:6 
1 
1 1:8 4:4 6:8 
1 
1 1:8 3:1 4:6 5:1 6:8 
1 7:1 
1 1:12 2:1 3:4 4:11 5:1 6:8 7:1 
1 2:1 5:1 6:6 
1 
1 1:2 2:1 4:8 5:4 6:4 7:1 
1 1:13 3:1 4:18 5:1 6:16 7:1 
1 1:7 2:2 4:1 5:4 6:10 7:2 
1 1:7 2:2 3:7 4:7 5:4 6:11 
1 2:3 4:1 5:3 6:4 7:1 
1 
1 4:2 6:2 
1 1:2 2:1 3:2 4:4 5:2 6:10 
1 1:6 3:7 4:14 5:6 6:11 7:2 
1 
0.002709920940383147 1:3 2:3 3:7 4:6 5:1 6:5 
1 1:1 3:2 4:3 6:1 
0.9112688996455607 3:1 4:7 6:6 
1 1:15 2:1 3:5 4:7 6:10 
0.1867070674518602 1:5 4:7 6:7 
1 1:7 3:4 4:5 6:14 
0.02345521611258727 1:1 2:2 4:3 5:3 6:1 7:1 
1 1:9 2:2 3:1 4:6 5:2 6:9 7:3 
1 1:13 3:2 4:9 5:1 6:8 7:2 
1 3:1 4:7 5:2 6:13 7:1 
1 1:12 3:2 4:5 6:7 7:1 
1 
1 1:8 2:4 3:4 4:11 5:5 6:8 7:5 
1 1:11 2:1 3:3 4:11 5:4 6:20 
0.9689648569853482 2:1 4:4 5:1 6:3 7:1 
1 
0.966272527353227 4:6 6:5 
1 1:4 2:4 3:2 4:11 5:5 6:8 7:1 
1 1:5 2:2 3:5 4:5 5:2 6:11 7:1 
1 1:6 3:1 4:9 6:8 7:2 
1 4:9 6:9 
1 4:1 6:1 
1 
1 1:10 4:5 6:10 
1 4:2 6:1 
1 4:2 6:1 
1 1:18 2:1 4:15 5:3 6:13 7:2 
1 1:7 2:2 3:3 4:9 5:3 6:17 7:1 
1 1:3 4:2 6:2 
1 1:8 2:1 3:1 4:10 5:1 6:13 7:1 
1 
1 
1 4:8 6:14 
1 
1 1:24 3:2 4:11 6:19 7:4 
1 1:3 3:10 5:2 6:7 7:3 
1 
1 1:19 2:1 4:8 6:11 7:3 
1 1:6 2:11 3:6 4:5 5:5 6:10 7:2 
1 
1 1:5 2:2 4:3 5:2 6:16 7:1 
1 
1 1:15 2:1 3:4 4:7 6:11 7:2 
1 4:1 6:2 
1 1:2 2:6 3:1 4:1 6:4 
1 4:3 6:3 
1 
1 1:1 2:8 3:10 4:1 5:9 6:7 7:1 
0.8591288540602388 1:4 2:1 3:7 4:1 6:6 7:1 
1 1:9 2:2 4:9 5:4 6:7 7:3 
1 1:9 3:1 4:13 6:8 
1 
1 1:1 4:1 6:2 
0.2265862464188356 1:7 2:2 4:3 6:7 
1 
0.9721996449605446 3:1 4:4 6:3 
1 
1 
1 1:22 3:1 4:13 5:3 6:11 7:4 
1 
0.1354187011750149 1:3 2:4 3:2 4:2 5:3 6:7 
1 
0.09515583615290507 1:9 2:2 3:1 4:5 6:5 
1 1:9 4:4 5:2 6:7 7:1 
1 1:11 2:3 3:1 4:2 5:6 6:17 7:4 
1 2:12 3:2 4:7 5:10 6:6 7:5 
1 1:8 3:4 4:8 5:2 6:10 7:3 
0.3020597465941731 1:1 3:3 4:4 6:2 
1 1:13 3:3 4:10 5:2 6:10 7:1 
1 1:14 2:9 3:11 4:9 5:7 6:15 7:1 
0.4201285182294419 1:3 3:1 4:4 5:1 6:2 
0.670046354482662 1:6 3:2 4:9 6:7 7:1 
0.9709440520020776 2:1 3:1 4:7 5:1 6:2 
1 
0.9934040709436147 2:3 3:1 4:5 5:3 6:7 
1 
1 1:9 3:3 4:4 5:1 6:10 
1 2:1 3:1 4:8 5:3 6:8 
1 3:2 4:1 6:2 
1 
0.1377666346446559 2:3 3:2 4:4 5:2 6:7 7:3 
1 1:3 2:2 3:1 4:5 5:4 6:9 7:2 
0.03547020140448479 1:8 2:2 4:7 5:1 6:5 
1 1:2 4:1 
1 4:1 5:1 
0.9645818280589621 2:3 3:2 4:7 5:3 6:5 7:3 
1 1:6 2:6 3:1 4:6 5:5 6:8 7:4 
1 
1 1:12 3:1 4:7 5:1 6:8 7:3 
0.8344303604541474 1:2 4:2 6:3 
1 
1 2:1 4:2 5:1 6:1 
1 1:2 4:8 6:7 
1 4:2 6:2 
1 1:8 2:1 4:11 5:1 6:8 7:2 
1 1:3 2:1 3:4 4:7 5:2 6:13 
1 1:6 2:1 4:4 5:3 6:11 7:2 
1 6:2 
1 4:2 6:2 
0.7162290224466816 3:2 4:4 5:1 6:4 7:1 
0.9727523979342921 4:4 6:5 
1 1:5 2:5 3:3 4:7 5:7 6:9 7:2 
1 1:7 2:6 4:5 5:2 6:7 7:6 
1 1:15 2:1 4:4 5:2 6:16 7:1 
1 1:2 3:1 5:1 7:1 
1 1:4 3:1 4:16 5:1 6:6 7:2 
1 1:11 2:1 4:7 5:2 6:9 7:1 
0.4144800313946373 1:1 4:3 6:3 7:1 
1 1:14 2:1 3:2 4:8 5:2 6:12 7:3 
1 1:4 2:1 5:1 6:1 7:1 
1 
1 1:6 2:2 4:6 5:4 6:20 7:3 
1 1:2 4:2 6:1 
0.005585075382007669 1:5 2:1 3:2 4:1 5:2 6:6 7:2 
0.7163188043470826 1:2 3:2 5:1 6:3 7:2 
1 1:9 2:3 3:2 4:8 5:3 6:10 7:3 
1 1:10 2:1 4:5 5:2 6:8 
1 
1 6:5 
1 
1 
1 1:4 4:5 5:1 6:11 7:3 
0.003859835085305169 1:3 3:5 4:7 6:2 
0.8984150732893597 2:2 3:1 4:1 5:3 6:5 
0.1597849077035307 1:2 3:3 4:3 6:5 
1 
1 1:2 
1 1:2 
1 1:2 
1 1:7 2:5 3:3 4:4 5:5 6:22 7:2 
1 1:2 
1 1:2 
1 1:2 
1 1:2 
1 1:2 
1 1:2 
1 1:2 
1 1:2 
1 1:2 
1 1:2 
1 1:2 
1 1:2 
1 1:2 
1 1:2 
1 1:2 
1 1:2 
1 1:2 
1 1:2 
1 1:2 
1 1:2 
1 1:2 
1 1:2 
1 1:2 
1 1:2 
1 1:2 
1 1:18 2:1 4:8 5:1 6:9 7:1 
1 1:2 
1 1:2 
1 1:2 
1 1:2 
1 1:2 
1 1:2 
1 1:2 
1 1:2 
1 1:2 
1 1:2 
1 1:2 
1 1:2 
1 1:2 
1 1:2 
1 1:2 
1 1:2 
1 1:2 
1 1:2 
1 1:2 
1 1:18 2:2 3:3 4:18 5:5 6:14 7:5 
1 1:2 2:10 3:1 4:9 5:10 6:7 7:10 
1 1:2 2:4 3:1 4:10 5:4 6:7 7:5 
1 1:1 2:10 3:1 4:5 5:6 6:4 7:5 
1 1:1 4:10 6:3 
1 4:4 5:1 6:1 
1 2:1 3:1 4:3 5:1 6:1 
1 
1 
1 1:11 2:4 4:7 5:5 6:13 7:1 
1 1:5 4:9 6:9 
1 1:8 2:4 3:2 4:4 5:3 6:20 7:1 
1 1:13 2:1 3:1 4:4 5:1 6:11 7:1 
1 4:2 5:1 6:2 
0.853661676405119 1:3 4:3 5:1 6:3 
0.9931474647473509 2:2 3:2 4:3 5:4 6:8 7:1 
1 1:14 2:1 3:13 4:13 5:3 6:21 7:6 
1 
1 1:14 3:11 4:8 5:1 6:14 7:1 
1 1:8 2:12 3:2 4:6 5:7 6:9 7:8 
1 
1 1:5 2:1 3:1 4:5 5:2 6:13 7:2 
1 
1 1:3 2:2 3:4 4:5 5:4 6:11 7:1 
1 1:7 4:3 6:3 
1 
1 4:4 6:4 
1 1:3 2:2 3:1 4:1 5:1 6:6 7:5 
1 
1 1:4 4:2 6:7 
1 1:4 3:1 4:9 6:10 
1 1:5 2:2 3:1 4:16 5:1 6:4 7:1 
1 6:1 
1 1:20 3:1 4:16 5:1 6:20 7:2 
0.2937051462631006 1:5 2:1 3:4 4:2 5:2 6:8 
0.9785120756811129 1:5 4:1 5:2 6:3 
1 
1 
1 
1 
1 
1 
1 
1 
1 
1 
1 
1 1:6 2:1 3:2 4:8 5:1 6:17 
1 1:4 3:4 4:12 6:25 7:2 
1 1:8 3:2 4:5 5:1 6:12 
1 4:2 6:1 
1 
1 1:2 
1 1:2 
1 
0.06098180784878297 1:5 2:1 4:2 6:4 
1 2:5 4:5 5:11 6:8 7:3 
1 
1 1:6 2:1 4:8 5:2 6:10 
1 2:1 3:1 4:1 5:1 6:1 
1 4:5 
1 4:1 6:1 
1 1:9 2:1 3:4 4:8 5:1 6:13 7:1 
1 
-1 
-1 
-1 
-1 
-1 
-1 1:9 2:1 3:3 4:1 5:1 6:9 7:1 
-1 1:2 2:4 3:1 4:8 5:5 6:6 7:4 
-1 1:4 2:1 4:3 5:1 6:1 
-1 2:1 4:3 5:1 6:1 7:1 
-1 1:4 2:1 3:1 4:11 5:3 6:12 
-1 
-1 2:3 4:4 5:2 6:4 7:2 
-1 
-1 1:6 3:2 4:2 6:16 7:1 
-1 2:2 3:1 4:4 5:2 6:3 7:1 
-1 1:2 2:2 3:1 4:3 5:2 6:8 
-1 1:7 3:1 4:6 5:3 6:16 7:1 
-1 1:6 2:11 3:1 4:8 5:10 6:5 7:3 
-1 1:12 3:4 4:7 6:9 
-1 
-1 
-1 1:20 3:2 4:6 5:1 6:13 7:5 
-1 1:1 2:2 3:1 4:9 5:2 6:8 7:2 
-1 1:16 2:1 3:7 4:12 5:1 6:16 7:4 
-1 1:9 4:4 6:6 
-1 3:1 4:9 6:14 
-1 1:2 2:3 3:1 4:4 5:3 6:1 
-1 1:2 2:1 3:1 4:11 5:1 6:8 
-1 1:2 3:1 4:1 6:1 
-1 1:2 4:1 
-1 2:2 4:7 5:2 6:10 
-1 1:9 4:5 5:3 6:10 
-1 1:13 3:6 4:6 5:1 6:16 7:1 
-1 1:2 4:2 6:1 
-1 1:6 2:2 3:2 4:5 5:2 6:7 
-1 1:4 2:2 3:5 4:7 6:5 
-1 
-1 1:2 2:5 3:2 4:6 5:5 6:4 7:3 
-1 1:6 3:1 4:1 6:4 
-1 1:16 2:2 3:4 4:14 5:5 6:20 7:4 
-1 1:4 2:5 3:1 4:9 5:8 6:5 7:1 
-1 2:1 4:1 5:1 6:2 7:2 
-1 1:2 
-1 1:15 3:8 4:10 5:2 6:11 7:5 
-1 
-1 2:6 3:1 4:5 5:7 6:3 
-1 1:11 2:2 3:5 4:9 5:3 6:12 7:2 
-1 1:9 2:8 4:10 5:3 6:11 7:2 
-1 1:3 2:1 3:2 4:9 5:2 6:7 7:1 
-1 3:1 4:6 6:7 
-1 1:2 4:4 6:6 
-1 1:5 2:3 4:6 5:1 6:7 7:1 
-1 1:7 2:1 3:1 4:4 5:3 6:11 7:1 
-1 1:2 2:1 5:1 7:1 
-1 6:1 
-1 1:2 
-1 
-1 1:6 3:1 4:6 6:5 
-1 1:15 3:1 4:4 6:5 7:1 
-1 1:2 2:1 3:4 4:4 5:2 6:7 7:1 
-1 2:1 5:1 6:1 
-1 
-1 1:6 2:14 4:11 5:14 6:4 7:6 
-1 1:11 2:2 4:5 5:1 6:6 7:2 
-1 2:4 5:4 6:1 
-1 1:2 3:2 4:5 6:6 
-1 
-1 1:3 4:2 6:4 
-1 1:4 2:5 4:6 5:5 6:19 
-1 
-1 2:1 4:2 5:2 6:5 7:2 
-1 2:10 3:2 5:1 6:1 
-1 2:1 4:5 6:1 7:1 
-1 1:3 2:2 3:3 4:4 5:3 6:9 7:2 
-1 
-1 
-1 
-1 1:6 4:4 6:7 
-1 1:2 4:2 
-1 1:7 2:2 3:3 4:5 5:1 6:6 
-1 1:4 2:1 4:1 5:1 6:1 7:1 
-1 1:6 2:2 3:9 4:6 5:3 6:12 7:2 
-1 1:17 3:1 4:10 6:6 7:1 
-1 1:1 4:1 
-1 1:1 2:2 4:4 5:2 6:2 7:2 
-1 
-1 1:1 2:1 4:2 5:1 6:3 7:1 
-1 
-1 
-1 1:2 2:1 3:1 4:3 5:1 6:4 7:1 
-1 1:9 3:1 4:3 6:6 
-1 1:2 4:1 6:2 
-1 1:2 3:4 5:2 6:5 
-1 1:13 2:1 3:4 4:8 5:1 6:13 7:2 
-1 1:1 4:4 5:1 6:1 
-1 1:9 2:2 3:2 4:11 5:3 6:10 
-1 2:3 4:1 5:4 6:6 
-1 4:2 6:3 
-1 6:3 
-1 1:6 3:2 4:2 5:1 6:2 7:2 
-1 1:2 4:2 5:2 6:12 
-1 1:3 2:1 3:2 4:1 5:1 6:1 7:1 
-1 1:2 2:3 4:8 5:3 6:7 7:1 
-1 1:1 2:5 3:2 4:1 5:4 6:2 7:1 
-1 1:2 4:2 6:6 
-1 
-1 1:1 3:2 6:7 7:1 
-1 2:2 3:1 4:2 5:2 6:7 
-1 1:4 3:3 4:5 5:1 6:9 
-1 3:1 4:5 5:1 6:1 7:1 
-1 1:4 6:1 
-1 2:2 3:1 4:4 5:2 6:4 7:2 
-1 2:2 6:2 
-1 1:8 2:2 4:10 5:2 6:8 
-1 
-1 1:2 2:1 4:2 5:1 6:3 7:1 
-1 1:3 3:1 4:1 5:3 6:9 7:3 
-1 1:1 4:6 6:6 
-1 1:2 2:1 3:1 4:6 5:3 6:8 7:1 
-1 1:9 3:4 4:12 5:2 6:8 7:3 
-1 3:1 4:1 6:3 
-1 3:2 4:3 6:5 
-1 1:4 3:2 4:1 6:13 7:1 
-1 2:1 4:1 5:1 6:2 
-1 1:6 3:2 4:7 6:17 
-1 4:4 6:3 
-1 1:2 2:1 3:2 4:2 5:1 6:2 7:1 
-1 1:5 2:1 3:3 4:5 5:3 6:9 7:2 
-1 1:1 3:1 4:1 5:1 6:1 
-1 1:11 2:1 3:4 4:6 5:1 6:10 7:1 
-1 1:8 2:1 4:2 5:2 6:3 7:1 
-1 1:3 2:1 4:2 5:1 6:2 
-1 1:13 3:2 4:8 6:9 
-1 1:8 3:1 4:4 6:9 
-1 1:20 2:2 3:4 4:14 5:1 6:12 7:1 
-1 1:7 2:2 3:1 4:2 5:2 6:6 7:1 
-1 6:1 
-1 3:2 
-1 1:1 4:1 5:2 
-1 1:2 2:2 4:2 5:4 6:2 7:2 
-1 1:2 2:1 4:2 5:3 6:2 7:1 
-1 1:10 3:2 4:6 6:5 7:1 
-1 1:8 3:1 4:4 5:1 6:5 7:1 
-1 1:11 3:6 4:12 5:3 6:5 7:1 
-1 1:5 4:5 5:2 6:4 7:1 
-1 1:6 2:2 4:7 5:2 6:5 7:2 
-1 1:3 2:1 3:1 4:3 5:1 6:7 
-1 1:4 3:2 4:2 6:6 
-1 1:1 2:1 3:1 4:2 5:1 6:1 
-1 1:22 2:1 3:2 4:12 5:5 6:17 7:5 
-1 1:12 2:1 3:1 4:4 5:2 6:5 
-1 1:3 4:1 5:1 6:3 
-1 1:10 4:3 6:2 
-1 1:10 4:3 6:2 
-1 1:8 3:2 4:4 6:5 
-1 1:1 2:4 3:1 4:1 5:4 6:4 
-1 2:2 4:3 5:2 6:6 7:2 
-1 1:15 3:4 4:8 6:10 7:1 
-1 1:15 3:4 4:8 6:10 7:1 
-1 1:5 4:1 5:1 6:2 
-1 1:5 4:1 5:1 6:1 
-1 1:5 4:1 5:2 6:3 
-1 1:5 4:1 5:1 6:1 
-1 1:2 3:2 4:2 6:2 
-1 3:2 
-1 3:2 
-1 3:2 
-1 1:1 3:1 4:4 5:1 6:10 7:2 
-1 1:2 3:2 4:2 6:2 
-1 4:4 5:1 6:1 
-1 4:4 
-1 1:2 3:2 4:2 6:2 
-1 1:2 3:2 4:2 6:2 
-1 1:2 3:2 4:2 6:2 
-1 1:4 3:4 4:4 5:3 6:4 7:3 
-1 3:2 
-1 3:2 
-1 1:2 4:3 6:3 
-1 3:2 
-1 1:10 4:5 5:1 6:10 7:2 
-1 2:2 5:2 6:3 7:2 
-1 1:6 2:1 3:3 4:7 5:1 6:9 7:2 
-1 1:6 2:1 3:2 4:8 5:1 6:8 7:2 
-1 1:8 2:4 3:4 4:6 5:7 6:14 7:3 
-1 1:1 3:2 4:3 5:1 6:3 7:1 
-1 1:5 2:2 3:3 4:6 5:7 6:22 7:3 
-1 4:3 6:8 
-1 2:1 3:6 4:3 5:1 6:1 7:2 
-1 1:5 4:3 6:2 
-1 1:13 4:7 5:1 6:9 7:2 
-1 1:15 2:3 3:2 4:7 5:4 6:13 7:3 
-1 2:2 4:2 5:1 6:2 7:1 
-1 1:17 2:2 3:6 4:10 5:2 6:17 7:2 
-1 1:8 3:2 4:7 5:1 6:15 7:1 
-1 2:2 4:2 5:9 6:8 7:1 
-1 
-1 
-1 4:4 6:7 
-1 1:31 2:2 3:1 4:18 5:4 6:10 7:5 
-1 1:12 2:7 4:2 5:3 6:6 7:1 
-1 1:3 3:2 4:4 6:11 
-1 1:19 2:1 3:2 4:11 5:1 6:11 
-1 1:10 4:5 6:12 7:1 
-1 1:1 3:1 4:7 6:5 
-1 
-1 1:1 2:1 4:2 5:1 6:4 7:1 
-1 
-1 1:2 2:1 4:11 5:1 6:15 7:1 
-1 
-1 1:19 4:13 6:22 
-1 1:3 2:1 4:4 5:2 6:8 
-1 2:1 4:1 5:2 6:11 
-1 
-1 1:4 4:3 6:2 
-1 4:4 6:5 
-1 1:2 3:1 4:5 6:7 
-1 1:2 2:2 3:5 4:4 5:3 6:7 7:1 
-1 4:1 
-1 1:9 2:1 3:6 4:6 5:1 6:13 
-1 1:1 2:1 4:1 5:1 6:1 7:1 
-1 1:3 3:1 4:10 5:1 6:9 
-1 1:5 2:3 4:11 5:4 6:5 7:3 
-1 2:3 3:3 4:3 5:1 6:3 7:1 
-1 1:5 3:1 4:8 6:9 7:1 
-1 1:3 2:1 4:8 6:3 
-1 1:7 4:6 6:6 
-1 1:6 2:1 6:3 7:1 
-1 
-1 
-1 1:9 3:1 4:6 5:2 6:7 7:2 
-1 1:2 3:3 4:6 6:10 
-1 1:6 3:1 4:6 6:7 
-1 1:4 3:2 4:7 6:6 
-1 6:1 
-1 1:3 3:1 4:6 6:9 
-1 1:2 2:3 4:6 5:1 6:6 7:1 
-1 3:1 4:5 6:3 
-1 1:5 4:3 6:5 
-1 2:4 4:4 5:4 7:4 
-1 1:2 4:8 6:3 
-1 6:1 
-1 2:1 3:3 4:7 5:2 6:11 7:2 
-1 1:1 4:2 5:1 6:7 7:1 
-1 1:11 3:1 4:6 6:11 7:1 
-1 1:10 4:3 5:2 6:5 
-1 4:2 
-1 1:3 2:2 4:5 5:2 6:5 7:2 
-1 1:5 2:2 3:4 4:10 6:12 7:1 
-1 4:2 5:2 6:6 
-1 1:8 6:5 
-1 1:3 2:1 3:1 4:3 5:1 6:7 
-1 1:1 2:4 4:4 5:4 6:7 7:4 
-1 1:1 4:3 6:14 
-1 1:3 4:6 6:4 
-1 1:4 3:6 4:5 5:1 6:8 7:1 
-1 4:1 6:1 
-1 1:9 2:1 3:1 4:4 5:2 6:7 7:3 
-1 
-1 4:4 6:7 
-1 1:1 4:2 6:2 
-1 1:7 2:2 3:6 4:2 5:3 6:10 
-1 2:1 4:10 5:1 6:6 
-1 3:3 4:2 6:2 
-1 2:1 3:1 4:4 5:1 6:8 
-1 1:2 2:5 3:8 4:1 5:3 6:4 
-1 5:1 6:1 
-1 1:4 2:1 4:11 5:2 6:9 
-1 4:6 6:9 
-1 1:4 2:1 5:1 6:4 
-1 1:5 2:1 4:3 5:1 6:5 
-1 
-1 
-1 1:7 3:2 4:3 5:2 6:11 7:1 
-1 
-1 
-1 
-1 
-1 1:9 2:2 4:6 5:1 6:2 7:2 
-1 1:5 3:2 4:5 6:7 
-1 4:6 6:5 
-1 1:4 2:2 4:3 5:2 6:7 
-1 4:8 6:8 
-1 1:2 2:1 4:7 5:1 6:6 
-1 
-1 1:4 3:1 4:7 6:5 
-1 1:2 4:4 6:3 
-1 1:5 3:1 4:10 6:10 
-1 6:3 
-1 1:11 3:1 4:10 5:1 6:6 
-1 1:2 2:1 4:4 5:1 6:3 7:1 
-1 
-1 1:6 3:3 4:11 5:1 6:9 
-1 1:4 2:1 4:5 5:1 6:5 
-1 4:6 6:7 
-1 1:3 2:4 4:3 5:3 6:6 7:1 
-1 
-1 1:16 4:5 5:1 6:10 7:2 
-1 1:18 2:2 3:1 4:12 5:2 6:3 
-1 5:1 
-1 1:8 4:3 6:6 
-1 4:2 5:2 6:1 
-1 1:2 2:7 3:4 4:3 5:6 6:5 
-1 1:14 2:3 3:4 4:8 5:4 6:11 7:1 
-1 1:1 2:2 4:1 5:2 6:1 
-1 6:2 
-1 4:8 6:9 
-1 4:1 
-1 
-1 1:4 2:2 3:2 4:10 5:6 6:7 
-1 
-1 
-1 1:5 3:2 4:3 5:3 6:7 7:1 
-1 4:2 6:2 
-1 4:4 6:2 
-1 4:1 6:1 
-1 4:1 6:1 
-1 1:5 2:7 3:2 4:4 5:4 6:4 7:4 
-1 
-1 
-1 1:5 4:3 5:2 6:4 
-1 1:12 2:2 3:4 4:14 5:2 6:8 
-1 1:11 2:1 4:8 5:2 6:14 
-1 
-1 
-1 1:8 2:7 3:6 4:6 5:4 6:11 7:2 
-1 2:2 3:2 4:5 5:1 6:9 7:2 
-1 1:2 4:1 
-1 1:4 2:1 4:5 5:1 6:5 
-1 1:21 2:2 4:15 5:3 6:24 
-1 1:22 3:3 4:8 5:1 6:17 7:1 
-1 1:1 2:1 4:5 6:6 
-1 1:7 2:2 3:7 4:6 5:5 6:14 7:1 
-1 1:16 2:6 4:13 5:1 6:12 7:1 
-1 1:2 
-1 1:2 
-1 1:11 2:3 4:10 5:3 6:10 7:6 
-1 1:8 3:9 4:6 5:1 6:25 7:1 
-1 1:4 3:2 4:2 6:6 7:1 
-1 
-1 4:2 
-1 1:2 4:2 6:2 
-1 
-1 1:2 2:1 4:2 5:2 6:5 
-1 1:1 4:3 5:1 6:2 
-1 4:1 6:1 
-1 1:9 3:1 4:3 5:1 6:12 7:1 
-1 1:2 4:1 
-1 2:2 4:6 5:2 6:6 
-1 1:2 4:6 6:9 
-1 1:9 2:3 3:2 4:5 5:3 6:18 7:2 
-1 1:1 3:7 4:3 5:3 6:5 
-1 1:1 3:1 4:1 5:2 
-1 1:6 2:1 3:4 4:13 5:2 6:19 7:1 
-1 
-1 4:4 5:1 6:1 
-1 
-1 
-1 1:5 3:3 4:3 6:3 
-1 4:5 5:1 6:3 
-1 1:10 2:3 3:4 4:10 5:2 6:9 7:3 
-1 1:2 6:1 
-1 
-1 1:12 2:1 3:3 4:7 5:3 6:6 
-1 2:1 4:4 5:1 6:3 
-1 1:7 2:2 3:2 4:3 5:2 6:5 
-1 
-1 
-1 1:1 2:5 3:1 4:3 5:3 6:6 7:2 
-1 1:1 3:2 4:2 6:7 7:1 
-1 1:1 2:1 3:1 4:3 5:3 6:7 
-1 1:6 2:2 3:7 4:4 5:1 6:13 7:2 
-1 1:8 2:1 3:5 4:12 6:17 
-1 1:12 2:1 4:12 5:1 6:20 
-1 1:3 2:6 3:2 4:4 5:5 6:5 7:4 
-1 
-1 
-1 1:2 2:1 4:1 6:5 
-1 1:5 2:10 3:2 4:5 5:10 6:5 7:2 
-1 1:16 3:1 4:6 6:14 
-1 1:9 3:3 4:4 6:7 
-1 1:1 4:5 6:7 
-1 1:3 3:1 4:5 6:6 
-1 1:8 3:1 4:7 6:11 
-1 1:4 4:4 6:6 
-1 2:2 4:1 6:3 
-1 1:10 4:4 6:3 
-1 
-1 1:7 2:1 3:3 4:5 5:2 6:14 
-1 1:12 2:1 3:4 4:7 5:1 6:20 
-1 1:3 3:1 6:2 
-1 1:5 2:1 4:4 5:1 6:13 
-1 2:1 4:2 5:1 6:1 
-1 2:2 4:1 5:2 6:9 
-1 1:2 2:2 3:1 4:7 5:6 6:7 7:2 
-1 1:16 2:10 3:4 4:16 5:4 6:22 7:5 
-1 
-1 1:2 4:1 7:1 
-1 4:3 6:2 
-1 1:8 2:2 3:1 4:7 5:1 6:10 7:1 
-1 1:2 2:1 3:1 4:9 5:2 6:8 7:1 
-1 1:4 4:4 5:1 6:7 
-1 2:2 4:3 5:2 6:1 7:2 
-1 5:1 6:1 
-1 1:4 4:3 6:3 
-1 1:14 3:2 4:3 5:4 6:13 7:4 
-1 1:1 2:1 5:1 6:4 
-1 1:6 2:1 4:2 5:3 6:6 7:1 
-1 4:4 5:2 6:2 7:1 
-1 1:3 4:1 6:2 7:1 
-1 1:8 2:2 4:4 6:7 7:2 
-1 1:2 2:1 3:1 4:10 5:1 6:8 
-1 1:2 2:1 4:4 6:3 
-1 1:2 4:2 5:1 6:2 
-1 1:3 2:1 4:3 5:1 6:6 
-1 4:1 
-1 
-1 
-1 
-1 
-1 1:2 3:1 4:5 5:1 6:6 
-1 
-1 1:4 3:1 4:9 6:7 7:1 
-1 2:1 5:1 
-1 2:2 5:1 6:1 7:1 
-1 1:3 2:1 3:2 4:2 5:1 6:10 7:1 
-1 1:8 4:3 6:4 
-1 1:12 2:1 3:7 4:6 5:4 6:16 7:1 
-1 
-1 1:2 4:3 6:1 
-1 1:3 2:1 3:1 4:1 5:3 6:5 7:1 
-1 2:10 4:6 5:10 6:7 7:8 
-1 1:2 2:1 3:1 4:4 5:1 6:8 
-1 1:7 3:1 4:7 5:1 6:7 7:2 
-1 3:1 4:6 6:5 7:1 
-1 1:4 2:1 4:5 5:1 6:7 7:1 
-1 1:2 4:4 6:2 
-1 1:2 3:2 4:1 6:4 
-1 1:10 3:1 4:3 6:21 
-1 1:1 2:1 4:1 6:5 
-1 4:1 6:1 
-1 1:8 4:3 6:3 
-1 
-1 1:5 2:3 3:2 4:1 5:2 6:12 7:5 
-1 
-1 1:5 2:2 3:3 4:3 5:1 6:7 
-1 
-1 2:3 3:1 4:9 5:3 6:8 7:4 
-1 2:1 4:3 5:1 6:6 7:1 
-1 
-1 1:9 3:1 4:8 6:10 7:1 
-1 1:3 2:1 3:5 4:4 5:1 6:7 
-1 1:2 4:1 6:5 
-1 1:2 2:2 4:1 5:1 6:6 7:1 
-1 1:24 2:4 3:3 4:18 5:2 6:18 7:2 
-1 1:2 4:4 6:7 7:1 
-1 1:4 2:3 4:5 5:1 6:9 7:1 
-1 
-1 1:2 
-1 2:3 3:2 4:1 5:5 6:18 7:2 
-1 1:6 2:7 3:3 4:6 5:5 6:9 
-1 1:8 4:9 5:3 6:9 7:2 
-1 1:4 3:3 4:3 6:6 7:1 
-1 1:5 2:4 3:4 4:2 5:8 6:13 7:2 
-1 
-1 1:4 3:3 4:1 5:1 6:17 
-1 4:8 6:10 
-1 1:10 2:1 3:11 4:5 5:1 6:16 7:1 
-1 1:4 3:1 4:9 6:12 
-1 1:1 4:2 6:2 7:1 
-1 2:1 3:1 4:5 5:1 6:9 
-1 1:13 3:2 4:5 6:3 
-1 4:1 6:1 
-1 2:5 3:1 4:5 5:5 6:8 7:4 
-1 1:16 2:1 3:2 4:8 5:4 6:11 7:8 
-1 
-1 1:9 2:4 3:10 4:9 5:3 6:18 7:5 
-1 1:11 2:2 3:5 4:10 5:2 6:17 7:3 
-1 1:2 2:1 3:5 4:4 6:6 7:2 
-1 1:2 2:5 4:6 5:6 6:8 7:1 
-1 1:9 3:2 4:9 6:16 7:1 
-1 1:2 2:8 3:3 4:7 5:8 6:5 7:2 
-1 
-1 
-1 4:2 5:2 6:2 
-1 1:6 2:1 3:3 4:7 5:2 6:10 7:1 
-1 1:3 4:2 6:6 
-1 4:2 6:3 
-1 1:20 2:6 3:1 4:12 5:6 6:7 7:3 
-1 1:4 3:1 4:1 6:10 
-1 2:5 3:1 4:8 5:5 6:10 7:2 
-1 1:3 3:3 4:4 6:6 
-1 1:20 3:3 4:9 5:1 6:8 
-1 1:7 3:2 4:6 5:1 6:6 7:2 
-1 1:3 2:1 3:3 4:3 5:3 6:8 7:1 
-1 1:13 2:1 3:1 4:6 5:7 6:18 7:4 
-1 1:6 4:4 6:9 
-1 1:4 2:1 3:1 4:8 5:2 6:4 7:2 
-1 1:4 3:6 4:2 5:1 6:21 7:1 
-1 
-1 
-1 1:5 2:2 3:1 4:4 5:1 6:4 7:1 
-1 1:12 3:1 4:5 6:13 7:2 
-1 
-1 1:9 2:1 4:10 5:1 6:13 7:1 
-1 4:2 5:2 6:2 
-1 4:5 6:3 
-1 
-1 3:1 4:2 5:2 6:8 
-1 
-1 
-1 1:10 4:4 5:1 6:12 7:1 
-1 1:4 2:1 3:1 4:3 5:1 6:4 7:1 
-1 
-1 
-1 
-1 1:3 3:6 4:4 5:1 6:2 7:1 
-1 1:6 4:2 6:3 
-1 1:3 4:2 6:4 
-1 6:3 
-1 1:2 2:2 4:1 5:1 6:3 
-1 
-1 
-1 1:4 4:2 6:3 
-1 
-1 1:15 4:8 5:3 6:12 
-1 1:5 3:3 4:8 5:1 6:15 7:1 
-1 1:13 2:1 3:6 4:13 5:7 6:21 7:5 
-1 1:2 4:2 6:7 
-1 1:1 3:2 4:2 5:1 6:2 
-1 1:2 
-1 1:2 
-1 1:2 
-1 1:2 
-1 1:2 
-1 1:2 
-1 1:2 
-1 1:2 
-1 1:2 
-1 1:2 
-1 1:2 
-1 1:2 
-1 1:2 
-1 1:2 
-1 1:2 
-1 1:2 
-1 1:2 
-1 
-1 1:2 
-1 1:4 2:8 3:1 4:14 5:11 6:7 7:6 
-1 1:2 
-1 1:2 
-1 1:6 3:1 4:15 5:4 6:8 
-1 2:2 3:2 4:5 5:4 6:8 7:2 
-1 
-1 
-1 
-1 1:2 
-1 1:2 
-1 1:2 
-1 1:2 
-1 1:2 
-1 1:2 
-1 1:2 
-1 1:2 
-1 2:2 3:1 4:5 5:1 6:8 7:1 
-1 1:2 
-1 1:2 
-1 1:2 
-1 1:2 
-1 1:2 
-1 1:2 
-1 1:2 
-1 1:2 2:2 3:7 4:7 5:3 6:12 7:2 
-1 1:8 4:2 6:8 
-1 1:3 2:3 3:1 4:13 5:3 6:9 7:3 
-1 2:1 4:2 5:1 6:1 
-1 1:2 3:3 4:13 6:12 
-1 1:9 2:1 3:2 4:7 5:5 6:6 7:2 
-1 1:2 3:9 4:7 5:1 6:11 
-1 1:12 2:2 4:9 5:2 6:6 
-1 2:1 4:3 5:1 6:1 
-1 1:1 3:3 4:3 6:1 
-1 
-1 1:3 3:5 4:11 5:2 6:23 7:2 
-1 1:6 4:4 6:5 
-1 1:2 5:1 6:6 7:1 
-1 4:4 6:1 
-1 
-1 1:7 2:2 3:4 4:8 5:1 6:15 
-1 
-1 1:4 3:1 4:10 5:2 6:10 7:2 
-1 1:2 4:1 5:1 6:5 7:1 
-1 
-1 1:2 
-1 1:8 3:5 4:1 6:18 
-1 1:5 3:5 4:5 6:7 
-1 
-1 3:2 6:3 
-1 
-1 1:2 2:2 3:1 4:3 5:2 6:8 7:3 
-1 1:1 2:5 4:3 5:3 6:8 7:2 
-1 1:3 4:1 5:1 6:6 
-1 1:25 2:1 3:1 4:12 5:1 6:23 7:1 
-1 1:11 2:2 3:3 4:13 5:1 6:16 7:1 
-1 1:16 3:4 4:5 5:1 6:14 7:1 
-1 1:3 2:5 4:5 5:3 6:9 7:2 
-1 2:2 3:1 4:11 5:4 6:5 7:2 
-1 
-1 1:2 4:1 
-1 4:1 6:2 
-1 2:4 3:1 4:8 5:4 6:5 7:4 
-1 1:4 2:2 4:5 5:7 6:7 7:2 
-1 2:6 3:1 4:8 5:9 6:8 7:3 
-1 1:8 2:1 3:2 4:6 5:2 6:12 
-1 1:3 2:2 3:2 4:8 5:2 6:13 7:1 
-1 1:1 2:9 4:7 5:9 6:6 7:8 
-1 1:7 3:5 4:5 5:3 6:17 
-1 1:3 4:3 6:5 
-1 1:10 2:2 3:2 4:9 5:2 6:5 7:2 
-1 1:5 3:4 5:1 6:6 7:2 
-1 1:3 2:2 3:1 4:6 5:1 6:5 7:1 
-1 1:9 3:3 4:9 5:1 6:12 7:1 
-1 1:2 3:1 4:5 5:1 6:4 
-1 1:5 2:3 3:1 4:4 5:2 6:9 7:2 
-1 
-1 
-1 
-1 
-1 1:2 
-1 
-1 
-1 
-1 
-1 
-1 
-1 
-1 
-1 
-1 1:16 3:3 4:14 5:1 6:12 7:1 
-1 1:12 3:3 4:12 5:1 6:10 7:1 
-1 1:2 
-1 
-1 2:1 4:1 5:1 
-1 1:30 3:1 4:15 5:1 6:20 7:8 
-1 1:6 4:5 5:1 6:3 
-1 2:2 4:4 5:2 6:1 7:2 
-1 1:2 
-1 4:2 6:1 
-1 1:2 2:1 5:1 7:1 
-1 1:9 2:3 3:1 4:4 5:1 6:9 7:1 
-1 1:6 2:6 4:7 5:7 6:17 7:3 
-1 2:9 3:1 4:5 5:9 6:8 7:3 
-1 1:2 4:2 6:4 
-1 1:2 3:1 4:1 5:2 6:5 
-1 2:3 3:2 4:12 5:3 6:10 7:3 
-1 1:4 2:8 3:13 4:7 5:5 6:15 7:12 
-1 1:15 3:1 4:12 5:2 6:11 7:3 
-1 4:1 6:1 
-1 
