svm_type c_svc
kernel_type linear
nr_class 2
total_sv 1348
rho -1.00014
label 1 -1
nr_sv 689 659
SV
1 1:2 3:3 
1 1:2 5:3 
1 1:6 2:1 3:2 
1 1:4 2:3 3:3 5:2 
1 1:5 2:2 3:3 
1 1:4 3:1 4:15 5:12 
1 1:3 2:1 4:8 5:16 
1 1:2 3:1 4:16 5:12 
1 1:1 
1 1:4 
1 1:2 5:1 
1 1:2 4:20 5:10 
1 1:10 5:1 
1 1:2 4:16 5:11 
1 1:3 3:1 4:8 5:1 
1 1:5 4:13 5:10 
1 1:4 5:1 
1 1:9 3:5 4:1 5:4 
1 1:3 4:14 5:10 
1 1:1 4:1 5:1 
1 1:5 3:4 5:2 
1 1:2 5:2 
1 1:2 5:4 
1 1:6 4:1 
0.5281620255259805 1:5 2:2 3:2 5:4 
1 1:2 4:14 5:7 
0.264799279209537 1:2 4:1 5:3 
1 1:8 
1 1:4 2:1 3:3 5:6 
1 1:5 2:2 3:3 
1 1:2 4:20 5:13 
1 1:2 
1 1:12 
1 1:2 4:4 5:1 
1 1:2 4:19 5:11 
1 1:5 4:16 5:11 
1 1:2 5:2 
0.9999938338909889 1:21 2:2 4:6 5:2 
1 1:3 2:6 3:3 5:1 
1 1:8 2:1 3:6 4:2 5:1 
1 1:2 4:2 
1 1:5 2:1 3:4 
1 1:3 3:1 4:17 5:12 
1 1:5 
1 1:14 3:3 
1 1:8 2:1 3:4 
1 1:2 4:18 5:12 
1 1:3 4:22 5:16 
0.05598196016877331 1:2 5:6 
1 1:2 2:1 
1 1:2 4:12 5:12 
0.01161583050031949 1:6 2:4 5:1 
1 1:2 4:1 5:3 
1 1:2 5:1 
1 1:12 2:2 3:1 4:10 5:2 
1 1:4 3:7 
1 1:5 3:6 5:1 
1 1:13 3:3 
1 1:3 2:1 4:19 5:12 
1 1:2 4:20 5:17 
1 1:2 5:4 
0.7442565349582703 1:10 2:4 5:1 
1 1:2 5:4 
1 1:2 4:2 5:12 
1 1:2 4:19 5:13 
1 1:2 4:2 5:2 
1 1:3 4:19 5:10 
1 1:8 3:2 5:2 
1 1:3 2:1 3:3 
1 1:2 5:1 
1 1:5 3:4 5:3 
1 1:4 2:1 3:4 5:1 
1 1:2 4:22 5:15 
1 1:2 
1 1:2 
1 1:19 3:4 5:1 
1 1:5 3:3 5:5 
1 1:6 3:6 4:2 5:2 
1 1:2 4:1 5:3 
1 1:2 4:12 5:11 
1 1:9 3:1 4:1 
1 1:5 3:1 4:12 5:14 
1 1:4 4:18 5:11 
0.3850814804178573 1:2 4:2 5:3 
1 1:7 2:8 3:4 5:9 
1 1:2 2:3 3:1 4:9 5:9 
0.9990847923664998 1:7 2:9 5:5 
1 1:16 2:3 
1 1:5 4:9 5:8 
1 1:5 3:2 5:1 
1 1:2 
1 1:12 3:1 4:2 5:2 
1 1:24 3:1 4:3 5:2 
1 1:2 5:2 
1 1:3 2:3 3:1 
1 1:3 2:1 3:3 
1 1:6 
1 1:5 
1 1:2 5:3 
1 1:2 4:5 5:4 
1 1:2 
0.6245709246844283 1:2 4:4 5:7 
1 1:2 4:10 5:8 
1 1:4 4:8 5:11 
1 1:3 4:11 5:9 
1 1:2 5:3 
1 1:2 4:6 5:10 
1 1:6 
1 1:4 3:2 5:1 
1 1:5 
1 1:4 3:2 5:1 
1 1:9 5:1 
1 1:2 
1 1:2 
1 1:1 4:2 5:4 
1 1:11 2:4 3:7 
1 1:2 3:2 5:2 
1 1:6 
1 1:7 2:6 3:3 
1 1:3 4:10 5:13 
1 1:5 3:3 4:1 5:1 
1 1:4 5:1 
1 1:2 
1 1:2 4:4 5:10 
1 1:1 5:3 
1 1:4 4:9 5:9 
1 1:2 4:8 5:11 
1 1:2 4:9 5:11 
1 1:11 2:3 4:4 
1 1:10 3:1 4:4 5:1 
0.7732200865158547 1:10 2:3 4:3 5:1 
1 1:8 3:2 4:2 
1 1:12 2:2 4:2 
1 1:4 
1 1:5 3:1 4:1 
1 1:20 3:1 4:2 5:2 
1 1:12 2:2 3:1 4:9 5:1 
1 1:9 5:1 
1 1:6 
1 1:4 2:1 
1 1:3 5:2 
1 1:12 2:1 4:3 5:2 
1 1:19 2:1 3:3 4:2 5:3 
1 1:9 
1 1:8 
1 1:8 
1 1:5 4:2 
1 1:13 4:2 5:2 
1 1:15 3:4 4:4 5:3 
1 1:10 2:1 3:2 4:2 5:2 
1 1:7 2:1 3:2 4:2 5:1 
0.9720327582985029 1:2 4:8 5:7 
1 1:9 4:2 
1 1:13 4:2 5:1 
1 1:22 4:3 5:3 
1 1:16 2:3 3:3 4:2 5:2 
1 1:1 4:11 5:6 
1 1:4 4:2 
1 1:4 4:2 
1 1:2 4:2 
1 1:4 4:2 
1 1:8 3:7 
1 1:2 4:2 
1 1:2 4:2 
1 1:6 3:4 
1 1:2 4:2 
1 1:2 4:2 
1 1:2 4:2 
1 1:2 4:2 
1 1:2 4:2 
1 1:2 4:2 
1 1:5 
1 1:4 4:2 
1 1:2 4:2 
1 1:4 4:2 
1 1:2 5:3 
1 1:2 
1 1:2 
1 1:2 
1 1:3 
1 1:12 3:2 5:1 
1 1:16 4:5 5:5 
1 1:1 
1 1:2 
1 1:6 3:3 5:4 
1 1:2 4:3 5:3 
0.7846712944866144 1:10 2:1 5:7 
1 1:1 
0.07400535376376138 1:4 4:8 5:6 
1 1:11 3:1 5:2 
1 1:9 2:1 
1 1:6 3:1 4:18 5:12 
1 1:9 2:4 3:1 5:6 
1 1:5 2:5 3:1 5:2 
1 1:2 5:2 
1 1:9 2:6 3:3 5:2 
0.3898340756273398 1:2 4:6 5:9 
1 1:15 
1 1:2 
1 1:2 
1 1:2 
0.04799740277671635 1:2 4:6 5:5 
1 1:4 4:11 5:9 
1 1:3 4:8 5:4 
1 1:11 2:9 5:4 
1 1:2 5:2 
1 1:2 5:3 
1 1:2 
1 1:2 
1 1:3 5:1 
1 1:3 4:12 5:7 
1 1:9 
1 1:5 3:1 
1 1:2 5:3 
1 1:10 3:2 5:1 
1 1:4 
1 1:14 2:4 5:1 
1 1:3 4:11 5:13 
1 1:1 4:8 5:9 
1 1:2 5:2 
1 1:3 2:1 3:1 4:10 5:7 
1 1:7 3:3 
1 1:7 3:2 5:1 
1 1:7 3:4 5:2 
1 1:2 4:12 5:11 
1 1:8 
1 1:1 3:2 
1 1:9 2:5 3:2 5:2 
1 1:3 2:1 4:10 5:7 
1 1:2 
1 1:1 2:4 3:2 5:1 
1 1:4 3:2 
1 1:13 
1 1:3 4:12 5:11 
1 1:1 4:4 5:9 
1 1:3 3:6 5:1 
1 1:2 5:3 
1 1:2 4:1 5:3 
1 1:14 2:4 3:2 5:1 
1 1:5 
1 1:3 
1 1:2 5:1 
1 1:2 3:2 
1 1:2 5:3 
1 1:2 4:4 5:13 
1 1:2 5:3 
1 1:2 3:2 5:3 
1 1:3 4:11 5:9 
0.9949888277202643 1:11 4:5 5:4 
0.9860740234404481 1:11 2:4 4:3 5:2 
1 1:2 4:8 5:6 
1 1:5 3:2 
1 1:2 4:10 5:9 
0.9989377464843568 1:3 4:2 5:1 
1 1:2 4:6 5:3 
1 1:1 2:1 4:10 5:9 
1 1:14 3:2 
1 1:2 4:7 5:3 
1 1:2 4:10 5:5 
1 1:2 2:1 4:12 5:4 
1 1:5 3:2 5:2 
1 1:2 3:12 5:1 
1 1:2 4:2 5:3 
1 1:2 
1 1:7 3:1 
1 1:7 
0.04801959189798072 1:5 2:4 5:3 
0.8504261527953604 1:3 4:7 5:10 
1 1:4 2:6 3:1 5:2 
0.7045520200255512 1:2 4:4 5:10 
1 1:2 4:12 5:8 
1 1:2 
1 1:2 
1 1:4 2:2 3:3 5:4 
1 1:5 4:12 5:9 
1 1:12 3:1 5:1 
1 1:2 2:1 3:1 4:7 5:3 
1 1:9 4:1 
1 1:5 
1 1:1 4:8 5:10 
1 1:2 4:2 5:5 
1 1:3 
0.9477358233455921 1:7 4:4 5:1 
1 1:3 4:13 5:13 
0.4612404395949318 1:4 5:1 
1 1:3 4:10 5:6 
1 1:2 4:12 5:10 
1 1:3 4:11 5:7 
1 1:3 2:2 3:1 4:1 5:1 
1 1:4 3:3 
1 1:2 4:2 5:3 
1 1:4 4:8 5:10 
1 1:2 2:2 4:8 5:9 
1 1:2 2:2 4:6 5:5 
1 1:2 5:3 
1 1:2 3:1 4:10 5:5 
1 1:9 3:7 4:2 5:1 
0.9015719313676825 1:6 4:1 
1 1:2 5:3 
0.009629595308484389 1:4 2:3 3:1 5:3 
1 1:2 5:3 
1 1:13 3:1 
0.9230387330564567 1:2 4:7 5:10 
1 1:3 4:14 5:14 
1 1:4 4:16 5:13 
1 1:2 5:4 
1 1:2 5:3 
1 1:2 4:10 5:10 
1 1:6 4:4 
1 1:2 4:6 5:3 
1 1:2 4:1 5:3 
1 1:1 4:14 5:8 
1 1:7 
0.7440413669694098 1:4 2:1 5:1 
1 1:6 4:13 5:13 
1 1:2 2:2 5:2 
1 1:1 
1 1:12 4:1 
1 1:2 
1 1:2 
1 1:2 
1 1:2 
0.05065283165153649 1:8 3:1 5:1 
1 1:2 5:3 
1 1:5 3:1 
1 1:2 2:1 3:3 4:10 5:7 
1 1:2 4:16 5:11 
1 1:7 
1 1:4 3:2 4:16 5:11 
1 1:2 4:7 5:2 
1 1:13 2:4 3:1 4:2 5:1 
1 1:2 4:5 5:3 
1 1:7 
1 1:2 4:3 5:3 
1 1:2 4:16 5:15 
1 1:3 4:11 5:10 
1 1:12 3:5 4:1 
1 1:2 3:3 
1 1:7 
1 1:4 2:3 
1 1:3 
1 1:2 5:3 
1 1:8 3:3 5:1 
1 1:1 
1 1:2 
1 1:2 
1 1:2 5:3 
1 1:2 
1 1:2 
1 1:2 4:13 5:15 
1 1:2 5:3 
1 1:2 4:1 5:3 
1 1:4 2:1 3:6 4:2 5:2 
1 1:2 
1 1:1 
1 1:2 4:9 5:11 
0.1778216565762483 1:3 2:1 4:1 5:2 
0.02288812609906366 1:6 3:1 4:2 5:1 
1 1:3 4:16 5:15 
1 1:2 4:8 5:3 
1 1:7 3:3 5:3 
1 1:7 3:3 5:4 
0.9989787610542084 1:7 4:12 5:12 
1 1:2 
0.5806776737335952 1:2 4:7 5:9 
1 1:2 4:4 5:13 
1 1:2 5:3 
1 1:2 5:3 
1 1:4 
1 1:4 4:14 5:6 
1 1:4 3:2 4:3 5:3 
1 1:2 4:2 
0.005128135715389516 1:3 4:8 5:6 
1 1:11 2:9 3:1 5:4 
1 1:14 2:7 
1 1:2 5:3 
1 1:4 3:2 
1 1:7 3:1 
1 1:3 3:3 5:4 
1 1:15 3:3 5:2 
1 1:17 4:1 5:2 
1 1:1 2:1 4:6 5:4 
0.8595094582713356 1:5 4:2 5:1 
1 1:3 
1 1:3 2:1 
1 1:4 4:13 5:11 
1 1:2 
1 1:2 
1 1:2 5:3 
1 1:2 4:14 5:13 
1 1:2 5:3 
1 1:2 
1 1:2 4:1 5:3 
1 1:1 4:12 5:10 
1 1:2 3:1 5:1 
1 1:2 4:12 5:13 
1 1:2 5:3 
1 1:2 3:2 4:14 5:8 
1 1:4 2:1 3:3 5:2 
1 1:2 5:3 
1 1:2 4:2 
1 1:2 4:10 5:11 
1 1:10 2:5 5:1 
0.588778949803264 1:3 2:1 4:2 5:2 
1 1:4 3:1 
1 1:5 3:2 5:1 
1 1:3 3:2 
1 1:3 2:5 5:1 
1 1:1 
1 1:1 4:12 5:6 
1 1:1 2:1 4:15 5:11 
0.3538416129064085 1:5 4:2 5:1 
1 1:2 5:3 
1 1:2 5:3 
1 1:2 3:1 4:2 5:1 
1 1:2 4:4 5:2 
1 1:4 4:2 
1 1:2 5:3 
1 1:2 5:3 
1 1:2 4:2 
1 1:4 4:2 
1 1:4 4:2 
0.985762668947323 1:10 2:3 4:4 5:2 
1 1:8 2:5 3:1 
1 1:4 
0.9778860348659587 1:4 2:4 5:1 
1 1:4 4:12 5:12 
1 1:2 4:1 5:2 
1 1:2 4:6 5:10 
1 1:2 3:1 4:12 5:14 
1 1:2 4:16 5:11 
1 1:2 4:18 5:10 
1 1:2 
1 1:2 
1 1:3 4:18 5:9 
1 1:2 4:12 5:7 
1 1:11 5:2 
1 1:1 
1 1:3 2:1 3:1 5:1 
0.139284047510338 1:8 2:3 3:1 5:1 
1 1:2 
1 1:2 5:3 
0.7169890438761541 1:9 5:1 
1 1:2 5:3 
1 1:8 3:4 4:1 
1 1:8 3:5 5:1 
1 1:1 
0.3219673139688388 1:7 3:2 5:4 
1 1:2 
1 1:7 
1 1:2 4:2 
0.9247447254357688 1:6 
1 1:4 5:1 
1 1:6 
1 1:3 2:2 
1 1:2 5:3 
0.02689717768483379 1:3 4:8 5:6 
1 1:8 3:3 5:1 
1 1:5 2:2 3:1 
1 1:2 
1 1:10 2:1 3:2 4:1 5:2 
0.9690603997681932 1:3 5:2 
1 1:2 5:3 
1 1:6 2:1 3:3 5:1 
1 1:1 
1 1:3 4:14 5:9 
1 1:9 2:1 3:1 5:1 
1 1:15 5:1 
0.9022896240780871 1:3 5:2 
1 1:14 
1 1:7 3:5 4:1 5:2 
1 1:2 4:15 5:12 
1 1:7 2:7 3:4 5:1 
1 1:2 5:3 
0.003746885538633484 1:4 2:3 3:1 5:3 
1 1:2 5:3 
1 1:2 4:12 5:9 
1 1:2 3:1 4:18 5:9 
0.5903523777354747 1:3 4:2 5:2 
0.9983805356925151 1:2 4:20 5:8 
1 1:1 
1 1:2 4:2 
1 1:7 2:6 
1 1:2 5:4 
1 1:2 4:2 5:3 
1 1:14 2:1 4:4 5:2 
1 1:9 
1 1:2 4:2 5:5 
0.07361611759418474 1:3 4:4 5:3 
1 1:2 
1 1:2 5:2 
1 1:6 4:22 5:13 
1 1:2 5:3 
1 1:9 3:3 4:2 5:1 
1 1:2 2:1 
1 1:2 
1 1:16 4:4 5:2 
1 1:17 2:4 3:4 5:3 
1 1:2 4:2 
1 1:8 3:8 5:2 
1 1:2 
1 1:2 2:1 5:1 
1 1:2 5:3 
1 1:9 2:1 
1 1:2 4:2 
1 1:8 2:2 3:3 5:7 
1 1:2 2:1 
1 1:8 
1 1:7 
1 1:2 
1 1:2 3:3 5:1 
1 1:5 
1 1:2 5:3 
0.9773529832588991 1:11 4:2 5:2 
1 1:2 5:3 
1 1:10 2:5 5:1 
1 1:2 
1 1:3 3:1 
1 1:2 4:2 
1 1:2 
1 1:3 3:2 5:2 
1 1:11 2:4 5:1 
1 1:2 4:16 5:11 
1 1:8 
1 1:1 
1 1:11 4:1 
1 1:6 
0.6544919783552565 1:9 5:1 
1 1:2 4:16 5:7 
1 1:2 5:3 
1 1:3 4:16 5:14 
1 1:2 5:3 
1 1:8 2:8 3:9 5:3 
1 1:3 4:16 5:7 
0.3716575134322416 1:4 2:3 5:2 
1 1:1 5:1 
1 1:2 5:3 
1 1:13 4:6 5:1 
1 1:2 4:9 5:10 
1 1:6 4:9 5:12 
0.0204426386930229 1:5 3:2 5:4 
1 1:2 4:1 5:2 
1 1:3 4:16 5:16 
1 1:2 4:2 
1 1:2 3:2 4:2 5:5 
1.262270389785452e-05 1:5 3:1 5:1 
1 1:7 3:2 5:1 
1 1:2 5:3 
1 1:2 4:1 5:3 
1 1:6 3:2 4:15 5:10 
1 1:3 
1 1:2 
1 1:3 2:4 3:4 
1 1:1 
1 1:2 4:10 5:13 
1 1:2 4:12 5:11 
0.9998594340914065 1:5 4:17 5:8 
1 1:4 2:1 4:1 
1 1:5 2:5 5:2 
1 1:5 3:3 5:3 
1 1:2 4:17 5:13 
1 1:5 
0.5721964555637317 1:2 4:4 5:6 
1 1:2 3:4 5:1 
1 1:3 2:1 3:1 
1 1:2 5:3 
1 1:9 
1 1:1 
1 1:5 3:4 5:5 
1 1:2 3:2 5:1 
1 1:4 2:5 3:2 
1 1:2 4:19 5:9 
0.2157493423628439 1:9 3:1 5:2 
0.7586552265252152 1:2 4:2 5:5 
1 1:2 5:3 
1 1:4 3:3 5:4 
1 1:2 3:4 
1 1:2 5:3 
1 1:2 5:3 
1 1:4 3:3 5:4 
1 1:4 3:3 5:5 
1 1:2 3:3 
0.896324640437986 1:5 3:2 5:3 
1 1:2 
0.9906625097000222 1:2 5:4 
1 1:2 5:2 
0.930805319475103 1:7 
0.02777081545520656 1:3 5:4 
1 1:2 5:4 
1 1:2 5:4 
1 1:2 5:4 
1 1:2 5:4 
1 1:2 5:4 
1 1:2 5:4 
1 1:2 5:4 
1 1:2 5:4 
1 1:2 5:4 
1 1:2 5:4 
1 1:2 5:4 
0.3165109623227835 1:3 5:4 
1 1:2 5:4 
1 1:2 5:4 
1 1:2 5:4 
1 1:2 5:4 
1 1:2 5:4 
1 1:2 5:4 
1 1:2 5:4 
1 1:2 5:4 
1 1:2 5:4 
1 1:2 5:4 
1 1:2 5:4 
1 1:11 2:1 3:6 5:1 
1 1:2 5:4 
1 1:2 5:4 
1 1:2 5:4 
1 1:2 5:4 
1 1:2 5:4 
1 1:2 5:4 
1 1:2 5:4 
1 1:2 5:4 
1 1:2 5:4 
1 1:2 5:4 
1 1:2 5:4 
1 1:2 5:4 
1 1:2 5:4 
1 1:2 5:4 
1 1:2 5:4 
1 1:2 5:4 
1 1:2 5:4 
1 1:5 2:1 3:7 5:4 
1 1:2 4:16 5:11 
1 1:3 4:10 5:12 
1 1:3 4:9 5:13 
1 1:2 4:18 5:7 
1 1:2 4:1 5:3 
1 1:2 4:10 5:5 
1 1:2 2:1 
0.9578118631364808 1:3 2:2 5:1 
1 1:8 3:8 5:3 
1 1:2 4:18 5:14 
0.9255573300503122 1:8 
1 1:11 2:1 
0.9312998152531654 1:2 4:1 5:4 
1 1:2 5:2 
0.02413749633746534 1:3 3:1 4:5 5:5 
1 1:2 2:1 5:1 
1 1:2 
1 1:2 4:2 
1 1:2 5:3 
0.01983852169508703 1:7 
1 1:2 5:3 
1 1:3 
1 1:4 
1 1:2 5:3 
1 1:8 3:3 4:3 
1 1:2 4:19 5:14 
1 1:3 4:14 5:11 
1 1:2 3:2 
1 1:9 3:1 4:1 
0.9549208016861995 1:6 2:4 5:1 
1 1:16 2:4 3:3 5:4 
1 1:4 
1 1:4 
1 1:4 
1 1:4 
1 1:4 
1 1:2 
1 1:2 5:2 
1 1:4 
1 1:4 
1 1:4 
1 1:4 
1 1:5 3:1 
1 1:9 2:4 3:2 5:1 
1 1:12 3:1 4:1 
1 1:2 4:2 5:12 
1 1:2 4:2 
1 1:2 5:4 
0.9776060812466416 1:2 5:4 
1 1:4 
1 1:5 3:2 4:2 
1 1:5 4:14 5:12 
1 1:2 5:2 
1 1:3 4:11 5:9 
0.9815176045117135 1:2 4:2 5:5 
1 1:1 2:1 4:8 5:6 
1 1:1 4:1 5:1 
1 1:3 2:1 4:10 5:14 
1 1:7 3:4 5:6 
-1 1:7 3:2 
-1 1:5 2:1 3:3 5:1 
-1 1:3 2:1 3:2 
-1 1:4 2:2 3:3 5:2 
-1 1:6 2:1 3:2 
-1 1:6 2:1 3:2 5:1 
-1 1:4 4:12 5:10 
-1 1:1 4:4 5:3 
-1 1:6 4:9 5:9 
-1 1:3 4:8 5:11 
-1 1:2 2:2 3:2 5:2 
-1 1:3 4:12 5:10 
-1 1:2 2:1 3:4 
-1 1:8 3:2 4:3 
-1 1:2 4:13 5:8 
-1 1:6 5:1 
-1 1:5 2:1 3:4 5:1 
-1 1:3 4:20 5:13 
-1 1:6 2:1 3:2 5:4 
-1 1:2 5:2 
-1 1:2 4:2 
-1 1:20 4:5 5:2 
-1 1:4 4:17 5:12 
-1 1:14 4:5 5:3 
-1 1:2 4:4 5:3 
-1 1:2 4:16 5:13 
-1 1:3 2:2 4:20 5:10 
-1 1:2 4:20 5:13 
-1 1:2 4:2 5:1 
-1 1:2 2:1 5:1 
-1 1:2 4:14 5:14 
-1 1:7 2:1 3:3 5:2 
-1 1:6 3:7 5:1 
-1 1:4 4:1 5:6 
-1 1:3 2:4 
-1 1:2 4:10 5:15 
-1 1:2 4:1 5:1 
-1 1:2 3:1 4:16 5:12 
-1 1:2 4:2 5:2 
-1 1:6 
-1 1:2 4:17 5:11 
-1 1:15 5:2 
-1 1:2 5:4 
-1 1:2 2:2 3:8 5:3 
-1 1:2 4:2 
-1 1:2 4:18 5:13 
-1 1:9 4:3 
-1 1:7 2:1 5:1 
-1 1:2 4:19 5:12 
-1 1:2 4:17 5:7 
-1 4:6 5:6 
-1 1:3 5:9 
-1 1:14 3:2 5:1 
-1 1:3 5:1 
-1 1:2 2:2 3:2 
-1 1:2 5:4 
-1 1:2 5:4 
-1 1:7 3:2 5:2 
-1 1:4 3:1 5:1 
-1 1:6 2:10 5:4 
-1 1:2 5:1 
-1 1:1 5:1 
-1 1:2 4:20 5:11 
-1 1:2 3:1 5:6 
-1 1:2 4:4 5:8 
-1 1:2 4:13 5:6 
-1 1:2 4:2 
-1 1:5 2:3 5:6 
-1 1:2 3:1 4:10 5:16 
-1 1:2 5:3 
-1 1:3 4:6 5:12 
-1 1:7 5:2 
-1 1:3 4:4 5:1 
-1 1:1 
-1 1:2 
-1 1:2 4:2 
-1 1:2 4:2 
-1 1:12 2:2 4:4 5:2 
-1 1:14 3:1 4:2 5:2 
-1 1:6 
-1 1:4 5:5 
-1 1:3 4:1 
-1 1:8 5:2 
-1 1:4 
-1 1:3 4:5 5:2 
-1 1:2 5:3 
-1 1:2 4:4 5:9 
-1 1:2 5:3 
-1 1:2 5:3 
-1 1:1 2:1 4:4 5:4 
-1 1:10 
-1 1:1 5:1 
-1 1:6 3:1 
-1 1:9 
-1 1:4 3:1 4:6 5:8 
-1 1:2 4:11 5:9 
-1 1:5 3:2 4:1 5:5 
-1 1:2 4:17 5:15 
-1 1:7 2:3 5:3 
-1 1:7 2:5 5:2 
-1 1:2 4:11 5:10 
-1 1:6 2:3 5:1 
-1 1:4 4:14 5:7 
-1 1:5 3:1 5:5 
-1 1:3 2:5 3:12 
-1 1:2 
-1 1:6 2:1 5:1 
-1 1:3 2:5 5:1 
-1 1:8 
-1 1:6 4:7 5:8 
-1 1:6 5:1 
-1 1:2 4:16 5:8 
-1 1:5 3:1 4:2 
-1 1:2 4:16 5:7 
-1 1:2 5:3 
-1 1:2 4:8 5:3 
-1 1:9 3:4 
-1 1:2 4:16 5:13 
-1 1:2 4:9 5:9 
-1 1:7 
-1 1:4 
-1 1:2 4:4 5:9 
-1 1:8 2:5 5:2 
-1 1:4 3:1 5:3 
-1 1:3 4:9 5:13 
-1 1:1 5:2 
-1 1:2 4:4 5:4 
-1 1:11 2:4 3:10 4:2 
-1 1:7 4:2 5:1 
-1 1:9 2:4 3:6 4:3 5:1 
-1 1:7 2:2 
-1 1:3 
-1 1:8 2:7 3:2 4:3 5:2 
-1 1:4 4:3 5:2 
-1 1:15 2:1 3:2 4:6 5:3 
-1 1:11 3:2 4:3 5:2 
-1 1:5 2:1 5:1 
-1 1:8 4:2 
-1 1:5 4:1 5:1 
-1 1:9 5:1 
-1 1:7 
-1 1:14 3:4 4:4 5:2 
-1 1:14 4:5 5:4 
-1 1:23 2:3 3:6 4:2 
-1 1:13 3:1 4:2 
-1 1:24 3:2 4:4 5:1 
-1 1:9 3:4 4:2 5:2 
-1 1:7 4:2 5:1 
-1 1:9 4:4 5:3 
-1 1:13 4:2 5:2 
-1 1:5 5:3 
-1 1:12 3:3 5:2 
-1 1:14 2:2 3:17 5:1 
-1 1:12 2:2 3:15 
-1 1:11 4:1 
-1 1:7 3:3 
-1 1:4 4:9 5:12 
-1 1:16 3:1 4:3 5:1 
-1 1:19 3:1 4:3 5:2 
-1 1:14 2:1 3:4 4:1 5:2 
-1 1:12 2:1 3:4 4:1 5:1 
-1 1:12 2:1 3:3 4:1 5:2 
-1 1:11 2:1 3:3 4:1 5:1 
-1 1:4 4:2 
-1 1:2 4:2 
-1 1:2 4:2 
-1 1:2 4:2 
-1 1:3 3:3 4:4 5:1 
-1 1:4 4:2 
-1 1:2 4:2 5:3 
-1 1:3 4:12 5:7 
-1 1:4 4:2 
-1 1:4 4:2 
-1 1:4 4:2 
-1 1:4 4:2 5:1 
-1 1:2 4:2 
-1 1:2 4:2 
-1 1:3 
-1 1:2 2:1 
-1 1:8 
-1 1:2 4:6 5:6 
-1 1:2 4:2 5:8 
-1 1:5 4:9 5:4 
-1 1:6 4:2 5:1 
-1 1:8 3:1 5:2 
-1 1:5 3:2 4:2 
-1 1:3 4:12 5:13 
-1 1:3 4:1 5:3 
-1 1:8 3:2 
-1 1:3 4:6 5:5 
-1 1:7 2:2 3:1 5:2 
-1 1:2 4:9 5:6 
-1 1:7 2:1 5:1 
-1 1:8 3:1 5:1 
-1 1:2 4:8 5:6 
-1 1:2 5:3 
-1 1:2 5:3 
-1 1:2 4:12 5:6 
-1 1:4 
-1 1:7 2:3 3:4 
-1 1:10 
-1 1:19 2:2 3:2 4:2 5:2 
-1 1:6 5:1 
-1 1:5 4:11 5:10 
-1 1:2 5:3 
-1 1:2 4:4 5:9 
-1 1:2 5:3 
-1 1:4 4:18 5:12 
-1 1:2 5:3 
-1 1:6 2:5 3:5 5:2 
-1 1:2 3:1 4:13 5:8 
-1 1:8 2:5 3:2 5:3 
-1 1:2 5:3 
-1 1:3 5:2 
-1 1:2 4:10 5:13 
-1 1:2 4:6 5:11 
-1 1:6 
-1 1:1 
-1 1:9 
-1 1:2 4:2 5:5 
-1 1:4 4:15 5:15 
-1 1:2 4:14 5:4 
-1 1:8 2:3 3:2 5:2 
-1 1:2 4:4 5:3 
-1 1:4 4:9 5:9 
-1 1:2 4:14 5:8 
-1 1:5 2:4 
-1 1:1 5:3 
-1 1:2 5:3 
-1 1:9 
-1 1:1 4:7 5:11 
-1 1:2 4:6 5:7 
-1 1:9 
-1 1:1 
-1 1:2 4:2 5:3 
-1 1:2 4:7 5:5 
-1 1:2 4:10 5:7 
-1 1:4 3:6 5:2 
-1 1:2 4:12 5:6 
-1 1:2 4:14 5:7 
-1 1:1 
-1 1:5 4:14 5:11 
-1 1:6 5:1 
-1 1:12 2:1 3:1 5:2 
-1 1:8 2:2 3:2 
-1 1:2 4:12 5:9 
-1 1:3 4:9 5:7 
-1 1:11 3:2 
-1 1:2 4:11 5:11 
-1 1:2 4:2 5:4 
-1 1:5 5:1 
-1 1:1 4:9 5:5 
-1 1:2 4:13 5:12 
-1 1:3 4:9 5:7 
-1 1:17 2:3 3:4 5:3 
-1 1:2 4:6 5:9 
-1 1:8 3:1 
-1 1:2 5:3 
-1 1:1 4:10 5:12 
-1 1:9 4:2 5:1 
-1 1:4 5:1 
-1 1:2 4:20 5:10 
-1 1:1 
-1 1:2 4:6 5:8 
-1 1:7 3:2 5:2 
-1 1:3 4:3 5:4 
-1 1:2 4:8 5:10 
-1 1:2 4:12 5:7 
-1 1:2 2:6 5:4 
-1 1:6 2:1 5:3 
-1 1:2 5:3 
-1 1:2 5:3 
-1 1:3 3:2 5:1 
-1 1:2 
-1 1:2 
-1 1:2 
-1 1:2 
-1 1:4 
-1 1:2 4:5 5:6 
-1 1:3 4:10 5:12 
-1 1:12 3:5 5:1 
-1 1:2 4:17 5:12 
-1 1:2 4:8 5:13 
-1 1:2 5:3 
-1 1:3 4:2 5:1 
-1 1:2 4:4 5:4 
-1 1:4 4:17 5:8 
-1 1:2 4:3 5:4 
-1 1:3 4:2 5:3 
-1 1:2 4:6 5:13 
-1 1:2 
-1 1:3 4:2 5:3 
-1 1:2 2:1 4:7 5:4 
-1 1:4 4:9 5:10 
-1 1:2 2:8 5:2 
-1 1:2 5:3 
-1 1:10 3:2 
-1 1:2 4:16 5:12 
-1 1:2 5:3 
-1 1:4 3:2 
-1 1:6 2:5 5:2 
-1 1:6 3:2 5:3 
-1 1:6 
-1 1:2 2:2 5:6 
-1 1:2 4:3 5:3 
-1 1:2 4:16 5:15 
-1 1:2 4:1 5:3 
-1 1:2 5:3 
-1 1:2 4:16 5:8 
-1 1:2 
-1 1:2 
-1 1:7 2:1 5:1 
-1 1:3 4:2 5:3 
-1 1:2 4:12 5:12 
-1 1:1 
-1 1:1 
-1 1:2 2:1 3:2 4:6 5:1 
-1 1:2 
-1 1:2 5:3 
-1 1:4 2:4 5:1 
-1 1:16 2:3 4:6 5:2 
-1 1:10 2:6 4:2 5:3 
-1 1:2 
-1 1:2 5:3 
-1 1:10 5:1 
-1 1:4 3:1 4:4 5:10 
-1 1:3 4:1 5:3 
-1 1:2 4:4 5:4 
-1 1:8 2:2 3:2 5:1 
-1 1:11 3:5 4:1 5:1 
-1 1:3 4:8 5:10 
-1 1:2 2:1 4:9 5:3 
-1 1:25 4:3 5:1 
-1 1:4 
-1 1:4 
-1 1:13 4:2 5:3 
-1 1:8 3:3 5:1 
-1 1:6 2:1 3:2 
-1 1:2 5:3 
-1 1:2 4:1 5:3 
-1 1:2 4:2 5:3 
-1 1:2 5:3 
-1 1:6 3:1 5:2 
-1 1:2 4:2 5:4 
-1 1:3 3:1 
-1 1:7 3:8 4:1 5:1 
-1 1:3 4:1 5:3 
-1 1:2 4:12 5:6 
-1 1:2 4:10 5:13 
-1 1:5 3:2 4:2 5:1 
-1 1:14 2:1 
-1 1:8 5:1 
-1 1:3 4:2 5:3 
-1 1:2 
-1 1:2 4:1 5:3 
-1 1:2 5:3 
-1 1:2 5:3 
-1 1:4 2:2 5:1 
-1 1:2 4:2 5:3 
-1 1:5 3:1 4:9 5:10 
-1 1:16 5:2 
-1 1:2 5:3 
-1 1:12 2:3 4:3 5:3 
-1 1:3 4:8 5:7 
-1 1:2 4:6 5:6 
-1 1:2 
-1 1:2 5:3 
-1 1:4 2:2 3:1 5:1 
-1 1:7 
-1 1:4 4:3 5:4 
-1 1:8 2:2 3:1 
-1 1:3 
-1 1:7 3:1 
-1 1:3 2:3 3:2 5:4 
-1 1:7 3:1 
-1 1:2 5:3 
-1 1:2 5:4 
-1 1:9 4:2 5:1 
-1 1:14 2:7 3:6 5:2 
-1 1:18 3:6 5:2 
-1 1:8 
-1 1:8 
-1 1:7 3:2 4:2 5:4 
-1 1:3 
-1 1:2 4:3 5:3 
-1 1:11 3:4 5:2 
-1 1:3 2:1 3:2 
-1 1:6 2:7 5:4 
-1 1:9 2:1 3:5 4:3 
-1 1:12 2:6 5:1 
-1 1:5 3:8 5:1 
-1 1:2 4:1 5:3 
-1 1:8 2:3 5:2 
-1 1:7 4:12 5:10 
-1 1:4 2:1 
-1 1:2 5:3 
-1 1:3 4:2 5:3 
-1 1:2 4:2 5:3 
-1 1:4 
-1 1:2 4:13 5:7 
-1 1:2 4:10 5:6 
-1 1:2 4:6 5:3 
-1 1:3 4:1 5:2 
-1 1:1 
-1 1:6 3:9 5:1 
-1 1:2 5:2 
-1 1:5 3:1 4:1 5:5 
-1 1:5 2:1 4:3 5:3 
-1 1:4 3:4 
-1 1:2 4:1 5:6 
-1 1:2 4:17 5:11 
-1 1:3 4:5 5:3 
-1 1:3 4:3 5:4 
-1 1:4 2:3 5:2 
-1 1:1 
-1 1:2 
-1 1:2 
-1 1:2 
-1 1:2 
-1 1:3 4:3 5:2 
-1 1:2 5:3 
-1 1:3 4:4 5:2 
-1 1:2 
-1 1:2 4:3 5:2 
-1 1:2 2:2 5:2 
-1 1:8 2:3 
-1 1:2 2:1 
-1 1:2 
-1 1:2 5:1 
-1 1:6 3:2 5:3 
-1 1:2 4:12 5:6 
-1 1:2 4:5 5:4 
-1 1:5 3:1 4:1 5:2 
-1 1:3 4:4 5:8 
-1 1:2 4:6 5:10 
-1 1:2 4:6 5:4 
-1 1:2 4:2 5:3 
-1 1:7 3:6 
-1 1:2 5:3 
-1 1:1 
-1 1:14 
-1 1:2 
-1 1:7 3:4 5:4 
-1 1:2 5:3 
-1 1:3 3:1 5:1 
-1 1:2 
-1 1:2 4:14 5:9 
-1 1:2 4:6 5:3 
-1 1:2 5:2 
-1 1:6 
-1 1:3 
-1 1:2 4:3 5:3 
-1 1:2 4:3 5:4 
-1 1:4 3:1 5:2 
-1 1:2 4:7 5:5 
-1 1:2 4:7 5:11 
-1 1:2 
-1 1:2 
-1 1:15 2:4 4:1 5:3 
-1 1:7 2:1 3:3 4:2 5:1 
-1 1:7 4:1 5:1 
-1 1:4 5:1 
-1 1:6 3:5 5:4 
-1 1:2 4:2 
-1 1:8 2:2 3:8 4:1 5:2 
-1 1:2 4:20 5:7 
-1 1:2 4:3 5:13 
-1 1:6 4:15 5:11 
-1 1:2 4:3 5:4 
-1 1:2 4:16 5:11 
-1 1:4 3:1 
-1 1:2 4:1 5:3 
-1 1:2 4:14 5:13 
-1 1:2 2:5 3:4 
-1 1:2 5:3 
-1 1:9 
-1 1:6 
-1 1:10 3:1 
-1 1:4 2:1 3:3 4:2 
-1 1:4 2:1 3:3 
-1 1:2 4:20 5:11 
-1 1:2 
-1 1:2 
-1 1:2 4:2 5:5 
-1 1:3 5:1 
-1 1:5 2:1 3:11 5:3 
-1 1:1 
-1 1:1 4:15 5:5 
-1 1:11 3:2 
-1 1:2 4:18 5:11 
-1 1:2 4:8 5:8 
-1 1:8 4:2 5:6 
-1 1:5 4:4 5:3 
-1 1:2 4:6 5:9 
-1 1:5 5:1 
-1 1:6 2:4 5:1 
-1 1:3 4:10 5:7 
-1 1:10 3:11 4:1 5:2 
-1 1:2 
-1 1:2 
-1 1:2 5:5 
-1 1:3 3:5 4:1 
-1 1:2 
-1 1:8 2:4 5:1 
-1 1:2 4:2 5:5 
-1 1:3 4:10 5:11 
-1 1:2 5:3 
-1 1:3 
-1 1:2 
-1 1:2 
-1 1:5 3:1 4:1 
-1 1:2 
-1 1:2 
-1 1:2 
-1 1:2 
-1 1:4 2:1 3:4 5:4 
-1 1:2 3:1 4:5 5:3 
-1 1:3 3:1 4:1 5:1 
-1 1:10 2:1 3:3 
-1 1:4 3:4 5:2 
-1 1:2 
-1 1:3 2:1 
-1 1:3 4:1 
-1 1:2 5:3 
-1 1:2 2:5 
-1 1:7 2:10 3:2 5:6 
-1 1:4 2:2 3:1 
-1 1:3 3:2 
-1 1:5 3:3 5:3 
-1 1:2 5:4 
-1 1:2 5:4 
-1 1:2 5:4 
-1 1:2 5:4 
-1 1:2 5:4 
-1 1:3 5:4 
-1 1:3 5:4 
-1 1:2 5:4 
-1 1:2 5:4 
-1 1:2 5:4 
-1 1:2 5:4 
-1 1:2 5:4 
-1 1:2 5:4 
-1 1:2 5:4 
-1 1:2 5:4 
-1 1:2 5:4 
-1 1:2 5:4 
-1 1:2 5:3 
-1 1:2 5:4 
-1 1:2 4:10 5:7 
-1 1:2 5:4 
-1 1:2 5:4 
-1 1:3 4:15 5:12 
-1 1:2 4:11 5:12 
-1 1:2 
-1 1:2 
-1 1:2 
-1 1:2 5:4 
-1 1:2 5:4 
-1 1:2 5:4 
-1 1:2 5:4 
-1 1:2 5:4 
-1 1:2 5:4 
-1 1:2 5:4 
-1 1:2 5:4 
-1 1:2 4:15 5:13 
-1 1:2 5:4 
-1 1:2 5:4 
-1 1:2 5:4 
-1 1:2 5:4 
-1 1:2 5:4 
-1 1:2 5:4 
-1 1:2 5:4 
-1 1:6 5:2 
-1 1:2 5:1 
-1 1:2 4:17 5:5 
-1 1:2 4:1 5:3 
-1 1:2 4:15 5:9 
-1 1:5 4:9 5:6 
-1 1:8 3:1 
-1 1:2 4:19 5:7 
-1 1:2 4:1 5:3 
-1 1:1 
-1 1:2 
-1 1:3 2:1 3:3 5:3 
-1 1:6 
-1 1:9 2:4 3:1 4:1 5:1 
-1 1:4 4:3 5:6 
-1 1:2 4:2 
-1 1:2 2:2 
-1 1:1 
-1 1:11 
-1 1:5 
-1 1:2 
-1 1:1 
-1 1:8 2:6 3:1 5:3 
-1 1:6 3:1 
-1 1:2 5:3 
-1 1:2 3:1 4:2 
-1 1:2 4:2 
-1 1:2 2:1 3:2 4:6 5:9 
-1 1:10 3:3 5:2 
-1 1:5 3:3 5:1 
-1 1:12 
-1 1:6 
-1 1:9 2:1 5:1 
-1 1:4 4:8 5:8 
-1 1:3 4:15 5:9 
-1 1:2 5:3 
-1 1:3 4:1 5:3 
-1 1:2 4:3 5:3 
-1 1:2 4:16 5:6 
-1 1:6 4:9 5:10 
-1 1:2 4:22 5:10 
-1 1:10 2:1 
-1 1:3 
-1 1:2 4:17 5:11 
-1 1:6 3:8 4:1 
-1 1:3 4:16 5:12 
-1 1:5 4:2 5:1 
-1 1:2 2:1 
-1 1:6 4:13 5:15 
-1 1:7 2:4 3:2 5:3 
-1 1:3 4:2 5:6 
-1 1:7 
-1 1:4 
-1 1:4 
-1 1:4 5:2 
-1 1:4 
-1 1:2 
-1 1:4 5:2 
-1 1:4 
-1 1:4 
-1 1:4 
-1 1:4 
-1 1:4 
-1 1:4 
-1 1:4 
-1 1:4 
-1 1:9 4:8 5:2 
-1 1:9 4:7 5:2 
-1 1:2 5:4 
-1 1:2 5:2 
-1 1:1 2:1 4:1 5:3 
-1 1:2 
-1 1:7 2:3 3:6 4:1 5:5 
-1 1:2 4:7 5:4 
-1 1:2 5:4 
-1 1:1 
-1 1:3 5:1 
-1 1:3 3:3 5:2 
-1 1:2 2:4 3:1 4:1 5:1 
-1 1:2 4:18 5:8 
-1 1:2 4:4 5:3 
-1 1:2 4:2 5:3 
-1 1:2 4:14 5:8 
-1 1:3 2:1 4:7 5:2 
-1 1:5 3:2 
-1 1:1 4:1 5:1 
-1 1:3 3:3 5:6 
