svm_type c_svc
kernel_type linear
nr_class 2
total_sv 1203
rho -0.395865
label 1 -1
nr_sv 630 573
SV
0.4669044486576919 144:1 819:1 1421:1 1470:1 
1 1415:1 
0.4665327845909456 935:1 1014:1 1415:1 
1 1415:1 
0.1144346436827899 488:1 581:1 701:1 765:1 777:1 841:1 1191:1 1229:1 1417:1 1432:1 1437:1 1656:1 1670:1 1907:1 1917:1 2424:1 2514:1 2640:1 2817:1 2947:1 2950:1 
0.4621184073000913 4:1 35:1 43:1 57:1 392:1 722:1 758:1 841:1 918:1 937:1 975:1 1093:1 1170:1 1229:1 1265:1 1346:1 1449:1 1740:1 1882:1 1907:1 1963:1 2228:1 2909:1 
1 43:1 57:1 431:1 607:1 933:1 1425:1 1449:1 1740:1 1963:1 2428:1 2947:1 
1 1172:1 1194:1 1899:1 
0.1483140532211428 368:1 438:1 504:1 804:1 1172:1 1425:1 1466:1 1488:1 1623:1 1655:1 1662:1 1738:1 1843:1 1945:1 2013:1 2035:1 2046:1 2139:1 2291:1 2382:1 2389:1 2429:1 2514:1 2751:1 
1 4:1 43:1 57:1 488:1 841:1 918:1 1346:1 1449:1 1725:1 1740:1 1882:1 1963:1 2139:1 2228:1 
0.3413340454179311 42:1 369:1 488:1 591:1 785:1 883:1 1132:1 1148:1 1314:1 1330:1 1425:1 1470:1 1719:1 1869:1 1918:1 2423:1 2570:1 2771:1 2778:1 2794:1 
0.6890539775807848 4:1 35:1 43:1 57:1 607:1 758:1 765:1 918:1 1346:1 1425:1 1449:1 1740:1 1882:1 2139:1 2141:1 2228:1 2255:1 2484:1 2685:1 2714:1 2837:1 2947:1 
0.2936674187009851 35:1 168:1 237:1 438:1 535:1 869:1 978:1 997:1 1506:1 1657:1 1662:1 1695:1 1716:1 1740:1 1909:1 2046:1 2047:1 2133:1 2209:1 2317:1 2424:1 2429:1 2495:1 2514:1 2571:1 2605:1 2887:1 
0.9142640989833434 4:1 43:1 57:1 195:1 228:1 272:1 488:1 918:1 1378:1 1402:1 1425:1 1449:1 1740:1 1882:1 1892:1 1963:1 2046:1 2139:1 2228:1 2312:1 2573:1 2583:1 2709:1 2947:1 
0.3006347352802762 39:1 383:1 410:1 774:1 913:1 938:1 1011:1 1119:1 1261:1 1425:1 1635:1 1662:1 1670:1 1805:1 1833:1 1917:1 2089:1 2110:1 2181:1 2236:1 2514:1 
1 4:1 43:1 488:1 607:1 758:1 918:1 1346:1 1449:1 1740:1 1801:1 1879:1 1882:1 1963:1 2947:1 
1 1662:1 1882:1 2598:1 
1 488:1 933:1 1265:1 1425:1 1963:1 
1 1415:1 
0.2605625260988753 80:1 1413:1 1670:1 1920:1 2041:1 2115:1 2415:1 2424:1 2514:1 2739:1 
0.4591237854468212 219:1 935:1 
1 4:1 35:1 43:1 57:1 607:1 758:1 910:1 918:1 1346:1 1449:1 1740:1 1882:1 2518:1 
1 331:1 1081:1 1425:1 1662:1 1670:1 2025:1 
0.1919451659173539 42:1 201:1 337:1 488:1 913:1 1050:1 1154:1 1163:1 1355:1 1384:1 1425:1 1426:1 1488:1 1662:1 1670:1 1764:1 1917:1 1927:1 2067:1 2083:1 2201:1 2254:1 2332:1 2473:1 2514:1 2629:1 2714:1 
1 
1 1415:1 
1 4:1 35:1 43:1 57:1 607:1 841:1 1346:1 1425:1 1449:1 1740:1 1882:1 1963:1 2139:1 2141:1 2228:1 2428:1 2714:1 2947:1 
0.003530571281815103 42:1 69:1 131:1 305:1 334:1 503:1 689:1 712:1 744:1 769:1 828:1 877:1 897:1 913:1 925:1 965:1 1047:1 1075:1 1309:1 1329:1 1402:1 1425:1 1557:1 1634:1 1673:1 1754:1 1891:1 1975:1 2123:1 2563:1 2714:1 2870:1 
0.02726806044271703 133:1 198:1 262:1 337:1 352:1 365:1 438:1 580:1 748:1 865:1 939:1 940:1 1102:1 1355:1 1425:1 1488:1 1568:1 1612:1 1647:1 1673:1 1780:1 1867:1 1975:1 2123:1 2149:1 2168:1 2351:1 2536:1 2583:1 2657:1 2738:1 2751:1 2770:1 
0.2469697780246309 492:1 1115:1 1119:1 1738:1 1926:1 2494:1 2714:1 
0.9950196855871261 4:1 35:1 43:1 57:1 90:1 228:1 272:1 607:1 765:1 841:1 918:1 1346:1 1449:1 1603:1 1740:1 1882:1 2141:1 2428:1 2947:1 
0.0798441268960569 4:1 35:1 43:1 139:1 387:1 660:1 758:1 765:1 910:1 975:1 1172:1 1346:1 1449:1 1740:1 1882:1 2139:1 2141:1 2228:1 2428:1 2499:1 2518:1 2740:1 2947:1 
0.1693020950459487 214:1 535:1 662:1 705:1 786:1 1098:1 1449:1 2090:1 2446:1 2494:1 2526:1 2738:1 2778:1 2794:1 2807:1 2953:1 
0.4981035381416363 35:1 53:1 141:1 190:1 488:1 745:1 764:1 925:1 1140:1 1425:1 1536:1 1781:1 1828:1 1867:1 1874:1 1975:1 2123:1 2424:1 2431:1 2650:1 2824:1 
1 42:1 488:1 1425:1 1507:1 1943:1 2120:1 2424:1 2514:1 
0.09580141739203477 131:1 224:1 252:1 282:1 343:1 362:1 440:1 488:1 519:1 522:1 582:1 726:1 934:1 1269:1 1374:1 1402:1 1425:1 1488:1 1557:1 1651:1 1662:1 1670:1 1744:1 1815:1 1850:1 2069:1 2246:1 2259:1 2355:1 2470:1 2503:1 2820:1 2898:1 2915:1 2933:1 
0.1362535649969253 42:1 137:1 139:1 285:1 385:1 594:1 832:1 925:1 930:1 1186:1 1425:1 1649:1 1670:1 1673:1 1735:1 1759:1 2120:1 2128:1 2183:1 2201:1 2353:1 2459:1 2514:1 2518:1 2584:1 2663:1 2685:1 2748:1 2760:1 2866:1 2900:1 
0.3056298947416595 169:1 947:1 1415:1 
1 4:1 43:1 90:1 841:1 918:1 933:1 1346:1 1425:1 1449:1 1662:1 1740:1 1882:1 2124:1 2140:1 2714:1 2947:1 
0.01463408445935667 42:1 97:1 328:1 347:1 465:1 514:1 833:1 920:1 991:1 998:1 1005:1 1072:1 1201:1 1225:1 1314:1 1443:1 1480:1 1665:1 1674:1 1702:1 1731:1 1781:1 1812:1 1847:1 2281:1 2317:1 2424:1 2467:1 2701:1 2955:1 
0.06948002212541889 1258:1 1359:1 1374:1 1425:1 1446:1 1662:1 1910:1 2165:1 2233:1 2495:1 2537:1 
0.7935605816830331 1379:1 1415:1 
1 4:1 43:1 57:1 90:1 841:1 918:1 1346:1 1425:1 1449:1 1740:1 1882:1 1963:1 2139:1 2228:1 2428:1 2714:1 2947:1 
1 43:1 90:1 115:1 431:1 758:1 918:1 1346:1 1425:1 1449:1 1740:1 1882:1 1907:1 1963:1 2141:1 2228:1 2714:1 
0.6933586418224432 43:1 408:1 765:1 1487:1 1511:1 2139:1 2141:1 
1 1145:1 1319:1 2444:1 2456:1 
1 331:1 910:1 1081:1 1662:1 2022:1 2025:1 
0.4133844500690119 1178:1 1926:1 2886:1 
0.2424906960811076 42:1 131:1 144:1 343:1 362:1 388:1 519:1 583:1 602:1 705:1 750:1 775:1 925:1 1006:1 1269:1 1425:1 1556:1 1662:1 1670:1 1850:1 1891:1 2514:1 2683:1 2820:1 2915:1 
1 331:1 910:1 1081:1 1425:1 2022:1 2025:1 2514:1 
0.1659987985077705 432:1 484:1 717:1 969:1 971:1 1402:1 1447:1 1449:1 1585:1 1662:1 1670:1 1688:1 2046:1 2143:1 2317:1 2381:1 2476:1 2514:1 2522:1 2580:1 2739:1 2751:1 2902:1 
0.6040290510359291 4:1 43:1 408:1 431:1 758:1 1150:1 1346:1 1449:1 1740:1 1882:1 1963:1 2141:1 2197:1 2228:1 2947:1 
0.06092730871835163 42:1 589:1 643:1 1145:1 1425:1 1428:1 1568:1 1617:1 1655:1 1660:1 1662:1 2089:1 2132:1 2293:1 2395:1 2852:1 2855:1 
0.1600833413934537 31:1 431:1 488:1 492:1 531:1 571:1 694:1 722:1 791:1 819:1 852:1 933:1 998:1 1191:1 1265:1 1449:1 1670:1 1740:1 1818:1 1844:1 1882:1 1963:1 2021:1 2133:1 2886:1 2947:1 
0.4902801617745378 4:1 43:1 228:1 431:1 722:1 758:1 765:1 910:1 918:1 1172:1 1449:1 1740:1 1882:1 1963:1 2139:1 2141:1 2228:1 2265:1 2499:1 2518:1 2947:1 
1 57:1 1178:1 1425:1 1444:1 1738:1 1740:1 1926:1 
1 4:1 43:1 57:1 228:1 431:1 607:1 722:1 758:1 765:1 918:1 1346:1 1449:1 1740:1 1882:1 1907:1 2141:1 2559:1 2947:1 
0.8959296587775454 35:1 417:1 722:1 1511:1 1656:1 2139:1 
0.1864915290527415 115:1 157:1 171:1 202:1 331:1 562:1 910:1 1081:1 1345:1 1425:1 1524:1 1662:1 1670:1 1978:1 2022:1 2025:1 2090:1 2389:1 2424:1 
0.01092718892618228 42:1 140:1 291:1 365:1 376:1 395:1 402:1 451:1 605:1 619:1 670:1 750:1 851:1 925:1 969:1 972:1 1069:1 1127:1 1158:1 1172:1 1403:1 1425:1 1538:1 1670:1 1741:1 1763:1 1767:1 2058:1 2358:1 2394:1 2424:1 2583:1 2685:1 2800:1 2895:1 2933:1 
0.06827490049768005 1413:1 1662:1 1670:1 2268:1 2365:1 2739:1 2866:1 
1 205:1 935:1 1119:1 1425:1 2170:1 2186:1 2514:1 2564:1 
0.2561658273451414 819:1 1013:1 1084:1 1421:1 1780:1 1899:1 
1 1415:1 
1 4:1 43:1 57:1 312:1 431:1 765:1 841:1 910:1 1449:1 1740:1 1882:1 1963:1 2046:1 2141:1 2428:1 
1 1425:1 1662:1 
0.2573562673375911 84:1 202:1 625:1 629:1 852:1 925:1 1182:1 1275:1 1304:1 1402:1 1613:1 1670:1 1674:1 1978:1 2298:1 2461:1 2514:1 2568:1 2571:1 2664:1 2739:1 2929:1 2933:1 
0.02265483589719744 426:1 488:1 790:1 933:1 1138:1 1329:1 1555:1 1670:1 1739:1 1812:1 1823:1 1916:1 2201:1 2285:1 2417:1 2509:1 2530:1 2906:1 
1 331:1 910:1 1081:1 1662:1 2022:1 2025:1 
0.3445635801045144 4:1 31:1 42:1 43:1 115:1 488:1 607:1 758:1 857:1 918:1 933:1 960:1 1346:1 1449:1 1630:1 1670:1 1740:1 1879:1 1882:1 1963:1 2046:1 2139:1 2217:1 2228:1 2311:1 2477:1 2503:1 2685:1 2947:1 
0.09313136657672325 28:1 138:1 365:1 414:1 620:1 627:1 637:1 657:1 714:1 733:1 750:1 804:1 843:1 925:1 1008:1 1283:1 1374:1 1425:1 1488:1 1634:1 2067:1 2131:1 2202:1 2424:1 2633:1 2714:1 2824:1 2866:1 2883:1 
1 43:1 90:1 115:1 431:1 530:1 722:1 765:1 777:1 869:1 918:1 1425:1 1740:1 1882:1 2124:1 
1 331:1 910:1 1081:1 2022:1 2025:1 2046:1 
0.02159527939983623 42:1 504:1 547:1 1319:1 1425:1 1655:1 1662:1 1740:1 1860:1 2031:1 2185:1 2215:1 2335:1 2417:1 2424:1 2437:1 2442:1 2520:1 2628:1 2729:1 
0.5201090669961514 35:1 43:1 62:1 488:1 805:1 823:1 1132:1 1417:1 1425:1 1432:1 1437:1 1907:1 2311:1 2503:1 2514:1 2685:1 2947:1 
0.2525968585934231 42:1 805:1 932:1 1266:1 1425:1 1655:1 1662:1 1775:1 2024:1 2215:1 2252:1 2298:1 2437:1 2503:1 2514:1 2620:1 2933:1 
0.2663310480882556 131:1 285:1 438:1 522:1 710:1 809:1 963:1 979:1 1026:1 1155:1 1175:1 1425:1 1539:1 1592:1 1629:1 1900:1 1985:1 2123:1 2514:1 2524:1 2609:1 2660:1 2700:1 2785:1 2824:1 
1 43:1 228:1 431:1 488:1 722:1 1449:1 1740:1 1882:1 1963:1 2428:1 
0.2039767767366044 475:1 925:1 1425:1 1744:1 2331:1 2438:1 2692:1 2716:1 2915:1 
1 35:1 722:1 841:1 1425:1 1511:1 2141:1 
1 662:1 2446:1 2739:1 2934:1 
0.1558142473803108 42:1 482:1 910:1 935:1 1114:1 1425:1 1500:1 1642:1 1662:1 1778:1 1837:1 2325:1 2424:1 2571:1 2574:1 2619:1 2790:1 
1 535:1 950:1 1425:1 1662:1 
0.303969872245428 253:1 868:1 1145:1 1374:1 1425:1 1655:1 1670:1 2024:1 2351:1 2751:1 
0.2131823998119398 191:1 385:1 395:1 488:1 517:1 586:1 634:1 1091:1 1114:1 1129:1 1350:1 1425:1 1488:1 1550:1 1642:1 1657:1 1662:1 1670:1 1740:1 2141:1 2474:1 2738:1 2819:1 
1 1963:1 2305:1 2738:1 2807:1 
0.06440021072122892 42:1 165:1 430:1 535:1 637:1 668:1 997:1 1655:1 1662:1 1670:1 1674:1 2443:1 2628:1 2778:1 
0.09358074729043091 42:1 53:1 271:1 522:1 757:1 804:1 925:1 927:1 1055:1 1425:1 1670:1 1782:1 1913:1 2317:1 2351:1 2438:1 2503:1 2514:1 2581:1 2709:1 2810:1 2812:1 2830:1 2933:1 
0.2567215739682399 42:1 87:1 264:1 285:1 517:1 838:1 1140:1 1194:1 1425:1 1662:1 1883:1 2069:1 2083:1 2351:1 2378:1 2514:1 2563:1 2716:1 2721:1 2785:1 2824:1 
0.6639889176410874 57:1 90:1 1449:1 1740:1 2197:1 2428:1 2947:1 
0.3482640484268371 35:1 90:1 431:1 722:1 765:1 1081:1 1425:1 1572:1 1662:1 1882:1 2141:1 2584:1 2622:1 2886:1 
0.376973094738329 43:1 90:1 431:1 722:1 933:1 1449:1 1603:1 1740:1 1882:1 1892:1 1963:1 2022:1 2025:1 2141:1 2815:1 2886:1 
1 35:1 43:1 272:1 488:1 765:1 918:1 1390:1 1449:1 1882:1 1907:1 1963:1 2141:1 2886:1 2950:1 
0.1575437942012155 998:1 1466:1 
0.1207301418711184 43:1 57:1 431:1 488:1 607:1 765:1 777:1 918:1 1178:1 1425:1 1449:1 1670:1 1882:1 2141:1 2837:1 2886:1 2947:1 
0.2446213884821906 216:1 331:1 869:1 910:1 1081:1 1425:1 1670:1 2022:1 2090:1 2306:1 
0.5213310436110933 264:1 511:1 1425:1 1568:1 2503:1 2645:1 
0.06921829721474329 728:1 1509:1 1591:1 2047:1 2133:1 2455:1 
0.05147842088500333 32:1 42:1 201:1 534:1 813:1 904:1 925:1 977:1 1240:1 1322:1 1323:1 1443:1 1670:1 1812:1 1867:1 2141:1 2194:1 2216:1 2228:1 2261:1 2480:1 2574:1 2752:1 2772:1 2917:1 
0.170252454525206 488:1 627:1 1119:1 1425:1 1670:1 1740:1 1758:1 2141:1 2351:1 
0.02988084383240103 42:1 97:1 627:1 1223:1 1352:1 1425:1 1641:1 1668:1 1814:1 1867:1 2331:1 2372:1 2514:1 2642:1 2907:1 
0.08859255236159327 42:1 58:1 186:1 198:1 390:1 487:1 522:1 571:1 704:1 896:1 910:1 1007:1 1055:1 1090:1 1102:1 1123:1 1221:1 1231:1 1235:1 1266:1 1278:1 1283:1 1343:1 1410:1 1425:1 1453:1 1670:1 1846:1 1867:1 2149:1 2158:1 2194:1 2205:1 2399:1 2514:1 2685:1 2778:1 2901:1 2941:1 
1 
1 
0.5218572809721972 204:1 530:1 630:1 1265:1 1449:1 1882:1 2886:1 2947:1 
0.6495442941565351 42:1 535:1 737:1 1255:1 1319:1 1402:1 1425:1 1455:1 1475:1 1662:1 1686:1 2132:1 2623:1 
1 998:1 1425:1 1662:1 1916:1 
1 35:1 43:1 57:1 90:1 607:1 765:1 841:1 918:1 933:1 1449:1 1511:1 1603:1 1740:1 1882:1 2141:1 2428:1 2947:1 
0.1188989833440011 18:1 67:1 157:1 337:1 600:1 729:1 788:1 790:1 819:1 1177:1 1425:1 1470:1 1662:1 1740:1 1816:1 1866:1 1967:1 2194:1 2419:1 2613:1 2632:1 2643:1 2748:1 2926:1 
0.4826673863855332 42:1 607:1 727:1 925:1 1216:1 1296:1 1344:1 1425:1 1642:1 1649:1 1662:1 1670:1 1828:1 2123:1 2514:1 2601:1 
1 
0.2314910048158307 4:1 43:1 119:1 182:1 492:1 607:1 722:1 774:1 852:1 1017:1 1265:1 1449:1 1882:1 1963:1 2886:1 2947:1 
1 204:1 1265:1 1449:1 1882:1 2886:1 
1 35:1 43:1 57:1 488:1 607:1 722:1 910:1 918:1 933:1 978:1 1449:1 1603:1 1738:1 1882:1 2141:1 2598:1 
1 43:1 57:1 90:1 228:1 431:1 607:1 765:1 918:1 1425:1 1449:1 1882:1 2139:1 2141:1 2714:1 
0.7944861544113049 43:1 90:1 272:1 431:1 607:1 765:1 1425:1 1449:1 1670:1 1740:1 1882:1 1907:1 2005:1 2141:1 2714:1 2740:1 
0.3986985689947991 42:1 846:1 870:1 1145:1 1191:1 1319:1 1350:1 1379:1 1461:1 1473:1 1599:1 1655:1 1662:1 2441:1 2515:1 2685:1 2776:1 
0.5368406475398023 115:1 662:1 869:1 910:1 970:1 1178:1 1425:1 1597:1 1656:1 1670:1 1744:1 1820:1 1988:1 2282:1 2446:1 2514:1 2739:1 2744:1 2751:1 2924:1 2934:1 
0.4072242323992977 115:1 970:1 1656:1 1657:1 1670:1 1856:1 1963:1 2305:1 2738:1 2739:1 
0.1459114098056009 42:1 115:1 442:1 456:1 488:1 852:1 1178:1 1192:1 1242:1 1407:1 1511:1 1596:1 1662:1 1670:1 1740:1 1847:1 1894:1 2110:1 2116:1 2202:1 2228:1 2299:1 2619:1 2685:1 2726:1 2751:1 2807:1 2880:1 
0.4434948803428394 589:1 1178:1 1655:1 1696:1 1963:1 2273:1 2305:1 2471:1 
0.6318841638403958 878:1 1178:1 1740:1 1789:1 2820:1 
0.05459743663334912 202:1 1103:1 1178:1 1182:1 1425:1 1597:1 1655:1 1662:1 1670:1 1789:1 2090:1 2389:1 2514:1 2739:1 2767:1 
1 1262:1 
0.2713166065687795 115:1 202:1 488:1 662:1 695:1 1142:1 1182:1 1262:1 1500:1 1656:1 1662:1 1670:1 1696:1 1740:1 2044:1 2139:1 2191:1 2194:1 2273:1 2426:1 2476:1 2514:1 2820:1 2934:1 
1 115:1 1262:1 1963:1 2305:1 2820:1 
1 115:1 1178:1 1963:1 2305:1 2820:1 
0.3122282167033394 717:1 1178:1 1425:1 1670:1 2807:1 2897:1 
0.1135713192692528 25:1 42:1 1116:1 1191:1 1221:1 1228:1 1403:1 1711:1 1717:1 2204:1 2232:1 2514:1 2625:1 2638:1 
0.8733698900747623 90:1 115:1 202:1 662:1 1178:1 1334:1 1425:1 1642:1 1670:1 1696:1 1726:1 1740:1 2310:1 2476:1 2514:1 2564:1 2738:1 
0.1217486820440087 202:1 383:1 1138:1 1178:1 1243:1 1302:1 1369:1 1488:1 1524:1 1656:1 1662:1 1670:1 1789:1 1950:1 2255:1 2426:1 2457:1 2476:1 2503:1 2739:1 2767:1 
0.3144053278249929 115:1 1178:1 1657:1 1963:1 2305:1 2476:1 2751:1 
1 1178:1 1639:1 2820:1 
1 320:1 325:1 367:1 504:1 722:1 869:1 970:1 1090:1 1177:1 1178:1 1425:1 1488:1 1500:1 1597:1 1603:1 1656:1 1670:1 2090:1 2514:1 2517:1 2685:1 2695:1 2751:1 
0.07491601117200469 201:1 446:1 598:1 846:1 869:1 910:1 1448:1 1500:1 1524:1 1634:1 1662:1 1740:1 1789:1 1841:1 2046:1 2082:1 2254:1 2564:1 2908:1 2913:1 
0.6551877485409793 705:1 1178:1 1317:1 1425:1 2685:1 
0.2908169670325245 272:1 431:1 722:1 975:1 1420:1 1425:1 1511:1 1603:1 1656:1 1979:1 2424:1 2514:1 2947:1 
1 1262:1 1425:1 1740:1 2739:1 2807:1 2934:1 
1 194:1 590:1 790:1 838:1 1262:1 1473:1 1593:1 1597:1 1657:1 1662:1 1740:1 2476:1 2589:1 2618:1 2738:1 
0.1277845094771782 202:1 654:1 910:1 970:1 1182:1 1222:1 1262:1 1670:1 1789:1 2033:1 2318:1 2514:1 2567:1 2687:1 2738:1 2739:1 2751:1 2767:1 2807:1 2897:1 
0.6761511565235375 200:1 202:1 431:1 846:1 1106:1 1262:1 1425:1 1656:1 1670:1 1740:1 1789:1 1841:1 2426:1 2739:1 2807:1 
1 43:1 228:1 272:1 383:1 607:1 722:1 918:1 1740:1 1882:1 1963:1 2428:1 2583:1 2714:1 2947:1 
1 504:1 1662:1 2022:1 2537:1 
1 504:1 1662:1 2022:1 2537:1 
1 504:1 1662:1 2022:1 2537:1 
0.3315423760525191 1662:1 2537:1 
0.1188783953560242 42:1 187:1 354:1 365:1 705:1 910:1 938:1 1323:1 1450:1 1655:1 1658:1 1662:1 1696:1 1723:1 1888:1 2165:1 2273:1 2308:1 2400:1 2537:1 2571:1 2719:1 2734:1 2785:1 2807:1 2902:1 
1 1662:1 2069:1 
1 1662:1 2537:1 
1 1662:1 2069:1 
1 1662:1 2537:1 
1 1662:1 2069:1 
1 1662:1 2069:1 
0.06735714379706115 325:1 461:1 526:1 626:1 817:1 940:1 1129:1 1132:1 1283:1 1329:1 1334:1 1425:1 1464:1 1488:1 1556:1 1632:1 1670:1 1736:1 2373:1 2477:1 2514:1 
1 504:1 1662:1 2022:1 2537:1 
0.08953978610462045 480:1 1662:1 1975:1 2069:1 
1 1041:1 1466:1 
1 
1 
1 
0.007006151190845542 263:1 824:1 925:1 927:1 1131:1 1331:1 1384:1 1425:1 1662:1 1668:1 1750:1 1836:1 1862:1 2146:1 2424:1 2778:1 
0.1142715674400561 115:1 488:1 970:1 1374:1 1380:1 1449:1 1507:1 1511:1 1656:1 1657:1 1670:1 1740:1 1789:1 1820:1 2063:1 2141:1 2332:1 2426:1 2446:1 2514:1 2574:1 2730:1 2738:1 2739:1 
1 1102:1 2850:1 
0.6855984454848904 1466:1 
0.2347417514881855 131:1 282:1 433:1 667:1 1425:1 1670:1 2069:1 2237:1 2496:1 2514:1 2637:1 
0.1266697119540787 35:1 42:1 56:1 157:1 178:1 251:1 488:1 717:1 840:1 1425:1 1511:1 1655:1 1662:1 1670:1 2033:1 2120:1 2141:1 2150:1 2206:1 2318:1 2335:1 2389:1 2514:1 2551:1 2571:1 2696:1 2903:1 
0.09167599806299648 42:1 250:1 266:1 300:1 488:1 513:1 529:1 700:1 724:1 1245:1 1285:1 1425:1 1527:1 1687:1 1987:1 2225:1 2438:1 2512:1 2581:1 2716:1 2756:1 
0.100494999288714 57:1 101:1 272:1 488:1 722:1 790:1 975:1 1081:1 1419:1 1595:1 1656:1 1700:1 1880:1 1882:1 2032:1 2390:1 2424:1 2856:1 2857:1 2865:1 
0.1347437496048412 78:1 322:1 528:1 581:1 785:1 925:1 1086:1 1152:1 1425:1 1670:1 1735:1 1925:1 2067:1 2089:1 2120:1 2514:1 2714:1 2717:1 2906:1 
0.1624387840740689 42:1 438:1 637:1 767:1 790:1 852:1 910:1 1119:1 1283:1 1318:1 1374:1 1425:1 1458:1 1511:1 1610:1 1613:1 1670:1 1694:1 1721:1 1729:1 1867:1 2123:1 2378:1 2462:1 2574:1 2736:1 2738:1 
0.08624238081505661 385:1 504:1 688:1 935:1 1425:1 1602:1 1626:1 1655:1 1662:1 1740:1 2120:1 2128:1 2132:1 2298:1 2331:1 2456:1 2514:1 
1 43:1 228:1 431:1 722:1 765:1 777:1 918:1 1449:1 1740:1 1882:1 2141:1 2947:1 
1 1239:1 1449:1 2115:1 
0.8023528002672392 43:1 431:1 488:1 607:1 722:1 765:1 1265:1 1449:1 1511:1 1882:1 1907:1 1963:1 2141:1 2428:1 2886:1 2947:1 
0.102397916456777 87:1 240:1 555:1 767:1 1055:1 1425:1 1655:1 1662:1 1670:1 1673:1 1813:1 1863:1 1867:1 2126:1 2139:1 2565:1 2576:1 2627:1 2637:1 2703:1 2716:1 2849:1 2926:1 
1 
1 
1 
1 722:1 765:1 1511:1 2139:1 2141:1 2428:1 2947:1 
1 43:1 228:1 488:1 722:1 841:1 1449:1 1740:1 1882:1 1963:1 2428:1 2886:1 2947:1 2950:1 
1 35:1 722:1 765:1 841:1 1511:1 1670:1 2141:1 
0.2107721110422792 42:1 346:1 528:1 535:1 923:1 1092:1 1145:1 1194:1 1425:1 1660:1 1662:1 1670:1 1740:1 1742:1 1851:1 2171:1 2215:1 2419:1 2583:1 2613:1 2645:1 2784:1 
0.2010964503307273 790:1 976:1 1221:1 1356:1 1402:1 1468:1 1696:1 1961:1 2090:1 2235:1 2301:1 2317:1 2400:1 2456:1 2503:1 2514:1 2678:1 2714:1 
1 
1 
0.2028767420217732 42:1 488:1 504:1 703:1 869:1 1172:1 1402:1 1466:1 1670:1 1898:1 1907:1 2035:1 2141:1 2209:1 2381:1 2382:1 2389:1 2495:1 2514:1 2537:1 2549:1 2816:1 2945:1 
0.3726414913348214 42:1 1188:1 1425:1 1439:1 1662:1 2219:1 2348:1 2351:1 2613:1 2674:1 2685:1 2751:1 
0.1607568241257686 242:1 528:1 838:1 909:1 1177:1 1219:1 1314:1 1425:1 1662:1 2064:1 2141:1 2351:1 2445:1 2477:1 2691:1 
0.06187216013394852 42:1 81:1 85:1 167:1 221:1 267:1 309:1 418:1 438:1 488:1 496:1 503:1 516:1 578:1 925:1 1055:1 1075:1 1132:1 1143:1 1173:1 1179:1 1266:1 1349:1 1374:1 1426:1 1488:1 1670:1 1678:1 1757:1 1897:1 1947:1 1961:1 2685:1 2870:1 2914:1 2917:1 
1 1466:1 
0.3291663199345078 43:1 57:1 228:1 488:1 722:1 918:1 1425:1 1511:1 1656:1 1907:1 2139:1 2305:1 2499:1 2899:1 
0.06582948016375292 132:1 139:1 325:1 380:1 438:1 500:1 790:1 832:1 886:1 903:1 908:1 925:1 1055:1 1059:1 1195:1 1221:1 1387:1 1425:1 1479:1 1662:1 1670:1 1740:1 1819:1 2318:1 2389:1 2424:1 2477:1 2487:1 2514:1 2552:1 2569:1 2588:1 2619:1 
1 1172:1 
0.1584568285836483 42:1 123:1 325:1 405:1 688:1 855:1 940:1 996:1 1238:1 1266:1 1352:1 1425:1 1568:1 1740:1 1775:1 2110:1 2128:1 2293:1 2295:1 2685:1 2892:1 2901:1 
0.8650301116663377 35:1 43:1 57:1 115:1 228:1 318:1 488:1 722:1 765:1 841:1 918:1 1449:1 1511:1 1524:1 1844:1 1882:1 2141:1 2499:1 2514:1 2714:1 2947:1 
0.1138927716888202 940:1 1102:1 1425:1 1488:1 1662:1 1867:1 2158:1 2934:1 
0.3262125718639241 43:1 251:1 255:1 322:1 488:1 522:1 607:1 774:1 790:1 841:1 881:1 918:1 925:1 933:1 1119:1 1163:1 1449:1 1549:1 1656:1 1674:1 1740:1 1882:1 2318:1 2423:1 2442:1 2514:1 2589:1 2915:1 2947:1 
0.06120388474415878 100:1 313:1 488:1 544:1 1086:1 1179:1 1199:1 1215:1 1425:1 1566:1 1662:1 1668:1 1670:1 1739:1 2258:1 2514:1 2774:1 2778:1 
0.6081859849635588 35:1 202:1 364:1 705:1 722:1 970:1 1182:1 1374:1 1402:1 1449:1 1603:1 1656:1 1657:1 1670:1 1988:1 2419:1 2424:1 2426:1 2514:1 2544:1 2552:1 2639:1 2739:1 
0.07283376738455016 42:1 180:1 445:1 765:1 805:1 987:1 1119:1 1425:1 1670:1 1866:1 2120:1 2164:1 2514:1 2683:1 2685:1 2882:1 
0.07995968194499554 42:1 207:1 340:1 349:1 488:1 626:1 643:1 711:1 734:1 894:1 974:1 1425:1 1439:1 1660:1 1670:1 1740:1 1835:1 1847:1 2011:1 2085:1 2296:1 2327:1 2351:1 2435:1 2514:1 
1 35:1 43:1 57:1 722:1 765:1 918:1 1449:1 1511:1 1656:1 1670:1 1740:1 1882:1 2141:1 2424:1 2514:1 2947:1 
0.01578889651012154 42:1 360:1 802:1 1314:1 1590:1 1640:1 1670:1 1867:1 1950:1 1989:1 2009:1 2293:1 2417:1 2525:1 2584:1 2877:1 
0.08731082660125343 238:1 705:1 1119:1 1340:1 1374:1 1425:1 1656:1 1670:1 1985:1 2009:1 2244:1 2399:1 2424:1 2503:1 2514:1 2594:1 2751:1 2794:1 2891:1 2897:1 
0.3250878162383548 43:1 115:1 488:1 660:1 790:1 918:1 933:1 1449:1 1740:1 1882:1 1892:1 2228:1 2410:1 2886:1 2909:1 
1 1466:1 
0.06555590570395865 42:1 357:1 395:1 799:1 913:1 1282:1 1425:1 1632:1 1670:1 1704:1 1735:1 1757:1 1867:1 2119:1 2123:1 2231:1 2753:1 2885:1 
0.3450715901314999 291:1 492:1 1578:1 1630:1 1642:1 1662:1 1670:1 1740:1 1847:1 1949:1 2110:1 2424:1 2476:1 2514:1 2529:1 2807:1 2829:1 2933:1 
0.09376815784950344 507:1 883:1 1425:1 1471:1 1580:1 1640:1 1662:1 2277:1 2351:1 2560:1 2690:1 
0.04003152260365332 42:1 587:1 700:1 763:1 865:1 1118:1 1134:1 1179:1 1193:1 1220:1 1268:1 1327:1 1425:1 1653:1 1670:1 1729:1 1735:1 1851:1 1867:1 1874:1 2069:1 2141:1 2567:1 2613:1 2693:1 2717:1 2748:1 
1 35:1 43:1 57:1 115:1 318:1 607:1 765:1 841:1 908:1 918:1 1425:1 1449:1 1882:1 2141:1 2194:1 2499:1 2551:1 2714:1 
0.5692019974203194 4:1 43:1 119:1 182:1 492:1 607:1 722:1 852:1 1265:1 1449:1 1882:1 1963:1 2886:1 2947:1 
1 1466:1 
0.1183525034930564 171:1 1081:1 2022:1 2025:1 2090:1 
0.1430520653363448 268:1 880:1 1425:1 1462:1 1541:1 1662:1 1688:1 1698:1 2566:1 2571:1 2634:1 2734:1 2767:1 2809:1 
0.2534249146367609 42:1 264:1 790:1 894:1 977:1 1276:1 1402:1 1425:1 1488:1 1529:1 1544:1 1634:1 1670:1 1814:1 1836:1 2372:1 2514:1 2632:1 2642:1 2678:1 2766:1 2810:1 2861:1 2955:1 
0.06583012306138966 28:1 97:1 120:1 284:1 488:1 518:1 522:1 528:1 607:1 613:1 643:1 813:1 834:1 1094:1 1132:1 1402:1 1425:1 2045:1 2067:1 2089:1 2095:1 2141:1 2194:1 2231:1 2267:1 2380:1 2692:1 
0.1504742836772312 31:1 42:1 57:1 284:1 622:1 767:1 790:1 914:1 1055:1 1066:1 1283:1 1439:1 1520:1 1632:1 1819:1 1945:1 1961:1 2045:1 2231:1 2424:1 2514:1 2533:1 2625:1 2824:1 2829:1 2914:1 2917:1 
0.4355453126377514 35:1 264:1 301:1 438:1 492:1 594:1 707:1 869:1 910:1 1114:1 1402:1 1670:1 1674:1 1926:1 1932:1 1941:1 1963:1 2268:1 2374:1 2477:1 2514:1 2518:1 2598:1 2933:1 
1 43:1 115:1 488:1 918:1 1265:1 1449:1 1882:1 
1 1466:1 
1 4:1 43:1 119:1 182:1 492:1 607:1 722:1 852:1 1265:1 1425:1 1449:1 1882:1 1963:1 2886:1 2947:1 
1 1466:1 
0.1169756009831568 179:1 488:1 498:1 838:1 935:1 1208:1 1293:1 1425:1 1670:1 1692:1 1814:1 1831:1 1867:1 2285:1 2583:1 
1 43:1 90:1 272:1 431:1 607:1 722:1 765:1 933:1 1449:1 1576:1 1670:1 1907:1 2141:1 2540:1 
0.1152103040087751 17:1 202:1 251:1 323:1 364:1 760:1 910:1 970:1 995:1 999:1 1182:1 1374:1 1402:1 1506:1 1656:1 1657:1 1670:1 2090:1 2273:1 2298:1 2426:1 2494:1 2514:1 2639:1 2685:1 2739:1 2767:1 2933:1 2935:1 
0.04960969656456228 63:1 115:1 208:1 251:1 481:1 517:1 1087:1 1145:1 1226:1 1449:1 1630:1 1662:1 1670:1 1744:1 1825:1 1831:1 1841:1 1948:1 1988:1 2006:1 2424:1 2496:1 2580:1 2751:1 2759:1 2832:1 2928:1 
0.486805495124565 43:1 90:1 301:1 438:1 962:1 1449:1 2115:1 2499:1 
0.272639921496254 76:1 155:1 607:1 1449:1 1531:1 1670:1 1740:1 2090:1 2204:1 2514:1 2594:1 2692:1 2739:1 2782:1 2934:1 
0.06794892052561909 42:1 544:1 677:1 940:1 1668:1 1670:1 2076:1 2123:1 2141:1 2733:1 
0.811356396771107 488:1 1114:1 1307:1 1425:1 1662:1 1670:1 1740:1 1851:1 1876:1 2031:1 2215:1 2792:1 
1 466:1 492:1 777:1 910:1 1425:1 1662:1 1738:1 1926:1 1993:1 2421:1 2467:1 2514:1 2598:1 2685:1 2778:1 
1 4:1 43:1 607:1 918:1 933:1 1449:1 1882:1 
0.08990565692072489 43:1 90:1 431:1 491:1 607:1 660:1 722:1 925:1 933:1 1449:1 1511:1 1907:1 2115:1 2141:1 2439:1 2540:1 2947:1 
0.1874666718595697 139:1 284:1 291:1 594:1 975:1 1044:1 1083:1 1307:1 1425:1 1439:1 1626:1 1662:1 1735:1 1835:1 2110:1 2424:1 2507:1 2516:1 
0.9155942713772289 43:1 431:1 491:1 607:1 777:1 1081:1 1111:1 1449:1 1630:1 2115:1 2912:1 
0.2674341024776106 43:1 607:1 765:1 841:1 918:1 1425:1 1449:1 1882:1 2428:1 2714:1 
1 43:1 57:1 841:1 918:1 1425:1 1449:1 1882:1 2714:1 
0.02445827698301536 115:1 187:1 205:1 317:1 334:1 354:1 381:1 408:1 532:1 705:1 874:1 910:1 943:1 1211:1 1266:1 1304:1 1425:1 1662:1 1723:1 1740:1 1924:1 1963:1 2023:1 2084:1 2165:1 2273:1 2308:1 2400:1 2537:1 2719:1 2758:1 2794:1 2807:1 
1 331:1 910:1 1081:1 2022:1 2025:1 
1 
0.06602404426349245 395:1 496:1 528:1 708:1 765:1 894:1 1209:1 1219:1 1313:1 1354:1 1384:1 1425:1 1587:1 1592:1 1668:1 1670:1 1735:1 1740:1 1750:1 1867:1 2036:1 2065:1 2067:1 2424:1 2438:1 2619:1 2676:1 2778:1 2925:1 
0.6956042958058345 504:1 1145:1 1425:1 1655:1 1662:1 1670:1 1728:1 2024:1 2132:1 
0.9177727850682035 43:1 431:1 488:1 722:1 765:1 910:1 1449:1 1511:1 1882:1 1963:1 2139:1 2140:1 2141:1 2332:1 2947:1 
0.04185758283741316 42:1 59:1 125:1 202:1 436:1 488:1 535:1 805:1 869:1 929:1 950:1 983:1 1070:1 1163:1 1425:1 1461:1 1488:1 1630:1 1656:1 1662:1 1670:1 1820:1 1858:1 2084:1 2183:1 2206:1 2282:1 2424:1 2494:1 2498:1 2514:1 2574:1 2738:1 2810:1 2876:1 
0.7888245327616177 4:1 43:1 119:1 492:1 607:1 722:1 852:1 1174:1 1265:1 1373:1 1425:1 1882:1 1963:1 2886:1 2947:1 
1 35:1 42:1 43:1 488:1 607:1 660:1 918:1 933:1 1265:1 1449:1 1740:1 1882:1 2768:1 2886:1 2947:1 
1 
1 
0.05953827580623191 175:1 571:1 1179:1 1425:1 1583:1 1585:1 1618:1 1662:1 1670:1 1721:1 1808:1 1917:1 2123:1 2293:1 2479:1 
0.1102279027087125 42:1 198:1 626:1 864:1 1055:1 1257:1 1411:1 1425:1 1488:1 1592:1 1632:1 1662:1 1885:1 1963:1 2295:1 2514:1 2539:1 2558:1 2914:1 
0.04802103532170419 115:1 1194:1 1425:1 1662:1 1864:1 2097:1 2429:1 2614:1 2726:1 
1 17:1 35:1 115:1 488:1 1374:1 1475:1 1488:1 1657:1 1670:1 
0.05912299584122833 532:1 589:1 805:1 852:1 1070:1 1589:1 1618:1 1630:1 1696:1 1739:1 1792:1 1825:1 1834:1 1963:1 2309:1 2555:1 2571:1 2584:1 2787:1 2791:1 2858:1 2924:1 2926:1 
0.5528621948791873 43:1 228:1 488:1 765:1 910:1 983:1 1226:1 1229:1 1277:1 1396:1 1444:1 1495:1 1511:1 1603:1 1656:1 1670:1 1882:1 1907:1 2098:1 2311:1 2424:1 2514:1 2571:1 2899:1 2947:1 
0.1799715281403046 42:1 114:1 313:1 488:1 503:1 528:1 544:1 638:1 663:1 683:1 689:1 819:1 1176:1 1179:1 1219:1 1290:1 1367:1 1490:1 1668:1 1802:1 1867:1 1874:1 2100:1 2141:1 2564:1 2716:1 2925:1 
1 331:1 910:1 1081:1 1425:1 1662:1 1670:1 2025:1 2389:1 
0.05626749246617302 532:1 776:1 872:1 1312:1 1399:1 1446:1 1459:1 1516:1 1519:1 1630:1 1957:1 1963:1 2076:1 2081:1 2537:1 2697:1 2749:1 2903:1 2933:1 2944:1 
1 50:1 1138:1 1630:1 1655:1 1662:1 2152:1 2373:1 2378:1 2514:1 2574:1 2628:1 2926:1 
1 331:1 910:1 1081:1 2022:1 2025:1 
1 43:1 431:1 933:1 1425:1 1511:1 1566:1 1882:1 1963:1 2141:1 2518:1 2947:1 2950:1 
0.2151104125602169 35:1 722:1 765:1 959:1 1054:1 1630:1 1730:1 1880:1 1956:1 2001:1 2141:1 2321:1 2685:1 2698:1 
0.6221515476859646 135:1 488:1 975:1 1425:1 1449:1 1454:1 1630:1 1740:1 1882:1 2115:1 2362:1 2856:1 
1 1466:1 
0.04629016707268903 17:1 555:1 988:1 1439:1 1488:1 1502:1 1655:1 1662:1 1963:1 2194:1 2514:1 2724:1 2926:1 
0.3059354827744123 574:1 945:1 988:1 1055:1 1425:1 1502:1 1662:1 1740:1 2497:1 2514:1 2926:1 
1 1466:1 
0.3713520931748081 42:1 165:1 365:1 385:1 504:1 1145:1 1670:1 1728:1 2228:1 2514:1 2628:1 2632:1 
1 1466:1 
0.8236868680181813 504:1 1425:1 1548:1 1728:1 1738:1 2024:1 2128:1 2187:1 2467:1 2514:1 
0.06452961369723598 139:1 170:1 254:1 405:1 438:1 554:1 616:1 790:1 821:1 921:1 940:1 1009:1 1283:1 1402:1 1425:1 1439:1 1740:1 1846:1 2089:1 2105:1 2218:1 2295:1 2514:1 2533:1 2549:1 2551:1 2690:1 2694:1 2778:1 2921:1 
0.08519299406204964 111:1 352:1 433:1 447:1 744:1 749:1 750:1 777:1 805:1 979:1 1102:1 1318:1 1352:1 1395:1 1425:1 1655:1 1662:1 1670:1 1744:1 2123:1 2332:1 2533:1 2637:1 2716:1 2751:1 
0.4025212535491056 35:1 43:1 115:1 488:1 607:1 774:1 776:1 933:1 937:1 959:1 1413:1 1425:1 1511:1 1630:1 1696:1 1801:1 1879:1 2002:1 2096:1 2115:1 2714:1 
0.4714856324909487 35:1 43:1 318:1 765:1 841:1 918:1 1265:1 1449:1 1740:1 1882:1 1907:1 2141:1 2194:1 2499:1 2551:1 2947:1 
0.4981645970131139 35:1 43:1 90:1 488:1 607:1 765:1 774:1 975:1 1449:1 1882:1 1963:1 2141:1 2343:1 2589:1 2947:1 
0.2939249128471217 188:1 269:1 449:1 492:1 607:1 754:1 852:1 1239:1 1266:1 1425:1 1449:1 1670:1 1868:1 1882:1 1916:1 2115:1 2383:1 2562:1 2574:1 2685:1 2714:1 
1 1466:1 
1 43:1 57:1 90:1 722:1 765:1 918:1 1449:1 1511:1 1656:1 1670:1 1740:1 1882:1 2139:1 2141:1 2424:1 2514:1 2947:1 
0.4175126789899865 1657:1 2738:1 2739:1 
1 35:1 1121:1 1449:1 1740:1 
1 171:1 331:1 910:1 1081:1 1670:1 2022:1 2025:1 
1 43:1 57:1 90:1 607:1 722:1 777:1 875:1 1603:1 1740:1 1882:1 2025:1 2428:1 2659:1 2909:1 2947:1 
0.111446291814648 1313:1 1503:1 1515:1 1581:1 1630:1 1670:1 1752:1 2417:1 2465:1 2503:1 2547:1 2708:1 2807:1 2866:1 
0.04011187421907229 90:1 115:1 177:1 431:1 488:1 491:1 982:1 1170:1 1212:1 1314:1 1425:1 1449:1 1630:1 1771:1 1799:1 1966:1 2141:1 2275:1 2640:1 2705:1 2836:1 2886:1 
0.9135376540297571 504:1 1425:1 1525:1 1602:1 1978:1 
1 97:1 333:1 507:1 1488:1 1670:1 2169:1 
1 
1 
1 1466:1 
1 1466:1 
0.1341359965627274 42:1 79:1 120:1 594:1 723:1 766:1 985:1 1075:1 1179:1 1245:1 1425:1 1636:1 1640:1 1655:1 1662:1 1670:1 1731:1 1781:1 1874:1 1897:1 1900:1 2067:1 2128:1 2381:1 2455:1 2467:1 2583:1 2600:1 2748:1 2824:1 
1 1466:1 
0.01059842200548649 97:1 282:1 514:1 738:1 813:1 888:1 1425:1 1439:1 1488:1 1744:1 1748:1 1778:1 1835:1 2141:1 2199:1 2231:1 2277:1 2333:1 2378:1 2467:1 2612:1 2685:1 2866:1 
0.3088679302197314 981:1 1413:1 1630:1 1670:1 1706:1 1740:1 2044:1 2199:1 2928:1 
1 90:1 176:1 409:1 933:1 950:1 962:1 1449:1 1485:1 1882:1 2197:1 2709:1 2933:1 2947:1 
0.4458512883605711 43:1 431:1 488:1 1265:1 1449:1 1511:1 1617:1 1630:1 1740:1 1882:1 1963:1 2141:1 2947:1 
0.06859032206207318 43:1 115:1 431:1 607:1 660:1 765:1 777:1 918:1 1265:1 1425:1 1740:1 1882:1 2115:1 2685:1 2886:1 
1 43:1 90:1 115:1 607:1 841:1 918:1 1425:1 1449:1 1740:1 1882:1 2124:1 2140:1 2947:1 2950:1 
0.423031512815084 90:1 476:1 607:1 983:1 1314:1 1449:1 1630:1 1771:1 1795:1 2499:1 2779:1 2837:1 2891:1 2947:1 
0.1102222133797993 115:1 197:1 202:1 425:1 662:1 705:1 869:1 970:1 1656:1 1670:1 2262:1 2426:1 2446:1 2514:1 2523:1 2739:1 2934:1 
1 43:1 607:1 918:1 1449:1 1882:1 2947:1 
0.2277797948242332 51:1 325:1 407:1 757:1 1129:1 1425:1 1657:1 1662:1 1674:1 1692:1 2123:1 2141:1 2424:1 2445:1 2619:1 2867:1 
0.1259213748713542 331:1 935:1 1081:1 1425:1 1670:1 1880:1 2025:1 2622:1 
1 43:1 90:1 115:1 918:1 933:1 1449:1 1882:1 2886:1 
0.2511101175097407 43:1 57:1 431:1 722:1 826:1 918:1 1449:1 1511:1 1656:1 1670:1 1740:1 1882:1 2141:1 2194:1 2424:1 2514:1 2947:1 
0.05741169619399208 35:1 42:1 109:1 510:1 534:1 661:1 790:1 819:1 880:1 1109:1 1112:1 1170:1 1323:1 1425:1 1649:1 1655:1 1656:1 1662:1 1735:1 2072:1 2183:1 2351:1 2367:1 2445:1 2584:1 2587:1 2645:1 2894:1 2926:1 
0.6921156447091207 90:1 589:1 1670:1 2066:1 2417:1 2823:1 
0.2533057377270149 504:1 1145:1 1232:1 1319:1 1374:1 1425:1 1494:1 1537:1 1662:1 1670:1 1728:1 1915:1 1979:1 2242:1 2621:1 2645:1 2748:1 2761:1 
1 1466:1 
0.1810212167494838 165:1 504:1 1319:1 1425:1 1473:1 1831:1 1851:1 2046:1 2514:1 
0.3870914757324596 35:1 42:1 748:1 887:1 983:1 1425:1 1439:1 1618:1 1655:1 1662:1 1670:1 1673:1 1866:1 2194:1 2200:1 2201:1 2514:1 2574:1 
1 115:1 633:1 2850:1 
1 
1 
1 1466:1 
1 
1 
1 35:1 43:1 383:1 607:1 722:1 777:1 933:1 1242:1 1378:1 1425:1 1449:1 1740:1 1882:1 1963:1 2141:1 2197:1 2523:1 2759:1 2886:1 2947:1 
1 1466:1 
1 910:1 1662:1 1738:1 1926:1 2598:1 
1 1466:1 
1 1488:1 
1 43:1 431:1 765:1 1425:1 1449:1 1670:1 1882:1 1963:1 2141:1 2714:1 2947:1 
0.3198155568816422 71:1 757:1 933:1 1612:1 1630:1 1752:1 2093:1 2216:1 2318:1 2364:1 2419:1 2433:1 2465:1 
0.499463750585782 32:1 202:1 1119:1 1120:1 1139:1 1270:1 1334:1 1425:1 1502:1 1655:1 1656:1 1662:1 1670:1 1726:1 2164:1 2194:1 2717:1 2926:1 
0.1284277899000577 199:1 253:1 438:1 504:1 722:1 805:1 935:1 997:1 1402:1 1414:1 1457:1 1568:1 1603:1 1634:1 1770:1 2298:1 2444:1 2456:1 2491:1 2514:1 2636:1 2654:1 2875:1 2882:1 
0.2010352651038939 253:1 722:1 805:1 935:1 1477:1 1568:1 1603:1 1692:1 1843:1 2034:1 2146:1 2152:1 2298:1 2444:1 2456:1 2491:1 2514:1 2801:1 2820:1 2875:1 
0.1996813280764805 43:1 57:1 90:1 115:1 330:1 431:1 594:1 662:1 722:1 758:1 765:1 918:1 922:1 1265:1 1346:1 1425:1 1449:1 1524:1 1740:1 1795:1 1882:1 2141:1 2714:1 2947:1 
1 
0.7271332863587365 43:1 57:1 115:1 488:1 607:1 1265:1 1271:1 1425:1 1740:1 1882:1 1963:1 2947:1 
1 1466:1 
1 551:1 1466:1 
0.1377613122778957 115:1 688:1 748:1 1221:1 1264:1 1425:1 1518:1 1662:1 1670:1 1871:1 2141:1 2477:1 2650:1 2685:1 2825:1 2878:1 
0.1897271979834853 43:1 384:1 431:1 488:1 504:1 607:1 777:1 841:1 1449:1 1524:1 1740:1 1882:1 2197:1 2428:1 2740:1 
0.7834221557947404 488:1 1425:1 1662:1 1926:1 2046:1 2484:1 2598:1 2947:1 
0.5537812187816711 431:1 1502:1 1521:1 1642:1 1656:1 1670:1 1838:1 2194:1 2200:1 2514:1 
1 1662:1 2537:1 
0.7086597315908505 43:1 488:1 607:1 918:1 1449:1 1801:1 1879:1 1882:1 2305:1 2428:1 2499:1 2518:1 2551:1 2947:1 
0.1477607423958756 253:1 262:1 535:1 997:1 1145:1 1425:1 1670:1 1740:1 1963:1 2024:1 2132:1 2215:1 2264:1 2792:1 2841:1 2955:1 
0.5089874782523867 43:1 272:1 488:1 1511:1 1880:1 1907:1 2899:1 
1 1466:1 
0.1853237564430104 33:1 183:1 277:1 1314:1 1570:1 1599:1 1655:1 1662:1 1696:1 1900:1 2043:1 2120:1 2128:1 2132:1 2424:1 
0.0001630867311618737 253:1 438:1 762:1 935:1 1043:1 1402:1 1568:1 1898:1 2003:1 2024:1 2040:1 2424:1 2444:1 2456:1 2491:1 2875:1 
1 2738:1 2807:1 
0.4581494215230784 42:1 202:1 859:1 910:1 1425:1 1656:1 1670:1 2389:1 2514:1 2619:1 2738:1 2767:1 
0.2005410221598514 42:1 202:1 247:1 794:1 859:1 910:1 934:1 1425:1 1656:1 1670:1 1705:1 1753:1 2336:1 2389:1 2514:1 2574:1 2619:1 2738:1 2854:1 
1 43:1 115:1 488:1 918:1 933:1 1449:1 1882:1 2886:1 
0.08505558634371638 137:1 249:1 267:1 270:1 278:1 350:1 420:1 607:1 687:1 770:1 925:1 961:1 1156:1 1167:1 1172:1 1287:1 1352:1 1370:1 1384:1 1425:1 1486:1 1861:1 1867:1 1891:1 2007:1 2059:1 2092:1 2174:1 2424:1 2583:1 2650:1 2717:1 2914:1 
0.183011275782778 35:1 43:1 115:1 228:1 272:1 417:1 431:1 488:1 765:1 841:1 918:1 1034:1 1132:1 1265:1 1346:1 1449:1 1511:1 1740:1 1882:1 1907:1 1956:1 2136:1 2141:1 2499:1 2509:1 2947:1 
1 
1 
1 1466:1 
0.04067257561750658 43:1 90:1 176:1 383:1 431:1 607:1 722:1 777:1 918:1 933:1 937:1 950:1 981:1 1425:1 1449:1 1603:1 1740:1 1882:1 2141:1 2197:1 2523:1 2622:1 2759:1 2947:1 
1 
1 978:1 1425:1 1662:1 1926:1 2046:1 2598:1 
0.4130788637900414 35:1 42:1 43:1 57:1 431:1 488:1 607:1 705:1 707:1 918:1 952:1 997:1 1049:1 1170:1 1444:1 1449:1 1670:1 1696:1 1740:1 1879:1 1882:1 1907:1 1943:1 2024:1 2140:1 2189:1 2197:1 2453:1 2514:1 2622:1 
0.1096818404714397 31:1 34:1 42:1 198:1 284:1 299:1 474:1 488:1 503:1 534:1 571:1 606:1 694:1 920:1 950:1 977:1 1119:1 1313:1 1327:1 1670:1 1741:1 1764:1 1867:1 1891:1 2031:1 2122:1 2141:1 2194:1 2231:1 2255:1 2514:1 2630:1 2714:1 2781:1 2824:1 2861:1 2891:1 
0.5238915898730164 35:1 43:1 57:1 722:1 918:1 959:1 1449:1 1511:1 1656:1 1670:1 1740:1 1882:1 2141:1 2514:1 2947:1 
0.0002099153047902605 890:1 1466:1 
1 542:1 935:1 2456:1 
1 1466:1 
1 1662:1 2537:1 
0.5772580376962435 43:1 272:1 488:1 531:1 607:1 918:1 933:1 1385:1 1425:1 1511:1 1670:1 1882:1 1907:1 1963:1 2115:1 2514:1 2714:1 2738:1 2833:1 2886:1 2947:1 
0.6761017742076859 115:1 174:1 662:1 805:1 1963:1 2091:1 2305:1 2446:1 2739:1 2767:1 
0.1353140972083303 282:1 488:1 607:1 933:1 1260:1 1361:1 1413:1 1449:1 1630:1 1670:1 1706:1 2093:1 2568:1 2837:1 
0.3475913877838028 42:1 351:1 784:1 1402:1 1480:1 1670:1 1672:1 1807:1 2335:1 2381:1 2514:1 2772:1 2863:1 
0.2736604812125379 326:1 383:1 431:1 504:1 910:1 1425:1 1525:1 1602:1 1917:1 2209:1 2389:1 2456:1 2495:1 2714:1 2794:1 
1 1899:1 
1 35:1 43:1 115:1 607:1 1449:1 1882:1 2947:1 
0.4421531869331299 35:1 43:1 57:1 191:1 272:1 383:1 488:1 765:1 777:1 910:1 1402:1 1449:1 1466:1 1670:1 1739:1 1740:1 1892:1 1893:1 1945:1 2005:1 2141:1 2428:1 2439:1 2499:1 2685:1 
0.1568543581170772 589:1 757:1 1291:1 1425:1 1459:1 1569:1 1640:1 1752:1 2012:1 2044:1 2492:1 2524:1 2551:1 2646:1 2851:1 
1 1466:1 
1 1466:1 
0.3658788711994366 42:1 191:1 211:1 356:1 559:1 1336:1 1425:1 2009:1 2080:1 2243:1 2537:1 
1 90:1 722:1 1511:1 2141:1 2698:1 
0.1159249392559479 194:1 1502:1 2194:1 
1 1466:1 
1 1466:1 
1 480:1 1655:1 1662:1 1975:1 2381:1 
1 480:1 1553:1 1655:1 1662:1 1975:1 2381:1 
1 320:1 535:1 662:1 705:1 1098:1 1656:1 1670:1 1674:1 1988:1 2426:1 2446:1 2514:1 2739:1 2767:1 2897:1 
0.4481465266297783 42:1 165:1 522:1 855:1 981:1 1670:1 1728:1 2298:1 2326:1 2351:1 2395:1 2645:1 2685:1 
0.3800698345805011 32:1 175:1 496:1 1145:1 1319:1 1425:1 1548:1 1655:1 1662:1 2132:1 2628:1 2751:1 
0.1405645161408842 326:1 910:1 1688:1 1917:1 2444:1 2456:1 
0.6278278693066831 35:1 43:1 312:1 607:1 765:1 918:1 933:1 937:1 975:1 1128:1 1425:1 1449:1 1485:1 1701:1 1740:1 1818:1 1882:1 1907:1 2141:1 2228:1 2381:1 2428:1 2518:1 2714:1 2886:1 2947:1 2952:1 
1 35:1 43:1 57:1 607:1 910:1 918:1 925:1 933:1 1170:1 1449:1 1740:1 1882:1 1963:1 2075:1 2197:1 2228:1 2640:1 2685:1 2709:1 2714:1 2803:1 2947:1 
0.4446835386769304 43:1 176:1 331:1 383:1 431:1 607:1 722:1 765:1 777:1 933:1 937:1 950:1 1081:1 1425:1 1449:1 1603:1 1740:1 1882:1 2025:1 2141:1 2197:1 2523:1 2573:1 2714:1 2947:1 2950:1 
1 
1 
0.7139096123097235 35:1 43:1 272:1 607:1 765:1 918:1 950:1 983:1 1346:1 1449:1 1656:1 1882:1 1907:1 2518:1 2573:1 
1 4:1 35:1 43:1 607:1 765:1 790:1 881:1 918:1 933:1 1346:1 1449:1 1740:1 1879:1 1882:1 1892:1 2197:1 2428:1 2518:1 2559:1 2947:1 
1 4:1 35:1 43:1 607:1 918:1 1346:1 1449:1 1882:1 2947:1 
0.09823195633230107 131:1 141:1 390:1 1090:1 1140:1 1146:1 1781:1 2351:1 2599:1 2925:1 2938:1 
0.06743419498774715 57:1 198:1 233:1 431:1 438:1 790:1 805:1 881:1 923:1 940:1 981:1 1242:1 1283:1 1374:1 1402:1 1425:1 1444:1 1478:1 1670:1 2273:1 2363:1 2387:1 2572:1 2751:1 2866:1 
1 115:1 1413:1 2850:1 
0.2633819244205415 31:1 42:1 1064:1 1132:1 1425:1 1488:1 1493:1 1557:1 1583:1 1662:1 1668:1 2351:1 2477:1 2514:1 2714:1 
0.1407365967965166 35:1 43:1 157:1 1119:1 1603:1 1620:1 1662:1 1670:1 1674:1 1696:1 1740:1 1792:1 1988:1 2139:1 2305:1 2514:1 2564:1 2767:1 2769:1 2778:1 2816:1 2899:1 
1 
1 1466:1 
0.8706415222107639 90:1 722:1 918:1 1740:1 1879:1 1997:1 2571:1 
1 1466:1 
0.3187653638878628 365:1 445:1 790:1 1048:1 1425:1 1755:1 1870:1 2351:1 2905:1 
0.03486281867220156 42:1 1413:1 1425:1 1612:1 1656:1 1670:1 1943:1 1995:1 2285:1 2424:1 2426:1 2440:1 2547:1 2561:1 2681:1 2685:1 2853:1 2888:1 
1 1172:1 1488:1 1770:1 
0.1416118379367839 35:1 115:1 317:1 354:1 705:1 910:1 1211:1 1402:1 1670:1 1676:1 1740:1 1818:1 1963:1 2012:1 2044:1 2165:1 2320:1 2324:1 2331:1 2521:1 2537:1 2571:1 2757:1 2933:1 
1 
1 1662:1 2537:1 
0.2730123573950758 317:1 705:1 836:1 910:1 1211:1 1425:1 1740:1 2049:1 2254:1 2714:1 
0.01745110882239367 10:1 287:1 365:1 385:1 928:1 979:1 1092:1 1136:1 1425:1 1767:1 1867:1 1904:1 2065:1 2084:1 2194:1 2846:1 2948:1 
0.3373977078733923 1662:1 1669:1 1902:1 
0.1787462637716082 31:1 123:1 151:1 423:1 438:1 605:1 664:1 752:1 865:1 883:1 920:1 977:1 1364:1 1425:1 1488:1 1504:1 1670:1 1812:1 1867:1 2257:1 2373:1 2528:1 2650:1 2766:1 2771:1 2778:1 
0.02000850331991892 264:1 535:1 1740:1 2628:1 
1 1466:1 
0.2294602443037301 43:1 90:1 331:1 910:1 918:1 925:1 935:1 1102:1 1170:1 1425:1 1437:1 1511:1 1662:1 1882:1 2022:1 2025:1 2068:1 2075:1 2139:1 2141:1 2240:1 2514:1 2640:1 
0.07531179507254308 322:1 492:1 720:1 869:1 910:1 1367:1 1374:1 1642:1 1655:1 1657:1 1662:1 1738:1 1740:1 1843:1 1921:1 1926:1 1941:1 1978:1 2046:1 2095:1 2374:1 2514:1 2689:1 2738:1 2756:1 2924:1 2933:1 
0.3079595862241717 42:1 332:1 533:1 1425:1 1670:1 1740:1 1835:1 1971:1 2208:1 2293:1 2514:1 2738:1 2926:1 
1 35:1 1449:1 1740:1 1882:1 2228:1 2833:1 
1 
0.243535809386767 191:1 331:1 356:1 1336:1 1425:1 1615:1 1662:1 2022:1 2025:1 2424:1 
0.1101299178529156 32:1 251:1 290:1 295:1 504:1 659:1 705:1 1071:1 1402:1 1462:1 1488:1 1670:1 1674:1 1963:1 2238:1 2342:1 2495:1 2685:1 2714:1 2734:1 2920:1 2933:1 
0.000126482151988881 1038:1 1466:1 
0.2235020762431876 1:1 42:1 160:1 906:1 925:1 1080:1 1548:1 1662:1 1670:1 2044:1 2394:1 2514:1 2914:1 2917:1 
0.118368976321641 115:1 155:1 488:1 535:1 705:1 891:1 910:1 1402:1 1425:1 1628:1 1656:1 1658:1 1662:1 1696:1 1722:1 1785:1 1922:1 2252:1 2273:1 2425:1 2647:1 2652:1 2659:1 2714:1 
1 115:1 1899:1 
1 4:1 43:1 57:1 90:1 607:1 765:1 777:1 841:1 933:1 1277:1 1346:1 1449:1 1485:1 1882:1 2141:1 2428:1 2518:1 2833:1 2886:1 2947:1 
0.02257714308747167 139:1 236:1 280:1 285:1 488:1 596:1 643:1 685:1 694:1 800:1 1022:1 1219:1 1381:1 1404:1 1425:1 1439:1 1445:1 1456:1 1488:1 1662:1 1670:1 1744:1 1835:1 1994:1 2067:1 2584:1 2609:1 2718:1 2778:1 2785:1 
0.185188810901838 231:1 284:1 365:1 455:1 514:1 553:1 925:1 1055:1 1339:1 1423:1 1425:1 1483:1 1624:1 1662:1 1670:1 1766:1 1840:1 1900:1 1942:1 2067:1 2079:1 2123:1 2127:1 2295:1 2424:1 2438:1 2454:1 2477:1 2685:1 2734:1 2736:1 
0.03365720864093071 4:1 6:1 42:1 120:1 285:1 438:1 534:1 571:1 627:1 865:1 925:1 1008:1 1425:1 1482:1 1640:1 1670:1 1736:1 1814:1 1867:1 2069:1 2424:1 2464:1 2524:1 2570:1 2574:1 2748:1 2893:1 
0.4790952344592646 504:1 1425:1 2389:1 2442:1 2635:1 
0.06967778151412557 6:1 97:1 284:1 285:1 327:1 328:1 748:1 1179:1 1425:1 1476:1 1574:1 1604:1 1721:1 1831:1 1866:1 1867:1 2184:1 2419:1 2509:1 2573:1 2581:1 2656:1 2683:1 2717:1 2751:1 
0.2496214824083779 4:1 43:1 90:1 229:1 312:1 383:1 431:1 507:1 607:1 765:1 918:1 933:1 1013:1 1449:1 1594:1 1740:1 1882:1 2141:1 2583:1 2709:1 2801:1 2947:1 
0.3045667037044327 504:1 643:1 780:1 881:1 907:1 1247:1 1425:1 1655:1 1662:1 1712:1 2378:1 2431:1 2441:1 2628:1 2751:1 2778:1 2901:1 
1 1466:1 
0.2313802534000056 201:1 383:1 504:1 535:1 796:1 991:1 997:1 1013:1 1102:1 1145:1 1240:1 1266:1 1319:1 1425:1 1602:1 1662:1 1775:1 1780:1 2228:1 2541:1 2685:1 2714:1 2762:1 
0.2021495876457738 4:1 43:1 57:1 90:1 431:1 765:1 918:1 1425:1 1449:1 1882:1 1907:1 2141:1 2714:1 2886:1 2947:1 
0.0002779932035636032 1039:1 1466:1 
1 43:1 90:1 115:1 607:1 918:1 933:1 1449:1 1882:1 2886:1 2947:1 
0.05654756243148495 4:1 43:1 117:1 517:1 607:1 642:1 748:1 765:1 933:1 1013:1 1346:1 1425:1 1449:1 1882:1 1907:1 1991:1 2141:1 2142:1 2428:1 2714:1 2806:1 2837:1 2947:1 
0.6974237852747099 43:1 57:1 90:1 607:1 918:1 933:1 1449:1 1740:1 1882:1 2428:1 2518:1 2798:1 2947:1 
0.000286240769328306 1466:1 2850:1 
1 1662:1 2537:1 
0.2794043962685614 115:1 535:1 1240:1 1425:1 1426:1 1617:1 1662:1 1687:1 1728:1 1782:1 2215:1 2503:1 2901:1 
1 910:1 1081:1 1425:1 2598:1 2763:1 
1 171:1 331:1 1081:1 1670:1 1720:1 2022:1 2025:1 
0.1755247362572857 42:1 211:1 448:1 535:1 773:1 869:1 910:1 1114:1 1272:1 1402:1 1425:1 1511:1 1778:1 1989:1 2325:1 2424:1 2498:1 2514:1 2548:1 2786:1 2820:1 2936:1 
0.005494635230176806 42:1 297:1 863:1 1074:1 1101:1 1113:1 1163:1 1266:1 1306:1 1314:1 1425:1 1488:1 1670:1 1744:1 2141:1 2454:1 2549:1 2577:1 2583:1 2752:1 2887:1 2917:1 2932:1 
1 431:1 607:1 1111:1 1449:1 1740:1 1882:1 2779:1 
0.06460181654689769 90:1 191:1 248:1 331:1 438:1 488:1 660:1 728:1 869:1 910:1 939:1 1081:1 1114:1 1272:1 1336:1 1425:1 1500:1 1615:1 1642:1 1662:1 1807:1 2498:1 2514:1 2543:1 2571:1 2790:1 2803:1 
1 
1 1466:1 
1 43:1 57:1 90:1 431:1 607:1 722:1 765:1 841:1 1449:1 1740:1 1882:1 1907:1 2141:1 2947:1 
1 1466:1 
0.07130346897758287 109:1 137:1 148:1 207:1 307:1 365:1 436:1 484:1 594:1 790:1 817:1 933:1 995:1 1013:1 1051:1 1119:1 1266:1 1307:1 1374:1 1402:1 1425:1 1488:1 1670:1 1735:1 1841:1 1861:1 1876:1 2351:1 2380:1 2500:1 2583:1 2584:1 2685:1 
0.07145624815822077 903:1 1449:1 1630:1 2424:1 2465:1 2503:1 2778:1 
1 
0.7768853779924444 43:1 581:1 910:1 950:1 970:1 1246:1 1316:1 1662:1 1670:1 1858:1 2086:1 2090:1 2133:1 2139:1 2325:1 2514:1 2573:1 2651:1 2730:1 2739:1 2769:1 2778:1 2934:1 
0.1313197052420481 383:1 825:1 1145:1 1416:1 1447:1 1449:1 1503:1 1600:1 1630:1 1652:1 1670:1 1696:1 1706:1 1740:1 1846:1 1875:1 1946:1 1963:1 2002:1 2041:1 2137:1 2164:1 2292:1 2357:1 2381:1 2424:1 2476:1 2547:1 2739:1 2751:1 2772:1 2854:1 2888:1 
1 1662:1 2537:1 
0.1813597276288081 42:1 45:1 82:1 383:1 385:1 458:1 467:1 571:1 635:1 639:1 944:1 1045:1 1138:1 1316:1 1374:1 1402:1 1505:1 1662:1 1670:1 1963:1 2013:1 2120:1 2305:1 2378:1 2514:1 2604:1 2730:1 2744:1 2796:1 2934:1 
1 
0.02566457930609425 42:1 291:1 507:1 639:1 1630:1 1652:1 1692:1 1797:1 1845:1 2033:1 2046:1 2093:1 2289:1 2298:1 2433:1 2503:1 2533:1 2751:1 
1 1367:1 1425:1 1662:1 1926:1 2046:1 2598:1 
0.1498605598687752 352:1 1662:1 1670:1 2066:1 2159:1 2172:1 2330:1 2514:1 2739:1 
0.1674990884710249 43:1 57:1 431:1 918:1 1449:1 2115:1 2140:1 2311:1 2947:1 
1 1662:1 2537:1 
0.291649490214666 4:1 174:1 488:1 607:1 761:1 819:1 852:1 1055:1 1402:1 1630:1 1659:1 1662:1 1670:1 1965:1 2186:1 2384:1 2417:1 2495:1 2514:1 2537:1 
0.4205851954462806 51:1 71:1 115:1 345:1 774:1 1609:1 1630:1 1662:1 1670:1 1854:1 2465:1 2514:1 
0.3124359023981364 42:1 284:1 347:1 617:1 637:1 693:1 1135:1 1314:1 1374:1 1476:1 1488:1 1489:1 1490:1 1670:1 1867:1 1914:1 2113:1 2317:1 2424:1 2438:1 2439:1 2451:1 2766:1 2778:1 2886:1 2914:1 2917:1 
1 
1 488:1 1223:1 1943:1 2282:1 2866:1 
0.2315771612257967 13:1 325:1 478:1 520:1 821:1 920:1 1009:1 1170:1 1326:1 1425:1 1629:1 1637:1 2079:1 2089:1 2351:1 2424:1 2477:1 2514:1 2605:1 2637:1 
1 1466:1 
0.3175110061111698 42:1 90:1 705:1 1402:1 1425:1 1642:1 1662:1 1880:1 2197:1 2574:1 2819:1 
1 1466:1 
0.041658118128499 253:1 400:1 535:1 1425:1 1568:1 1656:1 1662:1 1670:1 1696:1 1740:1 2024:1 2215:1 2792:1 
1 
0.06098721403266956 101:1 165:1 281:1 442:1 488:1 790:1 1476:1 1484:1 1640:1 1750:1 1870:1 1916:1 1917:1 2069:1 2089:1 2222:1 2260:1 2293:1 2503:1 2514:1 2637:1 
1 1662:1 2537:1 
0.09621754256810405 42:1 304:1 362:1 378:1 394:1 502:1 519:1 524:1 823:1 925:1 1132:1 1223:1 1425:1 1434:1 1490:1 1670:1 1816:1 1847:1 1850:1 1867:1 1929:1 1975:1 2044:1 2064:1 2097:1 2221:1 2479:1 2511:1 2514:1 2835:1 
1 
0.1594169983295001 154:1 289:1 488:1 539:1 545:1 578:1 641:1 689:1 697:1 925:1 1129:1 1132:1 1213:1 1425:1 1548:1 1556:1 1559:1 1660:1 1662:1 1670:1 1782:1 2045:1 2089:1 2121:1 2123:1 2221:1 2231:1 2389:1 2479:1 2514:1 2560:1 2612:1 2780:1 2845:1 2897:1 
0.1023432285067558 42:1 488:1 599:1 823:1 924:1 1402:1 1425:1 1488:1 1568:1 1916:1 1943:1 2065:1 2282:1 2514:1 2549:1 2778:1 2866:1 2903:1 
0.3026459718984916 15:1 115:1 504:1 535:1 1145:1 1319:1 1321:1 1425:1 1543:1 1568:1 1655:1 1662:1 1696:1 1876:1 2128:1 2262:1 2393:1 2503:1 2645:1 
0.1735361425214513 42:1 58:1 73:1 111:1 133:1 544:1 716:1 770:1 925:1 1132:1 1283:1 1384:1 1425:1 1438:1 1488:1 1546:1 1662:1 1670:1 1721:1 1744:1 1867:1 2194:1 2231:1 2293:1 2491:1 2514:1 2685:1 2897:1 2917:1 
0.8800727761336117 115:1 1413:1 1488:1 
0.5165042928249095 287:1 1107:1 1374:1 1425:1 1642:1 1662:1 1674:1 1880:1 2819:1 
0.005325329081859995 42:1 128:1 198:1 385:1 433:1 488:1 762:1 813:1 925:1 1104:1 1124:1 1132:1 1231:1 1280:1 1283:1 1386:1 1402:1 1566:1 1668:1 1670:1 1703:1 1851:1 1891:1 1963:1 2030:1 2037:1 2295:1 2345:1 2351:1 2557:1 2583:1 2751:1 2882:1 2933:1 
1 4:1 35:1 43:1 607:1 758:1 765:1 841:1 910:1 1277:1 1346:1 1449:1 1882:1 1912:1 2228:1 2428:1 2518:1 2886:1 
1 1466:1 
0.0003041351256191363 1028:1 1466:1 
0.1552299924970477 42:1 165:1 696:1 718:1 756:1 1191:1 1655:1 1662:1 1670:1 1674:1 1740:1 1764:1 2208:1 2215:1 2283:1 2442:1 2514:1 2628:1 2729:1 2855:1 2860:1 2897:1 2904:1 
1 4:1 35:1 43:1 57:1 607:1 758:1 910:1 918:1 933:1 1346:1 1449:1 1740:1 1882:1 1907:1 1963:1 2139:1 2228:1 2518:1 2947:1 
0.854337326260999 504:1 1425:1 1602:1 1662:1 1978:1 2061:1 2282:1 2503:1 
1 1466:1 
1 4:1 43:1 431:1 607:1 765:1 933:1 1034:1 1346:1 1425:1 1449:1 1882:1 2428:1 2714:1 2837:1 2947:1 
0.8638022105802547 43:1 90:1 215:1 228:1 318:1 431:1 722:1 758:1 918:1 922:1 1098:1 1265:1 1346:1 1392:1 1425:1 1449:1 1524:1 1740:1 1882:1 2141:1 2197:1 2551:1 2649:1 2714:1 2947:1 
1 331:1 1081:1 1425:1 1662:1 2022:1 2514:1 2714:1 
0.2365533461289629 978:1 1662:1 2273:1 
1 4:1 43:1 431:1 607:1 722:1 765:1 841:1 1346:1 1449:1 1485:1 1740:1 1882:1 2141:1 2428:1 2659:1 2714:1 2947:1 
0.2120589091365481 20:1 67:1 124:1 265:1 431:1 492:1 694:1 722:1 765:1 852:1 862:1 881:1 933:1 998:1 1108:1 1191:1 1203:1 1265:1 1425:1 1449:1 1656:1 1740:1 1882:1 1892:1 1963:1 2021:1 2098:1 2518:1 2549:1 2573:1 2714:1 2886:1 2947:1 
1 1662:1 2537:1 
0.5102761587448714 198:1 251:1 1087:1 1119:1 1219:1 1662:1 1670:1 1735:1 1851:1 2296:1 2381:1 2678:1 2732:1 2739:1 2751:1 
1 1466:1 
1 171:1 331:1 910:1 1081:1 1425:1 1670:1 2025:1 
0.6234349538507038 4:1 43:1 431:1 607:1 648:1 777:1 841:1 918:1 933:1 1052:1 1277:1 1449:1 1485:1 1740:1 1882:1 2098:1 2141:1 2518:1 2833:1 2886:1 2947:1 
0.7738568803789538 191:1 331:1 356:1 1336:1 1425:1 1615:1 1662:1 2022:1 2025:1 2424:1 
0.06527265079430321 42:1 118:1 223:1 492:1 607:1 736:1 853:1 1286:1 1425:1 1735:1 1740:1 2089:1 2101:1 2123:1 2147:1 2295:1 2371:1 2438:1 2455:1 2477:1 2574:1 2583:1 2678:1 
0.5237360582450948 264:1 535:1 790:1 916:1 1102:1 1284:1 1425:1 1476:1 1488:1 1568:1 1662:1 2132:1 2901:1 
0.8570639315656696 4:1 43:1 182:1 607:1 722:1 956:1 1265:1 1449:1 1882:1 1963:1 2886:1 2947:1 
0.4855165384374805 1488:1 1605:1 
1 35:1 43:1 918:1 933:1 1449:1 1882:1 1963:1 2886:1 
0.461314462967994 35:1 57:1 530:1 722:1 959:1 998:1 1153:1 1239:1 1251:1 1425:1 1466:1 1771:1 2115:1 2404:1 2886:1 2909:1 
0.1350210459096527 42:1 123:1 239:1 298:1 504:1 707:1 1145:1 1245:1 1288:1 1319:1 1425:1 1568:1 1569:1 1662:1 1696:1 1979:1 2132:1 2441:1 2463:1 2632:1 2645:1 2685:1 2794:1 
0.02705426054178892 43:1 228:1 431:1 607:1 722:1 765:1 841:1 918:1 933:1 983:1 998:1 1449:1 1740:1 1882:1 1963:1 2141:1 2518:1 2935:1 2947:1 2950:1 
0.3229261353510875 976:1 1402:1 1448:1 1449:1 1696:1 1740:1 1882:1 2298:1 2429:1 2644:1 
0.1087615123709009 365:1 402:1 492:1 521:1 790:1 800:1 950:1 1051:1 1425:1 1476:1 1640:1 1670:1 1696:1 1735:1 1866:1 1943:1 2273:1 2293:1 2514:1 2535:1 2637:1 2681:1 2751:1 2823:1 2933:1 
1 1425:1 2514:1 2891:1 
1 1466:1 
0.09748479967232999 97:1 504:1 528:1 639:1 723:1 878:1 925:1 1289:1 1402:1 1425:1 1670:1 1746:1 1750:1 2027:1 2141:1 2560:1 2624:1 2663:1 2704:1 2914:1 
0.5995076936130954 935:1 1466:1 1899:1 
0.374032985091469 253:1 935:1 1402:1 1616:1 1791:1 1880:1 2206:1 2247:1 2456:1 2491:1 2875:1 
0.02310601316821483 12:1 207:1 1071:1 1119:1 1120:1 1402:1 1425:1 1430:1 1508:1 1519:1 1525:1 1662:1 1670:1 1963:1 1979:1 2008:1 2040:1 2236:1 2492:1 2514:1 
0.91965794819005 42:1 115:1 1568:1 1662:1 1803:1 1831:1 1983:1 2089:1 2215:1 2381:1 2751:1 
0.07727215653829832 42:1 52:1 337:1 416:1 521:1 645:1 677:1 730:1 805:1 925:1 1048:1 1080:1 1210:1 1441:1 1548:1 1670:1 1773:1 1811:1 1853:1 2230:1 2424:1 2514:1 2616:1 2685:1 2840:1 2933:1 
0.4746536220222478 488:1 660:1 869:1 938:1 2139:1 2141:1 2364:1 2428:1 2514:1 2778:1 
9.837100965933798e-05 892:1 1466:1 
0.4531373244013502 43:1 90:1 211:1 312:1 464:1 669:1 722:1 1170:1 1226:1 1425:1 1511:1 1617:1 1882:1 2583:1 2714:1 
1 253:1 438:1 722:1 762:1 935:1 1043:1 1402:1 1568:1 2003:1 2040:1 2456:1 2491:1 2875:1 
1 1466:1 
1 1466:1 
0.159173256482449 42:1 114:1 131:1 134:1 311:1 344:1 399:1 450:1 544:1 925:1 1055:1 1094:1 1425:1 1470:1 1488:1 1670:1 1735:1 1812:1 1874:1 1980:1 2045:1 2176:1 2424:1 2480:1 2717:1 2778:1 2810:1 2917:1 2925:1 
0.001638107692098919 253:1 438:1 935:1 1402:1 1603:1 2040:1 2206:1 2456:1 
0.03462948964222205 905:1 1494:1 1496:1 1670:1 1979:1 2027:1 2168:1 2424:1 
0.4693983428711459 253:1 438:1 762:1 935:1 1043:1 1402:1 2003:1 2040:1 2456:1 2491:1 2875:1 
1 
0.01026282062926697 42:1 347:1 552:1 763:1 1152:1 1240:1 1371:1 1401:1 1402:1 1425:1 1488:1 1550:1 1633:1 1670:1 1778:1 2108:1 2194:1 2293:1 2317:1 2514:1 2557:1 2574:1 2668:1 2679:1 2770:1 2792:1 2937:1 
0.4152674982924309 1425:1 1617:1 2813:1 
1 1425:1 1617:1 2813:1 
0.9114897147489264 1425:1 1617:1 
1 1425:1 1617:1 2813:1 
1 1425:1 1617:1 
1 1425:1 1617:1 
1 1425:1 1617:1 
1 1425:1 1617:1 
1 1425:1 1617:1 
1 1425:1 1617:1 
1 1425:1 1617:1 2813:1 
1 1425:1 1617:1 2813:1 
1 1425:1 1617:1 2813:1 
1 1425:1 1617:1 
1 1425:1 1617:1 
1 1425:1 1617:1 2813:1 
1 1425:1 1617:1 
1 1425:1 1617:1 2813:1 
1 1425:1 1617:1 2813:1 
0.01155542088509439 140:1 159:1 164:1 186:1 649:1 969:1 1106:1 1221:1 1233:1 1311:1 1327:1 1425:1 1436:1 1500:1 1670:1 1671:1 1679:1 1806:1 2050:1 2125:1 2286:1 2318:1 2331:1 2514:1 2600:1 2625:1 2747:1 
1 1425:1 1617:1 
1 1425:1 1617:1 
1 1425:1 1617:1 
1 1425:1 1617:1 
1 1425:1 1617:1 2813:1 
1 1425:1 1617:1 
1 1425:1 1617:1 
1 1425:1 1617:1 
1 1425:1 1617:1 
1 1425:1 1617:1 2813:1 
1 1425:1 1617:1 
1 1425:1 1617:1 
1 1425:1 1617:1 
1 1425:1 1617:1 
1 1425:1 1617:1 
1 1425:1 1617:1 
1 1425:1 1617:1 
1 1425:1 1617:1 
1 1425:1 1617:1 2813:1 
0.1096977486634229 99:1 228:1 383:1 496:1 504:1 507:1 637:1 805:1 925:1 991:1 1129:1 1197:1 1219:1 1242:1 1391:1 1670:1 1744:1 2266:1 2293:1 2331:1 2581:1 2583:1 2678:1 2748:1 2785:1 2838:1 2896:1 2897:1 2914:1 
0.9520259819547535 4:1 35:1 43:1 57:1 228:1 488:1 607:1 765:1 841:1 918:1 1346:1 1449:1 1740:1 1882:1 2123:1 2141:1 2228:1 2428:1 2477:1 2714:1 2947:1 
0.3617062426600468 43:1 57:1 360:1 488:1 607:1 881:1 910:1 918:1 925:1 983:1 1425:1 1449:1 1450:1 1882:1 1963:1 2228:1 2248:1 2284:1 2420:1 2640:1 2685:1 2714:1 2947:1 
1 4:1 43:1 57:1 115:1 439:1 488:1 607:1 758:1 918:1 933:1 1346:1 1425:1 1449:1 1662:1 1670:1 1882:1 1892:1 1963:1 2139:1 2228:1 2676:1 2714:1 2886:1 2947:1 
1 331:1 910:1 1081:1 1662:1 2022:1 2025:1 
1 4:1 43:1 488:1 607:1 1346:1 1449:1 1740:1 1882:1 2228:1 2428:1 2947:1 
1 998:1 1425:1 1662:1 2645:1 
1 1425:1 1740:1 
0.1784727206136969 462:1 518:1 643:1 822:1 838:1 933:1 1005:1 1185:1 1191:1 1431:1 1435:1 1620:1 1630:1 1662:1 1696:1 1740:1 1972:1 1983:1 2023:1 2028:1 2050:1 2165:1 2272:1 2483:1 2515:1 2537:1 2858:1 
0.5014985768894052 35:1 43:1 57:1 228:1 316:1 488:1 722:1 918:1 1449:1 1740:1 1882:1 2228:1 2833:1 2947:1 
0.1478148239704207 42:1 97:1 302:1 347:1 507:1 514:1 627:1 939:1 960:1 1247:1 1266:1 1352:1 1401:1 1422:1 1425:1 1660:1 1814:1 1940:1 1995:1 2130:1 2214:1 2299:1 2337:1 2378:1 2424:1 2524:1 2574:1 2612:1 2648:1 2717:1 2751:1 2785:1 2824:1 2866:1 2886:1 
0.1650863786806762 365:1 571:1 728:1 1107:1 1266:1 1368:1 1374:1 1425:1 1582:1 1655:1 1662:1 1738:1 1831:1 2089:1 2105:1 2119:1 2282:1 2381:1 2455:1 2476:1 2514:1 2574:1 2685:1 2794:1 2925:1 
1 57:1 488:1 560:1 722:1 910:1 1425:1 1662:1 1825:1 2046:1 2598:1 
0.05862505453945094 42:1 868:1 883:1 1526:1 1662:1 1827:1 2294:1 2373:1 2403:1 2778:1 
0.4620349857752178 35:1 42:1 158:1 488:1 765:1 1219:1 1449:1 1656:1 1670:1 1882:1 1963:1 2197:1 2424:1 2494:1 2514:1 2573:1 
1 
0.2844712212690146 43:1 115:1 202:1 264:1 282:1 543:1 1102:1 1402:1 1657:1 1670:1 1696:1 1882:1 1962:1 2294:1 2352:1 2374:1 2514:1 2683:1 2685:1 2739:1 2793:1 2807:1 
0.05232220092697841 72:1 175:1 325:1 536:1 867:1 925:1 1221:1 1234:1 1315:1 1425:1 1479:1 1545:1 1640:1 1656:1 1662:1 1670:1 1810:1 1951:1 2258:1 2282:1 2294:1 2331:1 2368:1 2424:1 2514:1 2551:1 2714:1 2746:1 2751:1 2840:1 2876:1 
0.5441075307770822 480:1 1662:1 1975:1 2738:1 
0.03694309004611831 220:1 259:1 329:1 347:1 530:1 664:1 685:1 756:1 790:1 1221:1 1425:1 1444:1 1458:1 1464:1 1556:1 1574:1 1580:1 1640:1 1662:1 1739:1 1740:1 1979:1 2123:1 2345:1 2685:1 2717:1 2778:1 2783:1 2886:1 2906:1 
1 1466:1 
0.8944670806086292 194:1 445:1 1425:1 1621:1 1662:1 2685:1 2934:1 
0.04378146784488889 335:1 466:1 910:1 925:1 1402:1 1425:1 1500:1 1552:1 1662:1 1733:1 1738:1 1926:1 2685:1 2778:1 
0.4842559060938523 48:1 365:1 797:1 1114:1 1425:1 1655:1 1662:1 1670:1 2132:1 2215:1 2362:1 2925:1 
0.0002862407693283553 1035:1 1466:1 
0.2160563734394571 35:1 202:1 935:1 1247:1 1425:1 1437:1 1509:1 1512:1 1655:1 1662:1 1670:1 1930:1 2016:1 2494:1 2514:1 2632:1 
1 4:1 43:1 57:1 90:1 431:1 607:1 758:1 765:1 1346:1 1425:1 1449:1 1740:1 1882:1 2141:1 2428:1 2714:1 2947:1 
1 1662:1 1916:1 
0.2174519275325532 42:1 89:1 157:1 250:1 293:1 438:1 680:1 881:1 883:1 1062:1 1073:1 1168:1 1381:1 1425:1 1654:1 1662:1 2020:1 2095:1 2123:1 2141:1 2467:1 2583:1 2613:1 2818:1 2842:1 2955:1 
0.3271807628623257 42:1 165:1 914:1 1231:1 1425:1 1740:1 2514:1 
0.04367841763055885 115:1 1120:1 1449:1 1740:1 1963:1 2305:1 2446:1 2503:1 2559:1 2738:1 2807:1 2897:1 
1 2381:1 
1 2381:1 
1 2381:1 
1 2381:1 
1 2381:1 
1 2381:1 
1 2381:1 
0.8842002388372314 2652:1 
1 2652:1 
1 2652:1 
0.489470284772677 42:1 78:1 313:1 342:1 372:1 571:1 643:1 927:1 1090:1 1179:1 1324:1 1402:1 1425:1 1662:1 1835:1 2514:1 2717:1 2820:1 2956:1 
0.4475004606335478 42:1 43:1 725:1 1145:1 1319:1 1425:1 1455:1 1662:1 1670:1 2079:1 2109:1 2132:1 2228:1 2441:1 2628:1 
0.1892618429069565 188:1 431:1 488:1 722:1 918:1 1265:1 1449:1 1654:1 1670:1 1882:1 2141:1 2886:1 2950:1 
0.258476109694818 480:1 1662:1 1975:1 2738:1 
1 1425:1 1617:1 2813:1 
0.584796734417233 1425:1 1617:1 2813:1 
1 2652:1 
0.2648302157893324 4:1 35:1 43:1 115:1 312:1 323:1 722:1 758:1 918:1 933:1 1170:1 1425:1 1445:1 1449:1 1882:1 2025:1 2424:1 2499:1 2537:1 2583:1 2714:1 2833:1 2947:1 
1 1466:1 
1 4:1 488:1 607:1 1346:1 1449:1 1882:1 2228:1 
0.007305143213765672 43:1 488:1 607:1 1449:1 1963:1 2428:1 2886:1 2947:1 
1 1662:1 1882:1 2598:1 
0.8397747084299674 57:1 322:1 431:1 765:1 774:1 777:1 841:1 1121:1 1432:1 1437:1 1670:1 1879:1 2217:1 2424:1 2514:1 2640:1 2947:1 2950:1 
1 
-1 
-0.7667202691673435 92:1 935:1 1053:1 1415:1 
-1 1114:1 1415:1 
-1 42:1 1415:1 
-1 1415:1 
-0.1624087441751186 30:1 61:1 346:1 430:1 445:1 488:1 664:1 925:1 1089:1 1183:1 1425:1 1439:1 1567:1 1581:1 1620:1 1670:1 1867:1 2141:1 2351:1 2424:1 2465:1 2631:1 2685:1 2816:1 
-0.5381092971750142 4:1 43:1 57:1 488:1 607:1 758:1 910:1 918:1 933:1 1346:1 1449:1 1485:1 1511:1 1696:1 1725:1 1740:1 1892:1 2088:1 2428:1 2518:1 2947:1 
-0.3665043082355086 230:1 431:1 577:1 777:1 950:1 1111:1 1163:1 1172:1 1226:1 1425:1 1597:1 1656:1 1662:1 2424:1 2428:1 2514:1 2714:1 2807:1 
-1 43:1 115:1 431:1 488:1 722:1 1449:1 1740:1 1882:1 2950:1 
-0.3225781552154943 4:1 35:1 43:1 57:1 417:1 479:1 488:1 722:1 918:1 1346:1 1449:1 1792:1 1879:1 1882:1 1926:1 2050:1 2141:1 2205:1 2265:1 2428:1 2583:1 
-1 1415:1 
-0.4032915213746249 35:1 43:1 488:1 607:1 713:1 758:1 765:1 910:1 933:1 1087:1 1449:1 1740:1 1818:1 1882:1 1912:1 1963:1 2139:1 2141:1 2228:1 2428:1 2518:1 2886:1 2947:1 
-0.806356223995974 1415:1 2145:1 2766:1 
-0.2038461087190962 42:1 436:1 501:1 593:1 735:1 845:1 899:1 1084:1 1266:1 1402:1 1425:1 1488:1 1749:1 1803:1 1841:1 1973:1 2132:1 2260:1 2503:1 2554:1 2717:1 2748:1 2866:1 2898:1 
-0.3605991836699138 4:1 43:1 488:1 607:1 918:1 933:1 976:1 1297:1 1346:1 1448:1 1449:1 1732:1 1740:1 1882:1 1892:1 2228:1 2429:1 2714:1 2947:1 
-0.226021640441172 9:1 933:1 1266:1 1502:1 1740:1 1761:1 1858:1 2782:1 2829:1 2926:1 
-0.003977628794260163 42:1 57:1 762:1 977:1 983:1 1023:1 1199:1 1425:1 1439:1 1494:1 1505:1 1643:1 1812:1 2089:1 2141:1 2310:1 2438:1 2631:1 2685:1 2738:1 2762:1 2766:1 2947:1 
-1 4:1 35:1 43:1 57:1 228:1 607:1 841:1 918:1 933:1 1346:1 1449:1 1740:1 1882:1 1963:1 2139:1 2228:1 2833:1 
-0.7729729180845309 201:1 385:1 765:1 1330:1 1476:1 1488:1 2378:1 2785:1 
-1 1466:1 
-1 1662:1 2537:1 
-1 4:1 35:1 43:1 488:1 607:1 841:1 918:1 933:1 1346:1 1449:1 1740:1 1882:1 2140:1 2886:1 2947:1 2950:1 
-0.3519220245246741 35:1 228:1 272:1 910:1 1277:1 2139:1 2141:1 2311:1 2514:1 2622:1 
-1 4:1 35:1 43:1 228:1 607:1 758:1 765:1 918:1 1346:1 1425:1 1740:1 1882:1 1907:1 1963:1 2141:1 2228:1 2714:1 
-0.9476849999828061 4:1 43:1 57:1 90:1 228:1 449:1 607:1 758:1 765:1 841:1 918:1 1346:1 1449:1 1740:1 1868:1 1882:1 1963:1 2139:1 2141:1 2228:1 2947:1 
-1 57:1 1178:1 1444:1 1926:1 2886:1 
-1 1738:1 1926:1 2714:1 
-0.8706170171900193 35:1 43:1 57:1 607:1 908:1 910:1 918:1 925:1 933:1 1449:1 1740:1 1882:1 1963:1 2228:1 2947:1 
-0.2430985657078675 42:1 90:1 228:1 332:1 437:1 546:1 703:1 1219:1 1402:1 1488:1 1656:1 1662:1 1670:1 1835:1 1850:1 1946:1 2123:1 2457:1 2514:1 2551:1 2617:1 2859:1 2901:1 2926:1 
-1 43:1 331:1 910:1 1081:1 1425:1 1662:1 2022:1 2025:1 2141:1 2417:1 2514:1 
-0.3267636044928699 42:1 1425:1 1655:1 1662:1 1780:1 1881:1 2046:1 2094:1 2262:1 2326:1 2628:1 2714:1 
-0.5089442445625544 4:1 43:1 90:1 162:1 272:1 431:1 660:1 739:1 918:1 933:1 950:1 1346:1 1449:1 1740:1 1882:1 1963:1 2046:1 2141:1 2886:1 2947:1 
-1 1662:1 1882:1 2598:1 
-0.4800508579246443 4:1 35:1 43:1 176:1 383:1 431:1 488:1 607:1 662:1 918:1 1081:1 1132:1 1171:1 1250:1 1346:1 1449:1 1603:1 1740:1 1818:1 1882:1 2139:1 2141:1 2382:1 2709:1 2711:1 2886:1 2947:1 
-1 272:1 765:1 975:1 1277:1 1511:1 1907:1 2514:1 2640:1 
-0.3812695675614804 42:1 211:1 660:1 1114:1 1402:1 1425:1 1642:1 1662:1 1778:1 1848:1 1858:1 1948:1 2574:1 2819:1 
-0.6007970506688183 998:1 1425:1 1617:1 2743:1 
-0.1513009724906701 90:1 284:1 291:1 385:1 488:1 639:1 774:1 1119:1 1413:1 1447:1 1503:1 1630:1 1670:1 1674:1 1706:1 1740:1 1774:1 1870:1 2004:1 2293:1 2381:1 2398:1 2424:1 2465:1 2547:1 2739:1 2751:1 
-1 1662:1 2537:1 
-1 4:1 43:1 57:1 431:1 607:1 722:1 841:1 918:1 1346:1 1449:1 1740:1 1882:1 1963:1 2139:1 2141:1 2228:1 2833:1 
-0.1187629441619947 68:1 165:1 210:1 244:1 254:1 287:1 325:1 444:1 445:1 650:1 674:1 705:1 744:1 808:1 821:1 900:1 901:1 1063:1 1129:1 1182:1 1194:1 1341:1 1425:1 1506:1 1657:1 1674:1 1935:1 2089:1 2183:1 2455:1 2513:1 2514:1 2583:1 2751:1 2778:1 
-1 4:1 43:1 331:1 431:1 607:1 765:1 841:1 918:1 933:1 1081:1 1346:1 1449:1 1740:1 1882:1 2025:1 2141:1 2833:1 2947:1 
-1 4:1 43:1 488:1 607:1 758:1 765:1 841:1 1346:1 1449:1 1740:1 1882:1 2139:1 2141:1 2228:1 2428:1 2947:1 
-1 115:1 488:1 1425:1 1449:1 1511:1 1740:1 2139:1 2141:1 
-0.351168839286528 35:1 488:1 643:1 795:1 823:1 960:1 1051:1 1108:1 1630:1 1696:1 1740:1 1882:1 1963:1 1974:1 2141:1 2318:1 2584:1 2589:1 2635:1 2707:1 2909:1 
-0.2745361897723835 42:1 445:1 609:1 789:1 925:1 1048:1 1095:1 1194:1 1374:1 1425:1 1482:1 1488:1 1530:1 1611:1 1670:1 1674:1 1847:1 1851:1 2250:1 2268:1 2318:1 2331:1 2450:1 2458:1 2568:1 2683:1 2866:1 
-0.00583811022107708 205:1 1119:1 1198:1 1425:1 2170:1 2186:1 2514:1 2564:1 
-1 295:1 1415:1 
-1 1425:1 1617:1 
-1 1466:1 
-0.3307975247883029 185:1 282:1 322:1 701:1 759:1 1046:1 1655:1 1662:1 1670:1 1828:1 1866:1 2091:1 2597:1 
-0.2380384786150996 322:1 789:1 819:1 925:1 958:1 1425:1 1526:1 1657:1 1662:1 1690:1 1695:1 1828:1 2141:1 2194:1 2399:1 2514:1 2570:1 2751:1 
-0.01063847213172632 178:1 253:1 438:1 507:1 762:1 935:1 1043:1 1402:1 1462:1 1472:1 1568:1 1722:1 1919:1 2003:1 2080:1 2206:1 2456:1 2491:1 2511:1 2514:1 2628:1 2794:1 2875:1 
-1 935:1 1466:1 2456:1 
-1 4:1 43:1 57:1 488:1 758:1 910:1 1449:1 1511:1 1740:1 1882:1 2046:1 2378:1 2428:1 2518:1 
-0.4290336475182825 35:1 43:1 191:1 530:1 1413:1 1511:1 2139:1 2141:1 2423:1 2837:1 
-1 4:1 43:1 607:1 1265:1 1449:1 1455:1 1882:1 2886:1 
-1 57:1 431:1 765:1 1081:1 1121:1 1449:1 1740:1 1963:1 2228:1 2362:1 2384:1 2912:1 
-1 1662:1 2537:1 
-0.5887767630818361 42:1 504:1 1402:1 1425:1 1475:1 1655:1 1662:1 1686:1 2132:1 2645:1 
-1 1466:1 
-1 43:1 115:1 431:1 488:1 722:1 918:1 983:1 1425:1 1449:1 1882:1 2141:1 2514:1 2947:1 
-1 115:1 1444:1 1963:1 2305:1 2738:1 2807:1 2854:1 
-0.4616109892026259 191:1 211:1 660:1 910:1 1114:1 1310:1 1425:1 1642:1 1662:1 1670:1 2446:1 2664:1 
-0.1531906663984133 42:1 643:1 699:1 910:1 975:1 983:1 1425:1 1443:1 1670:1 1678:1 1793:1 1917:1 1961:1 2077:1 2161:1 2298:1 2313:1 2424:1 2613:1 2927:1 
-1 1425:1 1662:1 
-1 480:1 1662:1 1975:1 2537:1 
-1 1425:1 1662:1 
-0.09826294659573297 42:1 57:1 191:1 211:1 431:1 1402:1 1425:1 1470:1 1511:1 1772:1 1880:1 2325:1 2583:1 2606:1 2619:1 
-0.7608924901956247 488:1 1425:1 1642:1 1662:1 1772:1 1963:1 2619:1 2819:1 
-0.01461341790035513 42:1 89:1 131:1 284:1 314:1 397:1 565:1 671:1 1102:1 1132:1 1402:1 1407:1 1425:1 1670:1 1672:1 1954:1 1968:1 2304:1 2397:1 2438:1 2457:1 2542:1 2622:1 2714:1 
-0.2013456412919746 935:1 1312:1 1425:1 1630:1 1996:1 2186:1 2282:1 2314:1 2349:1 2666:1 
-0.2533050562402623 42:1 198:1 372:1 433:1 488:1 522:1 607:1 637:1 694:1 751:1 767:1 779:1 855:1 1132:1 1425:1 1656:1 1662:1 1670:1 1829:1 1867:1 2067:1 2246:1 2317:1 2424:1 2533:1 2678:1 2714:1 2751:1 2753:1 2824:1 2866:1 2940:1 
-0.07313193782669926 42:1 106:1 203:1 509:1 559:1 642:1 667:1 718:1 767:1 799:1 860:1 876:1 882:1 984:1 1055:1 1129:1 1147:1 1189:1 1425:1 1483:1 1621:1 1662:1 1670:1 1672:1 1954:1 1979:1 2067:1 2280:1 2282:1 2295:1 2330:1 2438:1 2514:1 2560:1 2642:1 2886:1 
-0.3793084917498665 647:1 1188:1 1425:1 2089:1 2124:1 2193:1 2351:1 
-0.7903967599076033 43:1 72:1 408:1 488:1 910:1 918:1 1272:1 1449:1 1495:1 1551:1 1670:1 1963:1 2197:1 
-1 1466:1 
-1 4:1 43:1 119:1 182:1 492:1 607:1 722:1 852:1 1076:1 1265:1 1449:1 1882:1 1963:1 2886:1 2947:1 
-1 1466:1 
-1 1466:1 
-0.2596608540347616 57:1 272:1 488:1 694:1 918:1 1226:1 1425:1 1656:1 1912:1 2424:1 2428:1 2514:1 2551:1 2778:1 
-1 1170:1 1417:1 1488:1 1629:1 
-0.1310922262699798 42:1 528:1 618:1 1164:1 1292:1 1338:1 1366:1 1393:1 1425:1 1507:1 1557:1 1591:1 1670:1 1715:1 2137:1 2195:1 2196:1 2438:1 2479:1 2560:1 2714:1 
-0.1470299203709205 7:1 78:1 100:1 143:1 313:1 488:1 516:1 643:1 690:1 693:1 700:1 732:1 1090:1 1132:1 1179:1 1219:1 1267:1 1342:1 1425:1 1515:1 1587:1 1610:1 1735:1 2053:1 2067:1 2431:1 2574:1 2619:1 
-0.8095140231892417 43:1 115:1 431:1 488:1 722:1 918:1 1212:1 1425:1 1740:1 1882:1 1963:1 2124:1 2947:1 2950:1 
-0.5000230362313884 35:1 43:1 176:1 217:1 488:1 607:1 774:1 881:1 910:1 975:1 1062:1 1190:1 1270:1 1425:1 1449:1 1511:1 1617:1 1740:1 1882:1 1963:1 2141:1 2197:1 2514:1 2589:1 2740:1 2779:1 
-0.3333354022659301 251:1 453:1 684:1 923:1 1672:1 1795:1 1941:1 1944:1 2090:1 2163:1 2537:1 2711:1 
-0.7115424225258046 42:1 43:1 90:1 488:1 607:1 918:1 933:1 1265:1 1300:1 1449:1 1740:1 1882:1 2228:1 2768:1 2886:1 2947:1 
-0.7488748482748577 1425:1 1662:1 1670:1 2055:1 2128:1 2132:1 2215:1 2714:1 
-0.8717266492211048 31:1 488:1 1114:1 1307:1 1350:1 1425:1 1438:1 1568:1 1655:1 1662:1 1670:1 1876:1 2024:1 2215:1 2503:1 2514:1 
-1 35:1 43:1 488:1 722:1 777:1 933:1 1172:1 1242:1 1449:1 1740:1 1882:1 1963:1 2197:1 2886:1 2947:1 
-1 35:1 43:1 115:1 228:1 607:1 722:1 1449:1 1740:1 1882:1 1892:1 1963:1 2428:1 2950:1 
-0.2360977217168923 115:1 354:1 722:1 1211:1 1425:1 1655:1 1662:1 2049:1 2165:1 2223:1 2254:1 2571:1 2647:1 
-0.4336446540497556 20:1 42:1 846:1 878:1 926:1 1425:1 1617:1 1938:1 2194:1 2645:1 2714:1 2901:1 
-1 
-0.4087897824909029 42:1 503:1 1425:1 1619:1 1630:1 1662:1 1668:1 1670:1 1781:1 1782:1 2228:1 2443:1 
-0.3826177872796633 42:1 1145:1 1413:1 1425:1 1628:1 1662:1 1696:1 2215:1 2322:1 2628:1 2643:1 
-0.1086732877138177 42:1 528:1 610:1 658:1 883:1 1132:1 1366:1 1425:1 1505:1 1662:1 1668:1 1796:1 1977:1 2067:1 2123:1 2438:1 2581:1 2637:1 2770:1 2914:1 2956:1 
-0.3758391371105618 43:1 189:1 318:1 431:1 438:1 530:1 632:1 695:1 935:1 937:1 1425:1 1511:1 1740:1 1870:1 1882:1 1893:1 1932:1 1963:1 2140:1 2141:1 2416:1 2428:1 2514:1 2886:1 
-0.5803454434285292 35:1 190:1 584:1 925:1 1055:1 1425:1 1874:1 2069:1 2514:1 
-1 43:1 57:1 431:1 607:1 765:1 918:1 933:1 1141:1 1425:1 1449:1 1740:1 1882:1 1963:1 2428:1 2518:1 2685:1 2947:1 
-1 1502:1 1662:1 1740:1 2926:1 
-1 35:1 43:1 607:1 918:1 1449:1 1882:1 
-1 1466:1 
-0.4464703096027594 43:1 90:1 272:1 722:1 841:1 1226:1 1425:1 1511:1 1603:1 1617:1 2424:1 2428:1 
-0.1708683669740224 236:1 674:1 1191:1 1488:1 1660:1 1662:1 1956:1 2031:1 2089:1 2322:1 2351:1 2445:1 2926:1 
-0.0762179791781144 35:1 43:1 269:1 709:1 918:1 933:1 1449:1 1638:1 1702:1 1882:1 1963:1 2228:1 2837:1 2886:1 
-0.3164150910829775 35:1 43:1 765:1 1212:1 1425:1 1449:1 1879:1 1882:1 1907:1 2501:1 2639:1 2833:1 2886:1 2947:1 
-0.1686216252197537 42:1 97:1 438:1 495:1 623:1 689:1 750:1 883:1 983:1 992:1 1068:1 1425:1 1488:1 1563:1 1670:1 1777:1 1867:1 1940:1 2295:1 2317:1 2438:1 2622:1 2751:1 2778:1 2810:1 2824:1 2886:1 2947:1 
-0.2759961638755414 57:1 1402:1 1425:1 1955:1 2194:1 2514:1 2854:1 
-1 57:1 90:1 409:1 933:1 1425:1 1656:1 1963:1 2141:1 2424:1 2514:1 2573:1 2714:1 2886:1 2947:1 
-0.9178429917645056 42:1 589:1 805:1 1145:1 1319:1 1321:1 1425:1 1599:1 1617:1 1662:1 1775:1 2124:1 2729:1 2901:1 
-0.29030853213286 1418:1 1670:1 1740:1 1945:1 2023:1 2104:1 2210:1 2537:1 2758:1 2787:1 
-0.7409374625051991 35:1 43:1 57:1 113:1 765:1 918:1 925:1 1425:1 1449:1 1454:1 1511:1 1670:1 1696:1 1844:1 1880:1 2115:1 2503:1 2571:1 2731:1 2778:1 2947:1 
-1 910:1 1374:1 1425:1 1662:1 1926:1 2598:1 
-0.1455385403674175 147:1 188:1 202:1 705:1 1320:1 1425:1 1662:1 1670:1 1889:1 2046:1 2110:1 2194:1 2228:1 2258:1 2551:1 2685:1 2739:1 2767:1 2820:1 
-0.6177655340959535 115:1 1425:1 1670:1 2082:1 2086:1 2446:1 
-0.08929177837969976 57:1 90:1 202:1 320:1 364:1 581:1 705:1 1182:1 1191:1 1262:1 1425:1 1500:1 1511:1 1655:1 1656:1 1662:1 1670:1 1775:1 2110:1 2325:1 2389:1 2426:1 2514:1 2667:1 2685:1 2739:1 2767:1 
-0.6332930907095924 131:1 202:1 1119:1 1178:1 1670:1 1963:1 2305:1 2310:1 2514:1 2717:1 2738:1 2739:1 2934:1 
-1 1662:1 2215:1 2441:1 2685:1 
-0.6301731398681291 115:1 662:1 819:1 1090:1 1449:1 1507:1 1656:1 1670:1 1740:1 1988:1 2352:1 2446:1 2514:1 2620:1 2730:1 2739:1 2820:1 2934:1 
-0.4311298579193985 488:1 646:1 705:1 970:1 1119:1 1656:1 1657:1 1670:1 1942:1 2419:1 2424:1 2514:1 2571:1 2738:1 2739:1 
-0.2775399174165243 274:1 488:1 1170:1 1178:1 1263:1 1316:1 1378:1 1402:1 1505:1 1696:1 1740:1 1810:1 1882:1 2140:1 2194:1 2454:1 2477:1 2514:1 2814:1 2820:1 
-0.7686369237352169 461:1 535:1 1178:1 1425:1 1662:1 2820:1 
-1 1262:1 
-1 115:1 1178:1 1963:1 2305:1 2820:1 
-0.2812183241804969 115:1 1262:1 1426:1 1656:1 1670:1 1963:1 2305:1 2820:1 
-1 115:1 1178:1 1426:1 1656:1 1670:1 1963:1 2305:1 2820:1 
-0.571604991651523 115:1 202:1 388:1 757:1 869:1 920:1 1178:1 1378:1 1642:1 1670:1 1726:1 1740:1 2140:1 2194:1 2317:1 2332:1 2476:1 2477:1 2514:1 2685:1 2934:1 
-0.01586897427711462 43:1 115:1 176:1 202:1 488:1 507:1 869:1 920:1 1262:1 1488:1 1656:1 1670:1 1696:1 1831:1 1856:1 2132:1 2203:1 2446:1 2477:1 2514:1 2739:1 2807:1 2934:1 
-0.2087006428519045 115:1 662:1 762:1 846:1 1178:1 1450:1 1569:1 1642:1 1660:1 1662:1 1674:1 1886:1 1963:1 2090:1 2139:1 2446:1 2685:1 2739:1 
-0.5465794418053015 115:1 846:1 1178:1 1450:1 1662:1 1674:1 2069:1 2090:1 2446:1 2685:1 2739:1 
-0.2391266810316343 115:1 846:1 869:1 1262:1 1450:1 1662:1 1674:1 1956:1 2069:1 2090:1 2446:1 2685:1 2739:1 2751:1 2807:1 2820:1 
-0.400786533738425 202:1 387:1 705:1 970:1 1262:1 1597:1 1670:1 1740:1 2739:1 2807:1 2934:1 
-1 320:1 325:1 367:1 504:1 722:1 869:1 970:1 1090:1 1177:1 1262:1 1425:1 1488:1 1500:1 1597:1 1603:1 1656:1 1670:1 2090:1 2514:1 2517:1 2685:1 2695:1 2751:1 
-0.1985217640635688 202:1 287:1 337:1 383:1 705:1 812:1 1262:1 1656:1 1670:1 1740:1 1963:1 2262:1 2305:1 2426:1 2739:1 2807:1 2934:1 
-1 202:1 392:1 1262:1 1334:1 1425:1 1657:1 1662:1 1670:1 1726:1 1789:1 1963:1 2120:1 2305:1 2476:1 2514:1 2564:1 2738:1 2778:1 
-0.2930672648080054 115:1 846:1 1051:1 1138:1 1178:1 1247:1 1379:1 1425:1 1662:1 1740:1 1963:1 2283:1 2820:1 
-1 194:1 590:1 790:1 838:1 1178:1 1473:1 1593:1 1657:1 1662:1 2476:1 2589:1 2618:1 
-0.03217262670427713 718:1 1226:1 1425:1 1662:1 1685:1 1874:1 2052:1 2144:1 2220:1 2302:1 2537:1 2566:1 
-1 35:1 43:1 115:1 488:1 722:1 1449:1 1740:1 1882:1 2950:1 
-0.2116924154097452 42:1 115:1 202:1 652:1 655:1 705:1 970:1 1178:1 1238:1 1402:1 1449:1 1657:1 1670:1 1740:1 1847:1 2020:1 2090:1 2603:1 2685:1 2897:1 2910:1 
-0.4272044447360532 89:1 115:1 1262:1 1642:1 1740:1 1792:1 2494:1 2738:1 2807:1 2820:1 2919:1 
-0.5362360787666399 89:1 115:1 152:1 1244:1 1262:1 1642:1 1740:1 2494:1 2738:1 2807:1 2820:1 
-1 504:1 1662:1 2022:1 2537:1 
-1 1662:1 2537:1 
-1 1662:1 2537:1 
-1 1662:1 2537:1 
-0.2280481460018929 42:1 194:1 790:1 819:1 1119:1 1425:1 1461:1 1469:1 1776:1 1788:1 1798:1 1858:1 1916:1 2282:1 2285:1 2608:1 2933:1 
-1 504:1 1662:1 2022:1 2537:1 
-1 331:1 910:1 1081:1 2022:1 2025:1 
-0.4617649557156484 43:1 90:1 488:1 607:1 1300:1 1425:1 1882:1 1963:1 2518:1 2947:1 2950:1 
-1 504:1 1662:1 2022:1 2537:1 
-1 504:1 1662:1 2022:1 2537:1 
-1 504:1 1662:1 2022:1 2537:1 
-0.2697366842521779 42:1 488:1 950:1 1416:1 1584:1 1611:1 1640:1 1656:1 1670:1 1842:1 2050:1 2175:1 2179:1 2574:1 2751:1 2873:1 
-1 1662:1 2069:1 
-1 480:1 1662:1 1975:1 2069:1 
-0.8005114993756096 488:1 707:1 764:1 1140:1 1425:1 1670:1 1867:1 1874:1 2351:1 2650:1 2915:1 
-1 1425:1 2381:1 2628:1 
-0.4009825422688279 114:1 496:1 723:1 1425:1 1488:1 1656:1 1670:1 2089:1 2201:1 2574:1 2583:1 2778:1 2824:1 2955:1 
-0.2124665042000365 35:1 43:1 607:1 933:1 1425:1 1882:1 2428:1 
-0.4762643321440342 389:1 431:1 492:1 722:1 765:1 852:1 1239:1 1396:1 1425:1 1449:1 1907:1 2139:1 2141:1 2433:1 2714:1 2886:1 
-0.7608459002489939 241:1 323:1 431:1 530:1 1111:1 1314:1 1449:1 1630:1 1655:1 1656:1 1696:1 1740:1 2044:1 2115:1 2489:1 2499:1 2698:1 2714:1 2891:1 
-0.07677113646954098 60:1 438:1 517:1 880:1 883:1 925:1 946:1 983:1 1256:1 1266:1 1330:1 1407:1 1422:1 1475:1 1630:1 1655:1 1662:1 1670:1 1800:1 1891:1 2008:1 2424:1 2439:1 2477:1 2514:1 2615:1 2637:1 2674:1 2685:1 2708:1 2717:1 2751:1 2928:1 
-0.05737170143257236 292:1 370:1 438:1 933:1 991:1 1356:1 1487:1 1524:1 1543:1 1630:1 1645:1 1662:1 1670:1 1696:1 1790:1 1854:1 1963:1 2029:1 2317:1 2492:1 2512:1 2514:1 2592:1 2685:1 2710:1 2717:1 2751:1 2763:1 2767:1 2882:1 2951:1 
-0.09534036616083998 368:1 488:1 1224:1 1230:1 1425:1 1466:1 1480:1 1655:1 1696:1 1714:1 1792:1 1989:1 2044:1 2337:1 
-0.3478547288034082 42:1 526:1 1027:1 1138:1 1425:1 1632:1 1662:1 2194:1 2514:1 
-0.1288037750334002 31:1 178:1 228:1 910:1 1212:1 1277:1 1670:1 1731:1 1879:1 1883:1 1907:1 2133:1 2571:1 2639:1 
-0.03866488960211648 48:1 72:1 504:1 810:1 840:1 933:1 1042:1 1077:1 1122:1 1129:1 1374:1 1425:1 1585:1 1642:1 1662:1 1670:1 1727:1 1735:1 1789:1 1993:1 2017:1 2056:1 2389:1 2502:1 2514:1 2767:1 
-0.1844562336835224 28:1 44:1 347:1 501:1 839:1 973:1 1034:1 1187:1 1266:1 1318:1 1323:1 1368:1 1401:1 1425:1 1439:1 1592:1 1662:1 1665:1 1670:1 1721:1 1852:1 1866:1 2123:1 2141:1 2197:1 2293:1 2332:1 2637:1 2688:1 
-0.1085478637596024 201:1 282:1 503:1 723:1 1155:1 1179:1 1374:1 1394:1 1425:1 1488:1 1634:1 1682:1 1731:1 1950:1 2123:1 2141:1 2184:1 2244:1 2280:1 2351:1 2624:1 2675:1 2700:1 
-0.5762663914809847 35:1 43:1 488:1 722:1 777:1 933:1 1449:1 1662:1 1740:1 1882:1 1892:1 1963:1 2947:1 
-1 1466:1 
-1 1466:1 
-1 43:1 90:1 383:1 777:1 918:1 933:1 1449:1 1740:1 1963:1 2947:1 
-0.07016208466393695 130:1 185:1 408:1 427:1 494:1 679:1 780:1 790:1 998:1 1024:1 1077:1 1110:1 1137:1 1488:1 1605:1 1612:1 1662:1 1668:1 1744:1 2156:1 2211:1 2215:1 2258:1 2293:1 2549:1 2574:1 2751:1 2752:1 
-0.4176594044157103 445:1 507:1 727:1 1344:1 1402:1 1425:1 1828:1 1935:1 2089:1 2290:1 2751:1 
-0.2100278754349295 96:1 339:1 548:1 605:1 1273:1 1425:1 1426:1 1442:1 1744:1 1752:1 1867:1 2141:1 2167:1 2351:1 2370:1 2467:1 2678:1 2788:1 
-0.1517859987633038 35:1 202:1 364:1 597:1 662:1 698:1 970:1 1056:1 1182:1 1380:1 1449:1 1507:1 1656:1 1657:1 1670:1 1734:1 1740:1 1775:1 2426:1 2503:1 2514:1 2685:1 2739:1 
-1 1030:1 1466:1 
-1 4:1 43:1 119:1 182:1 492:1 607:1 722:1 807:1 852:1 1265:1 1449:1 1882:1 1963:1 2573:1 2886:1 2947:1 
-0.9997220067964359 1030:1 1466:1 
-1 35:1 43:1 607:1 841:1 881:1 918:1 933:1 950:1 1281:1 1425:1 1449:1 1740:1 1882:1 2228:1 2947:1 
-1 1466:1 
-0.7766447947838496 35:1 57:1 790:1 894:1 1242:1 1319:1 1425:1 1470:1 1568:1 1670:1 1728:1 1740:1 2228:1 2716:1 
-1 1029:1 1466:1 
-0.7597705817816611 466:1 492:1 910:1 1662:1 1738:1 1993:1 2514:1 2598:1 2685:1 2714:1 2778:1 2933:1 
-1 43:1 57:1 90:1 98:1 301:1 722:1 918:1 1449:1 1511:1 1670:1 1740:1 1882:1 2141:1 2197:1 2514:1 2947:1 
-1 4:1 43:1 90:1 431:1 722:1 765:1 1081:1 1390:1 1425:1 1449:1 1882:1 1963:1 2141:1 2714:1 2947:1 
-1 1172:1 1899:1 
-0.3034182151372325 42:1 97:1 250:1 313:1 454:1 488:1 496:1 522:1 528:1 553:1 700:1 815:1 883:1 1055:1 1075:1 1219:1 1314:1 1592:1 1670:1 2045:1 2069:1 2079:1 2199:1 2356:1 2419:1 2424:1 2648:1 2717:1 2774:1 2914:1 2917:1 
-0.8318245288810284 4:1 43:1 119:1 275:1 492:1 607:1 722:1 852:1 1174:1 1265:1 1449:1 1882:1 2573:1 2886:1 2947:1 
-0.02769881262015033 35:1 43:1 57:1 90:1 113:1 431:1 765:1 918:1 975:1 1272:1 1378:1 1425:1 1449:1 1511:1 1650:1 1670:1 1725:1 1844:1 1945:1 2503:1 2685:1 2731:1 2732:1 2785:1 2947:1 
-0.1184539378232892 532:1 538:1 573:1 910:1 1165:1 1402:1 1658:1 1683:1 1740:1 1785:1 2000:1 2023:1 2047:1 2165:1 2254:1 2336:1 2495:1 2537:1 2571:1 2714:1 2719:1 2786:1 2794:1 
-1 43:1 90:1 431:1 765:1 838:1 1425:1 1449:1 1511:1 1656:1 2124:1 2351:1 2424:1 2428:1 2514:1 
-0.05890260618882445 100:1 1321:1 1425:1 1475:1 1628:1 1662:1 1775:1 1831:1 2503:1 2841:1 
-1 204:1 269:1 1265:1 1449:1 1882:1 2886:1 
-1 1041:1 1466:1 
-0.5611735355877695 42:1 278:1 285:1 504:1 868:1 977:1 1425:1 2141:1 2293:1 2326:1 2467:1 2524:1 2583:1 
-0.3573448355760845 35:1 43:1 57:1 431:1 607:1 722:1 918:1 933:1 1449:1 1882:1 1999:1 2115:1 2514:1 2886:1 2947:1 
-0.2161202653804187 42:1 251:1 253:1 532:1 588:1 1425:1 1525:1 1655:1 1662:1 1693:1 1740:1 2297:1 2389:1 2564:1 2645:1 
-1 1102:1 2850:1 
-0.9279164774168716 42:1 43:1 57:1 722:1 765:1 1239:1 1425:1 1511:1 1943:1 2139:1 2141:1 2282:1 
-1 272:1 722:1 765:1 1425:1 1630:1 1740:1 1882:1 2714:1 2779:1 
-0.1734449562725067 1100:1 1320:1 1656:1 1662:1 1670:1 1870:1 1943:1 2508:1 2645:1 
-1 43:1 90:1 607:1 777:1 1425:1 1882:1 2947:1 
-0.2077518517118207 35:1 43:1 57:1 488:1 607:1 777:1 918:1 1141:1 1425:1 1449:1 1740:1 1882:1 2499:1 2947:1 
-1 1102:1 2850:1 
-1 43:1 57:1 318:1 431:1 722:1 765:1 777:1 841:1 918:1 1178:1 1265:1 1425:1 1449:1 1655:1 1740:1 1882:1 2141:1 2499:1 2751:1 2947:1 
-0.2192117732720674 42:1 578:1 626:1 1001:1 1129:1 1231:1 1240:1 1425:1 1655:1 1662:1 1670:1 2295:1 2612:1 2778:1 2931:1 
-0.3592681781043884 42:1 47:1 705:1 1305:1 1425:1 1488:1 1690:1 2009:1 2107:1 2389:1 2476:1 2594:1 2632:1 2685:1 2751:1 2794:1 2891:1 2934:1 
-1 4:1 43:1 90:1 607:1 722:1 774:1 938:1 956:1 1191:1 1265:1 1425:1 1880:1 1882:1 2886:1 2947:1 
-0.7744376175607729 35:1 90:1 633:1 722:1 1425:1 1882:1 1952:1 2514:1 
-0.1438731417131025 89:1 157:1 413:1 438:1 567:1 717:1 790:1 799:1 813:1 858:1 1002:1 1052:1 1119:1 1365:1 1670:1 1718:1 1839:1 2040:1 2259:1 2560:1 2714:1 2748:1 2770:1 2778:1 
-1 35:1 43:1 57:1 777:1 1265:1 1425:1 1740:1 1882:1 2428:1 2886:1 
-1 35:1 43:1 115:1 228:1 488:1 722:1 790:1 1449:1 1670:1 1740:1 1882:1 1963:1 2428:1 
-0.2825831490287238 35:1 43:1 933:1 959:1 1449:1 1485:1 1655:1 1696:1 1882:1 2337:1 2909:1 
-0.3278209250357443 104:1 115:1 184:1 253:1 504:1 589:1 1238:1 1659:1 1670:1 1882:1 2024:1 2084:1 2602:1 
-1 43:1 383:1 488:1 918:1 933:1 1425:1 1882:1 2714:1 2886:1 2947:1 
-1 1466:1 
-1 202:1 1670:1 2739:1 2767:1 
-0.02415824536369043 35:1 42:1 198:1 227:1 297:1 372:1 488:1 751:1 767:1 940:1 964:1 1055:1 1249:1 1283:1 1425:1 1437:1 1450:1 1670:1 1867:1 2038:1 2241:1 2263:1 2317:1 2477:1 2533:1 2560:1 2714:1 2753:1 2866:1 2954:1 
-1 35:1 43:1 841:1 918:1 1449:1 1740:1 1882:1 1963:1 2947:1 
-0.1240585335080395 310:1 411:1 637:1 643:1 801:1 925:1 991:1 1119:1 1425:1 1439:1 1583:1 1670:1 2110:1 2123:1 2273:1 2794:1 2918:1 
-1 35:1 43:1 57:1 607:1 765:1 1425:1 1449:1 1670:1 1882:1 2141:1 2428:1 2714:1 
-0.1877280573749033 115:1 317:1 354:1 705:1 774:1 923:1 1211:1 1425:1 1655:1 1658:1 1662:1 2049:1 2104:1 2165:1 2537:1 2571:1 2758:1 2861:1 
-1 42:1 43:1 171:1 228:1 272:1 331:1 431:1 607:1 722:1 910:1 918:1 1081:1 1425:1 1449:1 1603:1 1662:1 1882:1 2025:1 2141:1 2389:1 2514:1 2714:1 2886:1 
-1 35:1 43:1 918:1 1449:1 1882:1 2947:1 
-1 115:1 504:1 1145:1 1425:1 1602:1 1656:1 1670:1 1872:1 2128:1 2514:1 2897:1 
-1 1466:1 
-1 1466:1 
-0.01037853751919519 27:1 35:1 436:1 522:1 878:1 938:1 1307:1 1425:1 1740:1 1816:1 1847:1 2200:1 2305:1 2436:1 2457:1 2503:1 2514:1 2516:1 2926:1 
-1 
-1 
-1 
-1 
-0.2453434459357813 37:1 42:1 78:1 313:1 528:1 643:1 685:1 728:1 752:1 1179:1 1402:1 1425:1 1439:1 1497:1 1542:1 1655:1 1670:1 1735:1 1945:1 2064:1 2067:1 2424:1 2622:1 2650:1 2751:1 2774:1 2778:1 
-1 90:1 431:1 722:1 765:1 1425:1 1511:1 1630:1 2742:1 
-1 43:1 90:1 115:1 431:1 765:1 841:1 918:1 1265:1 1425:1 1449:1 1740:1 1882:1 1907:1 2046:1 2141:1 2947:1 
-0.3376057435557496 42:1 537:1 925:1 1258:1 1374:1 1425:1 1572:1 1634:1 1662:1 1670:1 2069:1 2279:1 2308:1 2537:1 2685:1 2807:1 
-1 43:1 90:1 431:1 607:1 765:1 841:1 1449:1 1740:1 1882:1 2123:1 2141:1 2428:1 2659:1 2947:1 
-0.2546426038047829 43:1 57:1 90:1 204:1 431:1 607:1 722:1 918:1 1265:1 1449:1 1670:1 1764:1 1882:1 2139:1 2141:1 2166:1 2947:1 
-1 1040:1 1466:1 
-0.5436617272403736 492:1 869:1 910:1 1738:1 1843:1 1926:1 1978:1 2046:1 2095:1 2374:1 2514:1 2689:1 2714:1 2924:1 2933:1 
-1 43:1 910:1 918:1 925:1 1511:1 2141:1 2428:1 2526:1 2837:1 
-0.9125364197097144 1374:1 1425:1 1662:1 2046:1 2598:1 
-1 
-0.01531959684641184 287:1 492:1 504:1 722:1 910:1 1402:1 1510:1 1670:1 1738:1 1820:1 1926:1 1956:1 1978:1 1979:1 2046:1 2493:1 2514:1 2574:1 2598:1 2685:1 2689:1 2714:1 2756:1 2778:1 2814:1 
-0.163603501128034 43:1 90:1 135:1 701:1 975:1 1121:1 1191:1 1449:1 1740:1 1882:1 2115:1 2432:1 2439:1 2856:1 
-1 43:1 57:1 431:1 607:1 722:1 765:1 777:1 841:1 1449:1 1524:1 1670:1 1740:1 1882:1 1907:1 2141:1 2321:1 2514:1 2886:1 2947:1 
-0.4942415812345948 198:1 504:1 662:1 1402:1 1425:1 1475:1 1670:1 1675:1 2139:1 2514:1 2621:1 
-1 1466:1 
-1 4:1 43:1 57:1 431:1 607:1 765:1 1449:1 1670:1 1882:1 2428:1 2947:1 
-1 1882:1 2046:1 2933:1 
-1 42:1 1374:1 1425:1 1943:1 2089:1 2574:1 
-0.05710823260171174 90:1 564:1 756:1 1425:1 1655:1 1662:1 1670:1 2132:1 2514:1 2645:1 2685:1 2955:1 
-0.1728004958006498 62:1 204:1 354:1 705:1 910:1 1211:1 1425:1 1444:1 1586:1 1655:1 1662:1 1740:1 1963:1 2044:1 2087:1 2154:1 2157:1 2165:1 2232:1 2254:1 2400:1 2571:1 2590:1 2719:1 2861:1 2886:1 
-0.1298003974741732 42:1 50:1 101:1 131:1 137:1 166:1 175:1 250:1 283:1 285:1 355:1 522:1 669:1 748:1 755:1 782:1 799:1 889:1 1000:1 1033:1 1058:1 1062:1 1132:1 1179:1 1222:1 1425:1 1488:1 1644:1 1990:1 2218:1 2525:1 2570:1 2613:1 2650:1 2735:1 2752:1 2818:1 
-0.6736014988423841 504:1 535:1 885:1 1425:1 1476:1 1602:1 1648:1 1978:1 2061:1 2282:1 
-1 43:1 488:1 722:1 1449:1 2115:1 2947:1 
-1 1662:1 1738:1 1926:1 2598:1 
-1 1466:1 
-1 43:1 57:1 431:1 765:1 910:1 917:1 918:1 925:1 1160:1 1170:1 1425:1 1449:1 1740:1 1882:1 1963:1 2075:1 2194:1 2640:1 2676:1 2685:1 2709:1 2803:1 2947:1 
-1 
-1 
-0.548660322076939 115:1 258:1 492:1 750:1 915:1 1413:1 1662:1 1670:1 1851:1 1916:1 2120:1 2173:1 2477:1 2514:1 2583:1 2954:1 
-1 191:1 331:1 356:1 1336:1 1425:1 1615:1 1662:1 2022:1 2025:1 2424:1 
-1 43:1 431:1 918:1 933:1 1449:1 1882:1 2886:1 
-0.9847828141751105 1490:1 
-0.1677170444763477 175:1 341:1 438:1 485:1 790:1 835:1 1410:1 1655:1 1662:1 1670:1 1685:1 1686:1 1696:1 1697:1 1732:1 1740:1 1779:1 2086:1 2090:1 2359:1 2492:1 2505:1 2537:1 2750:1 2751:1 2891:1 2924:1 2949:1 
-1 
-1 1466:1 
-1 115:1 1963:1 2305:1 2739:1 2934:1 
-0.2110406994014588 90:1 202:1 662:1 910:1 970:1 1655:1 1656:1 1662:1 1670:1 1988:1 2141:1 2162:1 2194:1 2389:1 2426:1 2446:1 2514:1 2739:1 2934:1 
-0.6751802269834378 42:1 90:1 115:1 174:1 202:1 364:1 662:1 869:1 910:1 1182:1 1374:1 1402:1 1607:1 1656:1 1657:1 1662:1 1670:1 1726:1 2136:1 2325:1 2426:1 2446:1 2739:1 2807:1 
-1 1466:1 
-1 1466:1 
-0.1248018737952359 42:1 181:1 303:1 397:1 438:1 463:1 700:1 767:1 855:1 881:1 895:1 925:1 1129:1 1425:1 1480:1 1670:1 1692:1 1740:1 1847:1 1867:1 2019:1 2123:1 2313:1 2424:1 2443:1 2462:1 2551:1 2583:1 2671:1 2678:1 2751:1 2914:1 
-1 331:1 1081:1 1425:1 1662:1 2022:1 2025:1 2514:1 
-1 43:1 488:1 607:1 1449:1 1882:1 2428:1 
-0.1434509980797072 5:1 284:1 383:1 507:1 535:1 643:1 1069:1 1145:1 1194:1 1322:1 1402:1 1425:1 1475:1 1488:1 1655:1 1662:1 1670:1 1686:1 1692:1 1713:1 1744:1 1780:1 1929:1 2042:1 2178:1 2424:1 2503:1 2714:1 2855:1 2904:1 
-0.1995851903169595 17:1 42:1 144:1 165:1 439:1 488:1 523:1 703:1 1090:1 1107:1 1138:1 1309:1 1372:1 1425:1 1488:1 1670:1 1740:1 2200:1 2293:1 2378:1 2424:1 2514:1 2516:1 2583:1 2872:1 2926:1 
-0.3272519501800649 43:1 243:1 431:1 488:1 504:1 527:1 660:1 918:1 933:1 1200:1 1449:1 1818:1 1882:1 1963:1 2886:1 2933:1 2947:1 
-0.03977818558166938 541:1 881:1 933:1 1217:1 1517:1 1612:1 1630:1 1662:1 1670:1 1674:1 1882:1 1945:1 2110:1 2206:1 2332:1 2424:1 2465:1 2503:1 2564:1 
-0.06302447463512617 90:1 202:1 910:1 950:1 970:1 1662:1 1670:1 1699:1 1789:1 1979:1 2046:1 2069:1 2070:1 2139:1 2255:1 2298:1 2317:1 2424:1 2514:1 2738:1 2739:1 2933:1 
-0.3148527536399666 1402:1 1425:1 1433:1 1662:1 1710:1 2012:1 2017:1 2375:1 2417:1 2537:1 
-1 1466:1 
-1 331:1 910:1 1081:1 1670:1 2022:1 2025:1 
-1 1367:1 1425:1 1926:1 1978:1 2046:1 
-1 1466:1 
-0.1295474193251214 93:1 488:1 792:1 1242:1 1670:1 2095:1 2335:1 2406:1 2583:1 
-1 1466:1 1899:1 
-0.1876731206462959 8:1 42:1 137:1 510:1 571:1 628:1 674:1 1071:1 1138:1 1242:1 1425:1 1568:1 1656:1 1670:1 1744:1 1831:1 1851:1 2424:1 2434:1 2467:1 2514:1 2667:1 2955:1 
-1 331:1 1081:1 1425:1 1662:1 2022:1 2025:1 2514:1 
-0.2193815415563193 35:1 43:1 57:1 607:1 908:1 918:1 1060:1 1449:1 1882:1 
-0.2204099904205895 42:1 51:1 286:1 365:1 486:1 556:1 587:1 790:1 854:1 899:1 920:1 1177:1 1201:1 1223:1 1402:1 1425:1 1488:1 1491:1 1649:1 1655:1 1662:1 1670:1 1804:1 1841:1 2010:1 2079:1 2120:1 2194:1 2208:1 2447:1 2591:1 2613:1 2657:1 2680:1 2744:1 2898:1 2926:1 
-0.1200716942160307 234:1 481:1 571:1 1413:1 1449:1 1630:1 1662:1 1670:1 1765:1 2071:1 2308:1 2476:1 2514:1 2580:1 2583:1 2732:1 2759:1 2832:1 
-0.1681927592599871 251:1 352:1 1413:1 1630:1 1662:1 1670:1 1696:1 1707:1 2041:1 2298:1 2381:1 2485:1 2540:1 
-0.01526162080096003 115:1 122:1 125:1 428:1 431:1 438:1 535:1 538:1 705:1 849:1 997:1 1402:1 1457:1 1561:1 1565:1 1601:1 1657:1 1670:1 1674:1 1858:1 1917:1 2047:1 2141:1 2209:1 2276:1 2317:1 2322:1 2495:1 2499:1 2564:1 2574:1 2722:1 
-1 
-1 331:1 910:1 1081:1 1662:1 2022:1 2714:1 
-1 1036:1 1466:1 
-1 1466:1 
-0.1850787795964234 291:1 1328:1 1584:1 1630:1 1949:1 2514:1 2519:1 2730:1 
-1 57:1 910:1 1662:1 2598:1 
-0.4956235322551665 4:1 36:1 43:1 199:1 431:1 581:1 705:1 757:1 869:1 917:1 990:1 1449:1 1740:1 1882:1 2025:1 2428:1 2640:1 2713:1 2886:1 
-1 2514:1 2738:1 2784:1 2807:1 
-1 1031:1 1466:1 
-1 320:1 535:1 662:1 705:1 1098:1 1656:1 1670:1 1674:1 1988:1 2426:1 2446:1 2514:1 2738:1 2739:1 2767:1 2897:1 
-1 43:1 431:1 722:1 998:1 1265:1 1425:1 1432:1 1437:1 1449:1 1879:1 1882:1 2141:1 2424:1 2514:1 2714:1 
-0.3614229730032325 272:1 722:1 998:1 1239:1 1277:1 1419:1 1576:1 1670:1 1907:1 2137:1 2457:1 2518:1 
-1 
-1 1466:1 
-0.08453104898220254 306:1 532:1 571:1 1252:1 1398:1 1681:1 1710:1 1837:1 1884:1 2060:1 2109:1 2197:1 2301:1 2400:1 2519:1 2719:1 2751:1 2787:1 2858:1 
-0.2203558503854257 114:1 133:1 873:1 910:1 1027:1 1055:1 1132:1 1299:1 1367:1 1425:1 1483:1 1488:1 1546:1 1563:1 1655:1 1736:1 2231:1 2424:1 2438:1 2751:1 2847:1 
-0.1355017922002718 62:1 364:1 777:1 871:1 997:1 1461:1 1565:1 1627:1 1657:1 1695:1 2047:1 2583:1 2801:1 
-0.06156817377285813 16:1 110:1 116:1 139:1 313:1 430:1 475:1 514:1 554:1 566:1 718:1 933:1 1025:1 1179:1 1363:1 1425:1 1554:1 1574:1 1662:1 1667:1 1847:1 1905:1 1933:1 1964:1 2045:1 2110:1 2153:1 2185:1 2296:1 2456:1 2550:1 2552:1 2624:1 2662:1 2799:1 
-0.0926580333601987 42:1 97:1 251:1 264:1 276:1 280:1 418:1 664:1 742:1 1132:1 1188:1 1236:1 1266:1 1425:1 1488:1 1515:1 1643:1 1744:1 1867:1 1874:1 1891:1 1960:1 2157:1 2351:1 2574:1 2581:1 2650:1 2685:1 2878:1 
-0.1013238710822464 69:1 114:1 120:1 158:1 266:1 284:1 347:1 508:1 522:1 977:1 1221:1 1240:1 1337:1 1460:1 1488:1 1670:1 1673:1 1750:1 1781:1 1812:1 1853:1 1857:1 1867:1 1887:1 1917:1 2067:1 2176:1 2194:1 2581:1 2632:1 2737:1 2810:1 2835:1 
-0.2712831502926387 1494:1 1662:1 1670:1 1728:1 2044:1 2046:1 2475:1 2645:1 2685:1 
-1 1466:1 
-0.2660839703882381 90:1 272:1 607:1 933:1 975:1 1128:1 1511:1 1907:1 2827:1 
-0.1026992129117555 35:1 42:1 67:1 149:1 164:1 337:1 576:1 607:1 674:1 790:1 812:1 848:1 925:1 1191:1 1403:1 1425:1 1501:1 1548:1 1662:1 1670:1 1896:1 1963:1 2335:1 2424:1 2477:1 2612:1 2794:1 2860:1 2917:1 2933:1 
-0.2553714592111855 594:1 1119:1 1438:1 1488:1 1657:1 1662:1 1670:1 1927:1 
-0.007281643282391398 718:1 819:1 1119:1 1254:1 1425:1 1438:1 1488:1 1662:1 1670:1 1745:1 1927:1 2249:1 2351:1 
-0.07534634307810577 90:1 115:1 269:1 323:1 705:1 790:1 1004:1 1170:1 1402:1 1465:1 1488:1 1511:1 1630:1 1690:1 2190:1 2228:1 2294:1 2424:1 2559:1 2619:1 2709:1 2935:1 
-0.04324117223842974 3:1 42:1 793:1 806:1 1155:1 1425:1 1588:1 1592:1 2439:1 2564:1 2714:1 2717:1 2774:1 
-1 607:1 933:1 1425:1 1696:1 1740:1 1882:1 2714:1 
-1 665:1 1916:1 
-0.386492647852833 115:1 504:1 1145:1 1425:1 1433:1 1617:1 1655:1 1662:1 1686:1 2166:1 2295:1 2298:1 2632:1 2645:1 2792:1 
-0.1259730303187588 42:1 74:1 109:1 251:1 252:1 365:1 555:1 557:1 590:1 594:1 774:1 819:1 898:1 1102:1 1217:1 1325:1 1376:1 1425:1 1439:1 1488:1 1649:1 1655:1 1662:1 1670:1 1841:1 2424:1 2445:1 2518:1 2583:1 2606:1 2637:1 
-0.3319228166215651 18:1 139:1 231:1 262:1 285:1 522:1 611:1 751:1 805:1 925:1 1610:1 1740:1 1867:1 2069:1 2231:1 2438:1 2514:1 2533:1 2917:1 
-0.1359968638890313 90:1 461:1 850:1 1138:1 1425:1 1502:1 1740:1 2194:1 2195:1 2200:1 2344:1 2551:1 2926:1 
-1 171:1 331:1 910:1 1081:1 1670:1 2022:1 2025:1 
-0.8722956554601261 264:1 535:1 1470:1 1548:1 1992:1 2132:1 2628:1 
-0.9029958998359007 43:1 90:1 145:1 228:1 318:1 431:1 841:1 918:1 922:1 1098:1 1265:1 1346:1 1392:1 1425:1 1449:1 1524:1 1740:1 1882:1 1907:1 2136:1 2140:1 2141:1 2197:1 2499:1 2551:1 2649:1 2714:1 2947:1 
-0.007683592680244068 115:1 253:1 284:1 468:1 750:1 884:1 1090:1 1182:1 1191:1 1194:1 1402:1 1488:1 1494:1 1610:1 1640:1 1656:1 1662:1 1670:1 1890:1 2045:1 2070:1 2074:1 2078:1 2131:1 2293:1 2317:1 2412:1 2609:1 2622:1 2703:1 2756:1 2770:1 2824:1 
-0.2775185064750971 409:1 1224:1 1424:1 1425:1 1670:1 2033:1 
-1 272:1 331:1 1081:1 1425:1 1662:1 2022:1 2025:1 2133:1 2514:1 
-0.9772882680599458 272:1 331:1 910:1 1081:1 1670:1 2022:1 
-0.04661556099452216 19:1 42:1 97:1 114:1 264:1 284:1 438:1 718:1 912:1 1072:1 1175:1 1329:1 1337:1 1402:1 1425:1 1625:1 1655:1 1670:1 1744:1 1781:1 1803:1 1812:1 1851:1 1891:1 2057:1 2131:1 2227:1 2381:1 2424:1 2427:1 2650:1 2751:1 2824:1 
-0.2948169631646822 90:1 705:1 765:1 1277:1 1449:1 1511:1 1785:1 1907:1 2111:1 2115:1 2141:1 2339:1 2428:1 2579:1 2779:1 2833:1 2947:1 
-1 43:1 607:1 1449:1 1882:1 2428:1 2947:1 
-1 57:1 2598:1 
-1 97:1 333:1 507:1 1488:1 1670:1 2169:1 
-0.4063403303512878 57:1 365:1 477:1 571:1 862:1 1090:1 1138:1 1194:1 1279:1 1425:1 1568:1 1670:1 1673:1 1735:1 1744:1 2424:1 2467:1 
-0.02723231258599712 90:1 235:1 790:1 933:1 2492:1 2720:1 
-0.06234184690489737 109:1 168:1 535:1 747:1 938:1 997:1 1603:1 1657:1 1662:1 1917:1 1919:1 1936:1 2046:1 2047:1 2228:1 2274:1 2331:1 2374:1 2417:1 2574:1 2869:1 2952:1 
-0.7772119450499654 57:1 530:1 910:1 978:1 2046:1 2273:1 2598:1 
-0.02925231226694395 208:1 272:1 409:1 431:1 686:1 722:1 1013:1 1111:1 1316:1 1511:1 1907:1 1954:1 1957:1 2018:1 2251:1 2321:1 2514:1 2759:1 2834:1 2947:1 
-1 43:1 90:1 431:1 607:1 765:1 881:1 918:1 933:1 1172:1 1346:1 1425:1 1449:1 1740:1 1882:1 1892:1 2141:1 2428:1 2499:1 2518:1 2714:1 2837:1 2947:1 
-1 488:1 537:1 722:1 1153:1 1449:1 1771:1 2115:1 2197:1 2709:1 2947:1 
-0.4242676154218513 17:1 90:1 488:1 790:1 1662:1 2046:1 2212:1 2598:1 2685:1 
-0.2084028872075571 365:1 383:1 535:1 997:1 1145:1 1425:1 1473:1 1670:1 2437:1 2621:1 
-1 1466:1 1899:1 
-1 
-1 
-1 
-1 
-0.5150073436178483 57:1 910:1 1119:1 1662:1 1738:1 1926:1 2598:1 2738:1 2819:1 
-1 1466:1 
-1 1425:1 2282:1 2426:1 
-0.1123849984861457 1119:1 1425:1 1511:1 1596:1 1670:1 2282:1 2426:1 2720:1 
-1 115:1 504:1 997:1 1145:1 1319:1 1425:1 1475:1 1525:1 2556:1 2714:1 
-1 970:1 1425:1 1473:1 1728:1 2739:1 
-0.04261572021661474 71:1 345:1 385:1 1374:1 1630:1 1670:1 1674:1 1824:1 1889:1 2057:1 2280:1 2287:1 2293:1 2386:1 2423:1 2424:1 2469:1 2613:1 2871:1 
-1 
-0.01112923467093577 365:1 790:1 852:1 880:1 1013:1 1099:1 1190:1 1314:1 1425:1 1496:1 1498:1 1540:1 1670:1 1963:1 2282:1 2331:1 2482:1 2514:1 2585:1 2626:1 
-1 35:1 43:1 115:1 607:1 908:1 1425:1 1449:1 1882:1 2428:1 
-0.1035108430478917 139:1 157:1 229:1 264:1 507:1 707:1 925:1 1090:1 1402:1 1425:1 1461:1 1655:1 1662:1 1696:1 1740:1 2064:1 2466:1 2514:1 2531:1 2714:1 2933:1 
-0.1963044840965096 438:1 504:1 559:1 811:1 935:1 1269:1 1336:1 1402:1 1425:1 1438:1 1647:1 1722:1 1733:1 1738:1 1740:1 1764:1 2080:1 2209:1 2417:1 2456:1 2495:1 2537:1 2583:1 2767:1 
-0.1171668811810378 42:1 90:1 171:1 211:1 331:1 431:1 910:1 935:1 1336:1 1425:1 1670:1 1740:1 2022:1 2025:1 2389:1 2514:1 2828:1 
-0.9978518252856314 35:1 43:1 71:1 607:1 852:1 1396:1 1449:1 1603:1 1801:1 1879:1 1882:1 2311:1 2428:1 2824:1 2947:1 
-1 90:1 607:1 722:1 1121:1 1449:1 1485:1 1740:1 2947:1 
-1 722:1 765:1 1511:1 1801:1 1879:1 
-0.01647381848363764 42:1 46:1 322:1 438:1 488:1 507:1 935:1 1102:1 1190:1 1201:1 1247:1 1307:1 1425:1 1662:1 1670:1 1695:1 1760:1 1831:1 1846:1 1896:1 1951:1 2062:1 2070:1 2089:1 2264:1 2452:1 2514:1 2685:1 2934:1 
-1 26:1 35:1 774:1 950:1 959:1 1449:1 1662:1 
-1 1490:1 
-0.266170940563912 1238:1 1662:1 1958:1 2596:1 2934:1 
-1 
-0.04141667063437365 14:1 35:1 42:1 43:1 90:1 201:1 215:1 488:1 571:1 604:1 722:1 787:1 790:1 1034:1 1082:1 1091:1 1242:1 1662:1 1670:1 1740:1 1741:1 1853:1 1916:1 1939:1 2040:1 2065:1 2066:1 2176:1 2282:1 2284:1 2338:1 2426:1 2477:1 2514:1 2730:1 2751:1 2823:1 2933:1 
-1 1466:1 
-0.32399052118062 365:1 880:1 1087:1 1402:1 1425:1 1519:1 1524:1 1670:1 1680:1 1794:1 2619:1 2699:1 
-0.1054286229280086 2381:1 
-1 43:1 57:1 607:1 918:1 933:1 1449:1 1882:1 2947:1 
-0.0682859784440344 19:1 42:1 83:1 97:1 114:1 271:1 284:1 438:1 627:1 718:1 1072:1 1175:1 1179:1 1402:1 1425:1 1493:1 1625:1 1655:1 1662:1 1744:1 1812:1 1835:1 1867:1 2057:1 2131:1 2227:1 2381:1 2407:1 2513:1 2751:1 2824:1 
-0.0238983585070959 42:1 89:1 190:1 250:1 288:1 374:1 553:1 765:1 865:1 954:1 1023:1 1266:1 1307:1 1331:1 1410:1 1425:1 1670:1 2106:1 2176:1 2295:1 2371:1 2439:1 2532:1 2612:1 2862:1 
-1 35:1 1226:1 1449:1 2573:1 2947:1 
-1 35:1 272:1 1283:1 1511:1 1630:1 1907:1 2040:1 2947:1 
-0.1078428121740312 42:1 48:1 68:1 99:1 101:1 112:1 171:1 212:1 284:1 445:1 488:1 683:1 691:1 765:1 805:1 1019:1 1119:1 1151:1 1155:1 1370:1 1425:1 1427:1 1429:1 1488:1 1494:1 1515:1 1684:1 1773:1 1832:1 1985:1 2105:1 2232:1 2293:1 2331:1 2424:1 2563:1 2675:1 2686:1 2752:1 2914:1 
-0.3523684093437442 115:1 488:1 722:1 1121:1 1224:1 1314:1 1449:1 1485:1 1656:1 1821:1 2468:1 2540:1 2593:1 2943:1 2947:1 
-0.5413355877176296 90:1 272:1 431:1 791:1 841:1 918:1 1417:1 1437:1 1511:1 1603:1 1740:1 1882:1 1907:1 1963:1 2139:1 2424:1 2514:1 
-1 2381:1 
-0.6650739262680797 1747:1 2514:1 2652:1 
-0.7179116174888522 32:1 42:1 535:1 1145:1 1425:1 1436:1 1662:1 1740:1 2132:1 2187:1 2298:1 2771:1 
-0.1654483981594677 88:1 264:1 438:1 457:1 507:1 532:1 688:1 692:1 943:1 950:1 1161:1 1425:1 1647:1 1657:1 1712:1 1854:1 1988:1 2238:1 2424:1 2483:1 2537:1 2553:1 2611:1 2619:1 2754:1 2889:1 
-0.1997176869220516 115:1 421:1 488:1 504:1 518:1 534:1 790:1 854:1 868:1 977:1 1018:1 1081:1 1137:1 1255:1 1276:1 1463:1 1568:1 1579:1 1662:1 1670:1 1835:1 2008:1 2141:1 2442:1 2552:1 2685:1 2690:1 
-0.268620476009475 950:1 976:1 1013:1 1091:1 1159:1 1356:1 1421:1 1425:1 1627:1 1662:1 1670:1 1745:1 1818:1 2424:1 2518:1 2538:1 2622:1 2660:1 2825:1 
-0.1472398471459234 805:1 880:1 983:1 989:1 1119:1 1319:1 1356:1 1498:1 1540:1 1630:1 1655:1 1696:1 1906:1 1928:1 2385:1 2514:1 2549:1 2580:1 2673:1 2685:1 2751:1 
-1 1425:1 1662:1 
-0.05970530531743202 35:1 43:1 607:1 758:1 933:1 1449:1 1882:1 1912:1 2428:1 2947:1 
-1 4:1 35:1 43:1 57:1 228:1 488:1 607:1 722:1 758:1 765:1 918:1 933:1 1346:1 1449:1 1740:1 1882:1 1907:1 2141:1 2947:1 
-0.4369236362259004 43:1 130:1 950:1 1449:1 1511:1 1670:1 1907:1 2141:1 2514:1 
-0.576389747617845 4:1 35:1 43:1 758:1 765:1 933:1 1346:1 1412:1 1449:1 1485:1 1740:1 1882:1 1963:1 2141:1 2228:1 2428:1 2518:1 2947:1 
-0.4696971867233141 165:1 398:1 439:1 445:1 1668:1 1780:1 2031:1 2065:1 2514:1 
-1 171:1 331:1 910:1 1081:1 1670:1 2025:1 2389:1 
-1 4:1 35:1 43:1 90:1 607:1 765:1 841:1 1346:1 1425:1 1449:1 1603:1 1740:1 1882:1 2123:1 2141:1 2428:1 2659:1 2714:1 2947:1 
-1 551:1 1466:1 
-0.01498844578378645 180:1 186:1 267:1 285:1 391:1 614:1 664:1 837:1 842:1 881:1 910:1 957:1 1170:1 1351:1 1425:1 1488:1 1539:1 1938:1 2067:1 2146:1 2205:1 2278:1 2417:1 2422:1 2573:1 2685:1 2859:1 2922:1 
-0.1709901343951331 279:1 488:1 559:1 607:1 666:1 721:1 736:1 865:1 1237:1 1316:1 1425:1 1444:1 1458:1 1573:1 1662:1 1670:1 1808:1 1963:1 2098:1 2123:1 2128:1 2160:1 2204:1 2370:1 2419:1 2702:1 2734:1 2736:1 2886:1 
-0.06711518290916731 251:1 457:1 532:1 595:1 729:1 856:1 937:1 943:1 1117:1 1353:1 1425:1 1459:1 1662:1 1710:1 1725:1 1737:1 1738:1 1847:1 1963:1 1988:1 2044:1 2090:1 2097:1 2472:1 2505:1 2571:1 2726:1 2767:1 2805:1 2809:1 2876:1 2933:1 
-0.07726134465369092 280:1 353:1 529:1 765:1 790:1 909:1 975:1 1221:1 1323:1 1354:1 1425:1 1574:1 1577:1 1672:1 1740:1 1752:1 1808:1 2044:1 2113:1 2123:1 2133:1 2374:1 2419:1 2456:1 2707:1 2756:1 2785:1 2942:1 
-1 4:1 43:1 431:1 607:1 765:1 841:1 918:1 1346:1 1378:1 1449:1 1740:1 1882:1 2141:1 
-1 
-1 
-1 57:1 978:1 1425:1 1662:1 1882:1 2598:1 
-0.1322797901678462 260:1 438:1 504:1 705:1 935:1 1172:1 1402:1 1740:1 1770:1 1791:1 1957:1 1961:1 1963:1 1970:1 2035:1 2080:1 2360:1 2377:1 2382:1 2389:1 2495:1 2514:1 2549:1 2583:1 2722:1 2725:1 2730:1 2764:1 2843:1 2933:1 
-0.3273613600242237 42:1 251:1 488:1 933:1 1402:1 1425:1 1662:1 1670:1 1740:1 1903:1 1943:1 2040:1 2463:1 2848:1 
-1 1488:1 1770:1 
-1 43:1 57:1 383:1 488:1 607:1 722:1 777:1 875:1 918:1 1402:1 1449:1 1740:1 1882:1 2025:1 2909:1 2947:1 
-0.3378474053214515 42:1 194:1 222:1 1255:1 1488:1 1662:1 2114:1 2401:1 2423:1 2436:1 2503:1 2632:1 2685:1 2768:1 2778:1 2931:1 
-1 4:1 43:1 57:1 90:1 115:1 607:1 841:1 918:1 933:1 1346:1 1449:1 1662:1 1882:1 1963:1 2139:1 2228:1 2947:1 2952:1 
-0.06616623201283137 31:1 431:1 722:1 765:1 774:1 841:1 1670:1 1907:1 1945:1 2139:1 2141:1 2318:1 2478:1 2514:1 
-0.112887242851895 368:1 492:1 538:1 869:1 910:1 1115:1 1511:1 1670:1 1716:1 1738:1 1820:1 1926:1 2047:1 2514:1 2574:1 2598:1 2645:1 2689:1 2714:1 2744:1 
-0.456557654914803 264:1 438:1 530:1 869:1 910:1 978:1 1402:1 1662:1 1716:1 1738:1 1783:1 1926:1 2429:1 2461:1 2574:1 2598:1 2637:1 2689:1 2763:1 
-0.4736724548669539 90:1 272:1 765:1 1511:1 1521:1 1656:1 1670:1 2141:1 2228:1 2318:1 2424:1 2514:1 2685:1 2709:1 2802:1 
-0.1014901844404245 508:1 703:1 790:1 813:1 975:1 1240:1 1425:1 1670:1 1673:1 1752:1 1831:1 1857:1 2031:1 2045:1 2293:1 2317:1 2326:1 2609:1 2751:1 2810:1 2824:1 2886:1 
-0.2356525641301235 42:1 165:1 365:1 535:1 816:1 1425:1 1537:1 1662:1 1708:1 1752:1 1831:1 2079:1 2298:1 2449:1 2514:1 2606:1 2645:1 2844:1 
-0.9593139033267063 4:1 43:1 228:1 393:1 488:1 607:1 841:1 918:1 1346:1 1449:1 1740:1 1865:1 1882:1 1963:1 2685:1 2717:1 2925:1 2947:1 
-1 
-1 
-0.8105753309359613 35:1 155:1 488:1 722:1 981:1 1277:1 1656:1 2139:1 2141:1 2424:1 2514:1 
-0.2731764404557546 42:1 109:1 137:1 534:1 538:1 748:1 1425:1 1488:1 1502:1 1735:1 1841:1 2120:1 2367:1 2583:1 
-1 
-0.001384986022388057 42:1 383:1 742:1 756:1 920:1 1145:1 1196:1 1409:1 1425:1 1617:1 1662:1 1735:1 1876:1 2132:1 2137:1 2295:1 2467:1 2503:1 2514:1 2606:1 2645:1 2709:1 2860:1 2901:1 
-0.2250444657044591 57:1 978:1 1425:1 1662:1 1882:1 2046:1 2598:1 
-1 1466:1 
-1 
-1 
-0.1442431808697527 109:1 385:1 480:1 986:1 1119:1 1425:1 1488:1 1695:1 1735:1 1841:1 2201:1 2367:1 2586:1 
-0.2881013688731155 97:1 129:1 1998:1 2682:1 
-1 
-1 
-1 
-0.3699995650620078 253:1 438:1 722:1 762:1 804:1 935:1 1043:1 1402:1 1568:1 1603:1 1791:1 1898:1 2024:1 2206:1 2424:1 2456:1 2514:1 
-0.9181635623963167 918:1 1670:1 1826:1 1907:1 2110:1 2284:1 2571:1 2886:1 
-0.5182888721072084 126:1 1247:1 1425:1 1655:1 1662:1 1670:1 2152:1 2373:1 2514:1 2657:1 2926:1 
-0.191048565845235 383:1 390:1 569:1 1013:1 1740:1 2207:1 2426:1 2720:1 
-1 
-1 1425:1 1662:1 2645:1 
-1 970:1 2739:1 2934:1 
-1 893:1 1466:1 
-0.5225076492307908 253:1 438:1 762:1 874:1 910:1 935:1 955:1 1043:1 1319:1 1568:1 1914:1 2003:1 2141:1 2209:1 2329:1 2444:1 2456:1 2491:1 2495:1 2636:1 2794:1 2875:1 2887:1 
