svm_type c_svc
kernel_type linear
nr_class 2
total_sv 1184
rho -0.422247
label 1 -1
nr_sv 613 571
SV
0.4759021600889665 146:1 901:1 1569:1 1627:1 
1 2891:1 
0.6583186326838402 598:1 1116:1 2891:1 
1 2891:1 
0.1849170599998529 332:1 539:1 635:1 728:1 770:1 843:1 855:1 905:1 1315:1 1358:1 1562:1 1566:1 1583:1 1588:1 1834:1 1850:1 2107:1 2351:1 2679:1 2786:1 2933:1 3267:1 3277:1 3279:1 
0.2842571151663114 5:1 33:1 42:1 56:1 394:1 424:1 721:1 835:1 1013:1 1032:1 1073:1 1181:1 1195:1 1292:1 1358:1 1372:1 1402:1 1487:1 1602:1 1665:1 1933:1 2081:1 2166:1 2186:1 2351:1 3239:1 
1 42:1 56:1 665:1 977:1 1028:1 1462:1 1602:1 1933:1 2166:1 2686:1 3020:1 3277:1 
0.8961319872523907 773:1 1317:1 2098:1 
0.2554196503902993 539:1 665:1 1028:1 1137:1 1602:1 1665:1 2081:1 2972:1 3277:1 
0.2469621818282451 407:1 482:1 558:1 887:1 1295:1 1622:1 1649:1 1797:1 1833:1 1931:1 2042:1 2148:1 2225:1 2248:1 2259:1 2337:1 2365:1 2533:1 2688:1 2786:1 2808:1 3020:1 3036:1 3060:1 
0.7271176957472165 5:1 42:1 56:1 539:1 721:1 1013:1 1372:1 1487:1 1602:1 1665:1 1917:1 1933:1 2081:1 2166:1 2365:1 2465:1 
0.1667792740775917 41:1 539:1 645:1 690:1 862:1 978:1 1244:1 1262:1 1359:1 1453:1 1471:1 1627:1 1770:1 1824:1 1910:1 2068:1 2119:1 3020:1 3051:1 3093:1 3110:1 
0.2473973095807894 5:1 33:1 42:1 56:1 394:1 665:1 721:1 835:1 905:1 1013:1 1487:1 1602:1 1664:1 1665:1 1923:1 1933:1 2081:1 2106:1 2186:1 2365:1 2465:1 2495:1 2752:1 2982:1 3020:1 3277:1 
0.1533696730591346 170:1 254:1 394:1 482:1 585:1 959:1 1078:1 1098:1 1667:1 1835:1 1904:1 1933:1 1948:1 2111:1 2169:1 2259:1 2260:1 2359:1 2555:1 2561:1 2679:1 2688:1 2786:1 2860:1 2898:1 3036:1 3213:1 
0.9142564328349333 5:1 42:1 209:1 243:1 292:1 539:1 721:1 977:1 1013:1 1522:1 1547:1 1602:1 1665:1 1933:1 2081:1 2166:1 2259:1 2365:1 2382:1 2465:1 2554:1 2862:1 2872:1 3010:1 3020:1 3277:1 
0.2086420204338358 97:1 427:1 452:1 852:1 1008:1 1033:1 1112:1 1230:1 1398:1 1562:1 1811:1 1850:1 2110:1 2307:1 2330:1 2412:1 2473:1 2596:1 2786:1 3020:1 3036:1 
1 5:1 42:1 539:1 665:1 835:1 1013:1 1487:1 1602:1 1665:1 1764:1 1933:1 2000:1 2081:1 2166:1 3277:1 
1 2081:1 2892:1 3036:1 
1 539:1 1028:1 1402:1 2166:1 3020:1 
1 2891:1 
0.2252966417079082 77:1 1850:1 2118:1 2121:1 2254:1 2336:1 2671:1 2679:1 2786:1 3044:1 
0.8380382297453831 234:1 598:1 
1 5:1 33:1 42:1 56:1 394:1 665:1 835:1 1005:1 1013:1 1487:1 1602:1 1665:1 1933:1 2081:1 2790:1 
1 143:1 356:1 1177:1 1767:1 1850:1 3020:1 3036:1 
0.1699222891708082 41:1 215:1 364:1 539:1 627:1 1147:1 1270:1 1279:1 1497:1 1527:1 1562:1 1576:1 1649:1 1850:1 1963:1 2106:1 2129:1 2281:1 2434:1 2494:1 2579:1 2740:1 2770:1 2786:1 2923:1 3020:1 3036:1 
1 
1 2891:1 
1 5:1 33:1 42:1 56:1 394:1 665:1 721:1 1372:1 1487:1 1602:1 1665:1 1923:1 1933:1 2081:1 2106:1 2166:1 2365:1 2465:1 2686:1 3020:1 3277:1 
0.453343540198556 545:1 1224:1 1230:1 1931:1 2128:1 2764:1 3016:1 
1 5:1 33:1 42:1 56:1 243:1 292:1 394:1 665:1 728:1 905:1 1013:1 1449:1 1487:1 1602:1 1636:1 1665:1 1923:1 1933:1 2081:1 2686:1 3277:1 
0.01808142159551407 5:1 33:1 140:1 394:1 431:1 721:1 722:1 835:1 905:1 1005:1 1073:1 1295:1 1487:1 1602:1 1665:1 1923:1 1933:1 2081:1 2186:1 2365:1 2465:1 2686:1 2769:1 2790:1 3045:1 3277:1 
0.04640529347320912 228:1 723:1 777:1 863:1 911:1 1202:1 1602:1 2308:1 2706:1 2764:1 2798:1 3043:1 3093:1 3122:1 3262:1 3284:1 
0.3008583926902373 33:1 52:1 203:1 539:1 820:1 842:1 1021:1 1254:1 1350:1 1698:1 1980:1 2027:1 2065:1 2090:1 2182:1 2679:1 2690:1 2726:1 2945:1 3020:1 3197:1 
1 41:1 539:1 1668:1 2146:1 2297:1 2343:1 2679:1 2786:1 3020:1 
0.02011419323353463 132:1 193:1 272:1 371:1 397:1 486:1 539:1 572:1 575:1 636:1 654:1 801:1 1029:1 1407:1 1511:1 1547:1 1649:1 1742:1 1827:1 1850:1 1938:1 2014:1 2048:1 2283:1 2484:1 2499:1 2603:1 2737:1 2774:1 3020:1 3036:1 3134:1 3225:1 3245:1 3264:1 
0.1083430332566019 41:1 139:1 140:1 210:1 304:1 429:1 650:1 919:1 1021:1 1275:1 1850:1 1853:1 1928:1 1958:1 2097:1 2343:1 2352:1 2414:1 2434:1 2467:1 2601:1 2723:1 2786:1 2790:1 2874:1 2958:1 2982:1 3020:1 3056:1 3071:1 3187:1 3228:1 
0.1988842845478686 171:1 444:1 2891:1 
1 5:1 42:1 88:1 721:1 1013:1 1028:1 1372:1 1487:1 1602:1 1665:1 1933:1 2081:1 2106:1 2347:1 2366:1 3020:1 3036:1 3277:1 
0.02554869012883483 41:1 98:1 352:1 377:1 567:1 776:1 921:1 1016:1 1092:1 1100:1 1106:1 1168:1 1326:1 1354:1 1386:1 1453:1 1595:1 1639:1 1845:1 1854:1 1888:1 1949:1 1980:1 2010:1 2046:1 2522:1 2561:1 2679:1 2733:1 2748:1 3000:1 
0.02371238160150266 654:1 1394:1 1501:1 1518:1 1598:1 2112:1 2396:1 2470:1 2765:1 2816:1 3020:1 3036:1 
0.4577702811957365 1321:1 2891:1 
0.799984492472059 5:1 42:1 56:1 88:1 721:1 1013:1 1372:1 1487:1 1602:1 1665:1 1933:1 2081:1 2106:1 2166:1 2365:1 2465:1 2686:1 3020:1 3277:1 
1 88:1 120:1 721:1 835:1 1013:1 1462:1 1487:1 1602:1 1665:1 1923:1 1933:1 2081:1 2106:1 2166:1 2186:1 2351:1 3020:1 
0.5998321541772383 42:1 450:1 843:1 905:1 1648:1 1673:1 1923:1 2365:1 
0.9792827075274217 1260:1 1459:1 2392:1 2703:1 
1 143:1 356:1 1005:1 1177:1 1375:1 1767:1 2234:1 3036:1 
0.5829236787703517 518:1 2128:1 3210:1 
0.2124378513484141 41:1 132:1 146:1 371:1 397:1 572:1 637:1 658:1 777:1 826:1 853:1 994:1 1021:1 1107:1 1407:1 1720:1 1850:1 2048:1 2089:1 2786:1 2980:1 3020:1 3036:1 3134:1 3245:1 
1 143:1 356:1 1005:1 1177:1 1767:1 2234:1 2786:1 3020:1 
0.1775383721449696 791:1 1067:1 1069:1 1255:1 1380:1 1547:1 1599:1 1602:1 1753:1 1850:1 1870:1 2259:1 2369:1 2561:1 2629:1 2786:1 2794:1 2857:1 2869:1 3036:1 3044:1 3060:1 3227:1 3230:1 
0.4695874393129176 5:1 42:1 450:1 475:1 835:1 1264:1 1462:1 1487:1 1602:1 1665:1 1923:1 1933:1 2081:1 2166:1 2186:1 2430:1 3277:1 
0.7198276134833553 5:1 42:1 56:1 243:1 475:1 721:1 728:1 843:1 905:1 1013:1 1462:1 1487:1 1602:1 1636:1 1665:1 1923:1 1933:1 2081:1 2166:1 2186:1 2237:1 
0.01418616807760154 196:1 1791:1 3020:1 
0.03897654672427666 29:1 196:1 372:1 401:1 475:1 539:1 545:1 582:1 624:1 758:1 797:1 901:1 944:1 1028:1 1315:1 1402:1 1462:1 1602:1 1665:1 1850:1 1933:1 2017:1 2043:1 2081:1 2166:1 2233:1 2359:1 3210:1 3277:1 
0.2382014164433974 5:1 243:1 424:1 475:1 721:1 835:1 843:1 905:1 1005:1 1013:1 1295:1 1462:1 1602:1 1665:1 1923:1 1933:1 2081:1 2166:1 2186:1 2365:1 2465:1 2505:1 2769:1 2790:1 3277:1 
1 56:1 518:1 1596:1 1931:1 1933:1 2128:1 3020:1 
1 5:1 42:1 56:1 243:1 424:1 475:1 665:1 835:1 843:1 905:1 1013:1 1462:1 1487:1 1602:1 1665:1 1923:1 1933:1 2081:1 2351:1 2843:1 3277:1 
0.6815169791905902 33:1 394:1 424:1 460:1 797:1 1673:1 1834:1 2365:1 
0.2329692000379022 120:1 143:1 173:1 216:1 356:1 614:1 1005:1 1177:1 1323:1 1375:1 1486:1 1686:1 1767:1 1850:1 2185:1 2234:1 2308:1 2679:1 2808:1 3020:1 3036:1 
0.04817501238656831 41:1 141:1 312:1 400:1 417:1 439:1 496:1 663:1 678:1 732:1 826:1 878:1 916:1 943:1 1021:1 1070:1 1164:1 1238:1 1295:1 1409:1 1550:1 1700:1 1850:1 1934:1 1962:1 1966:1 2272:1 2606:1 2643:1 2679:1 2872:1 2982:1 3020:1 3116:1 3222:1 3264:1 
0.1560878986753417 1850:1 2118:1 2507:1 2613:1 3036:1 3044:1 3187:1 
1 219:1 1030:1 1230:1 2401:1 2417:1 2786:1 2852:1 3020:1 
0.3256044244001177 901:1 1115:1 1182:1 1569:1 1979:1 2098:1 
1 2891:1 
0.2943459896063654 5:1 42:1 475:1 721:1 843:1 905:1 936:1 977:1 1005:1 1372:1 1462:1 1602:1 1665:1 1923:1 1933:1 2081:1 2166:1 2259:1 2686:1 
1 3020:1 3036:1 
0.2268860451063466 82:1 216:1 684:1 688:1 794:1 944:1 1021:1 1307:1 1443:1 1547:1 1785:1 1850:1 1854:1 2185:1 2539:1 2725:1 2786:1 2855:1 2860:1 2959:1 3044:1 3259:1 3264:1 
0.1911724392915632 598:1 862:1 1649:1 3260:1 
0.02097411711960027 471:1 539:1 870:1 1028:1 1058:1 1252:1 1719:1 1850:1 1932:1 2010:1 2022:1 2117:1 2434:1 2526:1 2673:1 2781:1 2803:1 3234:1 
1 143:1 356:1 1005:1 1177:1 1375:1 1767:1 2234:1 3036:1 
0.4849059900826169 5:1 29:1 41:1 42:1 120:1 539:1 665:1 835:1 948:1 1013:1 1028:1 1056:1 1487:1 1602:1 1665:1 1764:1 1805:1 1850:1 1933:1 2081:1 2166:1 2259:1 2365:1 2454:1 2465:1 2553:1 2744:1 2774:1 2982:1 3277:1 
0.06872636011157167 26:1 400:1 456:1 679:1 686:1 697:1 717:1 787:1 807:1 826:1 887:1 933:1 1021:1 1035:1 1109:1 1422:1 1518:1 1531:1 1649:1 1810:1 2106:1 2281:1 2355:1 2435:1 2679:1 2927:1 3020:1 3138:1 3187:1 3206:1 
1 42:1 88:1 120:1 475:1 581:1 721:1 797:1 855:1 905:1 959:1 1013:1 1462:1 1665:1 1933:1 2081:1 2347:1 3020:1 
0.3629833197027928 5:1 33:1 42:1 394:1 460:1 721:1 1013:1 1372:1 1487:1 1602:1 1665:1 1933:1 2081:1 2159:1 2291:1 2365:1 2366:1 2465:1 3277:1 
1 143:1 356:1 1005:1 1177:1 1767:1 2234:1 2259:1 
0.006132450595792135 41:1 558:1 597:1 1459:1 1833:1 1933:1 2058:1 2244:1 2416:1 2452:1 2582:1 2673:1 2679:1 2696:1 2701:1 2792:1 2922:1 3020:1 3031:1 3036:1 
0.4805181265554756 33:1 42:1 60:1 394:1 539:1 907:1 1082:1 1244:1 1566:1 1583:1 1588:1 2351:1 2553:1 2774:1 2786:1 2982:1 3020:1 3277:1 
0.3033160500226838 41:1 1027:1 1082:1 1403:1 1833:1 1973:1 2238:1 2452:1 2492:1 2539:1 2696:1 2774:1 2786:1 2914:1 3020:1 3036:1 3264:1 
0.228421296622015 45:1 132:1 304:1 482:1 575:1 783:1 1060:1 1079:1 1131:1 1271:1 1299:1 1702:1 1760:1 1804:1 2099:1 2193:1 2346:1 2786:1 2902:1 2955:1 2999:1 3020:1 3101:1 3138:1 3257:1 
1 42:1 243:1 475:1 539:1 721:1 797:1 1602:1 1665:1 1933:1 2081:1 2166:1 2686:1 
0.09451779049935806 37:1 1389:1 1938:1 2578:1 2697:1 2989:1 3018:1 3020:1 3211:1 
1 33:1 394:1 424:1 728:1 797:1 1673:1 1923:1 2367:1 3020:1 
1 723:1 2706:1 3044:1 3265:1 
0.2133608232272126 41:1 532:1 1005:1 1030:1 1541:1 1661:1 1818:1 1977:1 2037:1 2570:1 2679:1 2860:1 2913:1 3020:1 3036:1 3053:1 3106:1 
1 911:1 1045:1 3020:1 3036:1 
0.02607332166802939 270:1 654:1 958:1 1260:1 1518:1 1833:1 1850:1 2238:1 2599:1 3020:1 3060:1 
0.1503946328935728 112:1 204:1 429:1 539:1 570:1 640:1 695:1 1189:1 1222:1 1240:1 1492:1 1649:1 1715:1 1818:1 1835:1 1850:1 1933:1 2367:1 2741:1 3020:1 3036:1 3043:1 3133:1 
1 2166:1 2546:1 3043:1 3122:1 
0.0955768658526272 41:1 167:1 474:1 585:1 697:1 730:1 1098:1 1833:1 1850:1 1854:1 2702:1 2922:1 3036:1 3093:1 
0.0775592916002112 41:1 52:1 291:1 309:1 575:1 648:1 887:1 1021:1 1023:1 1850:1 1981:1 2114:1 2170:1 2489:1 2561:1 2599:1 2697:1 2774:1 2786:1 3010:1 3020:1 3127:1 3144:1 3264:1 
0.1373455970423382 41:1 85:1 284:1 304:1 483:1 570:1 928:1 1254:1 1317:1 1560:1 2082:1 2283:1 2298:1 2599:1 2626:1 2786:1 2848:1 3020:1 3023:1 3036:1 3101:1 3138:1 
1 56:1 88:1 1449:1 1602:1 1933:1 2430:1 2686:1 3277:1 
0.3088663328428775 88:1 721:1 797:1 1028:1 1462:1 1602:1 1636:1 1665:1 1767:1 1923:1 1933:1 2081:1 2166:1 2234:1 2382:1 2775:1 3210:1 
1 42:1 292:1 394:1 539:1 905:1 1013:1 1534:1 1602:1 1665:1 1923:1 2081:1 2166:1 2351:1 3210:1 3279:1 
0.3704482959219224 143:1 230:1 356:1 959:1 1005:1 1177:1 1850:1 2234:1 2308:1 2547:1 3020:1 
0.3503610632730869 483:1 1362:1 1733:1 2774:1 2939:1 3020:1 
0.1106135976714982 803:1 1670:1 1759:1 2260:1 2359:1 2646:1 
0.08068725413776054 30:1 41:1 215:1 584:1 895:1 999:1 1021:1 1076:1 1374:1 1463:1 1464:1 1595:1 1850:1 2010:1 2065:1 2367:1 2427:1 2453:1 2465:1 2501:1 2863:1 3061:1 3072:1 3087:1 3247:1 
0.2025113853046832 539:1 686:1 1230:1 1850:1 1933:1 1957:1 2367:1 2599:1 3020:1 
0.02060848569334474 41:1 98:1 686:1 1351:1 1494:1 1817:1 1848:1 2013:1 2065:1 2578:1 2619:1 2786:1 2935:1 3020:1 3237:1 
0.07935664140887688 41:1 199:1 290:1 334:1 354:1 435:1 530:1 575:1 609:1 624:1 648:1 775:1 1005:1 1108:1 1188:1 1206:1 1214:1 1348:1 1361:1 1403:1 1415:1 1422:1 1483:1 1559:1 1847:1 1850:1 2045:1 2065:1 2377:1 2388:1 2427:1 2438:1 2651:1 2786:1 2982:1 3020:1 3093:1 3229:1 3272:1 
1 
1 
0.2397422096900273 218:1 401:1 480:1 691:1 1402:1 1602:1 2081:1 3037:1 3210:1 3277:1 
0.703535022734004 41:1 585:1 1123:1 1391:1 1459:1 1547:1 1608:1 1633:1 1868:1 2357:1 2917:1 3020:1 3036:1 
1 196:1 2117:1 3020:1 3036:1 
0.614879111435655 33:1 42:1 56:1 88:1 394:1 665:1 843:1 905:1 1013:1 1028:1 1372:1 1602:1 1636:1 1665:1 1673:1 1773:1 1923:1 1933:1 2081:1 2367:1 2686:1 3277:1 
0.1444675902139641 17:1 64:1 364:1 521:1 656:1 867:1 870:1 901:1 1215:1 1269:1 1302:1 1323:1 1627:1 1933:1 2015:1 2064:1 2172:1 2427:1 2675:1 2906:1 2926:1 2936:1 3020:1 3036:1 3056:1 3256:1 
0.3711116849313816 41:1 665:1 802:1 1021:1 1342:1 1435:1 1485:1 1818:1 1850:1 2027:1 2097:1 2346:1 2786:1 2894:1 3020:1 3036:1 
1 
0.6560288036621197 5:1 42:1 192:1 401:1 545:1 665:1 797:1 944:1 1062:1 1119:1 1377:1 1402:1 1602:1 2081:1 2166:1 3210:1 3277:1 
1 218:1 1402:1 1602:1 2081:1 3037:1 3210:1 
1 42:1 56:1 332:1 394:1 539:1 665:1 797:1 1005:1 1013:1 1028:1 1078:1 1602:1 1636:1 1665:1 1923:1 1931:1 2081:1 2892:1 
1 42:1 56:1 88:1 243:1 475:1 665:1 843:1 905:1 1013:1 1462:1 1602:1 1665:1 1923:1 2081:1 2106:1 2365:1 3020:1 
0.3743386462130702 4:1 41:1 875:1 960:1 1260:1 1315:1 1321:1 1459:1 1580:1 1614:1 1631:1 1769:1 1833:1 2059:1 2700:1 2787:1 3036:1 
0.5262897315909866 120:1 518:1 723:1 959:1 1005:1 1068:1 1766:1 1778:1 1834:1 1850:1 1938:1 2019:1 2197:1 2523:1 2706:1 2786:1 3020:1 3044:1 3060:1 3254:1 3265:1 
0.4146244563048588 120:1 1068:1 1834:1 1835:1 1850:1 2054:1 2166:1 2546:1 3043:1 3044:1 
0.124584592516444 41:1 120:1 502:1 518:1 539:1 944:1 1026:1 1378:1 1552:1 1557:1 1673:1 1765:1 1850:1 1933:1 2046:1 2092:1 2330:1 2338:1 2435:1 2465:1 2540:1 2913:1 2982:1 3028:1 3036:1 3060:1 3122:1 3202:1 
0.2580743107450506 518:1 643:1 1833:1 1879:1 2166:1 2512:1 2546:1 2738:1 
0.6428901750407187 518:1 971:1 1933:1 1988:1 3134:1 
1 236:1 
0.252088938972354 120:1 216:1 236:1 539:1 723:1 1205:1 1223:1 1307:1 1661:1 1834:1 1850:1 1879:1 1933:1 2365:1 2423:1 2427:1 2512:1 2574:1 2681:1 2743:1 2786:1 3036:1 3134:1 3265:1 
1 120:1 236:1 2166:1 2546:1 3134:1 
1 120:1 518:1 2166:1 2546:1 3134:1 
0.3520778492438371 518:1 791:1 1850:1 3020:1 3122:1 3224:1 
0.06034040434332207 16:1 24:1 41:1 1227:1 1315:1 1348:1 1357:1 1550:1 1745:1 1905:1 2469:1 2713:1 2720:1 2728:1 2786:1 2919:1 
0.9083830606574732 88:1 120:1 216:1 518:1 723:1 1474:1 1818:1 1850:1 1879:1 1919:1 1933:1 2552:1 2743:1 2786:1 2852:1 3020:1 3043:1 
0.07373633800027193 216:1 427:1 518:1 1252:1 1379:1 1441:1 1513:1 1649:1 1686:1 1834:1 1850:1 1988:1 2153:1 2495:1 2681:1 2721:1 2743:1 2774:1 3036:1 3044:1 3082:1 
0.2968005180214429 120:1 518:1 1835:1 2166:1 2546:1 2743:1 3060:1 
1 518:1 1880:1 3134:1 
0.9570391646141186 344:1 350:1 406:1 518:1 558:1 797:1 959:1 1068:1 1188:1 1302:1 1649:1 1661:1 1766:1 1773:1 1834:1 1850:1 2308:1 2786:1 2789:1 2982:1 2992:1 3020:1 3060:1 
0.06423456374064582 215:1 491:1 653:1 875:1 959:1 1005:1 1600:1 1661:1 1686:1 1810:1 1933:1 1988:1 2040:1 2259:1 2345:1 2494:1 2852:1 3036:1 3238:1 3243:1 
0.6253207845436916 518:1 777:1 1457:1 2982:1 3020:1 
0.2131528625091454 292:1 424:1 475:1 797:1 1073:1 1290:1 1462:1 1673:1 1773:1 1834:1 2442:1 2679:1 2717:1 2786:1 3020:1 3277:1 
1 236:1 1933:1 3020:1 3044:1 3122:1 3265:1 
1 208:1 236:1 644:1 870:1 928:1 1631:1 1761:1 1766:1 1835:1 1933:1 2743:1 2879:1 2911:1 3036:1 3043:1 
0.171716877097599 216:1 236:1 714:1 1005:1 1068:1 1307:1 1349:1 1850:1 1988:1 2246:1 2411:1 2786:1 2854:1 2984:1 3043:1 3044:1 3060:1 3082:1 3122:1 3224:1 
0.6587096321014715 214:1 216:1 236:1 475:1 788:1 875:1 1834:1 1850:1 1933:1 1988:1 2040:1 2681:1 3020:1 3044:1 3122:1 
1 42:1 243:1 292:1 424:1 427:1 665:1 721:1 797:1 1013:1 1933:1 2081:1 2166:1 2237:1 2872:1 3016:1 3277:1 
1 558:1 2234:1 2816:1 3036:1 
1 558:1 2234:1 2816:1 3036:1 
1 558:1 2234:1 2816:1 3036:1 
0.07292369499707813 41:1 200:1 384:1 400:1 777:1 1005:1 1033:1 1464:1 1705:1 1833:1 1836:1 1879:1 1914:1 2087:1 2396:1 2512:1 2550:1 2652:1 2816:1 2860:1 3021:1 3036:1 3039:1 3101:1 3122:1 3230:1 
1 2283:1 3036:1 
0.951950851203109 2816:1 3036:1 
1 2283:1 3036:1 
1 2816:1 3036:1 
1 2283:1 3036:1 
1 2283:1 3036:1 
0.1558393850449316 350:1 508:1 578:1 685:1 899:1 1036:1 1058:1 1240:1 1244:1 1422:1 1474:1 1649:1 1720:1 1850:1 1929:1 2332:1 2464:1 2620:1 2744:1 2786:1 3020:1 
1 558:1 2234:1 2816:1 3036:1 
1 191:1 2175:1 
1 
1 
1 
0.1598522976426829 120:1 539:1 1068:1 1518:1 1523:1 1602:1 1668:1 1673:1 1834:1 1835:1 1850:1 1933:1 1988:1 2019:1 2277:1 2367:1 2579:1 2681:1 2706:1 2786:1 2863:1 3033:1 3043:1 3044:1 
1 1206:1 3169:1 
0.4146308652281934 2175:1 
0.139429407141116 132:1 272:1 476:1 729:1 1850:1 1916:1 2283:1 2474:1 2766:1 2786:1 2931:1 3020:1 
0.098811928309481 33:1 41:1 55:1 182:1 269:1 539:1 791:1 931:1 1323:1 1673:1 1833:1 1850:1 1923:1 2246:1 2343:1 2378:1 2411:1 2439:1 2582:1 2786:1 2808:1 2830:1 2860:1 2993:1 3020:1 3036:1 3231:1 
0.1165010678888902 41:1 268:1 286:1 322:1 539:1 566:1 768:1 865:1 1324:1 1381:1 1424:1 1475:1 1619:1 1689:1 1869:1 2073:1 2196:1 2489:1 2697:1 2784:1 3018:1 3020:1 
0.08786778429827623 56:1 105:1 292:1 424:1 539:1 797:1 870:1 977:1 1073:1 1177:1 1568:1 1763:1 1834:1 1885:1 2081:1 2245:1 2637:1 2679:1 3005:1 3174:1 3175:1 3186:1 
0.1854808192062991 75:1 347:1 580:1 635:1 862:1 1021:1 1184:1 1267:1 1850:1 1928:1 1954:1 2106:1 2127:1 2281:1 2307:1 2343:1 2786:1 3019:1 3020:1 3234:1 
0.1575475133239219 41:1 482:1 697:1 845:1 870:1 944:1 1005:1 1230:1 1422:1 1458:1 1518:1 1611:1 1673:1 1781:1 1785:1 1850:1 1877:1 1912:1 1921:1 2065:1 2090:1 2626:1 2727:1 2834:1 2863:1 3020:1 3043:1 
0.1539862562676845 429:1 558:1 598:1 752:1 1772:1 1800:1 1833:1 1933:1 2343:1 2352:1 2357:1 2392:1 2450:1 2539:1 2578:1 2786:1 3020:1 3036:1 
0.553937796494419 42:1 243:1 424:1 475:1 721:1 843:1 855:1 905:1 1013:1 1462:1 1602:1 1665:1 1923:1 1933:1 2081:1 3277:1 
1 1373:1 1602:1 2336:1 
1 42:1 424:1 539:1 665:1 797:1 843:1 905:1 1402:1 1462:1 1602:1 1665:1 1673:1 1923:1 2081:1 2107:1 2166:1 2351:1 2686:1 3210:1 3277:1 
0.04218316972698527 85:1 257:1 605:1 648:1 845:1 1833:1 1850:1 1853:1 2012:1 2062:1 2065:1 2207:1 2349:1 2365:1 2865:1 2921:1 2931:1 3002:1 3018:1 3020:1 3036:1 3041:1 3168:1 3256:1 
1 
1 
1 
1 797:1 843:1 905:1 1673:1 1923:1 2365:1 2686:1 3277:1 
1 33:1 394:1 424:1 728:1 797:1 843:1 905:1 1673:1 1850:1 1923:1 2367:1 
0.2717630867112915 41:1 375:1 580:1 585:1 1019:1 1192:1 1260:1 1317:1 1838:1 1850:1 1933:1 1935:1 2049:1 2402:1 2452:1 2675:1 2872:1 2906:1 2939:1 3020:1 3036:1 3100:1 
0.1379278655762525 870:1 1074:1 1266:1 1348:1 1547:1 1625:1 1879:1 2106:1 2164:1 2308:1 2472:1 2542:1 2561:1 2652:1 2719:1 2774:1 2786:1 2974:1 
1 
1 
0.3046614852967738 41:1 539:1 558:1 774:1 959:1 1295:1 1547:1 1622:1 1850:1 1948:1 2096:1 2107:1 2248:1 2337:1 2367:1 2555:1 2629:1 2786:1 2808:1 2816:1 2827:1 3130:1 3275:1 
0.2730081770090332 41:1 1312:1 1591:1 2456:1 2599:1 2735:1 2906:1 2970:1 2982:1 3020:1 3036:1 3060:1 
0.1071122487028834 259:1 580:1 928:1 1004:1 1302:1 1345:1 1453:1 2278:1 2367:1 2599:1 2705:1 2744:1 2850:1 2925:1 3020:1 3036:1 
0.01901637367815082 41:1 78:1 83:1 169:1 185:1 333:1 465:1 482:1 539:1 549:1 557:1 569:1 632:1 648:1 654:1 1021:1 1171:1 1244:1 1258:1 1296:1 1303:1 1403:1 1484:1 1491:1 1576:1 1628:1 1649:1 1850:1 1859:1 1956:1 2095:1 2150:1 2164:1 2982:1 3191:1 3247:1 
1 2175:1 
0.4229745877858955 42:1 56:1 243:1 424:1 539:1 797:1 1013:1 1673:1 1834:1 2107:1 2351:1 2365:1 2546:1 2769:1 3020:1 3226:1 
0.05526779280045739 133:1 140:1 350:1 422:1 482:1 553:1 648:1 870:1 919:1 982:1 997:1 1003:1 1021:1 1155:1 1318:1 1348:1 1530:1 1638:1 1850:1 1933:1 2018:1 2411:1 2572:1 2679:1 2744:1 2756:1 2786:1 2808:1 2831:1 2856:1 2878:1 3020:1 3036:1 
0.1473326649722506 773:1 
0.157959448140928 41:1 125:1 350:1 752:1 947:1 1036:1 1077:1 1097:1 1371:1 1403:1 1494:1 1733:1 1933:1 1973:1 2330:1 2352:1 2535:1 2537:1 2982:1 3020:1 3219:1 3229:1 
1 33:1 42:1 56:1 120:1 243:1 343:1 394:1 539:1 728:1 797:1 843:1 905:1 1013:1 1602:1 1665:1 1673:1 1686:1 1923:1 2043:1 2081:1 2367:1 2786:1 2996:1 3016:1 3277:1 
0.8151332003346557 42:1 1013:1 1602:1 2081:1 3037:1 3210:1 3277:1 
0.07230472171328428 745:1 1036:1 1206:1 1649:1 2065:1 2235:1 2388:1 3020:1 3036:1 3265:1 
0.310581820511094 42:1 269:1 273:1 347:1 539:1 575:1 665:1 728:1 852:1 870:1 975:1 1013:1 1021:1 1028:1 1230:1 1279:1 1602:1 1665:1 1714:1 1834:1 1854:1 1933:1 2081:1 2411:1 2701:1 2786:1 2879:1 3051:1 3245:1 3277:1 
0.4899033479184943 33:1 216:1 399:1 654:1 777:1 797:1 1068:1 1307:1 1547:1 1602:1 1773:1 1834:1 1835:1 1850:1 2197:1 2675:1 2679:1 2681:1 2786:1 2823:1 2831:1 2932:1 3044:1 
0.1124579970324288 41:1 183:1 490:1 843:1 1082:1 1088:1 1230:1 1850:1 2064:1 2343:1 2386:1 2395:1 2786:1 2980:1 2982:1 3020:1 
0.0601364632586038 41:1 221:1 367:1 379:1 539:1 685:1 703:1 780:1 809:1 1072:1 1455:1 1591:1 1838:1 1850:1 1933:1 2046:1 2223:1 2300:1 2538:1 2571:1 2599:1 2695:1 2786:1 2807:1 3020:1 
0.04624953129241734 41:1 393:1 883:1 1453:1 1758:1 1816:1 1850:1 2153:1 2198:1 2220:1 2535:1 2673:1 2797:1 2870:1 2874:1 3199:1 
0.4619330254197713 1649:1 2175:1 2374:1 
0.1486505774039717 255:1 777:1 1230:1 1481:1 1518:1 1834:1 1850:1 2193:1 2220:1 2481:1 2651:1 2679:1 2774:1 2786:1 2886:1 3020:1 3060:1 3110:1 3224:1 3281:1 
1 2175:1 
0.05055112094531299 41:1 390:1 439:1 880:1 1008:1 1421:1 1850:1 1890:1 1928:1 1956:1 2065:1 2341:1 2346:1 2464:1 2468:1 3020:1 3063:1 3208:1 
0.2284158001194872 312:1 545:1 1805:1 1818:1 1850:1 1933:1 2046:1 2130:1 2330:1 2679:1 2743:1 2786:1 2802:1 2836:1 2884:1 3036:1 3078:1 3122:1 3143:1 3264:1 
0.101879561123938 561:1 978:1 1748:1 1816:1 2517:1 2599:1 2625:1 2844:1 2925:1 2988:1 3020:1 3036:1 
0.005333299661999608 41:1 641:1 768:1 841:1 955:1 1229:1 1249:1 1303:1 1316:1 1347:1 1405:1 1468:1 1831:1 1850:1 1921:1 1923:1 1928:1 2049:1 2065:1 2283:1 2367:1 2854:1 2906:1 2990:1 3019:1 3020:1 3056:1 3067:1 
1 33:1 42:1 56:1 120:1 343:1 394:1 665:1 721:1 728:1 905:1 1003:1 1013:1 1602:1 1665:1 1923:1 2081:1 2106:1 2427:1 2830:1 2996:1 3020:1 
1 5:1 42:1 192:1 401:1 545:1 665:1 797:1 944:1 1062:1 1402:1 1602:1 2081:1 2166:1 3210:1 3277:1 
1 2175:1 
0.09652938647022392 288:1 973:1 1615:1 1706:1 1870:1 1882:1 2853:1 2860:1 2928:1 3020:1 3036:1 3039:1 3082:1 3124:1 
0.1779644403141401 41:1 284:1 870:1 1076:1 1413:1 1455:1 1547:1 1649:1 1691:1 1709:1 1810:1 1850:1 2013:1 2036:1 2170:1 2619:1 2748:1 2786:1 2926:1 2935:1 2974:1 3020:1 3081:1 3181:1 
0.0423284912559163 26:1 98:1 123:1 303:1 539:1 571:1 575:1 580:1 665:1 673:1 703:1 895:1 922:1 1196:1 1244:1 1304:1 1547:1 1923:1 2258:1 2281:1 2307:1 2312:1 2367:1 2427:1 2468:1 2506:1 2628:1 2989:1 3020:1 
0.1591542740860595 41:1 56:1 303:1 648:1 681:1 845:1 870:1 979:1 1009:1 1161:1 1422:1 1591:1 1628:1 1683:1 2018:1 2148:1 2164:1 2258:1 2468:1 2679:1 2786:1 2811:1 2919:1 3095:1 3138:1 3143:1 3247:1 
0.3116843112194879 33:1 284:1 324:1 482:1 545:1 650:1 779:1 959:1 1005:1 1222:1 1547:1 1850:1 1854:1 2024:1 2128:1 2144:1 2166:1 2507:1 2621:1 2744:1 2786:1 2790:1 2892:1 3264:1 
1 42:1 120:1 539:1 1013:1 1402:1 1602:1 2081:1 
1 2175:1 
1 2175:1 
0.09415523468039089 539:1 551:1 928:1 1030:1 1075:1 1334:1 1432:1 1850:1 1875:1 2013:1 2030:1 2065:1 2526:1 2872:1 3020:1 
1 42:1 88:1 292:1 665:1 797:1 905:1 1028:1 1462:1 1602:1 1744:1 1850:1 1923:1 2351:1 2819:1 
0.1638512282335306 15:1 216:1 263:1 269:1 348:1 399:1 1005:1 1068:1 1096:1 1101:1 1307:1 1518:1 1547:1 1667:1 1834:1 1835:1 1850:1 2308:1 2512:1 2539:1 2681:1 2764:1 2786:1 2932:1 2982:1 3044:1 3082:1 3264:1 3266:1 
0.1283520795934492 61:1 120:1 222:1 269:1 531:1 570:1 1185:1 1260:1 1355:1 1602:1 1805:1 1850:1 1907:1 1938:1 2030:1 2040:1 2152:1 2197:1 2217:1 2679:1 2766:1 2869:1 3036:1 3060:1 3070:1 3147:1 3258:1 
0.3768527418559875 42:1 88:1 324:1 482:1 1059:1 1602:1 2336:1 2996:1 
0.2243703413340907 156:1 665:1 1176:1 1602:1 1693:1 1850:1 1933:1 2308:1 2437:1 2786:1 2886:1 2989:1 3044:1 3098:1 3265:1 
0.01398386515344776 41:1 594:1 740:1 1036:1 1848:1 1850:1 2290:1 2346:1 2367:1 3038:1 
0.1031759656725877 665:1 1176:1 1602:1 1933:1 2437:1 3044:1 3098:1 3265:1 
0.4454516975034341 539:1 1222:1 1447:1 1850:1 1933:1 2049:1 2075:1 2452:1 2871:1 3020:1 3032:1 3036:1 
0.9551254992899491 545:1 855:1 1005:1 1134:1 1931:1 2128:1 2202:1 2677:1 2733:1 2786:1 2892:1 2982:1 3020:1 3036:1 3093:1 
1 5:1 42:1 665:1 1013:1 1028:1 1602:1 1665:1 2081:1 
0.1445502356397111 42:1 88:1 424:1 544:1 665:1 722:1 1021:1 1028:1 1462:1 1602:1 1673:1 1923:1 2336:1 2351:1 2698:1 2819:1 3277:1 
0.1798479047168983 140:1 303:1 312:1 650:1 868:1 1073:1 1180:1 1447:1 1591:1 1800:1 1928:1 2330:1 2679:1 2779:1 2807:1 2947:1 3020:1 3036:1 
0.4923766560235845 42:1 475:1 544:1 665:1 855:1 1177:1 1220:1 1462:1 1602:1 1805:1 2336:1 3242:1 
0.6868883439294301 42:1 665:1 843:1 905:1 1013:1 1372:1 1602:1 1665:1 2081:1 2106:1 2686:1 3020:1 
1 42:1 56:1 1013:1 1372:1 1602:1 1665:1 2081:1 2106:1 3020:1 
0.05008882681630596 120:1 200:1 219:1 360:1 384:1 425:1 450:1 583:1 633:1 777:1 966:1 1005:1 1039:1 1336:1 1403:1 1443:1 1914:1 1933:1 2166:1 2236:1 2299:1 2396:1 2512:1 2550:1 2652:1 2816:1 3020:1 3021:1 3036:1 3069:1 3110:1 3117:1 3122:1 
0.7525360477961348 143:1 356:1 1005:1 1177:1 1375:1 1767:1 2234:1 
1 
0.05606488785166838 439:1 549:1 580:1 781:1 843:1 1335:1 1345:1 1452:1 1455:1 1496:1 1527:1 1755:1 1760:1 1796:1 1848:1 1850:1 1928:1 1933:1 1946:1 2065:1 2249:1 2279:1 2281:1 2679:1 2697:1 2913:1 2972:1 3020:1 3093:1 
0.5376388040805169 558:1 1260:1 1833:1 1850:1 2238:1 2357:1 2943:1 3020:1 3036:1 
0.6030671508056129 42:1 424:1 475:1 539:1 721:1 797:1 843:1 905:1 1005:1 1462:1 1602:1 1665:1 1673:1 1923:1 2081:1 2166:1 2365:1 2366:1 2579:1 3277:1 
0.9480134639555829 5:1 42:1 401:1 545:1 665:1 797:1 944:1 1062:1 1298:1 1402:1 1517:1 2081:1 2166:1 3020:1 3210:1 3277:1 
1 33:1 41:1 42:1 539:1 665:1 721:1 722:1 1013:1 1028:1 1402:1 1602:1 1933:1 2081:1 3083:1 3210:1 3277:1 
1 
1 
0.06908139475324844 178:1 624:1 1303:1 1562:1 1751:1 1753:1 1792:1 1803:1 1850:1 1912:1 2346:1 2535:1 2810:1 3020:1 3036:1 
0.04968908786313526 33:1 304:1 421:1 539:1 686:1 725:1 781:1 1004:1 1288:1 1303:1 1345:1 1822:1 1850:1 1984:1 2053:1 2312:1 2320:1 2697:1 2870:1 3020:1 3046:1 
0.07477302236406902 41:1 290:1 395:1 648:1 685:1 1393:1 1561:1 1628:1 1649:1 1760:1 2084:1 2166:1 2464:1 2537:1 2786:1 2818:1 2842:1 3020:1 3036:1 
0.05668740912600053 120:1 1317:1 2314:1 2482:1 2688:1 2907:1 3020:1 3028:1 3036:1 
1 15:1 33:1 120:1 539:1 1518:1 1633:1 1649:1 1835:1 1850:1 
0.08226809289661666 583:1 643:1 944:1 1082:1 1165:1 1757:1 1792:1 1805:1 1879:1 1932:1 1991:1 2025:1 2034:1 2166:1 2551:1 2839:1 2860:1 2874:1 3103:1 3107:1 3176:1 3254:1 3256:1 
0.3971345254015323 42:1 243:1 539:1 843:1 905:1 1005:1 1083:1 1358:1 1399:1 1414:1 1539:1 1596:1 1636:1 1656:1 1665:1 1673:1 1773:1 1834:1 1850:1 2081:1 2107:1 2315:1 2351:1 2553:1 2679:1 2786:1 2860:1 3226:1 3277:1 
0.172317837973525 41:1 119:1 503:1 539:1 557:1 580:1 594:1 698:1 724:1 747:1 901:1 1197:1 1301:1 1303:1 1345:1 1428:1 1510:1 1651:1 1848:1 2001:1 2065:1 2317:1 2367:1 2726:1 2852:1 3018:1 3255:1 
1 143:1 356:1 1005:1 1177:1 1767:1 1850:1 2808:1 3020:1 3036:1 
0.05962300465974066 275:1 583:1 854:1 963:1 1544:1 1598:1 1612:1 1677:1 1682:1 1805:1 2160:1 2166:1 2290:1 2296:1 2816:1 2995:1 3057:1 3231:1 3264:1 3274:1 
0.8352063530662782 48:1 1252:1 1805:1 1833:1 2207:1 2380:1 2562:1 2620:1 2626:1 2786:1 2863:1 2922:1 3036:1 
1 143:1 356:1 1005:1 1177:1 1767:1 2234:1 
0.7800181773449399 42:1 475:1 1028:1 1462:1 1665:1 1673:1 1731:1 1923:1 2081:1 2166:1 2790:1 3020:1 3277:1 3279:1 
0.2383464772268788 33:1 394:1 424:1 535:1 843:1 1055:1 1793:1 1805:1 1923:1 2159:1 2211:1 2356:1 2566:1 2982:1 3005:1 
0.3702368723210019 135:1 539:1 1073:1 1602:1 1607:1 1665:1 1805:1 1933:1 2081:1 2336:1 2610:1 3020:1 3174:1 
1 2175:1 
0.142730687573405 15:1 605:1 1089:1 1591:1 1649:1 1833:1 1884:1 2166:1 2427:1 2786:1 3026:1 3036:1 3256:1 
0.2923173709732202 629:1 648:1 1041:1 1089:1 1884:1 1933:1 2767:1 2786:1 3020:1 3036:1 3256:1 
1 2175:1 
0.4222798869232962 41:1 167:1 400:1 429:1 558:1 1260:1 1850:1 2465:1 2786:1 2922:1 2926:1 2943:1 
1 2175:1 
0.664035796218049 558:1 1713:1 1931:1 2238:1 2352:1 2418:1 2733:1 2786:1 2943:1 3020:1 
0.07530896493441552 140:1 172:1 271:1 353:1 482:1 604:1 870:1 904:1 1017:1 1036:1 1077:1 1110:1 1369:1 1422:1 1547:1 1591:1 1738:1 1933:1 1954:1 2045:1 2307:1 2324:1 2537:1 2636:1 2786:1 2811:1 2830:1 2988:1 2991:1 3020:1 3093:1 3251:1 
0.1292745227981018 116:1 240:1 382:1 476:1 492:1 769:1 825:1 826:1 855:1 1079:1 1206:1 1368:1 1433:1 1458:1 1494:1 1538:1 1833:1 1850:1 1938:1 2090:1 2579:1 2811:1 2931:1 3018:1 3020:1 3036:1 3060:1 
0.4755064500204775 33:1 120:1 394:1 539:1 665:1 721:1 852:1 854:1 893:1 1028:1 1055:1 1673:1 1764:1 1805:1 1879:1 2000:1 2106:1 2212:1 2301:1 2313:1 2336:1 3020:1 
0.4469797448358726 33:1 42:1 343:1 394:1 721:1 728:1 905:1 1013:1 1402:1 1602:1 1665:1 1923:1 1933:1 2081:1 2351:1 2427:1 2830:1 2996:1 3277:1 
0.3342210184456703 33:1 42:1 394:1 539:1 665:1 852:1 905:1 1073:1 1449:1 1602:1 1665:1 1923:1 2081:1 2166:1 2590:1 2879:1 3277:1 
0.1982337205185983 93:1 201:1 365:1 545:1 665:1 829:1 944:1 1366:1 1373:1 1403:1 1602:1 1850:1 2081:1 2106:1 2117:1 2151:1 2336:1 2630:1 2847:1 2863:1 2982:1 3020:1 
1 2175:1 
1 42:1 56:1 88:1 424:1 721:1 797:1 843:1 905:1 1013:1 1602:1 1665:1 1673:1 1834:1 1850:1 1923:1 1933:1 2081:1 2365:1 2679:1 2786:1 3277:1 
0.5526196991562979 1835:1 3043:1 3044:1 
1 33:1 394:1 1232:1 1602:1 1933:1 
1 143:1 173:1 356:1 1005:1 1177:1 1767:1 1850:1 2234:1 
0.8766011472301435 42:1 88:1 665:1 721:1 797:1 855:1 968:1 977:1 1665:1 1767:1 1773:1 1933:1 2081:1 2686:1 2954:1 3239:1 3277:1 
0.04426919208721054 1452:1 1676:1 1749:1 1805:1 1850:1 1950:1 2135:1 2673:1 2731:1 2774:1 2825:1 3009:1 3122:1 3187:1 
0.1807611868031849 88:1 120:1 181:1 475:1 539:1 544:1 705:1 1292:1 1337:1 1449:1 1453:1 1602:1 1805:1 1923:1 1969:1 1998:1 2171:1 2514:1 2933:1 3004:1 3020:1 3152:1 3210:1 
0.9661709097758788 558:1 1687:1 1772:1 2185:1 2450:1 3020:1 
1 98:1 359:1 561:1 1649:1 1850:1 2400:1 
1 
1 
1 2175:1 
1 2175:1 
0.1132349892470653 41:1 76:1 123:1 650:1 798:1 844:1 1085:1 1171:1 1303:1 1381:1 1812:1 1816:1 1833:1 1850:1 1924:1 1980:1 2095:1 2099:1 2281:1 2352:1 2629:1 2718:1 2726:1 2733:1 2872:1 2893:1 3020:1 3036:1 3056:1 3067:1 3138:1 
1 2175:1 
0.1975747368925306 369:1 1805:1 1850:1 1933:1 2118:1 2432:1 2574:1 2832:1 3258:1 
0.9176147426278135 88:1 180:1 451:1 1028:1 1045:1 1059:1 1602:1 1645:1 1665:1 2081:1 2430:1 3010:1 3264:1 3277:1 
0.2800086101921376 120:1 475:1 665:1 721:1 722:1 855:1 905:1 1013:1 1402:1 1462:1 1933:1 2081:1 2336:1 2982:1 3020:1 3210:1 
0.7090017408241807 42:1 88:1 120:1 665:1 728:1 1013:1 1372:1 1602:1 1665:1 1933:1 2081:1 2347:1 2366:1 3020:1 3277:1 3279:1 
0.2249648668866027 88:1 525:1 665:1 1083:1 1453:1 1602:1 1664:1 1805:1 1969:1 1994:1 2996:1 3094:1 3218:1 3277:1 
0.1529428512827764 120:1 211:1 216:1 306:1 310:1 723:1 959:1 1068:1 1834:1 1850:1 2502:1 2681:1 2706:1 2786:1 2795:1 3044:1 3265:1 
1 42:1 665:1 1013:1 1602:1 1665:1 2081:1 3277:1 
0.1695241789291978 50:1 350:1 449:1 834:1 1240:1 1835:1 1854:1 1875:1 2346:1 2367:1 2679:1 2705:1 2913:1 3020:1 3036:1 3188:1 
1 88:1 120:1 721:1 1013:1 1028:1 1602:1 1665:1 2081:1 3210:1 
0.2709270121928307 42:1 56:1 424:1 475:1 670:1 721:1 797:1 1013:1 1462:1 1602:1 1665:1 1673:1 1834:1 1850:1 1923:1 1933:1 2081:1 2427:1 2679:1 2786:1 3277:1 
0.1222852532086309 33:1 41:1 114:1 287:1 564:1 584:1 870:1 901:1 973:1 1218:1 1221:1 1292:1 1454:1 1679:1 1833:1 1834:1 1928:1 2097:1 2285:1 2414:1 2599:1 2615:1 2705:1 2877:1 2939:1 3020:1 3036:1 3221:1 3256:1 
0.7596584342777924 643:1 1449:1 1850:1 2280:1 2673:1 3137:1 
0.01399884813018109 41:1 241:1 648:1 1338:1 1628:1 1938:1 2051:1 2170:1 2279:1 2350:1 2669:1 3020:1 3114:1 
0.29768583636915 558:1 1260:1 1363:1 1459:1 1518:1 1655:1 1699:1 1850:1 2116:1 2187:1 2479:1 2915:1 2939:1 2943:1 3020:1 3036:1 3056:1 3074:1 
1 2175:1 
0.1067461544064962 167:1 558:1 1459:1 1631:1 1721:1 2049:1 2259:1 2458:1 2786:1 3020:1 
0.296565324248344 33:1 41:1 824:1 983:1 1083:1 1591:1 1792:1 1833:1 1850:1 1853:1 2064:1 2427:1 2433:1 2434:1 2786:1 2863:1 3020:1 3036:1 
0.330581844175707 120:1 694:1 3169:1 
1 
1 
1 2175:1 
1 
1 
1 33:1 42:1 394:1 424:1 427:1 665:1 721:1 797:1 855:1 1028:1 1378:1 1522:1 1602:1 1624:1 1665:1 1923:1 1933:1 2081:1 2166:1 2795:1 3020:1 3070:1 3210:1 3277:1 
1 2175:1 
1 1005:1 1931:1 2128:1 2892:1 3036:1 
1 2175:1 
1 1649:1 
1 42:1 475:1 905:1 1462:1 1602:1 1665:1 1850:1 1923:1 2081:1 2106:1 2166:1 3020:1 3277:1 
0.281799272181436 834:1 1028:1 1310:1 1783:1 1805:1 1950:1 2389:1 2411:1 2453:1 2612:1 2675:1 2692:1 2731:1 
0.4741518460725629 30:1 216:1 1230:1 1231:1 1253:1 1448:1 1474:1 1833:1 1834:1 1850:1 1884:1 1919:1 2395:1 2427:1 3019:1 3020:1 3036:1 3256:1 
0.06223030363683248 213:1 270:1 482:1 558:1 598:1 797:1 1082:1 1098:1 1547:1 1563:1 1610:1 1733:1 1773:1 1810:1 2374:1 2392:1 2539:1 2703:1 2760:1 2786:1 2930:1 2949:1 3196:1 3205:1 
0.137559843779629 270:1 598:1 797:1 1082:1 1635:1 1733:1 1773:1 1875:1 2042:1 2125:1 2247:1 2372:1 2380:1 2392:1 2539:1 2703:1 2760:1 2786:1 3134:1 3196:1 
1 
0.1992515904310456 42:1 120:1 332:1 539:1 665:1 721:1 977:1 1402:1 1408:1 1665:1 1933:1 2081:1 2166:1 3020:1 3277:1 
1 2175:1 
1 1401:1 2175:1 
0.1699375141936708 120:1 519:1 752:1 824:1 1348:1 1681:1 1850:1 2115:1 2367:1 2744:1 2945:1 2982:1 3020:1 3036:1 3139:1 3200:1 
0.3873763307577824 42:1 428:1 475:1 539:1 558:1 665:1 728:1 855:1 1372:1 1602:1 1665:1 1686:1 1933:1 2081:1 2430:1 2686:1 3045:1 
1 539:1 2128:1 2259:1 2752:1 2892:1 3020:1 3036:1 3277:1 
0.5442817181477735 475:1 1684:1 1818:1 1834:1 1850:1 1884:1 2038:1 2427:1 2433:1 2786:1 
1 2816:1 3036:1 
0.56924183631473 42:1 539:1 665:1 1013:1 1602:1 1764:1 2000:1 2081:1 2546:1 2686:1 2769:1 2790:1 2830:1 3277:1 
0.2066304490045792 270:1 282:1 911:1 1098:1 1260:1 1850:1 1933:1 2166:1 2238:1 2357:1 2452:1 2504:1 3020:1 3108:1 3125:1 3286:1 
0.3888659833456213 42:1 292:1 539:1 1673:1 2351:1 3005:1 3226:1 
1 2175:1 
0.1415924905872637 31:1 194:1 297:1 1453:1 1735:1 1769:1 1833:1 1879:1 2099:1 2256:1 2343:1 2357:1 2679:1 2694:1 3036:1 
1 3043:1 3122:1 
0.5861674202620869 41:1 216:1 950:1 1005:1 1834:1 1850:1 2786:1 2808:1 2913:1 3020:1 3043:1 3082:1 
0.1989944198643493 41:1 216:1 265:1 873:1 950:1 1005:1 1029:1 1834:1 1850:1 1891:1 1951:1 2583:1 2786:1 2808:1 2863:1 2913:1 3020:1 3043:1 3172:1 
0.0267202863483708 120:1 539:1 721:1 1013:1 1028:1 1602:1 1665:1 2081:1 3210:1 
0.006386675424050204 29:1 98:1 105:1 270:1 303:1 414:1 457:1 482:1 538:1 675:1 716:1 846:1 870:1 915:1 998:1 1045:1 1073:1 1169:1 1292:1 1456:1 1473:1 1554:1 1690:1 1712:1 1854:1 2136:1 2155:1 2279:1 2376:1 2712:1 2747:1 2870:1 2903:1 2953:1 3020:1 3085:1 3104:1 3140:1 
0.08070136080499615 139:1 185:1 212:1 267:1 298:1 380:1 466:1 665:1 751:1 848:1 1021:1 1057:1 1272:1 1285:1 1295:1 1426:1 1494:1 1514:1 1527:1 1628:1 1646:1 2060:1 2065:1 2089:1 2218:1 2273:1 2310:1 2679:1 2872:1 2945:1 3019:1 3020:1 3236:1 
0.08241704983242512 42:1 120:1 243:1 292:1 394:1 460:1 475:1 539:1 728:1 905:1 1013:1 1137:1 1244:1 1402:1 1487:1 1602:1 1665:1 1673:1 1923:1 1933:1 2081:1 2159:1 2351:1 2362:1 2781:1 2996:1 3277:1 
1 
1 
1 2175:1 
0.06075986890816096 42:1 88:1 180:1 427:1 665:1 721:1 797:1 855:1 1013:1 1028:1 1032:1 1045:1 1081:1 1462:1 1602:1 1624:1 1636:1 1665:1 1923:1 1933:1 2081:1 2795:1 2916:1 3020:1 3070:1 3277:1 
1 
1 1078:1 2128:1 2259:1 2892:1 3020:1 3036:1 
0.4276308434881898 33:1 41:1 42:1 56:1 539:1 665:1 721:1 777:1 779:1 977:1 1013:1 1098:1 1146:1 1292:1 1462:1 1519:1 1596:1 1602:1 1665:1 1764:1 1850:1 1879:1 1933:1 2081:1 2146:1 2238:1 2351:1 2366:1 2420:1 2430:1 2715:1 2786:1 2916:1 
0.1345370294521148 29:1 32:1 41:1 290:1 303:1 321:1 524:1 539:1 557:1 584:1 624:1 664:1 758:1 910:1 1016:1 1076:1 1230:1 1300:1 1452:1 1468:1 1850:1 1934:1 1963:1 2065:1 2089:1 2106:1 2244:1 2344:1 2367:1 2427:1 2468:1 2495:1 2786:1 2924:1 3097:1 3138:1 3181:1 3218:1 
0.326651730177949 33:1 42:1 56:1 394:1 721:1 797:1 1013:1 1470:1 1602:1 1665:1 1673:1 1834:1 1850:1 1923:1 1933:1 2081:1 2786:1 3277:1 
1 586:1 598:1 2392:1 
1 2175:1 
1 2816:1 3036:1 
0.2053605903079266 292:1 539:1 582:1 665:1 721:1 1013:1 1028:1 1528:1 1665:1 1673:1 1850:1 2081:1 2106:1 2166:1 2336:1 2351:1 2786:1 3020:1 3043:1 3148:1 3210:1 3277:1 
0.6318036587842139 120:1 177:1 723:1 1082:1 2166:1 2309:1 2546:1 2706:1 3044:1 3082:1 
0.3573433309933571 272:1 539:1 665:1 1028:1 1397:1 1503:1 1602:1 1805:1 1850:1 1892:1 2118:1 2389:1 2855:1 3153:1 
0.3731842005524883 41:1 381:1 861:1 1547:1 1639:1 1850:1 1852:1 2005:1 2582:1 2629:1 2786:1 2976:1 3087:1 
0.03082148024854775 33:1 468:1 870:1 1850:1 2271:1 2364:1 2679:1 3060:1 3137:1 3162:1 
1 2098:1 
1 33:1 42:1 120:1 394:1 665:1 1602:1 1665:1 2081:1 3277:1 
0.557844899914164 33:1 42:1 204:1 292:1 427:1 539:1 843:1 855:1 977:1 1005:1 1547:1 1602:1 1829:1 1850:1 1923:1 1932:1 1933:1 2059:1 2091:1 2175:1 2216:1 2382:1 2686:1 2698:1 2769:1 2996:1 
0.1349172270670647 643:1 834:1 1429:1 1612:1 1734:1 1816:1 1950:1 2224:1 2257:1 2762:1 2796:1 2830:1 2940:1 3020:1 3171:1 
1 2175:1 
1 2175:1 
0.2707092522615921 41:1 204:1 323:1 610:1 1140:1 1353:1 2220:1 2295:1 2480:1 2816:1 3020:1 
0.8337790171594891 88:1 424:1 1673:1 1793:1 1923:1 
0.04618545003310399 208:1 1663:1 1884:1 2427:1 
1 2175:1 
1 2175:1 
1 389:1 1833:1 2629:1 3036:1 3179:1 
1 389:1 1833:1 2629:1 2660:1 3036:1 3179:1 
0.2110358038027903 56:1 361:1 386:1 1005:1 1021:1 1134:1 1273:1 1518:1 1547:1 1661:1 1717:1 1931:1 2128:1 2808:1 2916:1 2982:1 3016:1 3020:1 3036:1 3093:1 3210:1 
1 344:1 723:1 777:1 911:1 1202:1 1834:1 1850:1 1854:1 2197:1 2681:1 2706:1 2786:1 3044:1 3082:1 3224:1 
0.3791796586814091 41:1 167:1 575:1 689:1 1081:1 1850:1 2539:1 2599:1 2644:1 2939:1 2943:1 2982:1 3184:1 
0.1986776740712176 30:1 178:1 549:1 1260:1 1459:1 1713:1 1833:1 2357:1 2922:1 3020:1 3036:1 3060:1 
0.2237051648956818 5:1 33:1 42:1 88:1 120:1 394:1 665:1 728:1 843:1 905:1 1013:1 1487:1 1602:1 1665:1 1673:1 1923:1 1933:1 2081:1 2106:1 2107:1 2351:1 2365:1 2994:1 3020:1 3277:1 
0.3020922586771281 351:1 1005:1 1562:1 1870:1 2392:1 2703:1 
0.8026407649925009 33:1 42:1 338:1 394:1 665:1 721:1 905:1 1013:1 1028:1 1032:1 1073:1 1239:1 1602:1 1645:1 1665:1 1886:1 1923:1 1933:1 2017:1 2081:1 2106:1 2351:1 2465:1 2629:1 2686:1 2790:1 3020:1 3210:1 3277:1 3283:1 
0.9560777282395709 33:1 42:1 394:1 665:1 721:1 977:1 1005:1 1013:1 1021:1 1028:1 1292:1 1602:1 1665:1 1933:1 2081:1 2106:1 2166:1 2186:1 2288:1 2430:1 2465:1 2933:1 2982:1 3010:1 3119:1 3277:1 
1 
1 
0.1616281406759383 33:1 42:1 292:1 394:1 665:1 721:1 905:1 910:1 1013:1 1083:1 1487:1 1602:1 1665:1 1834:1 2081:1 2351:1 2790:1 2862:1 
1 5:1 33:1 42:1 394:1 665:1 870:1 905:1 975:1 1013:1 1028:1 1487:1 1602:1 1665:1 1764:1 1933:1 2081:1 2382:1 2430:1 2686:1 2790:1 2843:1 3277:1 
0.7650694742655416 5:1 33:1 42:1 394:1 665:1 1013:1 1487:1 1602:1 1665:1 2081:1 3277:1 
0.1979125500380418 132:1 435:1 1188:1 1254:1 1261:1 1350:1 1980:1 2599:1 2859:1 3255:1 3269:1 
0.07361772118753768 56:1 249:1 290:1 475:1 482:1 654:1 870:1 975:1 1019:1 1036:1 1081:1 1082:1 1378:1 1422:1 1547:1 1596:1 1637:1 1850:1 2512:1 2611:1 2861:1 3020:1 3060:1 3187:1 3192:1 
1 120:1 2118:1 3169:1 
0.1682120293755762 29:1 41:1 1160:1 1359:1 1649:1 1654:1 1722:1 1751:1 1848:1 2106:1 2599:1 2744:1 2786:1 3020:1 3036:1 
0.03296206927685687 33:1 42:1 1230:1 1323:1 1773:1 1794:1 1850:1 1854:1 1879:1 1909:1 1933:1 1991:1 2197:1 2365:1 2546:1 2786:1 2852:1 3036:1 3082:1 3084:1 3093:1 3130:1 3226:1 
1 
1 2175:1 
0.8331254211845522 88:1 424:1 797:1 1013:1 1764:1 1933:1 2078:1 2205:1 2860:1 
1 2175:1 
0.1726503789944632 400:1 490:1 870:1 1145:1 1953:1 2599:1 2654:1 3020:1 3233:1 
0.09885189012652668 41:1 1737:1 1783:1 1834:1 1850:1 1968:1 2118:1 2146:1 2409:1 2526:1 2679:1 2681:1 2699:1 2825:1 2845:1 2982:1 3020:1 3112:1 3214:1 
0.3857166418469321 773:1 1649:1 2374:1 
0.114050812582542 33:1 120:1 384:1 633:1 777:1 1005:1 1336:1 1547:1 1850:1 1857:1 1933:1 2017:1 2166:1 2224:1 2396:1 2564:1 2569:1 2574:1 2578:1 2793:1 2816:1 2860:1 3068:1 3264:1 
1 
0.007804307517586507 52:1 203:1 820:1 1021:1 1350:1 1698:1 1781:1 2090:1 2281:1 2346:1 2537:1 2690:1 2797:1 2926:1 3020:1 
1 2816:1 3036:1 
0.2615539796661611 633:1 777:1 925:1 1005:1 1336:1 1933:1 2106:1 2262:1 2494:1 3020:1 
0.1943134139382864 1849:1 2011:1 2194:1 3036:1 
0.1361279392192012 29:1 125:1 152:1 469:1 482:1 663:1 725:1 828:1 955:1 978:1 1016:1 1076:1 1506:1 1649:1 1704:1 1850:1 2010:1 2065:1 2183:1 2497:1 2559:1 2858:1 2945:1 3020:1 3081:1 3086:1 
0.4275427530926003 284:1 585:1 1933:1 2922:1 
1 2175:1 
0.1356552744435445 42:1 88:1 356:1 598:1 721:1 1005:1 1013:1 1021:1 1030:1 1206:1 1292:1 1588:1 1665:1 1673:1 1767:1 1923:1 2081:1 2234:1 2282:1 2288:1 2365:1 2477:1 2786:1 2933:1 3020:1 3036:1 
0.0900987294187911 347:1 545:1 795:1 959:1 1005:1 1510:1 1518:1 1818:1 1833:1 1835:1 1931:1 1933:1 2042:1 2073:1 2122:1 2128:1 2144:1 2185:1 2259:1 2312:1 2621:1 2786:1 2986:1 3036:1 3043:1 3254:1 3264:1 
0.4120527419424624 41:1 357:1 419:1 1850:1 1933:1 2178:1 2441:1 2535:1 2786:1 2807:1 3020:1 3043:1 3256:1 
1 33:1 394:1 1602:1 1665:1 1933:1 2081:1 2186:1 2465:1 3148:1 
1 
0.2743018381685889 204:1 356:1 388:1 1477:1 1767:1 1787:1 2234:1 2679:1 3020:1 3036:1 
0.117958760912607 30:1 269:1 311:1 317:1 558:1 719:1 777:1 1166:1 1547:1 1615:1 1649:1 1850:1 1854:1 2106:1 2166:1 2475:1 2589:1 2765:1 2982:1 3039:1 3250:1 3264:1 
0.2022298703461225 1:1 41:1 161:1 864:1 1001:1 1021:1 1628:1 1713:1 1850:1 2574:1 2643:1 2786:1 3036:1 3247:1 
0.02969007747950432 120:1 156:1 306:1 539:1 585:1 986:1 1005:1 1547:1 1802:1 1834:1 1836:1 1879:1 1898:1 1913:1 1985:1 2106:1 2123:1 2305:1 2492:1 2512:1 2680:1 2941:1 2954:1 2975:1 3020:1 3036:1 
1 120:1 2098:1 
1 5:1 42:1 56:1 88:1 665:1 855:1 905:1 1028:1 1372:1 1414:1 1487:1 1602:1 1645:1 1665:1 1923:1 2081:1 2291:1 2686:1 2790:1 3210:1 3277:1 
0.01556460821640986 140:1 253:1 300:1 304:1 539:1 626:1 703:1 749:1 881:1 1126:1 1141:1 1345:1 1384:1 1417:1 1524:1 1551:1 1575:1 1591:1 1597:1 1609:1 1649:1 1850:1 1938:1 2203:1 2281:1 2807:1 2874:1 2902:1 3020:1 3036:1 3093:1 3101:1 
0.1383623745756559 247:1 303:1 400:1 501:1 567:1 603:1 648:1 1021:1 1431:1 1572:1 1643:1 1798:1 1850:1 1965:1 2039:1 2090:1 2099:1 2145:1 2281:1 2294:1 2350:1 2537:1 2679:1 2697:1 2716:1 2744:1 2834:1 2982:1 3020:1 3036:1 3039:1 
0.06805338764793477 5:1 7:1 41:1 238:1 304:1 482:1 584:1 624:1 686:1 955:1 1021:1 1109:1 1641:1 1770:1 1816:1 1850:1 1929:1 2013:1 2065:1 2283:1 2679:1 2730:1 2796:1 2863:1 3020:1 3056:1 3220:1 
0.3179433506337861 558:1 2701:1 2808:1 2929:1 3020:1 
0.1182237576891301 7:1 98:1 303:1 304:1 330:1 352:1 824:1 1303:1 1634:1 1721:1 1741:1 1912:1 2064:1 2065:1 2415:1 2489:1 2557:1 2675:1 2781:1 2804:1 2862:1 2951:1 2980:1 3019:1 3020:1 3060:1 
0.2433360536246285 5:1 42:1 88:1 244:1 338:1 427:1 561:1 665:1 905:1 1013:1 1028:1 1115:1 1462:1 1602:1 1665:1 1762:1 1923:1 1933:1 2081:1 2125:1 2872:1 3010:1 3277:1 
0.2226016632769897 558:1 703:1 857:1 975:1 1002:1 1383:1 1833:1 1899:1 2626:1 2690:1 2700:1 2858:1 2922:1 3020:1 3036:1 3060:1 3229:1 
1 2175:1 
0.1346662731337464 215:1 427:1 558:1 585:1 876:1 1092:1 1098:1 1115:1 1206:1 1260:1 1374:1 1403:1 1459:1 1772:1 1973:1 1979:1 2106:1 2465:1 2820:1 2982:1 3020:1 3036:1 3075:1 
1 42:1 88:1 120:1 665:1 721:1 1013:1 1028:1 1602:1 1665:1 2081:1 3210:1 3277:1 
0.1601627580661606 5:1 42:1 122:1 570:1 665:1 702:1 824:1 905:1 1028:1 1115:1 1487:1 1602:1 1665:1 1923:1 2081:1 2106:1 2200:1 2351:1 2368:1 2686:1 3020:1 3121:1 3153:1 3277:1 
0.02693826082685848 284:1 482:1 545:1 1018:1 1115:1 1307:1 1547:1 1562:1 1749:1 1833:1 1904:1 1931:1 1933:1 1982:1 2024:1 2073:1 2128:1 2144:1 2185:1 2512:1 2786:1 2982:1 2986:1 3036:1 3210:1 
0.6786472380061331 42:1 56:1 88:1 665:1 721:1 1013:1 1028:1 1602:1 1665:1 1933:1 2081:1 2686:1 2790:1 3115:1 3277:1 
0.6696297233098141 2175:1 3169:1 
1 2816:1 3036:1 
0.1180490448486831 120:1 911:1 1374:1 1576:1 1791:1 1869:1 1981:1 2452:1 2774:1 2943:1 3020:1 3036:1 3229:1 
1 1005:1 1177:1 2892:1 3020:1 3077:1 
0.4413903513121456 143:1 173:1 356:1 1177:1 1375:1 1445:1 1767:1 1850:1 1911:1 2234:1 
0.2784616228264825 225:1 493:1 585:1 720:1 851:1 959:1 1005:1 1222:1 1410:1 1547:1 1673:1 1977:1 2198:1 2570:1 2679:1 2768:1 2786:1 2826:1 3020:1 3102:1 3131:1 3134:1 
1 475:1 665:1 1220:1 1462:1 1602:1 1665:1 1933:1 2081:1 3094:1 
1 
1 2175:1 
1 42:1 56:1 88:1 424:1 665:1 905:1 1372:1 1462:1 1602:1 1665:1 1923:1 1933:1 2081:1 2351:1 3277:1 
1 2175:1 
0.1134480209447 114:1 139:1 150:1 221:1 329:1 400:1 479:1 650:1 654:1 870:1 899:1 1028:1 1096:1 1115:1 1148:1 1230:1 1255:1 1403:1 1447:1 1547:1 1649:1 1850:1 1928:1 2040:1 2075:1 2599:1 2628:1 2771:1 2833:1 2872:1 2874:1 2982:1 3020:1 
1 
0.753829426214914 42:1 635:1 1005:1 1045:1 1068:1 1382:1 1456:1 1850:1 2056:1 2302:1 2308:1 2359:1 2365:1 2570:1 2786:1 2862:1 2946:1 3033:1 3036:1 3044:1 3084:1 3093:1 3265:1 
0.1063843502708796 427:1 909:1 1260:1 1565:1 1599:1 1602:1 1805:1 1828:1 1850:1 1879:1 1933:1 2045:1 2074:1 2135:1 2166:1 2212:1 2254:1 2363:1 2395:1 2528:1 2534:1 2605:1 2629:1 2679:1 2743:1 2825:1 2832:1 2873:1 3044:1 3060:1 3087:1 3172:1 3214:1 
1 2816:1 3036:1 
0.1049850166594111 41:1 44:1 80:1 104:1 385:1 405:1 427:1 429:1 514:1 699:1 1040:1 1142:1 1252:1 1456:1 1518:1 1547:1 1617:1 1666:1 1778:1 1850:1 2166:1 2225:1 2343:1 2546:1 2626:1 2786:1 2897:1 3033:1 3036:1 3113:1 3265:1 
1 
0.05472287776712281 41:1 312:1 561:1 699:1 1805:1 1828:1 1875:1 1996:1 2044:1 2246:1 2259:1 2389:1 2530:1 2539:1 2692:1 2774:1 2811:1 3060:1 
1 1510:1 2128:1 2259:1 2892:1 3020:1 3036:1 
0.1418391897089629 382:1 1850:1 2280:1 2390:1 2403:1 2576:1 2786:1 3036:1 3044:1 
0.3223251735208751 42:1 56:1 475:1 1013:1 1462:1 1602:1 1941:1 2336:1 2366:1 2553:1 3277:1 
1 2816:1 3036:1 
0.2797867978824909 5:1 177:1 539:1 648:1 665:1 839:1 901:1 944:1 1547:1 1805:1 1837:1 1850:1 2168:1 2417:1 2631:1 2673:1 2765:1 2786:1 2816:1 3036:1 
0.4282967236860605 50:1 120:1 374:1 852:1 1310:1 1780:1 1805:1 1850:1 2052:1 2731:1 2786:1 3036:1 
0.1961006610926855 41:1 49:1 303:1 377:1 676:1 697:1 757:1 1453:1 1518:1 1628:1 1634:1 1649:1 1650:1 1651:1 1850:1 2065:1 2318:1 2334:1 2561:1 2679:1 2697:1 2698:1 2712:1 3081:1 3093:1 3210:1 3247:1 
1 
0.5924096806742049 539:1 1351:1 2146:1 2297:1 2523:1 3187:1 
0.1575361645223136 12:1 350:1 527:1 573:1 822:1 904:1 1016:1 1110:1 1292:1 1467:1 1804:1 1813:1 2294:1 2307:1 2599:1 2679:1 2744:1 2786:1 2898:1 2931:1 3020:1 
1 2175:1 
0.2177759886216821 41:1 88:1 777:1 1547:1 1818:1 2430:1 2863:1 3005:1 3020:1 3036:1 3133:1 
1 2175:1 
0.1479614229984008 270:1 443:1 911:1 1733:1 1834:1 1850:1 1879:1 1933:1 2238:1 2452:1 3020:1 3036:1 3108:1 
1 
0.07705830754515529 105:1 164:1 167:1 539:1 870:1 1026:1 1562:1 1634:1 1644:1 1816:1 1946:1 2069:1 2117:1 2283:1 2307:1 2459:1 2500:1 2535:1 2774:1 2786:1 2931:1 
1 2816:1 3036:1 
0.1260289447036923 41:1 264:1 327:1 397:1 420:1 438:1 572:1 907:1 1021:1 1138:1 1244:1 1351:1 1585:1 1616:1 1630:1 1651:1 1850:1 2015:1 2046:1 2048:1 2065:1 2132:1 2182:1 2257:1 2278:1 2747:1 2783:1 2786:1 3020:1 3151:1 
1 
0.1256828537227916 376:1 539:1 589:1 595:1 632:1 660:1 701:1 753:1 761:1 1021:1 1240:1 1338:1 1359:1 1616:1 1701:1 1713:1 1720:1 1724:1 1838:1 1850:1 1981:1 2090:1 2258:1 2307:1 2346:1 2468:1 2747:1 2786:1 2808:1 2844:1 2905:1 3020:1 3036:1 3096:1 3164:1 3224:1 
0.1229422080201705 41:1 539:1 655:1 907:1 1020:1 1547:1 1649:1 1733:1 2117:1 2146:1 2279:1 2523:1 2786:1 2827:1 3020:1 3093:1 3187:1 3231:1 
0.3022601103940493 120:1 558:1 585:1 671:1 1260:1 1459:1 1461:1 1708:1 1733:1 1833:1 1879:1 2075:1 2352:1 2502:1 2642:1 2774:1 2939:1 3020:1 3036:1 
0.1391338200354467 41:1 69:1 84:1 116:1 530:1 594:1 790:1 848:1 1021:1 1244:1 1422:1 1527:1 1589:1 1649:1 1711:1 1850:1 1912:1 1938:1 2065:1 2427:1 2468:1 2535:1 2760:1 2786:1 2982:1 3020:1 3036:1 3224:1 3247:1 
0.5918986330444127 120:1 1649:1 2118:1 
0.1202728160155585 307:1 527:1 1216:1 1317:1 1351:1 1518:1 1854:1 1873:1 1950:1 2027:1 2509:1 2537:1 2743:1 2744:1 2786:1 2843:1 2982:1 3020:1 3036:1 3076:1 3082:1 3264:1 
0.306618702494603 307:1 1216:1 1518:1 1818:1 1854:1 3005:1 3020:1 3036:1 3133:1 
0.5824148075390563 5:1 33:1 42:1 394:1 665:1 835:1 905:1 1005:1 1372:1 1414:1 1487:1 1602:1 1665:1 2081:1 2358:1 2465:1 2686:1 2790:1 3210:1 
1 2175:1 
0.1263483488820978 41:1 167:1 759:1 792:1 832:1 1315:1 1833:1 1850:1 1854:1 1933:1 1963:1 2441:1 2452:1 2524:1 2701:1 2786:1 2922:1 3031:1 3036:1 3173:1 3180:1 3224:1 3232:1 
1 5:1 33:1 42:1 56:1 394:1 665:1 721:1 835:1 1005:1 1013:1 1028:1 1487:1 1602:1 1665:1 1933:1 2081:1 2166:1 2351:1 2365:1 2465:1 2790:1 3277:1 
0.8807571073485134 558:1 1772:1 2185:1 2275:1 2523:1 2774:1 3020:1 3036:1 
0.2581095698631588 773:1 777:1 843:1 1588:1 2098:1 
1 2175:1 
1 5:1 42:1 475:1 665:1 843:1 905:1 1028:1 1137:1 1462:1 1487:1 1602:1 1665:1 2081:1 2106:1 2686:1 3020:1 3153:1 3277:1 
0.9632910306670956 42:1 88:1 229:1 243:1 343:1 424:1 475:1 797:1 835:1 1013:1 1018:1 1202:1 1402:1 1462:1 1487:1 1535:1 1602:1 1665:1 1686:1 1923:1 1933:1 2081:1 2106:1 2430:1 2830:1 2944:1 3020:1 3277:1 
1 143:1 356:1 1177:1 1375:1 2106:1 2234:1 2786:1 3020:1 3036:1 
0.2412712574188834 1078:1 2512:1 3036:1 
1 5:1 42:1 475:1 665:1 797:1 843:1 905:1 1372:1 1462:1 1487:1 1602:1 1645:1 1665:1 1923:1 1933:1 2081:1 2106:1 2686:1 2954:1 3277:1 
0.1927275932891873 19:1 64:1 126:1 196:1 285:1 401:1 475:1 545:1 758:1 797:1 843:1 905:1 944:1 953:1 975:1 1028:1 1217:1 1315:1 1328:1 1402:1 1462:1 1602:1 1665:1 1834:1 1933:1 2081:1 2106:1 2166:1 2233:1 2315:1 2382:1 2790:1 2827:1 2862:1 3020:1 3210:1 3277:1 
1 2816:1 3036:1 
0.1272783395841436 424:1 475:1 728:1 1345:1 1462:1 1673:1 1923:1 2358:1 2367:1 3060:1 
0.5423757787042043 269:1 290:1 1185:1 1230:1 1345:1 1850:1 1928:1 2049:1 2426:1 2538:1 2629:1 2974:1 3036:1 3044:1 3060:1 
0.004136288028245706 39:1 41:1 485:1 568:1 729:1 1251:1 1252:1 1779:1 1833:1 1850:1 2538:1 2801:1 2900:1 3020:1 3036:1 
1 2175:1 
1 143:1 173:1 356:1 1005:1 1177:1 1445:1 1767:1 1850:1 3020:1 
0.2519703664668631 5:1 42:1 475:1 665:1 707:1 855:1 1013:1 1028:1 1149:1 1372:1 1414:1 1462:1 1602:1 1645:1 1665:1 1923:1 1933:1 2081:1 2315:1 2790:1 3148:1 3210:1 3277:1 
0.8726306416856572 204:1 356:1 388:1 1477:1 1767:1 1787:1 2234:1 2679:1 3020:1 3036:1 
0.01266109067092538 41:1 507:1 545:1 665:1 811:1 945:1 1418:1 1425:1 1928:1 1933:1 2307:1 2319:1 2346:1 2373:1 2537:1 2618:1 2646:1 2697:1 2744:1 2761:1 2863:1 2974:1 3020:1 
0.6068075944046124 284:1 585:1 870:1 1011:1 1206:1 1423:1 1634:1 1649:1 1733:1 2357:1 3020:1 3036:1 3229:1 
0.551511484951539 5:1 42:1 192:1 401:1 665:1 797:1 1213:1 1602:1 1665:1 2081:1 2166:1 3210:1 3277:1 
0.578764918449879 1649:1 1774:1 
0.1886245486074492 5:1 42:1 125:1 429:1 475:1 721:1 843:1 855:1 905:1 1013:1 1414:1 1462:1 1487:1 1602:1 1636:1 1665:1 1923:1 1933:1 2081:1 2291:1 2315:1 2430:1 2610:1 2790:1 2996:1 3148:1 3210:1 
0.3710429872456491 196:1 394:1 581:1 797:1 977:1 1055:1 1268:1 1373:1 1388:1 1969:1 2175:1 2336:1 2657:1 3020:1 3210:1 3239:1 
0.07607178456879132 41:1 125:1 256:1 320:1 558:1 779:1 1260:1 1381:1 1427:1 1459:1 1733:1 1734:1 1879:1 2187:1 2357:1 2700:1 2729:1 2926:1 2939:1 2982:1 3020:1 3036:1 3110:1 
0.4376349046091699 42:1 196:1 243:1 424:1 475:1 665:1 721:1 728:1 797:1 843:1 905:1 1013:1 1028:1 1083:1 1462:1 1602:1 1665:1 1923:1 1933:1 2081:1 2126:1 2166:1 2790:1 3277:1 3279:1 
0.1935033225975357 1074:1 1547:1 1600:1 1602:1 1665:1 1879:1 1933:1 2081:1 2539:1 2688:1 2937:1 
0.1253490294372294 400:1 545:1 574:1 870:1 881:1 1045:1 1148:1 1409:1 1634:1 1816:1 1850:1 1879:1 1928:1 2064:1 2146:1 2512:1 2519:1 2535:1 2786:1 2814:1 2931:1 2978:1 3020:1 3060:1 3137:1 3264:1 
1 2786:1 3020:1 3218:1 
1 2175:1 
0.05697760331182175 98:1 558:1 580:1 699:1 798:1 971:1 990:1 1021:1 1547:1 1628:1 1850:1 1940:1 1946:1 2240:1 2367:1 2844:1 2918:1 2958:1 3003:1 3020:1 
0.2367094665101046 1030:1 2098:1 2175:1 
0.4349533034202921 270:1 598:1 1547:1 1790:1 1990:1 2392:1 2439:1 2485:1 2760:1 3005:1 3196:1 
0.8381081541577727 41:1 120:1 1733:1 2030:1 2191:1 2307:1 2452:1 2587:1 2629:1 3036:1 3060:1 
0.06799192033847089 41:1 51:1 364:1 459:1 574:1 740:1 804:1 864:1 929:1 1021:1 1082:1 1145:1 1234:1 1593:1 1850:1 1971:1 2009:1 2051:1 2679:1 2685:1 2786:1 2909:1 2982:1 3146:1 3158:1 3264:1 
0.4663807248899469 539:1 722:1 959:1 1033:1 1923:1 2365:1 2612:1 2686:1 2786:1 3093:1 
0.4700252969011365 42:1 88:1 225:1 338:1 511:1 731:1 797:1 1292:1 1355:1 1399:1 1665:1 1673:1 1791:1 2081:1 2106:1 2872:1 3020:1 
0.4305411078647607 270:1 482:1 598:1 797:1 840:1 1030:1 1139:1 1547:1 1733:1 2213:1 2253:1 2392:1 2760:1 3196:1 
1 2175:1 
1 2175:1 
0.1388583386303254 41:1 119:1 132:1 134:1 337:1 442:1 495:1 594:1 648:1 1021:1 1167:1 1196:1 1627:1 1649:1 1788:1 1850:1 1928:1 2010:1 2188:1 2258:1 2679:1 2726:1 2799:1 3019:1 3020:1 3072:1 3093:1 3247:1 3255:1 
0.175640175246984 270:1 482:1 598:1 1547:1 1773:1 2253:1 2392:1 2439:1 
0.1069153574918362 1000:1 1655:1 1657:1 1850:1 2187:1 2240:1 2399:1 2679:1 
1 270:1 482:1 598:1 840:1 1139:1 1547:1 2213:1 2253:1 2392:1 2760:1 3196:1 
1 
1 1791:1 3020:1 3128:1 
0.4233934180746994 1791:1 3020:1 
1 1791:1 3020:1 3128:1 
1 1791:1 3020:1 
1 1791:1 3020:1 
1 1791:1 3020:1 
1 1791:1 3020:1 
1 1791:1 3020:1 
1 1791:1 3020:1 
1 1791:1 3020:1 3128:1 
1 1791:1 3020:1 3128:1 
1 1791:1 3020:1 3128:1 
1 1791:1 3020:1 
1 1791:1 3020:1 
1 1791:1 3020:1 3128:1 
1 1791:1 3020:1 
1 1791:1 3020:1 3128:1 
1 1791:1 3020:1 3128:1 
0.05037849403474632 141:1 159:1 166:1 199:1 432:1 708:1 916:1 1051:1 1348:1 1364:1 1468:1 1587:1 1661:1 1850:1 1851:1 1915:1 2263:1 2379:1 2411:1 2527:1 2578:1 2786:1 2806:1 2893:1 2919:1 3020:1 3054:1 
1 1791:1 3020:1 
1 1791:1 3020:1 
1 1791:1 3020:1 
1 1791:1 3020:1 
1 1791:1 3020:1 3128:1 
1 1791:1 3020:1 
1 1791:1 3020:1 
1 1791:1 3020:1 
1 1791:1 3020:1 
1 1791:1 3020:1 3128:1 
1 1791:1 3020:1 
1 1791:1 3020:1 
1 1791:1 3020:1 
1 1791:1 3020:1 
1 1791:1 3020:1 
1 1791:1 3020:1 
1 1791:1 3020:1 
1 1791:1 3020:1 
1 1791:1 3020:1 3128:1 
0.03621654812266501 101:1 243:1 427:1 549:1 556:1 558:1 561:1 697:1 1021:1 1082:1 1092:1 1240:1 1322:1 1345:1 1378:1 1555:1 1850:1 1938:1 2489:1 2535:1 2578:1 2872:1 2912:1 2974:1 3056:1 3101:1 3154:1 3223:1 3224:1 3244:1 
1 5:1 33:1 42:1 56:1 243:1 394:1 539:1 665:1 728:1 905:1 1013:1 1487:1 1602:1 1665:1 1923:1 1933:1 2081:1 2090:1 2106:1 2465:1 2686:1 2744:1 3277:1 
0.3345699084873947 42:1 393:1 539:1 665:1 975:1 977:1 1005:1 1013:1 1021:1 1083:1 1602:1 1603:1 1665:1 2081:1 2106:1 2166:1 2186:1 2465:1 2486:1 2525:1 2676:1 2933:1 2982:1 3020:1 3277:1 
1 5:1 42:1 120:1 485:1 539:1 665:1 835:1 977:1 1013:1 1028:1 1487:1 1602:1 1665:1 1850:1 2081:1 2106:1 2166:1 2186:1 2365:1 2382:1 2465:1 2972:1 3020:1 3036:1 3210:1 3277:1 
0.5684473751856587 42:1 539:1 665:1 835:1 1005:1 1013:1 1295:1 1602:1 1665:1 1933:1 2081:1 2166:1 2186:1 2769:1 2790:1 3020:1 3277:1 
1 143:1 356:1 1005:1 1177:1 1375:1 1767:1 2234:1 3036:1 
1 5:1 42:1 539:1 665:1 1487:1 1602:1 1665:1 1933:1 2081:1 2465:1 2686:1 3277:1 
1 196:1 2939:1 3020:1 3036:1 
1 1933:1 3020:1 
0.1537792249429034 404:1 509:1 571:1 703:1 906:1 928:1 1028:1 1106:1 1315:1 1581:1 1586:1 1794:1 1805:1 1879:1 1933:1 2179:1 2191:1 2236:1 2241:1 2263:1 2396:1 2511:1 2751:1 2787:1 2816:1 3036:1 3176:1 
0.8010513830619096 33:1 42:1 56:1 243:1 342:1 394:1 539:1 721:1 797:1 977:1 1013:1 1602:1 1665:1 1933:1 2081:1 2186:1 2291:1 3277:1 
0.1696118881550742 41:1 98:1 325:1 377:1 561:1 686:1 776:1 1034:1 1281:1 1383:1 1403:1 1494:1 1546:1 1570:1 1838:1 2013:1 2143:1 2204:1 2451:1 2540:1 2562:1 2584:1 2679:1 2796:1 2863:1 2905:1 2942:1 3019:1 3020:1 3060:1 3062:1 3101:1 3138:1 3187:1 3210:1 
0.2350717210742395 400:1 624:1 803:1 1216:1 1403:1 1512:1 1518:1 1750:1 1833:1 1931:1 2030:1 2307:1 2324:1 2341:1 2523:1 2629:1 2718:1 2743:1 2786:1 2863:1 2982:1 3020:1 3036:1 3110:1 3255:1 
0.9528043845070465 56:1 539:1 611:1 797:1 1005:1 2025:1 2259:1 2892:1 3020:1 3036:1 
0.1651702123998359 41:1 958:1 978:1 1688:1 2536:1 2559:1 2656:1 2858:1 3036:1 3093:1 3183:1 
0.4136458674377606 41:1 158:1 394:1 539:1 843:1 905:1 1345:1 1602:1 1665:1 1834:1 1850:1 2081:1 2166:1 2430:1 2679:1 2764:1 2786:1 2862:1 
1 
0.2905030801143408 42:1 120:1 216:1 272:1 284:1 593:1 1206:1 1547:1 1835:1 1850:1 1879:1 2081:1 2165:1 2536:1 2600:1 2621:1 2786:1 2980:1 2982:1 3044:1 3109:1 3122:1 
0.04401676572026317 68:1 178:1 350:1 587:1 957:1 987:1 1021:1 1212:1 1348:1 1365:1 1638:1 1710:1 1816:1 1834:1 1850:1 2008:1 2106:1 2154:1 2289:1 2498:1 2523:1 2536:1 2578:1 2679:1 2786:1 2830:1 3020:1 3036:1 3052:1 3060:1 3158:1 3198:1 
0.853678805252026 389:1 3036:1 3043:1 3179:1 
1 2175:1 
0.8407817262533208 208:1 490:1 1795:1 2982:1 3020:1 3036:1 3265:1 
0.3459564933196399 47:1 400:1 877:1 1222:1 1833:1 1850:1 2357:1 2452:1 2610:1 3020:1 3036:1 3255:1 
0.1239842373843743 216:1 394:1 1030:1 1383:1 1588:1 1670:1 1833:1 1850:1 2133:1 2228:1 2764:1 2786:1 2835:1 2926:1 3020:1 3036:1 
1 5:1 56:1 88:1 665:1 721:1 835:1 905:1 1462:1 1487:1 1602:1 1665:1 1923:1 1933:1 2081:1 2106:1 2686:1 3020:1 3277:1 
1 2117:1 3036:1 
0.0745925520282925 41:1 268:1 314:1 482:1 742:1 813:1 975:1 978:1 1158:1 1169:1 1289:1 1323:1 1524:1 1832:1 2232:1 2312:1 2346:1 2367:1 2733:1 2748:1 2872:1 2906:1 3020:1 3036:1 3132:1 3160:1 
0.3028767978238516 41:1 167:1 735:1 1361:1 1933:1 2786:1 3020:1 
0.1703780133816994 120:1 341:1 1602:1 1933:1 2166:1 2546:1 2706:1 2774:1 2843:1 3043:1 3122:1 3224:1 
1 2629:1 
1 2629:1 
1 2629:1 
1 2629:1 
1 2629:1 
1 2629:1 
1 2629:1 
0.9748085086532966 1898:1 
1 1898:1 
1 1898:1 
0.4416900736507079 41:1 75:1 370:1 412:1 503:1 624:1 703:1 1023:1 1188:1 1303:1 1465:1 1547:1 2786:1 2807:1 3019:1 3020:1 3036:1 3134:1 3287:1 
0.3922945760227025 41:1 721:1 800:1 1260:1 1459:1 1608:1 1850:1 2294:1 2329:1 2357:1 2465:1 2700:1 2922:1 3020:1 3036:1 
0.05617941093222741 33:1 120:1 216:1 482:1 585:1 777:1 959:1 1098:1 1383:1 1518:1 1547:1 1610:1 1613:1 1632:1 1835:1 2134:1 2169:1 2260:1 2570:1 2741:1 
0.007133300608853643 41:1 68:1 107:1 129:1 476:1 561:1 648:1 870:1 1021:1 1230:1 1455:1 1527:1 1628:1 1760:1 1770:1 1807:1 1852:1 2089:1 2124:1 2187:1 2414:1 2437:1 2468:1 2679:1 2697:1 2757:1 2770:1 2870:1 2988:1 3020:1 
0.2821240727657661 201:1 475:1 539:1 612:1 797:1 1013:1 1402:1 1462:1 1602:1 1665:1 1832:1 1850:1 1923:1 2081:1 3210:1 3279:1 
0.262129305256285 389:1 3036:1 3043:1 3179:1 
1 1791:1 3020:1 3128:1 
1 1791:1 3020:1 3128:1 
1 1898:1 
0.02609288139343974 918:1 1045:1 1125:1 1833:1 1933:1 1994:1 2375:1 2751:1 2864:1 3036:1 3082:1 3189:1 
0.3798093213966208 5:1 33:1 42:1 120:1 338:1 348:1 394:1 424:1 835:1 1013:1 1028:1 1292:1 1597:1 1602:1 1665:1 1767:1 2081:1 2106:1 2679:1 2816:1 2872:1 2996:1 3020:1 3148:1 3277:1 
1 2175:1 
0.1135591090075658 41:1 42:1 56:1 324:1 332:1 424:1 470:1 539:1 728:1 797:1 1013:1 1292:1 1602:1 1665:1 1901:1 1923:1 1933:1 2081:1 2106:1 2513:1 2765:1 2916:1 2960:1 3020:1 3039:1 3277:1 
1 5:1 332:1 539:1 665:1 1487:1 1602:1 1665:1 2081:1 2465:1 
1 42:1 539:1 665:1 721:1 1602:1 2166:1 2237:1 2686:1 3210:1 3277:1 
1 2081:1 2892:1 3036:1 
0.4091781686782364 347:1 475:1 728:1 843:1 852:1 855:1 905:1 977:1 1232:1 1372:1 1462:1 1583:1 1588:1 1764:1 1850:1 2454:1 2679:1 2786:1 2933:1 3277:1 3279:1 
1 
-1 
-0.6707462581303203 90:1 533:1 598:1 2891:1 
-1 1541:1 2891:1 
-1 720:1 2891:1 
-1 2891:1 
-0.09847544077866782 28:1 59:1 375:1 474:1 490:1 539:1 725:1 1021:1 1187:1 1308:1 1671:1 1732:1 1749:1 1794:1 1850:1 1974:1 2367:1 2599:1 2679:1 2788:1 2870:1 2982:1 3020:1 3130:1 
-0.4531614445663902 5:1 332:1 539:1 665:1 721:1 835:1 977:1 1005:1 1013:1 1028:1 1487:1 1602:1 1645:1 1673:1 1879:1 1917:1 1933:1 2306:1 2382:1 2686:1 2790:1 3277:1 
-0.1819039126529014 245:1 463:1 631:1 855:1 1045:1 1220:1 1279:1 1295:1 1399:1 1462:1 1766:1 1834:1 2106:1 2679:1 2686:1 2786:1 3020:1 3036:1 3122:1 
-0.3178969613390702 5:1 42:1 56:1 394:1 424:1 460:1 529:1 539:1 797:1 1013:1 1487:1 1602:1 1665:1 1764:1 1923:1 1991:1 2081:1 2128:1 2263:1 2438:1 2505:1 2686:1 2872:1 
-1 2891:1 
-0.465641948648747 42:1 394:1 539:1 665:1 721:1 786:1 835:1 905:1 1005:1 1028:1 1185:1 1602:1 1665:1 1923:1 1933:1 2017:1 2081:1 2166:1 2186:1 2237:1 2358:1 2365:1 2465:1 2790:1 3210:1 3277:1 
-0.6045081861947983 2683:1 2880:1 2891:1 
-0.2076901201871481 41:1 479:1 554:1 649:1 810:1 935:1 992:1 1182:1 1403:1 1547:1 1649:1 1945:1 2040:1 2180:1 2357:1 2500:1 2587:1 2774:1 2838:1 3019:1 3020:1 3056:1 3187:1 3225:1 
-0.30075894357707 5:1 42:1 539:1 665:1 721:1 1013:1 1028:1 1074:1 1436:1 1487:1 1600:1 1602:1 1665:1 1925:1 1933:1 2081:1 2106:1 2186:1 2382:1 2688:1 3277:1 
-0.1521535349770647 8:1 1028:1 1403:1 1884:1 1933:1 1960:1 2056:1 3098:1 3143:1 3256:1 
-0.08157027903315373 41:1 56:1 743:1 840:1 1076:1 1083:1 1127:1 1591:1 1655:1 1666:1 1819:1 1974:1 2010:1 2307:1 2367:1 2552:1 2697:1 2982:1 3020:1 3043:1 3075:1 3081:1 3277:1 
-1 5:1 33:1 42:1 56:1 243:1 394:1 665:1 721:1 1013:1 1028:1 1372:1 1487:1 1602:1 1665:1 1933:1 2081:1 2166:1 2291:1 2365:1 2465:1 
-0.629737937723292 215:1 429:1 843:1 1471:1 1634:1 1649:1 2626:1 3101:1 
-1 2175:1 
-1 2816:1 3036:1 
-1 5:1 33:1 42:1 394:1 539:1 665:1 721:1 1013:1 1028:1 1372:1 1487:1 1602:1 1665:1 1933:1 2081:1 2366:1 3210:1 3277:1 3279:1 
-0.4351307363692646 33:1 243:1 292:1 394:1 1005:1 1414:1 1923:1 2365:1 2553:1 2786:1 2916:1 
-1 5:1 33:1 42:1 243:1 394:1 665:1 835:1 905:1 1013:1 1487:1 1665:1 1923:1 1933:1 2081:1 2106:1 2166:1 2351:1 2465:1 3020:1 
-0.6363824484954232 5:1 42:1 56:1 88:1 93:1 243:1 665:1 721:1 728:1 835:1 905:1 1013:1 1372:1 1487:1 1602:1 1923:1 1933:1 2081:1 2151:1 2166:1 2186:1 2365:1 2465:1 3277:1 
-1 56:1 518:1 1596:1 2128:1 3210:1 
-1 1931:1 2128:1 3016:1 
-0.9231907425350837 33:1 42:1 56:1 394:1 665:1 977:1 1003:1 1005:1 1013:1 1021:1 1028:1 1602:1 1665:1 1933:1 2081:1 2166:1 2186:1 2465:1 3277:1 
-0.03591930110539043 220:1 357:1 570:1 774:1 952:1 1026:1 1081:1 1111:1 1241:1 1447:1 1552:1 1591:1 1850:1 1853:1 1870:1 1933:1 2051:1 2185:1 2307:1 2480:1 2537:1 2786:1 2935:1 3020:1 3030:1 3157:1 3262:1 
-0.2849646462704778 41:1 88:1 243:1 357:1 481:1 596:1 774:1 1345:1 1547:1 1649:1 1834:1 1850:1 2048:1 2346:1 2528:1 2721:1 2786:1 2807:1 2830:1 2910:1 3036:1 3177:1 3229:1 3256:1 
-0.7097909664086544 42:1 143:1 356:1 1005:1 1177:1 1767:1 1923:1 2234:1 2673:1 2786:1 3020:1 3036:1 
-0.387598462184976 41:1 1833:1 1979:1 2080:1 2106:1 2259:1 2311:1 2502:1 2922:1 3020:1 3036:1 3184:1 
-0.3327353937247742 5:1 42:1 88:1 162:1 292:1 722:1 815:1 1013:1 1028:1 1045:1 1086:1 1462:1 1487:1 1602:1 1665:1 1923:1 1933:1 2081:1 2166:1 2259:1 3210:1 3277:1 
-1 2081:1 2892:1 3036:1 
-0.353423104925512 5:1 42:1 143:1 180:1 394:1 427:1 475:1 539:1 665:1 721:1 723:1 1013:1 1244:1 1294:1 1387:1 1487:1 1602:1 1636:1 1665:1 1923:1 1933:1 2017:1 2081:1 2337:1 2365:1 3010:1 3012:1 3210:1 3277:1 
-0.8062333614574547 292:1 843:1 905:1 1073:1 1414:1 1673:1 2107:1 2351:1 2786:1 2933:1 
-0.2822778939852852 41:1 225:1 722:1 1222:1 1547:1 1818:1 1977:1 2056:1 2152:1 2515:1 3020:1 3036:1 3053:1 3133:1 
-1 196:1 1791:1 3020:1 3048:1 
-0.106488453244068 88:1 303:1 312:1 429:1 539:1 699:1 852:1 1230:1 1599:1 1805:1 1850:1 1854:1 1892:1 1933:1 1972:1 2069:1 2118:1 2135:1 2215:1 2535:1 2629:1 2649:1 2679:1 2731:1 2825:1 3044:1 3060:1 
-1 2816:1 3036:1 
-1 5:1 42:1 56:1 424:1 475:1 665:1 721:1 1013:1 1372:1 1462:1 1487:1 1602:1 1665:1 1923:1 1933:1 2081:1 2166:1 2186:1 2291:1 2365:1 2465:1 
-0.06160416233961822 65:1 167:1 224:1 246:1 261:1 307:1 350:1 489:1 490:1 737:1 777:1 784:1 833:1 904:1 993:1 1159:1 1226:1 1233:1 1240:1 1286:1 1307:1 1317:1 1433:1 1835:1 1854:1 1954:1 2138:1 2307:1 2414:1 2638:1 2718:1 2785:1 2786:1 2872:1 3020:1 3060:1 3076:1 3093:1 
-0.06265054787060501 41:1 120:1 146:1 216:1 455:1 490:1 588:1 709:1 722:1 1005:1 1222:1 1230:1 1248:1 1666:1 1673:1 1835:1 2259:1 2452:1 2706:1 2913:1 3020:1 3036:1 3044:1 3268:1 
-1 5:1 42:1 143:1 475:1 665:1 728:1 843:1 905:1 1013:1 1028:1 1375:1 1462:1 1487:1 1602:1 1665:1 1767:1 1923:1 1933:1 2081:1 2291:1 3277:1 
-1 5:1 42:1 539:1 665:1 721:1 835:1 905:1 1372:1 1487:1 1602:1 1665:1 1923:1 1933:1 2081:1 2186:1 2365:1 2465:1 2686:1 3277:1 
-1 120:1 539:1 1602:1 1673:1 1923:1 1933:1 2365:1 3020:1 
-0.262531065399587 33:1 539:1 703:1 874:1 907:1 1056:1 1148:1 1217:1 1805:1 1879:1 1923:1 1933:1 2081:1 2166:1 2181:1 2411:1 2874:1 2879:1 2929:1 3007:1 3239:1 
-0.2316261363241588 41:1 79:1 490:1 628:1 869:1 1021:1 1145:1 1198:1 1317:1 1518:1 1641:1 1642:1 1649:1 1692:1 1850:1 1854:1 2046:1 2049:1 2411:1 2483:1 2488:1 2507:1 2578:1 2711:1 2722:1 2855:1 2980:1 3020:1 3187:1 
-0.2088894961679938 219:1 1230:1 1319:1 2401:1 2417:1 2786:1 2852:1 3020:1 
-0.8600516210525385 317:1 984:1 2891:1 
-1 1791:1 3020:1 
-1 2175:1 
-0.2153231569811268 272:1 289:1 347:1 836:1 1143:1 1282:1 1833:1 1850:1 2027:1 2064:1 2309:1 2890:1 3036:1 3182:1 
-0.2351485010821359 347:1 869:1 901:1 1021:1 1054:1 1688:1 1770:1 1835:1 1873:1 2027:1 2169:1 2367:1 2427:1 2651:1 2786:1 3020:1 3036:1 3060:1 
-1 598:1 2175:1 2392:1 
-1 5:1 56:1 539:1 721:1 835:1 1005:1 1602:1 1665:1 1673:1 1933:1 2081:1 2259:1 2562:1 2626:1 2686:1 2790:1 
-0.04964048991320782 33:1 42:1 204:1 394:1 581:1 721:1 1673:1 1923:1 2301:1 2365:1 3051:1 3153:1 
-1 5:1 42:1 401:1 665:1 1402:1 1602:1 1608:1 1665:1 2081:1 3210:1 
-0.6109535903584206 143:1 475:1 843:1 905:1 977:1 1232:1 1462:1 1602:1 1933:1 2166:1 2465:1 2610:1 2631:1 3242:1 
-1 2816:1 3036:1 
-0.7444098966461222 41:1 558:1 1547:1 1633:1 1833:1 1868:1 2357:1 2939:1 3020:1 3036:1 
-1 2175:1 
-1 42:1 120:1 424:1 475:1 539:1 797:1 1013:1 1083:1 1462:1 1602:1 1665:1 1923:1 2081:1 2786:1 3020:1 3277:1 
-1 120:1 1596:1 2166:1 2546:1 3043:1 3122:1 3172:1 
-0.4548407637505179 204:1 225:1 722:1 1005:1 1222:1 1451:1 1818:1 1850:1 2706:1 2959:1 3020:1 3036:1 
-0.1231364479304186 41:1 703:1 767:1 1005:1 1073:1 1083:1 1562:1 1595:1 1647:1 1850:1 1856:1 1897:1 1936:1 1992:1 2164:1 2292:1 2539:1 2556:1 2679:1 2906:1 2938:1 3020:1 3035:1 
-1 3020:1 3036:1 
-1 389:1 2816:1 3036:1 3179:1 
-1 3020:1 3036:1 
-0.3911245237100571 41:1 56:1 204:1 225:1 475:1 1547:1 1627:1 1673:1 1970:1 2570:1 2872:1 2899:1 2913:1 3005:1 3020:1 
-0.4022744043884222 539:1 1818:1 1970:1 2166:1 2913:1 3020:1 3036:1 3133:1 
-0.1946719197728599 275:1 1030:1 1571:1 1805:1 2417:1 2523:1 2595:1 2597:1 2739:1 3020:1 
-0.1895213116571474 41:1 290:1 412:1 476:1 539:1 575:1 665:1 697:1 758:1 827:1 845:1 947:1 1179:1 1244:1 1834:1 1850:1 2028:1 2065:1 2106:1 2281:1 2484:1 2561:1 2679:1 2811:1 2974:1 3020:1 3036:1 3060:1 3063:1 3138:1 3187:1 3271:1 
-0.04631313504044033 41:1 110:1 179:1 217:1 563:1 610:1 712:1 729:1 750:1 792:1 845:1 880:1 951:1 967:1 969:1 1084:1 1240:1 1313:1 1643:1 1795:1 1850:1 1852:1 2156:1 2187:1 2281:1 2521:1 2523:1 2537:1 2576:1 2697:1 2786:1 2844:1 2935:1 3020:1 3036:1 3210:1 3216:1 
-0.1492861824135991 409:1 1312:1 1954:1 2347:1 2425:1 2599:1 3020:1 
-0.613036860712351 42:1 68:1 450:1 539:1 721:1 1005:1 1013:1 1410:1 1602:1 1656:1 1716:1 1850:1 2166:1 2430:1 
-1 2175:1 
-1 5:1 42:1 192:1 401:1 545:1 665:1 797:1 944:1 1062:1 1172:1 1402:1 1602:1 1665:1 2081:1 2166:1 3210:1 3277:1 
-1 2175:1 
-1 2175:1 
-0.1351939763577943 56:1 292:1 539:1 758:1 1013:1 1355:1 1834:1 2358:1 2679:1 2686:1 2786:1 2830:1 3020:1 3093:1 
-1 1292:1 1566:1 1649:1 1804:1 
-0.1392804272184526 41:1 580:1 677:1 1280:1 1430:1 1480:1 1509:1 1536:1 1668:1 1722:1 1759:1 1850:1 1903:1 2106:1 2363:1 2428:1 2429:1 2697:1 2747:1 2844:1 3020:1 
-0.09766582587372882 102:1 145:1 315:1 503:1 539:1 569:1 703:1 710:1 768:1 806:1 1104:1 1188:1 1244:1 1303:1 1345:1 1479:1 1482:1 1508:1 1676:1 1755:1 1781:1 1928:1 2267:1 2281:1 2690:1 2863:1 2913:1 3020:1 
-0.9799171314999943 42:1 120:1 475:1 539:1 797:1 1013:1 1337:1 1665:1 1933:1 2081:1 2166:1 2347:1 3020:1 3277:1 3279:1 
-0.3855243063353312 33:1 42:1 180:1 231:1 394:1 539:1 665:1 721:1 852:1 975:1 1005:1 1073:1 1158:1 1314:1 1448:1 1602:1 1665:1 1673:1 1791:1 1923:1 1933:1 2081:1 2166:1 2430:1 2786:1 2879:1 3020:1 3045:1 3094:1 
-0.2381970689387065 269:1 498:1 748:1 1019:1 1852:1 2144:1 2147:1 2375:1 2394:1 2816:1 3012:1 3058:1 
-0.8806383674545 41:1 88:1 539:1 665:1 721:1 1013:1 1028:1 1402:1 1439:1 1602:1 1933:1 2081:1 2186:1 3037:1 3083:1 3210:1 3277:1 
-0.6092057663840172 1850:1 2106:1 2269:1 2352:1 2357:1 2452:1 3020:1 3036:1 
-0.7481684589276474 4:1 29:1 539:1 1222:1 1447:1 1589:1 1733:1 1833:1 1850:1 2075:1 2238:1 2452:1 2774:1 2786:1 3020:1 3036:1 
-0.8418124024926154 33:1 42:1 394:1 539:1 721:1 797:1 855:1 1028:1 1295:1 1378:1 1602:1 1665:1 1933:1 2081:1 2166:1 2430:1 3210:1 3277:1 
-1 33:1 42:1 120:1 243:1 394:1 665:1 797:1 1602:1 1665:1 1933:1 2081:1 2166:1 2382:1 2686:1 3279:1 
-0.2113956483237155 120:1 384:1 797:1 1336:1 1833:1 2262:1 2396:1 2461:1 2494:1 2860:1 2941:1 3020:1 3036:1 
-0.4045818624469866 19:1 41:1 837:1 875:1 971:1 1791:1 2106:1 2141:1 2427:1 2939:1 3020:1 3229:1 
-1 
-0.292920164849819 41:1 557:1 1805:1 1848:1 1850:1 1980:1 1981:1 2465:1 2702:1 2997:1 3020:1 3036:1 
-0.3702352096171413 41:1 1260:1 1802:1 1879:1 2118:1 2452:1 2567:1 2922:1 2936:1 3020:1 3036:1 
-0.05339189033333541 41:1 580:1 718:1 978:1 1244:1 1509:1 1553:1 1628:1 1666:1 1848:1 1995:1 2090:1 2266:1 2281:1 2489:1 2697:1 2931:1 3020:1 3036:1 3085:1 3287:1 
-0.4631946539591749 42:1 202:1 343:1 482:1 581:1 693:1 721:1 1030:1 1032:1 1223:1 1462:1 1665:1 1673:1 1923:1 1933:1 2024:1 2069:1 2091:1 2166:1 2237:1 2366:1 2672:1 2686:1 2786:1 3020:1 3210:1 
-0.3481584717052356 33:1 203:1 638:1 648:1 1021:1 1678:1 2283:1 2726:1 2786:1 3020:1 3203:1 
-1 1884:1 1933:1 3036:1 3256:1 
-1 33:1 42:1 394:1 665:1 1013:1 1602:1 1665:1 2081:1 
-1 2175:1 
-0.1404097577269454 253:1 737:1 1315:1 1649:1 1838:1 2159:1 2244:1 2307:1 2567:1 2599:1 2705:1 3036:1 3256:1 
-0.2460908247378869 33:1 42:1 198:1 394:1 721:1 782:1 1013:1 1028:1 1602:1 1665:1 1814:1 1888:1 2081:1 2166:1 2186:1 3153:1 3210:1 
-0.6188598758253172 33:1 42:1 394:1 843:1 905:1 1337:1 1602:1 1665:1 1764:1 2078:1 2081:1 2107:1 2772:1 2932:1 3020:1 3148:1 3210:1 3277:1 
-0.1171945388763818 41:1 98:1 413:1 482:1 682:1 753:1 826:1 978:1 1083:1 1093:1 1162:1 1297:1 1649:1 1850:1 1976:1 2065:1 2143:1 2170:1 2537:1 2561:1 2697:1 2749:1 2916:1 3020:1 3060:1 3093:1 3197:1 3210:1 3277:1 
-0.3343592332978262 56:1 1547:1 2157:1 2427:1 2786:1 3020:1 3172:1 
-0.7004178492577273 56:1 88:1 830:1 1028:1 1834:1 1923:1 2106:1 2166:1 2367:1 2679:1 2786:1 2862:1 3020:1 3210:1 3277:1 
-0.8717151082740491 41:1 643:1 1082:1 1260:1 1459:1 1461:1 1769:1 1791:1 1973:1 2347:1 3020:1 3031:1 3036:1 3229:1 
-0.2738559813603007 1567:1 1850:1 1933:1 2148:1 2236:1 2322:1 2444:1 2816:1 3069:1 3178:1 
-0.4088518019731195 33:1 42:1 56:1 118:1 843:1 1013:1 1021:1 1602:1 1607:1 1673:1 1850:1 1879:1 2043:1 2066:1 2336:1 2348:1 2774:1 2860:1 3020:1 3093:1 3277:1 
-1 1005:1 1518:1 2128:1 2892:1 3020:1 3036:1 
-0.1043344781284631 149:1 216:1 612:1 777:1 1460:1 1850:1 2088:1 2259:1 2330:1 2427:1 2465:1 2498:1 2830:1 2982:1 3020:1 3036:1 3044:1 3082:1 3134:1 
-0.6192802854963345 120:1 1850:1 2302:1 2345:1 2706:1 3020:1 
-0.232292120620884 56:1 88:1 216:1 236:1 344:1 399:1 635:1 777:1 1307:1 1315:1 1661:1 1673:1 1833:1 1834:1 1850:1 1973:1 2330:1 2570:1 2681:1 2786:1 2808:1 2962:1 2982:1 3020:1 3036:1 3044:1 3082:1 
-0.5929655807614747 132:1 216:1 518:1 1230:1 1850:1 2166:1 2546:1 2552:1 2786:1 3019:1 3043:1 3044:1 3265:1 
-1 2059:1 2452:1 2700:1 3036:1 
-0.606797741688192 120:1 723:1 901:1 1188:1 1602:1 1668:1 1834:1 1850:1 1933:1 2197:1 2600:1 2706:1 2786:1 2914:1 3033:1 3044:1 3134:1 3265:1 
-0.4790821986560839 539:1 706:1 777:1 1068:1 1230:1 1834:1 1835:1 1850:1 2145:1 2675:1 2679:1 2786:1 2860:1 3043:1 3044:1 
-0.03870744054461565 41:1 225:1 427:1 647:1 858:1 959:1 1005:1 1045:1 1068:1 1629:1 1673:1 1835:1 1850:1 1973:1 2040:1 2353:1 2427:1 2575:1 2786:1 2827:1 2860:1 3036:1 3043:1 3044:1 3093:1 3102:1 
-0.194215883573632 294:1 518:1 539:1 1292:1 1400:1 1456:1 1522:1 1547:1 1666:1 1879:1 1933:1 2008:1 2081:1 2366:1 2427:1 2716:1 2744:1 2786:1 3129:1 3134:1 
-0.9097357263176503 508:1 518:1 585:1 3020:1 3036:1 3134:1 
-1 236:1 
-1 120:1 518:1 2166:1 2546:1 3134:1 
-0.005217242749047971 120:1 236:1 1576:1 1834:1 1850:1 2166:1 2546:1 3134:1 
-1 120:1 518:1 1576:1 1834:1 1850:1 2166:1 2546:1 3134:1 
-0.5233495465762238 120:1 216:1 518:1 834:1 959:1 994:1 1016:1 1522:1 1818:1 1850:1 1919:1 1933:1 2366:1 2427:1 2561:1 2579:1 2743:1 2744:1 2786:1 2982:1 3265:1 
-0.09768929621209654 120:1 180:1 216:1 236:1 539:1 561:1 721:1 959:1 1016:1 1649:1 1834:1 1850:1 1879:1 2030:1 2054:1 2357:1 2436:1 2706:1 2744:1 2786:1 3044:1 3122:1 3265:1 
-0.1889493276310918 120:1 518:1 723:1 840:1 875:1 1603:1 1734:1 1818:1 1838:1 1854:1 2085:1 2166:1 2308:1 2365:1 2706:1 2982:1 3036:1 3044:1 
-0.3616388281359603 120:1 518:1 875:1 1603:1 1854:1 2283:1 2308:1 2706:1 2982:1 3036:1 3044:1 
-0.4812642325705597 120:1 236:1 875:1 959:1 1603:1 1854:1 2159:1 2283:1 2308:1 2706:1 2982:1 3036:1 3044:1 3060:1 3122:1 3134:1 
-0.0253511074975377 167:1 429:1 550:1 583:1 1320:1 1378:1 1434:1 1602:1 1603:1 1933:1 2550:1 2556:1 2771:1 2816:1 3036:1 3212:1 
-0.3237228158327291 216:1 236:1 431:1 777:1 1068:1 1766:1 1850:1 1933:1 3044:1 3122:1 3265:1 
-1 236:1 344:1 350:1 406:1 558:1 797:1 959:1 1068:1 1188:1 1302:1 1649:1 1661:1 1766:1 1773:1 1834:1 1850:1 2308:1 2786:1 2789:1 2982:1 2992:1 3020:1 3060:1 
-0.2570965317957327 216:1 236:1 364:1 427:1 777:1 894:1 1256:1 1834:1 1850:1 1933:1 2166:1 2502:1 2546:1 2681:1 3044:1 3122:1 3265:1 
-1 216:1 236:1 1181:1 1474:1 1835:1 1850:1 1919:1 1988:1 2166:1 2343:1 2546:1 2743:1 2786:1 2852:1 3020:1 3036:1 3043:1 3093:1 
-0.3212784749101225 120:1 518:1 875:1 1148:1 1252:1 1321:1 1383:1 1933:1 2166:1 2524:1 3020:1 3036:1 3134:1 
-1 208:1 518:1 644:1 870:1 928:1 1631:1 1761:1 1835:1 2743:1 2879:1 2911:1 3036:1 
-0.06256998737294568 792:1 1355:1 1399:1 1867:1 2265:1 2370:1 2457:1 2543:1 2726:1 2816:1 2853:1 3020:1 3036:1 
-0.296403545438115 33:1 42:1 120:1 539:1 721:1 797:1 1602:1 1933:1 2081:1 3279:1 
-0.1887712333494122 41:1 120:1 216:1 518:1 711:1 715:1 777:1 1068:1 1371:1 1547:1 1602:1 1835:1 1850:1 1933:1 2046:1 2232:1 2308:1 2896:1 2982:1 3224:1 3240:1 
-0.3607365454401651 87:1 120:1 236:1 1818:1 1933:1 1991:1 2764:1 3043:1 3122:1 3134:1 3249:1 
-0.5293582397270684 14:1 87:1 120:1 232:1 236:1 1818:1 1933:1 2764:1 3043:1 3122:1 3134:1 
-1 558:1 2234:1 2816:1 3036:1 
-1 2816:1 3036:1 
-1 2816:1 3036:1 
-1 2816:1 3036:1 
-0.2093335696030544 41:1 208:1 870:1 901:1 1230:1 1614:1 1626:1 1975:1 1987:1 1997:1 2056:1 2117:1 2523:1 2526:1 2901:1 3020:1 3264:1 
-1 558:1 2234:1 2816:1 3036:1 
-1 143:1 356:1 1005:1 1177:1 1767:1 2234:1 
-0.2261241885272204 42:1 88:1 539:1 665:1 1439:1 2081:1 2166:1 2790:1 3020:1 3277:1 3279:1 
-1 558:1 2234:1 2816:1 3036:1 
-1 558:1 2234:1 2816:1 3036:1 
-1 558:1 2234:1 2816:1 3036:1 
-0.2637349242297747 41:1 539:1 1045:1 1565:1 1584:1 1782:1 1816:1 1834:1 1850:1 2041:1 2263:1 2406:1 2410:1 2863:1 3060:1 3194:1 
-1 2283:1 3036:1 
-1 389:1 2283:1 3036:1 3179:1 
-0.615555599135105 539:1 779:1 842:1 1254:1 1850:1 2065:1 2599:1 2726:1 2945:1 3020:1 3245:1 
-1 2629:1 2922:1 3020:1 
-0.09185370112811748 119:1 549:1 798:1 1649:1 1834:1 1850:1 1954:1 2307:1 2434:1 2863:1 2872:1 3020:1 3093:1 3138:1 3286:1 
-1 33:1 42:1 665:1 721:1 1028:1 1665:1 2686:1 3020:1 
-0.5243689289362373 434:1 545:1 797:1 843:1 905:1 944:1 1373:1 1462:1 1539:1 1602:1 1923:1 2106:1 2351:1 2365:1 2692:1 3020:1 3210:1 
-0.5598084392001953 258:1 348:1 475:1 581:1 1220:1 1453:1 1602:1 1793:1 1805:1 1833:1 1834:1 1879:1 1933:1 2257:1 2336:1 2758:1 2996:1 3016:1 3218:1 
-0.05135515634009592 154:1 570:1 973:1 976:1 978:1 1021:1 1042:1 1083:1 1392:1 1403:1 1471:1 1557:1 1570:1 1633:1 1805:1 1833:1 1850:1 1999:1 2089:1 2219:1 2679:1 2698:1 2744:1 2786:1 2908:1 2931:1 2970:1 2982:1 3009:1 3019:1 3036:1 3060:1 3258:1 
-0.02312892165659585 895:1 1355:1 1542:1 1599:1 1602:1 1604:1 1638:1 1805:1 1833:1 1850:1 1879:1 1990:1 2166:1 2346:1 2678:1 2716:1 2786:1 3036:1 3044:1 3093:1 3258:1 
-0.03200284725146366 313:1 408:1 482:1 1028:1 1092:1 1498:1 1648:1 1686:1 1708:1 1805:1 1821:1 1850:1 1879:1 1989:1 2052:1 2166:1 2242:1 2561:1 2762:1 2784:1 2786:1 2883:1 2982:1 2987:1 3011:1 3019:1 3036:1 3060:1 3077:1 3082:1 3205:1 3282:1 
-0.2212513123055117 33:1 539:1 665:1 721:1 797:1 977:1 1013:1 1028:1 1602:1 1621:1 1665:1 1850:1 2081:1 2686:1 3094:1 3277:1 
-0.1344484725812023 407:1 539:1 1352:1 1360:1 1639:1 1833:1 1879:1 1902:1 1991:1 2175:1 2198:1 2257:1 2584:1 3020:1 
-0.3738750160425336 41:1 578:1 1133:1 1252:1 2427:1 2464:1 2786:1 3020:1 3036:1 
-0.0201780507635996 29:1 182:1 243:1 1005:1 1337:1 1414:1 1850:1 1860:1 1924:1 2078:1 2351:1 2359:1 2860:1 2932:1 
-0.09272799103855764 47:1 68:1 103:1 195:1 558:1 891:1 931:1 1099:1 1173:1 1240:1 1518:1 1753:1 1818:1 1850:1 1920:1 1928:1 1988:1 2202:1 2229:1 2270:1 2773:1 2786:1 2808:1 3020:1 3036:1 3082:1 
-0.1909993537537768 26:1 43:1 377:1 554:1 930:1 1071:1 1137:1 1311:1 1403:1 1458:1 1464:1 1512:1 1546:1 1591:1 1671:1 1760:1 1845:1 1850:1 1912:1 2050:1 2064:1 2346:1 2367:1 2430:1 2535:1 2579:1 2931:1 2985:1 3020:1 3036:1 
-0.1428973888371173 215:1 272:1 557:1 798:1 1271:1 1303:1 1518:1 1537:1 1649:1 1776:1 1810:1 1864:1 1924:1 2153:1 2346:1 2367:1 2415:1 2481:1 2521:1 2599:1 2918:1 2971:1 2999:1 3020:1 
-1 2175:1 
-1 2175:1 
-0.104606980749115 131:1 196:1 289:1 450:1 472:1 548:1 741:1 857:1 870:1 1128:1 1173:1 1219:1 1251:1 1649:1 1774:1 1783:1 1848:1 1938:1 2385:1 2447:1 2452:1 2498:1 2535:1 2827:1 2863:1 3036:1 3060:1 3061:1 
-0.4178037394271877 490:1 561:1 802:1 1485:1 1547:1 2027:1 2138:1 2307:1 2532:1 3020:1 3060:1 
-0.1798052669596145 95:1 366:1 599:1 663:1 1406:1 1411:1 1576:1 1594:1 1938:1 1950:1 2065:1 2367:1 2398:1 2531:1 2599:1 2733:1 2974:1 3020:1 3104:1 
-0.1463692286240335 33:1 216:1 399:1 652:1 723:1 762:1 1068:1 1152:1 1307:1 1523:1 1602:1 1668:1 1834:1 1835:1 1850:1 1927:1 1933:1 1973:1 2681:1 2774:1 2786:1 2982:1 3044:1 
-0.06020142207386841 41:1 98:1 490:1 650:1 766:1 1021:1 1317:1 1649:1 1835:1 2307:1 2651:1 2673:1 2718:1 2796:1 2863:1 3020:1 3060:1 3138:1 3197:1 3224:1 
-0.0110323983120236 42:1 394:1 539:1 728:1 843:1 855:1 905:1 977:1 1372:1 1602:1 1665:1 1850:1 1923:1 1933:1 2081:1 2351:1 2566:1 2786:1 3210:1 3279:1 
-1 1193:1 2175:1 
-0.7140848997336895 5:1 42:1 192:1 401:1 545:1 665:1 797:1 889:1 944:1 1062:1 1402:1 1602:1 2081:1 2166:1 2862:1 3210:1 3277:1 
-1 1193:1 2175:1 
-0.8378600758307693 33:1 42:1 394:1 665:1 975:1 1013:1 1028:1 1045:1 1372:1 1420:1 1602:1 1665:1 1933:1 2081:1 2465:1 3020:1 3277:1 
-1 2175:1 
-0.05732907121542613 41:1 233:1 269:1 427:1 520:1 539:1 803:1 1518:1 1850:1 2146:1 2343:1 2438:1 2674:1 2748:1 2786:1 2863:1 2962:1 3020:1 3036:1 3043:1 3204:1 3265:1 
-0.4335135067616596 56:1 394:1 870:1 1378:1 1455:1 1459:1 1627:1 1850:1 1933:1 1983:1 2465:1 2943:1 3018:1 3020:1 
-1 1191:1 2175:1 
-0.7468530421823825 545:1 1005:1 1134:1 1931:1 2202:1 2786:1 2892:1 2982:1 3016:1 3036:1 3093:1 3264:1 
-0.7638166911108794 42:1 56:1 88:1 100:1 324:1 424:1 721:1 797:1 1013:1 1449:1 1602:1 1665:1 1673:1 1850:1 1923:1 1933:1 2081:1 2430:1 2786:1 3277:1 
-1 5:1 42:1 88:1 424:1 797:1 843:1 905:1 1177:1 1449:1 1462:1 1534:1 1602:1 1665:1 1923:1 2081:1 2106:1 2166:1 2367:1 3020:1 3277:1 
-1 773:1 2098:1 
-0.2555313910050158 41:1 98:1 268:1 499:1 503:1 539:1 549:1 575:1 580:1 603:1 648:1 768:1 897:1 978:1 1171:1 1345:1 1453:1 1628:1 1760:1 1850:1 2258:1 2283:1 2294:1 2432:1 2604:1 2675:1 2679:1 2942:1 3019:1 3247:1 3263:1 
-0.693318828957768 5:1 42:1 295:1 545:1 665:1 797:1 944:1 1062:1 1298:1 1402:1 1602:1 2081:1 2862:1 3210:1 3277:1 
-0.0899818401081505 33:1 42:1 56:1 88:1 118:1 475:1 500:1 721:1 843:1 905:1 1013:1 1410:1 1462:1 1522:1 1602:1 1673:1 1826:1 1850:1 1917:1 2043:1 2066:1 2148:1 2426:1 2774:1 2982:1 3020:1 3101:1 3277:1 
-0.08093695191924306 583:1 588:1 667:1 1005:1 1283:1 1547:1 1836:1 1865:1 1933:1 1985:1 2106:1 2210:1 2236:1 2260:1 2396:1 2494:1 2583:1 2765:1 2816:1 2860:1 3021:1 3102:1 3110:1 
-0.8316643219494867 42:1 88:1 475:1 905:1 928:1 1462:1 1602:1 1673:1 1834:1 2347:1 2599:1 2679:1 2686:1 2786:1 3020:1 
-0.8183305084648627 218:1 365:1 401:1 1402:1 1602:1 2081:1 3210:1 
-1 191:1 2175:1 
-0.4866632178177215 41:1 298:1 304:1 558:1 958:1 1076:1 2367:1 2535:1 2733:1 2796:1 2872:1 3020:1 3184:1 
-0.1110367697389174 88:1 451:1 824:1 1028:1 1378:1 1602:1 1777:1 1933:1 
-0.2199282373428094 41:1 269:1 270:1 583:1 642:1 1687:1 1833:1 1876:1 1933:1 2325:1 2808:1 2852:1 2939:1 3020:1 3036:1 
-1 1206:1 3169:1 
-1 41:1 42:1 56:1 424:1 721:1 797:1 843:1 905:1 1373:1 1673:1 1923:1 2146:1 2297:1 2365:1 2523:1 3020:1 
-0.8860988547703815 292:1 797:1 843:1 1665:1 1805:1 1933:1 2081:1 2106:1 3020:1 3094:1 
-0.02541014169477564 940:1 1460:1 1834:1 1850:1 2069:1 2146:1 2780:1 2939:1 3036:1 
-1 88:1 665:1 721:1 855:1 1449:1 2081:1 3020:1 3277:1 
-1 33:1 539:1 665:1 721:1 855:1 977:1 1013:1 1257:1 1602:1 1933:1 2081:1 2769:1 3020:1 3277:1 
-1 1206:1 3169:1 
-1 42:1 56:1 343:1 475:1 518:1 721:1 728:1 797:1 843:1 855:1 905:1 1013:1 1402:1 1462:1 1602:1 1665:1 1833:1 1923:1 1933:1 2081:1 2996:1 3020:1 3060:1 3277:1 
-0.2146028464501965 41:1 632:1 685:1 1240:1 1246:1 1361:1 1374:1 1833:1 1850:1 2537:1 2905:1 3020:1 3036:1 3093:1 3261:1 
-0.2600860340974297 41:1 46:1 777:1 1444:1 1649:1 1873:1 2220:1 2327:1 2743:1 2808:1 2886:1 2926:1 2982:1 3020:1 3060:1 3110:1 3265:1 3281:1 
-0.5905956900517904 5:1 42:1 88:1 401:1 461:1 665:1 721:1 797:1 1033:1 1213:1 1377:1 1449:1 2081:1 3005:1 3020:1 3210:1 3277:1 
-0.07800339087667281 33:1 88:1 394:1 797:1 920:1 2081:1 2460:1 2786:1 3020:1 
-0.1363864144632571 454:1 482:1 546:1 791:1 813:1 870:1 880:1 895:1 949:1 1103:1 1149:1 1230:1 1293:1 1323:1 1507:1 1850:1 1906:1 2106:1 2253:1 2499:1 2844:1 3013:1 3016:1 3056:1 3085:1 3093:1 
-0.9766007271686384 33:1 42:1 721:1 855:1 977:1 1402:1 1933:1 2081:1 2237:1 2686:1 3020:1 3210:1 
-1 33:1 42:1 120:1 243:1 394:1 539:1 721:1 797:1 870:1 1602:1 1850:1 1933:1 2081:1 2166:1 2237:1 2686:1 
-0.3072823035789956 108:1 120:1 197:1 270:1 558:1 643:1 1371:1 1837:1 1850:1 2081:1 2238:1 2299:1 2895:1 
-1 42:1 539:1 962:1 1013:1 1028:1 1665:1 2081:1 2106:1 3020:1 3210:1 3277:1 
-1 2175:1 
-0.2072816085240715 42:1 56:1 332:1 475:1 539:1 665:1 797:1 905:1 1028:1 1462:1 1602:1 1665:1 1834:1 1850:1 1923:1 2679:1 2686:1 2786:1 3020:1 3277:1 
-1 216:1 1850:1 3044:1 3082:1 
-0.0106830851174435 33:1 41:1 138:1 179:1 242:1 290:1 319:1 412:1 512:1 539:1 827:1 845:1 1036:1 1061:1 1422:1 1588:1 1603:1 1850:1 2065:1 2106:1 2251:1 2478:1 2503:1 2561:1 2744:1 2811:1 2844:1 3020:1 3063:1 3187:1 3285:1 
-1 33:1 42:1 394:1 1013:1 1372:1 1602:1 1665:1 1933:1 2081:1 2166:1 3277:1 
-0.06170186916848685 335:1 453:1 697:1 703:1 882:1 1021:1 1230:1 1555:1 1591:1 1671:1 1751:1 1850:1 2330:1 2346:1 2512:1 3020:1 3110:1 3248:1 3262:1 
-1 33:1 42:1 56:1 394:1 665:1 843:1 905:1 1602:1 1665:1 1850:1 1923:1 2081:1 2106:1 2686:1 3020:1 
-0.1984424654626608 120:1 384:1 633:1 777:1 852:1 1019:1 1336:1 1833:1 1836:1 2262:1 2322:1 2396:1 2816:1 2860:1 3020:1 3036:1 3069:1 3181:1 
-0.4705936357947358 56:1 2128:1 2259:1 2892:1 3020:1 3036:1 
-0.8037401453458217 41:1 42:1 173:1 243:1 292:1 356:1 424:1 475:1 665:1 1005:1 1013:1 1177:1 1462:1 1602:1 1636:1 1665:1 1767:1 1923:1 2081:1 2106:1 2786:1 2808:1 3020:1 3036:1 3037:1 
-1 33:1 42:1 394:1 1013:1 1602:1 1665:1 2081:1 3277:1 
-0.9136734321143636 120:1 386:1 1260:1 1772:1 1834:1 1850:1 2071:1 2352:1 2450:1 2786:1 3020:1 3224:1 
-1 2175:1 
-1 2175:1 
-1 
-1 
-1 
-1 
-0.2555329710902175 35:1 41:1 75:1 503:1 580:1 703:1 749:1 803:1 828:1 1303:1 1547:1 1591:1 1658:1 1707:1 1829:1 1833:1 1850:1 1928:1 2278:1 2565:1 2679:1 2916:1 2945:1 3020:1 3060:1 3093:1 3263:1 
-0.4481314041670869 88:1 424:1 475:1 797:1 843:1 905:1 1462:1 1673:1 1805:1 3020:1 3047:1 3073:1 
-1 42:1 88:1 120:1 728:1 905:1 1013:1 1402:1 1462:1 1602:1 1665:1 1923:1 1933:1 2081:1 2259:1 2351:1 3020:1 3277:1 
-0.2556009093302667 41:1 464:1 1021:1 1394:1 1518:1 1739:1 1810:1 1850:1 2283:1 2520:1 2550:1 2816:1 2982:1 3020:1 3036:1 3122:1 
-1 42:1 88:1 665:1 728:1 905:1 1462:1 1602:1 1665:1 1923:1 1933:1 2081:1 2090:1 2686:1 2954:1 3277:1 
-0.1406043978784414 42:1 56:1 88:1 218:1 424:1 475:1 665:1 797:1 1013:1 1402:1 1462:1 1602:1 1665:1 1850:1 1923:1 1963:1 2081:1 2365:1 2397:1 3277:1 
-1 190:1 2175:1 
-0.447112992134985 545:1 959:1 1005:1 1931:1 2042:1 2128:1 2185:1 2259:1 2312:1 2621:1 2786:1 2986:1 3016:1 3254:1 3264:1 
-0.7332547669960134 42:1 1005:1 1013:1 1021:1 1673:1 1923:1 2367:1 2686:1 2798:1 3153:1 
-0.08050725967984038 1518:1 2259:1 2892:1 3020:1 3036:1 
-0.09432605429380699 41:1 196:1 216:1 284:1 427:1 545:1 779:1 959:1 1005:1 1547:1 1686:1 1931:1 2043:1 2128:1 2744:1 2786:1 2892:1 2945:1 2971:1 2986:1 3016:1 3093:1 
-1 
-0.035372167870142 307:1 545:1 558:1 797:1 1005:1 1547:1 1672:1 1850:1 1931:1 2019:1 2073:1 2128:1 2159:1 2185:1 2187:1 2259:1 2763:1 2786:1 2863:1 2892:1 2982:1 2986:1 3016:1 3093:1 3129:1 
-0.3467564316896514 42:1 88:1 135:1 1073:1 1232:1 1282:1 1315:1 1602:1 1665:1 1933:1 2081:1 2336:1 2691:1 2698:1 3174:1 
-1 42:1 424:1 475:1 665:1 728:1 855:1 905:1 977:1 1462:1 1602:1 1665:1 1686:1 1850:1 1923:1 1933:1 2081:1 2351:1 2566:1 2786:1 3210:1 3277:1 
-0.5524396468733405 290:1 558:1 723:1 1547:1 1633:1 1850:1 1855:1 2365:1 2786:1 2915:1 3020:1 
-1 2175:1 
-0.02289860971675974 41:1 237:1 1081:1 1230:1 1315:1 1614:1 1668:1 1765:1 1825:1 1850:1 2049:1 2146:1 2383:1 2679:1 2771:1 2786:1 2863:1 3036:1 3051:1 3113:1 3126:1 3265:1 
-1 5:1 42:1 475:1 665:1 843:1 905:1 977:1 1462:1 1602:1 1665:1 1850:1 2081:1 2686:1 3277:1 
-1 2081:1 2259:1 3264:1 
-1 41:1 1518:1 1954:1 2146:1 2307:1 2863:1 3020:1 
-0.04645960251174175 88:1 617:1 832:1 1833:1 1850:1 2357:1 2786:1 2939:1 2982:1 3020:1 3036:1 3286:1 
-0.1729711652378451 60:1 218:1 384:1 777:1 1005:1 1336:1 1596:1 1754:1 1833:1 1933:1 2166:1 2304:1 2383:1 2387:1 2396:1 2469:1 2494:1 2574:1 2652:1 2860:1 2881:1 3020:1 3021:1 3036:1 3181:1 3210:1 
-0.08653758525202895 41:1 48:1 105:1 132:1 139:1 168:1 178:1 268:1 302:1 304:1 387:1 575:1 731:1 824:1 831:1 859:1 880:1 985:1 1102:1 1132:1 1136:1 1158:1 1244:1 1303:1 1349:1 1649:1 1770:1 1820:1 2199:1 2455:1 2797:1 2906:1 2945:1 3020:1 3040:1 3061:1 3132:1 
-0.8042611317557131 558:1 911:1 1156:1 1634:1 1772:1 1825:1 2185:1 2275:1 2523:1 3020:1 
-1 42:1 424:1 539:1 797:1 1602:1 2336:1 3277:1 
-0.08251881829712168 42:1 56:1 475:1 665:1 721:1 728:1 797:1 905:1 1462:1 1602:1 1645:1 1665:1 1923:1 1933:1 2081:1 2090:1 2686:1 2954:1 3277:1 
-1 1931:1 2128:1 2892:1 3036:1 
-1 2175:1 
-1 42:1 475:1 721:1 843:1 905:1 977:1 1005:1 1012:1 1013:1 1021:1 1276:1 1292:1 1462:1 1602:1 1665:1 1933:1 2081:1 2166:1 2288:1 2427:1 2933:1 2972:1 2982:1 3010:1 3020:1 3119:1 3277:1 
-1 
-1 
-0.5369998367917354 120:1 276:1 545:1 826:1 1010:1 1850:1 2049:1 2117:1 2118:1 2343:1 2404:1 2744:1 2786:1 2872:1 3036:1 3285:1 
-1 204:1 356:1 388:1 1477:1 1767:1 1787:1 2234:1 2679:1 3020:1 3036:1 
-1 42:1 475:1 721:1 1013:1 1028:1 1462:1 1602:1 1665:1 2081:1 3210:1 
-0.9170558475743151 1651:1 
-0.1426557340464513 178:1 368:1 482:1 536:1 870:1 924:1 1559:1 1833:1 1850:1 1867:1 1868:1 1879:1 1881:1 1925:1 1933:1 2302:1 2308:1 2446:1 2607:1 2762:1 2777:1 2816:1 3036:1 3058:1 3059:1 3060:1 3218:1 3254:1 3278:1 
-1 
-1 2175:1 
-1 120:1 2166:1 2546:1 3044:1 3265:1 
-0.1933634148142531 88:1 216:1 723:1 1005:1 1068:1 1833:1 1834:1 1850:1 2197:1 2367:1 2393:1 2427:1 2681:1 2706:1 2786:1 2808:1 3036:1 3044:1 3265:1 
-0.5532570971556316 41:1 88:1 120:1 177:1 216:1 399:1 723:1 959:1 1005:1 1307:1 1518:1 1547:1 1834:1 1835:1 1850:1 1919:1 2362:1 2570:1 2681:1 2706:1 3036:1 3044:1 3049:1 3122:1 
-1 2175:1 
-1 2175:1 
-0.1429538039106648 41:1 184:1 326:1 441:1 482:1 510:1 768:1 845:1 947:1 975:1 988:1 1021:1 1240:1 1628:1 1639:1 1850:1 1875:1 1933:1 2046:1 2065:1 2231:1 2346:1 2556:1 2679:1 2702:1 2727:1 2830:1 2872:1 2966:1 2974:1 3020:1 3060:1 
-1 143:1 356:1 1177:1 1767:1 2234:1 2786:1 3020:1 3036:1 
-1 42:1 539:1 665:1 1602:1 1665:1 2081:1 2686:1 
-0.1661925577347867 6:1 303:1 427:1 561:1 585:1 703:1 1164:1 1260:1 1317:1 1463:1 1547:1 1633:1 1649:1 1833:1 1850:1 1868:1 1875:1 1901:1 1938:1 1979:1 2106:1 2132:1 2255:1 2408:1 2679:1 2774:1 3020:1 3036:1 3173:1 3232:1 
-0.1781552098036355 15:1 41:1 146:1 167:1 485:1 539:1 576:1 774:1 1188:1 1216:1 1252:1 1450:1 1516:1 1649:1 1850:1 1933:1 2433:1 2535:1 2562:1 2679:1 2786:1 2872:1 2947:1 3020:1 3193:1 3256:1 
-0.4206732501085695 42:1 260:1 475:1 539:1 558:1 579:1 721:1 722:1 1013:1 1028:1 1325:1 1602:1 1665:1 2017:1 2081:1 2166:1 3210:1 3264:1 3277:1 
-0.04594220250504638 591:1 975:1 1099:1 1343:1 1680:1 1783:1 1805:1 1829:1 1850:1 1918:1 2081:1 2330:1 2439:1 2579:1 2648:1 2679:1 2731:1 2774:1 2852:1 3036:1 
-0.02370574109736465 41:1 588:1 791:1 1005:1 1410:1 1518:1 1818:1 1873:1 2262:1 2284:1 2539:1 2786:1 2863:1 2922:1 3043:1 3082:1 3262:1 3264:1 3272:1 
-0.3124446703845391 1547:1 1736:1 1896:1 2229:1 2622:1 2673:1 2812:1 2816:1 3020:1 3036:1 
-1 2175:1 
-1 143:1 356:1 1005:1 1177:1 1767:1 1850:1 2234:1 
-1 1510:1 2128:1 2185:1 2259:1 3020:1 
-1 2175:1 
-0.1746623351749645 539:1 991:1 1209:1 1378:1 1850:1 2312:1 2582:1 2659:1 2872:1 
-0.5503177249127097 56:1 1078:1 1879:1 2892:1 3020:1 3036:1 
-1 2098:1 2175:1 
-0.1265694187314525 41:1 139:1 564:1 624:1 687:1 737:1 1163:1 1166:1 1252:1 1378:1 1733:1 1834:1 1850:1 1938:1 2030:1 2049:1 2679:1 2693:1 2733:1 2748:1 2786:1 2962:1 3020:1 
-1 143:1 356:1 1177:1 1767:1 2234:1 2786:1 3020:1 3036:1 
-0.2915781168916813 42:1 56:1 394:1 665:1 981:1 1003:1 1013:1 1602:1 1665:1 2081:1 
-0.1644968722561978 41:1 50:1 305:1 400:1 537:1 606:1 641:1 870:1 946:1 992:1 1016:1 1302:1 1326:1 1351:1 1489:1 1547:1 1649:1 1652:1 1778:1 1833:1 1850:1 2003:1 2040:1 2097:1 2221:1 2294:1 2343:1 2427:1 2441:1 2707:1 2882:1 2906:1 2952:1 2977:1 3020:1 3036:1 3225:1 3256:1 
-0.1609827432866825 250:1 531:1 624:1 1602:1 1805:1 1850:1 1964:1 2118:1 2426:1 2550:1 2743:1 2786:1 2869:1 2872:1 3036:1 3070:1 3142:1 3147:1 
-0.2251055495624129 269:1 382:1 1805:1 1850:1 1879:1 2118:1 2254:1 2539:1 2629:1 2704:1 2754:1 2819:1 3036:1 
-1 
-1 143:1 356:1 1005:1 1177:1 1375:1 2106:1 2234:1 3036:1 
-1 186:1 2175:1 
-1 2175:1 
-0.1961144035463331 312:1 1469:1 1752:1 1805:1 2786:1 2791:1 2836:1 3033:1 
-1 56:1 1005:1 2892:1 3036:1 
-0.3438288558008291 5:1 34:1 42:1 213:1 475:1 635:1 777:1 834:1 959:1 1012:1 1091:1 1462:1 1602:1 1665:1 1767:1 1933:1 2081:1 2686:1 2933:1 3015:1 3210:1 
-1 2786:1 3043:1 3100:1 3122:1 
-1 1194:1 2175:1 
-1 344:1 723:1 777:1 911:1 1202:1 1834:1 1850:1 1854:1 2197:1 2681:1 2706:1 2786:1 3043:1 3044:1 3082:1 3224:1 
-0.6194555888408246 42:1 196:1 424:1 475:1 797:1 1402:1 1462:1 1583:1 1588:1 1602:1 1764:1 1923:1 2081:1 2106:1 2679:1 2786:1 3020:1 
-0.2357992462580939 196:1 292:1 424:1 797:1 1366:1 1414:1 1568:1 1744:1 1850:1 2107:1 2351:1 2363:1 2721:1 2790:1 
-1 
-1 2175:1 
-0.1021848408143243 398:1 583:1 624:1 669:1 1543:1 1863:1 2037:1 2083:1 2274:1 2329:1 2430:1 2542:1 2652:1 2709:1 2791:1 3021:1 3060:1 3103:1 3176:1 
-0.2038025369871889 84:1 119:1 648:1 964:1 1005:1 1133:1 1244:1 1438:1 1510:1 1643:1 1649:1 1711:1 1833:1 1929:1 2468:1 2679:1 2697:1 2749:1 3020:1 3060:1 3166:1 
-0.1393288083154139 60:1 399:1 855:1 961:1 1098:1 1614:1 1730:1 1801:1 1835:1 2125:1 2169:1 2260:1 2872:1 
-0.04819136340812689 10:1 63:1 115:1 121:1 140:1 474:1 503:1 567:1 604:1 792:1 1028:1 1129:1 1303:1 1389:1 1505:1 1606:1 1718:1 1741:1 1840:1 2046:1 2103:1 2109:1 2167:1 2258:1 2330:1 2381:1 2416:1 2538:1 2719:1 2829:1 2831:1 2918:1 2957:1 3020:1 3036:1 
-0.09869161696832103 41:1 98:1 269:1 284:1 296:1 300:1 465:1 725:1 818:1 1244:1 1312:1 1367:1 1403:1 1649:1 1676:1 1819:1 1938:1 2089:1 2163:1 2387:1 2489:1 2599:1 2726:1 2863:1 2870:1 2945:1 2982:1 3020:1 3200:1 
-0.0999397682639963 66:1 119:1 123:1 158:1 286:1 303:1 377:1 562:1 575:1 1076:1 1348:1 1374:1 1478:1 1562:1 1613:1 1649:1 1788:1 1850:1 1853:1 1946:1 1980:1 2010:1 2051:1 2055:1 2065:1 2086:1 2170:1 2281:1 2427:1 2489:1 2926:1 3042:1 3151:1 
-0.4001505035690126 1655:1 1850:1 2259:1 2574:1 2742:1 2939:1 2943:1 2982:1 3036:1 
-1 2175:1 
-0.06328274404939929 88:1 292:1 665:1 1028:1 1073:1 1239:1 1673:1 2107:1 2351:1 3141:1 
-0.1109591320290622 33:1 41:1 64:1 92:1 166:1 364:1 630:1 665:1 737:1 870:1 894:1 938:1 1021:1 1315:1 1550:1 1662:1 1713:1 1728:1 1850:1 2166:1 2582:1 2679:1 2744:1 2905:1 3020:1 3036:1 3180:1 3247:1 3262:1 3264:1 
-0.1409011614435827 650:1 1230:1 1293:1 1589:1 1649:1 1835:1 1850:1 2129:1 3036:1 
-0.1724662664126632 88:1 120:1 348:1 365:1 777:1 870:1 1105:1 1292:1 1547:1 1620:1 1649:1 1673:1 1805:1 1873:1 2421:1 2465:1 2536:1 2572:1 2679:1 2843:1 2913:1 3010:1 3266:1 
-0.0621705261472599 3:1 41:1 872:1 888:1 1271:1 1756:1 2106:1 2684:1 2687:1 2698:1 2852:1 3019:1 3020:1 3263:1 
-0.8299765090494464 665:1 902:1 1028:1 1665:1 1879:1 1933:1 2081:1 2106:1 3020:1 
-0.02366103855753874 106:1 331:1 391:1 600:1 938:1 1021:1 1227:1 1383:1 1547:1 2169:1 2184:1 2427:1 2437:1 2679:1 2786:1 3090:1 3093:1 3134:1 3224:1 3264:1 3286:1 
-1 726:1 2117:1 
-0.2830152336430882 120:1 558:1 1260:1 1736:1 1791:1 1833:1 1868:1 2397:1 2537:1 2539:1 2926:1 2939:1 3020:1 3036:1 3108:1 
-0.156970820251902 41:1 71:1 114:1 193:1 269:1 400:1 605:1 607:1 644:1 650:1 852:1 901:1 1206:1 1207:1 1343:1 1466:1 1521:1 1591:1 1649:1 1833:1 1850:1 2040:1 2097:1 2679:1 2705:1 2790:1 2872:1 2899:1 2931:1 3020:1 3036:1 
-0.3483537926574977 17:1 140:1 247:1 282:1 304:1 575:1 668:1 827:1 1021:1 1082:1 1781:1 1933:1 2065:1 2283:1 2468:1 2697:1 2786:1 2811:1 3247:1 
-0.07925751711442848 88:1 508:1 942:1 1252:1 1884:1 1933:1 2427:1 2428:1 2433:1 2591:1 2830:1 3020:1 3256:1 
-0.8316116712388828 143:1 173:1 356:1 1005:1 1177:1 1767:1 1850:1 2234:1 
-0.7843987199690177 284:1 585:1 1627:1 1713:1 2201:1 2357:1 2922:1 
-1 42:1 88:1 147:1 243:1 343:1 728:1 1013:1 1018:1 1202:1 1402:1 1462:1 1487:1 1535:1 1602:1 1665:1 1686:1 1923:1 1933:1 2081:1 2106:1 2351:1 2362:1 2366:1 2430:1 2830:1 2944:1 2996:1 3020:1 3277:1 
-0.04922873161475697 70:1 120:1 270:1 303:1 515:1 826:1 980:1 1188:1 1307:1 1315:1 1317:1 1547:1 1649:1 1655:1 1781:1 1816:1 1834:1 1850:1 1874:1 2073:1 2258:1 2284:1 2287:1 2293:1 2355:1 2535:1 2561:1 2668:1 2902:1 2916:1 3002:1 3036:1 3085:1 3138:1 
-0.4821270154317369 451:1 1352:1 1573:1 1850:1 2246:1 3020:1 
-0.3493622525515813 143:1 292:1 356:1 1177:1 1375:1 1767:1 1887:1 2234:1 2786:1 3020:1 3036:1 
-0.5152579798849399 143:1 292:1 356:1 1005:1 1177:1 1375:1 1850:1 2234:1 
-0.2681373703027369 88:1 777:1 905:1 1414:1 1602:1 1673:1 1923:1 1985:1 2331:1 2336:1 2351:1 2586:1 2686:1 2868:1 3094:1 3148:1 3277:1 
-1 42:1 665:1 1602:1 1665:1 2081:1 2686:1 3277:1 
-1 56:1 2892:1 
-1 98:1 359:1 561:1 1649:1 1850:1 2400:1 
-0.3498453214573039 56:1 400:1 526:1 624:1 953:1 1188:1 1252:1 1317:1 1416:1 1733:1 1850:1 1853:1 1928:1 1938:1 2679:1 2733:1 3020:1 
-0.1443627831850972 170:1 585:1 823:1 965:1 1033:1 1208:1 1287:1 1562:1 1773:1 1835:1 2120:1 2139:1 2186:1 2259:1 2260:1 2513:1 2578:1 2621:1 2673:1 2863:1 3036:1 3053:1 3190:1 3283:1 
-0.723235372345956 56:1 581:1 1005:1 1078:1 2259:1 2512:1 2892:1 
-0.0542548503959674 222:1 292:1 424:1 451:1 475:1 797:1 838:1 1115:1 1220:1 1456:1 1462:1 1673:1 2107:1 2156:1 2160:1 2230:1 2351:1 2490:1 2566:1 2786:1 3070:1 3149:1 3277:1 
-1 42:1 88:1 665:1 905:1 975:1 1013:1 1028:1 1295:1 1462:1 1487:1 1602:1 1665:1 1923:1 1933:1 2081:1 2106:1 2382:1 2686:1 2769:1 2790:1 3020:1 3153:1 3277:1 
-0.8519890885851412 424:1 464:1 539:1 797:1 1268:1 1602:1 1969:1 2336:1 2430:1 3010:1 3277:1 
-0.5630060999505632 15:1 88:1 539:1 870:1 2259:1 2448:1 2892:1 2982:1 3036:1 
-0.1494900558895541 411:1 427:1 585:1 1098:1 1260:1 1631:1 1850:1 2696:1 2915:1 3020:1 
-1 2098:1 2175:1 
-1 
-1 
-1 
-1 
-0.8255656399228336 56:1 1005:1 1230:1 1931:1 2128:1 2892:1 3036:1 3043:1 3133:1 
-1 2175:1 
-0.5448241137377648 2409:1 2523:1 2681:1 3020:1 
-1 120:1 558:1 1098:1 1260:1 1459:1 1633:1 1687:1 2106:1 2840:1 3020:1 
-1 1068:1 1631:1 2943:1 3020:1 3044:1 
-0.1062355374613913 374:1 429:1 654:1 1310:1 1518:1 1805:1 1850:1 1854:1 2023:1 2088:1 2149:1 2271:1 2521:1 2535:1 2633:1 2634:1 2679:1 2736:1 2906:1 3051:1 
-1 
-0.03734293253008084 429:1 797:1 1045:1 1189:1 1230:1 1239:1 1825:1 1850:1 1879:1 2146:1 2297:1 2523:1 
-0.02270893507404421 400:1 870:1 927:1 944:1 973:1 1115:1 1203:1 1314:1 1453:1 1657:1 1659:1 1703:1 1850:1 2166:1 2422:1 2523:1 2578:1 2750:1 2786:1 2875:1 2920:1 3020:1 
-1 33:1 42:1 120:1 394:1 665:1 1003:1 1602:1 1665:1 2081:1 2686:1 3020:1 
-0.04356089809914233 284:1 517:1 561:1 626:1 779:1 1021:1 1188:1 1269:1 1547:1 1614:1 1833:1 1879:1 1933:1 2106:1 2176:1 2732:1 2786:1 2805:1 3020:1 3036:1 3264:1 
-0.1333134533728138 482:1 558:1 598:1 610:1 892:1 1140:1 1407:1 1547:1 1589:1 1784:1 1823:1 1913:1 1926:1 1931:1 1933:1 1948:1 1963:1 2295:1 2392:1 2443:1 2555:1 2673:1 2765:1 2816:1 2872:1 3020:1 3082:1 
-0.2785052438716989 41:1 88:1 173:1 323:1 356:1 475:1 974:1 1005:1 1030:1 1140:1 1445:1 1767:1 1850:1 1933:1 2234:1 2786:1 2808:1 2967:1 3020:1 
-1 33:1 42:1 394:1 665:1 944:1 1310:1 1539:1 1602:1 1636:1 1665:1 1764:1 1773:1 2000:1 2081:1 2553:1 2686:1 3138:1 3277:1 
-1 88:1 424:1 665:1 797:1 1232:1 1602:1 1645:1 1933:1 3277:1 
-1 424:1 797:1 843:1 905:1 1673:1 1764:1 2000:1 
-0.03267594215294867 41:1 223:1 347:1 482:1 539:1 561:1 1030:1 1206:1 1314:1 1326:1 1383:1 1447:1 1850:1 1959:1 2030:1 2045:1 2094:1 2154:1 2169:1 2276:1 2284:1 2307:1 2504:1 2714:1 2786:1 2982:1 3020:1 3036:1 3265:1 
-1 25:1 33:1 394:1 852:1 1045:1 1055:1 1602:1 3036:1 
-1 1651:1 
-0.285377414972208 1371:1 2161:1 2889:1 3036:1 3265:1 
-1 
-0.1235507357369172 13:1 33:1 41:1 42:1 88:1 229:1 336:1 539:1 624:1 661:1 797:1 866:1 870:1 1137:1 1178:1 1189:1 1378:1 1788:1 1850:1 1933:1 1934:1 2051:1 2117:1 2142:1 2253:1 2279:1 2280:1 2523:1 2525:1 2585:1 2681:1 2744:1 2786:1 3033:1 3036:1 3060:1 3137:1 3264:1 
-1 2175:1 
-0.2985230972719657 400:1 973:1 1185:1 1339:1 1547:1 1682:1 1686:1 1850:1 1862:1 1993:1 2913:1 2998:1 3020:1 
-1 42:1 56:1 665:1 1013:1 1028:1 1602:1 1665:1 3277:1 
-0.5213279271907041 2629:1 
-0.06540201840660788 18:1 41:1 81:1 98:1 119:1 291:1 303:1 413:1 482:1 686:1 792:1 1168:1 1225:1 1303:1 1547:1 1654:1 1799:1 1808:1 1833:1 1938:1 2010:1 2065:1 2271:1 2355:1 2445:1 2629:1 2661:1 2807:1 3020:1 3036:1 3060:1 3138:1 
-0.03858233067121064 41:1 203:1 268:1 308:1 415:1 603:1 813:1 843:1 923:1 955:1 1049:1 1127:1 1403:1 1447:1 1472:1 1559:1 1788:1 1850:1 2326:1 2537:1 2618:1 2698:1 2809:1 2905:1 3020:1 3066:1 
-1 33:1 394:1 1355:1 1399:1 1602:1 2862:1 3277:1 
-1 33:1 292:1 394:1 1422:1 1673:1 1805:1 2107:1 2253:1 2351:1 3277:1 
-0.04765254363738418 41:1 47:1 65:1 101:1 105:1 117:1 173:1 226:1 303:1 490:1 539:1 747:1 754:1 843:1 1082:1 1121:1 1230:1 1265:1 1271:1 1514:1 1574:1 1578:1 1628:1 1649:1 1655:1 1676:1 1861:1 1866:1 1971:1 2032:1 2193:1 2324:1 2469:1 2535:1 2679:1 2848:1 2971:1 2983:1 3020:1 3061:1 
-0.2633374327059904 120:1 539:1 797:1 1232:1 1352:1 1453:1 1602:1 1645:1 1834:1 2020:1 2734:1 2819:1 2885:1 3273:1 3277:1 
-0.4545430653587943 88:1 292:1 372:1 475:1 728:1 1013:1 1372:1 1462:1 1566:1 1588:1 1636:1 1673:1 1773:1 1933:1 2081:1 2166:1 2351:1 2365:1 2679:1 2786:1 
-1 2629:1 
-0.4537804617636638 1898:1 1942:1 2786:1 
-0.6282212863270056 30:1 41:1 585:1 1260:1 1587:1 1933:1 2357:1 2418:1 2539:1 3020:1 3036:1 3086:1 
-0.139779090852898 86:1 284:1 339:1 482:1 561:1 583:1 752:1 756:1 1039:1 1045:1 1277:1 1823:1 1835:1 1899:1 2052:1 2197:1 2475:1 2679:1 2751:1 2816:1 2837:1 2904:1 2913:1 3020:1 3064:1 3215:1 
-0.2171726127565571 120:1 467:1 539:1 558:1 571:1 584:1 870:1 946:1 958:1 1076:1 1120:1 1177:1 1251:1 1391:1 1413:1 1618:1 1733:1 1747:1 1850:1 2367:1 2701:1 2807:1 2831:1 2982:1 2988:1 3036:1 3155:1 
-0.2266353688695931 1045:1 1074:1 1115:1 1189:1 1274:1 1498:1 1569:1 1801:1 1850:1 1939:1 2017:1 2209:1 2679:1 2790:1 2916:1 2955:1 3020:1 3036:1 3139:1 
-0.1310148067257107 890:1 1047:1 1082:1 1090:1 1230:1 1459:1 1498:1 1659:1 1703:1 1805:1 1833:1 1879:1 2104:1 2131:1 2632:1 2786:1 2827:1 2869:1 2969:1 2982:1 3060:1 
-1 3020:1 3036:1 
-1 5:1 33:1 42:1 56:1 243:1 332:1 394:1 424:1 539:1 665:1 835:1 905:1 1013:1 1028:1 1487:1 1602:1 1665:1 1923:1 1933:1 2081:1 2351:1 3277:1 
-0.7777583906179482 5:1 33:1 42:1 394:1 835:1 905:1 1028:1 1487:1 1602:1 1645:1 1665:1 1923:1 1933:1 2081:1 2166:1 2465:1 2686:1 2790:1 2828:1 3277:1 
-0.3437872360382388 167:1 485:1 490:1 764:1 1848:1 1979:1 2244:1 2279:1 2786:1 
-1 143:1 173:1 356:1 1005:1 1177:1 1767:1 1850:1 2808:1 
-0.4275987134423386 5:1 33:1 42:1 394:1 665:1 728:1 905:1 1449:1 1487:1 1602:1 1636:1 1665:1 1923:1 1933:1 2081:1 2090:1 2106:1 2686:1 2954:1 3020:1 3277:1 
-1 1401:1 2175:1 
-0.003110520615950222 26:1 29:1 41:1 119:1 176:1 235:1 239:1 304:1 366:1 377:1 430:1 601:1 648:1 662:1 758:1 767:1 772:1 1083:1 1271:1 1453:1 1804:1 1908:1 2073:1 2346:1 2367:1 2468:1 2716:1 2779:1 2834:1 2955:1 3018:1 3020:1 3036:1 3263:1 
