svm_type c_svc
kernel_type linear
nr_class 2
total_sv 1174
rho -0.426918
label 1 -1
nr_sv 607 567
SV
1 
0.6988344321302318 474:2 571:1 
1 411:2 
0.1524364864760038 2:1 34:1 162:1 203:2 204:1 263:1 276:1 338:1 345:1 360:1 387:1 443:1 456:1 490:2 531:1 584:4 585:1 
0.7815492227796315 2:1 6:2 44:1 64:1 92:1 110:3 112:2 219:1 225:1 240:1 335:1 413:1 454:1 459:1 526:1 551:1 584:2 
1 55:1 224:1 318:1 386:1 401:1 408:1 550:1 551:1 584:3 
0.1582656906903859 162:1 304:1 345:1 431:1 531:1 584:1 
0.8139986754266028 70:1 167:1 268:1 550:1 562:4 
1 202:1 349:1 
1 89:2 131:1 146:1 162:1 266:1 276:1 345:1 360:1 363:1 385:1 408:2 456:1 531:1 
1 249:1 550:1 
1 16:1 45:1 56:1 89:2 125:1 142:1 153:1 231:1 276:1 318:2 345:1 386:1 408:2 452:1 456:1 513:1 521:1 531:1 551:1 584:1 
1 21:1 278:1 291:1 543:1 
1 334:1 
1 50:1 152:1 201:1 251:1 420:1 550:1 
1 474:2 571:1 
1 
1 17:1 35:2 45:1 47:1 162:1 318:2 360:1 408:1 416:1 439:1 
1 3:1 61:1 189:1 218:1 241:1 457:1 
0.5150219959149609 212:2 225:1 550:1 562:1 
1 
0.1432978218101802 179:2 
0.2374759716838259 45:7 84:1 95:2 106:1 131:2 160:1 197:1 222:1 231:1 266:1 286:2 318:1 333:1 363:1 386:1 398:1 408:4 416:1 481:1 521:1 541:1 550:1 584:8 586:1 
0.495277327294937 426:1 550:1 
0.8816548514501695 37:1 101:1 183:1 315:1 409:1 550:1 
1 20:1 39:1 102:2 139:1 216:1 283:1 320:1 328:1 410:1 448:2 
0.2958121444248419 17:1 45:1 55:2 84:1 113:1 131:1 153:1 162:1 164:1 197:1 316:1 318:2 352:2 408:2 416:1 424:1 489:1 584:3 586:1 
1 50:1 152:1 201:1 420:1 550:1 564:1 
0.1086676329299681 38:1 111:1 201:1 217:1 262:1 280:1 288:1 301:1 407:1 422:2 574:2 
0.5532272709998809 217:1 247:1 376:1 422:1 455:1 546:2 
1 26:1 232:1 348:1 
1 177:1 178:2 354:1 397:1 
1 361:2 372:1 457:1 540:1 548:1 562:1 
0.6535357695661477 65:1 334:1 346:1 372:1 382:1 426:1 
1 
0.02583749489852133 32:1 55:1 58:1 68:1 121:1 131:1 203:2 222:1 242:1 263:1 276:1 318:1 329:1 338:1 387:1 408:2 443:2 478:1 486:2 490:3 541:1 550:1 566:1 584:2 
1 223:1 
1 540:1 
1 
0.5717947979556006 32:1 131:1 187:1 222:1 229:1 266:1 276:1 318:1 333:1 363:1 386:1 408:5 456:1 473:1 478:6 481:1 534:1 541:1 543:3 550:1 566:2 578:1 584:7 
0.2594696759792172 12:1 32:1 132:1 153:1 211:1 242:1 276:1 318:2 334:1 347:2 379:1 386:3 408:4 454:1 460:2 478:1 501:8 551:1 566:2 586:1 
0.4813433367624191 86:1 92:1 119:1 219:1 245:1 492:1 
1 145:1 219:1 542:2 586:1 
1 185:1 334:1 
1 57:1 
1 39:1 216:1 
0.2861037119731132 3:1 116:1 149:1 172:1 198:1 391:1 465:1 540:1 
1 252:1 457:1 540:1 548:1 
1 262:1 
0.3698547388618206 19:1 113:4 132:1 153:1 162:1 164:1 276:1 316:1 352:8 374:1 386:2 408:7 419:2 424:1 456:1 489:1 566:2 569:1 586:1 
0.3699946494776651 201:1 213:1 409:1 540:1 
0.4664164980297529 34:1 122:1 153:1 162:1 276:1 318:1 374:1 456:1 569:1 584:1 
1 139:1 216:1 
0.8339747690307709 45:1 123:1 131:1 230:1 231:1 276:1 310:1 318:2 352:2 360:1 408:2 454:1 456:1 584:2 586:1 
1 119:1 542:1 
1 334:1 
1 206:2 449:1 
0.5728769313134212 154:1 
1 411:2 
0.5254813321883179 170:2 377:2 421:2 
1 138:2 457:2 540:2 
1 180:1 262:2 367:1 463:1 555:2 
1 315:1 
1 372:1 
0.248302709758519 16:1 72:1 89:1 153:1 185:1 276:1 280:1 292:1 318:1 345:1 386:2 408:1 456:1 488:1 501:2 513:1 521:1 531:1 584:1 
0.6886925785756123 88:1 308:1 334:1 527:1 
0.08160158098331308 17:1 55:1 159:1 192:1 203:1 238:6 266:1 318:1 338:1 360:1 363:1 408:3 416:1 490:1 507:1 566:1 584:6 
0.1762482297494924 3:1 189:1 465:1 
1 89:1 157:1 280:1 454:1 577:1 
0.3826072569038089 73:1 126:1 206:1 280:2 444:1 
1 308:1 
1 17:1 158:1 360:1 386:1 406:1 408:1 419:1 509:1 
1 94:1 565:1 
0.2907417705657523 5:1 128:1 146:1 188:1 219:1 275:1 380:1 586:1 
0.1291681728900866 217:1 422:1 546:2 
1 262:2 267:2 512:2 520:2 
0.08069506535970815 52:5 87:1 91:1 99:1 169:7 403:1 414:1 437:1 447:1 484:1 504:1 550:2 
0.3802523474181651 118:1 196:1 206:1 295:1 
1 49:1 87:1 315:1 334:1 403:1 437:1 447:1 504:1 
1 29:1 43:1 217:1 422:1 546:1 553:1 
1 243:1 288:1 301:1 
1 8:1 48:1 94:1 223:1 552:1 
1 308:1 
0.02359142732421835 17:1 162:1 214:1 584:1 
0.0001155220945933539 16:1 32:1 125:1 128:1 141:1 192:1 219:1 222:1 276:1 408:2 507:1 541:1 542:1 550:1 586:1 
0.05392308946575126 75:1 485:1 
0.5211946440494957 32:1 34:2 106:1 153:1 190:1 192:1 224:1 233:1 276:1 318:1 352:1 354:1 388:1 450:1 456:1 507:3 584:2 
0.8601127517758193 61:1 116:1 149:1 215:1 241:1 465:1 515:1 
1 146:1 280:1 303:1 344:1 428:1 550:1 558:1 
1 
0.678385112578088 94:1 264:1 423:1 
1 48:1 348:1 
0.9768916733955689 348:1 415:1 505:1 
0.908155077726859 48:1 427:1 550:1 
1 
1 
1 63:1 303:1 364:1 550:1 
1 550:1 
0.2709211630842703 346:1 550:1 
1 63:1 201:1 348:1 570:1 
1 81:1 331:1 423:1 540:1 
1 87:1 403:1 437:1 504:1 550:1 
1 
1 74:2 122:1 440:1 451:1 502:2 
1 21:1 55:1 144:1 153:1 162:1 164:1 242:1 276:1 318:1 328:1 424:1 456:1 478:1 486:1 489:1 586:1 
0.5943339311580095 31:2 32:1 67:2 106:1 145:1 219:1 222:1 245:1 276:1 318:2 473:1 541:1 550:1 578:1 586:1 
0.2549037574224384 1:1 300:1 
0.2904681222093428 64:1 262:1 294:1 334:1 357:1 366:1 396:1 520:1 565:1 
1 29:1 43:1 
1 174:1 326:1 422:1 
1 
1 13:1 247:1 262:1 348:1 407:1 438:1 455:1 463:1 
1 
1 186:1 408:1 
0.5831936584914568 41:1 64:1 69:1 90:2 174:2 246:1 326:1 453:1 463:1 520:1 547:1 588:1 
0.5864029239445376 29:1 43:1 517:2 553:1 
1 29:1 43:1 517:1 553:1 
1 550:1 
0.3324670537627938 371:1 427:1 
1 246:1 354:1 442:1 510:1 
1 41:1 64:1 129:1 199:1 246:2 280:1 438:1 463:1 562:1 581:1 588:1 
0.8401993368297003 29:1 43:1 399:1 553:1 
0.9365297105647308 29:1 43:1 399:1 553:1 
1 
1 46:1 64:2 88:1 91:1 109:1 183:1 199:2 315:1 336:2 455:1 550:1 561:1 562:1 
1 540:1 
1 540:1 
0.1653304205607574 6:1 24:1 63:1 78:2 110:1 112:1 140:1 239:1 240:1 273:1 290:1 389:1 577:1 584:1 
1 262:1 314:1 
0.7300068204779387 186:1 262:1 267:1 334:1 357:1 366:1 472:1 520:1 
1 202:1 246:1 300:1 349:1 422:1 574:1 
0.7052084701089774 129:1 442:1 463:1 470:1 582:1 
0.3975260655452634 41:1 64:1 126:1 129:1 296:1 463:1 588:1 
0.3630367923669248 45:1 276:1 408:2 478:2 498:2 566:2 584:2 
1 220:2 227:2 250:2 325:2 373:2 
1 220:2 227:2 250:2 325:2 373:2 
1 170:2 254:2 
1 220:2 227:2 250:2 325:2 373:2 
0.1698649210828071 170:2 254:2 343:2 
1 76:1 170:1 253:1 441:1 
0.7997286944909013 170:2 377:2 
1 143:2 327:2 530:2 
0.4200441143016809 327:2 530:2 
0.9901652906456787 77:1 177:1 194:1 313:1 315:1 550:1 
1 220:2 227:2 250:2 325:2 373:2 
1 143:2 421:2 530:2 
0.8797066790267029 227:2 250:2 325:2 373:2 
1 287:1 474:2 
1 
1 
1 
0.8049494708544915 415:1 505:1 550:1 587:1 
0.5744130406738408 202:1 244:1 355:2 368:1 436:1 438:2 545:1 
0.8760995612756498 25:1 41:1 64:1 217:2 237:1 262:1 296:1 314:1 349:1 422:2 588:1 
1 130:1 
0.572739428172 53:1 
1 550:1 
1 61:1 241:1 
1 42:1 239:1 542:1 550:1 
1 550:1 
1 78:2 88:1 306:1 
0.9953077201389984 38:1 93:1 151:1 212:1 249:1 346:1 525:1 550:1 
1 550:1 
0.1289848134426128 9:1 17:1 58:1 68:1 89:2 121:1 153:1 162:1 171:1 203:3 226:2 263:1 306:1 318:2 338:1 443:3 450:1 490:2 495:1 521:2 
1 17:1 153:1 162:1 171:1 299:1 318:1 374:1 408:1 424:1 490:1 521:1 566:1 569:1 584:1 
0.7230602369242549 14:1 34:2 92:1 97:1 153:1 219:1 276:1 318:1 374:1 386:1 451:1 454:1 456:1 479:1 482:1 518:1 542:1 549:1 551:1 569:1 584:1 
1 81:1 124:1 279:1 370:1 426:2 430:1 434:1 500:1 503:1 550:1 
1 
1 
1 
1 299:1 388:1 542:2 
1 8:1 215:1 223:1 427:1 
1 
1 
1 
0.9209410090645594 17:1 45:1 55:2 114:1 153:1 171:1 230:1 318:2 549:1 584:2 
1 457:1 
0.3133815643985316 167:1 550:1 
0.8667034401501801 88:1 156:1 562:1 
0.133810961880073 75:1 137:1 474:1 485:1 
1 86:1 92:1 146:1 188:1 219:1 275:1 380:1 454:1 
0.03420374812199084 70:1 77:1 93:1 268:1 407:1 550:1 
1 
1 14:1 55:1 67:1 82:1 106:1 153:1 168:1 184:2 192:1 276:1 283:1 318:1 324:1 330:1 490:1 507:1 521:1 542:1 584:1 
0.3446969771068956 9:1 34:3 120:2 184:1 187:2 190:1 259:3 307:3 356:1 456:1 473:5 476:3 523:1 584:3 
1 357:1 366:1 453:1 472:1 520:1 550:1 562:1 
0.5934764908711211 353:1 376:1 415:1 505:1 550:1 587:1 
0.4663180343010018 41:1 64:1 262:2 290:1 294:1 296:1 314:2 396:1 588:1 
1 236:1 346:1 550:1 
0.07440600005515563 271:1 395:1 550:1 
0.3192841074025763 64:1 78:1 85:1 106:1 128:1 153:1 162:1 239:1 273:1 276:1 330:1 345:1 389:1 408:1 417:1 456:1 464:1 521:1 531:1 566:1 584:2 586:1 
0.7944986744945142 64:1 88:2 280:1 540:1 
1 34:2 122:2 153:1 193:2 276:1 345:1 429:1 456:1 477:1 528:1 531:1 549:1 
1 53:1 
1 500:1 550:1 
0.7911334036381436 403:1 
1 38:1 94:1 
1 45:1 55:1 84:1 197:2 318:1 347:1 398:1 412:1 450:2 491:1 541:1 550:1 586:1 
0.6283611756870737 47:5 112:2 122:2 347:1 356:3 386:1 390:2 419:1 543:1 549:1 584:2 
1 308:1 550:1 
0.1728211172480081 75:1 289:1 474:1 
0.8450158100859192 3:1 455:1 465:1 
1 550:1 
1 348:1 
1 249:1 550:1 
1 98:1 147:1 532:1 
1 77:1 194:1 216:1 228:1 402:1 552:1 
1 
0.06874971762365911 32:1 122:2 153:1 276:1 307:1 317:2 318:1 347:1 386:1 419:1 473:6 502:2 540:1 543:2 578:1 584:2 
1 287:1 474:2 
1 550:1 
0.752457536873991 17:1 35:1 162:1 164:1 318:2 452:1 486:1 521:1 586:1 
0.7052523261246106 118:1 196:1 234:1 295:1 444:1 540:1 
0.1307533231399873 41:1 64:1 247:1 262:2 296:1 314:2 350:4 365:1 455:1 588:1 
1 519:1 
0.5622302204062959 17:1 162:1 193:1 311:1 318:1 352:1 429:1 467:1 477:1 556:1 
0.5773915352324905 5:1 17:1 82:1 89:1 117:1 153:1 162:1 171:1 193:1 219:1 242:1 318:1 352:1 424:1 478:1 542:1 586:1 
1 55:1 153:1 162:1 242:1 276:1 318:1 456:1 478:1 
0.1102168289564439 17:1 35:1 89:1 100:1 226:1 309:1 311:1 318:1 323:1 401:1 454:1 477:1 542:1 549:1 554:1 586:1 
1 271:1 348:1 395:1 480:1 
0.2342445091813165 17:1 159:1 185:1 318:1 467:2 556:1 
1 45:1 55:1 318:1 348:1 398:1 481:2 541:1 
1 32:1 55:2 222:1 276:1 318:2 352:2 473:1 540:1 541:1 578:1 
1 161:1 170:1 322:1 441:1 446:1 471:1 
0.01425638081290268 326:1 494:1 550:1 
0.7978531423200188 189:1 465:1 
1 
0.07062592990059145 313:1 550:1 562:1 
1 38:1 243:1 527:1 550:1 
0.7920102355958708 118:1 196:1 234:1 295:1 444:1 540:1 
1 234:1 354:1 432:1 457:1 
0.9966442979918284 112:1 122:2 197:4 356:3 386:1 390:2 419:1 540:1 543:1 584:2 
1 47:1 89:2 122:2 193:1 390:2 408:2 450:1 477:1 549:1 566:2 
1 
1 
1 213:2 225:1 348:1 433:1 
1 45:1 311:1 540:1 
1 48:1 550:1 
0.03792058479591939 8:1 89:2 148:1 378:2 467:2 550:1 
1 88:1 219:1 274:1 354:1 
1 206:1 
0.9266849600152565 167:1 234:1 
1 364:1 404:1 
1 
0.03885857039688466 19:1 71:1 86:1 110:1 188:1 191:1 233:1 274:2 316:1 345:1 388:1 454:1 459:1 488:1 559:1 584:1 
1 
1 3:1 61:1 70:1 126:1 241:1 268:1 297:1 302:1 407:1 
0.5277367143258119 120:1 132:1 153:1 193:1 276:1 318:1 345:1 435:1 440:1 451:1 456:1 518:1 531:1 584:2 
0.02930030359665749 288:1 301:1 469:1 
1 3:1 198:1 465:1 
1 2:1 56:1 89:1 100:1 114:1 171:1 230:1 323:1 341:1 381:1 386:2 398:1 540:1 551:1 586:1 
0.9537725349480057 324:1 586:1 
0.185963541602159 9:1 146:1 153:1 185:1 276:1 309:1 311:1 456:1 536:1 549:1 
0.238442287294324 376:1 550:1 
1 34:1 153:1 203:1 204:1 276:1 318:1 345:1 451:1 456:1 518:1 531:1 549:1 584:1 
1 562:2 
0.5484126777431577 256:1 331:1 334:1 430:1 434:1 
1 255:1 
1 287:1 474:2 
1 540:1 
0.3217862531240446 151:1 249:1 376:1 525:1 532:1 550:1 
1 25:1 497:1 532:1 550:1 
1 16:1 185:2 188:1 219:1 272:1 309:2 311:1 398:1 467:1 550:1 
0.4504886310321332 17:1 55:1 84:1 106:1 153:1 162:1 197:1 318:3 347:1 408:1 416:1 482:1 490:1 521:1 566:1 584:2 586:1 
0.360872289264942 84:1 197:2 309:2 318:1 354:1 356:1 398:1 541:1 554:2 556:1 
1 287:1 474:2 
0.2433231430016082 6:2 17:1 24:1 47:1 64:1 78:1 110:2 128:1 140:2 145:1 153:1 162:1 203:1 219:1 240:1 245:1 318:1 416:1 417:1 424:1 439:1 443:1 496:1 521:1 542:1 584:2 586:1 
0.4544718329164035 217:2 262:1 314:1 367:1 422:2 
1 3:1 61:1 198:1 241:1 465:1 
0.7243982577005532 3:1 47:2 54:1 153:1 290:1 408:1 416:1 424:1 439:1 528:1 584:2 
0.6781987912592654 49:1 540:1 
0.9500541538983973 126:1 586:1 
0.2635174408142764 7:1 334:1 
1 
1 
1 
1 53:1 
1 53:1 
0.2476411935873528 10:1 88:2 94:1 257:1 308:1 342:1 425:1 527:1 
0.2612685775933635 100:1 146:1 188:1 233:1 242:1 275:1 335:1 380:1 478:1 
1 287:1 474:2 
1 271:1 348:1 395:1 562:1 
0.6376076165334176 69:1 127:1 519:2 
0.827077481105092 56:1 88:1 89:1 153:1 193:1 242:1 276:1 318:1 375:1 394:1 456:1 478:1 549:1 
1 153:1 185:1 188:1 242:1 272:1 276:1 408:2 424:1 456:1 462:1 478:1 549:1 566:2 584:1 586:1 
0.4124853944332753 60:1 258:1 550:1 
0.3724301101030331 2:1 32:1 58:2 68:2 89:1 121:2 163:1 242:1 263:1 276:1 318:1 338:1 387:2 408:1 478:1 490:1 521:1 550:1 566:1 
0.7694450998907791 17:1 36:1 67:1 89:1 162:1 185:1 318:1 545:1 
1 41:1 64:1 111:2 165:2 262:2 463:1 520:2 581:1 588:1 
1 88:1 169:1 180:1 202:1 237:1 244:1 368:1 436:1 514:1 550:1 
1 61:1 241:1 325:1 511:1 540:1 
1 34:6 122:2 153:1 190:1 193:2 195:2 242:1 276:1 293:2 429:2 456:1 477:2 478:1 523:1 549:1 
0.4026739584747007 6:2 17:1 64:1 78:1 85:1 106:1 110:2 153:1 162:1 171:1 224:1 240:1 242:1 318:1 326:1 330:1 389:1 408:1 417:1 464:1 478:1 496:1 521:1 542:1 566:1 584:2 586:1 
1 38:1 65:1 124:1 370:1 430:1 434:1 540:1 
1 
0.5729279640532974 147:1 
1 208:1 540:1 563:1 
1 154:1 
1 255:1 300:1 487:1 540:1 
1 133:1 236:1 271:1 388:1 395:1 426:1 480:1 494:1 540:1 
1 130:1 
1 
1 
0.1730208160870395 75:1 474:1 533:1 
1 
1 
1 21:1 155:1 291:1 
1 53:1 
1 173:1 
1 185:1 221:1 
0.944738051957834 64:2 81:1 124:1 256:1 279:1 334:1 370:1 430:1 434:1 
0.2150948259078613 86:1 128:1 316:1 454:1 506:1 542:1 
0.6779923542675536 57:1 285:1 340:1 344:1 350:1 365:1 383:1 468:1 506:1 522:1 576:1 583:1 
0.04169085701124861 57:1 285:1 305:1 340:1 344:1 350:1 365:1 383:1 468:1 506:1 514:1 522:1 576:1 583:1 
0.0211580822870091 67:1 114:1 168:1 184:2 299:1 398:1 412:1 490:2 491:1 521:2 541:1 545:1 550:1 584:1 
1 
1 32:1 153:1 203:1 204:1 224:1 276:1 345:2 386:1 408:1 419:1 450:1 531:1 550:1 584:2 
0.2745002462218415 17:1 34:1 71:1 122:1 142:1 150:1 153:1 162:1 171:1 304:2 318:1 385:1 386:2 557:2 584:2 
1 474:2 571:1 
0.6926361398323725 474:2 508:1 
1 26:1 
1 4:1 21:3 28:1 51:1 89:1 144:2 155:1 200:1 291:3 312:1 405:1 516:1 
1 45:1 55:1 276:1 318:1 345:2 456:1 490:1 549:1 584:1 
0.3883327265837822 118:1 295:1 540:1 
0.8570620012234763 100:1 219:1 454:1 542:1 
0.9972009445785197 75:1 137:1 474:1 485:1 
1 
1 26:1 348:1 
0.2501328308299697 57:1 80:1 104:1 166:1 210:1 277:1 285:1 305:1 340:1 344:1 383:1 468:2 522:1 572:1 576:1 583:1 
1 422:1 
0.8685652773084482 64:1 169:1 206:1 297:1 442:1 463:1 539:1 581:1 582:1 
0.1732098577105786 34:2 122:1 153:1 190:1 193:1 276:1 293:1 345:1 456:1 531:1 549:1 
1 101:1 228:1 550:1 
1 26:1 88:1 135:1 232:1 550:1 
1 55:1 128:1 162:1 184:1 276:1 299:1 318:1 345:1 360:1 408:1 456:1 490:1 521:1 531:1 542:1 566:1 584:2 
1 
1 
1 75:1 137:1 474:1 
1 89:4 125:2 153:1 162:1 164:1 184:1 207:1 276:1 345:3 408:3 424:1 450:1 456:1 461:1 486:1 489:1 490:2 531:1 566:1 586:1 
0.9991963777665965 474:2 508:1 
1 
1 21:1 27:1 28:1 200:1 291:1 
0.2694219875787166 16:1 178:1 214:1 224:1 310:1 345:1 408:3 450:1 452:1 454:1 456:1 523:1 531:1 566:1 
1 136:1 308:1 433:1 500:1 
1 474:2 
0.5796678720511853 285:2 
1 474:2 499:1 
1 170:2 254:2 524:2 
1 32:1 34:1 89:1 100:1 153:1 226:1 273:1 276:1 309:1 334:1 345:1 379:1 386:1 400:1 442:1 454:1 458:1 460:1 461:1 531:1 
0.7947911651112342 13:2 29:1 43:1 262:2 553:1 
1 127:1 318:1 
1 42:1 
0.8856513332697875 7:1 225:1 325:1 334:1 379:1 475:1 
1 64:1 550:1 
1 
0.6688673637542267 1:1 201:1 432:1 550:1 570:1 
1 154:1 
0.6365821686611649 17:1 45:2 67:2 153:1 318:2 406:1 490:1 584:2 
1 55:1 141:1 323:1 385:1 408:2 549:1 566:1 
0.5497336182482662 221:1 252:1 
0.3987700358219097 75:1 83:1 289:1 474:1 
1 66:1 446:1 471:1 544:1 
0.8105222500338566 299:1 
1 
1 75:1 289:1 474:1 
0.9932511486923473 474:2 571:1 
0.4156490512996279 257:2 421:2 425:2 
0.1741824832041899 39:1 206:1 320:1 328:2 440:1 540:1 
1 13:2 41:1 46:1 64:2 109:1 180:1 262:2 294:1 396:1 512:2 588:1 
1 
0.3695076377055779 96:1 493:1 
0.8345233575088402 33:1 288:1 301:1 351:1 432:1 535:1 561:1 
1 47:1 55:1 119:1 203:1 222:1 245:1 318:1 398:1 416:1 439:1 443:1 541:1 542:1 550:1 584:2 586:1 
0.07224318559286572 17:1 47:1 89:1 153:1 338:1 358:1 416:1 424:1 439:1 462:1 490:1 549:1 586:1 
0.1293762393437029 45:1 47:1 55:1 97:1 222:1 226:1 318:2 375:1 387:1 394:1 398:1 416:1 439:1 454:1 540:1 541:1 586:1 
1 17:1 35:1 47:2 55:1 79:1 153:1 214:1 304:1 318:2 386:2 401:1 408:1 416:2 419:1 424:1 439:1 551:1 566:1 584:4 
0.5623086863866155 2:1 9:1 14:1 22:1 47:2 89:1 125:1 171:2 203:2 207:1 318:2 398:1 408:1 439:1 443:2 482:1 489:1 495:1 550:1 584:1 
1 
1 
0.5658455884944212 16:1 17:1 18:1 47:1 55:2 153:1 203:1 214:1 318:2 416:1 435:1 439:1 481:3 529:3 584:2 
1 17:1 45:2 47:1 55:2 153:1 318:2 416:1 439:1 513:1 584:2 
1 
1 88:1 382:1 550:1 561:1 
1 130:1 
1 77:1 194:1 457:1 550:1 562:1 
1 43:1 228:1 353:1 
1 
1 287:1 474:2 
1 16:1 219:1 274:1 
1 287:1 474:2 
1 177:1 540:1 
0.8323146331276571 64:1 178:1 429:1 540:1 588:2 
1 173:1 
1 69:1 76:1 322:1 
1 
1 170:2 254:2 343:2 
1 
0.6004508868336396 494:1 550:1 
1 
1 26:1 88:1 500:2 550:1 562:1 
1 
0.9910693044455403 287:1 474:2 
0.5326468235371152 116:1 145:1 146:1 149:1 157:1 187:1 219:1 227:1 242:1 303:1 330:2 362:1 465:1 478:1 515:1 536:1 542:1 586:1 
0.924094613764354 20:2 27:2 39:2 60:1 62:1 139:1 312:2 328:1 402:1 410:2 418:1 
1 81:1 264:1 279:1 331:1 334:1 430:1 434:1 442:1 
1 8:1 
1 
1 116:1 149:1 227:1 325:1 351:1 465:1 515:1 
0.5729233985895822 161:1 
1 228:1 562:1 
1 474:2 508:1 
1 69:1 93:1 319:1 
1 154:1 
1 34:1 35:1 106:1 162:1 242:1 276:1 318:2 360:1 375:1 401:1 456:1 478:1 481:2 529:3 584:3 586:1 
0.0367181946843977 253:1 315:1 361:1 480:1 527:1 550:1 
1 270:1 483:1 493:1 550:1 
0.4648500926293662 94:1 135:1 270:1 
1 236:1 550:1 
0.799139764743418 213:1 540:1 
0.4575867202907166 35:1 55:2 106:1 131:1 148:1 162:1 242:1 276:1 304:3 318:3 360:1 408:1 456:1 478:1 584:4 586:1 
1 287:1 474:2 
1 213:1 215:1 550:1 
1 73:1 88:1 218:1 
1 32:1 34:1 55:1 79:1 222:1 242:1 276:1 318:1 454:1 478:1 518:1 550:1 584:1 586:1 
1 474:2 
1 18:1 88:1 131:1 153:1 203:1 276:1 408:1 456:1 478:1 481:2 513:1 
0.4877024643142466 32:1 35:1 59:2 72:1 123:1 153:1 276:1 318:1 334:1 379:1 478:1 481:1 584:1 586:1 
0.6260516404185821 20:1 60:1 62:1 225:1 328:1 448:1 516:1 
0.0001769578287313996 53:1 130:1 
0.9996191937539525 170:2 254:2 343:2 
0.5320126937485974 4:1 21:1 51:1 155:1 278:1 405:1 540:1 
1 61:1 241:1 325:1 465:1 511:1 515:1 
1 98:1 156:1 483:1 562:1 565:1 
1 36:1 153:1 242:1 276:1 321:1 456:1 478:1 
0.7011044192636918 87:1 91:1 403:1 437:1 447:1 484:1 504:1 544:2 573:1 
1 
1 474:2 508:1 
0.6472972191005529 45:2 55:2 71:3 74:1 123:1 153:1 276:1 318:2 408:3 456:1 549:1 584:3 586:1 
1 474:2 508:1 
0.07193268248550995 37:1 372:1 540:1 562:1 
0.9554347866173025 103:1 280:1 
1 
1 99:1 111:1 247:1 262:1 376:1 455:1 512:1 520:1 
0.9931105118369385 170:2 254:2 343:2 
1 29:1 43:1 346:1 453:1 553:1 
1 
1 280:1 339:1 561:1 
0.3878021414645452 27:1 28:1 155:1 200:1 291:1 
0.8118641657901973 35:1 89:2 162:1 263:1 378:1 488:1 
1 
1 
1 98:1 223:1 376:1 562:1 
1 
0.6914194375413063 77:1 151:1 503:1 550:1 
1 474:2 508:1 
1 87:1 403:1 437:1 447:1 504:1 550:2 
1 75:1 474:1 533:1 
0.5250957437590783 64:1 88:1 175:1 334:1 344:1 393:1 575:1 
1 
1 170:2 254:2 524:2 
1 93:1 252:1 319:1 500:1 540:1 
1 
1 88:1 155:1 178:1 315:1 376:1 382:1 445:1 466:1 540:1 
0.1661616598545952 208:1 280:2 344:2 409:1 428:1 550:1 558:1 
0.260706313494443 17:1 45:5 47:1 106:1 142:1 229:1 298:2 318:2 360:1 386:1 397:1 408:9 416:1 439:1 460:1 534:1 549:1 551:1 566:3 586:1 
0.005202959760925072 213:1 361:1 550:1 562:1 
1 173:1 
1 514:1 550:1 
1 87:1 180:1 403:1 437:1 504:1 
1 
1 17:1 34:1 45:1 47:1 162:1 318:1 347:1 360:1 416:1 439:1 479:1 481:4 492:1 
0.9732658254360593 75:1 83:1 289:1 474:1 
0.4739297146572783 17:1 32:1 45:3 47:2 72:1 89:2 146:1 153:1 211:1 233:1 318:1 386:1 408:4 416:1 419:1 439:1 490:1 513:1 566:2 586:1 
1 474:2 571:1 
0.5137552885582374 17:1 47:1 55:1 97:1 153:1 292:1 318:2 386:1 408:1 416:1 435:1 439:1 454:1 584:1 
1 7:1 8:1 550:1 
1 154:1 
1 474:2 508:1 
0.6873272263259166 32:1 59:1 67:1 107:1 114:1 146:1 222:1 230:1 276:1 318:1 392:1 541:1 550:1 584:2 
0.3133456591626713 22:1 32:1 55:1 106:1 114:1 168:1 184:1 222:1 230:1 276:1 318:1 490:1 521:1 541:1 550:1 584:1 586:1 
0.5728944473577477 228:1 
1 61:1 116:1 149:1 172:1 205:1 227:1 391:1 465:1 515:1 550:1 560:1 
1 155:1 
0.1022942768338402 79:1 108:1 141:2 153:1 162:1 163:1 230:1 276:1 332:1 360:1 374:2 375:1 408:2 424:1 456:1 584:4 586:1 
1 170:2 254:2 343:2 
1 5:1 219:1 235:1 492:1 542:2 
1 38:1 262:1 561:1 
1 550:1 
1 474:2 508:1 
1 3:1 61:1 241:1 550:1 
0.05169025693264912 34:4 114:1 153:1 162:1 203:1 211:1 230:1 276:1 375:1 408:2 424:1 456:1 479:1 486:1 490:1 551:1 584:5 585:1 586:1 
0.02460225021762535 116:1 149:1 227:1 325:1 351:1 465:1 511:1 515:1 
1 38:1 249:1 497:1 550:1 
1 48:1 77:1 135:1 136:1 397:1 550:1 
1 344:1 544:1 562:1 
0.7699504634678138 9:1 112:1 114:1 122:1 230:2 317:1 347:1 386:1 419:1 476:1 513:1 584:1 
0.5729759940815204 173:1 
0.5476957308169361 34:3 47:3 122:1 153:1 190:2 193:2 195:1 293:2 416:2 439:1 456:1 549:1 
1 19:1 31:1 72:1 114:1 132:1 153:1 162:1 230:1 276:1 316:1 318:1 408:1 451:1 456:1 518:1 566:1 586:1 
0.7615112060020517 127:1 
0.2541137712684222 1:1 208:1 258:1 409:1 428:1 550:1 558:1 
1 2:1 55:1 71:1 153:1 162:1 276:1 304:1 318:1 374:1 386:1 408:1 424:1 456:1 566:1 569:1 584:1 586:1 
1 38:1 146:1 342:1 503:1 540:1 579:1 
1 550:1 
0.9286157648369167 75:1 137:1 474:1 485:1 
0.6665875510218853 80:1 285:2 305:1 340:1 383:1 567:1 576:1 
0.1288012272548829 249:1 257:1 409:1 
0.255174665070031 45:2 67:1 79:1 141:1 171:1 203:3 204:1 222:1 318:2 398:1 408:6 443:1 534:2 540:1 551:2 557:1 566:1 584:3 586:1 
1 93:1 319:1 
1 145:1 219:1 330:2 586:1 
1 474:2 499:1 
0.2524189341063349 84:1 94:1 197:1 222:1 398:1 406:1 541:1 
1 549:1 
1 474:2 499:1 
1 474:2 499:1 
0.8354229118487672 166:1 506:1 522:2 559:1 567:3 572:1 
1 
1 
0.008334782665175032 50:1 152:1 201:1 281:1 420:1 540:1 
1 50:1 152:1 201:1 251:1 420:1 550:1 
1 50:1 152:1 201:1 265:1 420:1 550:1 
1 88:1 94:1 223:1 315:1 
0.998355685302956 15:1 50:1 152:1 201:1 265:1 384:1 420:1 550:1 
0.4130614234483866 15:1 50:1 152:1 201:1 265:1 384:1 420:1 550:1 
1 15:1 50:1 152:1 201:1 265:1 354:1 384:1 420:1 
1 15:1 50:1 152:1 201:1 265:1 384:1 420:1 540:1 
1 50:1 152:1 201:1 251:1 420:1 540:1 
1 50:1 152:1 201:1 420:1 540:1 564:1 
1 50:1 152:1 201:1 251:1 420:1 540:1 
1 50:1 152:1 201:1 251:1 420:1 550:1 
0.4433208165301666 50:1 152:1 201:1 281:1 420:1 540:1 
1 50:1 152:1 201:1 251:1 420:1 550:1 
1 50:1 152:1 201:1 265:1 420:1 540:1 
1 50:1 152:1 201:1 420:1 544:1 564:1 
1 15:1 50:1 152:1 201:1 251:1 334:1 384:1 420:1 
1 50:1 152:1 201:1 265:1 420:1 550:1 
1 50:1 152:1 201:1 265:1 420:1 540:1 
1 50:1 152:1 201:1 420:1 540:1 
1 15:1 50:1 152:1 201:1 384:1 420:1 550:1 564:1 
1 15:1 50:1 152:1 201:1 384:1 420:1 540:1 564:1 
1 50:1 152:1 201:1 420:1 550:1 564:1 
1 50:1 152:1 201:1 420:1 550:1 564:1 
1 50:1 152:1 201:1 334:1 420:1 564:1 
1 50:1 152:1 201:1 420:1 540:1 
0.4113787905943532 15:1 50:1 152:1 201:1 251:1 384:1 420:1 550:1 
1 50:1 152:1 201:1 281:1 420:1 540:1 
0.6051192010724069 50:1 152:1 201:1 269:1 334:1 420:1 
1 50:1 152:1 201:1 265:1 420:1 540:1 
1 15:1 50:1 152:1 201:1 251:1 334:1 384:1 420:1 
1 50:1 152:1 201:1 251:1 420:1 550:1 
0.3761451592590949 50:1 152:1 201:1 269:1 420:1 550:1 
0.9408552166324569 50:1 152:1 201:1 269:1 420:1 550:1 
0.3220821317839553 50:1 152:1 201:1 269:1 334:1 420:1 
1 50:1 152:1 201:1 281:1 420:1 540:1 
1 50:1 152:1 201:1 420:1 540:1 
1 50:1 152:1 201:1 265:1 420:1 550:1 
1 50:1 152:1 201:1 269:1 420:1 540:1 
0.1872751014561153 15:1 50:1 152:1 201:1 269:1 384:1 420:1 540:1 
0.3178159882884111 40:1 67:1 79:1 105:1 141:1 162:1 192:1 276:1 318:2 332:1 360:1 408:1 456:1 507:1 584:2 586:1 
0.7402800809328856 32:1 67:1 107:1 112:1 222:1 248:1 276:1 282:1 318:1 329:1 345:2 363:1 385:1 386:1 392:1 419:1 486:1 490:1 495:1 531:1 538:1 541:1 550:1 584:3 
0.7860366788193334 12:1 18:1 32:1 45:4 126:1 131:1 153:1 203:2 276:1 318:1 345:1 408:3 443:1 531:1 566:2 584:5 
0.2539584475710756 45:2 55:1 131:1 153:1 276:1 318:1 345:1 408:1 456:1 481:1 513:1 529:1 531:1 584:1 
1 208:1 428:1 550:1 558:1 
1 570:1 
1 253:1 308:1 334:1 382:1 
1 94:1 246:1 249:1 
1 4:1 21:2 28:1 51:1 155:1 200:1 278:1 291:2 405:1 540:1 
1 376:1 
1 78:1 85:1 153:1 162:1 187:1 192:1 292:1 330:1 386:1 507:1 536:1 
1 103:1 127:1 339:1 
1 
0.43063703766459 262:2 314:2 345:1 402:1 404:2 463:1 
0.05882495327761859 49:2 261:2 421:2 
0.6280741008445063 75:1 83:1 289:1 474:1 
0.03138618483348198 357:1 366:1 453:1 472:1 520:1 550:1 
0.7007176452297638 287:1 474:2 
1 334:1 
1 550:1 
1 88:1 175:1 348:1 393:1 575:1 
1 474:2 508:1 
1 334:1 388:1 463:1 
1 
0.6433039948686929 37:1 458:1 550:1 
0.6403160092278685 255:1 487:1 550:1 570:1 
0.0009931206348722484 30:2 
1 30:2 
0.6422708111656567 30:2 
1 11:2 30:2 
1 115:1 181:1 
1 30:1 181:1 537:1 
1 30:1 181:1 537:1 
1 284:1 
1 
1 284:1 
1 284:2 
1 
0.1403514893242655 1:1 33:1 88:1 301:1 535:1 550:1 
1 325:1 349:1 
1 34:2 114:1 122:2 153:1 230:2 276:1 310:1 450:1 456:1 586:1 
1 49:2 217:2 261:2 421:2 
1 15:1 50:1 152:1 201:1 384:1 420:1 550:1 564:1 
1 15:1 50:1 152:1 201:1 265:1 384:1 420:1 550:1 
1 
1 474:2 571:1 
0.1847141748421297 89:4 190:2 381:2 386:1 390:3 451:1 460:1 498:1 513:1 
1 21:1 278:1 291:1 543:1 
1 
-1 
-0.004180441260392111 411:2 
-0.4888978661125283 411:2 
-1 
-1 411:2 
-1 88:1 135:1 270:1 
-1 6:1 78:1 110:1 240:1 457:1 529:1 541:1 550:1 
-0.1474896767589085 2:2 17:1 158:1 224:1 406:1 408:2 490:1 509:1 569:1 
-0.5194937092652092 16:1 117:1 148:1 187:1 276:1 310:1 318:2 345:3 360:1 456:2 476:1 523:1 531:1 586:1 
-0.8636187300612862 411:2 
-0.1743548835107458 89:2 106:1 122:1 131:1 153:1 160:1 276:1 292:1 304:1 345:1 386:2 408:3 456:1 492:1 498:1 513:1 531:1 566:2 584:1 586:1 
-1 
-1 334:1 562:1 
-0.2393520549735822 45:1 89:1 107:1 131:1 150:1 153:1 276:1 345:1 385:1 392:1 408:3 456:1 461:1 501:2 513:1 531:1 566:2 
-0.8687606232557121 279:1 331:1 
-1 173:1 253:1 
-1 474:2 571:1 
-1 170:2 254:2 524:2 
-0.6886414225346671 88:1 111:1 169:1 262:1 294:1 325:1 396:1 422:1 520:1 
-0.8999246460237763 2:1 17:1 34:1 47:1 131:1 162:1 203:2 204:1 226:1 263:1 318:1 338:1 360:1 408:1 416:1 439:1 443:1 490:2 521:1 584:4 
-0.8785401256301534 12:1 45:2 47:1 72:1 153:1 211:1 292:1 334:1 379:1 386:4 398:1 408:5 416:1 419:2 439:1 454:1 551:3 566:2 586:1 
-1 45:1 47:1 131:1 132:1 142:1 162:1 164:1 266:1 276:1 318:1 333:1 352:4 363:1 386:1 408:5 439:1 456:1 566:2 584:5 586:1 
-1 20:1 312:1 410:1 
-0.5038678276933376 39:1 102:1 139:1 216:1 320:1 328:1 516:1 
-0.2280186195452445 17:1 35:1 47:3 55:1 131:1 153:1 176:2 318:3 386:3 401:1 408:1 416:3 419:2 439:1 551:1 584:4 
-1 271:1 334:1 372:1 395:1 426:1 
-1 315:1 370:1 
-0.5991649093759055 61:1 116:1 149:1 172:1 205:1 227:1 299:1 391:1 465:1 515:1 550:1 560:1 
-1 288:1 301:1 550:1 
-1 89:4 131:1 153:1 242:1 276:1 408:1 424:1 456:1 478:1 549:1 586:1 
-1 21:1 291:1 543:1 
-0.802539627770354 19:1 34:1 45:1 47:1 89:1 131:1 162:1 229:1 276:1 318:1 360:1 408:3 456:1 478:2 489:1 502:1 534:1 566:1 586:1 
-1 92:1 110:1 219:1 454:1 459:1 542:1 
-0.7236217233116999 213:1 223:1 348:1 483:1 500:1 
-0.4180270501289182 17:1 18:1 19:1 131:1 132:2 153:1 162:1 164:1 182:1 203:1 242:1 316:1 386:1 408:3 419:1 424:1 478:1 501:3 566:2 586:1 
-1 87:1 403:1 437:1 504:1 550:2 573:1 
-1 50:1 152:1 201:1 420:1 550:1 564:1 
-0.8262340901171649 127:1 262:1 339:3 
-1 170:2 254:2 343:2 
-0.5708737886143159 14:1 45:4 55:1 106:2 131:2 132:1 159:1 203:1 266:1 276:1 318:1 324:2 333:1 360:1 363:1 386:1 408:3 443:1 456:1 473:1 578:1 
-0.6028576460972465 65:1 180:1 249:1 255:1 376:1 399:1 436:1 487:1 525:1 550:1 
-0.2268192716016321 96:1 129:1 188:1 202:1 275:1 367:1 380:1 573:1 
-0.01063098523141251 14:1 55:2 106:1 131:1 153:1 182:2 203:1 276:1 318:2 374:1 408:2 456:1 482:1 513:1 569:1 584:5 
-0.567728857805972 45:3 55:1 114:1 153:1 162:1 229:1 230:1 266:1 276:1 318:1 363:2 408:5 424:1 456:1 481:3 529:2 566:2 584:4 586:1 
-1 185:2 323:1 528:1 586:1 
-1 228:1 315:1 334:1 382:1 
-1 206:2 449:1 
-1 
-1 50:1 152:1 201:1 265:1 420:1 540:1 
-1 474:2 508:1 
-1 88:1 236:1 
-0.8282054627528593 93:1 319:1 399:1 436:1 540:1 
-1 66:1 350:1 365:1 468:1 
-1 53:1 
-0.2605273189942118 95:2 131:2 153:1 276:1 286:1 345:1 352:4 369:2 408:6 456:1 469:1 481:1 501:2 531:1 542:1 566:3 
-1 119:1 542:2 586:1 
-0.245709695760306 34:2 45:3 122:2 153:1 347:2 352:1 374:1 431:2 476:3 569:3 
-0.9363041664193483 17:1 224:1 386:1 408:1 429:1 477:1 551:1 
-1 170:2 254:2 524:2 
-0.1897733763997291 6:4 31:1 78:2 110:5 114:1 191:1 222:1 230:2 240:2 248:1 389:1 398:1 459:1 469:1 488:4 490:1 541:1 550:1 586:1 
-1 75:1 289:1 474:1 
-1 9:1 55:1 153:1 171:1 184:1 299:1 374:1 398:1 491:1 495:1 521:1 536:1 550:1 569:2 584:2 
-1 29:1 43:1 422:1 553:1 
-1 87:1 403:1 437:1 447:1 504:1 550:2 573:1 
-1 225:1 
-1 170:2 343:2 421:2 
-0.6600503350759522 138:2 457:2 550:2 
-1 87:1 169:1 403:1 414:1 437:1 447:1 504:1 550:2 
-1 48:1 136:1 550:1 
-0.6089996692097808 78:1 136:1 223:1 382:1 500:1 532:1 550:1 
-1 525:1 550:1 
-1 75:1 137:1 474:1 485:1 
-0.1775434605041451 34:2 112:2 122:2 153:1 192:1 347:1 356:3 386:1 419:1 507:4 543:1 549:1 584:2 
-1 75:1 137:1 289:1 474:1 
-0.3190269589786876 474:2 499:1 
-0.6162488655257448 24:1 78:2 85:1 330:1 334:1 376:1 
-1 357:1 366:1 453:1 472:1 503:1 520:1 550:1 562:1 
-1 173:1 
-1 550:1 
-1 38:1 550:1 
-1 2:1 32:1 58:1 68:1 89:1 121:1 125:1 276:1 345:1 360:1 408:2 531:1 550:1 566:1 
-1 45:1 55:1 71:1 146:1 153:1 188:1 214:1 231:1 275:1 276:1 299:1 318:1 345:1 352:1 380:1 386:1 408:1 424:1 456:1 531:1 542:1 549:1 
-1 
-0.5329932120184822 56:2 89:3 122:3 193:1 195:2 390:3 408:4 429:2 452:2 456:1 477:3 478:1 513:1 566:3 
-1 175:1 348:1 393:1 575:1 
-1 118:1 196:1 218:1 280:1 295:1 344:1 444:1 
-0.1282568695674237 17:1 34:3 89:2 114:1 153:1 190:1 214:1 230:1 386:1 400:2 408:2 538:2 566:2 584:1 
-1 550:1 
-1 2:1 17:1 45:1 55:1 142:1 153:1 158:1 192:1 318:2 386:1 406:1 408:1 419:1 507:1 
-1 76:1 322:1 
-1 201:1 540:1 
-1 
-1 348:1 372:1 415:1 505:1 587:1 
-1 301:1 540:1 
-1 101:1 415:1 505:1 550:1 587:1 
-0.5856966943944601 12:1 34:1 114:1 153:1 157:1 330:1 362:1 386:1 408:1 424:1 443:1 498:1 518:1 540:1 566:1 586:1 
-1 93:1 94:1 319:1 
-1 287:1 474:2 
-0.6230023100771633 348:1 398:1 
-0.8500637678253264 249:1 313:1 315:1 370:1 
-1 34:2 47:2 122:1 153:1 190:1 193:4 293:1 318:2 416:2 439:1 440:1 451:1 549:1 
-1 16:1 34:1 47:1 56:1 67:1 89:2 153:1 318:1 398:1 400:1 416:1 424:1 439:1 452:1 540:1 
-1 199:1 223:1 500:1 562:1 584:1 
-1 354:1 
-0.4241486381147631 24:1 34:1 78:1 82:1 85:1 89:1 146:1 299:1 323:1 330:1 354:1 386:1 419:1 440:1 518:1 584:1 
-1 446:1 
-1 8:1 55:1 89:1 274:1 376:1 378:1 550:1 
-0.3726958142488746 21:1 278:1 291:1 550:1 
-1 
-0.8531363924212098 13:1 88:1 262:1 438:1 463:1 581:1 
-1 325:1 550:1 
-0.698598762142055 41:1 46:1 64:1 73:1 91:1 99:1 109:1 129:1 206:1 296:1 407:1 438:1 463:1 588:1 
-1 29:1 43:1 262:1 267:1 442:1 520:1 
-1 1:1 175:1 
-0.1226703671565063 64:1 129:1 165:2 174:1 262:2 267:2 294:1 388:1 520:2 
-1 64:1 262:2 314:2 349:2 442:1 512:2 539:1 582:1 
-0.742607838439293 73:1 243:1 262:1 314:1 353:1 388:1 422:1 494:1 
-1 77:1 194:1 345:1 450:1 517:1 
-1 540:1 
-1 
-1 29:1 43:1 386:1 517:1 553:1 
-1 29:1 43:1 64:1 553:1 
-1 29:1 43:1 64:1 553:1 
-1 180:1 247:1 262:1 455:1 
-1 180:1 247:1 262:1 455:1 530:1 
-0.3936213532000782 180:1 247:1 262:1 455:1 470:2 530:1 
-0.4234403300895416 170:1 446:1 513:1 
-0.6186393302378548 111:1 165:1 186:1 262:1 463:1 520:1 
-0.9526859345405778 41:1 64:2 71:1 246:1 296:1 386:1 438:1 463:1 588:1 
-0.7472321694497543 46:1 64:2 88:1 91:1 109:1 183:1 199:2 315:1 336:2 455:1 550:1 561:1 562:1 
-1 29:1 41:1 43:1 64:1 186:1 262:1 267:1 463:1 520:1 553:1 588:1 
-0.9819809858296601 29:1 43:1 49:1 202:1 244:1 246:1 346:1 368:1 436:1 442:1 582:1 
-0.05445500697024152 174:1 206:1 547:2 568:1 
-1 202:1 246:1 300:1 349:1 
-1 170:1 334:1 446:1 471:1 
-0.4137963821777353 174:1 247:1 455:1 463:1 580:1 581:1 
-0.02806002388672874 174:1 422:1 447:1 510:1 547:1 568:1 
-1 174:1 447:1 510:1 546:1 547:1 568:1 
-0.5976860981829945 220:2 227:2 250:2 325:2 373:2 
-1 170:2 254:2 
-1 170:2 254:2 377:2 
-1 170:2 254:2 343:2 
-1 466:1 540:1 555:1 
-1 220:2 227:2 250:2 325:2 373:2 
-1 189:1 198:1 465:1 
-0.4144244791386764 2:1 31:1 32:1 89:3 233:1 341:2 381:1 386:3 478:1 540:1 551:1 
-1 220:2 227:2 250:2 325:2 373:2 
-1 220:2 227:2 250:2 325:2 373:2 
-0.9023271042524751 220:2 227:2 250:2 325:2 373:2 
-1 64:1 
-1 143:2 327:2 530:2 
-1 143:2 421:2 530:2 
-1 26:1 48:1 232:1 548:1 550:1 
-1 33:1 348:1 535:1 
-0.04687854764133786 34:1 122:1 145:1 219:1 245:1 318:1 354:1 398:1 412:1 541:1 586:1 
-0.5265181821972928 117:1 162:1 231:1 252:1 408:1 
-1 77:1 519:1 
-1 262:1 376:1 519:1 
-1 223:1 
-1 252:1 540:1 
-1 177:1 457:1 550:1 
-1 219:1 274:1 
-1 38:1 550:1 
-0.1676383323087585 2:1 35:1 71:1 89:1 150:1 385:1 386:1 408:1 513:1 566:1 
-1 25:1 264:1 271:1 395:1 480:1 503:1 550:1 
-1 550:1 562:1 
-1 474:2 499:1 
-1 474:2 571:1 
-1 177:1 249:1 561:1 
-1 361:1 550:1 
-0.1551432964702606 23:2 41:1 64:2 73:1 109:1 174:2 262:2 280:1 296:1 314:2 588:1 
-1 183:1 249:1 315:1 550:1 
-1 6:1 14:1 34:1 55:1 97:1 110:1 153:1 192:1 276:1 318:1 454:1 456:1 482:1 507:1 549:1 585:1 
-1 287:1 474:2 
-1 34:2 84:1 112:2 122:2 197:4 318:1 347:1 356:4 386:1 419:1 549:1 584:2 
-1 287:1 474:2 
-1 474:2 571:1 
-0.09680099277671722 49:1 88:1 178:3 346:1 354:1 453:2 520:2 
-1 218:1 570:1 
-1 474:2 
-0.01787555920775521 320:1 328:2 376:1 552:1 
-0.462664879548782 17:1 22:1 84:1 106:1 128:1 153:1 162:1 197:1 239:1 273:1 318:1 330:1 362:1 408:1 416:1 464:1 521:1 566:1 584:3 586:1 
-0.57315770785531 5:1 14:1 82:1 84:1 106:1 197:1 219:1 222:1 318:1 337:1 347:1 356:1 386:2 398:1 464:1 482:1 540:1 541:1 551:2 584:2 
-1 87:1 403:1 437:1 504:1 550:1 
-1 154:1 
-1 98:1 
-1 112:1 122:1 307:1 317:1 347:1 473:1 549:1 584:1 
-1 8:1 89:2 550:1 
-1 441:1 
-1 77:1 
-1 17:1 162:1 164:1 318:1 461:1 477:1 542:1 584:1 586:1 
-1 73:1 126:1 280:1 364:1 
-1 34:1 122:2 310:1 317:1 451:2 473:1 502:1 578:1 
-1 287:1 474:2 
-0.2816905390366074 10:1 88:1 213:1 348:1 
-0.4747955902168706 34:1 197:5 310:1 318:1 356:3 450:1 467:1 521:1 556:1 584:2 
-1 208:1 348:1 428:1 558:1 
-1 130:1 
-0.4563809689458296 145:1 146:1 178:1 219:1 397:1 445:1 466:1 542:1 586:1 
-0.7213440458193998 17:1 193:2 318:1 321:1 549:1 
-1 32:1 36:2 125:1 185:1 222:1 226:1 276:1 321:1 408:1 473:1 540:1 541:1 578:1 
-0.8248533946818277 32:1 195:1 276:1 401:4 478:1 540:1 584:4 
-1 47:1 126:1 184:2 203:1 206:1 416:1 584:2 
-1 130:1 
-0.2959222949559321 14:1 55:2 106:1 114:1 153:1 171:1 184:2 224:1 230:1 318:1 324:1 398:1 408:1 490:2 521:1 550:1 566:1 584:2 
-1 243:1 376:1 550:1 
-1 88:1 246:1 315:1 540:1 
-0.0439038913001328 47:3 89:1 122:1 356:1 390:6 450:1 479:1 518:6 540:1 543:1 584:1 
-0.06782157952346696 21:1 39:1 62:1 89:1 113:1 148:1 216:1 341:1 550:1 
-0.882899445975697 9:1 122:1 187:1 259:1 345:5 386:1 390:4 450:1 476:1 518:4 540:1 543:2 551:1 584:1 
-1 507:1 577:1 
-1 243:1 283:1 
-0.1682586569066186 141:1 203:2 248:1 390:1 408:1 550:1 585:1 
-0.5046043867494771 159:1 203:1 248:1 276:1 386:2 408:1 419:2 443:1 456:1 490:4 507:1 566:1 
-1 171:1 187:1 230:1 
-1 32:1 89:1 120:1 122:1 222:1 276:1 345:1 359:1 531:1 540:1 541:1 
-1 94:1 213:1 
-1 474:2 571:1 
-1 13:2 262:2 463:1 
-1 382:1 458:1 500:1 532:1 550:1 
-1 550:1 
-0.5343082477975799 45:1 47:1 55:1 318:1 354:1 398:1 412:1 416:1 439:1 481:1 529:1 541:1 586:1 
-1 4:1 21:1 28:1 51:1 144:1 155:1 200:1 291:2 405:1 
-1 3:1 47:1 55:1 70:1 146:1 171:1 207:1 222:1 268:1 303:1 316:1 318:1 398:1 407:1 489:1 541:1 550:1 586:1 
-0.9405772836957363 17:1 47:3 55:2 153:1 318:2 416:1 435:1 439:1 450:2 584:2 
-1 64:1 540:1 
-0.9275251157233999 41:1 64:1 111:1 217:2 262:1 422:2 463:1 512:1 520:1 581:1 588:1 
-1 287:1 474:2 
-1 474:2 508:1 
-1 8:1 43:1 81:1 279:1 331:1 334:1 430:1 434:1 
-1 
-1 
-1 
-1 
-0.6177726061564789 38:1 133:1 232:1 550:1 
-1 100:2 185:2 188:2 219:1 272:2 540:1 
-1 32:1 55:1 106:1 153:1 184:1 242:1 276:1 318:1 408:1 478:1 490:1 521:1 550:1 584:2 586:1 
-0.915973235878983 88:1 170:1 446:1 471:1 550:1 
-1 45:1 55:1 89:1 145:1 153:1 219:1 242:1 245:1 276:1 310:1 318:2 347:1 424:1 450:1 456:1 478:2 586:1 
-1 287:1 474:2 
-0.205924733190834 20:1 27:1 39:1 60:1 62:1 139:1 312:1 320:1 328:1 402:1 410:1 418:1 
-1 100:1 542:2 586:1 
-0.6585600605785286 21:2 28:1 144:2 155:1 200:1 291:2 
-0.4912858128873781 20:1 26:1 39:1 77:1 102:1 139:1 194:1 216:1 283:1 320:1 328:1 376:1 
-0.9907434625182151 32:1 74:2 195:1 222:1 276:1 318:1 375:1 385:2 492:1 541:1 550:1 584:2 
-1 
-0.8297102560175009 20:1 27:1 39:1 60:1 62:1 139:1 312:1 320:1 328:1 376:1 410:1 418:1 
-1 55:1 74:1 153:1 276:1 309:1 311:1 318:1 456:1 549:1 
-0.6256652148152566 55:1 74:1 89:1 120:1 123:1 153:1 224:1 276:1 318:1 330:1 408:1 456:1 549:1 586:1 
-1 474:2 499:1 
-0.7355262544408874 433:1 453:1 579:1 
-1 17:1 45:2 55:2 114:1 153:1 171:1 230:1 318:2 352:2 388:2 481:4 566:2 584:2 
-1 28:1 200:1 230:1 450:1 
-1 208:1 428:1 550:1 558:1 
-1 69:1 76:1 219:1 322:1 441:1 
-1 48:1 88:1 550:1 
-1 7:2 234:1 334:1 445:1 
-1 17:1 304:1 309:2 311:1 429:1 467:1 549:1 584:1 
-1 21:1 155:1 291:1 
-1 474:2 499:1 
-1 
-1 
-1 77:1 346:1 
-1 3:1 116:1 149:1 227:1 325:1 351:1 465:1 515:1 
-1 17:1 34:4 114:1 122:2 153:1 171:1 190:2 193:2 230:1 293:2 549:1 
-1 
-1 
-1 215:1 247:1 561:1 
-1 
-1 474:2 508:1 
-0.4274179086431134 29:1 43:1 262:2 267:2 520:2 553:1 
-0.5556948479992454 41:1 64:1 99:1 262:2 314:2 463:1 512:2 581:1 588:1 
-1 53:1 
-0.9891864257306805 474:2 499:1 
-1 147:1 514:1 550:1 
-0.2979191551690363 6:1 89:1 110:1 128:1 225:1 239:2 276:1 345:1 381:1 456:1 490:1 542:2 549:1 586:1 
-1 45:1 117:1 153:1 162:1 276:1 318:1 345:1 456:1 481:1 529:1 531:1 
-1 88:1 146:1 280:2 364:1 514:1 540:1 562:1 
-0.09139025291997772 37:1 81:1 255:1 264:1 279:1 315:1 331:1 334:1 430:1 434:1 469:1 487:1 
-1 34:3 89:1 122:2 153:1 190:1 193:1 234:1 276:1 318:1 345:1 429:1 451:1 456:1 461:1 477:1 513:1 531:1 
-0.905138893813449 25:1 103:1 167:1 282:1 567:1 
-0.5480229983533557 49:1 63:1 258:1 262:2 463:1 555:2 581:1 
-1 115:1 
-0.7135235904051593 11:1 115:1 
-1 552:1 
-1 334:1 
-1 540:1 
-1 474:2 571:1 
-1 3:1 61:1 241:1 465:1 515:1 
-0.8967597298951338 28:1 60:1 200:1 312:1 418:1 516:1 
-1 75:1 83:1 474:1 
-1 10:1 42:1 
-1 154:1 
-0.955647297910754 78:1 334:1 344:1 565:2 
-1 17:1 35:2 45:2 47:1 153:1 162:1 318:2 439:1 543:1 
-0.1967508132945179 17:1 40:1 47:1 54:1 105:1 108:1 119:1 153:1 162:1 163:1 245:1 318:1 332:1 408:1 416:1 424:1 439:1 521:1 566:1 584:2 586:1 
-0.7233711902477739 81:1 88:1 124:1 199:1 346:1 370:1 494:1 540:1 562:1 
-1 127:1 246:1 282:1 
-1 127:1 
-1 223:1 237:1 325:1 
-1 
-1 198:1 227:1 379:1 465:1 
-1 474:2 
-1 474:2 508:1 
-1 
-1 217:1 422:1 546:1 
-1 474:2 
-1 13:1 41:1 46:1 64:2 109:1 180:1 217:2 262:1 294:1 396:1 422:2 512:1 588:1 
-0.0523191474468309 16:1 55:1 238:1 318:1 330:1 398:1 413:1 476:1 490:1 541:1 550:1 586:1 
-1 86:1 92:1 219:1 454:1 
-1 
-1 287:1 474:2 
-1 441:1 
-1 348:1 
-0.42723738452507 325:3 349:1 
-1 167:1 348:1 
-1 26:1 48:1 348:1 
-1 225:1 326:1 426:1 500:1 527:1 562:1 
-1 161:1 170:1 235:1 252:1 
-0.7708621784248012 69:1 208:1 
-1 287:1 474:2 
-0.9685258949395082 92:1 128:1 219:1 335:1 454:1 542:1 
-1 42:1 540:1 
-1 202:1 562:1 
-1 497:1 
-0.939226028230841 88:1 96:1 542:1 562:1 
-1 48:1 136:1 550:1 
-1 32:1 153:1 242:1 276:1 408:1 478:1 
-1 552:1 
-1 
-0.1330639008989526 133:1 433:1 480:1 503:1 540:1 562:1 
-1 93:1 98:1 319:1 532:1 
-1 81:1 88:1 331:1 334:1 430:1 434:1 
-1 3:1 61:1 241:1 465:1 
-1 
-1 32:1 123:1 168:1 203:1 222:1 276:1 454:1 478:1 490:1 491:1 521:1 550:1 584:2 586:1 
-0.3357344702467614 64:1 101:1 264:1 308:2 342:1 562:1 
-1 550:1 
-1 61:1 116:1 149:1 172:1 205:1 227:1 391:1 465:1 511:1 515:1 550:1 560:1 
-1 61:1 241:1 465:1 
-1 26:1 348:1 425:1 
-0.5752103625954466 2:1 19:1 125:1 153:1 157:1 162:1 164:1 242:1 273:1 276:1 290:1 304:1 408:2 424:1 456:1 478:1 489:1 559:1 566:1 577:2 586:1 
-1 55:1 153:1 162:1 242:1 276:1 318:1 456:1 478:1 584:1 
-1 21:1 155:1 
-1 
-1 38:1 334:1 409:1 565:1 
-1 
-1 225:1 402:1 404:1 
-0.8126236039578376 21:1 155:1 278:1 
-1 235:1 540:1 
-0.5400299172113101 89:1 92:1 134:1 219:1 335:1 454:1 542:1 
-1 18:1 32:1 55:2 59:2 79:1 126:1 153:1 203:1 276:1 318:2 478:1 481:2 486:1 529:1 584:2 586:1 
-1 17:1 35:1 89:1 309:1 311:1 318:1 549:1 
-0.2550649975859702 21:1 28:1 155:1 291:1 
-1 540:1 
-1 154:1 
-1 
-1 
-1 
-1 
-1 20:1 21:1 27:1 39:2 102:1 139:1 216:1 278:1 291:1 328:1 448:1 
-1 75:1 474:1 485:1 533:1 
-0.5823044216113877 445:1 466:1 540:1 588:1 
-1 364:1 540:1 
-1 129:1 300:1 336:1 550:1 
-1 88:1 228:1 264:1 
-1 
-1 178:2 325:1 397:1 
-1 458:1 
-1 93:1 270:1 319:1 550:1 
-0.1523253759996348 10:1 66:2 355:1 468:1 544:1 
-0.1807529132970789 17:1 125:1 310:1 318:1 375:1 408:1 584:1 
-1 16:1 219:1 542:1 
-1 249:1 357:1 453:1 472:1 540:1 
-0.7817598161091235 17:1 318:1 329:1 
-1 
-0.5083380024324381 88:1 165:1 453:1 
-1 
-1 287:1 474:2 
-0.7307840472875959 146:1 169:1 351:1 
-0.7134519946818366 181:1 537:1 
-0.08574580956810732 17:1 67:1 141:1 162:1 163:1 318:1 360:1 401:1 542:1 584:3 586:1 
-1 67:1 153:1 162:1 242:2 304:1 318:1 584:1 
-1 181:1 537:1 
-1 257:1 308:1 348:1 
-1 48:1 550:1 
-1 162:1 318:1 521:1 584:1 
-0.5281676820176506 86:1 89:1 185:1 188:1 239:1 272:1 380:1 
-1 213:1 334:1 562:1 
-0.1225604381554462 19:1 44:1 128:1 239:1 290:1 330:1 413:1 450:1 454:1 489:1 542:1 
-1 30:1 
-1 284:1 
-1 63:1 348:1 429:1 432:1 457:1 570:1 
-0.2608876109752826 169:1 414:1 
-1 234:1 
-1 146:1 540:1 
-1 
-0.9711626638581254 138:2 457:2 550:2 
-1 64:1 81:1 236:1 256:1 279:1 308:1 331:1 334:1 426:1 430:1 434:1 
-1 17:1 47:1 55:2 112:2 153:1 162:1 318:2 416:1 424:1 439:1 481:2 492:1 584:2 
-0.08842008316609173 162:1 164:1 330:1 362:1 542:1 580:1 586:1 
-1 255:1 487:1 
-1 3:1 61:1 241:1 297:1 302:1 
-0.1125720464482522 14:1 40:1 84:1 105:1 106:1 108:1 113:1 141:2 163:1 176:1 197:1 222:1 316:1 318:1 332:1 398:1 408:3 416:1 482:1 489:1 541:1 550:1 584:2 
-0.05757107053226423 202:1 244:1 315:1 334:1 436:1 
-1 474:2 508:1 
-1 483:1 550:1 
-1 88:1 398:1 550:1 562:1 
-1 550:1 
-1 69:1 215:1 438:1 
-1 69:1 221:1 253:1 402:1 550:1 
-0.844521821567267 45:5 47:1 67:2 72:1 113:3 153:1 162:1 229:1 231:1 276:1 318:2 408:5 439:1 456:1 534:1 586:1 
-1 
-1 
-1 4:1 21:2 51:1 155:1 230:1 278:1 291:1 334:1 405:1 450:1 
-1 544:1 579:1 
-1 173:1 
-0.4191415100213954 3:1 114:1 153:1 203:1 230:2 276:1 318:1 408:1 424:1 443:1 450:1 456:1 528:2 584:2 
-1 280:1 423:1 
-0.1421799032513546 145:1 219:1 245:1 330:3 586:1 
-0.6737744583602836 20:1 21:1 62:1 102:1 139:1 216:2 291:1 328:1 448:1 503:1 
-0.9408920800902413 64:1 85:1 330:2 542:1 586:1 
-1 223:1 308:1 
-0.5262602528389029 208:1 255:1 348:1 428:1 487:1 558:1 
-0.5469199793405091 17:1 31:3 203:1 204:1 360:1 374:1 406:1 408:1 509:1 566:1 569:1 584:2 
-0.9688581641844038 65:1 77:1 133:1 194:1 346:1 480:1 540:1 562:1 
-1 
-1 
-1 145:1 219:1 245:1 586:1 
-1 38:1 315:1 540:1 
-1 
-1 38:1 201:1 280:1 550:1 
-1 35:1 153:1 276:1 318:2 374:1 408:1 424:1 456:1 549:1 566:1 569:1 584:2 
-1 474:2 508:1 
-1 
-1 
-1 
-1 38:1 540:1 562:1 
-1 
-1 
-1 
-1 
-1 285:1 344:1 506:1 522:1 559:1 567:2 
-1 454:1 
-1 87:1 334:1 379:1 403:1 437:1 504:1 
-0.8678143538237626 81:1 124:2 370:2 430:1 434:1 
-1 588:1 
-1 
-1 111:1 165:1 262:1 520:1 
-1 474:2 499:1 
-1 334:1 426:1 
-0.825774980862895 57:2 104:1 285:1 340:1 344:1 383:1 522:1 583:1 
-1 552:1 
-1 
-1 80:1 285:1 305:1 340:1 383:1 522:1 
-1 15:1 50:1 152:1 201:1 384:1 420:1 540:1 564:1 
-1 15:1 50:1 152:1 201:1 384:1 420:1 550:1 564:1 
-1 50:1 94:1 152:1 201:1 251:1 420:1 
-1 50:1 152:1 201:1 251:1 420:1 540:1 
-1 50:1 152:1 201:1 251:1 420:1 544:1 
-1 50:1 152:1 201:1 281:1 420:1 540:1 
-1 50:1 152:1 201:1 281:1 420:1 540:1 
-0.548285694930847 50:1 152:1 201:1 420:1 540:1 564:1 
-1 15:1 50:1 152:1 201:1 251:1 354:1 384:1 420:1 
-1 50:1 152:1 201:1 265:1 420:1 540:1 
-0.9245656895117653 50:1 152:1 201:1 354:1 420:1 
-1 50:1 152:1 201:1 251:1 420:1 540:1 
-1 15:1 50:1 152:1 201:1 265:1 354:1 384:1 420:1 
-1 50:1 152:1 201:1 420:1 540:1 564:1 
-1 50:1 152:1 201:1 265:1 420:1 550:1 
-1 50:1 152:1 201:1 354:1 420:1 
-1 50:1 152:1 201:1 420:1 550:1 564:1 
-1 75:1 137:1 474:1 
-1 50:1 152:1 201:1 265:1 351:1 420:1 
-1 107:1 141:1 146:1 153:1 224:1 276:1 345:1 392:1 408:3 456:1 486:1 490:1 531:1 566:1 584:2 
-1 50:1 152:1 201:1 265:1 334:1 420:1 
-1 50:1 152:1 201:1 420:1 540:1 564:1 
-0.8956590215102328 22:1 32:1 55:1 207:1 222:1 276:1 318:2 345:1 408:1 454:1 489:1 490:1 521:1 531:1 541:1 550:1 566:1 584:2 586:1 
-0.02928777037994993 89:1 162:1 203:1 204:1 207:1 223:1 276:1 292:1 345:1 360:1 385:1 386:1 401:1 456:1 531:1 
-1 
-1 
-1 
-1 15:1 50:1 152:1 201:1 269:1 384:1 420:1 550:1 
-1 50:1 152:1 201:1 420:1 540:1 564:1 
-1 50:1 152:1 201:1 420:1 550:1 564:1 
-1 50:1 152:1 201:1 269:1 420:1 550:1 
-1 15:1 50:1 152:1 201:1 251:1 384:1 420:1 550:1 
-1 50:1 94:1 152:1 201:1 269:1 420:1 
-1 50:1 152:1 201:1 265:1 420:1 540:1 
-1 50:1 152:1 201:1 420:1 550:1 564:1 
-1 15:1 50:1 152:1 201:1 265:1 384:1 420:1 540:1 
-1 50:1 152:1 201:1 354:1 420:1 
-1 50:1 152:1 201:1 251:1 420:1 550:1 
-1 50:1 94:1 152:1 201:1 420:1 564:1 
-1 15:1 50:1 152:1 201:1 251:1 384:1 420:1 550:1 
-1 15:1 50:1 152:1 201:1 251:1 384:1 420:1 540:1 
-0.9270173435051925 98:1 337:1 
-1 37:1 178:1 236:1 371:1 427:1 540:1 
-1 35:1 67:1 162:1 276:1 304:1 318:3 345:1 360:1 456:1 461:1 531:1 584:3 
-1 61:1 241:1 550:1 
-1 16:1 34:2 162:1 276:1 345:1 360:1 375:1 456:1 479:1 528:1 531:1 584:5 
-1 156:1 271:1 395:1 480:1 550:1 562:1 
-1 45:1 55:2 106:1 162:1 276:1 318:2 345:1 360:1 456:1 481:2 531:1 586:1 
-1 3:1 61:1 241:1 465:1 
-1 130:1 
-1 
-0.1750221911963591 8:2 57:2 66:1 80:1 225:2 285:2 340:1 344:2 383:1 475:1 567:4 576:1 
-0.6532598860969134 202:1 237:1 244:1 368:1 436:1 550:1 
-1 118:1 196:1 295:1 444:1 544:1 
-0.5953265621955321 61:2 70:1 241:2 268:1 297:1 302:1 544:1 
-1 49:2 217:2 261:2 421:2 
-1 88:1 185:1 550:1 
-1 53:1 468:1 
-1 101:1 151:1 361:1 550:1 562:2 
-1 
-1 
-1 
-1 201:1 353:1 432:1 550:1 570:1 
-1 457:1 540:1 548:1 562:1 
-1 75:1 83:1 289:1 474:1 
-1 
-1 170:2 254:2 343:2 
-0.5264680027329326 141:1 153:1 184:1 206:1 280:1 303:1 392:1 398:1 408:1 473:1 521:1 550:1 578:1 584:2 
-1 249:1 500:1 
-1 177:1 212:2 213:1 308:1 550:1 
-1 94:1 308:1 
-0.4284294184238685 88:1 249:1 308:2 550:1 
-1 34:1 153:1 162:1 242:1 276:1 318:2 375:1 456:1 478:1 584:2 
-1 35:1 162:1 203:1 242:1 276:1 318:1 360:1 386:1 408:1 456:1 460:1 478:1 566:1 584:2 
-1 474:2 508:1 
-0.3245152307891893 61:1 116:1 149:1 172:1 227:1 325:1 391:1 465:1 515:1 550:1 
-1 153:1 162:1 242:1 276:1 456:1 478:1 
-0.06949957635026376 19:1 67:1 79:1 162:1 276:1 292:1 304:1 318:1 329:1 360:1 386:2 388:1 456:1 478:1 486:2 489:1 490:1 566:1 584:1 586:1 
-1 483:1 497:1 550:1 
-1 26:1 38:1 232:1 330:1 550:1 
-0.2352714929606749 40:1 67:1 79:1 105:1 108:1 163:1 222:1 299:1 318:1 332:1 398:1 408:1 541:1 550:1 566:1 584:2 
-1 103:1 372:1 
-0.10630537179903 35:1 45:1 89:2 123:1 153:1 193:1 226:1 276:1 318:1 386:2 408:1 456:1 460:1 461:1 478:1 513:1 551:2 584:1 586:1 
-0.1812034859894684 50:1 88:1 118:1 185:1 201:1 295:1 334:1 429:1 432:1 444:1 
-0.1289664110834555 61:1 70:1 106:1 142:1 146:1 191:1 242:1 268:1 276:1 292:1 297:1 303:1 318:1 386:1 478:1 586:1 
-1 8:1 183:1 382:1 433:1 550:1 561:1 
-1 11:2 30:2 
-0.0851549990717773 209:2 
-1 284:1 
-1 30:1 181:1 537:1 
-1 30:2 
-1 30:1 181:1 
-0.2715615155479259 209:2 
-0.3567578454040533 284:2 
-1 284:2 
-1 50:1 152:1 201:1 265:1 334:1 420:1 
-1 474:2 508:1 
-0.6126791710413674 3:1 61:1 218:1 241:1 457:1 
-1 88:1 135:1 326:1 
-1 246:1 463:1 574:1 
-1 47:1 67:1 71:1 203:1 204:1 386:1 416:1 513:1 
-1 15:1 50:1 152:1 201:1 265:1 384:1 420:1 540:1 
-1 53:1 154:1 
-1 449:1 550:2 
-1 88:1 550:1 
-1 215:1 228:1 303:1 561:1 
-1 128:1 145:1 219:1 542:1 586:1 
-1 119:1 542:1 
-1 16:1 55:1 79:1 114:1 153:1 230:1 276:1 318:2 329:1 456:1 486:1 490:1 513:1 584:1 
-1 228:1 500:1 
-1 21:1 278:1 291:1 543:1 
-1 
