svm_type c_svc
kernel_type linear
nr_class 2
total_sv 1166
rho -0.465633
label 1 -1
nr_sv 600 566
SV
1 
0.5718861402189095 166:1 438:2 
1 237:2 
0.7365388772017152 4:2 42:1 55:1 62:1 95:1 104:1 107:3 109:2 202:1 213:1 220:1 358:1 410:1 455:1 517:1 539:1 577:2 
0.2328298241840314 55:1 85:4 100:1 130:2 193:1 197:1 276:1 313:1 349:2 388:1 405:4 409:1 416:1 452:1 519:1 539:2 558:2 
1 119:1 219:1 315:1 319:1 388:1 403:1 405:1 539:1 577:3 
0.5128042831727059 200:1 299:1 349:2 428:1 577:1 
0.5652452195715647 68:1 160:1 188:1 269:1 403:1 552:4 
1 196:1 344:1 
0.1863839965756383 92:2 99:1 142:1 200:1 264:1 276:1 313:1 341:1 349:2 387:1 405:2 452:1 558:1 
1 251:1 403:1 
0.8449386477090614 43:1 45:1 53:1 92:2 125:1 139:1 219:1 226:1 276:2 315:2 349:2 385:1 388:1 405:2 452:1 512:1 539:1 577:1 
1 17:1 279:1 287:1 338:1 
1 426:1 
0.870832299394351 151:1 195:1 307:1 403:1 417:1 494:1 
1 166:1 438:2 
1 
0.6789237471756481 14:1 29:2 43:1 49:2 200:1 313:1 315:2 405:1 413:1 
1 16:1 59:1 84:1 241:1 453:1 549:1 
0.7123191304647365 206:2 220:1 403:1 552:1 
1 
0.1335802754494835 398:2 
0.07272131611555188 43:7 56:1 89:1 97:2 99:1 176:1 226:1 264:1 286:2 315:1 388:1 403:1 405:4 413:1 479:2 482:1 512:1 516:1 531:1 535:1 558:2 563:1 577:8 
1 19:1 403:1 422:1 
0.8455205152168449 31:1 175:1 312:1 403:1 406:1 469:1 
1 15:1 35:1 102:2 135:1 136:1 210:1 408:1 418:1 444:2 468:1 
1 50:1 151:1 195:1 403:1 417:1 494:1 
0.0002396555735149963 33:1 108:1 163:2 195:1 262:1 282:1 296:1 346:1 404:1 419:2 553:1 
0.4904958857882603 46:2 77:1 248:1 346:1 373:1 419:1 451:1 
1 228:1 278:1 386:1 
0.7744789153526693 171:1 172:3 257:2 382:1 
0.8219713968399783 110:1 353:2 369:1 453:1 538:1 552:1 
0.1725520123451633 63:2 336:1 369:1 379:1 422:1 426:1 
1 
1 218:1 
1 110:1 
1 
0.788519697941131 26:1 56:1 99:1 114:6 180:1 225:1 264:1 276:1 315:1 338:3 388:1 403:1 405:5 452:1 482:1 515:1 516:1 525:1 534:1 558:3 563:1 564:2 577:7 
0.0661554490516809 11:1 26:1 34:1 55:1 85:8 114:2 130:1 176:1 193:1 276:2 315:2 337:2 388:3 405:4 426:1 507:1 539:3 558:2 565:1 
0.1343766872900516 3:1 95:1 118:1 213:1 239:1 244:1 373:1 470:1 
1 141:1 176:1 213:1 533:2 
0.1056788371742392 43:1 65:1 92:2 114:1 125:1 143:1 276:2 304:1 315:1 378:1 388:1 452:1 457:1 464:1 539:1 550:1 
1 178:1 426:1 
0.8697017839089101 54:2 
1 35:1 210:1 426:1 
0.08966426351714954 16:1 110:1 112:1 145:1 192:1 394:1 462:1 568:1 
1 110:1 253:1 453:1 538:1 
1 247:1 262:1 
0.1971598934822807 32:1 36:2 97:1 130:1 138:4 155:1 176:1 200:1 212:1 276:2 342:8 388:2 405:7 416:2 452:1 467:1 503:1 558:2 
0.4300726025319969 110:1 195:1 207:1 406:1 
0.2991584266344771 11:1 99:1 130:2 193:1 227:1 264:1 276:2 305:2 306:1 315:2 337:1 342:5 405:4 452:1 488:1 512:1 531:1 558:4 577:7 
1 135:1 210:1 472:1 
0.9119841527628522 43:1 55:1 140:1 176:1 226:1 276:1 305:1 313:1 315:2 342:2 405:2 452:1 464:1 558:1 577:2 
1 118:1 533:1 
1 426:1 
1 142:2 446:1 
0.5341123313214098 211:1 
1 237:2 
0.1436665134221639 14:1 36:2 97:2 167:1 176:1 219:2 286:2 313:1 342:7 367:2 388:5 405:3 409:1 531:1 539:3 558:1 
0.6372508264030461 87:2 165:2 268:2 
1 110:2 453:2 490:2 
1 174:1 262:2 365:1 460:1 544:2 
1 312:1 
1 369:1 
0.2939058398893087 45:1 83:1 85:2 92:1 99:1 125:1 147:1 178:1 264:1 276:2 282:1 288:1 315:1 349:2 388:2 405:1 452:1 512:1 577:1 
1 91:1 302:1 426:1 518:1 
0.2154731206906096 14:1 69:1 99:1 197:1 236:6 264:1 303:2 313:1 315:1 319:1 332:1 405:3 413:1 489:1 558:1 577:6 
0.03839797693054553 16:1 462:1 549:1 
1 55:1 92:1 154:1 282:1 571:1 
0.8211059932047687 71:1 142:1 282:2 440:1 472:1 
1 302:1 
1 14:1 313:1 384:1 388:1 405:1 416:1 481:1 543:1 
1 556:1 557:1 
0.3556950729617829 46:2 346:1 419:1 
1 262:2 267:2 510:2 511:2 
0.08320125529599796 8:5 90:1 94:1 101:1 164:7 317:1 402:1 403:2 411:1 433:1 443:1 484:1 501:1 
0.6529810681618579 115:1 142:1 189:1 292:1 351:1 
1 48:1 90:1 312:1 402:1 426:1 433:1 443:1 501:1 
0.6742187047933891 23:1 40:1 46:1 346:1 419:1 541:1 
0.807955391662769 242:1 296:1 553:1 
1 7:1 47:1 218:1 540:1 557:1 
1 117:1 302:1 
0.1181518533498381 14:1 200:1 208:1 577:1 
0.9905156921968222 26:1 45:1 128:1 138:1 176:1 213:1 219:1 276:1 303:2 403:1 405:2 516:1 533:1 563:1 
0.1331364655805764 79:1 554:1 
0.9147588701498196 59:1 112:1 145:1 192:1 209:1 241:1 462:1 
1 142:1 282:1 298:1 335:1 375:1 403:1 424:1 
1 
0.8715935564527 420:1 421:1 557:1 
1 47:1 278:1 
0.7782233793859762 126:1 278:1 412:1 502:1 
0.8256164713423494 47:1 403:1 423:1 
1 
1 
1 246:1 298:1 361:1 403:1 
1 403:1 
1 336:1 403:1 
0.7927891264221342 386:1 403:1 
1 195:1 246:1 278:1 562:1 
1 78:1 110:1 328:1 421:1 
1 90:1 402:1 403:1 433:1 501:1 
1 
0.6441596737847264 109:2 114:3 122:2 125:1 180:1 314:2 337:1 388:1 416:1 477:1 577:2 
1 122:2 205:2 435:1 448:1 498:2 
0.7254139059883685 17:1 114:2 155:1 176:1 200:1 212:1 276:2 279:1 315:1 319:1 452:1 467:1 468:1 486:1 
0.8463241417926144 25:2 26:1 65:2 141:1 176:1 213:1 244:1 276:1 315:2 403:1 516:1 531:1 563:1 564:2 
0.002699264919424997 26:1 43:1 110:1 276:1 315:1 319:1 516:1 550:1 563:1 
0.3980091481997088 295:1 381:1 
0.01588030243050426 62:1 262:1 289:1 348:1 364:1 397:1 426:1 510:1 556:1 
0.7475620118331369 164:1 168:1 391:1 
1 23:1 40:1 541:1 
1 168:1 324:1 419:1 
1 
1 12:1 248:1 262:1 278:1 404:1 434:1 451:1 460:1 
1 
1 179:1 405:1 
0.4101811036817465 38:1 62:1 93:2 168:2 247:1 253:1 324:1 449:1 460:1 510:1 537:1 580:1 
0.54329735681189 23:1 40:1 393:2 541:1 
1 23:1 40:1 393:1 541:1 
1 403:1 
0.3376775666550906 67:1 423:1 
1 247:1 382:1 437:1 471:1 
1 38:1 62:1 129:1 194:1 247:2 282:1 434:1 460:1 552:1 574:1 580:1 
0.7250927687849513 23:1 40:1 399:1 541:1 
0.9624566961831829 23:1 40:1 399:1 541:1 
1 
1 44:1 62:2 91:1 94:1 106:1 175:1 194:2 312:1 330:2 403:1 451:1 548:1 552:1 
1 110:1 
1 110:1 
0.004341706368124177 4:1 20:2 75:2 107:1 109:1 137:1 155:1 161:1 202:1 240:2 246:1 533:1 555:1 571:1 577:1 
1 262:1 311:1 
0.2139006914610405 179:1 262:1 267:1 348:1 364:1 426:1 475:1 510:1 
0.9680931308476944 163:1 196:1 247:1 295:1 344:1 419:1 
0.6902633526651908 129:1 191:1 437:1 460:1 575:1 
0.6400319956627778 38:1 62:1 129:1 293:1 460:1 472:1 580:1 
1 214:2 216:2 223:2 252:2 321:2 
1 214:2 216:2 223:2 252:2 321:2 
1 165:2 270:2 
1 214:2 216:2 223:2 252:2 321:2 
0.1920143600745488 165:2 222:2 270:2 
1 72:1 165:1 254:1 320:1 436:1 
0.7426755179147415 165:2 268:2 
1 37:2 359:2 522:2 
0.4146849543675942 37:2 522:2 
0.878936662853096 74:1 171:1 186:1 310:1 312:1 403:1 
1 214:2 216:2 223:2 252:2 321:2 
1 87:2 359:2 522:2 
0.8632939584927445 216:2 223:2 252:2 321:2 
1 162:1 438:2 
1 
1 
1 
1 403:1 412:1 502:1 579:1 
0.5699905835426923 196:1 243:1 345:2 366:1 432:1 434:2 536:1 
0.8844628596362936 21:1 38:1 62:1 235:1 262:1 293:1 311:1 344:1 346:2 419:2 580:1 
1 291:1 
0.5341945168577247 323:1 
1 117:1 403:1 
1 59:1 241:1 
1 88:1 161:1 403:1 533:1 
1 403:1 
1 75:2 82:1 91:1 
0.659085168878019 33:1 96:1 150:1 206:1 251:2 336:1 403:1 
1 403:1 
0.9807455619923154 5:1 255:1 403:1 429:1 562:1 
1 14:1 36:2 167:1 200:1 212:1 276:1 315:1 405:1 489:1 512:1 550:1 558:1 577:1 
0.8499808562624308 28:2 36:2 55:1 95:1 100:1 213:1 276:2 306:1 315:1 388:1 409:1 448:1 452:1 480:1 488:1 508:1 533:1 539:1 577:1 
1 78:2 124:1 280:1 368:1 403:1 422:2 427:1 431:1 497:1 500:1 
1 
1 
1 
0.5417460106064341 482:1 520:2 533:1 550:1 577:2 
0.1413202896017154 14:1 28:1 36:2 109:1 197:1 276:1 350:1 358:1 384:1 405:1 439:1 459:1 481:1 489:1 508:1 543:1 577:1 
0.8195800883151624 7:1 209:1 218:1 423:1 
1 
1 
1 
1 14:1 43:1 167:1 276:1 305:2 315:2 319:2 409:1 577:2 
1 453:1 
0.1824108538193758 160:1 177:1 403:1 
0.8891305185864102 19:1 91:1 153:1 552:1 
0.0002832036903034352 79:1 360:1 438:1 554:1 
1 55:1 95:1 142:1 181:1 213:1 239:1 275:1 377:1 
0.360330087333515 68:1 74:1 96:1 269:1 403:1 404:1 
1 
0.5820436786148678 34:1 65:1 81:1 136:1 149:1 276:2 303:2 315:3 319:1 327:1 430:1 470:1 488:1 489:1 512:1 531:1 533:1 550:1 577:1 
0.4736089684809019 28:4 116:3 180:3 182:1 259:3 315:1 347:1 452:1 477:3 480:2 515:1 564:5 577:3 
0.7884241370080255 348:1 364:1 403:1 449:1 475:1 510:1 552:2 
0.2873971841304476 92:1 197:1 200:1 276:2 315:1 319:1 349:2 439:1 452:1 486:1 
0.4924948349971638 343:1 373:1 403:1 412:1 502:1 579:1 
0.6942649227591525 38:1 62:1 155:1 240:1 262:2 289:1 293:1 311:2 397:1 580:1 
1 234:1 336:1 403:1 
0.611249563804584 272:1 396:1 403:1 
1 20:1 62:1 75:1 86:1 128:1 161:1 176:1 200:1 276:2 327:1 349:2 405:1 414:1 452:1 461:1 512:1 531:1 533:1 558:1 577:2 
0.1207538290967533 62:1 91:2 110:1 282:1 
1 28:2 122:2 185:2 276:2 349:2 409:1 425:1 452:1 478:1 519:1 
1 323:1 
1 403:1 497:1 
0.7463384524223492 402:1 
1 33:1 557:1 
1 41:1 43:1 176:1 315:1 319:1 337:1 403:1 447:2 479:3 516:1 524:1 534:1 535:1 
1 49:5 109:2 122:2 337:1 338:1 347:3 388:1 392:2 409:1 416:1 577:2 
1 302:1 403:1 
0.1336370136188237 79:1 356:1 438:1 
1 16:1 451:1 462:1 
1 403:1 
1 278:1 
1 251:1 403:1 
1 80:1 217:1 285:1 
1 74:1 186:1 210:1 224:1 521:1 540:1 
1 
1 162:1 438:2 
1 14:1 29:1 176:1 200:1 315:2 385:1 467:1 486:1 512:1 
0.0737147013319307 38:1 62:1 248:1 262:2 293:1 311:2 340:4 362:1 451:1 580:1 
1 509:1 
1 14:1 185:1 200:1 315:1 342:1 425:1 457:1 466:1 478:1 545:1 
1 2:1 14:1 81:1 92:1 113:1 114:2 167:1 176:1 185:1 200:1 212:1 213:1 276:1 315:1 342:1 533:1 
1 114:2 200:1 276:2 315:1 319:1 452:1 
0.7194601740514708 14:1 29:1 55:1 92:1 119:1 176:1 221:1 232:1 304:1 315:1 409:1 457:1 478:1 533:1 542:1 551:1 
1 33:1 272:1 278:1 396:1 560:1 
0.0007327357585452948 14:1 69:1 178:1 315:1 457:1 466:2 545:1 
0.7005827946729523 43:1 278:1 315:1 319:1 474:2 482:2 516:1 535:1 
1 26:1 110:1 276:1 315:2 319:2 342:2 516:1 563:1 564:2 
1 157:1 165:1 320:1 436:1 442:1 473:1 
0.2217302136322393 324:1 403:1 492:1 
1 59:1 462:1 549:1 
1 
1 33:1 242:1 245:1 403:1 518:1 
1 110:1 115:1 189:1 292:1 339:1 440:1 
1 6:1 339:1 382:1 429:1 453:1 
1 109:1 110:1 122:2 338:1 347:3 388:1 392:2 416:1 479:4 577:2 
1 49:1 92:2 122:2 185:1 392:2 405:2 409:1 447:1 478:1 558:2 
1 
1 
0.05503787658314231 24:1 64:1 76:1 121:1 159:1 204:1 300:1 380:1 390:2 503:1 566:1 
1 207:2 220:1 278:1 355:1 
1 43:1 110:1 457:1 
1 47:1 403:1 
1 91:1 213:1 274:1 382:1 470:1 
1 142:1 
1 160:1 339:1 
1 250:1 361:1 
1 
0.2969804755276926 32:2 55:1 70:1 83:1 107:1 181:1 183:1 229:1 239:1 274:2 349:1 391:1 455:1 503:1 577:1 
1 
1 16:1 59:1 68:1 188:1 241:1 269:1 297:1 404:1 472:1 
0.0762373982609143 130:1 185:1 227:1 276:2 315:1 349:2 435:1 448:1 452:1 480:1 508:1 577:2 
1 16:1 192:1 462:1 
1 53:1 92:1 110:1 167:1 176:1 232:1 305:2 358:1 378:1 388:2 416:1 447:1 535:1 539:1 551:1 
0.8221358018238523 176:1 430:1 
1 28:1 197:1 198:1 276:2 315:1 349:2 409:1 448:1 452:1 508:1 577:1 
1 552:2 
0.8724883840187317 173:1 328:1 426:1 427:1 431:1 
0.8255173200773265 255:1 351:1 
1 162:1 438:2 
1 110:1 
0.8184435148955153 150:1 251:2 285:1 373:1 403:1 
1 21:1 285:1 403:1 496:1 
1 45:1 178:2 181:1 213:1 273:1 304:2 403:1 457:1 466:1 535:1 
0.6366480177663065 14:1 176:1 200:1 276:1 306:1 315:3 319:1 337:1 405:1 413:1 479:2 489:1 512:1 531:1 558:1 577:2 
0.07417482669352995 304:2 315:1 347:1 382:1 479:3 516:1 535:1 542:2 545:1 
1 162:1 438:2 
0.474627638049337 262:1 311:1 346:2 365:1 419:2 
0.5913599039586032 200:1 219:1 221:1 405:1 
1 16:1 59:1 192:1 241:1 462:1 
0.6796812818839276 16:1 49:3 52:1 155:1 212:1 240:1 276:2 405:1 413:1 519:1 577:2 
0.9242711322646593 48:1 110:1 
0.525889058609096 176:1 472:1 
0.0358337406450412 6:2 426:1 
1 
1 
1 
1 323:1 
1 323:1 
0.5076708583306403 9:1 91:2 256:1 266:1 302:1 334:1 518:1 557:1 
0.2438804309815318 104:1 114:2 142:1 181:1 229:2 275:1 377:1 551:1 
1 162:1 438:2 
1 98:1 272:1 278:1 379:1 396:1 552:1 
0.6104957454189712 127:1 253:1 509:2 
0.4649793346987184 53:1 91:1 92:1 114:2 185:1 276:2 315:1 372:1 401:1 409:1 452:1 
1 114:2 176:1 178:1 181:1 212:1 273:1 276:2 405:2 409:1 452:1 459:1 558:2 577:1 
0.4391565848348316 58:1 258:1 403:1 
0.453678257415738 26:1 57:2 66:2 92:1 114:2 120:2 158:1 263:1 276:1 315:1 332:1 358:1 389:2 403:1 405:1 489:1 512:1 558:1 
1 14:1 30:1 65:1 92:1 178:1 200:1 315:1 536:1 
1 38:1 62:1 108:2 184:2 262:2 460:1 510:2 574:1 580:1 
1 91:1 164:1 174:1 196:1 235:1 243:1 366:1 403:1 432:1 505:1 
1 59:1 110:1 241:1 321:1 523:1 
1 28:6 114:2 122:2 156:2 182:1 185:2 187:2 276:2 409:1 425:2 452:1 478:2 515:1 
0.5423937662569945 4:2 14:1 20:1 62:1 75:1 86:1 107:2 114:2 167:1 176:1 200:1 202:1 219:1 276:1 315:1 324:1 327:1 405:1 414:1 461:1 495:1 512:1 531:1 533:1 558:1 577:2 
1 33:1 63:1 110:1 124:1 368:1 427:1 431:1 
1 
0.5342320962580772 80:1 
1 110:1 203:1 555:1 
1 211:1 
0.9520244368166622 5:1 110:1 255:1 295:1 
1 110:1 132:1 234:1 272:1 391:1 396:1 422:1 492:1 560:1 
1 291:1 
1 
1 
0.1338982911968861 79:1 438:1 546:1 
1 
1 
0.09220700090194635 92:3 200:1 212:1 219:2 276:2 305:4 388:1 405:3 447:1 452:1 539:1 550:1 558:1 
1 17:1 287:1 321:1 
1 323:1 
1 552:1 
0.7989290994207834 178:1 215:1 
0.740908964690048 62:2 78:1 124:1 173:1 280:1 363:1 368:1 426:1 427:1 431:1 
0.2595924321912162 55:2 128:1 181:1 239:1 301:2 503:2 533:1 
0.9352303748821917 24:1 54:1 111:1 335:1 340:1 362:1 380:1 390:1 487:1 503:1 570:1 576:1 
1 
0.6262112863203069 26:1 197:1 198:1 219:1 276:2 349:3 388:1 403:1 405:1 416:1 447:1 577:2 
0.1068394302884039 14:1 28:1 70:1 122:1 139:1 146:1 167:1 200:1 265:3 276:1 299:2 315:1 387:1 388:2 577:2 
1 166:1 438:2 
0.6632282788877508 438:2 485:1 
1 386:1 
0.07956478892981325 14:1 36:2 43:1 149:2 197:1 208:1 221:1 276:1 315:2 319:1 337:1 384:1 385:1 405:1 439:1 478:1 481:1 482:1 543:1 
1 1:1 17:3 51:1 92:1 279:2 287:3 308:1 309:1 321:1 325:1 450:1 506:1 
1 43:1 276:2 315:1 319:1 349:2 409:1 452:1 489:1 577:1 
0.7300003544675446 110:1 115:1 292:1 351:1 407:1 465:1 
0.4060227115276244 55:1 213:1 533:1 551:1 
1 79:1 360:1 438:1 554:1 
1 
1 278:1 386:1 
0.1785273933125941 24:1 54:1 76:1 111:2 121:1 159:1 204:1 277:1 300:1 335:1 380:1 390:1 487:1 566:1 570:1 576:1 
1 419:1 
0.9089071621583472 62:1 142:1 164:1 188:1 437:1 460:1 530:1 574:1 575:1 
0.2654840874842076 28:2 122:1 156:1 182:1 185:1 276:2 349:2 409:1 452:1 
1 224:1 403:1 469:1 
1 91:1 134:1 228:1 386:1 403:1 
1 128:1 200:1 276:1 313:1 315:2 319:1 349:2 405:1 452:1 489:1 512:1 533:1 550:1 558:1 577:2 
1 
1 
1 79:1 360:1 438:1 
1 92:4 155:1 176:1 200:1 212:1 219:2 240:1 276:2 315:1 349:4 405:3 447:1 452:1 458:1 467:1 486:1 489:2 558:1 
1 438:2 485:1 
1 
1 17:1 22:1 287:1 308:1 325:1 
1 245:1 302:1 355:1 497:1 504:1 
1 438:2 
1 91:1 182:1 276:2 315:1 349:2 405:1 409:1 448:1 452:1 508:1 
0.4681981241965869 390:2 
1 281:1 438:2 
1 165:2 270:2 561:2 
1 26:1 28:1 34:1 55:1 92:1 221:1 276:2 304:1 349:2 388:1 426:1 437:1 454:1 458:1 508:1 533:1 539:1 551:1 565:1 
0.5428085299742553 12:2 23:1 40:1 262:2 541:1 
1 127:1 315:1 
1 88:1 
1 6:1 220:1 321:1 426:1 476:1 565:1 
0.05026233692530693 62:1 403:1 
1 379:1 
0.7028606416667103 195:1 381:1 403:1 407:1 429:1 562:1 
1 211:1 
0.2108163398832614 14:1 43:2 65:2 201:2 276:1 315:2 489:1 543:1 577:2 
0.6779919403205615 138:1 232:1 319:1 341:1 387:1 405:2 409:1 550:1 558:1 
1 215:1 253:1 
0.3444932603172469 79:1 283:1 356:1 438:1 
1 64:1 376:1 442:1 473:1 
1 550:1 
0.5921308458740966 363:2 
1 79:1 356:1 438:1 
0.9828708138283797 166:1 438:2 
0.3010482163459336 87:2 256:2 266:2 
0.9382667834400555 35:1 110:1 142:1 418:1 435:1 468:2 
1 12:2 38:1 44:1 62:2 106:1 174:1 262:2 289:1 397:1 445:1 511:2 580:1 
1 
1 27:1 238:1 296:1 429:1 527:1 548:1 553:1 
1 49:2 118:1 176:1 197:1 244:1 315:1 319:1 403:1 413:1 439:1 516:1 533:1 535:1 563:1 577:2 
0.09296050428592491 43:1 49:2 55:1 100:1 110:1 176:1 221:1 315:2 319:1 372:1 389:1 401:1 413:1 516:1 535:1 563:1 
1 14:1 29:1 49:3 119:1 208:1 212:1 276:1 299:1 315:2 319:1 371:1 388:2 405:1 413:2 416:1 539:1 558:1 577:4 
0.5462424746389637 18:1 49:3 92:1 155:1 167:2 180:1 197:2 219:1 240:1 301:1 306:1 315:2 358:1 403:1 405:1 439:2 447:1 488:1 493:1 535:1 577:1 
1 
1 
0.4437954497935716 14:1 45:1 49:2 197:1 208:1 227:1 276:1 315:2 319:2 341:1 413:1 439:1 482:3 520:3 577:2 
1 14:1 43:2 49:2 125:1 276:1 315:2 319:2 413:1 577:2 
1 
0.5666280272267921 91:1 379:1 403:1 548:1 
1 291:1 
1 74:1 186:1 403:1 453:1 552:1 
1 40:1 224:1 343:1 
1 
1 162:1 438:2 
0.3415095547502539 45:1 213:1 274:1 
0.9910024761499392 162:1 438:2 
1 110:1 171:1 
0.9371771567165285 62:1 110:1 172:1 425:1 580:3 
1 552:1 
1 72:1 253:1 320:1 
1 
1 165:2 222:2 270:2 
1 
0.4099808897967247 403:1 492:1 
1 
1 91:1 373:1 386:1 403:1 497:2 552:1 
1 
0.9992165632592724 162:1 438:2 
0.3737320151337432 112:1 114:2 141:1 142:1 145:1 154:1 176:1 180:1 192:1 213:1 223:1 298:1 327:2 354:1 462:1 528:1 533:1 
0.93818082164659 15:2 22:2 35:2 58:1 60:1 135:1 309:2 408:2 415:1 468:1 521:1 
1 78:1 280:1 328:1 420:1 426:1 427:1 431:1 437:1 
1 7:1 
1 
1 112:1 145:1 192:1 223:1 238:1 321:1 462:1 
0.5164448111829338 157:1 
1 224:1 552:1 
1 438:2 485:1 
1 96:1 253:1 316:1 
0.5297811667019122 137:1 
1 211:1 
0.6352953261238303 28:1 29:1 114:2 119:1 176:1 200:1 276:1 313:1 315:2 372:1 452:1 482:2 520:3 531:1 577:3 
0.5625217887778424 254:1 312:1 353:1 403:1 518:1 560:1 
0.9192057056560843 271:1 403:1 483:1 491:1 
0.3553833285399258 134:1 271:1 557:1 
0.4885403271921988 68:1 188:1 269:1 403:1 
1 234:1 403:1 
0.0384237762732668 110:1 207:2 
0.3412311903255448 29:1 114:2 143:1 176:1 200:1 276:1 299:3 313:1 315:3 319:2 405:1 452:1 531:1 558:1 577:4 
0.9732813179727378 162:1 438:2 
1 207:1 209:1 403:1 
1 71:1 84:1 91:1 
0.2203718517846404 26:1 28:1 55:1 114:2 176:1 276:1 315:1 319:1 371:1 403:1 508:1 563:1 577:1 
1 438:2 
1 91:1 114:1 125:1 197:1 276:2 405:1 439:1 452:1 482:2 558:1 
0.599385211315119 26:1 29:1 114:1 147:1 176:1 276:2 315:1 322:2 426:1 464:1 482:1 565:1 577:1 
0.7931719000088212 15:1 58:1 60:1 220:1 444:1 468:1 506:1 
0.06200975179765751 61:2 114:2 200:1 276:2 315:2 319:2 405:4 452:1 558:1 577:4 
0.9979203711522793 165:2 222:2 270:2 
0.471091742782098 1:1 17:1 51:1 110:1 279:1 321:1 450:1 
1 59:1 192:1 241:1 321:1 462:1 523:1 
1 153:1 217:1 483:1 552:1 556:1 
1 30:1 114:2 276:2 318:1 452:1 
1 90:1 94:1 317:1 376:2 402:1 433:1 443:1 484:1 501:1 567:1 
1 
0.9944295835842352 438:2 485:1 
0.9705112041008416 43:2 70:3 176:1 205:1 276:2 315:2 319:2 405:3 409:1 452:1 464:1 577:3 
1 438:2 485:1 
0.6650670531523579 31:1 110:1 369:1 552:1 
0.8723370739087772 105:1 282:1 
1 
1 101:1 108:1 244:1 248:1 262:1 373:1 451:1 510:1 511:1 
1 165:2 222:2 270:2 
1 23:1 40:1 98:1 336:1 449:1 541:1 
1 
0.4843170810899561 231:2 282:1 333:1 438:1 548:1 
0.1101836376489165 22:1 287:1 308:1 321:1 325:1 
0.5426602000026426 29:1 83:1 92:2 200:1 263:1 374:1 
1 
1 
1 217:1 218:1 373:1 552:1 
1 
0.02476268611273307 172:2 379:1 
0.4735653240715472 74:1 150:1 403:1 500:1 
1 438:2 485:1 
0.7047123193021892 90:1 402:1 403:2 433:1 443:1 501:1 
1 79:1 438:1 546:1 
0.609763381351982 62:1 91:1 169:1 335:1 395:1 426:1 569:1 
1 
1 165:2 270:2 561:2 
1 96:1 110:1 148:1 177:1 253:1 316:1 497:1 
1 
1 91:1 110:1 172:1 312:1 321:1 373:1 379:1 441:1 463:1 
0.4016230089282934 203:1 282:2 335:2 375:1 403:1 406:1 424:1 
1 552:1 
1 403:1 505:1 
1 90:1 174:1 402:1 433:1 501:1 
1 
0.786405007844771 3:1 14:1 28:1 43:1 49:2 200:1 313:1 315:1 337:1 413:1 480:1 482:4 
0.9198274384912446 79:1 283:1 356:1 438:1 
0.9519881447346404 14:1 26:1 43:3 49:3 92:2 125:1 142:1 147:1 176:1 229:1 276:1 315:1 388:1 405:4 413:1 416:1 489:1 507:1 558:2 
0.9806534776930323 166:1 438:2 
0.3273124837564616 5:1 174:1 255:1 296:1 465:1 553:1 
0.4939306363058895 14:1 49:2 55:1 77:1 100:1 227:1 276:1 288:1 315:2 319:1 388:1 405:1 413:1 577:1 
1 6:1 7:1 403:1 
1 211:1 
1 438:2 485:1 
0.4730490670744082 26:1 65:1 142:1 276:1 305:2 315:1 322:1 403:1 513:1 514:1 516:1 563:1 577:2 
0.455318953356097 18:1 26:1 149:1 176:1 276:1 305:2 315:2 319:1 403:1 489:1 512:1 516:1 531:1 563:1 577:1 
0.9873607985990305 177:1 224:1 
1 59:1 112:1 145:1 192:1 199:1 223:1 394:1 403:1 462:1 547:1 568:1 
1 321:1 
1 36:2 131:1 138:2 158:1 176:1 200:1 212:1 276:2 305:1 313:1 329:1 371:1 372:1 405:2 452:1 577:4 
1 165:2 222:2 270:2 
0.916227790715178 2:1 3:1 213:1 230:1 533:2 
1 33:1 262:1 548:1 
1 403:1 
1 438:2 485:1 
1 16:1 59:1 241:1 403:1 
0.07022460375174402 28:4 176:1 197:1 200:1 212:1 276:2 305:2 372:1 405:2 452:1 480:1 486:1 489:1 507:1 539:1 577:5 578:1 
0.02326640360506443 112:1 145:1 192:1 223:1 238:1 321:1 462:1 523:1 
1 9:1 33:1 251:1 261:1 403:1 496:1 
1 47:1 74:1 134:1 172:1 403:1 504:1 
1 335:1 376:1 552:1 
1 552:1 
0.5916529926247611 28:3 49:4 122:1 156:2 182:2 185:2 187:1 276:1 409:1 413:2 452:1 
0.3181180451078731 25:1 32:1 130:1 147:1 176:1 200:1 276:2 305:2 315:1 405:1 448:1 452:1 503:1 508:1 558:1 
0.6049803383711785 127:1 
0.08353884000165712 203:1 258:1 375:1 381:1 403:1 406:1 424:1 
1 36:2 70:1 176:1 200:1 212:1 276:2 299:1 315:1 319:1 358:1 388:1 405:1 452:1 558:1 577:1 
0.1871049007715406 171:1 224:1 379:2 
0.9071322736290366 33:1 110:1 142:1 334:1 500:1 572:1 
1 403:1 
1 79:1 360:1 438:1 554:1 
0.7174889300951208 24:1 76:1 300:1 380:1 390:2 559:1 570:1 
0.04777343323465863 251:1 256:1 406:1 
0.167962752728836 43:2 65:1 110:1 138:1 167:1 176:1 197:3 198:1 265:2 315:2 371:1 405:6 439:1 525:2 535:1 539:2 558:1 563:1 577:3 
1 96:1 316:1 
1 141:1 176:1 213:1 327:2 
1 281:1 438:2 
1 409:1 
1 281:1 438:2 
1 281:1 438:2 
0.8132376938307775 32:1 159:1 487:2 503:1 559:4 566:1 
1 
1 
1 151:1 195:1 307:1 403:1 417:1 494:1 
1 151:1 195:1 403:1 417:1 494:1 499:1 
0.9979903420548627 91:1 207:1 218:1 312:1 557:1 
0.788131079603033 13:1 151:1 195:1 383:1 403:1 417:1 494:1 499:1 
0.4307344637657337 13:1 151:1 195:1 383:1 403:1 417:1 494:1 499:1 
1 13:1 151:1 195:1 382:1 383:1 417:1 494:1 499:1 
1 13:1 110:1 151:1 195:1 383:1 417:1 494:1 499:1 
1 110:1 151:1 195:1 307:1 417:1 494:1 
1 50:1 110:1 151:1 195:1 417:1 494:1 
1 110:1 151:1 195:1 307:1 417:1 494:1 
1 151:1 195:1 307:1 403:1 417:1 494:1 
0.2555040585063206 39:1 110:1 151:1 195:1 417:1 494:1 
1 151:1 195:1 307:1 403:1 417:1 494:1 
1 110:1 151:1 195:1 417:1 494:1 499:1 
1 50:1 151:1 195:1 376:1 417:1 494:1 
1 13:1 151:1 195:1 307:1 383:1 417:1 426:1 494:1 
1 151:1 195:1 403:1 417:1 494:1 499:1 
1 110:1 151:1 195:1 417:1 494:1 499:1 
1 110:1 151:1 195:1 417:1 494:1 
1 13:1 50:1 151:1 195:1 383:1 403:1 417:1 494:1 
1 13:1 50:1 110:1 151:1 195:1 383:1 417:1 494:1 
1 50:1 151:1 195:1 403:1 417:1 494:1 
1 50:1 151:1 195:1 403:1 417:1 494:1 
1 50:1 151:1 195:1 417:1 426:1 494:1 
1 110:1 151:1 195:1 417:1 494:1 
0.3482043906707866 13:1 151:1 195:1 307:1 383:1 403:1 417:1 494:1 
1 39:1 110:1 151:1 195:1 417:1 494:1 
0.8219226847866222 123:1 151:1 195:1 417:1 426:1 494:1 
1 110:1 151:1 195:1 417:1 494:1 499:1 
1 13:1 151:1 195:1 307:1 383:1 417:1 426:1 494:1 
1 151:1 195:1 307:1 403:1 417:1 494:1 
1 123:1 151:1 195:1 417:1 426:1 494:1 
1 39:1 110:1 151:1 195:1 417:1 494:1 
1 110:1 151:1 195:1 417:1 494:1 
1 151:1 195:1 403:1 417:1 494:1 499:1 
1 110:1 123:1 151:1 195:1 417:1 494:1 
0.4331067044363707 13:1 110:1 123:1 151:1 195:1 383:1 417:1 494:1 
0.8463028803871202 65:1 138:1 144:1 176:1 200:1 276:1 303:2 313:1 315:2 329:1 371:1 400:1 405:1 452:1 577:2 
0.445703353507929 26:1 65:1 99:1 109:1 152:1 249:1 276:1 315:1 326:1 341:1 349:3 387:1 388:1 403:1 416:1 486:1 489:1 493:1 513:1 514:1 516:1 529:1 563:1 577:3 
0.3604215627467476 11:1 26:1 43:4 193:1 197:2 276:2 315:1 349:2 405:3 439:2 472:1 558:3 577:5 
1 43:2 125:1 276:2 315:1 319:1 349:2 405:1 452:1 482:1 520:1 558:1 577:1 
1 203:1 375:1 403:1 424:1 
1 465:1 562:1 
0.6171886486444027 126:1 254:1 302:1 379:1 426:1 
0.9580309148391402 247:1 251:1 557:1 
1 1:1 17:2 51:1 110:1 279:1 287:2 308:1 321:1 325:1 450:1 
1 373:1 
1 75:1 86:1 180:1 200:1 276:1 288:1 303:2 327:1 388:1 528:1 
1 105:1 127:1 231:1 284:1 333:1 438:1 
1 
0.03555943221812919 250:2 262:2 311:2 349:1 460:1 474:1 521:1 
0.2137296529224617 75:1 142:1 271:1 334:1 403:1 423:1 454:1 491:1 504:1 535:1 
0.06170095725102027 48:2 73:2 87:2 
0.7357474319000985 79:1 283:1 356:1 438:1 
1 348:1 364:1 403:1 449:1 475:1 510:1 
0.5718861402189095 162:1 438:2 
1 426:1 
1 403:1 
1 91:1 169:1 278:1 395:1 569:1 
0.8777202795498714 438:2 485:1 
1 391:1 426:1 460:1 
0.1202165624094128 26:1 43:7 89:1 97:2 114:2 176:1 226:2 276:1 286:2 315:2 382:1 405:4 482:1 512:2 516:1 531:1 558:2 563:1 577:8 
1 
0.4491611514698214 31:1 403:1 454:1 
0.004524593271599246 233:2 
1 233:2 
0.6290844396447973 233:2 
1 103:2 233:2 
1 290:1 357:1 
1 233:1 357:1 532:1 
1 233:1 357:1 532:1 
1 370:1 
1 
1 370:1 
1 370:2 
1 
0.03161289028415273 27:1 91:1 296:1 381:1 403:1 407:1 429:1 527:1 
1 321:1 344:1 
1 28:2 122:2 140:1 176:1 276:2 305:3 447:1 452:1 
1 48:2 73:2 87:2 346:2 
1 13:1 50:1 151:1 195:1 383:1 403:1 417:1 494:1 
1 13:1 151:1 195:1 383:1 403:1 417:1 494:1 499:1 
1 
1 166:1 438:2 
0.3718084036769612 92:4 125:1 182:2 378:2 388:1 392:3 448:1 520:1 539:1 
1 17:1 279:1 287:1 338:1 
1 
-1 
-0.006196714565133732 237:2 
-0.5 237:2 
-1 
-1 237:2 
-1 91:1 134:1 245:1 271:1 
-0.07659359583580765 14:1 92:2 315:2 341:1 372:1 387:1 405:1 520:1 533:1 558:1 577:2 
-1 4:1 75:1 107:1 202:1 403:1 453:1 516:1 520:1 
-1 14:1 36:1 219:1 358:2 384:1 405:2 481:1 489:1 543:1 
-0.1191711433354577 45:1 113:1 140:1 143:1 176:1 180:1 276:1 313:1 315:2 349:4 452:2 477:1 515:1 
-0.8602076729706379 237:2 
-0.06457033304958687 3:1 89:1 92:2 122:1 125:1 176:1 276:2 288:1 299:1 349:2 388:2 405:3 452:1 520:1 531:1 558:3 577:1 
-1 
-1 426:1 552:1 
-0.6581149563609057 280:1 328:1 363:1 
-0.001487450939435678 56:1 69:1 99:1 130:2 201:2 264:1 276:1 313:1 342:5 388:2 405:6 416:1 452:1 478:1 558:4 
-1 254:1 552:1 
-1 166:1 438:2 
-1 165:2 270:2 561:2 
-0.8853292807079767 91:1 108:1 164:1 262:1 289:1 321:1 397:1 419:1 510:1 
-0.2980573558411759 70:1 83:1 107:1 141:1 176:1 183:1 213:1 221:2 455:1 
-0.5102670626012207 11:1 43:2 49:2 55:1 147:1 176:1 193:1 276:1 288:1 388:4 405:5 413:1 416:2 426:1 507:1 535:1 539:3 558:2 565:1 
-1 43:1 49:2 56:1 99:1 130:1 139:1 176:1 200:1 264:1 276:1 315:1 342:4 388:1 405:5 452:1 467:1 558:3 577:5 
-1 15:1 309:1 408:1 
-0.3923834509700678 35:1 102:1 135:1 210:1 418:1 468:1 506:1 565:1 
-1 272:1 369:1 396:1 422:1 426:1 
-1 312:1 368:1 
-0.538266114389872 59:1 112:1 145:1 192:1 199:1 223:1 394:1 403:1 462:1 547:1 550:1 568:1 
-1 296:1 403:1 553:1 
-0.9722040580151767 92:4 114:2 176:1 182:1 212:1 276:2 405:1 409:1 452:1 558:1 
-1 17:1 287:1 338:1 
-0.5261833051507306 28:1 32:1 43:1 49:1 92:1 114:2 155:1 176:1 200:1 225:1 276:1 313:1 315:1 405:3 452:1 498:1 525:1 558:2 
-1 55:1 95:1 107:1 213:1 455:1 533:1 
-0.4327665771780922 207:1 218:1 278:1 483:1 497:1 
-0.2467008380679432 14:1 32:1 85:3 114:2 130:2 176:1 197:1 200:1 212:1 276:1 294:1 388:1 405:3 416:1 439:1 467:1 503:1 558:3 
-1 90:1 402:1 403:2 433:1 501:1 567:1 
-1 50:1 151:1 195:1 403:1 417:1 494:1 
-0.6813439585480694 127:1 262:1 284:1 333:3 
-1 165:2 222:2 270:2 
-0.4840974683393992 43:4 56:1 69:1 99:1 130:1 197:1 264:1 276:1 313:1 315:1 319:1 388:1 405:3 430:2 439:1 452:1 488:1 531:2 558:2 564:2 
-0.7964363612044928 5:1 63:1 174:1 251:2 255:1 373:1 399:1 403:1 432:1 
-0.2791377129148357 129:1 181:1 196:1 275:1 365:1 377:1 526:1 567:1 
-0.1729706321414147 36:2 125:1 197:1 276:2 294:2 306:1 315:2 319:2 405:2 452:1 488:1 531:1 558:1 577:5 
-0.6452059669713821 128:1 141:1 176:1 213:1 232:1 244:1 315:1 405:1 512:1 533:1 535:1 
-0.5918881058153908 176:1 178:3 232:1 519:1 
-1 224:1 312:1 379:1 426:1 
-1 142:2 446:1 
-1 
-1 110:1 151:1 195:1 417:1 494:1 499:1 
-1 438:2 485:1 
-0.7955248675541986 91:1 234:2 
-0.7180256769822594 96:1 110:1 316:1 399:1 432:1 
-1 64:1 111:1 148:1 340:1 362:1 
-1 323:1 
-0.4896406436233853 85:2 97:2 98:2 276:2 286:1 342:4 349:2 367:2 405:6 452:1 482:1 533:1 558:5 
-1 118:1 176:1 533:2 
-0.4708904831387751 28:2 36:4 43:3 122:2 276:1 337:2 342:1 428:2 477:3 
-1 14:1 219:1 388:1 405:1 425:1 478:1 539:1 
-1 165:2 270:2 561:2 
-1 79:1 356:1 438:1 
-1 36:3 41:1 167:1 180:1 276:1 315:1 319:1 403:1 493:1 512:1 528:1 535:1 550:1 577:2 
-1 23:1 40:1 419:1 541:1 
-1 90:1 402:1 403:2 433:1 443:1 501:1 567:1 
-1 220:1 
-0.01459769576578379 403:2 453:2 490:2 
-1 87:2 165:2 222:2 
-0.6272953542900961 403:2 453:2 490:2 
-1 90:1 164:1 402:1 403:2 411:1 433:1 443:1 501:1 
-1 47:1 403:1 504:1 
-0.9851348994596548 75:1 218:1 285:1 379:1 403:1 497:1 504:1 
-1 251:1 403:1 
-1 79:1 360:1 438:1 554:1 
-0.7489027149890333 28:2 109:2 122:2 276:1 303:5 337:1 338:1 347:3 388:1 409:1 416:1 577:2 
-1 79:1 356:1 360:1 438:1 
-0.4711007145139083 281:1 438:2 
-0.9665828380676722 20:1 75:2 86:1 327:1 373:1 426:1 
-1 348:1 364:1 403:1 449:1 475:1 500:1 510:1 552:1 
-1 552:1 
-1 403:1 
-1 33:1 403:1 
-1 26:1 57:1 66:1 92:1 120:1 219:1 276:1 313:1 349:2 358:1 403:1 405:2 558:1 
-1 43:1 70:1 142:1 181:1 208:1 212:1 226:1 275:1 276:2 315:1 319:1 342:1 349:2 377:1 388:1 405:1 409:1 452:1 533:1 550:1 
-0.5902921413926226 209:1 248:1 
-0.8698521923593381 53:2 92:3 114:1 122:3 125:1 185:1 187:2 385:2 392:3 405:4 425:2 452:1 478:3 558:3 
-1 169:1 278:1 395:1 407:1 569:1 
-1 84:1 115:1 189:1 282:1 292:1 335:1 440:1 
-1 403:1 
-1 72:1 317:1 320:1 
-1 110:1 195:1 
-1 
-1 278:1 369:1 412:1 502:1 579:1 
-1 110:1 296:1 
-1 403:1 412:1 469:1 502:1 579:1 
-0.5163540617275829 11:1 28:1 110:1 154:1 176:1 212:1 276:1 305:1 327:1 354:1 388:1 405:1 439:1 508:1 520:1 558:1 
-1 96:1 117:2 316:1 557:1 
-0.342892940751963 14:1 43:2 49:2 113:2 276:1 315:2 409:1 413:1 
-1 162:1 438:2 
-0.7996361297550554 251:1 310:1 312:1 368:1 
-1 28:2 49:3 122:1 156:1 182:1 185:4 276:1 315:2 409:1 413:2 435:1 448:1 
-0.07956013753005092 28:1 45:1 49:2 53:1 65:1 92:2 110:1 212:1 276:1 315:1 385:1 413:1 508:1 535:1 
-1 194:1 218:1 302:1 497:1 552:1 577:1 
-1 382:1 
-0.6828652173468722 20:1 28:1 75:1 81:1 86:1 92:1 142:1 232:1 327:1 382:1 388:1 416:1 435:1 508:1 550:2 577:1 
-0.8156101427824151 442:1 
-0.5133124196806784 7:1 92:1 274:1 317:1 319:1 373:1 374:1 403:1 470:1 
-1 17:1 279:1 287:1 403:1 
-1 
-0.6409414603547184 12:1 91:1 262:1 434:1 460:1 574:1 
-1 321:1 403:1 
-0.9181506909618772 38:1 44:1 62:1 71:1 94:1 101:1 106:1 129:1 142:1 293:1 404:1 434:1 460:1 580:1 
-1 23:1 40:1 262:1 267:1 437:1 510:1 541:1 
-1 169:1 381:1 
-0.08020328195250255 62:1 129:1 168:1 184:2 262:2 267:2 289:1 391:1 510:2 
-1 62:1 262:2 311:2 344:2 437:1 445:1 511:2 530:1 575:1 
-0.5764607678831802 71:1 242:1 262:1 311:1 343:1 391:1 419:1 492:1 
-1 74:1 186:1 349:1 393:1 447:1 
-1 110:1 
-1 
-1 23:1 40:1 70:1 388:1 393:1 541:1 
-0.2751116025863543 23:1 40:1 62:1 445:1 541:1 
-0.5683752876568124 23:1 40:1 62:1 445:1 541:1 
-0.06092523141026245 74:1 168:1 186:1 218:1 247:1 456:1 460:1 510:1 
-1 174:1 248:1 262:1 451:1 
-1 174:1 248:1 262:1 451:1 522:1 
-0.3915704711504086 174:1 191:2 248:1 262:1 451:1 522:1 
-1 125:1 165:1 442:1 
-0.1956257844973026 108:1 179:1 184:1 262:1 460:1 510:1 
-1 38:1 62:2 70:1 247:1 293:1 388:1 434:1 460:1 580:1 
-0.7111634344616701 44:1 62:2 91:1 94:1 106:1 175:1 194:2 312:1 330:2 403:1 451:1 548:1 552:1 
-1 23:1 38:1 40:1 62:1 179:1 262:1 267:1 460:1 510:1 541:1 580:1 
-1 23:1 40:1 48:1 196:1 243:1 247:1 336:1 366:1 432:1 437:1 541:1 575:1 
-1 196:1 247:1 295:1 344:1 
-1 165:1 426:1 442:1 473:1 
-0.3927290813826605 14:1 69:1 219:1 303:1 358:1 405:2 481:1 489:2 
-0.6727559751371963 77:1 168:1 248:1 451:1 460:1 573:1 574:1 
-0.004828598949303123 46:1 168:1 346:1 419:1 443:1 456:1 471:1 537:1 
-1 46:1 168:1 443:1 456:1 471:1 537:1 
-0.5 214:2 216:2 223:2 252:2 321:2 
-1 165:2 270:2 
-1 165:2 268:2 270:2 
-1 165:2 222:2 270:2 
-1 110:1 463:1 544:1 
-1 214:2 216:2 223:2 252:2 321:2 
-1 59:1 192:1 462:1 549:1 
-0.7641200433085196 25:1 26:1 92:3 110:1 114:1 229:1 358:1 378:1 388:3 416:2 539:1 
-1 214:2 216:2 223:2 252:2 321:2 
-1 214:2 216:2 223:2 252:2 321:2 
-1 214:2 216:2 223:2 252:2 321:2 
-1 62:1 
-1 37:2 359:2 522:2 
-1 87:2 359:2 522:2 
-0.9145974440587572 47:1 228:1 386:1 403:1 538:1 
-1 27:1 278:1 527:1 
-0.911552179919719 49:2 119:2 472:1 515:2 520:2 535:1 
-0.01756358457248632 28:1 122:1 141:1 176:1 213:1 244:1 315:1 382:1 516:1 524:1 535:1 
-0.4800589275159698 113:1 200:1 226:1 253:1 405:1 457:1 516:1 
-1 74:1 509:1 
-1 262:1 373:1 509:1 
-1 218:1 
-1 110:1 253:1 
-1 171:1 403:1 453:1 
-1 213:1 274:1 317:1 
-1 33:1 403:1 
-1 21:1 272:1 396:1 403:1 420:1 500:1 560:1 
-1 19:2 403:1 552:1 
-0.9934801444048311 281:1 438:2 
-1 166:1 438:2 
-1 171:1 251:1 548:1 
-1 353:1 403:1 
-0.2526250814017752 10:2 38:1 62:2 71:1 106:1 168:2 262:2 282:1 293:2 311:2 580:1 
-1 175:1 251:1 302:1 312:1 403:1 
-1 4:1 28:1 55:1 100:1 107:1 276:2 303:2 306:1 315:1 319:1 409:1 452:1 488:1 578:1 
-1 162:1 438:2 
-0.7466580754479915 28:2 109:2 122:2 315:1 337:1 347:4 388:1 409:1 416:1 479:5 577:2 
-1 162:1 438:2 
-1 166:1 438:2 
-0.3831062418817293 48:1 91:1 172:3 257:2 336:1 382:1 449:2 510:2 
-1 84:1 335:1 351:1 429:1 465:1 562:1 
-1 438:2 
-0.702067686048776 373:1 418:1 468:2 540:1 
-0.3822645056541803 14:1 18:1 128:1 161:1 176:1 200:1 276:1 315:1 327:1 354:1 405:1 413:1 461:1 479:2 512:1 531:1 533:1 558:1 577:3 
-0.6561019186674284 2:1 81:1 110:1 213:1 306:1 315:1 331:1 337:1 347:1 388:2 461:1 479:2 488:1 516:1 531:1 535:1 539:2 563:1 577:2 
-1 90:1 402:1 403:1 433:1 501:1 
-1 211:1 
-1 217:1 
-1 109:1 116:1 122:1 314:1 337:1 347:1 409:1 564:1 577:1 
-1 7:1 92:2 403:1 470:1 
-1 436:1 
-1 74:1 
-1 14:1 176:1 200:1 315:1 458:1 467:1 478:1 533:1 577:1 
-1 71:1 282:1 361:1 472:1 
-1 28:1 122:2 140:1 314:1 448:2 498:1 564:2 
-1 162:1 438:2 
-1 9:1 91:1 207:1 278:1 
-0.3446232800289897 28:1 140:1 315:1 347:3 447:1 466:1 479:5 512:1 545:1 577:2 
-1 203:1 278:1 375:1 424:1 
-1 291:1 
-0.5740704531921311 14:1 185:2 315:1 318:1 409:1 457:1 
-1 26:1 30:2 110:1 178:1 219:1 221:1 276:1 318:1 405:1 516:1 563:1 564:2 
-0.3440542496008104 26:1 110:1 114:1 119:4 187:2 276:1 313:1 577:4 
-1 49:1 142:1 197:1 315:2 413:1 472:1 577:2 
-1 291:1 
-1 242:1 373:1 403:1 
-1 91:1 110:1 247:1 312:1 
-0.1082021011330476 23:1 40:1 110:1 196:1 243:1 366:1 432:1 541:1 
-0.794706421178493 17:1 35:1 60:1 92:1 138:1 143:1 210:1 229:1 403:1 416:1 482:1 
-1 110:1 122:1 180:2 259:1 338:2 349:5 388:1 392:4 447:1 477:1 508:4 534:1 539:1 577:1 
-1 303:1 571:1 
-1 136:1 242:1 
-0.02583744589055386 49:1 319:1 372:2 401:1 409:1 425:1 478:1 
-1 167:1 180:1 305:1 
-1 26:1 92:1 110:1 122:1 276:1 349:2 352:1 480:1 516:1 563:1 
-1 207:1 557:1 
-1 166:1 438:2 
-1 12:2 262:2 460:1 
-1 285:1 379:1 403:1 454:1 497:1 
-0.7247963320913753 14:1 49:3 197:1 200:1 221:1 276:1 315:2 319:2 388:2 405:1 413:2 416:2 439:1 489:2 558:1 577:4 
-1 403:1 
-0.2183693535784237 43:1 49:2 176:1 315:1 319:1 382:1 413:2 482:1 516:1 520:1 524:1 535:1 
-0.4285154252545403 72:1 165:1 320:1 442:1 473:1 
-1 1:1 17:1 51:1 279:1 287:2 308:1 321:1 325:1 450:1 
-1 16:1 49:1 68:1 142:1 155:1 167:1 176:1 188:1 240:1 269:1 298:1 301:1 315:1 319:1 403:1 404:1 503:1 516:1 535:1 563:1 
-1 14:1 49:4 227:1 276:1 315:2 319:2 413:1 447:2 577:2 
-1 6:1 62:1 110:1 
-1 38:1 62:1 108:1 262:1 346:2 419:2 460:1 510:1 511:1 574:1 580:1 
-1 162:1 438:2 
-1 438:2 485:1 
-1 7:1 40:1 78:1 280:1 328:1 426:1 427:1 431:1 
-1 
-1 
-1 
-1 
-0.9034939733370293 33:1 132:1 177:1 228:1 403:1 518:1 
-1 110:1 178:2 181:2 213:1 273:2 551:2 
-1 26:1 114:2 176:1 276:2 315:2 319:1 403:1 405:1 489:1 512:1 531:1 577:2 
-0.2217226338573852 91:1 165:1 403:1 442:1 473:1 
-0.4873659201438466 43:1 92:1 114:3 140:1 141:1 176:1 212:1 213:1 244:1 276:2 315:2 319:1 337:1 447:1 452:1 
-1 162:1 438:2 
-1 176:2 533:2 551:1 
-0.7706177677798677 15:1 35:1 74:1 102:1 135:1 136:1 186:1 210:1 373:1 386:1 418:1 444:1 468:1 
-0.3301547297567176 3:1 26:1 187:1 205:3 276:1 315:1 372:1 387:2 403:1 516:1 563:1 577:2 
-1 
-1 15:1 22:1 35:1 58:1 60:1 135:1 309:1 373:1 408:1 415:1 418:1 468:1 
-0.8600521326731559 205:2 276:2 304:1 315:1 319:1 409:1 452:1 457:1 
-1 92:1 176:1 205:1 219:1 276:2 315:1 319:1 327:1 405:1 409:1 452:1 464:1 480:1 
-1 281:1 438:2 
-0.586656366299787 355:1 449:1 572:1 
-1 14:1 43:2 167:1 276:1 305:2 315:2 319:2 342:2 391:2 482:4 558:2 577:2 
-1 305:1 308:1 325:1 447:1 
-1 203:1 351:1 375:1 403:1 424:1 
-1 72:1 213:1 253:1 320:1 436:1 
-1 47:1 91:1 386:1 403:1 
-1 6:2 339:1 426:1 441:1 
-1 14:1 299:1 304:2 409:1 425:1 457:1 466:1 577:1 
-1 17:1 287:1 321:1 
-1 281:1 438:2 
-0.1743128674963829 14:1 142:1 170:2 200:1 212:1 276:1 305:2 324:1 388:1 405:1 416:1 558:1 577:1 
-1 
-1 
-1 74:1 336:1 
-1 16:1 112:1 145:1 192:1 223:1 238:1 321:1 462:1 
-1 14:1 28:4 122:2 156:2 167:1 182:2 185:2 276:1 305:2 409:1 
-1 
-1 
-0.1611740961285349 209:2 248:1 548:1 
-1 
-1 438:2 485:1 
-0.1899313249884581 23:1 40:1 262:2 267:2 510:2 541:1 
-0.300046130752788 38:1 62:1 101:1 262:2 311:2 445:1 460:1 511:2 574:1 580:1 
-1 323:1 
-1 281:1 438:2 
-1 80:1 245:1 403:1 505:1 
-0.6970917516179406 4:1 92:1 107:1 128:1 161:2 176:1 220:1 276:1 349:1 378:1 409:1 452:1 489:1 533:2 
-1 43:1 113:1 200:1 276:2 315:1 349:2 452:1 482:1 520:1 
-1 91:1 110:1 142:1 282:2 361:1 505:1 552:1 
-0.5149866678531135 5:1 31:1 78:1 98:1 255:1 280:1 312:1 328:1 420:1 426:1 427:1 431:1 
-0.9355325687932938 28:3 92:1 122:2 125:1 182:1 185:1 276:2 315:1 339:1 349:2 425:1 448:1 452:1 458:1 478:1 
-0.9063938529117384 21:1 105:1 152:1 160:1 224:1 231:2 559:1 
-0.5206102783214861 48:1 246:1 258:1 262:2 460:1 544:2 574:1 
-1 290:1 
-0.7328011424329096 103:1 290:1 
-0.7637422688016291 540:1 
-1 426:1 
-1 110:1 
-1 166:1 438:2 
-1 16:1 59:1 192:1 241:1 462:1 
-1 58:1 308:1 309:1 325:1 415:1 506:1 
-1 79:1 283:1 438:1 
-1 9:1 88:1 
-1 211:1 
-0.708452810494965 75:1 335:1 426:1 556:2 
-1 14:1 29:2 43:2 49:2 200:1 276:1 315:2 338:1 
-0.5138662278075203 14:1 49:2 52:1 118:1 131:1 144:1 158:1 176:1 200:1 212:1 244:1 276:1 315:1 329:1 400:1 405:1 413:1 512:1 558:1 577:2 
-0.9477169908683438 78:1 91:1 110:1 124:1 194:1 336:1 368:1 492:1 552:1 
-1 127:1 152:1 247:1 
-1 127:1 
-1 218:1 235:1 321:1 
-1 
-1 192:1 223:1 462:1 565:1 
-1 438:2 
-1 438:2 485:1 
-1 
-0.4279730087345164 16:1 25:1 49:2 91:1 182:1 212:1 276:2 315:1 319:1 409:1 452:1 489:1 
-1 46:1 346:1 419:1 
-1 438:2 
-0.7908927816350934 12:1 38:1 44:1 62:2 106:1 174:1 262:1 289:1 346:2 397:1 419:2 445:1 511:1 580:1 
-0.08801330390397805 42:1 45:1 176:1 236:1 315:1 319:1 327:1 403:1 410:1 477:1 489:1 516:1 535:1 
-1 55:1 95:1 213:1 239:1 
-1 
-1 162:1 438:2 
-1 436:1 
-1 278:1 
-0.6302014547160605 321:3 344:1 
-1 160:1 278:1 
-1 47:1 278:1 386:1 
-1 220:1 324:1 422:1 497:1 518:1 552:1 
-0.982150429267214 157:1 165:1 230:1 253:1 
-1 203:1 253:1 
-1 162:1 438:2 
-1 55:1 95:1 104:1 128:1 213:1 533:1 
-0.02913078850694299 71:1 206:1 258:1 282:1 343:1 361:1 
-1 88:1 110:1 
-1 196:1 552:1 
-1 496:1 552:1 
-0.1337150174701941 91:1 526:2 533:1 552:1 
-1 47:1 403:1 504:1 
-1 26:1 34:1 114:2 276:2 405:1 507:1 
-1 540:1 
-1 
-0.2094493667494097 110:1 132:1 355:1 500:1 552:1 560:1 
-1 96:1 217:1 285:1 316:1 
-1 78:1 91:1 328:1 426:1 427:1 431:1 
-0.9821759587615234 16:1 59:1 241:1 462:1 
-1 
-1 26:1 41:1 55:1 114:1 149:1 176:1 197:1 276:1 332:1 403:1 464:1 489:1 512:1 563:1 577:2 
-0.3847047691537777 62:1 302:2 334:1 420:1 469:1 552:1 
-1 403:1 
-1 59:1 112:1 145:1 192:1 199:1 223:1 394:1 403:1 462:1 523:1 547:1 568:1 
-1 59:1 241:1 462:1 
-1 266:1 278:1 386:1 
-0.4016810859963916 32:2 114:2 154:1 155:2 176:1 200:1 212:1 219:1 276:2 299:1 358:1 405:2 452:1 467:1 533:1 558:1 571:2 
-1 114:2 200:1 276:2 315:1 319:1 452:1 577:1 
-0.4970050247492008 17:1 321:1 
-1 
-1 33:1 406:1 426:1 556:1 
-1 
-1 220:1 250:1 521:1 
-1 17:1 279:1 321:1 
-1 110:1 230:1 261:1 
-0.336272921642488 55:1 92:1 95:1 104:1 133:1 213:1 533:1 
-1 26:1 114:1 176:1 197:1 276:2 315:2 319:2 322:2 341:1 371:1 439:1 472:1 482:2 486:1 520:1 577:2 
-1 14:1 29:1 92:1 304:1 315:1 409:1 457:1 
-0.4120616292869883 17:1 287:1 308:1 321:1 
-1 110:1 
-1 211:1 
-1 
-1 
-1 
-1 
-1 15:1 17:1 22:1 35:2 102:1 135:1 210:1 279:1 287:1 444:1 468:1 
-1 79:1 438:1 546:1 554:1 
-1 110:1 441:1 463:1 580:2 
-1 110:1 361:1 
-1 129:1 295:1 330:1 403:1 
-1 91:1 224:1 420:1 
-1 
-1 172:3 321:1 
-1 454:1 
-1 96:1 177:1 271:1 316:1 403:1 
-0.1301465462464617 9:1 64:3 111:1 345:1 376:1 
-0.6057009712813047 43:1 45:1 83:1 140:1 212:1 276:2 315:1 319:1 452:1 503:1 564:2 577:1 
-0.4651964126474744 14:1 140:1 219:1 315:1 372:1 405:1 577:1 
-1 45:1 213:1 533:1 
-1 110:1 251:1 348:1 449:1 475:1 
-0.4168609273022725 14:1 315:1 326:1 
-1 
-0.8359597893566226 91:1 184:1 449:1 
-1 
-1 162:1 438:2 
-1 142:1 164:1 238:1 
-0.9843028838791333 357:1 532:1 
-0.3122242530151136 14:1 65:1 119:1 138:1 158:1 176:1 200:1 313:1 315:1 533:1 577:3 
-1 65:1 114:2 200:1 276:2 299:1 315:1 452:1 577:1 
-0.7485675097981719 357:1 532:1 
-1 256:1 278:1 302:1 
-1 47:1 403:1 
-1 200:1 315:1 512:1 577:1 
-0.4650762207270099 55:1 92:1 161:1 178:1 181:1 239:1 273:1 377:1 
-1 207:1 426:1 552:1 
-0.09610421953724245 32:1 42:1 55:1 128:1 155:2 161:1 327:1 410:1 447:1 533:1 
-1 233:1 
-1 370:1 
-1 246:1 278:1 425:1 429:1 453:1 465:1 562:1 
-0.4512361039264815 164:1 411:1 
-1 339:1 
-1 110:1 142:1 
-1 
-1 403:2 453:2 490:2 
-1 62:1 78:1 173:1 234:1 280:1 302:1 328:1 363:1 422:1 426:1 427:1 431:1 
-1 3:1 14:1 49:2 109:2 200:1 212:1 276:1 315:2 319:2 413:1 482:2 577:2 
-1 5:1 255:1 
-0.4146485265721198 16:1 59:1 188:1 241:1 297:1 
-0.2690349490231467 131:1 138:3 144:1 155:1 158:1 170:1 306:1 315:1 329:1 400:1 403:1 405:3 413:1 479:2 488:1 503:1 516:1 531:1 535:1 563:1 577:2 
-1 438:2 485:1 
-1 403:1 483:1 
-1 91:1 403:1 535:1 552:1 
-1 403:1 
-1 209:1 253:1 434:1 
-1 215:1 253:1 254:1 403:1 521:1 
-1 43:5 49:2 65:2 138:3 147:1 176:1 200:1 225:1 226:1 276:2 315:2 405:5 452:1 525:1 
-1 
-1 
-1 1:1 17:2 51:1 279:1 287:1 305:1 321:1 426:1 447:1 450:1 
-1 376:1 572:1 
-1 552:1 
-0.7840703967172505 16:1 197:1 212:1 276:2 305:3 315:1 405:1 439:1 447:1 452:1 519:2 577:2 
-1 282:1 421:1 
-0.3960783656522588 15:1 17:1 60:1 102:1 135:1 210:2 287:1 444:1 468:1 500:1 
-0.9626985833182027 62:1 86:1 176:2 327:2 533:1 
-0.4483631013244323 5:1 203:1 255:1 278:1 375:1 424:1 
-0.2990131041528281 14:1 25:3 36:2 197:1 198:1 313:1 384:1 405:1 543:1 558:1 577:2 
-0.4998948775428544 63:1 74:1 110:1 132:1 186:1 336:1 552:1 560:1 
-1 
-1 
-1 141:1 176:1 213:1 244:1 
-1 33:1 110:1 312:1 
-1 
-1 33:1 195:1 282:1 403:1 
-1 29:1 36:2 212:1 276:2 315:2 405:1 409:1 452:1 558:1 577:2 
-1 438:2 485:1 
-1 
-1 
-1 
-1 33:1 110:1 552:2 
-1 
-1 
-1 
-1 
-0.7419402876419519 32:1 335:1 390:1 487:1 503:1 559:3 
-1 55:1 
-1 90:1 402:1 426:1 433:1 501:1 565:1 
-0.6830769039474351 78:1 124:2 368:2 427:1 431:1 
-1 580:1 
-1 
-1 108:1 184:1 262:1 510:1 
-1 281:1 438:2 
-1 422:1 426:1 
-1 24:1 54:2 121:1 335:1 380:1 390:1 487:1 576:1 
-1 540:1 
-1 
-1 24:1 76:1 300:1 380:1 390:1 487:1 
-1 13:1 50:1 110:1 151:1 195:1 383:1 417:1 494:1 
-1 13:1 50:1 151:1 195:1 383:1 403:1 417:1 494:1 
-1 151:1 195:1 307:1 417:1 494:1 557:1 
-1 110:1 151:1 195:1 307:1 417:1 494:1 
-1 151:1 195:1 307:1 376:1 417:1 494:1 
-1 39:1 110:1 151:1 195:1 417:1 494:1 
-1 39:1 110:1 151:1 195:1 417:1 494:1 
-0.9630528817064834 50:1 110:1 151:1 195:1 417:1 494:1 
-1 13:1 151:1 195:1 307:1 382:1 383:1 417:1 494:1 
-1 110:1 151:1 195:1 417:1 494:1 499:1 
-0.004905395546675917 151:1 195:1 382:1 417:1 494:1 
-1 110:1 151:1 195:1 307:1 417:1 494:1 
-1 13:1 151:1 195:1 382:1 383:1 417:1 494:1 499:1 
-1 50:1 110:1 151:1 195:1 417:1 494:1 
-1 151:1 195:1 403:1 417:1 494:1 499:1 
-0.9515347127839663 151:1 195:1 382:1 417:1 494:1 
-1 50:1 151:1 195:1 403:1 417:1 494:1 
-1 79:1 360:1 438:1 
-1 151:1 195:1 238:1 417:1 494:1 499:1 
-1 138:1 142:1 219:1 276:2 349:2 405:3 452:1 486:1 489:1 513:1 514:1 558:1 577:2 
-1 151:1 195:1 417:1 426:1 494:1 499:1 
-1 50:1 110:1 151:1 195:1 417:1 494:1 
-1 18:1 26:1 55:1 155:1 176:1 240:1 276:1 315:2 319:1 349:2 403:1 405:1 489:1 512:1 516:1 558:1 563:1 577:2 
-0.5428778111413843 92:1 119:1 197:1 198:1 200:1 218:1 240:1 276:1 288:1 313:1 349:2 387:1 388:1 452:1 
-1 
-1 
-1 
-1 13:1 123:1 151:1 195:1 383:1 403:1 417:1 494:1 
-0.7813761313417802 50:1 110:1 151:1 195:1 417:1 494:1 
-1 50:1 151:1 195:1 403:1 417:1 494:1 
-1 123:1 151:1 195:1 403:1 417:1 494:1 
-1 13:1 151:1 195:1 307:1 383:1 403:1 417:1 494:1 
-1 123:1 151:1 195:1 417:1 494:1 557:1 
-1 110:1 151:1 195:1 417:1 494:1 499:1 
-1 50:1 151:1 195:1 403:1 417:1 494:1 
-1 13:1 110:1 151:1 195:1 383:1 417:1 494:1 499:1 
-1 151:1 195:1 382:1 417:1 494:1 
-1 151:1 195:1 307:1 403:1 417:1 494:1 
-1 50:1 151:1 195:1 417:1 494:1 557:1 
-1 13:1 151:1 195:1 307:1 383:1 403:1 417:1 494:1 
-1 13:1 110:1 151:1 195:1 307:1 383:1 417:1 494:1 
-0.9048272547375431 217:1 331:1 
-1 31:1 67:1 110:1 172:1 234:1 423:1 
-1 29:1 65:1 200:1 276:1 299:1 313:1 315:3 349:2 452:1 458:1 577:3 
-1 59:1 241:1 403:1 
-0.06467681983705836 26:1 45:1 176:1 226:1 276:1 315:1 349:4 382:1 405:3 447:1 516:1 528:1 558:2 563:1 577:4 
-1 28:2 45:1 200:1 276:1 313:1 349:2 372:1 452:1 480:1 519:1 577:5 
-1 153:1 272:1 396:1 403:1 552:1 560:1 
-1 43:1 176:1 200:1 276:1 313:1 315:2 319:2 349:2 452:1 482:2 531:1 
-1 16:1 59:1 241:1 462:1 
-1 291:1 
-1 
-0.2930014312373936 7:2 24:1 54:2 64:1 76:1 220:2 335:2 380:1 390:2 476:1 559:4 570:1 
-0.5596595817391629 196:1 235:1 243:1 366:1 403:1 432:1 
-1 115:1 189:1 292:1 376:1 429:1 440:1 
-1 59:2 68:1 188:1 241:2 269:1 297:1 376:1 
-1 48:2 73:2 87:2 346:2 
-1 91:1 178:1 403:1 
-1 111:1 323:1 
-1 150:1 353:1 403:1 469:1 518:1 552:2 
-1 
-1 
-1 126:1 
-1 195:1 343:1 403:1 429:1 465:1 562:1 
-1 110:1 453:1 538:1 552:1 
-1 79:1 283:1 356:1 438:1 
-1 
-1 165:2 222:2 270:2 
-0.3310998219516864 138:1 142:1 276:1 282:1 298:1 315:1 403:1 405:1 512:1 513:1 534:1 535:1 564:2 577:2 
-1 251:1 497:1 
-0.5573697638375209 40:1 98:1 132:1 272:1 379:1 396:1 426:1 560:1 
-1 171:1 206:2 207:1 302:1 403:1 
-1 302:1 557:1 
-1 28:1 114:2 200:1 276:2 315:2 372:1 452:1 577:2 
-1 29:1 114:2 193:1 197:1 200:1 276:1 313:1 315:1 388:1 405:1 452:1 539:1 558:1 577:2 
-1 438:2 485:1 
-0.2087322003385922 59:1 112:1 145:1 192:1 223:1 321:1 394:1 403:1 462:1 568:1 
-1 114:2 200:1 276:2 452:1 
-1 403:1 483:1 496:1 
-1 33:1 228:1 327:1 386:1 403:1 
-0.5842102363035944 65:1 131:1 144:1 158:1 315:1 329:1 371:1 400:1 403:1 405:1 516:1 535:1 550:1 558:1 563:1 577:2 
-0.792743199196761 14:1 99:1 114:2 167:1 176:1 200:1 212:1 225:1 236:1 264:1 276:1 405:5 461:1 512:2 558:2 577:6 
-1 105:1 369:1 
-0.4512123361997681 29:1 43:1 92:2 114:1 125:1 176:1 185:1 221:1 276:2 315:1 388:2 405:1 452:1 458:1 464:1 539:3 577:1 
-0.1174353427259731 91:1 115:1 178:1 195:1 292:1 407:1 425:1 426:1 429:1 440:1 494:1 
-0.4228488546442292 59:1 68:1 114:2 139:1 142:1 176:1 183:1 188:1 269:1 276:1 288:1 298:1 315:1 388:1 531:1 
-1 7:1 175:1 355:1 379:1 403:1 548:1 
-1 103:2 233:2 
-0.08952834997779945 190:2 
-0.0006415073827908402 190:2 
-1 370:1 
-1 233:1 357:1 532:1 
-1 233:2 
-1 233:1 357:1 
-0.2762762259117979 190:2 
-0.3664045309811677 370:2 
-1 370:2 
-1 151:1 195:1 417:1 426:1 494:1 499:1 
-1 438:2 485:1 
-0.4137282186788185 16:1 59:1 84:1 241:1 453:1 
-1 91:1 134:1 324:1 
-1 163:1 247:1 460:1 
-1 49:1 65:1 70:1 125:1 197:1 198:1 388:1 413:1 
-1 13:1 110:1 151:1 195:1 383:1 417:1 494:1 499:1 
-1 211:1 323:1 
-1 403:2 446:1 
-1 91:1 403:1 
-1 209:1 224:1 298:1 548:1 
-1 128:1 141:1 176:1 213:1 533:1 
-1 118:1 533:1 
-1 45:1 125:1 276:2 305:2 315:2 319:1 326:1 371:1 452:1 486:1 489:1 577:1 
-0.03591943202611365 58:1 105:1 107:1 248:1 284:2 438:1 455:1 
-1 224:1 497:1 
-1 17:1 279:1 287:1 338:1 
-1 
