svm_type c_svc
kernel_type linear
nr_class 2
total_sv 972
rho -0.315495
label 1 -1
nr_sv 501 471
SV
0.05773736325720706 26:1 108:1 113:3 301:1 303:1 330:1 384:1 423:1 479:1 725:1 800:2 839:1 922:1 1156:1 1199:2 1226:1 1373:6 1449:1 1702:1 1714:2 1914:2 2002:1 2140:3 2343:1 2362:2 2414:1 2554:1 2679:1 2721:1 2723:2 2724:2 2726:4 2728:2 2730:3 2878:1 3633:1 4301:1 4359:1 
0.1050862516178648 113:1 742:2 764:2 929:2 1075:2 1156:2 1358:2 1373:4 1845:3 2315:1 2659:1 2728:2 2732:3 4907:1 
0.05167175526109317 82:2 93:2 108:1 113:5 270:2 322:2 356:2 396:2 479:4 520:2 630:1 651:1 674:2 1027:2 1101:2 1156:1 1169:1 1177:2 1195:2 1199:2 1226:1 1295:2 1373:12 1423:2 1426:1 1453:1 1554:2 1572:2 1652:1 1696:1 1848:2 1937:1 1983:2 2248:4 2343:1 2362:4 2397:1 2409:2 2679:1 2728:6 2729:1 2730:2 5623:1 
0.1036034730203904 14:3 54:1 108:2 113:11 143:2 146:2 170:1 226:11 230:9 236:1 316:2 330:4 355:2 369:1 417:1 421:6 484:1 486:1 496:1 528:1 545:1 549:3 617:1 646:4 650:1 659:1 785:1 800:11 823:4 888:1 927:1 945:5 994:1 1004:1 1063:1 1140:15 1165:1 1303:1 1343:3 1359:1 1366:1 1371:2 1373:7 1449:8 1486:2 1505:1 1575:1 1653:1 1688:1 1702:6 1810:6 1833:5 1848:7 1865:2 1936:2 1991:1 1994:1 2091:1 2105:1 2117:1 2121:1 2126:1 2202:1 2246:4 2263:3 2338:1 2362:11 2363:6 2409:2 2417:2 2516:1 2520:1 2528:2 2542:4 2596:1 2712:1 2721:1 2722:1 2723:1 2724:9 2725:1 2726:5 2727:1 2728:4 2730:1 2731:15 2732:12 2737:1 2774:1 2852:1 3064:1 3207:1 3271:1 3453:1 3745:1 4104:1 4219:1 4334:1 4397:1 4665:1 4813:1 5098:1 5942:1 6009:1 6011:1 
0.01817192528948895 108:4 113:10 143:3 146:2 170:5 226:8 227:1 230:2 297:2 320:1 321:2 330:8 342:1 347:5 355:1 363:4 369:2 417:1 420:3 469:3 549:6 592:1 615:4 646:2 650:1 715:1 733:2 757:3 782:1 800:12 818:1 879:1 895:1 897:1 904:5 907:2 924:1 945:7 990:1 997:1 1063:1 1075:1 1140:8 1156:3 1208:1 1352:2 1371:1 1373:3 1415:2 1446:3 1449:6 1586:1 1612:1 1663:1 1677:1 1688:1 1695:1 1696:2 1702:3 1763:1 1765:1 1810:3 1833:2 1907:1 2045:1 2047:1 2126:1 2144:2 2263:3 2290:1 2350:1 2362:9 2387:1 2416:1 2465:1 2501:1 2571:1 2596:1 2665:1 2721:8 2723:1 2724:4 2726:11 2728:3 2729:1 2731:8 2732:16 3064:1 3271:1 3367:1 3460:1 3502:1 3575:1 3587:1 3637:1 4047:1 4090:1 4294:1 4298:1 4315:1 4320:1 4566:1 4582:1 4839:1 5083:1 5411:1 5518:1 5665:1 5999:1 6009:1 6011:1 
0.1353357108655992 14:1 108:3 113:5 121:1 143:2 230:3 250:1 330:3 355:1 363:2 421:2 428:1 545:1 646:3 688:1 800:3 823:1 891:1 904:2 1063:1 1140:8 1343:1 1371:1 1373:2 1431:1 1449:3 1493:2 1579:1 1637:1 1702:2 1810:2 1840:2 1842:2 1869:1 1903:1 1949:1 1974:1 1980:1 1994:1 2117:1 2126:1 2203:1 2263:2 2278:1 2314:1 2362:3 2409:1 2429:2 2434:2 2542:1 2721:1 2724:4 2726:5 2728:2 2731:8 2732:7 2774:1 2788:1 3397:1 3709:1 3760:1 4194:1 4334:1 4665:1 4898:1 5418:1 5752:1 6009:1 
0.4567175666198378 87:1 113:2 170:1 800:1 899:1 929:1 1063:1 1167:1 1449:1 1505:1 1791:1 1909:1 2056:1 2115:1 2287:1 2369:1 2409:1 2724:1 2726:3 2728:1 3505:1 4049:1 4830:1 
0.07017526154415989 14:1 113:2 143:3 146:1 222:1 226:1 330:1 428:1 445:1 543:1 549:2 646:1 800:3 888:1 934:1 945:1 1140:2 1260:1 1343:1 1366:1 1373:3 1459:1 1486:2 1564:1 1637:1 1681:1 1865:2 1967:1 2117:1 2126:1 2255:1 2314:1 2362:2 2409:2 2417:2 2528:2 2633:1 2721:2 2722:1 2724:1 2726:3 2727:1 2728:2 2731:2 2732:3 3271:1 3397:1 3760:1 3869:1 4334:1 4397:1 4813:1 5704:1 6009:1 
0.02384254952707681 49:1 61:1 90:2 108:1 113:6 121:1 135:4 155:1 173:2 212:1 268:1 287:1 321:1 330:10 355:1 360:1 385:2 394:1 469:1 472:3 549:1 606:1 698:4 732:1 800:9 803:6 922:5 955:1 1063:1 1068:1 1158:1 1228:3 1295:1 1301:1 1355:2 1373:5 1400:1 1449:1 1450:1 1535:1 1648:1 1650:2 1669:1 1717:1 1742:1 1784:1 1903:1 1905:2 1922:1 2029:1 2142:3 2194:1 2236:2 2308:1 2356:1 2362:14 2363:1 2374:1 2385:7 2409:2 2516:1 2533:3 2571:1 2605:1 2665:1 2721:6 2723:3 2724:20 2725:6 2726:13 2727:1 2728:2 2732:1 3139:1 3214:1 3290:1 3619:1 4027:1 4354:1 4381:1 4529:1 4565:1 4663:1 4774:1 4880:1 4957:1 4980:1 4991:1 5069:1 5097:1 5265:1 5420:1 5518:1 5540:1 5752:1 5768:1 5792:1 
0.1627439780264465 9:1 14:1 108:3 113:9 143:10 165:1 226:2 230:14 330:8 355:3 363:1 364:1 417:1 421:2 472:1 484:1 492:5 496:1 545:1 549:3 590:1 592:1 646:6 659:1 688:2 790:1 800:11 818:1 823:5 850:1 880:1 888:1 898:1 904:5 932:1 1038:2 1063:5 1075:1 1140:16 1165:1 1198:1 1223:1 1343:2 1366:1 1370:1 1373:5 1433:1 1495:1 1550:2 1555:1 1637:6 1653:2 1677:1 1688:1 1701:1 1702:2 1715:1 1719:2 1785:1 1795:1 1810:2 1903:1 2091:1 2126:1 2192:1 2200:1 2211:1 2221:2 2263:2 2282:1 2314:5 2325:1 2356:1 2361:3 2362:6 2363:2 2392:1 2409:2 2416:1 2417:2 2542:5 2582:1 2721:3 2723:1 2724:6 2726:9 2728:2 2731:16 2732:11 2737:1 2765:1 2774:1 2788:1 3126:1 3397:1 3453:1 3567:1 3637:1 3745:1 4219:1 4334:1 4396:1 4397:1 4655:1 4665:1 4813:1 4838:1 4918:1 5097:1 5197:1 5227:1 5484:1 5714:1 5752:1 6009:1 
0.02269062272650285 70:2 82:1 93:2 95:4 100:1 108:5 113:8 135:1 143:2 212:2 220:3 230:4 268:1 316:1 321:3 330:8 343:1 355:4 373:1 394:1 399:1 404:1 469:1 472:5 549:1 562:2 606:1 619:2 633:1 683:2 731:1 800:17 823:2 828:2 999:2 1022:1 1044:1 1063:1 1080:3 1140:8 1156:2 1182:1 1289:1 1373:9 1435:1 1473:1 1493:2 1495:7 1529:1 1535:1 1540:3 1582:1 1618:1 1678:2 1719:1 1729:7 1793:2 1799:1 1811:1 2029:1 2041:2 2074:1 2185:2 2194:2 2248:2 2280:1 2286:3 2353:1 2361:1 2362:5 2363:1 2409:2 2445:1 2465:1 2551:2 2559:3 2571:3 2617:2 2661:2 2676:1 2721:4 2722:3 2723:3 2724:9 2725:1 2726:18 2727:1 2728:3 2730:1 2731:8 2732:1 2902:1 2986:1 3126:1 3214:1 3317:1 3691:1 3810:1 3830:1 4399:1 4567:1 4636:1 4665:1 4680:1 4843:1 4901:1 4991:1 4992:1 5091:1 5287:1 5293:1 5411:1 5420:1 5518:1 5592:1 5630:1 5768:1 5945:1 
0.09926565125807044 14:1 36:1 108:5 113:9 133:1 143:3 146:1 219:2 226:7 230:8 268:2 316:2 330:3 355:3 363:1 421:2 472:1 479:1 484:1 496:2 545:1 549:5 590:1 646:2 659:1 686:2 781:1 800:9 823:2 888:1 904:1 922:1 940:1 945:7 1043:2 1075:1 1140:13 1156:2 1198:1 1245:2 1343:1 1366:1 1369:3 1370:1 1371:2 1373:7 1428:1 1434:2 1449:6 1493:2 1568:1 1579:1 1653:3 1688:1 1702:2 1715:1 1763:1 1810:2 1833:1 1848:4 1865:2 1903:1 1974:1 1996:1 2003:1 2117:1 2126:1 2148:1 2187:1 2194:2 2313:1 2314:1 2325:1 2356:1 2361:1 2362:7 2363:2 2392:1 2409:2 2417:2 2441:1 2487:1 2489:1 2497:1 2520:1 2542:3 2557:1 2571:4 2589:1 2683:2 2721:2 2722:1 2724:7 2725:2 2726:4 2727:1 2728:5 2731:13 2732:10 2737:1 2774:1 2941:1 2975:1 3024:1 3271:1 3453:1 3709:1 3745:1 4254:1 4279:1 4334:1 4397:1 4665:1 4813:1 4898:1 4991:1 5097:1 5114:1 5197:1 5286:1 5594:1 5604:1 5742:1 5752:1 6009:1 
0.01444000185365871 108:2 113:5 135:1 143:2 170:1 185:1 191:1 216:1 278:4 285:1 316:4 330:3 365:1 369:1 399:1 415:1 431:1 469:1 472:1 480:1 503:1 526:1 706:1 720:1 730:1 774:1 800:4 896:1 900:1 907:1 922:1 973:1 1007:1 1063:1 1080:1 1188:1 1202:1 1242:1 1247:1 1255:1 1260:1 1349:2 1373:5 1386:1 1432:1 1446:1 1461:1 1503:3 1507:1 1597:1 1692:1 1695:1 1714:1 1771:1 1803:1 1903:1 1963:1 1967:1 2070:1 2087:1 2183:1 2409:1 2477:1 2592:1 2596:1 2665:1 2721:8 2724:6 2725:3 2726:9 2728:4 2732:1 2829:1 3159:1 3184:1 3584:1 3740:1 3765:1 3844:1 3962:1 4130:1 4294:1 4543:1 4582:1 4842:1 5039:1 5062:1 5144:1 5205:1 5328:1 5518:1 5752:1 5768:1 
0.957050101973014 113:1 135:1 143:1 170:1 330:1 355:1 396:1 479:1 549:1 577:1 586:1 800:1 856:1 888:1 1140:1 1182:1 1260:1 1358:1 1373:2 1509:1 1856:1 1865:1 1967:1 2314:1 2361:1 2362:1 2417:1 2490:1 2527:1 2724:1 2726:1 2728:1 2731:1 2732:1 4813:1 5624:1 5768:1 
0.1280277900593297 113:1 124:1 143:2 146:1 222:1 226:1 230:2 279:1 330:1 369:1 428:1 549:2 577:2 800:3 922:1 945:1 1140:2 1274:1 1292:1 1358:2 1373:1 1555:1 1579:1 1903:1 2126:1 2164:1 2362:3 2562:1 2725:1 2726:2 2728:2 2731:2 2732:3 3271:1 3760:1 4134:1 4898:1 5752:1 
0.216003373292434 113:4 322:2 356:2 479:3 549:2 640:2 686:2 1083:2 1177:2 1195:2 1226:1 1329:2 1373:6 1423:2 1629:1 1653:2 1866:2 2112:1 2177:2 2343:1 2409:2 2728:5 2730:4 2732:2 5623:1 
0.4304323354802352 113:3 330:1 377:1 496:1 545:1 549:2 719:1 742:2 826:2 922:1 1156:2 1373:4 1903:1 2125:1 2361:2 2409:2 2439:2 2665:1 2721:2 2728:2 2732:2 4523:1 5752:1 
0.06883470772031459 39:1 72:2 113:3 121:1 322:1 330:3 469:1 472:1 754:1 833:1 916:1 922:1 1063:1 1140:1 1175:1 1176:4 1358:1 1446:2 1449:1 1822:1 1825:4 1833:2 1892:1 1916:1 2023:1 2345:1 2362:1 2465:1 2721:1 2722:6 2723:1 2724:1 2726:3 2728:6 2731:1 2809:1 4582:1 4850:1 4853:1 4986:1 5068:1 5403:1 5411:1 5518:1 5776:1 
0.2815372657790516 113:2 326:1 356:2 479:1 520:2 548:4 1018:1 1226:1 1267:1 1373:12 1652:2 1714:2 1720:2 1832:4 1854:4 1865:2 2112:1 2300:2 2343:1 2459:2 2728:5 2729:2 2730:2 2732:4 2966:1 3330:1 
0.3062190942712722 9:1 14:3 108:5 113:6 143:5 165:1 187:4 226:2 230:2 330:3 355:2 363:8 417:2 421:3 484:1 492:2 496:1 545:1 549:2 590:4 659:1 688:3 730:2 800:9 818:2 823:1 888:1 904:2 1038:3 1063:2 1075:1 1140:14 1165:1 1343:3 1366:1 1369:5 1370:4 1373:7 1428:3 1495:1 1505:2 1507:2 1637:2 1693:3 1702:3 1768:3 1785:1 1810:3 1839:1 1866:2 2061:2 2091:1 2117:1 2118:1 2126:1 2201:1 2263:3 2314:3 2361:3 2362:10 2363:3 2409:2 2434:2 2571:5 2582:2 2722:3 2723:1 2724:8 2725:3 2726:9 2728:2 2731:14 2732:7 2737:1 2765:1 2774:1 2788:1 3126:1 3397:1 3567:1 3737:1 3745:1 4219:1 4334:1 4397:1 4665:1 4813:1 5522:1 
0.5953603990577992 67:1 113:2 135:1 266:1 296:1 322:1 330:1 374:2 426:2 549:2 588:1 668:2 729:3 773:1 800:1 1007:1 1063:1 1140:1 1156:2 1249:1 1358:2 1373:3 1446:1 1572:2 1693:1 1702:1 1810:1 1836:1 1839:1 1851:1 1903:1 1995:1 2110:1 2197:1 2245:1 2325:1 2361:2 2362:5 2712:1 2722:1 2724:1 2725:1 2728:2 2731:1 2732:3 2875:1 3088:1 3909:1 4499:1 4582:1 5752:1 5768:1 
0.02080102872616804 29:1 44:3 55:1 102:1 108:4 113:6 135:1 143:2 163:1 170:2 194:1 230:1 271:2 316:1 330:4 355:2 369:2 386:1 469:1 476:1 572:2 618:1 698:1 727:1 733:1 800:11 824:4 907:2 922:3 924:1 945:1 1048:1 1053:1 1063:2 1080:4 1082:1 1151:2 1154:1 1156:1 1202:1 1237:2 1260:3 1300:4 1320:1 1337:1 1342:2 1373:7 1392:1 1446:1 1449:2 1555:1 1560:1 1594:3 1604:2 1650:4 1684:1 1755:1 1810:2 1874:1 1897:1 1903:1 1967:3 2070:1 2087:1 2208:1 2251:1 2322:1 2341:1 2361:2 2362:12 2383:2 2409:2 2431:1 2457:1 2569:1 2621:1 2665:4 2692:1 2700:1 2721:24 2723:2 2724:13 2725:2 2726:22 2727:4 2728:8 2773:1 2947:1 3096:1 3271:1 3359:1 3879:1 4002:1 4011:1 4229:1 4259:1 4294:1 4308:1 4381:1 4582:1 4695:1 4838:1 4861:1 5013:1 5166:1 5226:1 5311:1 5472:1 5502:1 5518:1 5655:1 5752:1 5768:1 
0.007080590499206142 113:2 168:1 270:4 326:1 356:2 479:1 549:6 554:1 674:4 738:4 1018:1 1022:1 1121:1 1131:4 1226:1 1373:12 1570:2 1573:2 1714:2 2112:1 2313:2 2343:1 2728:4 2729:1 2730:3 2732:6 
0.005260086893541766 104:1 108:7 113:5 127:1 141:3 143:1 211:2 232:1 316:1 320:1 322:1 330:5 354:1 422:1 456:1 472:1 476:1 572:1 618:1 620:1 717:1 727:2 733:1 794:1 800:6 852:9 922:2 930:1 936:1 965:2 1063:2 1100:1 1116:1 1129:1 1156:2 1171:1 1186:1 1198:5 1233:1 1237:1 1260:3 1287:1 1342:1 1373:7 1393:1 1449:1 1555:1 1586:1 1594:1 1650:2 1704:1 1771:2 1855:6 1859:2 1903:1 1967:3 2219:1 2251:1 2252:1 2273:1 2362:9 2387:1 2396:1 2409:2 2529:1 2531:1 2544:1 2569:2 2651:1 2683:2 2721:10 2722:2 2723:4 2724:4 2725:3 2726:5 2727:1 2728:2 2773:1 2798:1 2864:1 3060:1 3092:1 3289:1 3485:1 3517:1 3579:1 3645:1 3702:1 3721:1 3740:1 3753:1 3790:1 3795:1 3876:1 3903:1 3932:1 4165:1 4182:1 4279:1 4454:1 4542:1 4585:1 4684:1 4821:1 4838:1 4914:1 5078:1 5580:1 5752:1 5923:1 
0.1709954794812036 108:1 113:5 155:1 170:1 230:3 234:1 266:1 313:1 320:1 322:1 330:1 355:2 369:1 396:1 401:1 479:1 486:1 526:1 549:1 584:1 662:1 773:1 800:5 818:1 856:2 910:3 1044:1 1063:2 1111:1 1140:4 1141:1 1156:2 1238:1 1260:1 1347:2 1373:3 1382:1 1449:1 1509:1 1571:1 1588:2 1650:2 1702:1 1720:1 1879:1 1900:1 1945:1 1967:1 2037:1 2068:1 2075:1 2361:1 2362:5 2391:2 2409:2 2665:2 2721:8 2723:1 2724:6 2726:5 2728:2 2731:4 2732:1 3277:1 3956:1 3962:1 4663:1 4860:1 5496:1 5748:1 
0.02570741309876005 9:1 14:2 36:2 108:4 113:10 143:3 165:1 187:1 188:1 226:1 230:12 330:8 355:1 363:1 367:1 410:2 411:1 417:1 421:4 472:2 484:1 492:5 496:1 545:1 549:3 582:1 592:1 646:6 659:1 678:2 778:1 781:1 785:1 800:7 818:1 823:5 888:1 904:6 907:1 1038:2 1063:6 1075:3 1140:16 1143:2 1156:1 1165:1 1198:1 1228:2 1366:1 1369:1 1373:5 1449:1 1465:1 1495:1 1653:3 1654:1 1677:1 1688:2 1696:2 1702:4 1761:1 1768:1 1785:1 1810:4 1866:2 2061:2 2091:1 2096:1 2100:1 2117:1 2126:1 2192:1 2258:1 2282:1 2314:1 2325:2 2355:2 2356:2 2362:1 2363:4 2392:2 2416:1 2502:1 2542:2 2571:1 2582:1 2607:1 2721:4 2722:1 2723:5 2724:9 2726:5 2728:5 2731:16 2732:11 2737:1 2765:1 2872:1 3126:1 3163:1 3453:1 3454:1 3567:1 3637:1 3737:1 3805:1 4027:1 4219:1 4334:1 4397:1 4655:1 4665:1 4813:1 4918:1 5097:1 5197:1 5418:1 5501:1 5522:1 5777:1 6009:1 
1 113:3 250:2 330:1 377:1 496:1 545:1 549:2 719:1 741:2 922:1 1373:2 1903:1 1949:2 2125:1 2361:2 2409:2 2429:2 2665:1 2721:2 2728:2 2732:2 4523:1 5752:1 
0.03451706034747931 76:2 86:1 108:7 113:10 135:2 143:1 153:1 170:2 203:1 230:3 250:3 322:1 330:3 397:1 463:1 465:1 472:1 479:3 488:1 518:1 703:1 766:2 776:2 800:4 1027:1 1063:2 1088:1 1097:1 1101:1 1140:3 1156:2 1158:1 1202:1 1239:2 1260:3 1291:2 1322:1 1363:1 1373:9 1444:1 1449:2 1453:3 1545:1 1591:1 1682:1 1721:1 1746:1 1750:1 1758:1 1802:1 1840:1 1870:1 1915:2 1916:1 1949:5 1960:1 1967:3 1983:1 2003:1 2116:1 2125:1 2142:2 2166:1 2325:1 2334:1 2361:1 2362:7 2380:1 2387:1 2393:3 2409:4 2429:5 2434:2 2506:5 2527:3 2605:1 2665:4 2721:11 2723:7 2724:2 2725:1 2726:7 2727:1 2728:8 2729:2 2731:3 2732:1 2909:1 3215:1 3705:1 4523:1 4565:1 4660:1 4772:1 5159:1 5475:1 5506:1 5540:1 5654:1 5760:1 5768:1 5775:1 5776:1 5997:1 
0.03145654115561885 14:1 76:2 103:3 108:6 113:13 124:3 143:2 193:3 230:4 298:1 313:3 319:1 321:4 330:3 434:2 442:1 470:1 472:1 479:3 502:5 518:1 548:1 549:1 733:2 768:1 776:1 800:4 851:1 852:1 913:1 922:1 1012:1 1027:1 1073:1 1088:3 1101:1 1140:6 1141:3 1182:1 1232:2 1258:1 1260:4 1306:1 1343:1 1373:16 1433:3 1449:5 1453:1 1514:3 1535:1 1636:1 1650:5 1682:6 1792:6 1817:1 1865:1 1866:1 1879:3 1915:1 1928:1 1967:4 1968:1 1983:1 2003:1 2029:1 2037:1 2241:1 2325:3 2358:1 2361:2 2362:10 2409:9 2434:2 2451:1 2453:1 2470:1 2529:1 2571:4 2647:3 2665:2 2693:2 2709:1 2721:16 2723:3 2724:9 2726:4 2727:1 2728:21 2729:2 2731:6 2732:2 2960:1 3455:1 3509:1 3595:1 3643:1 3934:1 4334:1 5040:1 5438:1 5496:1 5530:1 5775:1 5825:1 5854:1 5994:1 6016:1 
0.02064554410817967 9:1 108:5 113:3 143:1 152:2 159:1 170:1 236:1 250:1 303:1 304:1 316:1 330:3 337:1 369:1 422:1 440:1 488:1 684:1 685:1 725:1 763:1 800:3 842:1 868:1 871:1 897:1 922:1 930:1 936:1 945:1 970:1 982:3 1000:1 1012:1 1025:2 1063:2 1125:1 1196:1 1211:1 1257:2 1328:1 1335:1 1373:7 1414:1 1537:1 1541:1 1586:1 1587:1 1714:1 1810:1 1903:1 2075:1 2077:3 2215:1 2238:1 2242:1 2253:1 2362:2 2409:1 2425:1 2465:1 2519:1 2528:1 2622:5 2721:3 2724:4 2726:8 2728:6 2730:1 2732:1 2765:1 2784:1 2935:1 3271:1 3552:1 3574:1 3753:1 3986:1 4082:1 4430:1 4712:1 4759:1 4797:1 4822:1 4914:1 5411:1 5422:1 5458:1 5677:1 5752:1 5929:1 
0.1927006928999342 108:3 113:5 129:1 146:1 170:1 234:2 316:1 320:1 330:3 368:1 469:1 470:1 562:1 718:2 800:1 945:2 1121:1 1156:1 1248:1 1280:1 1342:1 1368:1 1373:2 1440:1 1449:4 1528:4 1545:1 1573:1 1841:1 1903:1 2037:1 2121:1 2195:5 2326:1 2348:1 2465:1 2488:1 2605:1 2665:2 2721:8 2724:3 2726:3 2727:1 2728:3 2729:6 2730:3 2732:1 2773:1 3271:1 4400:1 4878:1 5029:1 5075:1 5411:1 5518:1 5752:1 
0.008482438352221112 41:2 108:3 113:8 135:1 137:1 143:2 157:2 170:1 171:1 207:2 220:2 232:1 316:2 321:2 322:1 330:3 369:1 447:2 465:1 476:1 486:1 508:1 549:2 698:1 727:1 755:3 800:11 825:2 840:3 918:1 922:3 932:2 945:1 951:4 1048:1 1063:5 1074:1 1080:1 1087:2 1116:2 1129:1 1147:1 1156:4 1197:2 1206:4 1225:2 1260:2 1281:1 1323:3 1373:3 1390:2 1446:6 1447:1 1449:1 1473:1 1517:1 1585:1 1611:1 1624:1 1696:1 1714:1 1788:4 1805:1 1903:1 1967:2 1987:1 2199:2 2207:1 2280:1 2283:1 2327:1 2338:1 2361:3 2362:3 2434:2 2478:1 2642:1 2645:1 2656:1 2683:2 2700:1 2721:3 2723:6 2724:6 2726:9 2728:8 2730:1 2732:2 2864:1 2925:1 3004:1 3103:1 3129:1 3218:1 3271:1 3304:1 3307:1 3368:1 3386:1 3533:1 3761:1 4139:1 4243:1 4279:1 4381:1 4474:1 4559:1 4582:1 4670:1 4746:1 4780:1 5015:1 5216:1 5231:1 5335:1 5469:1 5506:1 5752:1 5768:1 5866:1 5957:1 5977:1 5996:1 
0.02317787357238769 113:7 182:1 322:3 479:4 594:2 595:2 630:1 730:2 776:1 1018:1 1073:1 1156:1 1195:2 1226:1 1260:1 1373:9 1419:2 1505:2 1507:2 1571:2 1652:2 1817:2 1937:2 1967:1 2020:1 2161:2 2343:1 2397:1 2409:2 2679:1 2728:5 2729:1 2730:4 2903:1 3176:1 5623:1 
0.2446105360692881 14:4 108:3 113:12 135:1 143:2 167:1 226:7 230:12 316:1 330:2 355:2 363:1 381:1 417:1 421:4 428:2 484:1 486:1 496:1 545:1 549:5 646:2 659:1 675:1 729:2 800:11 818:2 823:5 888:1 904:2 927:1 978:1 1004:1 1055:2 1063:1 1075:1 1140:17 1165:1 1260:1 1343:3 1359:1 1365:7 1366:1 1369:3 1371:1 1373:6 1381:1 1428:2 1449:6 1486:2 1555:1 1653:1 1658:1 1702:4 1715:1 1785:1 1810:4 1833:1 1848:3 1866:2 1903:1 1936:2 1967:1 2091:1 2126:1 2164:1 2200:1 2204:1 2245:1 2291:1 2338:1 2349:1 2362:9 2363:5 2409:2 2434:2 2528:2 2542:6 2571:3 2673:1 2712:1 2721:1 2722:2 2723:1 2724:7 2725:2 2726:4 2728:3 2730:1 2731:17 2732:12 2737:1 2774:1 2820:1 3453:1 3745:1 3760:1 4104:1 4219:1 4334:1 4397:1 4665:1 4813:1 4838:1 5079:1 5098:1 5752:1 5768:1 6009:1 
0.1449187115636963 37:2 108:2 113:5 170:2 322:2 356:2 479:4 554:1 630:1 849:2 1018:1 1177:2 1195:2 1226:1 1239:1 1373:9 1419:2 1423:2 1437:1 1533:1 1650:2 1817:1 1894:1 2137:1 2179:2 2228:2 2343:1 2362:2 2409:2 2440:1 2543:1 2602:1 2679:1 2728:8 2729:1 2730:4 4053:1 5623:1 
0.2186799366232632 14:1 108:3 113:11 143:9 226:3 330:7 355:1 363:1 381:1 417:1 421:4 472:1 484:1 496:1 545:1 549:2 590:1 646:7 659:1 683:1 688:1 729:6 780:1 785:1 790:1 800:11 818:1 823:5 888:7 932:1 953:2 1055:1 1075:1 1140:18 1165:1 1343:1 1365:2 1366:1 1369:1 1370:1 1373:12 1397:1 1555:1 1579:1 1650:2 1653:2 1688:2 1702:4 1715:2 1785:1 1810:4 1848:7 1866:6 1903:1 1936:2 1991:1 2091:1 2126:1 2231:2 2263:1 2314:6 2325:1 2356:1 2362:3 2363:4 2392:1 2409:2 2542:3 2571:1 2673:1 2723:1 2724:5 2726:3 2728:2 2731:18 2732:12 2737:1 2774:1 2788:1 2820:1 3453:1 3745:1 4104:1 4219:1 4334:1 4397:1 4665:1 4813:1 4838:1 4898:1 5097:1 5197:1 5418:1 5752:1 6009:1 
0.1930940126481585 14:2 36:2 54:1 108:2 113:11 124:1 143:4 226:2 230:19 330:2 355:4 363:2 381:1 417:2 421:1 492:9 496:1 545:1 549:4 590:2 592:2 634:1 729:2 800:10 818:2 823:4 888:1 893:2 904:9 994:1 1038:2 1055:2 1063:9 1075:4 1140:22 1165:1 1198:2 1284:1 1358:2 1365:1 1366:1 1370:2 1373:4 1428:9 1505:1 1555:1 1579:4 1653:2 1677:1 1702:2 1785:1 1810:3 1866:2 1903:1 1980:1 2091:1 2126:2 2192:1 2282:2 2350:1 2361:2 2362:4 2363:3 2434:2 2542:4 2673:1 2722:9 2723:1 2724:6 2725:9 2726:4 2728:3 2731:22 2732:16 2820:1 2852:1 3453:1 3567:1 3745:1 4194:1 4219:1 4334:1 4397:1 4655:1 4665:1 4813:1 4838:1 4898:1 4918:1 5083:1 5752:1 
0.02912845219616566 54:1 108:1 113:4 143:3 205:1 226:1 227:1 316:1 320:1 342:1 355:2 363:2 369:1 417:1 428:1 549:3 592:1 757:3 800:6 897:1 904:1 922:1 1075:1 1142:1 1365:1 1373:2 1431:1 1447:1 1586:1 1650:2 1677:1 1776:2 1926:1 2263:1 2352:1 2356:2 2361:2 2362:2 2409:2 2416:1 2550:1 2665:1 2690:1 2721:9 2723:1 2724:2 2726:9 2728:2 2732:6 2820:1 2852:1 3575:1 3588:1 3637:1 3760:1 3762:1 4775:1 4839:1 5090:1 5097:1 5590:1 5958:1 
0.28669813181948 113:5 143:2 199:1 230:1 316:1 330:3 342:2 355:2 363:1 417:1 496:1 549:3 592:1 671:1 757:1 800:5 904:4 1023:1 1063:1 1075:1 1140:3 1156:1 1343:1 1373:1 1493:1 1505:2 1572:1 1677:1 1721:1 1833:2 1848:1 2056:2 2070:1 2076:2 2118:1 2192:1 2245:1 2287:2 2325:1 2356:1 2362:5 2376:1 2409:2 2416:1 2721:4 2723:2 2724:3 2726:5 2728:2 2731:3 2732:5 2774:1 3182:1 3575:1 3637:1 4380:1 4405:1 4655:1 5097:1 
0.0155703748558791 76:1 108:1 113:5 121:1 126:1 143:1 170:1 242:1 321:1 322:1 330:6 340:1 355:2 363:1 369:1 384:1 447:1 465:2 469:1 479:1 536:1 580:2 615:1 687:2 719:1 767:5 800:4 845:1 886:1 916:1 922:3 969:1 1034:1 1066:1 1128:2 1151:1 1156:1 1223:1 1230:1 1355:1 1373:6 1380:1 1449:2 1450:1 1451:1 1453:1 1455:1 1459:1 1584:1 1598:1 1650:2 1688:1 1759:1 1771:1 1828:1 2059:1 2070:1 2072:1 2090:1 2140:1 2194:2 2206:1 2258:1 2362:4 2367:2 2409:1 2428:1 2539:1 2592:1 2665:1 2721:7 2722:1 2723:6 2724:7 2725:5 2726:17 2727:3 2728:2 2729:1 3202:1 3302:1 3633:1 3707:1 3740:1 3976:1 4537:1 4586:1 4707:1 4917:1 4951:1 5095:1 5143:1 5271:1 5463:1 5506:1 5510:1 5518:1 5519:1 5557:1 5714:1 
0.01942296253278767 4:1 22:2 47:1 108:3 113:6 170:2 190:1 321:2 322:1 355:4 369:2 399:3 460:1 511:1 548:1 561:1 577:4 580:1 615:1 623:1 653:1 796:1 800:6 803:5 874:1 922:2 953:1 1027:1 1063:3 1156:2 1178:1 1230:1 1255:1 1260:2 1358:2 1373:2 1409:1 1429:1 1446:2 1512:1 1555:1 1595:2 1688:1 1697:1 1784:1 1812:1 1849:1 1891:2 1903:1 1967:2 1979:1 2113:1 2171:2 2182:1 2361:2 2362:5 2385:2 2446:1 2571:1 2665:3 2670:3 2721:7 2722:1 2724:10 2725:7 2726:10 2727:1 2728:6 2729:4 2732:1 3616:1 3992:1 4191:1 4465:1 4504:1 4537:1 4582:1 4786:1 5197:1 5428:1 5752:1 5956:1 
0.07928772414188805 22:1 47:1 108:2 113:2 149:2 170:1 321:2 330:1 331:1 355:1 479:1 511:1 548:2 577:2 700:1 773:2 800:3 803:1 1015:2 1063:1 1167:1 1178:1 1198:1 1358:2 1373:6 1377:1 1418:2 1595:1 1812:1 1891:2 1979:2 2171:1 2362:3 2670:1 2678:2 2721:2 2722:1 2724:4 2725:2 2726:8 2728:4 2729:2 2732:2 3992:1 4191:1 5124:1 5435:1 
0.04623918307689833 41:2 89:1 108:3 113:7 135:1 143:2 207:1 302:1 319:1 320:2 321:2 336:1 399:1 422:1 447:2 469:1 472:1 485:1 547:1 657:1 727:2 755:1 800:8 825:1 840:3 922:1 932:1 951:2 1048:1 1063:2 1080:1 1107:1 1156:4 1218:1 1307:1 1342:4 1373:9 1392:1 1446:4 1447:1 1449:2 1520:1 1555:1 1585:2 1652:2 1691:1 1695:1 1696:1 1748:1 1781:1 1805:3 1903:1 2004:1 2199:4 2218:1 2252:1 2361:4 2362:1 2363:1 2397:1 2414:2 2477:1 2478:2 2596:1 2665:1 2700:1 2721:9 2723:1 2724:2 2726:8 2727:1 2728:4 2730:7 2773:1 2864:1 2878:1 3103:1 3129:1 3304:1 3369:1 3390:1 3509:1 3558:1 3585:1 3726:1 3753:1 3839:1 4139:1 4452:1 4582:1 4780:1 4821:1 5518:1 5712:1 5752:1 5768:1 5866:1 5977:1 
0.3442795930846232 67:1 113:3 322:1 330:1 353:1 369:1 426:1 469:1 548:2 588:1 782:1 800:2 803:1 922:2 951:2 1007:1 1063:1 1140:1 1249:1 1260:1 1373:4 1483:3 1563:1 1568:1 1606:1 1693:1 1696:2 1702:1 1722:2 1768:1 1789:1 1810:1 1836:1 1839:1 1851:1 1886:1 1903:1 1967:1 2110:1 2197:1 2325:1 2361:2 2362:5 2385:1 2665:1 2712:1 2721:2 2722:1 2724:3 2725:2 2728:2 2731:2 2732:3 2875:1 3088:1 3737:1 3909:1 4499:1 4966:1 5518:1 5752:1 
0.008062068746365912 14:2 36:1 108:4 113:8 124:1 143:8 146:1 170:1 199:1 226:5 230:14 279:1 316:2 330:4 355:1 363:2 417:1 484:2 492:3 496:2 545:1 548:1 549:2 590:4 592:1 627:1 634:1 646:5 659:1 800:8 823:2 888:1 893:3 904:4 934:1 993:1 1038:1 1063:6 1075:3 1140:19 1156:1 1165:1 1198:1 1343:2 1358:2 1366:1 1370:4 1373:14 1449:1 1579:4 1677:2 1702:5 1810:5 1848:3 1865:2 1935:1 1980:1 2003:2 2091:1 2101:2 2108:1 2117:1 2126:2 2192:1 2216:2 2246:4 2282:1 2361:1 2362:1 2363:5 2365:1 2375:1 2381:1 2468:1 2489:1 2542:2 2564:1 2571:1 2619:1 2721:3 2722:1 2723:1 2724:8 2725:3 2726:4 2727:2 2728:3 2729:1 2731:19 2732:12 2737:1 2774:1 3182:1 3207:1 3567:1 3996:1 4194:1 4219:1 4334:1 4397:1 4655:1 4665:1 4813:1 4898:1 4918:1 5162:1 6009:1 
0.005231385862848817 14:1 35:2 36:2 108:5 113:14 143:5 146:1 170:2 226:2 230:1 236:1 250:2 258:1 297:2 342:1 355:2 363:1 417:2 421:2 484:1 492:9 496:1 545:1 548:4 590:2 592:1 652:4 659:1 688:2 800:7 823:9 888:1 898:2 904:11 995:2 1063:11 1075:2 1140:22 1165:1 1198:1 1260:2 1303:1 1343:2 1366:1 1369:2 1370:2 1373:6 1428:9 1431:2 1434:2 1483:2 1579:2 1653:3 1677:2 1702:3 1810:3 1865:1 1949:2 1967:2 1980:1 2003:1 2029:1 2091:1 2099:1 2104:1 2105:1 2106:1 2117:1 2118:1 2126:2 2192:1 2245:3 2246:1 2282:1 2325:1 2361:2 2362:1 2363:2 2409:2 2416:2 2429:2 2434:2 2542:6 2571:2 2721:6 2722:10 2723:2 2724:9 2725:10 2726:7 2727:1 2728:2 2731:20 2732:17 2737:1 2774:1 2788:1 2975:1 3207:1 3453:1 3460:1 3575:1 3637:1 3745:1 4194:1 4219:1 4334:1 4368:1 4397:1 4655:1 4665:1 4813:1 4898:1 4918:1 4969:1 
0.2492128259068018 113:3 250:2 330:1 377:1 496:1 545:1 548:4 719:1 740:2 922:1 1373:4 1561:2 1720:2 1903:1 1949:2 2125:1 2361:2 2409:2 2429:2 2665:1 2721:2 2728:2 2732:4 4523:1 5752:1 
0.4626604079081799 113:3 322:1 330:1 377:1 479:1 496:1 545:1 548:4 594:1 661:2 719:1 743:2 922:1 1373:5 1418:2 1419:1 1765:1 1832:2 1903:1 2124:2 2125:1 2233:1 2361:2 2409:2 2665:1 2721:2 2728:2 2732:4 2928:1 4523:1 5752:1 
0.05951479046445532 14:2 108:4 113:8 143:6 192:2 205:1 216:1 226:5 230:2 234:1 236:1 267:1 316:1 320:2 322:2 330:2 355:1 384:1 399:1 417:2 428:3 472:1 496:1 503:1 545:1 548:2 549:2 615:1 617:1 646:1 661:2 757:2 800:14 823:1 825:1 843:1 888:1 904:3 907:2 922:1 945:1 1020:1 1023:5 1026:4 1063:1 1115:1 1140:2 1156:1 1198:1 1274:2 1315:1 1331:1 1366:1 1373:8 1375:3 1400:1 1432:2 1446:1 1449:1 1483:4 1569:1 1579:3 1677:1 1695:1 1743:1 1745:1 1833:3 1848:1 1883:1 1907:1 1939:1 1976:2 1980:1 2044:1 2070:1 2117:1 2123:1 2124:2 2126:1 2245:1 2246:4 2285:1 2315:2 2353:1 2362:17 2406:2 2409:2 2437:2 2493:1 2542:2 2580:2 2621:3 2713:1 2721:6 2722:2 2723:2 2724:5 2725:4 2726:11 2727:2 2728:2 2731:2 2732:12 2761:1 2928:1 3104:1 3133:1 3207:1 3271:1 3277:1 3314:1 3356:1 3490:1 3529:1 3633:1 3676:1 3760:1 4047:1 4134:1 4194:1 4334:1 4397:1 4582:1 4665:1 4749:1 4775:1 4813:1 4898:1 4965:1 5091:1 5942:1 6009:1 
0.1419551016472914 11:1 113:4 121:1 155:1 204:1 221:1 230:2 294:1 320:1 330:1 410:2 472:1 688:1 773:1 800:3 823:1 907:1 908:1 910:1 1052:1 1140:2 1156:1 1181:1 1266:1 1373:3 1449:1 1509:1 1557:1 1571:1 1696:2 1702:1 1723:1 1847:1 1903:1 2007:1 2061:1 2338:1 2355:2 2361:1 2362:1 2391:2 2723:1 2724:1 2726:2 2728:2 2731:2 2732:2 2788:1 3250:1 4328:1 4663:1 4665:1 4860:1 5752:1 
0.205062102715889 9:1 36:1 113:4 143:2 226:2 230:1 250:2 316:1 330:2 355:1 417:1 548:2 592:1 757:1 759:1 800:5 869:1 954:1 1026:1 1140:2 1373:3 1449:1 1495:1 1568:1 1658:1 1833:2 2076:1 2126:1 2144:1 2192:1 2263:1 2269:1 2356:1 2362:3 2409:2 2501:1 2528:2 2529:1 2539:1 2622:2 2721:2 2724:1 2726:5 2728:2 2731:2 2732:4 2765:1 3126:1 3156:1 3192:1 3529:1 4405:1 4566:1 5097:1 
0.01254021802130519 2:1 108:9 113:2 139:1 143:2 256:1 316:2 320:3 321:1 330:1 336:1 369:1 399:1 422:2 479:1 493:1 530:1 548:2 553:2 618:1 678:1 800:2 841:2 922:4 1063:3 1071:2 1081:3 1082:1 1104:2 1128:1 1168:1 1171:3 1198:3 1223:2 1228:1 1242:2 1260:6 1334:2 1342:3 1358:2 1373:14 1430:1 1446:3 1447:1 1449:2 1461:1 1632:3 1652:2 1765:2 1819:1 1903:1 1926:1 1967:5 2251:1 2361:3 2362:3 2417:2 2423:2 2465:1 2557:1 2571:1 2592:1 2642:1 2665:1 2685:9 2719:1 2721:14 2722:1 2723:1 2724:5 2725:1 2726:7 2727:2 2728:8 2730:2 2732:2 2773:1 2873:1 3044:1 3132:1 3149:1 3171:1 3228:1 3395:1 3410:1 3464:1 3558:1 3610:1 3648:1 3675:1 3753:1 3802:1 3896:1 3970:1 4027:1 4141:1 4282:1 4432:1 4582:1 4666:1 4694:1 4698:1 5004:1 5338:1 5375:1 5411:1 5604:1 5714:1 5752:1 5848:1 5954:1 5996:1 
0.08070109074651881 101:1 108:2 113:2 135:1 143:1 330:1 355:1 367:1 369:1 607:1 800:2 845:1 922:1 1335:1 1358:1 1373:1 1430:1 1446:1 1449:3 1453:1 1535:1 1674:1 1892:1 1901:3 1916:1 2090:1 2338:1 2355:1 2362:1 2685:3 2723:1 2724:1 2726:3 2728:3 2729:1 2730:3 4582:1 4850:1 5239:1 5345:1 5768:1 5776:1 5919:1 
0.9953007834434427 113:1 121:1 330:1 469:1 472:2 526:1 615:2 719:1 800:2 922:1 939:1 1030:1 1180:1 1373:1 1528:2 1668:1 1776:1 1903:2 2195:2 2605:1 2665:1 2721:2 2722:1 2725:1 2727:1 2728:2 2732:1 2951:1 3762:1 3962:1 5133:1 5149:1 5518:1 5584:1 5752:1 
0.1732751901938351 113:3 322:2 479:4 594:2 595:2 615:2 630:1 800:1 1156:2 1195:2 1226:1 1373:7 1421:2 1569:2 1629:1 1652:5 1937:5 2343:1 2362:1 2526:2 2679:1 2706:1 2728:4 2729:1 2730:4 2732:1 5623:1 
0.07668969563036683 97:2 113:2 135:2 379:1 396:2 1063:2 1352:2 1415:2 1696:2 2050:1 2537:2 2728:2 3121:1 5548:1 5768:1 5911:1 
0.7407919086412453 113:2 135:2 379:1 1063:2 1352:2 1415:2 1696:2 1766:2 1903:2 2050:1 2728:2 5752:1 5768:1 
0.002075501154505197 7:2 73:4 108:4 113:3 143:5 157:5 190:2 230:1 242:1 320:4 322:1 330:5 333:1 358:6 369:2 422:1 469:1 472:1 479:4 494:1 518:1 548:1 565:1 587:2 733:2 797:1 800:4 833:3 851:1 856:2 862:2 924:1 1007:1 1063:3 1066:1 1088:2 1097:1 1111:1 1212:1 1260:6 1277:1 1291:1 1356:1 1373:15 1414:4 1417:1 1433:1 1438:2 1446:1 1449:6 1451:1 1520:2 1523:4 1534:2 1545:1 1693:2 1702:1 1745:1 1775:1 1802:2 1833:4 1916:2 1950:2 1967:6 2087:2 2101:1 2138:3 2206:4 2313:2 2314:1 2315:1 2325:2 2361:2 2362:6 2363:1 2409:3 2417:1 2551:1 2571:3 2587:1 2610:6 2642:2 2665:1 2670:1 2683:3 2721:9 2722:8 2723:4 2724:13 2725:8 2726:12 2727:2 2728:19 2730:4 2732:1 2814:1 2948:1 3416:1 3420:1 3526:1 3676:1 3753:1 4039:1 4175:1 4279:1 4517:1 4582:1 4586:1 4917:1 5271:1 5457:1 5518:1 5587:1 5592:1 5691:1 5776:1 5991:1 5996:1 
0.04185439991704791 113:3 148:1 220:1 330:1 350:4 351:1 356:2 404:2 479:1 548:4 698:1 731:2 800:2 928:1 1063:1 1156:1 1226:1 1335:1 1373:12 1412:1 1449:1 1454:1 1545:1 1568:2 1569:2 1714:2 1817:2 2140:1 2300:2 2343:1 2362:1 2456:2 2499:2 2633:1 2665:1 2679:1 2702:2 2706:2 2721:7 2724:4 2726:2 2728:5 2730:3 2732:5 3330:1 3594:1 4381:1 5992:1 
0.07692658127179236 14:2 54:1 108:4 113:6 124:1 143:3 146:1 226:4 230:10 268:2 279:1 316:2 330:3 355:6 363:5 369:1 414:1 417:1 421:2 428:1 465:1 472:1 484:1 492:2 496:2 545:1 548:5 549:1 577:2 580:1 590:2 592:1 646:2 659:1 757:1 800:8 823:1 888:1 904:3 922:2 945:3 979:1 980:1 1038:1 1063:2 1075:2 1134:1 1140:12 1156:3 1165:1 1198:1 1223:1 1292:1 1342:1 1343:1 1358:2 1366:1 1370:2 1373:9 1406:1 1428:2 1446:1 1447:1 1449:2 1534:1 1579:3 1637:1 1688:2 1702:2 1781:1 1810:2 1839:1 1865:2 2044:1 2075:1 2091:1 2117:1 2126:1 2194:2 2263:2 2314:1 2325:1 2356:1 2362:6 2363:2 2392:2 2417:2 2434:2 2529:1 2539:1 2542:2 2665:1 2716:1 2721:7 2722:2 2723:1 2724:9 2725:2 2726:17 2728:2 2731:12 2732:11 2737:1 2761:1 2773:1 2774:1 2852:1 3271:1 3397:1 3567:1 3680:1 3745:1 3760:1 3788:1 4219:1 4334:1 4397:1 4496:1 4537:1 4582:1 4665:1 4813:1 4898:1 4991:1 5097:1 5186:1 5197:1 5285:1 5476:1 5506:1 5714:1 6009:1 
0.01062397879728812 66:1 104:1 108:9 113:6 115:1 143:1 150:1 170:3 177:2 220:2 230:1 271:1 286:1 316:2 320:1 321:2 330:6 336:1 360:1 376:1 386:1 422:1 438:1 470:1 554:1 579:1 584:1 600:1 607:1 643:2 698:1 705:1 719:1 756:1 768:1 800:5 814:1 841:1 868:1 922:3 995:1 1023:1 1074:1 1116:1 1140:1 1156:1 1202:1 1233:1 1237:1 1260:1 1294:1 1317:1 1358:2 1373:7 1449:3 1480:2 1555:1 1643:1 1650:4 1687:1 1695:1 1705:4 1859:1 1903:1 1906:5 1946:1 1959:2 1967:1 2013:2 2048:1 2137:1 2276:2 2341:1 2362:6 2384:1 2387:1 2409:2 2465:3 2571:1 2605:1 2626:1 2665:3 2721:20 2723:1 2724:15 2725:1 2726:18 2727:2 2728:9 2730:1 2731:1 2758:1 3132:1 3188:1 3411:1 3418:1 3429:1 3449:1 3519:1 3539:1 3558:1 3619:1 3665:1 3753:1 3767:1 3841:1 4154:1 4250:1 4263:1 4381:1 4542:1 4838:1 5013:1 5087:1 5167:1 5411:1 5659:1 5752:1 5870:1 5919:1 5938:1 
0.1410945824466778 54:1 108:2 113:13 143:3 167:1 170:1 226:5 230:9 245:2 316:2 320:1 347:1 355:1 363:1 417:2 421:2 486:1 496:1 527:1 545:1 800:11 823:5 856:2 888:3 904:4 907:1 927:2 978:1 1026:2 1063:1 1075:1 1140:12 1260:1 1303:2 1343:3 1359:1 1365:2 1366:1 1371:3 1373:14 1381:1 1428:2 1449:5 1486:2 1653:1 1658:1 1677:1 1702:4 1810:4 1833:2 1841:1 1845:6 1865:4 1903:1 1967:1 1980:1 1996:1 2011:4 2104:1 2107:1 2117:1 2126:1 2246:3 2263:1 2338:1 2349:1 2361:2 2362:5 2363:4 2409:1 2416:1 2434:2 2445:2 2466:1 2501:1 2528:2 2542:3 2571:1 2721:4 2722:4 2724:9 2725:4 2726:5 2727:4 2728:5 2730:1 2731:12 2732:14 2774:1 2820:1 2852:1 3207:1 3313:1 3453:1 3529:1 3587:1 3637:1 3691:1 3745:1 4194:1 4397:1 4665:1 4813:1 5079:1 5752:1 
0.03255170298629944 9:4 24:1 108:4 113:3 121:1 141:1 143:1 170:3 226:5 316:1 320:1 321:1 330:5 363:5 369:2 450:1 465:1 469:1 536:3 548:5 549:1 589:1 592:1 646:1 689:2 757:2 800:6 878:2 893:5 945:1 980:1 993:1 1075:1 1115:1 1140:9 1223:1 1343:1 1358:2 1373:4 1449:1 1495:1 1542:1 1702:5 1720:1 1748:1 1810:5 1903:1 1945:1 2029:1 2045:1 2047:1 2061:1 2099:1 2101:1 2106:2 2126:1 2204:1 2344:1 2350:1 2361:1 2362:4 2363:1 2529:2 2564:2 2571:2 2665:2 2721:8 2722:2 2723:3 2724:5 2725:2 2726:14 2728:2 2729:3 2730:1 2731:9 2732:9 2765:1 2774:1 2792:1 3126:1 3271:1 3639:1 3814:1 3976:1 4298:1 4315:1 4320:1 5083:1 5285:1 5506:1 5518:1 5714:1 5752:1 6009:1 
0.01428858162868177 47:2 108:4 113:12 135:4 169:1 170:3 266:3 316:2 321:2 330:3 334:1 355:1 369:1 371:1 399:1 401:1 410:2 450:1 465:2 469:1 472:1 615:5 700:1 773:3 776:2 800:10 927:1 942:1 950:1 1027:2 1063:4 1066:2 1076:3 1101:2 1118:1 1156:3 1213:4 1230:1 1238:1 1276:1 1295:2 1305:1 1321:1 1342:1 1373:9 1449:9 1453:3 1494:1 1555:1 1696:2 1791:1 1802:1 1840:1 1862:1 1884:1 1903:2 1973:3 1983:2 1986:1 2055:2 2127:1 2142:2 2180:3 2182:1 2228:1 2282:1 2338:1 2355:2 2362:9 2458:2 2568:1 2627:2 2642:1 2665:4 2721:12 2722:1 2723:7 2724:4 2725:1 2726:8 2728:7 2729:9 2732:5 2773:1 3759:1 3814:1 4135:1 4565:1 4705:1 4970:1 5184:1 5224:1 5271:1 5428:1 5506:1 5518:1 5646:1 5752:1 5768:1 5996:1 
0.008029122897959404 108:2 113:6 143:2 190:1 212:1 223:1 250:2 316:4 320:3 321:1 330:4 369:1 456:1 469:1 486:1 496:1 508:3 510:2 561:3 576:1 642:1 712:1 727:1 747:1 800:3 931:1 935:1 960:1 1013:1 1063:1 1129:1 1152:1 1156:1 1210:3 1237:1 1260:2 1325:1 1335:1 1373:8 1394:1 1408:1 1413:1 1414:1 1432:1 1486:5 1586:1 1714:1 1820:5 1902:1 1903:1 1912:1 1946:1 1967:2 2025:3 2075:1 2089:3 2163:1 2168:1 2237:1 2283:1 2361:1 2362:3 2376:1 2409:1 2528:2 2529:2 2585:1 2648:1 2665:1 2721:9 2723:1 2724:7 2726:11 2728:16 2729:3 2777:1 2864:1 3036:1 3214:1 3307:1 3515:1 3792:1 3811:1 3863:1 4003:1 4031:1 4434:1 4492:1 4536:1 4831:1 4925:1 5078:1 5518:1 5634:1 5687:1 5731:1 5752:1 5833:1 5870:1 5989:1 
0.03123347219928892 73:1 108:2 113:3 157:1 250:1 304:1 321:2 322:1 369:1 561:1 800:5 875:1 922:1 982:2 1029:1 1048:1 1171:1 1260:2 1373:2 1401:1 1449:1 1594:1 1607:1 1612:1 1743:1 1748:1 1898:1 1903:1 1967:2 2000:3 2004:1 2070:1 2077:2 2245:1 2362:2 2409:1 2528:1 2593:1 2622:3 2665:1 2721:3 2724:1 2726:4 2728:5 2730:2 2732:1 2769:1 4121:1 4670:1 5310:1 5429:1 5721:1 5750:1 5752:1 5943:1 
0.4064962387716717 9:2 108:1 113:3 143:2 226:2 230:1 250:2 297:1 330:2 355:1 363:1 592:1 757:1 759:1 800:2 866:1 922:1 979:1 1026:1 1075:1 1140:4 1156:1 1447:1 1495:1 1810:1 1846:2 1903:1 2076:1 2099:1 2100:1 2126:1 2192:1 2263:1 2359:1 2362:4 2409:1 2528:2 2622:2 2721:2 2724:1 2726:5 2728:2 2731:4 2732:4 2765:1 3126:1 3156:1 3460:1 3529:1 4405:1 4655:1 5099:1 5752:1 
0.008865871533690298 108:1 113:14 124:3 135:1 143:1 190:1 216:1 230:2 313:1 316:1 320:2 330:2 353:1 355:3 358:2 396:1 399:2 472:5 479:1 486:1 519:7 620:1 653:1 693:1 739:2 770:1 800:3 856:1 904:1 922:2 925:1 928:1 936:1 1023:1 1031:4 1063:2 1067:2 1078:1 1140:3 1156:5 1191:3 1198:1 1254:2 1260:2 1291:1 1311:4 1342:1 1358:3 1359:1 1363:1 1373:22 1388:5 1433:1 1438:1 1447:2 1449:4 1508:1 1568:1 1635:2 1717:1 1738:2 1768:1 1776:1 1802:2 1817:1 1833:2 1840:1 1866:2 1886:1 1903:2 1967:2 2031:1 2056:1 2245:1 2263:1 2332:1 2361:3 2362:6 2372:1 2395:1 2409:4 2417:1 2434:2 2465:1 2522:3 2551:1 2559:4 2571:1 2588:1 2661:1 2665:8 2703:7 2721:19 2724:6 2726:9 2728:24 2730:1 2731:3 2732:2 2773:1 3264:1 3737:1 3762:1 4273:1 4393:1 4550:1 4709:1 4769:1 5302:1 5411:1 5592:1 5645:1 5752:1 5768:1 5785:1 5838:1 
0.375299282163523 135:2 396:2 1063:2 1073:2 1332:2 1358:2 1373:4 1903:2 2120:1 2486:2 2528:2 2728:2 2732:2 3643:1 3777:1 5752:1 5768:1 
0.0004550101368540353 108:2 113:3 170:1 266:2 330:1 355:1 366:1 615:1 773:1 777:2 795:1 800:2 868:1 922:1 950:1 1307:1 1317:1 1336:1 1362:1 1373:3 1446:1 1449:1 1695:1 1891:1 1903:1 1922:1 1979:1 2092:1 2142:1 2171:1 2327:1 2362:2 2385:1 2409:1 2436:1 2528:3 2602:1 2620:1 2721:2 2724:3 2726:9 2727:1 2728:3 2729:3 2730:1 3002:1 3386:1 3690:1 3992:1 4250:1 4565:1 4582:1 4970:1 5331:1 5752:1 5792:1 
0.05596291879843206 76:2 113:6 145:3 256:3 768:1 800:5 896:1 1070:1 1156:1 1358:2 1369:3 1373:5 1579:1 1719:2 1725:3 1840:2 1915:1 1978:3 2029:2 2355:3 2361:2 2362:5 2409:3 2434:2 2647:2 2725:1 2726:2 2728:6 2732:2 4898:1 5278:1 5775:1 5854:1 
0.04701273823562235 108:6 113:4 173:1 250:1 284:1 320:1 330:6 360:1 373:1 422:1 465:1 469:1 558:1 629:2 660:1 684:1 725:1 800:2 809:1 842:1 862:1 875:1 922:1 970:1 1036:1 1063:1 1099:1 1156:1 1238:3 1242:1 1257:1 1260:2 1342:1 1373:7 1392:1 1401:1 1446:1 1607:1 1714:1 1802:1 1830:1 1850:1 1903:1 1935:1 1943:1 1944:1 1967:2 2077:2 2116:3 2123:1 2283:1 2362:3 2373:2 2399:1 2409:1 2425:3 2436:1 2528:1 2571:1 2589:1 2605:1 2616:1 2622:6 2642:1 2665:1 2686:1 2721:12 2724:8 2726:12 2728:6 2773:1 2784:1 3023:1 3041:1 3307:1 3380:1 3619:1 3753:1 3755:1 4582:1 4713:1 4846:1 4902:1 5221:1 5293:1 5331:1 5429:1 5506:1 5518:1 5742:1 5752:1 5859:1 5876:1 5996:1 
0.009716470236268397 108:4 113:3 130:1 135:1 143:2 153:1 170:4 250:1 291:1 303:2 316:2 321:2 330:2 469:1 472:1 476:1 530:1 631:2 727:1 800:6 925:1 969:1 1063:2 1085:1 1116:1 1156:2 1239:1 1336:2 1342:1 1373:9 1376:1 1449:1 1559:1 1584:1 1602:1 1624:1 1695:1 1739:1 1748:1 1749:1 1757:1 1802:1 1809:1 1902:1 1903:1 1909:1 1946:1 1949:2 1964:1 2043:1 2122:2 2163:1 2230:1 2237:1 2360:1 2362:5 2396:1 2429:2 2436:1 2605:1 2626:2 2665:1 2721:11 2723:3 2724:11 2726:17 2727:1 2728:5 2773:1 2817:1 3016:1 3036:1 3215:1 3302:1 3660:1 3986:1 4049:1 4292:1 4814:1 5015:1 5030:1 5331:1 5358:1 5518:1 5580:1 5752:1 5755:1 5768:1 5833:1 5870:1 
1 113:1 740:2 925:2 929:2 1075:2 1373:4 1561:1 1650:2 1720:1 1846:3 2728:2 2732:3 4907:1 
0.3931545304865313 14:1 108:1 113:4 143:1 226:3 230:4 330:1 358:2 363:1 421:1 496:1 545:1 646:1 679:1 688:3 800:3 823:1 875:1 907:1 1023:1 1063:1 1095:1 1140:5 1156:1 1365:3 1373:2 1449:2 1505:1 1702:1 1810:1 1840:3 2117:1 2126:1 2263:3 2362:8 2381:1 2409:2 2621:1 2673:1 2715:1 2724:1 2726:7 2728:2 2731:5 2732:4 2788:1 2820:1 4181:1 4334:1 4665:1 5162:1 5418:1 6009:1 
0.07431672191765651 9:1 36:1 108:4 113:2 135:1 143:4 165:1 170:1 226:3 325:1 330:2 355:1 363:2 369:2 504:1 521:1 545:1 615:1 617:1 683:2 737:2 759:1 800:4 888:1 953:2 1026:1 1075:2 1140:4 1156:1 1198:1 1358:1 1365:1 1366:1 1373:4 1449:2 1495:1 1555:1 1677:1 1702:1 1785:1 1810:1 1846:2 1851:1 1903:1 1904:1 1980:1 2029:2 2115:2 2126:3 2192:1 2246:1 2362:2 2416:1 2420:2 2434:2 2529:2 2673:1 2685:2 2724:2 2726:2 2728:2 2731:4 2732:7 2765:1 2820:1 3126:1 3156:1 3207:1 3529:1 3637:1 3909:1 4194:1 4397:1 4471:1 4655:1 4813:1 5606:1 5648:1 5752:1 5768:1 5942:1 
0.01090483167796905 108:3 113:8 143:5 146:1 184:1 226:4 230:6 330:4 342:2 355:2 363:2 417:2 421:2 496:1 545:1 592:2 688:1 757:1 779:1 785:1 800:10 823:2 888:1 904:2 945:3 953:2 1063:1 1075:3 1140:10 1156:1 1198:2 1303:5 1343:4 1366:1 1373:4 1406:1 1428:2 1434:2 1449:2 1495:1 1555:1 1650:2 1658:1 1677:1 1702:3 1810:3 1845:2 1846:5 1903:1 2029:2 2076:1 2102:1 2104:1 2126:2 2192:1 2263:1 2362:6 2363:2 2409:2 2416:1 2434:2 2449:1 2520:1 2529:2 2571:2 2617:1 2721:4 2722:7 2723:2 2724:7 2725:7 2726:7 2727:5 2728:2 2731:10 2732:8 2774:1 2788:1 2975:1 3126:1 3271:1 3575:1 3637:1 3745:1 4397:1 4405:1 4496:1 4655:1 4665:1 4732:1 4813:1 4838:1 5752:1 
0.1398395243159498 14:2 35:1 108:2 111:1 113:7 143:4 170:3 219:1 226:6 230:4 330:2 355:2 363:1 381:1 417:2 426:1 428:3 492:1 496:1 545:1 592:1 617:1 773:1 800:7 823:1 888:1 904:4 1026:2 1055:1 1063:2 1075:3 1140:9 1198:5 1327:1 1365:4 1366:1 1373:5 1428:2 1512:1 1555:1 1563:1 1579:1 1623:1 1635:1 1644:2 1653:1 1702:3 1785:1 1810:3 1822:1 1833:2 1836:1 1846:3 1865:2 1866:1 1980:1 1991:2 2061:1 2110:1 2117:1 2126:2 2192:1 2263:1 2362:6 2409:2 2417:2 2434:2 2542:1 2571:2 2612:1 2673:1 2720:1 2722:2 2724:5 2725:2 2726:6 2728:4 2731:8 2732:11 2820:1 3453:1 3529:1 3760:1 4194:1 4334:1 4368:1 4397:1 4499:1 4655:1 4665:1 4813:1 4898:1 4966:1 5114:1 5507:1 5942:1 
0.02663974347802974 82:2 108:1 113:4 316:1 320:1 324:1 330:1 369:1 470:2 562:1 730:2 800:1 816:2 848:2 1140:2 1260:1 1373:5 1571:1 1572:1 1618:1 1696:2 1714:1 1846:1 1959:1 1967:1 1978:2 2003:2 2032:1 2255:1 2353:1 2362:2 2434:2 2661:1 2721:6 2724:3 2726:2 2728:4 2731:2 2732:2 3535:1 4402:1 4491:1 4992:1 5091:1 5378:1 
0.01218699219854682 102:1 108:10 113:6 143:3 153:3 160:1 250:1 316:2 330:2 410:1 422:1 446:1 497:1 501:1 503:1 572:1 756:1 831:2 859:1 870:2 922:1 930:1 938:1 975:1 1025:2 1063:1 1156:2 1188:1 1238:1 1250:1 1342:1 1373:7 1430:1 1446:1 1449:1 1537:1 1597:1 1599:1 1613:1 1688:1 1760:1 1838:1 1858:1 1859:1 1956:1 1963:1 2005:1 2010:1 2046:1 2057:4 2220:1 2271:3 2335:1 2359:2 2362:2 2380:1 2391:1 2396:1 2402:1 2409:1 2452:1 2528:1 2571:1 2605:1 2622:8 2639:1 2721:12 2722:2 2723:3 2724:8 2725:1 2726:12 2727:4 2728:6 2762:1 2773:1 2947:1 3316:1 3627:1 3731:1 3753:1 3808:1 4106:1 4195:1 4196:1 4327:1 4582:1 4742:1 4797:1 5099:1 5159:1 5185:1 5197:1 5233:1 5595:1 5793:1 5804:1 5819:1 5979:1 
0.1510139910272777 71:1 108:5 113:3 143:1 250:2 256:1 286:1 320:1 322:1 330:3 345:1 359:1 369:1 380:1 469:1 472:1 498:1 579:1 709:1 791:1 800:2 875:1 903:1 922:1 1048:1 1156:1 1202:1 1260:1 1309:1 1342:1 1373:5 1445:1 1447:1 1449:1 1469:1 1537:1 1555:1 1594:1 1607:1 1613:1 1652:1 1705:1 1743:1 1838:1 1903:2 1934:1 1943:1 1967:1 2061:1 2073:1 2122:2 2239:1 2245:1 2362:3 2409:1 2441:1 2462:1 2528:1 2529:1 2616:1 2622:3 2665:1 2682:1 2721:4 2724:2 2725:3 2726:3 2727:1 2728:4 2730:2 2732:1 2773:1 2830:1 3418:1 4083:1 4226:1 4549:1 4580:1 4745:1 4797:1 5310:1 5351:1 5518:1 5667:1 5752:1 5969:1 
0.02184444642287888 108:6 113:7 115:1 143:2 161:3 170:2 267:1 303:1 330:5 469:1 600:3 800:9 860:1 865:2 889:1 922:1 975:1 1037:1 1063:1 1129:1 1147:1 1154:1 1156:2 1172:1 1200:1 1203:1 1223:1 1252:1 1258:1 1260:3 1276:1 1297:1 1342:1 1373:5 1385:1 1387:3 1446:2 1449:3 1463:1 1502:1 1535:1 1537:1 1612:2 1650:3 1695:1 1756:1 1768:1 1830:1 1852:1 1853:1 1883:1 1903:1 1929:1 1931:1 1967:3 1969:2 2028:1 2123:1 2283:1 2309:2 2341:1 2346:1 2362:7 2363:1 2366:1 2380:1 2409:2 2479:5 2504:2 2629:1 2694:1 2721:5 2722:2 2723:2 2724:9 2725:2 2726:12 2728:9 2732:1 2773:1 2931:1 3022:1 3066:1 3086:1 3167:1 3262:1 3307:1 3341:1 3356:1 3380:1 3507:1 3737:1 3840:1 3920:1 3938:1 3946:1 4080:1 4093:1 4135:1 4147:1 4154:1 4215:1 4291:1 4579:1 4582:1 4777:1 4797:1 5109:1 5120:1 5159:1 5170:1 5383:1 5518:1 5714:1 5752:1 5825:1 5961:1 6004:1 
1 113:3 144:1 280:2 356:2 929:1 1650:2 2115:2 2409:2 2728:2 
0.1166723965758405 2:3 14:1 113:4 143:4 330:2 617:2 646:1 653:4 707:1 800:4 843:1 888:3 922:1 1023:2 1140:2 1274:1 1366:1 1373:4 1375:3 1425:2 1440:1 1528:2 1717:1 1723:3 1833:3 1840:3 1842:1 2086:1 2117:1 2195:2 2411:2 2434:2 2488:1 2493:1 2599:1 2603:1 2728:1 2731:2 2732:4 2950:1 3133:1 3212:1 3423:1 4134:1 4334:1 4813:1 5769:1 5942:1 6009:1 
0.08542381965956092 16:1 33:1 108:3 113:6 135:1 143:2 169:1 170:1 310:2 321:1 322:1 330:4 365:1 375:1 399:1 401:1 410:1 517:1 686:8 800:2 922:2 940:1 1027:1 1063:1 1121:1 1325:1 1342:2 1362:4 1373:12 1449:1 1460:1 1512:1 1555:1 1597:1 1645:3 1649:1 1652:2 1653:7 1849:1 1903:2 1937:1 1973:1 1979:1 2286:2 2328:1 2338:1 2362:5 2387:1 2409:2 2430:2 2490:1 2548:3 2636:1 2683:1 2705:1 2722:3 2723:2 2724:2 2725:3 2726:16 2728:11 2729:4 2730:7 2773:1 3317:1 3855:1 4123:1 4191:1 4279:1 4340:1 4365:1 4600:1 5089:1 5649:1 5752:1 5768:1 
0.0163791445927191 11:1 41:1 94:7 108:9 113:10 143:3 173:2 183:1 250:2 315:1 316:1 322:1 330:3 369:2 480:1 488:1 503:1 534:1 563:3 611:1 629:1 660:1 702:1 712:1 763:1 800:3 803:1 807:1 853:3 868:1 875:1 877:1 897:1 903:1 908:1 969:1 1065:1 1099:1 1144:1 1156:2 1202:1 1260:1 1270:1 1342:4 1372:1 1373:2 1374:1 1392:1 1401:1 1446:1 1449:3 1555:1 1705:2 1781:1 1795:1 1797:1 1903:1 1945:1 1949:2 1965:2 1967:1 1975:1 1984:1 2210:2 2239:1 2348:1 2362:2 2380:1 2396:3 2401:1 2409:2 2429:2 2432:2 2485:2 2504:2 2554:1 2571:1 2596:3 2675:1 2721:6 2722:1 2723:1 2724:6 2725:2 2726:7 2727:2 2728:9 2732:2 2773:1 2834:1 2837:1 2935:1 3194:1 3389:1 3499:1 3885:1 4178:1 4185:1 4188:1 4328:1 4582:1 4796:1 4838:1 4931:1 5075:1 5082:1 5159:1 5200:1 5211:1 5267:1 5276:1 5363:1 5429:1 5484:1 5752:1 5976:1 
0.02691943703943937 108:3 113:5 143:4 216:1 250:2 316:1 321:2 330:2 331:1 346:1 462:1 517:1 597:5 748:1 800:3 1023:1 1063:1 1129:1 1199:1 1269:1 1335:1 1373:3 1452:2 1555:1 1705:1 1712:1 1795:1 1817:2 1894:1 1903:1 2116:2 2125:1 2152:1 2362:4 2409:1 2473:1 2493:2 2528:2 2583:3 2622:4 2665:1 2721:3 2724:2 2726:2 2728:7 2729:6 2730:3 3001:1 3748:1 4523:1 4811:1 4840:1 5048:1 5129:1 5484:1 5752:1 5840:1 
0.02242641124523546 9:2 14:2 35:1 108:4 113:6 143:5 165:1 226:5 230:6 236:2 250:2 321:1 330:2 342:1 355:3 363:2 417:2 421:4 428:2 496:1 545:1 592:1 646:2 688:2 757:1 779:1 780:1 800:12 818:1 823:1 888:1 904:3 998:2 1063:3 1075:2 1140:10 1156:1 1198:1 1343:3 1365:2 1366:1 1371:1 1373:7 1410:1 1431:2 1449:3 1495:1 1637:2 1642:1 1677:1 1702:4 1785:1 1810:4 1846:7 1865:1 1877:1 1936:1 1945:2 1949:2 2003:1 2016:1 2021:1 2076:1 2103:1 2104:1 2117:1 2126:2 2192:1 2231:1 2245:1 2263:2 2314:2 2359:1 2361:4 2362:6 2363:4 2409:1 2416:1 2429:2 2434:2 2542:3 2582:1 2673:1 2721:2 2723:3 2724:7 2726:14 2728:3 2731:10 2732:13 2765:1 2774:1 2788:1 2820:1 3126:1 3397:1 3575:1 3637:1 3745:1 3760:1 4104:1 4334:1 4368:1 4397:1 4405:1 4505:1 4655:1 4665:1 4813:1 5099:1 5418:1 6009:1 
0.02720819332948374 25:1 26:1 108:3 113:7 115:1 135:1 143:1 170:1 230:1 322:3 324:1 330:2 354:1 364:2 369:1 370:1 384:1 385:2 577:3 602:1 639:1 648:1 772:1 800:11 823:1 824:1 868:1 877:1 904:1 922:1 924:1 1055:1 1063:3 1140:1 1156:1 1185:1 1204:1 1236:1 1238:1 1240:1 1373:7 1440:1 1449:4 1493:1 1525:1 1555:1 1569:1 1634:1 1696:1 1760:1 1810:1 1901:2 1903:1 1972:1 2075:1 2133:1 2150:3 2173:1 2310:1 2362:9 2380:1 2396:1 2463:1 2470:1 2492:1 2536:1 2569:1 2594:1 2596:1 2615:1 2621:1 2665:1 2672:1 2721:5 2722:3 2723:2 2724:2 2725:3 2726:14 2728:5 2730:3 2731:1 2732:1 2749:1 2796:1 3096:1 3253:1 3388:1 3599:1 3602:1 3633:1 3947:1 4001:1 4034:1 4055:1 4359:1 4665:1 4747:1 4796:1 4904:1 5159:1 5407:1 5638:1 5658:1 5668:1 5752:1 5768:1 5788:1 5988:1 
0.03011749553217456 86:1 108:1 113:4 135:1 143:1 320:1 321:1 330:3 358:2 398:1 420:1 422:1 440:1 456:1 469:1 770:1 800:4 868:1 875:1 922:1 937:1 1063:1 1156:1 1242:2 1260:3 1277:1 1342:1 1359:1 1373:2 1446:1 1447:1 1637:2 1903:1 1908:1 1967:3 1999:3 2225:1 2254:1 2362:2 2409:1 2571:1 2621:1 2646:1 2665:1 2687:1 2721:3 2723:2 2724:1 2726:1 2728:4 2732:1 2773:1 3397:1 3534:1 3753:1 4074:1 4167:1 4217:1 4550:1 4582:1 4759:1 4829:1 5078:1 5518:1 5626:1 5752:1 5768:1 
0.6585991260370453 113:1 144:1 280:2 356:2 893:2 929:1 1358:2 2115:2 2728:2 
0.03280524819817059 14:1 36:4 92:2 108:1 113:5 121:1 143:6 230:2 234:1 320:2 321:2 322:2 330:2 353:1 417:1 617:2 620:1 646:2 659:4 729:5 759:1 800:8 818:1 843:1 888:4 907:2 1023:3 1026:4 1063:1 1140:4 1260:1 1274:1 1343:4 1358:1 1373:10 1375:3 1431:1 1449:4 1493:2 1570:1 1579:1 1637:4 1717:1 1719:1 1745:1 1840:5 1842:4 1967:1 1976:2 2117:1 2131:1 2314:5 2315:4 2362:5 2434:2 2437:2 2470:1 2496:1 2501:1 2517:1 2571:2 2685:2 2715:4 2721:1 2722:1 2724:1 2725:1 2726:2 2727:1 2728:2 2731:4 2732:10 2737:1 2774:1 2924:1 3133:1 3277:1 3397:1 3529:1 3676:1 3794:1 3851:1 4109:1 4134:1 4334:1 4813:1 4898:1 5942:1 6009:1 
0.08837359840352577 2:1 14:1 46:1 108:1 113:1 143:2 417:1 612:2 615:1 617:1 800:3 882:1 888:2 922:1 1023:1 1274:1 1366:1 1373:3 1375:2 1425:1 1528:2 1833:3 1840:2 1866:3 1926:1 2007:3 2086:1 2117:1 2195:2 2312:1 2488:1 2493:1 2599:1 2603:1 2728:1 2732:3 2950:1 4134:1 4334:1 4813:1 5769:1 5942:1 
0.2710212482758997 14:2 35:1 46:1 108:1 111:1 113:8 143:4 146:1 155:1 170:1 226:3 230:6 266:1 320:1 322:1 325:1 330:1 355:1 363:1 378:1 395:1 417:1 421:2 428:1 443:2 486:1 496:1 545:1 592:1 615:2 688:1 729:3 746:1 773:1 800:7 856:2 857:1 888:1 904:1 910:1 945:1 1026:1 1063:1 1075:2 1140:9 1156:1 1198:2 1260:2 1315:1 1343:4 1366:1 1373:6 1428:1 1495:1 1555:1 1623:1 1637:1 1644:2 1702:2 1714:1 1768:1 1793:1 1810:2 1822:1 1846:3 1856:1 1865:2 1866:2 1886:1 1967:2 1990:1 1992:1 2003:1 2011:1 2117:1 2126:2 2192:1 2263:2 2314:1 2361:2 2362:11 2363:2 2409:2 2434:2 2441:1 2530:2 2542:2 2722:1 2724:5 2725:2 2726:5 2728:4 2731:9 2732:9 2774:1 2788:1 3064:1 3126:1 3271:1 3397:1 3529:1 3737:1 3745:1 3760:1 3810:1 4334:1 4368:1 4397:1 4655:1 4663:1 4813:1 5624:1 
0.2750133941202639 14:2 108:6 113:7 143:6 226:5 236:2 342:1 355:3 363:2 381:1 417:1 421:2 492:2 496:1 545:1 592:1 688:2 757:1 800:8 818:1 888:1 904:3 1055:1 1063:2 1075:2 1140:8 1156:2 1198:1 1303:6 1343:2 1365:1 1366:1 1369:2 1373:3 1428:2 1434:2 1555:1 1637:2 1650:2 1677:1 1702:2 1785:1 1810:2 1846:4 1903:1 1980:1 2102:1 2108:1 2126:2 2192:1 2231:2 2246:1 2263:2 2356:1 2361:2 2362:8 2363:2 2409:2 2416:1 2434:2 2571:2 2673:1 2721:4 2722:8 2723:1 2724:7 2725:8 2726:9 2727:6 2728:2 2731:8 2732:11 2774:1 2788:1 2820:1 2975:1 3207:1 3397:1 3575:1 3637:1 3745:1 4194:1 4334:1 4397:1 4655:1 4813:1 4838:1 5097:1 5752:1 
0.04402429357520236 19:1 108:3 113:4 135:2 216:1 316:1 321:1 322:1 330:2 346:1 561:1 800:3 846:1 1027:1 1071:1 1076:1 1139:1 1151:1 1192:1 1342:1 1358:1 1362:1 1373:5 1449:2 1472:1 1553:1 1697:1 1864:1 1891:1 1907:1 1930:2 1976:1 1979:2 2067:1 2142:1 2182:2 2328:1 2362:3 2446:1 2483:1 2592:1 2602:2 2627:2 2665:3 2685:3 2721:6 2722:1 2724:2 2725:2 2726:9 2727:2 2728:8 2729:3 2730:1 2732:1 2736:1 2773:1 3607:1 3692:1 3992:1 4047:1 4053:1 4191:1 4312:1 4346:1 4363:1 4501:1 4565:1 4791:1 5432:1 5519:1 5768:1 
0.04913590968769436 7:1 46:1 54:1 76:1 105:1 108:3 113:7 143:3 157:2 170:1 230:2 268:1 270:1 276:1 316:2 321:3 330:6 353:1 365:1 374:6 405:1 434:2 469:3 470:2 472:1 479:5 635:1 647:1 668:6 674:1 688:1 719:1 726:2 733:1 750:1 800:3 856:2 922:1 956:1 1063:4 1140:4 1156:1 1198:3 1232:2 1260:3 1291:1 1298:1 1322:1 1358:5 1363:1 1373:2 1440:1 1446:2 1449:3 1557:1 1590:1 1696:1 1702:1 1764:1 1768:1 1772:1 1810:1 1817:2 1886:1 1903:1 1916:1 1922:1 1967:3 2037:1 2068:1 2115:1 2144:1 2323:1 2325:2 2339:1 2358:1 2362:5 2363:1 2387:2 2445:2 2494:6 2527:1 2556:1 2570:1 2608:1 2621:1 2665:3 2669:1 2721:15 2723:2 2724:11 2726:11 2727:3 2728:11 2729:3 2731:4 2852:1 3250:1 3455:1 3691:1 3737:1 3800:1 4498:1 4510:1 4566:1 4582:1 4670:1 4751:1 4929:1 5255:1 5438:1 5518:1 5752:1 5776:1 5792:1 5986:1 5997:1 
0.09685371851281212 54:1 76:2 113:9 220:1 330:2 470:1 479:1 768:1 800:4 874:1 896:1 1063:1 1070:1 1106:1 1156:2 1260:1 1291:2 1298:1 1373:2 1435:1 1446:1 1483:2 1579:1 1651:3 1696:3 1717:1 1842:2 1865:1 1915:2 1916:1 1967:1 2056:3 2144:1 2361:2 2362:4 2434:2 2527:1 2571:3 2721:4 2724:3 2725:1 2726:5 2728:9 2732:2 2852:1 3800:1 4566:1 4567:1 4582:1 4786:1 4898:1 5278:1 5775:1 5776:1 
0.008041742551679044 1:1 54:1 76:1 108:3 109:1 113:10 119:5 143:2 198:1 225:1 230:2 268:2 276:1 321:1 355:1 417:2 470:1 479:4 520:2 584:1 647:1 726:2 733:1 764:2 768:1 800:8 823:2 956:1 1001:1 1140:3 1198:3 1232:1 1260:2 1266:1 1271:4 1299:2 1347:1 1373:2 1467:1 1579:2 1696:1 1817:2 1894:1 1915:1 1967:2 2056:1 2068:1 2115:1 2358:2 2361:1 2362:6 2380:1 2409:3 2434:2 2556:1 2562:1 2621:1 2647:1 2650:1 2702:1 2715:1 2721:3 2723:1 2724:5 2725:2 2726:5 2728:10 2729:3 2731:3 2732:1 2852:1 2968:1 3455:1 4665:1 4762:1 4898:1 5159:1 5775:1 5854:1 5865:1 
0.1317594280762593 109:2 268:2 479:4 615:2 647:2 726:2 826:2 925:1 956:2 1198:2 1260:2 1489:2 1591:1 1967:2 2115:2 2439:2 2556:2 2728:4 2968:1 
0.02451519437993147 1:1 32:5 54:1 108:3 109:1 113:12 134:1 135:1 139:1 143:2 230:1 246:1 268:2 276:1 320:3 321:1 330:8 355:1 369:2 397:1 469:1 470:2 472:3 479:6 520:5 565:1 647:1 651:1 726:2 733:2 762:3 764:5 800:8 823:2 856:1 904:1 945:1 956:1 1057:1 1063:2 1079:1 1129:1 1133:1 1140:2 1156:3 1198:3 1232:2 1249:1 1260:5 1322:1 1358:1 1363:2 1373:7 1417:1 1433:3 1446:2 1449:5 1482:3 1568:1 1614:1 1696:1 1703:1 1714:1 1748:1 1756:1 1817:1 1833:2 1834:1 1866:1 1967:5 2068:1 2070:1 2115:1 2144:1 2207:1 2355:3 2356:1 2358:2 2362:6 2380:1 2409:1 2434:2 2478:2 2527:2 2556:1 2565:6 2621:2 2665:2 2715:1 2721:20 2722:3 2723:1 2724:10 2725:2 2726:8 2728:20 2730:1 2731:2 2732:2 2852:1 2948:1 2968:1 3271:1 3455:1 3937:1 3955:1 4039:1 4393:1 4566:1 4582:1 4611:1 4665:1 5097:1 5155:1 5159:1 5244:1 5306:1 5413:1 5475:1 5518:1 5768:1 5866:1 5997:1 
0.0003101480572597331 76:1 105:2 108:7 113:6 117:1 124:4 135:1 143:4 170:1 220:1 230:10 320:1 322:1 330:2 355:1 410:2 469:3 470:2 472:2 479:1 584:1 733:1 768:1 800:6 833:4 851:1 922:1 936:1 997:1 1027:1 1031:1 1063:4 1090:2 1101:1 1129:1 1140:5 1156:3 1223:1 1238:3 1260:6 1291:1 1347:1 1358:2 1363:1 1373:9 1376:1 1414:3 1435:1 1446:1 1447:1 1449:1 1475:2 1483:1 1569:2 1575:1 1590:2 1718:1 1722:1 1811:1 1833:5 1845:1 1903:1 1915:1 1916:3 1935:1 1967:6 1983:1 2002:2 2056:3 2144:1 2180:1 2194:6 2286:2 2306:1 2318:1 2325:1 2355:2 2361:1 2362:8 2449:2 2527:1 2571:3 2575:1 2621:1 2647:1 2665:8 2721:20 2722:8 2724:4 2726:12 2727:2 2728:12 2729:2 2730:1 2731:9 2732:1 3243:1 3317:1 4566:1 4567:1 4582:1 4627:1 4709:1 4929:1 4985:1 5372:1 5518:1 5714:1 5752:1 5768:1 5775:1 5776:1 5841:1 5854:1 
0.06153764882611326 1:1 54:1 109:1 113:6 268:2 330:2 479:5 615:2 647:1 726:1 768:1 800:1 896:1 956:1 1070:1 1156:3 1198:2 1260:4 1373:3 1440:1 1467:1 1539:3 1579:1 1591:1 1652:3 1709:3 1937:3 1967:4 2115:1 2361:1 2362:1 2377:3 2407:3 2409:2 2434:2 2478:2 2526:3 2527:2 2556:1 2721:1 2724:1 2725:2 2728:9 2732:1 2852:1 2968:1 4898:1 5278:1 5866:1 
0.3300944145134408 21:1 113:4 170:1 260:1 268:1 374:3 375:1 472:1 479:4 623:1 647:1 668:3 726:1 922:1 956:1 1007:1 1063:1 1154:1 1156:1 1198:1 1260:3 1446:1 1447:1 1556:1 1557:1 1696:1 1903:1 1967:3 2115:1 2378:1 2409:2 2527:1 2556:1 2647:1 2665:1 2721:2 2726:1 2728:4 2729:1 3250:1 3523:1 4582:1 5752:1 5854:1 5956:1 
0.05073083275399014 108:1 113:1 240:1 316:3 330:1 346:1 469:1 488:1 493:1 615:1 800:2 1063:3 1252:1 1342:1 1373:2 1449:2 1632:1 1652:1 1697:1 1907:1 1989:1 2115:1 2344:1 2362:2 2602:1 2665:1 2685:3 2721:4 2724:2 2726:3 2728:3 2732:2 2748:1 2756:1 2773:1 3959:1 4047:1 4080:1 4089:1 4282:1 4477:1 4637:1 5201:1 5445:1 5452:1 5460:1 5518:1 5651:1 
0.029440399133984 1:1 54:1 108:1 113:12 134:1 143:2 200:1 226:1 230:2 266:1 268:2 276:1 321:1 324:1 330:3 369:1 397:1 469:1 479:4 561:1 647:1 693:1 726:2 770:1 773:1 798:7 800:4 823:1 826:3 956:1 1133:1 1140:3 1156:2 1180:1 1198:3 1260:2 1277:1 1291:1 1365:1 1373:2 1417:1 1440:5 1446:1 1449:1 1557:1 1605:3 1614:1 1707:1 1817:1 1826:1 1903:1 1915:1 1967:2 2030:1 2037:1 2068:1 2115:1 2190:1 2263:1 2335:1 2358:1 2362:4 2409:2 2439:3 2499:1 2556:1 2571:2 2665:1 2721:6 2723:1 2724:2 2726:3 2728:12 2729:1 2731:3 2732:2 2820:1 2852:1 2948:1 3250:1 3455:1 4206:1 4550:1 4582:1 4611:1 4651:1 4665:1 5284:1 5475:1 5518:1 5584:1 5752:1 5775:1 
0.03619209189276838 1:1 5:1 93:1 108:2 113:11 135:1 143:3 146:1 150:1 170:4 185:1 208:1 216:1 230:1 246:1 268:2 276:1 289:1 316:1 330:7 364:4 369:2 397:2 465:1 470:1 472:2 479:5 520:1 584:1 615:1 647:1 698:1 704:1 726:2 764:5 768:1 800:11 811:2 815:1 868:1 927:1 956:1 1063:2 1083:1 1121:5 1122:1 1123:1 1140:2 1156:2 1174:1 1198:3 1214:1 1249:1 1260:4 1277:1 1281:1 1291:1 1358:2 1373:12 1417:1 1433:5 1440:1 1446:2 1449:6 1504:1 1524:1 1557:1 1573:1 1688:1 1695:1 1696:1 1711:1 1752:2 1760:1 1826:1 1833:1 1916:1 1967:4 2002:1 2007:1 2068:1 2075:1 2115:1 2127:1 2141:3 2144:1 2211:1 2268:1 2338:1 2362:3 2451:1 2499:1 2527:1 2556:1 2596:1 2634:2 2661:1 2665:2 2668:1 2715:2 2721:23 2722:1 2723:1 2724:10 2725:1 2726:12 2728:19 2729:1 2730:3 2731:2 2732:3 2948:1 3159:1 3250:1 3984:1 4111:1 4173:1 4245:1 4381:1 4418:1 4566:1 4582:1 4720:1 4885:1 5227:1 5413:1 5453:1 5475:1 5506:1 5768:1 5776:1 5814:1 
0.02654000137774415 1:1 54:1 108:1 113:2 220:1 268:2 320:1 330:1 397:1 470:1 479:4 644:2 647:1 726:1 768:1 800:1 826:2 896:1 925:1 956:1 1054:1 1156:2 1198:2 1260:3 1291:1 1311:2 1373:3 1435:1 1489:3 1557:1 1579:1 1661:3 1922:1 1967:3 2115:1 2362:1 2439:2 2481:2 2527:1 2556:1 2635:3 2665:1 2721:4 2724:1 2725:1 2726:1 2727:1 2728:8 2852:1 3250:1 4567:1 4898:1 5278:1 5475:1 5792:1 
1 1:1 4:2 7:1 49:1 71:3 108:3 113:10 125:3 143:3 170:2 230:1 268:2 276:1 321:3 330:6 353:1 355:1 363:1 376:1 399:1 469:3 470:3 472:1 479:5 530:1 584:1 647:1 686:4 698:2 725:1 726:2 733:1 750:1 800:6 820:1 821:2 856:1 875:1 904:1 924:1 930:1 956:1 995:1 1026:1 1063:3 1140:2 1152:1 1156:1 1198:3 1223:1 1238:3 1260:4 1281:1 1291:2 1294:1 1298:1 1327:1 1363:2 1373:7 1410:1 1446:2 1449:3 1458:1 1557:1 1597:2 1636:1 1653:1 1760:2 1802:1 1827:5 1837:5 1853:1 1859:1 1861:1 1903:2 1922:1 1929:1 1967:4 2068:1 2088:2 2115:1 2144:2 2159:2 2206:1 2285:1 2325:1 2338:1 2362:5 2387:1 2409:4 2445:1 2451:2 2512:2 2556:1 2594:1 2621:1 2665:4 2682:1 2721:22 2722:1 2723:2 2724:12 2725:5 2726:17 2727:5 2728:13 2731:2 2732:2 3076:1 3082:1 3138:1 3250:1 3290:1 3529:1 3691:1 3800:1 3920:1 4034:1 4381:1 4393:1 4498:1 4505:1 4566:1 4582:1 5040:1 5518:1 5521:1 5714:1 5724:1 5752:1 5792:1 
0.1092869231567235 1:1 108:1 109:1 113:5 143:1 230:1 246:1 255:1 268:2 276:1 319:1 330:1 420:1 472:1 479:4 639:1 647:1 651:2 726:2 764:4 800:2 956:1 1047:3 1140:2 1196:3 1198:3 1223:1 1260:2 1311:3 1373:6 1449:1 1579:1 1676:2 1696:2 1746:1 1752:3 1867:2 1873:3 1903:1 1967:2 2037:1 2068:1 2115:1 2325:1 2361:1 2362:3 2434:2 2555:1 2556:1 2647:1 2723:4 2726:2 2728:10 2729:1 2730:2 2731:2 2732:2 2968:1 3509:1 4189:1 4898:1 5714:1 5752:1 5854:1 
0.05834224686242458 36:1 108:1 113:4 133:2 143:3 226:3 230:2 321:1 322:1 330:8 363:1 369:2 469:3 517:1 567:1 592:1 615:1 646:1 701:1 733:2 757:3 759:1 778:1 781:1 800:6 897:2 922:1 979:1 1026:1 1075:1 1140:8 1156:1 1373:6 1410:3 1644:2 1658:1 1702:2 1810:2 1841:5 1866:3 1903:1 1980:2 2023:1 2061:3 2070:1 2076:1 2104:1 2126:2 2144:2 2216:2 2246:2 2362:4 2459:1 2465:2 2502:1 2529:1 2665:1 2721:8 2724:2 2725:2 2726:5 2728:2 2731:8 2732:7 3024:1 3156:1 3207:1 3529:1 3805:1 4022:1 4194:1 4405:1 4505:1 4566:1 5174:1 5411:1 5449:1 5518:1 5752:1 6009:1 
0.1153127626090787 1:1 113:8 143:1 220:1 230:1 268:2 276:1 320:1 330:1 393:3 414:4 470:1 479:4 647:1 726:2 731:1 760:1 764:1 800:3 956:1 1057:2 1140:2 1198:3 1260:2 1435:1 1440:1 1449:1 1482:1 1504:1 1557:1 1696:1 1817:1 1833:2 1916:1 1967:2 2068:1 2115:1 2167:2 2362:4 2456:1 2556:1 2562:2 2621:1 2702:1 2721:2 2723:1 2724:1 2725:2 2726:5 2728:9 2731:2 3250:1 4515:1 4567:1 4720:1 5691:1 5776:1 
0.08228517528186231 1:1 7:1 109:1 113:8 117:1 143:1 230:1 268:2 276:1 320:1 330:1 410:2 470:1 472:1 479:6 615:3 647:1 726:2 800:1 823:1 922:1 925:1 956:1 1063:1 1140:2 1198:3 1260:4 1322:1 1358:2 1373:4 1447:1 1449:1 1569:2 1676:1 1696:3 1740:3 1826:1 1903:1 1916:1 1967:4 2068:1 2115:1 2325:1 2355:5 2361:1 2362:2 2409:2 2434:2 2527:1 2556:1 2647:1 2721:2 2723:1 2724:1 2726:2 2728:8 2731:2 2732:1 2968:1 4665:1 5752:1 5776:1 5854:1 5997:1 
0.3581470299729613 1:1 76:2 98:1 100:1 109:1 113:11 135:1 143:2 220:1 230:1 250:4 268:2 276:1 320:1 321:1 330:3 349:2 354:1 369:1 390:1 397:1 412:3 470:2 479:5 506:1 584:1 647:1 726:2 729:1 750:1 766:3 768:1 800:4 823:1 898:1 924:1 936:1 956:1 1063:4 1140:2 1156:1 1182:1 1185:2 1198:3 1260:4 1291:1 1347:1 1363:2 1373:6 1435:1 1444:1 1449:2 1739:1 1760:1 1915:1 1949:7 1955:3 1967:4 2056:3 2067:1 2068:1 2115:1 2164:2 2194:2 2230:3 2325:1 2362:5 2393:1 2396:1 2409:5 2429:5 2434:2 2525:3 2527:1 2538:3 2556:1 2665:2 2675:1 2721:8 2723:2 2724:4 2726:6 2728:13 2731:2 2732:1 2940:1 2968:1 3376:1 3602:1 3660:1 4363:1 4493:1 4498:1 4567:1 4665:1 5475:1 5611:1 5643:1 5768:1 5775:1 
0.01172500274986629 76:1 108:5 109:1 113:13 170:1 208:2 230:1 265:1 268:1 276:1 309:1 322:1 330:4 399:1 469:1 470:1 472:2 479:5 520:1 565:1 614:6 623:1 647:1 693:1 726:2 733:1 764:7 768:1 800:9 811:4 856:1 936:1 956:1 1063:3 1140:3 1156:6 1198:2 1224:1 1260:6 1277:1 1291:2 1298:1 1315:1 1358:2 1373:5 1417:2 1446:1 1467:1 1475:1 1504:1 1614:2 1693:1 1696:2 1702:1 1768:1 1810:1 1826:1 1915:1 1916:1 1922:1 1967:6 2037:2 2068:1 2115:1 2266:1 2304:1 2318:1 2343:1 2361:2 2362:6 2363:1 2387:1 2409:4 2428:1 2434:2 2527:2 2553:1 2556:1 2621:2 2634:1 2647:1 2665:3 2679:1 2721:12 2723:1 2724:6 2725:1 2726:4 2727:1 2728:22 2731:3 2732:3 2948:1 2968:1 3446:1 3737:1 3800:1 4039:1 4081:1 4582:1 4720:1 4978:1 5143:1 5518:1 5586:1 5716:1 5775:1 5776:1 5792:1 5814:1 5854:1 5956:1 
0.2051391435064825 108:3 113:6 133:3 143:6 185:1 208:2 226:3 230:5 232:1 258:2 320:4 330:2 363:3 369:1 403:2 421:1 496:1 515:1 545:2 646:2 729:2 759:2 782:1 800:8 823:2 888:2 904:7 907:4 1026:3 1140:11 1343:1 1373:13 1434:1 1442:1 1449:1 1465:1 1505:2 1579:2 1637:2 1653:2 1677:2 1702:5 1810:5 1833:4 1840:3 1866:2 1900:1 1998:1 2117:1 2314:1 2362:7 2363:2 2542:3 2557:1 2571:2 2721:1 2724:6 2726:5 2728:1 2731:11 2732:6 2774:1 2975:1 3024:1 3156:1 3159:1 3397:1 3453:1 3529:1 3745:1 4665:1 4813:1 4898:1 4969:1 5604:1 5748:1 6009:1 
0.8094029236106409 49:2 113:3 135:2 321:2 358:2 472:2 591:2 800:4 1044:2 1140:2 1156:2 1449:2 1563:2 2068:2 2266:2 2362:4 2409:2 2537:2 2586:2 2704:2 2721:2 2723:2 2724:2 2726:2 2728:4 2731:2 3290:1 4966:1 5548:1 5768:1 
1 49:2 113:3 135:2 321:2 472:2 591:2 800:4 1044:2 1140:2 1156:2 1440:2 1449:2 1563:2 1652:2 1937:2 2068:2 2266:2 2362:4 2526:2 2537:2 2586:2 2704:2 2721:2 2723:2 2724:2 2726:2 2728:4 2731:2 3290:1 4966:1 5548:1 5768:1 
0.5261627814257261 113:3 135:2 591:2 800:2 1044:2 1063:2 1140:2 1440:2 1449:2 1652:2 1937:2 2068:2 2362:2 2526:2 2537:2 2586:2 2723:2 2728:2 2731:2 5548:1 5768:1 
1 49:2 113:3 135:2 321:2 358:2 472:2 591:2 800:4 1044:2 1140:2 1156:2 1268:2 1449:2 1563:2 2068:2 2266:2 2362:4 2409:2 2537:2 2586:2 2704:2 2721:2 2723:2 2724:2 2726:2 2728:4 2731:2 3290:1 4966:1 5548:1 5768:1 
0.61677261931898 113:3 135:2 358:2 591:2 800:2 1044:2 1063:2 1140:2 1449:2 1811:2 2068:2 2362:2 2409:2 2537:2 2586:2 2723:2 2728:2 2731:2 5548:1 5768:1 
0.01625226703814419 46:1 108:4 113:4 134:1 135:1 143:2 151:1 170:2 202:1 319:1 330:3 333:1 348:1 355:1 369:3 372:1 378:1 409:3 413:1 431:1 441:1 443:1 472:1 570:2 571:1 615:1 764:5 800:6 841:1 890:1 922:4 963:1 1007:1 1063:3 1098:1 1156:2 1342:1 1358:1 1369:1 1373:4 1449:4 1583:1 1599:1 1625:1 1696:1 1703:1 1726:1 1733:2 1754:1 1768:1 1773:1 1804:1 1817:1 1886:1 1950:1 2097:1 2142:1 2186:1 2237:1 2333:1 2343:4 2361:1 2362:5 2363:1 2368:1 2385:1 2387:1 2392:1 2434:2 2524:1 2537:1 2551:1 2595:1 2627:1 2630:1 2647:1 2651:1 2679:1 2721:3 2722:4 2723:6 2724:5 2725:2 2726:8 2727:2 2728:6 2730:4 2773:1 2932:1 3116:1 3132:1 3509:1 3737:1 3765:1 4196:1 4437:1 4565:1 4568:1 4611:1 4646:1 4819:1 5128:1 5244:1 5282:1 5384:1 5548:1 5592:1 5753:1 5768:1 5771:1 5833:1 5854:1 5962:1 
0.1511373715684905 113:3 135:2 591:2 764:2 800:2 1044:2 1063:2 1140:2 1449:2 1696:2 2068:2 2362:2 2537:2 2586:2 2723:2 2728:2 2731:2 5548:1 5768:1 
0.9719516544510624 113:3 135:2 764:2 800:2 1044:2 1063:2 1140:2 1449:2 1624:2 1696:2 1766:2 1966:2 2068:2 2362:2 2723:2 2728:2 2731:2 5015:1 5768:1 
0.07520966936353531 113:3 135:2 505:2 764:2 800:2 1044:2 1063:2 1140:2 1449:2 1696:2 1715:2 1966:2 2068:2 2362:2 2537:2 2723:2 2728:2 2731:2 5548:1 5768:1 
0.5374138306875058 113:3 135:2 764:2 800:2 1044:2 1063:2 1140:2 1449:2 1624:2 1696:2 1766:2 1811:2 1966:2 2068:2 2362:2 2723:2 2728:2 2731:2 5015:1 5768:1 
0.03264867803910366 108:1 113:4 143:2 170:2 194:1 220:1 288:1 316:1 320:2 330:1 359:1 376:2 462:1 469:1 470:1 536:1 600:1 698:1 800:3 821:1 922:1 1063:1 1117:1 1134:1 1156:2 1336:1 1363:1 1373:1 1387:1 1392:1 1446:1 1480:1 1530:1 1641:1 1650:4 1686:3 1705:1 1903:1 2157:1 2289:1 2362:1 2409:1 2571:2 2577:1 2628:1 2665:2 2721:7 2722:1 2723:3 2724:4 2725:1 2726:7 2728:5 3082:1 3240:1 3310:1 3417:1 3631:1 3768:1 3790:1 3972:1 3976:1 4154:1 4206:1 4381:1 4452:1 4582:1 4661:1 5064:1 5196:1 5352:1 5476:1 5518:1 5752:1 
0.416139519907589 97:2 113:3 135:2 396:2 577:2 800:2 1044:2 1063:2 1140:2 1449:2 1624:2 1696:2 1966:2 2068:2 2362:2 2723:2 2728:2 2731:2 3121:1 5015:1 5768:1 5911:1 
1 49:2 97:2 113:3 135:2 321:2 396:2 472:2 577:2 800:4 1044:2 1140:2 1156:2 1449:2 1563:2 1696:2 1966:2 2068:2 2266:2 2362:4 2537:2 2704:2 2721:2 2723:2 2724:2 2726:2 2728:4 2731:2 3121:1 3290:1 4966:1 5548:1 5768:1 5911:1 
1 113:1 259:2 741:2 929:2 957:2 1075:2 1358:2 1373:4 1846:3 2728:2 2732:3 2923:1 4907:1 
0.02860179472409195 41:1 108:1 113:4 135:1 158:2 170:2 248:2 269:2 308:1 316:2 330:1 472:1 480:1 509:4 615:1 735:1 791:1 800:4 875:1 922:1 975:1 1063:1 1156:1 1203:2 1258:1 1320:1 1373:3 1447:1 1485:1 1516:1 1650:3 1695:1 1705:1 1903:1 1964:1 2087:1 2157:1 2234:1 2251:1 2280:1 2361:3 2362:5 2409:1 2465:2 2563:1 2692:1 2723:4 2724:1 2726:1 2728:3 3015:1 3640:1 3753:1 3755:1 3975:1 4204:1 4259:1 4580:1 4678:1 4768:1 4793:1 5104:1 5411:1 5752:1 5768:1 5825:1 
0.002276575564756322 49:2 55:1 108:1 113:10 135:3 139:1 143:2 170:1 179:1 190:2 220:2 316:3 319:2 320:2 330:11 358:5 369:1 397:1 399:2 470:1 472:2 548:1 562:1 579:1 606:1 623:1 699:1 790:1 800:5 818:1 868:1 874:1 922:1 937:1 1007:1 1010:1 1063:5 1099:1 1105:1 1132:2 1156:1 1181:1 1219:1 1235:1 1242:2 1258:1 1260:3 1301:1 1306:1 1335:1 1356:1 1373:5 1389:7 1435:1 1447:1 1449:4 1535:1 1550:2 1555:1 1559:1 1732:1 1762:1 1797:3 1861:1 1903:1 1967:3 2059:1 2074:1 2213:3 2225:1 2231:1 2256:5 2307:2 2338:1 2343:2 2362:7 2389:1 2399:2 2409:1 2421:1 2482:2 2582:1 2589:4 2605:1 2621:1 2634:3 2665:2 2669:1 2679:2 2699:1 2721:14 2722:4 2723:4 2724:6 2725:4 2726:12 2727:2 2728:12 2730:2 2732:1 2817:1 3172:1 3241:1 3290:1 3372:1 3509:1 3688:1 4024:1 4083:1 4174:1 4399:1 4567:1 4726:1 4786:1 4838:1 5473:1 5475:1 5544:1 5693:1 5725:1 5742:1 5752:1 5768:1 5814:1 5825:1 5956:1 
0.008385279767206242 14:1 54:1 73:1 76:3 108:2 113:15 143:4 190:6 220:1 226:1 230:4 260:1 321:2 325:2 330:7 358:7 363:2 405:1 434:1 450:1 469:1 470:2 472:1 497:1 526:1 568:1 733:4 797:1 800:8 820:1 823:1 851:1 904:1 924:1 936:1 945:1 1023:1 1063:4 1140:5 1156:3 1232:1 1249:1 1291:3 1298:1 1310:2 1317:1 1319:1 1347:1 1363:1 1368:1 1373:2 1414:4 1435:1 1446:1 1449:6 1467:1 1504:1 1817:2 1826:1 1846:2 1915:2 1916:1 1959:1 2003:2 2076:1 2144:1 2206:1 2285:1 2308:1 2325:2 2339:2 2359:1 2361:4 2362:8 2376:2 2409:3 2431:1 2434:2 2570:1 2571:4 2665:1 2721:10 2722:1 2723:1 2724:7 2725:4 2726:10 2728:16 2731:5 2732:5 2852:1 3271:1 3800:1 4250:1 4255:1 4334:1 4400:1 4405:1 4566:1 4567:1 4582:1 4665:1 4720:1 4751:1 5009:1 5099:1 5311:1 5413:1 5438:1 5518:1 5595:1 5765:1 5775:1 5776:1 
1 108:1 113:2 170:1 280:1 320:1 355:1 356:1 800:1 875:1 929:1 961:1 1167:1 1200:1 1650:1 1791:1 2115:1 2362:1 2409:1 2664:1 2724:1 2726:2 2728:1 3938:1 5901:1 
0.04244244108132991 71:1 108:1 113:3 137:1 143:6 170:1 236:2 308:1 316:1 321:1 330:6 435:1 469:1 509:1 530:1 540:2 727:1 800:6 922:1 971:1 1012:1 1037:2 1063:1 1171:1 1190:1 1242:1 1260:2 1261:1 1403:1 1446:2 1447:1 1449:1 1531:1 1624:1 1650:3 1705:1 1728:1 1903:1 1954:2 1967:2 2048:1 2057:1 2120:1 2251:1 2289:2 2362:3 2366:1 2409:1 2569:1 2679:1 2684:1 2723:2 2724:2 2725:3 2726:3 2727:1 2728:7 2732:1 2864:1 3004:1 3208:1 3461:1 4582:1 4648:1 5015:1 5206:1 5498:1 5518:1 5663:1 5752:1 
0.1258605061783222 67:1 113:4 121:1 149:1 170:1 266:1 320:1 325:2 330:3 426:3 539:2 588:1 617:1 773:1 800:2 907:1 1140:3 1156:2 1373:5 1431:1 1446:1 1558:1 1572:2 1693:1 1702:1 1724:1 1768:1 1810:1 1839:1 1851:1 2059:1 2110:1 2120:1 2197:1 2325:1 2361:3 2362:3 2417:2 2571:1 2712:1 2723:1 2724:2 2725:1 2726:2 2728:2 2731:3 2732:3 2875:1 3088:1 3737:1 3909:1 4582:1 4643:1 5447:1 5942:1 
0.07272839867985609 9:1 24:1 46:1 86:1 90:2 108:3 113:8 121:1 135:1 143:5 161:1 170:1 226:1 316:2 320:2 322:1 325:3 328:1 330:3 348:1 355:2 358:2 369:1 420:1 466:1 469:1 495:2 586:1 596:2 653:1 701:1 800:7 896:3 897:1 922:1 937:1 945:1 964:6 969:1 985:1 1068:1 1082:1 1105:1 1106:1 1111:1 1156:2 1158:2 1170:1 1171:2 1187:1 1202:1 1219:2 1238:1 1240:1 1260:4 1342:1 1373:8 1446:1 1447:2 1449:2 1695:1 1721:1 1723:1 1846:1 1903:1 1967:4 2001:1 2038:1 2076:1 2120:1 2142:1 2152:1 2192:1 2213:1 2225:1 2231:1 2304:1 2308:1 2348:2 2361:2 2362:5 2378:1 2409:2 2417:2 2428:1 2501:1 2541:1 2551:1 2554:1 2571:1 2630:1 2646:3 2665:2 2721:7 2722:4 2723:3 2724:6 2725:4 2726:9 2727:1 2728:10 2729:1 2732:7 2765:1 2773:1 2787:1 2914:1 3001:1 3271:1 3523:1 3663:1 4055:1 4405:1 4565:1 4582:1 4655:1 4978:1 5075:1 5110:1 5143:1 5171:1 5314:1 5518:1 5540:1 5562:1 5592:1 5725:1 5752:1 5768:1 5963:1 
0.00625750752700022 36:1 108:2 113:8 133:1 143:2 170:2 173:1 226:2 236:2 321:2 326:1 330:8 354:1 355:1 363:2 369:1 417:2 447:1 671:1 688:1 737:1 759:1 800:5 887:1 888:2 922:1 924:3 945:1 953:2 1023:4 1026:2 1039:1 1058:1 1063:4 1077:2 1140:3 1156:1 1160:1 1198:1 1202:1 1260:1 1294:1 1358:1 1373:4 1374:1 1449:4 1493:3 1496:1 1574:1 1601:1 1632:1 1702:2 1718:1 1721:1 1789:5 1841:3 1851:1 1962:1 1967:1 1974:1 2003:1 2011:1 2040:2 2075:1 2078:1 2144:2 2245:3 2315:2 2319:1 2363:1 2434:2 2465:2 2502:1 2529:2 2571:1 2685:3 2712:1 2715:6 2721:5 2722:3 2724:5 2725:1 2726:8 2728:4 2731:8 2732:6 2788:1 2837:1 3024:1 3156:1 3271:1 3529:1 3602:1 3709:1 3805:1 3909:1 4300:1 4495:1 4566:1 4617:1 4813:1 4977:1 5369:1 5411:1 5737:1 5906:1 5907:1 5918:1 
0.002240764923260237 17:2 108:5 113:8 143:4 153:1 159:1 164:1 271:1 316:3 322:1 330:4 351:1 422:1 469:2 472:1 526:1 561:2 642:1 685:1 800:2 954:2 973:1 1063:2 1130:3 1137:4 1156:3 1171:5 1185:1 1242:1 1260:10 1336:3 1373:2 1446:1 1449:1 1478:1 1486:5 1555:1 1663:1 1705:1 1903:1 1967:10 2048:1 2061:1 2069:1 2082:3 2089:1 2120:1 2122:1 2196:1 2240:1 2277:1 2330:1 2348:1 2409:4 2477:1 2528:2 2558:1 2561:2 2594:1 2626:1 2628:1 2665:3 2721:10 2724:6 2726:4 2727:1 2728:11 2730:1 2732:2 2807:1 3079:1 3312:1 3367:1 3594:1 3753:1 3916:1 3999:1 4582:1 4660:1 4686:1 4838:1 4859:1 5013:1 5039:1 5075:1 5518:1 5751:1 5752:1 5966:1 
0.0230429513773897 69:4 108:4 113:4 143:2 170:2 195:2 212:1 316:1 322:1 330:4 354:1 359:1 369:3 376:1 497:1 509:1 526:1 530:1 540:1 572:1 600:1 800:3 818:1 835:1 922:1 924:1 953:1 965:1 971:1 996:1 1167:1 1190:1 1212:1 1238:1 1261:1 1317:1 1342:1 1373:6 1403:1 1411:1 1431:1 1446:1 1449:1 1514:1 1530:1 1537:1 1568:1 1594:1 1613:1 1643:1 1650:4 1652:1 1686:1 1705:1 1721:1 1728:2 1745:1 1757:1 1768:2 1831:1 1852:1 1903:1 1914:1 1915:1 1929:1 2075:1 2076:1 2095:1 2157:1 2247:1 2253:1 2289:1 2323:1 2346:1 2361:1 2362:1 2391:1 2400:2 2409:1 2582:1 2592:1 2665:1 2675:1 2721:5 2722:2 2723:2 2724:8 2725:2 2726:12 2727:2 2728:9 2729:1 2773:1 3214:1 3429:1 3577:1 3602:1 3676:1 3737:1 3962:1 4154:1 4190:1 4250:1 4343:1 4405:1 4513:1 4517:1 4582:1 4609:1 4644:1 4653:1 4797:1 4822:1 5358:1 5459:1 5566:1 5595:1 5752:1 5775:1 
0.610619941572757 14:2 113:5 143:2 325:2 355:1 1023:2 1156:1 1262:2 1483:2 1569:1 1696:2 1833:1 2117:1 2345:1 2493:1 2685:2 2724:1 2726:2 2728:2 2732:2 4105:1 4334:1 5068:1 
0.01228665245338562 49:2 55:1 108:3 113:11 135:3 139:1 143:2 170:1 179:1 220:2 316:3 319:1 320:1 330:10 358:7 369:3 397:1 399:2 472:2 548:1 550:1 579:1 606:1 623:1 699:1 790:1 800:5 868:1 874:1 922:1 937:2 1007:1 1010:1 1063:5 1105:1 1132:2 1181:1 1219:1 1242:2 1258:1 1260:4 1301:1 1340:1 1350:1 1356:1 1373:5 1435:1 1447:1 1449:6 1535:1 1550:2 1559:1 1582:1 1732:1 1762:1 1797:3 1816:8 1861:1 1903:1 1928:1 1967:4 1999:1 2029:1 2059:1 2213:3 2225:2 2231:1 2250:2 2256:4 2338:1 2343:3 2362:5 2399:2 2409:4 2482:2 2521:1 2589:3 2621:1 2634:3 2660:1 2665:2 2669:1 2679:3 2699:1 2721:15 2722:1 2723:3 2724:7 2725:1 2726:13 2728:9 2729:6 2730:3 2732:2 2817:1 2956:1 3172:1 3222:1 3238:1 3241:1 3290:1 3509:1 3534:1 3688:1 4024:1 4083:1 4174:1 4217:1 4342:1 4567:1 4726:1 4786:1 4901:1 4940:1 5107:1 5473:1 5475:1 5725:1 5742:1 5752:1 5768:1 5814:1 5825:1 5956:1 
0.1644289318039218 14:2 36:1 108:2 113:7 143:8 146:1 226:2 227:1 230:2 325:5 330:3 342:1 355:3 363:4 417:2 421:1 496:1 545:1 592:2 617:2 646:1 757:1 759:1 780:1 800:12 888:1 904:1 945:1 1026:3 1075:3 1140:6 1156:1 1198:3 1274:1 1343:2 1366:1 1373:6 1384:1 1449:3 1483:2 1493:2 1495:1 1532:1 1555:1 1579:1 1635:1 1637:2 1677:1 1696:2 1702:2 1721:1 1810:2 1833:2 1846:3 1980:1 1997:1 2076:1 2117:1 2126:1 2192:1 2245:2 2308:1 2314:4 2350:1 2362:3 2416:1 2434:2 2571:2 2614:1 2619:1 2673:1 2685:2 2721:2 2723:1 2724:5 2726:5 2728:2 2731:6 2732:9 2774:1 3156:1 3271:1 3397:1 3529:1 3575:1 3637:1 4134:1 4194:1 4334:1 4397:1 4405:1 4655:1 4813:1 4839:1 4898:1 5083:1 5418:1 5942:1 6009:1 
0.04595725559215895 108:9 113:8 135:1 143:2 170:1 213:5 308:2 316:1 320:1 330:4 369:1 392:5 430:1 472:3 483:1 509:1 637:1 730:1 794:2 796:2 800:8 848:1 871:1 889:1 922:1 971:1 985:1 1063:1 1156:2 1171:1 1190:2 1207:1 1212:1 1236:1 1242:1 1260:9 1261:2 1373:5 1387:2 1446:2 1447:1 1449:1 1537:1 1559:1 1616:1 1630:1 1650:3 1686:3 1692:1 1700:1 1714:1 1760:1 1830:1 1852:1 1903:1 1929:1 1967:9 2037:1 2075:2 2142:1 2310:2 2323:1 2328:1 2346:1 2356:1 2361:1 2362:5 2400:1 2409:3 2569:1 2593:1 2629:1 2665:1 2696:1 2721:4 2722:1 2723:1 2724:1 2725:1 2726:9 2727:1 2728:15 2817:1 2989:1 3337:1 3380:1 3577:1 4565:1 4582:1 4585:1 4744:1 4794:1 4797:1 4939:1 5081:1 5097:1 5597:1 5653:1 5663:1 5734:1 5750:1 5752:1 5768:1 5773:1 5900:1 5988:1 
1 113:3 144:1 250:2 280:2 356:2 929:1 1373:2 2115:2 2409:2 2528:2 2622:2 2728:2 
1 113:3 144:1 250:2 280:2 356:2 929:1 1373:2 2115:2 2409:2 2528:2 2622:2 2728:2 
1 113:3 144:1 250:2 280:2 356:2 929:1 1373:2 2115:2 2409:2 2528:2 2622:2 2728:2 
0.1186291054940784 14:2 36:1 108:4 113:8 143:8 146:1 174:1 226:8 230:6 250:2 297:1 321:1 325:2 330:2 363:1 421:3 496:1 545:1 617:1 646:1 650:1 782:1 783:3 800:7 823:2 888:1 904:1 945:4 1026:1 1063:2 1075:1 1140:11 1343:4 1366:1 1371:2 1373:7 1431:1 1434:4 1449:1 1483:2 1579:1 1653:1 1702:5 1724:2 1810:5 1833:1 1846:3 1936:1 2108:1 2117:1 2126:1 2131:1 2361:1 2362:5 2363:4 2376:1 2409:2 2528:2 2542:4 2571:1 2596:1 2622:2 2698:1 2712:1 2721:4 2724:9 2728:4 2731:11 2732:9 2774:1 2975:1 3271:1 3453:1 3460:1 3529:1 4104:1 4334:1 4397:1 4665:1 4813:1 4898:1 5418:1 5942:1 6009:1 6011:1 
0.03060590220797283 9:1 36:2 108:2 113:7 143:2 226:1 230:4 250:2 297:1 326:1 330:2 342:1 355:2 363:1 417:1 759:1 800:2 904:2 979:1 1014:1 1026:2 1075:1 1140:8 1156:2 1373:2 1439:1 1446:1 1495:1 1677:1 1702:2 1810:2 1846:2 1904:1 2076:2 2108:2 2126:1 2192:1 2359:1 2361:2 2362:7 2409:2 2416:1 2434:2 2528:2 2622:2 2645:1 2722:1 2723:7 2724:4 2725:1 2726:4 2728:3 2731:8 2732:4 2765:1 3126:1 3156:1 3460:1 3529:1 3575:1 3637:1 4405:1 4582:1 4655:1 5099:1 
0.01116604728883865 80:1 108:6 113:15 118:1 135:1 143:1 167:1 180:2 250:1 275:3 300:1 303:1 321:2 324:1 330:8 334:3 369:1 419:3 472:1 517:2 561:2 653:1 693:1 800:2 823:2 825:1 831:1 868:1 872:1 894:2 1007:2 1027:1 1118:1 1209:2 1213:2 1260:1 1321:1 1338:1 1342:2 1362:6 1373:6 1432:1 1446:1 1449:5 1483:1 1486:9 1512:1 1525:1 1548:1 1555:1 1714:1 1791:2 1812:2 1845:1 1846:1 1891:1 1903:1 1909:1 1967:1 2029:2 2089:1 2171:1 2172:1 2196:1 2232:1 2267:1 2286:1 2338:1 2361:1 2362:3 2396:2 2409:2 2463:1 2475:1 2528:2 2548:6 2557:1 2558:1 2665:1 2721:3 2722:7 2723:1 2725:7 2726:25 2728:11 2729:9 2732:4 2773:1 3107:1 3312:1 3317:1 3751:1 3924:1 3992:1 4049:1 4570:1 4582:1 4665:1 4667:1 4781:1 5134:1 5184:1 5407:1 5604:1 5638:1 5671:1 5752:1 5768:1 5832:1 
0.05256651130255179 39:1 89:2 108:3 112:2 113:4 134:1 143:1 170:1 284:1 316:1 330:5 354:1 355:2 369:1 373:1 413:1 465:1 469:1 488:1 546:2 561:1 694:1 800:3 922:1 1063:1 1176:2 1252:1 1338:1 1373:2 1444:2 1447:1 1450:1 1555:1 1620:1 1636:1 1696:1 1704:1 1742:1 1784:1 1825:2 2043:1 2075:1 2275:1 2362:1 2430:1 2476:1 2491:1 2508:1 2554:1 2605:1 2665:1 2683:1 2721:5 2722:2 2723:2 2724:7 2725:2 2726:15 2727:2 2728:2 2732:2 3602:1 3806:1 3998:1 4080:1 4279:1 4357:1 4611:1 4838:1 4896:1 5040:1 5204:1 5274:1 5293:1 5384:1 5451:1 5506:1 5518:1 5706:1 
0.4264089707946945 113:1 259:2 325:1 743:2 929:2 957:2 1075:2 1358:2 1373:4 1846:2 2728:2 2732:3 2938:1 4907:1 
0.6407642110738897 113:3 144:1 280:2 356:2 929:1 1486:2 2115:2 2409:2 2528:2 2728:2 
0.01756435619683197 49:1 70:4 84:1 90:2 108:2 113:10 143:2 170:1 196:5 214:1 227:1 229:3 236:1 259:2 266:1 281:2 287:1 316:1 318:1 322:1 325:1 330:5 353:1 355:1 369:1 411:2 469:1 472:4 615:1 732:1 773:1 800:21 828:1 856:1 896:1 898:1 922:2 945:1 955:1 957:2 976:1 1007:1 1063:5 1156:5 1158:1 1201:1 1228:2 1255:1 1295:1 1342:2 1355:1 1358:1 1373:6 1446:2 1449:3 1453:2 1535:1 1572:2 1573:2 1669:2 1696:2 1756:1 1784:1 1905:4 2055:1 2146:2 2245:1 2280:1 2333:1 2359:1 2362:16 2363:3 2417:1 2445:1 2447:2 2533:5 2537:1 2540:1 2621:1 2683:1 2712:1 2721:8 2723:1 2724:7 2725:2 2726:7 2727:1 2728:3 2732:1 2773:1 3271:1 3290:1 3506:1 3691:1 4027:1 4279:1 4354:1 4582:1 4680:1 4828:1 4839:1 4980:1 5069:1 5099:1 5287:1 5361:1 5518:1 5540:1 5548:1 5559:1 5862:1 6007:1 
0.1108058929550998 14:3 56:1 108:5 113:7 143:5 170:1 226:1 259:2 330:4 342:2 355:3 363:1 417:2 421:3 474:1 492:2 496:1 520:2 545:1 617:1 646:2 654:1 682:1 800:6 879:1 888:1 904:4 957:2 1023:6 1038:1 1063:3 1075:1 1140:12 1343:8 1366:1 1373:5 1496:1 1579:1 1637:2 1677:1 1696:2 1702:4 1733:1 1810:3 1846:3 1865:2 1980:1 2003:2 2117:1 2126:1 2205:1 2223:3 2246:1 2260:1 2314:4 2361:4 2362:10 2363:4 2416:1 2434:2 2542:4 2721:1 2722:1 2723:3 2724:8 2726:6 2728:3 2731:12 2732:7 2774:1 2986:1 3207:1 3397:1 3567:1 3575:1 3637:1 3745:1 4194:1 4334:1 4397:1 4813:1 4858:1 4898:1 5942:1 6009:1 6013:1 
0.01756761381029272 108:1 113:5 135:1 142:2 143:2 152:1 153:1 170:1 250:2 291:1 303:1 304:1 330:1 370:1 629:1 766:1 800:3 922:1 982:1 1025:2 1127:3 1223:1 1238:2 1242:1 1260:1 1297:1 1335:1 1342:1 1373:7 1445:1 1525:1 1607:2 1613:1 1903:1 1911:1 1922:1 1943:1 1967:1 2049:1 2122:1 2360:1 2361:1 2362:1 2396:1 2409:4 2425:2 2427:2 2436:1 2439:1 2462:1 2528:1 2621:1 2622:3 2721:4 2723:1 2724:1 2726:5 2727:2 2728:9 2773:1 4044:1 4323:1 5188:1 5331:1 5467:1 5638:1 5702:1 5714:1 5752:1 5768:1 5792:1 
0.02727405620903635 108:6 113:4 135:1 143:1 170:2 250:1 291:1 304:1 312:1 316:2 330:2 472:1 477:1 489:2 572:1 725:1 800:3 836:2 897:1 922:1 932:2 965:1 1074:1 1080:1 1086:1 1134:1 1171:1 1196:1 1202:1 1242:1 1260:4 1335:2 1358:1 1373:6 1414:1 1663:1 1739:1 1760:1 1780:1 1791:1 1817:1 1896:2 1903:1 1949:1 1967:4 1975:1 2015:1 2051:1 2196:4 2232:1 2334:1 2359:1 2362:1 2387:1 2396:2 2409:1 2429:3 2432:1 2436:2 2558:1 2571:1 2594:1 2721:3 2723:1 2724:4 2726:7 2728:5 2732:1 2991:1 3312:1 3660:1 3736:1 4034:1 4077:1 4185:1 5010:1 5099:1 5331:1 5437:1 5476:1 5582:1 5657:1 5752:1 5768:1 
0.3699150347422858 113:1 325:3 740:2 925:2 929:2 1075:2 1373:4 1561:1 1577:1 1650:2 2728:2 2732:3 4907:1 
0.1963925336213004 108:5 113:5 143:4 146:1 204:1 226:3 227:1 230:2 325:4 330:2 355:1 363:1 421:1 592:1 615:1 653:2 688:1 757:2 759:1 800:7 922:2 945:3 954:2 1026:1 1070:1 1075:1 1116:1 1140:3 1143:1 1156:1 1343:2 1373:5 1434:1 1447:2 1650:2 1702:2 1717:1 1810:2 1886:1 1903:1 1919:1 2076:1 2126:1 2136:1 2144:1 2245:1 2263:2 2308:1 2338:1 2350:1 2356:1 2361:1 2362:4 2409:2 2529:1 2542:2 2564:1 2690:1 2721:6 2724:5 2725:1 2726:8 2728:3 2731:3 2732:5 2774:1 2788:1 2975:1 3156:1 3271:1 3529:1 3745:1 4405:1 4566:1 4839:1 5083:1 5097:1 5278:1 5501:1 5752:1 5958:1 
0.001001213152495569 27:3 108:7 113:12 135:1 143:5 153:1 212:1 316:2 320:1 321:3 325:1 330:3 354:1 358:3 398:1 422:2 469:3 472:1 490:1 587:1 616:1 620:1 800:8 821:1 823:3 896:1 922:1 985:2 1037:1 1041:7 1063:2 1134:1 1156:2 1158:1 1171:2 1252:1 1260:4 1359:1 1373:5 1376:1 1446:1 1449:5 1545:1 1767:1 1810:1 1830:1 1903:1 1908:1 1967:4 2061:1 2070:1 2071:1 2094:1 2096:1 2207:1 2208:1 2223:1 2343:1 2362:8 2363:2 2395:1 2409:4 2428:1 2465:2 2489:1 2571:1 2611:3 2627:1 2646:2 2665:1 2679:1 2687:1 2721:6 2722:1 2723:7 2724:3 2725:5 2726:7 2727:5 2728:10 2730:2 2732:1 2865:1 2872:1 3082:1 3154:1 3214:1 3285:1 3380:1 3602:1 3651:1 3714:1 3729:1 3735:1 3753:1 3887:1 4050:1 4080:1 4262:1 4370:1 4582:1 4665:1 4750:1 5143:1 5304:1 5411:1 5476:1 5488:1 5518:1 5540:1 5563:1 5588:1 5610:1 5752:1 5768:1 
0.05292218570499289 113:3 135:1 143:2 177:1 263:2 316:1 330:3 470:1 698:1 800:1 922:1 1037:1 1063:2 1092:2 1117:1 1184:1 1200:1 1207:1 1260:3 1322:1 1447:1 1537:1 1601:1 1650:2 1903:1 1967:3 2362:1 2409:1 2655:1 2721:2 2722:2 2723:1 2724:2 2725:2 2726:4 2728:2 2732:2 3477:1 3768:1 3938:1 4381:1 4797:1 4967:1 5120:1 5752:1 5768:1 5997:1 
0.02499439190883699 14:2 80:1 108:2 113:8 136:1 143:3 146:1 226:5 230:2 297:2 316:2 321:2 325:3 330:2 354:1 355:1 363:1 417:1 418:1 421:4 422:1 428:1 469:1 488:2 496:1 503:1 506:1 526:1 545:1 646:1 719:1 752:1 754:1 774:1 779:1 784:1 800:12 823:1 868:2 888:1 904:1 906:1 922:1 924:1 945:4 970:1 1007:1 1023:1 1063:1 1075:1 1140:10 1182:1 1202:1 1230:1 1343:6 1362:1 1366:1 1373:12 1428:1 1449:6 1451:1 1478:1 1486:3 1569:1 1637:1 1702:4 1759:1 1810:4 1833:1 1846:1 1865:2 1897:1 1963:1 2075:1 2089:1 2102:1 2107:1 2117:1 2126:1 2144:1 2152:1 2183:1 2263:2 2279:1 2283:1 2314:1 2338:1 2361:2 2362:9 2363:4 2409:2 2417:2 2428:1 2434:2 2467:1 2484:1 2528:2 2539:1 2542:4 2605:1 2700:1 2707:1 2721:3 2722:1 2724:8 2725:2 2726:14 2728:3 2729:1 2730:1 2731:10 2732:7 2774:1 3001:1 3005:1 3079:1 3271:1 3307:1 3397:1 3460:1 3584:1 3602:1 3707:1 3745:1 3753:1 3760:1 3962:1 4011:1 4334:1 4397:1 4446:1 4566:1 4586:1 4665:1 4813:1 5143:1 5433:1 5518:1 5611:1 5783:1 5977:1 6009:1 
0.02845310366712885 7:2 9:1 14:1 108:4 113:4 143:2 220:2 226:1 230:2 319:1 325:2 330:5 469:1 470:2 479:2 490:1 518:2 561:1 565:1 733:2 800:2 913:1 1026:1 1063:2 1111:1 1140:2 1156:1 1205:1 1249:1 1260:2 1291:1 1296:2 1298:2 1358:2 1373:7 1410:1 1417:1 1435:2 1446:1 1449:2 1450:1 1486:3 1498:1 1514:2 1590:1 1693:1 1717:1 1723:2 1866:1 1881:1 1886:1 1916:2 1967:2 2029:1 2061:1 2144:1 2242:1 2325:2 2327:1 2361:1 2362:2 2409:2 2463:1 2465:1 2528:2 2665:1 2683:1 2721:10 2722:1 2723:5 2724:6 2725:1 2726:8 2728:5 2731:2 2732:2 2765:1 2948:1 3131:1 3386:1 3509:1 3529:1 3800:1 4039:1 4279:1 4334:1 4505:1 4566:1 4567:1 4582:1 4929:1 5407:1 5411:1 5413:1 5518:1 5555:1 5563:1 5664:1 5776:1 
0.06849391113708142 108:6 113:4 170:1 230:1 316:1 320:1 322:1 330:2 342:1 355:1 364:3 450:1 469:1 470:1 486:1 526:1 547:1 561:1 562:1 800:4 877:1 1019:1 1046:3 1063:1 1156:1 1202:1 1223:1 1342:2 1373:1 1446:1 1449:1 1666:2 1903:1 2037:1 2088:1 2250:1 2348:1 2362:3 2409:2 2493:1 2529:1 2564:1 2621:1 2651:1 2665:1 2721:6 2723:1 2724:2 2726:11 2727:1 2728:7 2730:2 2732:1 2773:1 2915:1 3222:1 3575:1 3814:1 3820:1 3962:1 4582:1 4796:1 5075:1 5118:1 5127:1 5518:1 5712:1 5714:1 5752:1 
0.04156475193336921 113:6 118:1 143:1 170:5 175:2 232:2 303:1 316:3 321:1 325:1 330:5 365:1 369:4 469:1 472:1 475:1 572:2 610:1 657:1 696:3 800:13 823:2 922:1 945:2 958:3 965:1 1048:1 1063:1 1111:1 1182:1 1242:1 1260:1 1342:1 1373:6 1445:1 1446:1 1447:2 1449:8 1471:9 1491:3 1526:1 1550:2 1576:1 1641:2 1721:4 1748:1 1781:1 1834:1 1846:1 1903:1 1967:1 2049:1 2221:7 2361:2 2362:13 2398:1 2409:1 2436:1 2621:1 2626:1 2652:1 2665:2 2670:1 2721:7 2722:1 2723:1 2724:4 2725:1 2726:8 2727:1 2728:7 2730:4 2732:2 2773:1 2953:1 3099:1 3111:1 3271:1 3417:1 3435:1 3512:1 3541:1 3804:1 4187:1 4323:1 4570:1 4582:1 4665:1 4778:1 4955:1 5032:1 5270:1 5303:1 5331:1 5427:1 5518:1 5539:1 5752:1 
0.1260028276707364 9:4 14:2 108:4 113:9 143:5 165:1 226:5 230:8 320:1 325:4 330:6 363:1 417:2 421:3 469:3 496:1 545:1 592:1 615:1 646:2 688:1 759:1 783:1 800:8 818:1 823:1 888:1 897:1 907:1 954:2 1026:3 1075:3 1140:12 1198:1 1343:1 1366:1 1373:10 1446:1 1449:1 1495:2 1550:2 1653:1 1677:1 1702:3 1723:1 1785:1 1810:3 1833:1 1846:2 1865:2 1992:1 2076:1 2117:1 2126:1 2128:1 2144:2 2192:1 2221:3 2263:2 2318:1 2362:5 2363:2 2409:2 2416:1 2417:2 2434:2 2465:1 2529:1 2542:2 2582:1 2724:3 2726:8 2728:2 2731:12 2732:11 2765:1 2774:1 2788:1 3126:1 3453:1 3529:1 3637:1 3745:1 4334:1 4397:1 4405:1 4566:1 4582:1 4655:1 4665:1 4813:1 5411:1 5518:1 6009:1 
0.03603614528886321 42:1 71:1 85:1 108:2 113:6 143:2 170:1 316:2 330:5 387:1 416:1 436:6 488:2 500:1 503:2 504:1 530:1 665:3 800:9 819:2 871:2 911:2 975:1 1063:2 1065:1 1342:1 1349:2 1373:3 1386:2 1440:1 1443:1 1446:3 1447:1 1454:1 1473:1 1600:1 1652:1 1714:1 1732:1 1928:1 1975:1 1989:1 2132:1 2207:1 2251:1 2268:1 2362:2 2363:2 2434:2 2605:3 2685:8 2713:1 2721:8 2724:7 2725:3 2726:8 2727:3 2728:8 2773:1 3125:1 3615:1 4185:1 4490:1 4548:1 4582:1 4885:1 4930:1 4952:1 5267:1 5405:1 5529:1 5602:1 5606:1 5931:1 
0.07338697087020415 40:1 108:9 113:7 170:1 222:1 239:1 259:2 319:1 320:1 321:4 330:4 351:1 420:1 465:1 469:2 472:2 520:3 526:1 534:1 623:1 643:1 654:3 719:1 725:1 800:4 825:1 861:1 864:1 914:2 935:1 957:7 1063:1 1096:2 1156:1 1171:2 1201:1 1242:2 1260:4 1294:2 1317:2 1373:2 1402:4 1441:1 1446:1 1449:3 1600:2 1696:2 1714:1 1733:4 1903:1 1922:1 1967:4 2009:2 2075:1 2144:1 2205:3 2223:3 2343:1 2362:3 2409:1 2465:1 2621:1 2660:1 2665:3 2679:1 2721:10 2723:1 2724:2 2726:13 2727:2 2728:9 2729:5 2730:2 2732:2 2987:1 3509:1 3962:1 4213:1 4250:1 4566:1 4582:1 4925:1 4952:1 5213:1 5383:1 5411:1 5506:1 5518:1 5618:1 5752:1 5792:1 5842:1 5956:1 6013:1 
0.08424961139215695 14:1 54:1 108:1 113:8 143:2 146:1 170:2 219:1 226:2 230:8 259:2 325:2 330:4 354:2 355:1 399:1 417:1 421:2 428:1 472:1 474:1 492:2 496:1 520:1 545:1 617:2 677:1 800:4 823:1 888:1 904:4 907:1 924:2 945:1 957:3 1023:4 1063:3 1140:10 1156:1 1313:1 1366:1 1373:6 1449:1 1505:1 1559:1 1653:2 1654:1 1696:2 1702:2 1733:1 1810:2 1833:2 1865:2 2012:1 2117:1 2126:1 2223:2 2282:1 2362:1 2363:2 2417:2 2542:2 2571:4 2721:1 2722:1 2723:1 2724:5 2726:6 2728:3 2729:1 2731:10 2732:7 2852:1 3271:1 3453:1 3454:1 3602:1 3745:1 3760:1 4334:1 4397:1 4665:1 4813:1 4918:1 5114:1 5398:1 5942:1 5971:1 
0.9731796729230547 113:3 144:1 686:2 929:1 1653:2 1961:2 2115:2 2409:2 2728:2 4907:1 
0.02236933881796854 108:3 113:5 141:1 143:1 153:1 166:1 170:2 194:1 308:3 330:2 376:1 456:1 486:1 509:1 535:1 572:2 615:1 712:1 800:5 1059:1 1063:2 1152:1 1156:2 1171:1 1260:1 1261:1 1342:2 1373:3 1387:3 1446:1 1537:1 1555:1 1575:1 1650:3 1670:1 1686:2 1704:1 1705:1 1771:1 1807:1 1810:1 1903:1 1967:1 2183:1 2224:1 2242:1 2346:1 2362:3 2399:1 2401:1 2409:1 2477:1 2596:1 2665:1 2675:1 2721:5 2723:2 2724:1 2726:5 2727:1 2728:6 2732:1 2773:1 3122:1 3171:1 3612:1 3740:1 4153:1 4582:1 4622:1 4660:1 4688:1 4797:1 5073:1 5078:1 5196:1 5200:1 5752:1 5795:1 5940:1 
0.03173218619984443 108:1 113:5 135:1 139:2 157:1 234:1 259:2 285:2 303:1 320:1 322:1 330:4 355:1 397:1 399:1 469:1 486:1 566:2 580:4 595:1 770:1 800:8 823:2 896:1 922:2 957:2 1027:1 1101:1 1321:3 1373:5 1408:1 1433:1 1446:2 1449:5 1450:1 1526:1 1652:1 1693:1 1696:1 1717:1 1733:1 1804:2 1834:1 1937:1 2002:1 2140:1 2206:2 2223:1 2252:1 2280:1 2326:1 2343:1 2361:1 2362:1 2367:1 2434:2 2458:1 2465:1 2552:1 2571:1 2642:1 2647:2 2679:1 2721:10 2722:3 2723:5 2724:6 2725:3 2726:8 2728:1 2729:4 2730:2 2732:1 3044:1 3277:1 4537:1 4550:1 4582:1 4665:1 4778:1 4862:1 5062:1 5411:1 5475:1 5518:1 5534:1 5568:1 5616:1 5768:1 5810:1 5854:1 5875:1 5996:1 
0.08522281620110225 9:3 14:2 36:2 54:1 108:8 113:6 143:7 165:1 170:1 226:4 230:8 236:3 297:1 306:1 316:1 325:4 355:1 417:1 421:2 425:1 492:1 496:1 515:1 545:1 551:1 592:1 615:1 688:1 779:1 800:10 888:2 904:1 1063:2 1075:2 1140:12 1198:1 1303:1 1343:3 1366:1 1373:11 1428:1 1431:1 1477:2 1495:1 1555:1 1637:1 1650:3 1653:1 1677:1 1702:4 1767:2 1785:1 1810:4 1880:1 1886:1 1903:1 1919:2 1945:3 1990:1 1996:1 2114:1 2126:2 2136:2 2192:1 2291:1 2314:3 2361:1 2362:9 2363:4 2380:1 2409:2 2416:1 2434:2 2517:1 2541:1 2542:3 2564:1 2673:1 2684:1 2722:2 2724:7 2725:4 2726:6 2727:1 2728:3 2731:12 2732:11 2765:1 2774:1 2788:1 2852:1 3075:1 3126:1 3397:1 3453:1 3460:1 3637:1 3735:1 3745:1 4334:1 4397:1 4655:1 4813:1 4838:1 5159:1 5562:1 5728:1 5752:1 
0.1797678896701949 14:1 36:4 92:2 113:6 121:1 143:6 230:2 234:1 320:2 321:2 322:2 330:2 417:1 545:1 617:2 620:1 646:2 659:4 800:8 818:1 843:1 888:5 907:2 1023:3 1026:4 1063:1 1140:4 1260:1 1274:1 1343:4 1373:11 1375:4 1431:1 1449:4 1493:2 1569:1 1570:1 1579:1 1637:4 1658:1 1696:1 1717:1 1720:1 1745:1 1765:1 1840:4 1841:5 1862:3 1967:1 1976:2 2061:5 2314:4 2315:5 2330:1 2362:5 2434:2 2437:2 2472:1 2496:1 2518:1 2571:2 2685:1 2715:4 2717:1 2721:1 2722:1 2724:1 2725:1 2726:2 2727:1 2728:1 2731:4 2732:9 2737:1 2774:1 2924:1 3133:1 3277:1 3397:1 3529:1 3676:1 3794:1 4134:1 4334:1 4813:1 4898:1 5942:1 6009:1 
8.056284655774562e-07 108:3 113:8 135:3 136:4 141:1 143:3 170:3 264:1 292:1 312:1 320:1 325:1 330:4 369:4 416:1 438:1 610:1 611:1 613:1 623:1 752:6 800:9 868:2 875:1 922:2 924:1 943:1 954:1 1040:1 1048:1 1063:5 1080:1 1082:1 1102:3 1128:1 1155:1 1156:2 1171:1 1223:1 1260:2 1281:2 1336:2 1373:11 1392:1 1393:1 1446:2 1447:2 1449:5 1451:1 1481:1 1486:2 1525:1 1569:1 1708:1 1714:1 1748:1 1901:3 1903:1 1923:1 1934:1 1946:1 1967:2 1986:1 2015:2 2029:1 2064:1 2068:1 2069:1 2189:1 2252:1 2338:2 2340:1 2361:1 2362:2 2396:1 2409:1 2528:2 2571:1 2621:2 2656:1 2721:9 2722:2 2723:4 2724:7 2725:1 2726:16 2727:4 2728:3 2730:6 2732:1 2758:1 2791:1 2807:1 2876:1 3105:1 3142:1 3235:1 3284:1 3347:1 3710:1 3849:1 3916:1 3947:1 3961:1 3969:1 3995:1 4038:1 4041:1 4077:1 4121:1 4187:1 4188:1 4454:1 4483:1 4582:1 4586:1 4821:1 5018:1 5290:1 5638:1 5682:1 5714:1 5752:1 5768:1 5870:1 5956:1 
1 113:3 325:3 350:1 410:2 742:2 929:2 1075:2 1373:4 1569:1 1696:2 2355:2 2728:2 2732:3 4907:1 
0.2157626288843318 67:1 113:4 325:2 330:1 355:1 410:2 426:2 588:1 800:1 1063:1 1156:1 1373:3 1404:1 1563:1 1575:1 1636:1 1693:1 1696:2 1789:1 1836:1 1851:1 1865:2 2110:1 2120:1 2231:3 2355:2 2361:2 2362:2 2471:1 2665:1 2712:1 2721:2 2724:2 2726:2 2727:1 2728:2 2731:1 2732:3 2875:1 2905:1 3909:1 4177:1 4499:1 4966:1 5040:1 
0.02407670299715485 20:1 108:2 113:8 135:1 143:2 170:2 197:1 316:2 472:1 559:5 561:1 570:4 620:1 705:1 713:2 768:2 800:5 922:1 943:1 1063:2 1156:2 1260:1 1359:1 1373:5 1428:1 1449:3 1527:2 1572:1 1575:1 1583:5 1650:4 1695:1 1758:1 1762:1 1808:1 1903:1 1967:1 2097:1 2155:2 2338:1 2343:1 2362:4 2409:2 2461:1 2551:1 2634:1 2637:1 2679:1 2722:3 2723:3 2724:1 2725:2 2726:3 2727:2 2728:14 2729:4 2730:2 2732:1 3020:1 3705:1 4347:1 4438:1 4602:1 4614:1 5585:1 5592:1 5660:1 5752:1 5768:1 5771:1 5814:1 5856:1 
0.01305830196199704 23:5 41:1 71:1 108:3 113:6 138:1 141:1 143:1 153:1 271:1 330:6 369:1 438:1 536:1 561:4 572:2 609:1 642:1 685:1 696:1 709:1 800:5 922:1 933:1 945:1 959:1 973:1 1040:1 1063:4 1138:1 1156:2 1242:4 1260:8 1308:2 1316:1 1335:1 1347:2 1373:9 1413:1 1449:1 1486:3 1490:1 1491:4 1514:1 1586:1 1637:1 1705:1 1708:1 1734:1 1781:1 1903:1 1967:8 1985:1 2010:1 2025:2 2075:1 2087:1 2089:1 2192:1 2196:4 2283:1 2359:2 2363:2 2380:1 2387:1 2396:1 2401:1 2409:1 2528:2 2529:1 2558:2 2571:3 2590:1 2621:1 2682:1 2683:1 2697:8 2721:11 2722:1 2723:1 2724:11 2725:3 2726:9 2727:3 2728:5 2758:1 2830:1 2855:1 3035:1 3271:1 3303:1 3307:1 3312:1 3397:1 3405:1 3435:1 3627:1 3654:1 3928:1 3976:1 4036:1 4279:1 4655:1 4990:1 5013:1 5039:1 5044:1 5099:1 5159:1 5200:1 5238:1 5360:1 5721:1 5752:1 
0.01373958906546786 61:1 108:2 113:7 127:2 138:1 143:3 146:1 158:1 170:1 316:2 317:1 320:1 330:4 354:2 369:1 385:1 468:1 469:1 476:1 477:1 480:1 535:1 600:1 632:1 669:2 672:1 688:1 690:1 716:1 800:12 865:4 875:2 922:1 924:1 945:1 959:2 971:1 1037:1 1063:3 1080:1 1129:1 1154:1 1156:2 1190:1 1202:4 1261:3 1281:1 1342:2 1373:8 1387:1 1403:2 1433:2 1449:2 1518:1 1530:1 1547:1 1650:2 1686:1 1695:2 1810:1 1830:1 1929:1 1946:1 2005:1 2028:1 2049:1 2059:1 2075:1 2218:1 2232:1 2275:1 2280:1 2309:1 2341:2 2346:1 2361:1 2362:8 2363:1 2396:1 2400:1 2401:2 2409:1 2441:1 2465:1 2532:1 2596:1 2721:10 2722:1 2723:2 2724:5 2725:3 2726:14 2728:3 2773:1 2788:1 3035:1 3380:1 3413:1 3577:1 3602:1 3711:1 3741:1 3893:1 4154:1 4323:1 4360:1 4415:1 4750:1 4880:1 4896:1 4990:1 5200:1 5411:1 5518:1 5543:1 5651:1 5827:1 5870:1 5875:1 5979:1 
1 113:1 325:3 651:2 743:2 929:2 1075:2 1189:1 1373:4 1575:1 2685:2 2728:2 2732:3 4907:1 
0.02494178979954279 31:1 108:3 113:5 143:2 197:1 198:1 250:1 320:1 322:1 330:2 476:1 488:1 523:1 561:1 716:1 800:4 807:1 903:1 917:2 945:1 975:1 1002:2 1260:2 1281:1 1373:4 1446:1 1449:1 1454:1 1462:1 1514:2 1537:1 1612:1 1739:2 1776:1 1840:1 1903:1 1949:1 1967:2 2039:1 2043:1 2239:1 2309:1 2338:1 2396:2 2409:1 2429:4 2495:1 2557:1 2571:1 2664:1 2665:1 2675:1 2721:5 2723:1 2724:3 2726:3 2728:2 2730:2 2732:3 3271:1 3283:1 3660:1 3762:1 3807:1 4066:1 4164:1 4582:1 4607:1 4745:1 4762:1 4797:1 5258:1 5604:1 5752:1 
0.2367704088506016 14:3 62:1 113:9 133:1 143:5 226:2 230:8 320:1 325:5 330:2 355:3 363:3 417:2 428:1 482:1 492:1 496:1 545:1 592:2 800:10 857:1 891:1 897:1 904:2 907:1 953:1 1014:1 1026:1 1063:5 1075:3 1140:9 1156:2 1198:2 1303:1 1343:2 1365:2 1373:5 1428:1 1446:1 1571:1 1637:2 1650:3 1677:1 1702:3 1765:1 1789:2 1864:1 1980:1 2075:1 2117:1 2126:2 2192:1 2245:1 2263:3 2278:1 2314:2 2350:1 2361:1 2362:10 2363:2 2409:2 2416:1 2434:2 2673:1 2721:1 2722:2 2723:2 2724:7 2725:2 2726:9 2727:1 2728:3 2731:11 2732:9 2774:1 2820:1 3024:1 3397:1 3529:1 3637:1 3760:1 4194:1 4334:1 4476:1 4582:1 4655:1 5083:1 5551:1 
0.02223909296139019 39:1 49:1 54:1 108:1 113:3 135:1 266:1 330:2 369:2 452:1 773:1 800:1 803:1 922:1 925:1 950:1 967:3 1176:2 1213:1 1362:1 1373:4 1446:1 1483:2 1597:1 1696:1 1825:2 1844:2 1891:1 1903:1 1979:1 2092:2 2142:1 2171:1 2209:1 2245:2 2362:3 2385:1 2548:1 2601:2 2721:1 2722:1 2724:2 2725:2 2726:5 2728:4 2729:3 2732:2 2852:1 3118:1 3290:1 3992:1 4191:1 4565:1 4582:1 4970:1 5752:1 5768:1 
0.005738350906402122 7:2 24:3 76:1 108:4 113:10 143:3 154:1 220:3 230:4 292:1 309:1 316:1 320:2 325:1 330:7 369:1 376:1 399:1 469:4 470:4 472:1 479:2 518:3 565:1 584:1 615:2 662:1 733:1 768:1 800:6 818:1 851:1 1063:7 1066:4 1115:1 1140:5 1141:1 1154:1 1156:1 1205:1 1223:1 1249:1 1260:2 1291:1 1296:2 1298:2 1317:1 1319:3 1373:14 1417:2 1428:1 1432:1 1435:2 1446:2 1449:3 1458:1 1486:6 1498:1 1514:2 1535:1 1577:3 1636:1 1703:1 1718:1 1721:2 1723:1 1768:1 1833:3 1839:1 1844:1 1847:2 1881:1 1886:2 1916:2 1928:1 1967:2 2003:2 2059:1 2061:1 2074:1 2144:1 2152:1 2216:1 2231:1 2242:1 2280:1 2325:1 2338:1 2361:1 2362:5 2409:4 2528:2 2571:2 2621:1 2634:1 2642:1 2660:1 2665:4 2669:1 2683:1 2712:1 2721:22 2722:2 2723:7 2724:12 2725:3 2726:11 2727:1 2728:11 2731:5 2732:4 2747:1 2948:1 2995:1 3001:1 3080:1 3131:1 3737:1 3800:1 3828:1 3833:1 4039:1 4250:1 4279:1 4399:1 4566:1 4567:1 4582:1 5040:1 5244:1 5271:1 5413:1 5496:1 5518:1 5664:1 5714:1 5776:1 5814:1 5996:1 5998:1 
0.03102267830276487 14:1 46:1 54:1 108:3 113:7 135:2 143:1 157:1 198:1 203:1 230:2 301:2 316:1 322:2 330:5 340:1 365:1 369:2 404:3 417:1 459:1 496:1 506:1 580:4 692:1 731:1 800:9 896:1 922:2 1022:1 1045:1 1063:1 1083:2 1140:3 1156:6 1373:6 1440:2 1446:1 1449:2 1467:1 1493:1 1535:1 1584:1 1590:1 1652:1 1730:7 1834:1 1891:1 1922:2 1927:1 1937:1 1960:1 1979:2 2008:1 2056:1 2059:1 2139:1 2152:1 2231:1 2361:1 2460:1 2465:2 2499:1 2526:3 2571:1 2627:1 2713:1 2721:3 2722:2 2723:6 2724:3 2725:4 2726:5 2727:3 2728:11 2729:4 2731:3 2732:2 2793:1 2852:1 2954:1 3001:1 3263:1 3302:1 3917:1 3992:1 4087:1 4334:1 4537:1 4582:1 4639:1 4670:1 4762:1 4772:1 4884:1 4929:1 4949:1 5411:1 5498:1 5601:1 5768:1 5792:1 5802:1 5879:1 5990:1 
0.07780329708879885 71:1 108:2 113:2 143:1 316:1 456:1 472:2 488:1 561:1 615:2 791:1 800:3 836:1 868:1 922:1 943:1 975:1 1063:1 1117:1 1342:1 1446:1 1449:2 1989:2 2060:3 2064:1 2359:1 2362:2 2363:1 2605:2 2653:1 2685:4 2721:1 2723:1 2724:1 2725:1 2726:1 2727:2 2728:5 2730:2 2773:1 3326:1 3472:1 3768:1 4580:1 4582:1 5022:1 5078:1 5099:1 5770:1 
0.0118519977619863 108:1 113:5 135:1 170:1 232:1 244:3 266:1 291:1 321:2 330:2 334:2 369:1 483:1 512:1 653:1 692:2 701:1 764:2 773:2 800:4 823:1 872:1 885:1 922:1 945:1 1063:3 1111:1 1156:2 1193:1 1213:1 1248:2 1321:1 1373:7 1446:1 1449:1 1475:1 1571:1 1696:1 1742:1 1802:1 1871:1 1894:3 1903:1 2056:1 2182:1 2362:6 2571:1 2575:1 2671:1 2724:1 2726:1 2727:1 2728:8 2729:4 2732:2 3271:1 3954:1 4179:1 4582:1 4665:1 4781:1 4807:1 5184:1 5603:1 5752:1 5764:1 5768:1 
0.1308874742199971 14:2 108:4 113:8 143:4 226:2 230:6 316:1 325:2 330:1 355:3 363:2 417:2 492:2 496:1 545:1 567:1 592:1 646:1 729:2 757:1 759:1 800:6 888:1 904:5 954:2 1026:1 1063:3 1075:2 1140:6 1156:1 1198:1 1366:1 1373:8 1449:1 1550:2 1572:1 1658:1 1677:2 1702:3 1789:4 1810:3 1833:1 1844:3 1866:2 1980:1 2076:1 2081:1 2117:1 2126:1 2192:1 2221:2 2246:2 2258:3 2263:1 2308:1 2315:1 2359:1 2361:1 2362:2 2363:2 2409:2 2434:2 2444:1 2571:1 2721:8 2724:9 2726:8 2728:2 2731:10 2732:9 3156:1 3207:1 3529:1 4194:1 4334:1 4397:1 4405:1 4655:1 4813:1 4977:1 5099:1 6009:1 
0.08784219576939936 14:2 113:4 143:3 222:1 325:2 355:1 363:1 381:1 417:1 421:2 428:1 496:1 545:1 659:1 729:2 800:5 818:1 888:1 1055:1 1075:1 1140:6 1343:4 1366:1 1373:3 1428:1 1442:1 1486:2 1637:1 1702:2 1785:1 1810:2 1866:2 2056:1 2106:1 2117:1 2263:2 2314:2 2361:2 2362:5 2363:2 2409:2 2528:2 2542:2 2722:1 2724:3 2725:1 2726:4 2728:2 2731:6 2732:3 2737:1 2774:1 3397:1 3745:1 3760:1 4334:1 4397:1 4813:1 
0.03285610257287228 71:1 108:5 113:5 135:1 138:1 139:1 143:3 153:2 170:1 191:1 232:1 250:2 285:2 316:3 321:1 330:2 369:2 410:1 472:1 474:1 475:1 558:1 572:2 756:1 800:4 922:1 941:1 982:1 1063:1 1156:2 1167:1 1193:1 1202:1 1260:1 1373:5 1449:1 1602:1 1607:1 1613:1 1628:1 1652:1 1714:1 1809:2 1838:1 1903:1 1943:1 1963:2 1967:1 2049:1 2077:3 2096:1 2123:1 2193:1 2267:1 2271:1 2351:1 2362:2 2385:1 2409:1 2465:2 2502:1 2528:1 2571:1 2616:1 2622:7 2671:1 2721:10 2723:2 2724:8 2725:1 2726:11 2727:3 2728:14 2730:2 2872:1 3035:1 3044:1 3382:1 3600:1 3805:1 3912:1 4179:1 4323:1 4532:1 4660:1 5062:1 5411:1 5511:1 5539:1 5679:1 5752:1 5768:1 
0.1500541493058674 14:2 113:6 143:2 226:1 230:3 250:2 321:1 325:2 330:3 347:2 355:2 363:1 496:1 545:1 580:1 678:1 722:1 800:5 904:2 922:1 999:1 1063:2 1075:1 1077:2 1111:1 1140:4 1156:2 1343:1 1373:7 1431:1 1449:2 1573:1 1637:1 1702:1 1721:1 1789:3 1851:2 1869:1 1980:1 2117:1 2126:1 2246:1 2263:2 2269:1 2314:1 2345:3 2361:1 2362:2 2363:2 2409:2 2528:2 2542:2 2571:3 2622:2 2724:3 2726:7 2728:2 2731:7 2732:3 2774:1 3207:1 3276:1 3397:1 3587:1 3909:1 3952:1 4194:1 4334:1 4537:1 5068:1 5974:1 
0.07810067388608005 14:1 36:2 113:7 143:3 250:2 325:2 342:1 355:1 363:1 417:1 421:4 492:1 496:1 545:1 781:1 800:5 888:1 904:4 1063:3 1075:1 1140:10 1343:5 1366:1 1373:3 1428:2 1465:1 1555:1 1637:1 1677:1 1702:4 1724:2 1810:4 1903:1 1936:1 1992:1 1993:1 2294:1 2314:1 2361:2 2362:5 2363:4 2409:2 2415:2 2416:1 2528:2 2542:3 2622:2 2722:2 2723:1 2724:5 2725:2 2726:2 2728:2 2731:10 2732:5 2774:1 3397:1 3575:1 3637:1 3745:1 4104:1 4334:1 4397:1 4813:1 4838:1 5418:1 5752:1 
0.002316953648176645 108:2 113:5 135:2 143:2 153:1 170:1 216:1 321:1 330:1 354:1 355:1 399:1 457:1 483:1 706:4 800:3 859:1 905:2 917:1 922:1 924:1 931:1 1007:1 1023:1 1063:1 1156:2 1229:1 1269:1 1342:2 1373:7 1408:1 1447:1 1449:5 1491:1 1525:1 1550:2 1705:1 1791:1 1866:1 1902:1 1903:1 1975:1 2142:1 2170:1 2188:1 2221:4 2380:1 2409:1 2476:1 2621:1 2665:1 2667:4 2721:5 2723:1 2724:3 2726:6 2727:1 2728:2 2730:12 2732:1 2773:1 3435:1 3602:1 4185:1 4565:1 4742:1 4849:1 5159:1 5292:1 5638:1 5752:1 5768:1 5840:1 
1 113:3 144:1 280:2 356:2 929:1 1486:2 2115:2 2409:2 2528:2 2728:2 
0.00836934871627402 108:4 113:7 116:1 143:1 153:1 211:1 271:1 312:1 316:1 330:3 342:2 369:1 476:1 508:1 519:1 543:1 558:2 561:1 609:1 610:1 642:1 685:1 725:1 747:1 775:1 791:1 800:6 823:1 894:1 921:2 975:1 1013:1 1025:1 1035:1 1048:1 1063:3 1069:2 1138:1 1156:4 1171:2 1258:1 1260:9 1281:1 1320:1 1336:2 1373:7 1401:1 1432:1 1446:1 1449:3 1485:1 1486:3 1514:1 1537:1 1584:1 1586:1 1705:1 1744:1 1778:1 1783:1 1859:1 1903:1 1911:1 1967:9 1985:1 2025:2 2075:1 2089:1 2093:1 2178:1 2196:2 2279:3 2321:1 2361:1 2362:3 2376:1 2396:1 2409:1 2465:1 2472:1 2528:2 2558:1 2621:1 2670:1 2681:1 2721:11 2723:6 2724:6 2725:1 2726:10 2727:1 2728:7 3171:1 3281:1 3312:1 3513:1 3575:1 4067:1 4077:1 4184:1 4187:1 4228:1 4259:1 4487:1 4492:1 4528:1 4580:1 4582:1 4660:1 4665:1 4678:1 4797:1 4981:1 5011:1 5013:1 5411:1 5429:1 5645:1 5704:1 5752:1 5825:1 
0.04524728763174119 39:2 49:1 101:2 108:1 113:5 135:2 266:1 321:2 325:1 330:3 369:3 532:1 773:1 800:2 803:2 922:1 950:1 1050:2 1076:1 1176:2 1213:2 1373:3 1446:1 1483:1 1576:1 1649:2 1696:2 1825:2 1844:1 1891:1 1903:1 1979:1 2142:1 2171:1 2362:6 2385:2 2409:1 2446:2 2571:1 2721:1 2724:3 2725:2 2726:6 2728:5 2729:4 2732:3 3290:1 3992:1 4565:1 4582:1 4970:1 5089:1 5675:1 5752:1 5768:1 
0.09191645135721509 14:1 39:2 83:1 108:3 113:8 143:6 146:1 226:6 230:3 292:1 320:1 325:4 330:2 342:1 355:3 363:2 417:1 496:1 545:1 592:1 646:1 676:1 757:1 759:1 772:1 800:10 888:1 904:1 945:2 954:1 1004:1 1023:1 1026:1 1063:3 1075:2 1140:7 1156:2 1176:2 1198:1 1303:2 1343:2 1366:1 1373:8 1449:2 1579:1 1653:1 1677:1 1688:1 1696:2 1702:2 1768:1 1810:3 1825:2 1844:3 1846:1 1865:2 1869:1 1980:1 2003:2 2076:1 2109:1 2117:1 2126:2 2192:1 2246:2 2258:1 2294:1 2318:1 2356:1 2361:1 2362:8 2363:2 2416:1 2431:1 2434:2 2712:1 2721:4 2722:2 2723:1 2724:8 2725:2 2726:6 2727:2 2728:3 2731:7 2732:10 2774:1 3156:1 3207:1 3271:1 3453:1 3529:1 3575:1 3637:1 3737:1 4194:1 4334:1 4397:1 4405:1 4655:1 4813:1 4898:1 5097:1 5098:1 5311:1 6009:1 
0.06229176277994209 8:2 49:1 108:7 113:4 124:1 135:2 165:1 216:1 316:1 322:2 330:2 623:1 701:1 773:1 776:3 788:2 800:1 922:1 1027:3 1063:2 1066:1 1077:1 1101:3 1139:1 1213:1 1238:1 1373:8 1440:1 1449:1 1453:3 1483:1 1505:3 1548:1 1724:2 1758:1 1840:1 1903:2 1909:1 1983:3 2134:2 2175:1 2214:1 2220:1 2286:1 2362:2 2458:1 2476:1 2665:1 2670:1 2721:3 2723:1 2724:1 2726:6 2728:4 2729:6 2730:1 2732:2 3290:1 3317:1 4049:1 4799:1 5182:1 5271:1 5752:1 5768:1 5956:1 
