svm_type c_svc
kernel_type linear
nr_class 2
total_sv 965
rho -0.208944
label 1 -1
nr_sv 500 465
SV
0.06273990818060544 20:1 91:1 95:3 131:2 255:3 278:1 280:1 310:1 341:1 360:1 401:1 451:1 686:1 751:3 785:1 864:1 1125:1 1258:6 1335:1 1564:1 1573:2 1586:2 1730:1 1826:1 1866:1 1933:1 1970:3 2180:2 2357:1 2506:1 2508:2 2509:4 2511:6 2513:2 2515:3 2661:1 3336:1 3938:1 3987:1 
0.4066516687584392 95:1 346:2 562:2 751:2 1240:2 1258:4 1391:2 1582:1 1693:3 2189:1 2430:2 2509:2 2511:2 2513:2 2517:3 3983:1 
0.05710332439382872 91:1 94:2 95:5 113:1 131:2 157:1 297:2 301:2 305:1 341:1 379:2 451:4 475:2 616:2 680:2 714:4 751:1 805:1 933:1 1219:2 1229:1 1248:1 1258:12 1302:2 1385:2 1445:2 1454:1 1590:2 1696:2 1730:1 1733:2 1806:2 1866:1 1970:2 1998:2 2007:1 2085:2 2180:4 2262:2 2397:1 2506:1 2508:1 2509:3 2511:14 2513:6 2514:1 2515:2 3932:1 
0.1400494919850603 91:1 95:4 187:1 301:2 339:2 341:1 451:2 477:1 751:2 762:1 842:1 902:1 1125:1 1126:2 1219:2 1229:3 1248:1 1258:7 1419:2 1454:1 1573:2 1677:2 1730:1 1733:1 1866:1 1970:2 1998:1 2109:1 2180:2 2210:1 2349:1 2397:2 2507:1 2509:2 2510:1 2511:9 2513:5 2514:2 2515:3 3932:1 
0.1379818968390662 8:3 11:1 46:2 91:2 95:7 121:3 146:1 200:12 207:9 219:1 273:1 289:2 310:4 339:2 352:2 358:2 389:6 429:2 457:1 468:2 502:1 503:1 524:2 590:1 598:2 616:2 617:4 619:1 624:2 734:1 751:11 771:4 831:2 868:1 922:1 928:1 979:1 1008:1 1048:15 1049:2 1183:1 1230:4 1258:7 1334:3 1335:9 1436:7 1448:1 1552:1 1555:2 1564:6 1669:6 1684:5 1696:4 1712:2 1817:1 1820:1 1935:1 2026:1 2066:4 2086:3 2180:11 2181:6 2318:2 2321:1 2325:1 2343:4 2496:1 2506:1 2507:1 2508:2 2509:9 2510:1 2511:7 2512:1 2513:4 2515:1 2516:15 2517:12 2521:1 2560:1 2632:1 2948:1 3005:1 3358:1 3435:1 3863:1 3966:1 4257:1 4399:1 4657:1 5403:1 5464:1 5467:1 
0.03455645267517699 91:4 95:9 121:4 146:5 200:9 202:2 207:2 248:2 250:1 273:1 298:1 299:2 310:8 326:2 331:5 339:5 346:5 352:2 358:2 388:3 438:3 503:1 524:5 617:2 619:1 675:1 695:2 708:4 731:1 751:15 766:1 823:1 836:1 839:1 847:6 850:2 865:1 918:1 924:1 979:1 1048:8 1102:1 1220:1 1258:3 1330:3 1335:6 1436:9 1459:1 1482:1 1528:2 1552:1 1555:1 1556:1 1564:3 1626:1 1628:1 1654:1 1669:3 1684:2 1749:1 1871:1 1874:1 1972:2 2007:2 2086:3 2111:1 2180:9 2204:1 2277:1 2306:1 2455:1 2506:10 2508:2 2509:8 2511:17 2513:3 2514:1 2516:8 2517:16 3005:1 3098:1 3218:1 3282:1 3294:1 3358:1 3708:1 3746:1 3934:1 3949:1 3954:1 4173:1 4187:1 4424:1 4434:1 4941:1 5031:1 5157:1 5334:1 5464:1 5467:1 
0.1811065142918346 8:1 11:1 32:2 91:3 95:5 121:2 200:1 207:3 310:3 339:1 346:2 389:2 468:1 616:1 617:3 628:1 647:2 751:3 771:1 835:1 847:2 899:1 979:1 1048:8 1230:1 1258:2 1311:1 1335:3 1376:2 1452:1 1508:1 1555:1 1564:2 1669:2 1688:2 1690:2 1715:1 1820:1 2027:1 2066:1 2086:2 2100:1 2139:1 2179:1 2180:3 2216:1 2252:2 2343:1 2454:1 2506:1 2509:4 2511:6 2513:2 2516:8 2517:7 2560:1 2574:1 2948:1 3124:1 3450:1 3942:1 3966:1 4257:1 4480:1 4945:1 5464:1 
0.4704083082334464 46:1 74:1 95:2 146:1 310:1 557:1 616:1 751:1 979:1 1121:1 1240:1 1335:1 1419:1 1647:1 1751:1 1947:1 2470:1 2506:1 2509:4 2511:4 2513:1 3689:1 3711:1 4416:1 
0.02923033239220815 8:1 11:1 95:1 121:3 198:1 200:2 273:1 310:1 429:2 515:1 524:1 616:2 617:1 751:3 831:2 877:2 905:1 1048:2 1049:2 1130:1 1144:1 1230:1 1258:3 1347:1 1436:2 1508:1 1712:2 1795:1 2078:1 2139:1 2180:2 2318:2 2425:1 2454:1 2506:2 2507:1 2509:1 2511:5 2512:1 2513:2 2516:2 2517:3 3005:1 3124:1 3450:1 3551:1 3966:1 4399:1 5193:1 5464:1 
0.008594178203562397 36:1 77:2 91:1 95:6 135:1 151:2 188:1 246:1 299:1 310:10 325:3 339:1 344:1 361:2 367:1 438:1 441:3 524:1 558:2 581:1 616:2 628:1 658:4 738:4 743:1 751:9 753:6 864:5 893:1 979:1 983:1 1012:1 1013:1 1121:3 1182:1 1240:2 1258:5 1335:1 1338:1 1412:1 1518:1 1535:2 1574:1 1597:1 1644:1 1654:1 1815:2 1971:3 2017:1 2059:2 2088:1 2132:1 2173:3 2174:1 2179:1 2180:14 2181:1 2193:1 2203:7 2262:1 2321:1 2324:1 2401:1 2447:1 2455:1 2506:6 2508:3 2509:20 2510:6 2511:14 2512:1 2513:2 2517:1 2885:1 2955:1 3021:1 3321:1 3689:1 3942:1 3983:1 4005:1 4140:1 4172:1 4179:1 4255:1 4360:1 4462:1 4530:1 4552:1 4563:1 4656:1 4808:1 4899:1 4906:1 4946:1 5031:1 5268:1 
0.002295317133891139 20:2 76:2 91:4 95:6 146:2 257:1 270:1 288:1 289:1 298:1 310:6 330:1 334:1 335:1 359:2 385:1 444:2 510:2 549:1 551:1 556:1 585:1 616:1 628:1 751:10 811:1 839:1 864:1 891:1 892:1 899:1 906:1 979:2 996:1 1014:3 1092:1 1122:1 1142:1 1144:3 1188:1 1207:1 1222:1 1229:1 1258:6 1269:1 1331:1 1335:1 1374:3 1436:1 1460:1 1556:1 1763:1 1795:3 1797:6 1802:1 1809:3 1892:3 2007:1 2010:3 2046:7 2075:1 2098:2 2179:1 2180:3 2229:2 2401:1 2416:1 2419:3 2455:1 2469:1 2506:13 2508:2 2509:13 2511:22 2512:3 2513:10 2517:1 2559:1 2886:1 3005:1 3108:1 3302:1 3400:1 3649:1 3665:1 3831:1 3847:1 3942:1 3987:1 4236:1 4386:1 4435:1 4940:1 5087:1 5288:1 5295:1 5311:1 
0.2991488575449056 4:2 8:1 91:3 95:8 121:11 200:3 207:14 273:1 310:8 326:1 339:3 346:2 347:1 389:2 441:1 465:5 468:2 524:2 564:1 598:2 616:2 617:6 624:2 628:1 647:2 708:1 741:1 751:11 766:2 771:5 792:1 824:1 831:2 840:1 847:6 873:1 906:2 929:1 955:2 960:1 979:5 1048:16 1049:2 1090:1 1114:1 1230:4 1256:1 1258:5 1314:1 1508:6 1552:2 1558:1 1563:1 1564:2 1650:1 1669:2 1745:1 2024:1 2046:2 2086:2 2129:2 2139:5 2150:1 2174:1 2176:1 2179:3 2180:6 2181:2 2211:1 2343:6 2379:2 2506:5 2508:3 2509:6 2511:14 2513:2 2516:16 2517:11 2521:1 2552:1 2560:1 2574:1 3124:1 3275:1 3282:1 3435:1 3863:1 3942:1 3966:1 4257:1 4399:1 4656:1 4658:1 4745:1 4772:1 5001:1 5202:1 5231:1 5354:1 5464:1 
0.09687166681279204 8:1 11:1 25:1 91:5 95:7 109:1 121:3 196:2 200:8 207:8 246:2 273:1 289:2 310:3 323:1 339:3 346:2 389:2 441:1 451:1 468:3 524:4 564:1 616:2 617:2 624:2 628:1 647:1 730:1 751:11 771:2 795:1 831:2 847:1 864:1 959:2 1048:13 1049:2 1090:1 1134:2 1230:4 1255:3 1256:1 1258:7 1290:1 1307:1 1315:2 1334:1 1335:6 1376:2 1436:8 1441:1 1452:1 1552:1 1555:2 1559:1 1564:2 1626:1 1654:4 1669:2 1684:1 1696:3 1712:2 1822:1 1978:1 2011:1 2017:2 2139:1 2150:1 2174:1 2179:1 2180:7 2181:2 2211:1 2246:2 2297:1 2299:1 2305:1 2325:1 2343:4 2370:1 2388:1 2471:2 2506:2 2507:1 2509:9 2510:2 2511:9 2512:1 2513:5 2516:13 2517:10 2521:1 2560:1 2574:1 2712:1 2745:1 2789:1 3005:1 3435:1 3895:1 3919:1 3942:1 3966:1 4257:1 4399:1 4409:1 4480:1 4563:1 4656:1 4745:1 4829:1 5090:1 5100:1 5226:1 5464:1 
0.03580676979590468 40:1 41:3 91:2 95:5 121:2 146:1 163:1 170:1 195:1 265:1 289:4 310:3 343:1 348:1 352:1 371:1 381:2 395:1 438:1 441:1 454:1 477:1 500:1 503:1 616:1 628:1 666:1 680:1 725:1 738:1 751:4 837:1 844:1 850:1 864:1 901:1 931:1 979:1 994:1 1083:2 1094:1 1144:1 1236:2 1258:5 1270:1 1312:1 1330:1 1350:1 1556:1 1573:1 1622:1 1634:1 1662:1 1729:4 1780:1 1793:1 1795:1 1837:1 1872:1 1903:1 1908:1 1919:1 2005:2 2098:1 2287:1 2391:1 2455:1 2506:10 2508:1 2509:8 2510:3 2511:13 2513:4 2517:1 2556:1 2900:1 2927:1 3291:1 3430:1 3455:1 3528:1 3636:1 3778:1 3942:1 4152:1 4179:1 4187:1 4322:1 4350:1 4434:1 4606:1 4627:1 4698:1 4753:1 5031:1 
0.970413159742712 95:1 121:1 146:1 299:1 310:1 339:1 373:1 379:1 451:1 524:1 539:1 738:1 751:1 797:1 831:1 1048:1 1049:1 1144:1 1258:2 1391:1 1703:1 1712:1 1795:1 1855:1 1983:1 2139:1 2178:1 2179:1 2180:1 2509:2 2511:4 2513:1 2516:1 2517:1 4179:1 4399:1 5115:1 
0.105421355156179 121:2 198:1 200:2 207:2 258:2 273:1 310:1 352:1 524:1 628:1 751:3 864:1 1048:2 1156:1 1258:1 1391:2 1436:2 1452:1 1745:1 1844:1 1855:2 1992:1 2180:3 2362:2 2454:1 2510:2 2511:5 2513:2 2516:2 2517:3 3005:1 3450:1 3782:1 3942:1 4480:1 
0.2343937991582693 66:2 71:2 95:4 297:2 301:2 451:3 524:2 616:2 852:2 1219:2 1230:2 1258:6 1302:2 1355:1 1713:2 1730:1 1765:2 1866:1 1970:2 2236:1 2246:2 2509:2 2511:2 2513:5 2515:4 2517:2 3932:1 
0.6813341991507946 95:3 310:1 468:2 524:2 616:2 628:1 679:1 751:2 864:1 927:2 1222:2 1258:4 1958:2 2179:2 2430:2 2455:1 2506:2 2513:2 2517:2 3942:1 4134:1 
0.08691655413119606 2:1 95:3 294:1 296:4 301:1 310:3 438:1 441:1 544:4 706:1 779:1 781:1 797:1 864:1 975:2 979:1 1048:1 1330:2 1335:1 1391:1 1684:2 1756:1 1850:1 1862:1 2166:1 2179:1 2180:1 2185:1 2277:1 2506:1 2507:8 2508:1 2509:1 2511:9 2513:6 2516:1 2597:1 3930:1 4187:1 4437:1 4558:1 4632:1 4932:1 4941:1 5031:1 5256:1 
0.260466533974209 451:1 523:2 692:2 1229:2 1258:12 1355:1 1475:2 1573:2 1576:2 1590:2 1638:2 1712:2 1730:1 1737:1 1866:1 1873:1 1970:2 2071:1 2144:4 2186:4 2256:1 2507:8 2510:4 2511:8 2513:5 2514:2 2515:2 2517:4 2736:1 3452:1 
0.2186204187059253 4:2 8:3 11:1 40:2 46:2 91:5 95:6 121:7 167:4 200:3 207:2 310:3 339:2 346:9 389:3 465:2 468:2 524:2 564:4 598:2 616:2 624:2 647:3 751:9 766:3 771:1 831:2 847:2 955:3 979:2 1048:14 1230:3 1255:5 1256:4 1258:7 1307:3 1508:2 1554:3 1564:3 1632:3 1654:5 1669:3 1713:2 1780:2 1948:1 2025:1 2086:3 2139:3 2150:1 2179:3 2180:10 2181:3 2252:2 2379:3 2504:2 2506:2 2507:3 2508:2 2509:10 2510:3 2511:10 2513:2 2516:14 2517:7 2521:1 2552:1 2560:1 2574:1 3124:1 3275:1 3427:1 3435:1 3863:1 3966:1 4257:1 4399:1 5035:1 
0.6980273053183589 6:2 95:2 273:1 301:1 310:1 392:3 524:2 628:1 738:1 751:3 753:1 931:1 979:1 1023:1 1048:1 1258:3 1330:1 1391:2 1396:2 1445:2 1479:1 1554:1 1564:1 1669:1 1698:2 1821:1 2021:2 2065:1 2150:2 2179:2 2180:5 2203:1 2234:3 2496:1 2507:1 2509:2 2510:2 2511:2 2513:2 2516:1 2517:3 2848:1 3598:1 3942:1 4179:1 4187:1 4542:1 
0.01023908324861679 21:1 47:1 86:1 91:4 95:6 121:2 143:1 146:2 172:1 207:1 251:2 289:1 310:4 339:2 352:2 362:1 438:1 448:1 541:2 558:4 616:2 628:1 658:1 688:1 695:1 738:1 751:12 772:4 850:2 864:3 865:1 894:1 962:1 968:1 979:2 994:4 996:2 1058:2 1062:1 1073:1 1094:1 1129:2 1131:3 1144:3 1181:7 1206:1 1224:1 1229:2 1258:7 1275:1 1330:1 1335:2 1341:4 1433:1 1436:1 1473:2 1547:1 1634:1 1669:2 1739:1 1745:1 1795:3 1903:1 1919:1 2031:1 2075:1 2147:1 2162:1 2179:2 2180:12 2201:2 2249:1 2335:1 2366:1 2416:1 2455:4 2486:1 2506:24 2508:2 2509:13 2510:2 2511:23 2512:4 2513:8 2559:1 2718:1 2854:1 3005:1 3430:1 3567:1 3671:1 3680:1 3872:1 3901:1 3942:1 3943:1 4005:1 4179:1 4187:1 4281:1 4434:1 4444:1 4584:1 4600:1 4718:1 4771:1 4849:1 4990:1 5031:1 5146:1 5231:1 
0.005435498019337602 223:1 273:2 323:2 384:4 451:1 524:4 620:1 943:1 1258:12 1355:1 1385:4 1430:1 1443:2 1446:2 1573:2 1630:4 1730:1 1866:1 1873:1 1970:2 2085:4 2256:1 2513:4 2514:1 2515:3 2517:6 
0.007224225751189649 88:1 91:7 95:5 121:1 186:2 214:1 289:1 298:1 301:1 310:5 311:1 338:1 390:1 425:1 441:1 448:1 541:4 558:2 593:1 616:2 628:1 688:2 695:1 751:8 864:2 871:1 879:1 899:2 917:1 979:2 996:1 1011:1 1027:1 1036:1 1082:1 1090:5 1126:1 1129:1 1131:1 1144:3 1166:1 1229:1 1258:7 1276:1 1335:1 1437:1 1459:1 1580:9 1634:2 1705:2 1745:1 1795:3 1893:8 1905:1 2043:1 2068:1 2075:1 2076:1 2095:1 2180:9 2204:1 2216:1 2311:1 2329:1 2344:1 2366:2 2443:1 2471:2 2506:10 2507:2 2508:4 2509:4 2510:3 2511:6 2512:1 2513:2 2559:1 2586:1 2648:1 2822:1 2851:1 3020:1 3206:1 3229:1 3261:1 3286:1 3345:1 3394:1 3414:1 3430:1 3442:1 3482:1 3564:1 3592:1 3826:1 3846:1 3919:1 3942:1 4074:1 4151:1 4190:1 4271:1 4408:1 4492:1 4640:1 5080:1 5231:1 5387:1 
0.1532249571954183 91:1 93:2 95:5 135:1 146:1 162:1 207:3 216:1 298:1 301:1 310:1 339:2 352:1 373:1 379:1 451:1 457:1 500:1 524:1 558:2 616:2 626:1 751:7 753:1 766:1 797:2 854:3 960:1 979:2 1022:1 1048:4 1144:1 1258:3 1266:1 1322:1 1335:1 1444:1 1461:2 1564:1 1576:1 1745:1 1795:1 1860:2 1897:1 1908:1 1925:1 1983:1 2179:1 2180:5 2203:1 2207:2 2363:1 2404:1 2455:2 2506:8 2508:1 2509:8 2510:1 2511:5 2513:2 2516:4 2517:1 3009:1 3632:1 3636:1 4255:1 4443:1 5011:1 5231:1 
1 32:2 95:3 310:1 468:2 524:2 616:2 628:1 679:1 864:1 899:2 1258:2 1958:2 2179:2 2216:2 2429:2 2455:1 2506:2 2513:2 2517:2 3942:1 4134:1 
0.01548132895062215 32:5 65:2 73:1 75:1 91:7 95:10 106:2 121:1 133:1 146:2 150:1 177:1 207:3 288:2 301:1 310:3 370:1 428:1 430:1 441:1 449:1 451:3 459:1 492:1 539:3 616:4 639:1 738:2 751:6 899:3 979:2 1007:1 1013:1 1048:3 1094:1 1108:5 1144:3 1172:2 1209:1 1248:3 1250:1 1258:9 1335:2 1336:1 1380:1 1419:1 1451:1 1533:1 1577:1 1605:1 1620:1 1688:1 1716:1 1733:1 1748:1 1755:2 1756:1 1795:3 1806:1 1882:1 1925:1 1958:1 1971:2 1994:1 1998:1 2120:1 2150:1 2179:1 2180:7 2198:1 2204:1 2216:5 2252:2 2271:3 2349:2 2370:1 2401:1 2455:4 2506:11 2507:2 2508:7 2509:2 2510:3 2511:18 2512:1 2513:8 2514:2 2516:3 2517:1 2691:1 2781:1 3397:1 4134:1 4172:1 4179:1 4252:1 4358:1 4711:1 4906:1 4993:1 5020:1 5145:1 5243:1 5255:1 5256:1 5451:1 
0.0254866957355554 8:1 65:2 91:6 95:12 121:2 162:3 207:4 257:3 275:1 295:1 299:5 310:3 398:2 409:1 418:1 439:1 441:1 451:3 470:1 492:1 517:6 524:1 558:5 616:9 695:2 720:1 751:4 793:1 843:3 856:1 864:1 902:1 1048:6 1065:1 1092:1 1124:2 1137:1 1142:1 1144:4 1185:1 1230:1 1248:1 1258:16 1314:3 1322:3 1335:5 1412:1 1451:3 1475:1 1507:1 1580:1 1654:4 1677:1 1712:1 1713:1 1733:1 1755:1 1768:1 1795:4 1806:1 1860:1 1882:6 1945:5 1951:1 1991:3 1998:1 2109:1 2150:3 2179:2 2180:10 2252:2 2267:1 2329:1 2341:3 2349:1 2362:3 2363:3 2370:1 2437:3 2447:1 2455:2 2479:2 2506:19 2507:1 2508:3 2509:9 2510:4 2511:12 2512:1 2513:21 2514:2 2516:6 2517:2 2731:1 3052:1 3179:1 3222:1 3303:1 3615:1 3966:1 4607:1 4963:1 5011:1 5043:1 5255:1 5295:1 5311:1 5324:1 5470:1 
0.03377725138349399 4:1 91:5 95:3 121:1 132:3 140:1 146:1 219:1 223:3 280:1 282:1 289:1 306:1 310:3 320:1 352:1 390:1 429:1 459:1 513:2 616:1 628:1 644:1 645:1 686:1 712:1 751:3 788:1 804:2 811:1 839:1 864:1 871:1 873:1 879:1 899:1 917:1 926:1 946:2 979:2 1104:1 1141:3 1222:1 1258:7 1277:5 1413:1 1417:2 1436:1 1459:1 1460:2 1525:1 1573:1 1603:1 1669:1 1673:1 1736:3 1762:1 1783:1 1908:1 1951:1 2040:1 2062:1 2180:2 2277:1 2506:5 2509:5 2511:11 2513:6 2515:1 2517:1 2552:1 2570:1 2658:1 2707:1 3005:1 3262:1 3281:1 3442:1 3657:1 3942:1 4053:1 4298:1 4345:1 4384:1 4391:1 4492:1 4640:1 4941:1 4948:1 5167:1 5341:1 
0.2145565289102255 91:3 95:5 146:1 216:3 289:1 298:1 310:3 324:1 351:1 352:1 408:1 438:1 439:2 571:1 603:1 628:1 678:3 681:5 751:2 939:1 1229:1 1254:1 1258:2 1335:4 1419:1 1430:1 1436:3 1446:1 1643:4 1689:1 1860:1 2277:1 2289:1 2298:1 2401:1 2455:2 2506:11 2509:5 2511:4 2512:1 2513:3 2514:6 2515:3 2517:1 2559:1 3005:1 3942:1 4024:1 4460:1 4637:1 4941:1 5031:1 
0.009666605939189809 28:2 91:3 95:8 103:3 114:1 121:2 137:2 146:1 147:1 214:1 289:2 299:2 301:1 310:3 322:2 352:1 413:2 422:2 430:1 444:2 448:1 457:1 484:1 524:2 628:1 649:4 658:1 688:1 738:1 751:15 756:1 786:3 861:1 864:3 873:2 962:1 979:5 987:1 994:1 1001:2 1027:2 1036:1 1054:1 1099:2 1100:3 1101:4 1144:2 1163:1 1199:1 1210:5 1258:3 1276:1 1330:6 1331:1 1335:2 1361:1 1436:1 1458:1 1481:1 1496:1 1573:1 1664:3 1687:2 1795:2 1814:1 1832:4 2007:1 2023:2 2030:2 2102:1 2104:1 2179:3 2180:3 2252:2 2288:1 2435:1 2471:2 2486:1 2494:1 2506:3 2508:6 2509:6 2511:10 2513:8 2515:1 2517:2 2648:1 2741:1 2769:1 2799:1 2860:1 2879:1 2957:1 3005:1 3036:1 3039:1 3099:1 3243:1 3451:1 3786:1 3891:1 3919:1 3942:1 4005:1 4074:1 4168:1 4179:1 4187:1 4261:1 4332:1 4367:1 4586:1 4763:1 4776:1 4872:1 4987:1 5020:1 5337:1 5415:1 5432:1 5450:1 
0.06771583692134832 40:2 46:2 89:2 95:7 113:1 301:3 341:1 451:4 616:2 751:1 914:2 1144:1 1219:2 1229:2 1258:9 1298:2 1444:2 1454:1 1677:2 1730:1 1780:2 1795:1 1847:1 1866:1 1881:2 1889:1 1901:2 2109:1 2256:1 2300:2 2349:1 2397:2 2506:4 2507:3 2509:4 2510:1 2511:3 2512:2 2513:5 2514:1 2515:4 2686:1 3464:1 3932:1 
0.2274648161515112 8:4 91:3 95:10 121:3 145:1 200:8 207:12 273:1 289:1 310:2 339:2 346:2 358:2 389:4 429:2 457:1 468:2 524:4 598:2 616:2 617:2 624:2 628:1 635:1 738:1 751:11 766:3 771:5 831:2 847:2 868:1 928:1 971:3 979:1 1008:1 1048:17 1144:1 1230:4 1251:8 1255:3 1258:6 1265:1 1307:2 1334:1 1335:7 1373:1 1555:1 1564:4 1654:3 1669:4 1684:1 1696:2 1713:2 1745:1 1795:1 1992:1 2024:1 2028:1 2065:1 2086:1 2112:1 2170:1 2180:9 2181:5 2234:2 2252:2 2318:2 2343:7 2454:2 2496:1 2506:1 2507:2 2508:2 2509:7 2510:2 2511:5 2513:3 2515:1 2516:17 2517:12 2521:1 2560:1 2607:1 3358:1 3435:1 3450:1 3863:1 3942:1 3966:1 4179:1 4257:1 4399:1 4641:1 4657:1 5231:1 5464:1 
0.000350728291224651 91:9 95:8 121:2 140:1 146:1 186:2 263:1 276:4 280:1 289:1 299:1 310:2 338:1 352:2 355:3 371:1 376:2 407:1 429:2 441:2 451:1 457:1 459:1 531:3 616:2 618:1 668:1 686:1 688:1 717:1 751:4 776:1 778:1 788:2 799:1 811:2 864:1 956:2 979:3 1094:2 1144:5 1158:1 1159:1 1198:2 1229:1 1245:1 1253:3 1258:4 1275:1 1287:1 1335:1 1339:1 1359:2 1402:1 1455:2 1547:1 1590:3 1626:2 1660:1 1675:2 1684:1 1746:1 1757:1 1773:2 1795:5 1802:1 1924:1 1947:1 1951:4 1991:1 2030:1 2098:2 2179:1 2180:5 2277:1 2284:1 2312:1 2313:1 2318:5 2331:1 2389:1 2401:4 2449:1 2505:1 2506:11 2508:12 2509:8 2510:3 2511:28 2512:2 2513:5 2559:1 2614:1 2845:1 2864:1 2982:1 3031:1 3350:1 3437:1 3508:1 3515:1 3522:1 3589:1 3718:1 3742:1 3831:1 3960:1 3997:1 4182:1 4191:1 4219:1 4248:1 4298:1 4329:1 4364:1 4798:1 4834:1 4941:1 4984:1 5218:1 5472:1 
0.09810316470982929 91:2 95:5 97:2 106:1 146:2 223:1 297:2 301:2 341:1 451:4 558:2 572:1 582:1 616:2 787:2 983:1 1192:2 1203:1 1213:1 1219:2 1258:9 1298:2 1302:2 1454:1 1527:1 1557:1 1677:1 1730:1 1737:2 1866:1 1970:2 2156:1 2180:2 2256:1 2458:2 2511:3 2513:8 2514:1 2515:4 3896:1 3932:1 
0.130643585815556 8:1 91:3 95:3 121:10 200:4 273:1 290:2 310:7 339:1 346:2 358:2 389:4 441:1 468:2 524:1 558:2 564:1 598:2 616:2 617:7 624:2 628:1 643:1 647:1 729:1 734:1 741:1 751:11 766:2 771:5 831:8 873:1 891:2 971:2 1048:18 1230:3 1251:3 1255:1 1256:1 1258:12 1334:7 1452:1 1552:2 1563:1 1564:4 1654:1 1669:4 1713:6 1745:1 1817:1 2086:1 2139:6 2150:1 2174:1 2180:3 2181:4 2211:1 2234:6 2343:5 2508:2 2509:5 2511:3 2513:2 2516:18 2517:12 2521:1 2560:1 2574:1 2607:1 3358:1 3435:1 3863:1 3942:1 3966:1 4257:1 4399:1 4480:1 4656:1 4745:1 4945:1 5231:1 5464:1 
0.1950246339830795 8:2 25:2 46:2 91:2 95:11 121:6 200:4 202:1 207:19 310:2 339:4 346:6 389:1 411:2 447:1 465:9 468:2 524:4 564:2 598:2 628:1 708:2 751:10 766:3 771:4 831:2 847:10 922:1 955:2 971:3 979:9 1048:22 1090:2 1165:1 1230:2 1251:2 1256:2 1258:4 1307:9 1391:2 1452:4 1552:2 1564:2 1669:3 1713:2 1745:1 2066:1 2176:1 2179:2 2180:4 2181:3 2234:2 2252:2 2343:4 2362:1 2506:4 2507:9 2508:2 2509:6 2510:10 2511:9 2513:3 2516:22 2517:16 2560:1 2607:1 2632:1 2948:1 3275:1 3435:1 3863:1 3942:1 3966:1 4257:1 4399:1 4424:1 4480:1 4658:1 4745:1 5231:1 
0.02489160899755613 46:1 91:1 95:3 121:4 179:1 200:1 202:1 204:1 273:1 289:1 298:1 326:2 339:2 346:3 352:1 524:2 558:2 616:2 708:4 751:6 839:1 847:2 864:1 1050:1 1142:1 1251:1 1258:2 1311:1 1331:1 1459:1 1638:2 1766:1 2086:1 2174:2 2179:2 2180:2 2454:1 2455:1 2476:1 2506:11 2508:2 2509:2 2511:11 2513:2 2517:6 2607:1 2632:1 3282:1 3295:1 3450:1 3452:1 4361:1 4424:1 4429:1 4656:1 5295:1 5416:1 
0.1949711072939076 46:2 95:4 121:3 175:1 207:1 273:1 289:1 310:3 326:3 339:2 346:2 468:1 524:2 557:2 616:2 632:1 708:2 751:6 847:5 944:1 979:1 1048:3 1230:1 1258:1 1376:1 1419:2 1445:1 1577:1 1684:2 1696:1 1903:1 1909:2 1948:1 2065:1 2150:1 2174:1 2176:1 2180:5 2196:1 2506:6 2508:3 2509:5 2511:9 2513:2 2516:3 2517:5 2560:1 2925:1 3282:1 4004:1 4028:1 4656:1 4658:1 
0.0192396519450347 65:1 87:1 91:1 95:5 102:1 121:1 146:1 226:1 299:1 301:1 310:6 318:1 323:1 339:3 346:1 349:1 352:1 360:1 413:1 430:2 438:1 451:1 510:1 550:2 558:2 616:1 646:2 679:1 719:5 751:5 761:1 802:1 864:3 951:1 982:1 1035:2 1058:1 1114:1 1240:1 1248:1 1258:6 1264:1 1335:2 1338:1 1339:1 1343:1 1347:1 1457:1 1469:1 1552:1 1621:1 1634:1 1655:1 1682:1 1888:1 1903:1 1904:1 1970:1 2017:2 2029:1 2083:1 2179:1 2180:4 2185:3 2243:1 2336:1 2391:1 2455:1 2506:7 2507:1 2508:6 2509:8 2510:5 2511:19 2512:3 2513:2 2514:1 2941:1 3034:1 3336:1 3398:1 3430:1 3649:1 4147:1 4191:1 4293:1 4495:1 4525:1 4654:1 4815:1 4835:1 4982:1 5020:1 5023:1 5031:1 5032:1 5064:1 5202:1 
0.004649559113814719 8:2 11:1 21:1 64:2 91:4 95:6 121:7 136:1 194:1 200:4 207:6 219:1 244:1 273:1 289:3 298:1 310:5 326:2 339:4 346:7 389:4 440:1 465:2 468:3 470:1 503:1 523:1 524:2 564:1 592:1 598:2 617:2 619:1 624:2 628:1 641:1 643:1 695:1 751:12 766:2 795:1 826:1 831:2 847:5 905:1 936:2 955:2 971:2 979:4 1048:12 1071:1 1090:2 1183:2 1194:1 1230:3 1251:4 1256:1 1258:9 1307:1 1321:1 1335:2 1376:2 1391:2 1403:1 1452:1 1457:1 1508:2 1527:1 1559:1 1564:4 1669:4 1684:1 1696:1 1713:2 1739:1 1755:1 1855:2 1874:1 1994:1 2086:1 2139:2 2166:1 2176:1 2179:2 2180:9 2181:2 2234:2 2252:2 2296:2 2343:1 2416:1 2454:1 2471:1 2498:1 2506:2 2507:4 2508:9 2509:9 2510:5 2511:15 2512:3 2513:2 2516:12 2517:12 2521:1 2560:1 2607:1 3034:1 3124:1 3179:1 3275:1 3282:1 3435:1 3450:1 3467:1 3821:1 3863:1 3919:1 3942:1 3954:1 3966:1 4256:1 4396:1 4399:1 4480:1 4632:1 4658:1 5040:1 5100:1 5255:1 5464:1 5467:1 
0.1153060814510971 91:2 146:1 299:2 310:2 312:1 339:1 451:1 537:1 751:3 753:3 979:1 1090:1 1109:1 1112:1 1258:6 1297:2 1391:2 1423:1 1475:2 1644:2 1733:2 1743:1 1806:2 1855:2 1921:1 1974:1 1998:1 2093:1 2180:3 2368:2 2458:1 2465:2 2506:2 2507:1 2509:6 2510:4 2511:10 2513:4 2514:2 2517:2 3662:1 3836:1 4961:1 4973:1 
0.127181052679134 95:1 298:1 310:1 327:1 524:1 590:1 628:1 751:1 850:1 854:1 1258:2 1335:1 1391:1 1515:1 1564:2 1855:2 1983:1 2179:1 2207:1 2509:2 2511:2 2513:2 2517:1 3695:1 4443:1 5403:1 
0.0305357671332054 28:2 91:3 95:7 103:1 113:1 121:2 279:1 295:1 298:2 299:2 319:1 322:1 371:1 390:1 413:2 424:1 438:1 441:1 503:1 519:1 604:1 628:1 649:2 669:1 688:2 738:1 751:12 786:3 864:1 873:1 962:1 979:2 994:1 1099:2 1229:6 1258:9 1275:1 1330:4 1331:1 1335:2 1390:1 1458:2 1505:2 1553:1 1556:2 1609:1 1641:1 1664:3 1687:1 1745:1 1750:1 1933:2 2007:1 2023:4 2042:1 2076:1 2179:4 2180:1 2181:1 2287:1 2288:2 2436:1 2455:1 2486:2 2506:9 2508:1 2509:2 2511:11 2512:1 2513:4 2515:7 2559:1 2648:1 2661:1 2860:1 2879:1 2905:1 3036:1 3100:1 3119:1 3222:1 3267:1 3292:1 3442:1 3523:1 3786:1 3942:1 4073:1 4179:1 4187:1 4367:1 4408:1 5031:1 5200:1 5337:1 5432:1 
0.1020500716550043 95:2 301:1 310:1 337:1 352:1 392:2 438:1 523:1 628:1 649:2 731:1 751:2 753:1 864:2 931:1 979:1 1023:1 1048:1 1144:1 1246:3 1258:4 1441:1 1474:1 1475:2 1479:1 1554:1 1564:1 1578:2 1632:1 1646:1 1669:1 1698:2 1728:1 1795:1 2007:2 2021:2 2150:2 2179:2 2180:5 2203:1 2455:1 2496:1 2506:2 2507:1 2509:3 2510:2 2513:2 2516:2 2517:3 2848:1 3427:1 3598:1 3942:1 4539:1 4542:1 5031:1 
0.07597144634507161 8:1 11:1 25:2 32:2 91:5 95:14 121:7 146:2 200:4 207:1 219:1 326:3 339:2 346:3 358:2 389:3 465:9 468:2 523:4 564:2 598:2 616:2 624:2 647:2 708:1 751:7 771:9 831:2 840:2 847:13 899:2 923:2 979:11 1048:22 1090:1 1144:2 1183:5 1230:5 1246:2 1255:2 1256:2 1258:6 1289:2 1307:9 1311:2 1315:2 1436:1 1452:2 1552:1 1564:3 1654:2 1669:3 1712:1 1795:2 1929:1 1934:1 1935:1 1936:1 1948:1 2065:3 2066:2 2150:1 2176:1 2179:2 2180:1 2181:2 2216:2 2252:2 2343:6 2370:1 2447:1 2506:8 2507:14 2508:5 2509:9 2510:14 2511:10 2512:5 2513:2 2516:20 2517:17 2521:1 2560:1 2574:1 2745:1 2948:1 3282:1 3358:1 3435:1 3863:1 3966:1 4120:1 4257:1 4399:1 4480:1 4658:1 4745:1 4945:1 
0.4463737339938199 32:2 95:2 310:1 468:2 523:3 616:2 628:1 679:1 864:1 899:2 1258:4 1475:1 1576:2 1958:2 2051:2 2179:2 2216:2 2364:2 2455:1 2506:2 2513:2 2517:4 3942:1 4134:1 
0.240761250530866 87:2 95:2 151:1 301:1 310:1 451:1 468:2 523:3 616:2 628:1 679:1 688:1 864:1 1258:5 1297:2 1298:1 1475:1 1628:1 1660:2 1958:2 2179:2 2186:2 2300:1 2431:2 2455:1 2506:2 2507:4 2508:2 2510:2 2511:4 2513:2 2517:4 3515:1 3942:1 4134:1 
0.06931190798646529 8:2 11:1 87:2 91:4 95:6 121:8 171:2 179:1 195:1 200:6 207:2 216:1 219:1 245:1 289:1 298:2 301:2 310:2 322:1 339:2 360:1 371:1 441:1 468:2 477:1 523:1 524:2 590:1 616:2 617:1 708:2 751:15 771:1 831:2 847:4 850:2 864:1 941:1 944:6 947:4 979:1 1026:1 1048:2 1090:1 1156:3 1194:1 1216:1 1246:4 1258:8 1261:3 1312:2 1330:1 1334:1 1335:1 1436:1 1442:1 1452:3 1475:1 1556:1 1582:2 1598:1 1604:1 1660:2 1684:3 1725:1 1749:1 1775:1 1803:2 1870:1 1903:1 1953:1 1965:1 2065:1 2066:5 2107:1 2171:1 2180:17 2225:2 2254:2 2324:1 2343:2 2377:2 2416:3 2454:3 2497:1 2506:6 2507:2 2508:4 2509:6 2510:4 2511:14 2512:2 2513:2 2516:2 2517:12 2548:1 2948:1 3005:1 3009:1 3048:1 3088:1 3211:1 3239:1 3308:1 3336:1 3369:1 3450:1 3515:1 3708:1 3782:1 3966:1 4187:1 4257:1 4335:1 4361:1 4399:1 4480:1 4538:1 4650:1 5403:1 5464:1 
0.2196536751839891 5:1 58:2 95:4 135:1 178:1 197:1 207:2 298:2 310:1 327:1 441:1 628:2 647:1 751:4 753:1 771:1 850:2 851:1 854:1 965:1 1048:2 1149:1 1258:3 1335:2 1389:2 1444:1 1564:2 1579:1 1695:1 1983:1 2007:2 2179:2 2180:1 2207:2 2504:1 2508:1 2509:3 2510:3 2511:3 2512:2 2513:2 2516:2 2517:2 2574:1 3695:1 3942:1 3961:1 4255:1 4257:1 4443:1 
0.2649569653265325 4:2 25:1 95:3 121:3 200:3 207:1 289:1 310:2 339:1 429:2 523:1 616:2 708:2 751:5 808:1 892:1 899:2 947:2 1048:2 1258:3 1277:2 1335:1 1441:1 1475:1 1684:2 1909:1 1972:1 2086:2 2091:1 2174:1 2176:1 2180:3 2306:1 2329:1 2336:1 2506:4 2509:1 2511:8 2513:2 2516:2 2517:4 2552:1 2934:1 3239:1 4028:1 4173:1 4656:1 
0.01768751167399272 1:1 91:9 95:1 118:1 121:2 184:1 289:2 298:3 299:1 310:1 311:3 319:1 334:2 352:1 371:1 390:2 451:1 503:1 523:1 555:2 628:1 638:1 751:2 787:2 864:4 907:9 979:3 986:2 996:2 1016:5 1035:1 1040:2 1049:2 1071:1 1089:1 1090:3 1094:1 1114:2 1121:1 1144:6 1229:5 1258:14 1309:1 1330:3 1331:1 1335:2 1350:1 1391:2 1393:1 1475:1 1504:3 1559:1 1628:2 1654:1 1766:1 1795:5 2075:1 2098:2 2179:3 2180:3 2277:1 2391:1 2455:1 2483:1 2494:1 2503:1 2506:19 2507:1 2508:1 2509:8 2510:1 2511:16 2512:2 2513:8 2515:2 2517:2 2559:1 2657:1 2808:1 2882:1 2893:1 2912:1 2919:1 2968:1 3122:1 3136:1 3187:1 3267:1 3368:1 3442:1 3486:1 3489:1 3586:1 3644:1 3675:1 3689:1 3920:1 3942:1 4055:1 4187:1 4258:1 4280:1 4284:1 4575:1 4875:1 4911:1 4941:1 5100:1 5202:1 5317:1 5412:1 5450:1 
0.04900482209177023 2:1 9:3 91:2 95:2 121:1 310:1 339:1 349:2 352:1 696:1 738:1 751:2 761:1 864:1 907:3 1162:1 1222:1 1248:1 1258:1 1309:1 1330:1 1335:4 1389:1 1391:1 1412:1 1756:1 1829:1 2180:1 2508:1 2509:1 2511:5 2513:3 2514:1 2515:3 3930:1 4179:1 4187:1 4785:1 4882:1 5256:1 5383:1 
1 95:1 310:1 339:2 438:1 441:2 500:1 628:2 679:1 681:2 751:2 864:1 882:1 948:1 1080:1 1258:1 1534:1 1638:1 1643:2 2179:1 2401:1 2455:1 2506:2 2507:1 2509:2 2510:1 2511:2 2512:1 2513:2 2517:1 2722:1 3452:1 3636:1 3942:1 4687:1 4703:1 5031:1 5081:1 
0.1007141445213384 95:3 301:2 339:2 341:1 451:4 751:3 1126:2 1219:2 1229:5 1258:7 1300:2 1442:2 1454:1 1700:2 1730:1 1866:1 1881:2 1918:1 2180:1 2236:1 2300:2 2397:5 2509:2 2511:7 2513:4 2514:1 2515:4 2517:1 3932:1 
0.2393364382122028 95:2 248:2 379:2 738:2 979:2 1319:1 1431:2 1467:2 1528:2 2007:2 2303:1 2509:2 2513:2 2997:1 4179:1 4492:1 5054:1 
0.5152476175697958 95:2 248:2 628:2 738:2 979:2 1111:2 1319:1 1528:2 2007:2 2303:1 2513:2 3942:1 4179:1 
0.1282603416307679 8:2 11:1 46:1 91:4 95:6 121:4 194:1 200:5 207:10 244:1 246:2 258:1 289:2 310:3 339:6 346:7 352:1 380:1 389:2 430:1 441:1 465:2 468:3 523:5 524:1 550:1 564:2 598:2 617:2 624:2 708:2 750:1 751:11 771:1 831:2 847:3 864:2 908:1 955:1 979:2 1042:1 1048:12 1049:2 1090:1 1114:1 1229:1 1230:1 1256:2 1258:9 1307:2 1330:1 1331:1 1335:2 1391:2 1411:1 1436:4 1452:3 1508:1 1552:2 1564:2 1641:1 1669:2 1712:2 1844:1 1855:2 1870:1 1908:1 2017:2 2086:2 2139:1 2150:2 2174:1 2180:6 2181:2 2211:2 2252:2 2329:1 2336:1 2343:2 2362:1 2454:1 2455:1 2501:1 2506:9 2507:2 2508:2 2509:9 2510:3 2511:23 2513:2 2516:12 2517:11 2521:1 2548:1 2559:1 2560:1 2632:1 3005:1 3124:1 3275:1 3374:1 3435:1 3450:1 3477:1 3863:1 3966:1 4147:1 4187:1 4257:1 4396:1 4399:1 4480:1 4563:1 4656:1 4734:1 4745:1 4828:1 4994:1 5020:1 5202:1 5464:1 
0.001885513784771073 15:2 56:1 88:1 91:9 95:6 97:1 121:1 129:1 146:3 153:2 207:1 223:1 251:1 257:4 266:1 289:2 298:1 299:2 310:6 319:1 344:2 357:1 362:2 390:1 406:1 439:1 444:2 529:5 549:1 558:4 573:1 615:2 616:2 628:1 658:1 664:1 679:1 693:2 707:1 720:1 751:6 762:1 787:1 804:1 864:3 923:1 944:1 987:1 1027:1 1048:1 1094:1 1126:1 1129:1 1144:1 1162:1 1174:1 1199:1 1213:1 1258:7 1335:3 1391:2 1516:1 1551:1 1556:1 1654:1 1705:1 1745:1 1783:1 1791:2 1795:1 1860:1 2018:2 2097:2 2103:1 2162:1 2180:6 2202:1 2204:1 2277:3 2401:1 2419:2 2455:3 2506:22 2508:1 2509:16 2510:1 2511:21 2512:2 2513:9 2515:1 2516:1 2545:1 2655:1 2882:1 2931:1 3137:1 3144:1 3154:1 3174:1 3231:1 3250:1 3267:1 3321:1 3360:1 3442:1 3525:1 3800:1 3891:1 3942:1 4005:1 4151:1 4584:1 4648:1 4719:1 4941:1 5150:1 5231:1 5341:1 5383:1 5400:1 
0.1336582762668515 11:1 46:1 91:2 95:11 121:5 145:1 146:1 200:6 207:9 228:2 289:2 298:1 326:1 331:1 339:1 346:2 389:2 429:2 457:1 468:2 501:1 616:1 628:1 751:11 771:5 797:2 831:4 847:5 850:1 868:2 940:1 947:2 979:1 1008:1 1048:12 1144:1 1183:2 1230:4 1251:2 1258:14 1265:1 1307:2 1335:6 1373:1 1555:3 1562:4 1564:4 1654:1 1669:4 1684:2 1693:5 1712:4 1795:1 1822:1 1934:1 1937:1 2044:1 2066:4 2086:2 2170:1 2179:2 2180:5 2181:4 2252:2 2261:2 2278:1 2306:1 2318:2 2343:3 2506:4 2507:4 2508:1 2509:9 2510:4 2511:7 2512:4 2513:5 2515:1 2516:12 2517:14 2560:1 2607:1 2632:1 2948:1 3047:1 3239:1 3282:1 3294:1 3386:1 3435:1 3942:1 4257:1 4399:1 4641:1 
0.03469084730052251 4:5 18:1 91:4 95:2 121:1 146:3 200:6 202:1 289:1 298:1 299:1 310:5 346:6 352:2 376:2 382:1 411:5 430:1 438:1 510:3 523:4 524:1 541:1 617:1 628:1 648:2 708:3 751:6 822:2 908:1 915:1 921:1 1026:1 1048:9 1114:1 1197:1 1220:1 1230:1 1258:4 1335:1 1391:2 1436:1 1475:1 1564:5 1576:1 1609:1 1654:2 1669:5 1871:1 1874:1 1929:1 1931:1 1936:2 2028:1 2165:1 2179:2 2180:4 2181:1 2329:2 2404:1 2447:1 2455:2 2504:1 2506:10 2507:2 2508:3 2509:5 2510:2 2511:18 2513:2 2514:3 2515:1 2516:9 2517:9 2552:1 2560:1 2579:1 3005:1 3322:1 3340:1 3649:1 3934:1 3942:1 3949:1 3954:1 4424:1 4828:1 5020:1 5031:1 5202:1 5464:1 
0.04186240349940762 58:2 91:4 95:10 127:1 146:3 289:2 299:2 307:3 310:3 316:1 339:6 352:1 371:1 373:1 430:2 435:1 438:1 441:1 628:2 738:4 751:13 753:3 868:1 874:4 884:1 888:1 913:1 915:1 979:4 982:2 989:1 990:3 1085:1 1159:1 1208:2 1229:1 1248:3 1258:9 1335:10 1377:1 1389:2 1423:1 1552:1 1647:1 1655:1 1688:1 1709:1 1726:1 1733:2 1743:2 1745:1 1801:3 1806:2 1812:1 1884:2 1900:1 1925:2 1961:1 1971:2 1998:2 2007:2 2180:9 2203:3 2262:2 2272:2 2349:2 2420:2 2455:4 2458:1 2494:1 2506:12 2507:3 2508:7 2509:12 2510:11 2511:26 2512:3 2513:7 2514:9 2517:5 2559:1 3322:1 3449:1 3783:1 3942:1 4172:1 4179:1 4292:1 4541:1 4732:1 4769:1 4815:1 4954:1 5020:1 5031:1 5137:1 5450:1 
0.01610129852103755 91:2 95:6 121:2 188:1 199:1 213:3 289:4 298:3 299:1 310:4 352:1 429:2 438:1 457:1 468:1 484:6 487:2 511:5 531:3 533:2 546:1 614:1 616:1 628:1 673:1 688:1 701:1 751:4 784:3 785:1 872:1 878:1 899:2 917:1 935:1 979:1 1036:1 1059:1 1122:1 1129:1 1141:1 1144:2 1147:1 1188:1 1214:1 1222:1 1258:8 1287:1 1293:1 1312:1 1459:1 1573:2 1674:1 1708:1 1740:1 1746:1 1783:1 1795:2 1908:1 1991:1 1995:1 2020:3 2104:1 2179:1 2180:3 2196:1 2309:1 2318:5 2329:2 2382:1 2400:1 2438:1 2455:1 2506:9 2508:1 2509:9 2511:12 2513:16 2514:3 2648:1 2802:1 2955:1 3039:1 3227:1 3326:1 3480:1 3496:1 3543:1 3672:1 3692:1 3942:1 4056:1 4109:1 4146:1 4417:1 4502:1 4640:1 5031:1 5041:1 5126:1 5177:1 5217:1 5302:1 5341:1 
0.004169067044291 91:2 95:3 137:1 211:3 223:2 237:1 282:1 299:2 301:1 311:1 352:1 390:1 429:1 531:1 616:1 627:1 628:1 669:1 751:5 819:1 839:1 864:1 899:1 946:1 962:1 1131:1 1144:2 1258:2 1277:3 1279:1 1335:1 1482:1 1598:1 1609:1 1654:1 1736:2 1795:2 1857:1 1903:1 2065:1 2161:1 2180:2 2395:1 2424:3 2455:1 2486:1 2506:3 2507:1 2509:1 2511:4 2513:5 2515:2 2517:1 2992:1 3442:1 3942:1 4261:1 4848:1 4955:1 5209:1 5233:1 5432:1 
0.4211396948172939 4:3 91:1 95:2 121:2 200:3 207:1 310:2 339:1 346:2 358:1 429:2 616:1 628:1 708:2 750:1 751:3 803:1 851:1 864:1 899:2 947:2 1048:4 1277:2 1331:1 1669:1 1694:1 1909:1 1929:1 1930:1 2086:1 2176:2 2180:4 2506:4 2509:1 2511:7 2513:2 2516:4 2517:4 2552:1 3239:1 3358:1 3942:1 4028:1 4658:1 
0.01562126867178821 78:2 91:1 95:14 116:2 121:1 162:1 195:1 207:2 289:1 298:2 310:2 337:1 339:3 348:2 371:2 379:1 403:3 405:7 426:1 441:5 451:1 457:1 469:1 593:1 616:4 628:2 653:1 722:1 738:1 751:8 797:1 847:1 864:2 870:4 879:1 944:1 949:4 979:2 992:1 1008:1 1048:3 1049:1 1090:1 1144:2 1172:1 1229:1 1236:1 1250:1 1258:22 1314:1 1331:2 1333:1 1335:4 1342:2 1388:1 1391:3 1419:1 1441:1 1548:2 1574:1 1595:2 1612:1 1632:1 1638:1 1654:1 1677:1 1684:2 1688:1 1713:2 1728:1 1742:1 1795:2 1833:2 1925:2 2038:4 2065:1 2086:1 2179:3 2180:6 2215:1 2252:2 2277:1 2330:1 2355:1 2359:4 2362:3 2385:1 2400:1 2440:5 2455:8 2466:1 2489:7 2506:21 2509:10 2510:3 2511:19 2512:1 2513:24 2515:1 2516:3 2517:2 2559:1 2999:1 3427:1 3452:1 3631:1 3942:1 4017:1 4159:1 4179:1 4295:1 4354:1 4842:1 4941:1 5088:1 5091:1 5136:1 5307:1 
0.3418855135794939 379:2 429:2 628:2 738:2 979:2 1258:4 1391:2 1950:1 2109:2 2296:2 2393:2 2460:2 2509:2 2511:4 2513:2 2517:2 3052:1 3467:1 3942:1 4179:1 
0.02599136838939714 91:2 95:3 125:2 146:1 310:1 339:2 429:3 616:1 628:1 743:1 747:2 751:2 753:1 804:1 864:1 867:1 888:1 998:1 1199:2 1203:1 1223:1 1248:1 1258:3 1330:1 1335:1 1526:1 1556:2 1611:1 1733:1 1806:1 1971:1 1998:1 2156:1 2180:2 2203:3 2506:5 2509:6 2510:1 2511:12 2512:1 2513:3 2514:3 2515:1 2770:1 3385:1 3662:1 3891:1 3942:1 4172:1 4187:1 4541:1 4868:1 5268:1 
0.01029332925499751 47:1 91:3 95:5 121:2 146:2 207:2 243:1 288:1 289:2 298:2 310:3 311:1 352:1 426:1 439:2 442:6 444:1 481:1 568:1 616:1 628:1 658:1 722:1 738:2 744:1 751:7 771:1 864:2 865:1 870:1 871:1 979:4 1021:1 1041:1 1048:2 1144:1 1172:1 1258:7 1316:1 1330:1 1331:1 1335:4 1389:1 1391:2 1393:1 1419:1 1436:1 1457:1 1582:1 1595:1 1596:1 1622:1 1654:1 1688:1 1699:1 1705:2 1723:1 1728:2 1731:2 1755:1 1769:1 1795:1 1833:5 1926:1 2131:2 2161:1 2176:1 2179:1 2180:5 2252:2 2324:2 2375:2 2379:1 2385:1 2404:1 2416:1 2442:1 2455:2 2480:1 2506:10 2507:1 2508:2 2509:6 2510:1 2511:8 2512:1 2513:6 2514:2 2516:2 2517:2 2708:1 2902:1 2912:1 3005:1 3034:1 3103:1 3151:1 3608:1 3631:1 3646:1 3867:1 3942:1 4005:1 4067:1 4159:1 4174:1 4179:1 4187:1 4257:1 4658:1 4991:1 5255:1 5336:1 
0.0146750409633692 65:2 95:6 124:3 616:3 720:1 751:6 837:1 985:1 1067:3 1094:3 1255:3 1258:5 1389:3 1391:2 1452:1 1688:2 1755:1 2063:3 2129:2 2179:2 2180:5 2252:2 2437:2 2447:2 2510:1 2511:4 2513:6 2517:2 4480:1 4822:1 5255:1 5324:1 
0.003986893508612014 67:1 91:3 95:5 121:2 146:2 219:1 289:2 319:2 330:1 373:1 552:3 616:1 639:1 738:1 751:2 892:1 931:2 944:1 979:1 1142:1 1208:2 1214:1 1229:1 1230:2 1248:2 1255:1 1258:1 1330:3 1335:1 1339:1 1419:2 1430:3 1516:1 1658:1 1716:1 1718:1 1925:1 1940:3 1971:1 1995:1 2109:1 2179:1 2180:7 2246:3 2272:1 2349:2 2416:1 2458:1 2506:3 2507:3 2508:3 2509:8 2510:4 2511:15 2512:2 2513:3 2514:1 2515:3 2559:1 2682:1 2947:1 3052:1 3154:1 3185:1 3514:1 4172:1 4179:1 4187:1 4191:1 4960:1 5145:1 5295:1 
0.05997180343185557 72:1 91:6 95:4 132:3 151:1 223:2 263:1 289:1 298:1 310:6 315:1 344:1 355:1 390:1 429:1 430:1 438:1 500:1 613:1 616:1 625:1 628:1 644:1 686:2 751:3 759:1 788:1 801:1 819:1 864:1 899:1 937:1 946:1 953:1 979:1 998:1 1113:2 1141:1 1144:2 1229:1 1258:7 1275:1 1277:6 1279:1 1330:1 1380:3 1547:1 1573:1 1654:1 1673:1 1683:1 1697:1 1774:1 1781:1 1795:2 1925:4 1953:1 2098:1 2104:1 2180:3 2192:2 2218:1 2242:1 2388:1 2401:1 2455:1 2473:1 2494:1 2506:13 2508:1 2509:9 2510:1 2511:18 2513:6 2559:1 2570:1 2788:1 3039:1 3274:1 3321:1 3442:1 3444:1 3572:1 3942:1 4187:1 4299:1 4430:1 4834:1 4868:1 4955:1 5020:1 5031:1 5098:1 5226:1 5327:1 5329:1 5347:1 5450:1 
0.01826247328822993 32:2 91:4 95:3 106:2 121:2 133:1 146:4 270:1 280:2 289:2 299:2 310:2 318:1 438:1 441:1 448:1 503:1 513:1 546:1 565:1 606:3 628:1 688:1 694:1 738:1 751:8 819:1 899:1 979:2 998:1 999:1 1027:1 1147:1 1223:2 1229:1 1258:9 1263:1 1310:1 1335:1 1428:1 1457:1 1496:1 1556:1 1609:2 1618:1 1668:1 1746:1 1751:1 1772:1 1783:1 1869:1 1925:1 1951:2 1991:1 2177:1 2180:5 2216:3 2395:1 2401:1 2419:2 2434:2 2455:1 2463:1 2466:1 2506:11 2508:4 2509:13 2511:23 2512:1 2513:5 2559:1 2604:1 2781:1 2802:1 3034:1 3355:1 3657:1 3711:1 3942:1 4179:1 4400:1 4586:1 4600:1 4868:1 4895:1 5031:1 5080:1 5233:1 5238:1 5302:1 5341:1 
1 95:1 346:2 558:2 1240:2 1258:4 1576:1 1694:3 2051:2 2364:1 2466:2 2509:2 2513:2 2517:3 3983:1 
0.5509702939572274 8:1 11:1 46:1 91:1 95:4 121:1 200:4 207:4 310:1 346:1 389:1 468:2 616:2 617:1 647:3 751:4 771:1 819:1 850:1 944:1 979:1 1005:1 1048:5 1251:4 1258:2 1327:1 1335:2 1564:1 1669:1 1688:3 1833:2 2086:3 2180:8 2199:1 2416:1 2500:1 2509:1 2511:7 2513:2 2516:5 2517:4 2574:1 2607:1 3966:1 4257:1 4714:1 4945:1 5464:1 
0.04977100775204672 4:2 25:1 91:4 95:2 121:4 146:1 200:6 310:2 326:1 339:2 346:4 352:2 468:1 478:1 494:1 590:1 628:1 643:2 697:2 738:1 751:5 766:1 831:2 847:1 891:2 907:2 936:1 947:2 1048:4 1078:2 1090:1 1251:2 1258:4 1335:2 1391:1 1564:1 1669:1 1691:1 1694:2 1698:1 1745:1 1947:2 2066:2 2176:1 2180:2 2252:2 2329:2 2379:1 2447:2 2508:3 2509:3 2511:6 2513:2 2516:4 2517:7 2552:1 2607:1 2948:1 3239:1 3282:1 3598:1 3942:1 4089:1 4179:1 4399:1 4658:1 5101:1 5139:1 5403:1 
0.09919873142186095 8:2 11:1 91:2 92:1 95:7 121:6 124:1 146:3 196:1 200:8 207:5 310:2 339:2 346:4 348:1 392:2 457:1 465:1 468:2 590:1 592:1 616:2 708:1 751:7 753:1 766:1 771:1 797:1 831:2 847:4 854:1 947:2 971:2 979:2 1048:9 1049:2 1090:5 1230:1 1251:5 1258:5 1289:1 1307:2 1452:1 1474:1 1479:1 1532:2 1564:3 1609:1 1654:2 1669:3 1684:2 1694:3 1712:2 1713:1 1745:1 1817:2 1884:1 1961:1 2066:1 2086:1 2176:1 2180:6 2252:2 2343:1 2407:1 2454:3 2504:1 2506:2 2507:2 2509:6 2510:3 2511:11 2513:4 2516:8 2517:11 2560:1 2607:1 2948:1 3239:1 3450:1 3966:1 4120:1 4257:1 4399:1 4409:1 4480:1 4539:1 4542:1 4658:1 5332:1 5403:1 
0.0364754180301487 91:1 95:4 129:2 289:1 298:1 303:1 306:1 310:1 352:1 439:3 680:2 751:1 764:2 1048:2 1144:1 1178:1 1236:1 1258:5 1444:1 1445:1 1490:1 1573:1 1694:1 1780:2 1791:1 1795:1 2007:2 2063:2 2078:2 2171:1 2180:2 2252:2 2370:2 2506:8 2509:5 2511:5 2513:4 2516:2 2517:2 3245:1 4026:1 4108:1 4564:1 4650:1 4972:1 
0.01118739865917207 58:1 86:1 91:10 95:6 121:3 133:7 254:1 289:2 310:2 390:1 412:1 429:1 469:1 475:1 477:1 541:1 616:1 707:1 740:1 751:2 777:2 798:1 799:1 809:2 864:1 871:1 881:2 899:1 946:2 979:1 1083:1 1135:1 1229:1 1258:7 1277:8 1309:2 1330:1 1331:1 1335:1 1344:1 1413:1 1470:1 1483:1 1552:1 1599:2 1622:2 1654:1 1686:4 1705:1 1793:1 1828:1 1838:1 1872:1 1894:2 1925:1 2176:2 2180:2 2198:1 2207:1 2216:1 2221:1 2268:1 2401:1 2427:1 2432:1 2467:1 2506:24 2507:2 2508:3 2509:12 2510:2 2511:19 2512:9 2513:6 2549:1 2559:1 2718:1 3051:1 3330:1 3421:1 3442:1 3494:1 3757:1 3839:1 3840:1 3960:1 4187:1 4329:1 4384:1 4658:1 4711:1 4733:1 4745:1 4778:1 4997:1 5091:1 5269:1 5289:1 5434:1 
0.005636445423208616 91:6 95:5 121:1 199:1 237:2 257:1 289:1 301:2 310:1 311:1 320:1 329:1 342:4 343:1 355:1 362:1 429:1 451:1 475:1 549:1 579:1 616:1 628:1 751:7 795:1 798:2 809:1 864:1 899:2 937:1 946:2 962:4 979:1 981:1 1027:1 1072:2 1094:2 1097:1 1113:2 1144:3 1147:1 1229:3 1258:11 1259:1 1276:1 1277:6 1328:1 1331:2 1335:3 1380:1 1430:1 1436:1 1482:1 1483:1 1534:1 1556:1 1559:1 1598:2 1622:1 1686:1 1745:1 1795:3 1828:1 1906:1 1925:2 1951:3 2065:1 2095:1 2180:5 2277:1 2455:1 2504:1 2506:11 2509:4 2510:3 2511:15 2512:1 2513:4 2515:2 2517:1 2559:1 3005:1 3421:1 3740:1 3942:1 4074:1 4268:1 4323:1 4376:1 4417:1 4558:1 4759:1 4810:1 4834:1 4848:1 4941:1 4944:1 5100:1 5149:1 5302:1 5434:1 
0.1431622988907558 58:1 91:5 95:3 121:1 169:2 257:1 266:1 298:1 301:1 310:3 315:1 329:1 343:1 352:1 429:1 438:1 441:1 471:1 549:1 616:1 628:2 668:1 742:1 751:3 795:1 819:1 846:1 864:1 899:2 937:1 946:1 962:1 1094:2 1131:1 1144:1 1189:2 1229:2 1258:5 1277:3 1328:1 1331:2 1335:1 1413:1 1483:1 1598:1 1686:1 1745:1 1773:1 1795:1 1906:1 1951:2 2062:1 2065:1 2180:3 2329:1 2361:1 2455:1 2469:2 2504:1 2506:5 2509:2 2510:4 2511:5 2512:1 2513:4 2515:2 2517:1 2559:1 2614:1 3144:1 3740:1 3869:1 3942:1 4158:1 4185:1 4331:1 4384:1 4848:1 4889:1 5031:1 5159:1 5424:1 
0.01356569141411318 91:6 95:7 97:1 121:2 141:4 146:2 245:1 280:1 310:5 438:1 441:1 558:3 573:4 594:5 616:2 628:1 740:1 751:11 800:1 841:1 864:1 954:1 979:1 1036:1 1054:1 1062:1 1073:1 1091:1 1095:1 1114:1 1136:1 1142:1 1144:3 1157:2 1159:1 1192:1 1229:1 1258:5 1269:1 1330:2 1335:3 1353:1 1383:1 1412:1 1413:1 1414:3 1482:2 1556:1 1617:1 1632:1 1683:1 1699:2 1701:1 1725:1 1769:1 1770:1 1795:3 1825:2 1854:1 1899:1 1953:1 2104:1 2133:2 2162:1 2167:1 2180:7 2181:1 2198:1 2311:2 2421:1 2480:1 2506:6 2507:3 2508:2 2509:10 2510:3 2511:13 2513:9 2517:1 2559:1 2575:1 2703:1 2715:1 2907:1 3004:1 3039:1 3088:1 3221:1 3413:1 3427:1 3524:1 3572:1 3607:1 3619:1 3640:1 3738:1 3748:1 3752:1 3783:1 3795:1 3800:1 3860:1 3927:1 3942:1 3970:1 4187:1 4363:1 4384:1 4666:1 4675:1 4711:1 4722:1 4916:1 5031:1 5202:1 5295:1 5418:1 5458:1 
1 95:3 558:2 616:2 1240:1 1947:2 1970:2 2201:1 2210:2 2509:1 2513:2 
0.09277136185591495 1:4 8:1 11:1 95:3 121:4 228:1 310:2 571:1 590:3 617:1 667:1 681:2 751:4 831:4 864:1 944:3 1048:2 1156:2 1258:4 1261:4 1304:3 1574:1 1579:3 1643:2 1684:3 1688:2 1690:1 1742:4 2137:1 2231:2 2252:2 2298:2 2512:1 2513:1 2516:2 2517:4 2721:1 3047:1 3147:1 3782:1 3966:1 4399:1 5403:1 5464:1 
0.08002007282563639 11:1 22:1 58:1 91:3 95:6 121:2 146:1 286:2 299:1 301:1 310:4 331:1 348:1 356:1 371:1 373:2 616:2 628:2 738:1 751:2 864:2 913:1 931:1 979:1 1214:1 1229:4 1230:7 1248:4 1255:3 1258:12 1290:1 1335:2 1348:1 1421:1 1430:1 1519:1 1622:1 1745:1 1780:1 1801:1 1806:2 1884:1 2109:2 2180:5 2204:1 2228:1 2246:10 2327:1 2349:3 2397:1 2471:1 2506:3 2507:4 2508:2 2509:11 2510:5 2511:31 2512:2 2513:11 2514:4 2515:7 2559:1 3052:1 3254:1 3772:1 3836:1 3919:1 3942:1 3972:1 3992:1 4179:1 4203:1 4649:1 5140:1 
0.005786608427798938 5:1 28:1 32:2 91:9 95:10 121:3 151:2 169:1 257:2 288:1 289:2 301:1 310:3 318:1 352:2 408:1 454:1 459:1 477:1 503:3 508:1 525:1 534:4 587:1 616:2 625:1 628:1 661:1 673:1 712:1 751:5 753:1 757:1 804:1 819:1 821:1 839:1 846:1 851:1 899:2 981:1 1052:2 1094:1 1113:1 1144:1 1153:1 1229:4 1257:1 1258:2 1259:1 1275:1 1279:1 1330:1 1335:3 1583:3 1585:7 1641:1 1650:1 1653:1 1654:1 1745:1 1794:2 1795:1 1802:2 1827:1 2033:2 2180:2 2198:1 2216:5 2220:1 2247:1 2250:2 2295:2 2311:2 2357:1 2404:1 2463:1 2506:6 2507:1 2508:1 2509:6 2510:2 2511:7 2512:2 2513:9 2517:2 2559:1 2617:1 2618:1 2707:1 3118:1 3216:1 3574:1 3823:1 3831:1 3833:1 3942:1 3961:1 4187:1 4383:1 4507:1 4637:1 4644:1 4711:1 4748:1 4759:1 4810:1 4820:1 4901:1 4955:1 5001:1 5231:1 5431:1 
0.003859205655795324 33:2 91:3 95:5 121:4 127:1 131:1 195:1 257:1 289:1 299:2 310:2 312:2 330:1 331:1 427:1 429:2 461:3 616:1 628:1 751:3 899:2 944:3 979:1 1036:1 1151:1 1222:1 1258:3 1277:4 1380:2 1425:1 1571:1 1650:1 1677:2 1745:1 1958:1 1982:1 2156:1 2180:4 2223:5 2284:1 2455:1 2506:3 2509:2 2511:5 2513:7 2514:6 2515:3 2768:1 3437:1 3942:1 4134:1 4241:1 4425:1 4616:1 4683:1 5001:1 5309:1 
0.008384534806476621 9:2 19:2 20:1 91:3 95:7 97:1 120:1 121:1 146:1 207:1 301:3 303:1 310:2 338:1 347:3 352:1 353:1 360:1 361:2 417:1 503:1 571:1 578:1 612:1 618:1 628:1 724:1 738:1 751:12 771:1 772:1 804:1 821:1 847:1 864:1 865:1 971:1 979:3 1048:1 1097:1 1128:1 1133:2 1137:1 1258:7 1335:4 1376:1 1401:1 1442:1 1622:1 1669:1 1745:1 1800:1 1855:3 1867:2 1908:1 1925:1 1968:1 1980:4 2000:1 2007:1 2135:1 2180:9 2198:1 2216:1 2274:1 2302:1 2366:1 2410:1 2416:1 2455:1 2460:1 2506:6 2507:4 2508:2 2509:3 2510:4 2511:16 2513:5 2515:3 2516:1 2517:1 2535:1 2584:1 2674:1 2854:1 3117:1 3246:1 3305:1 3307:1 3336:1 3694:1 3942:1 3987:1 4179:1 4257:1 4333:1 4383:1 4484:1 4711:1 4936:1 5130:1 5149:1 5160:1 5265:1 5443:1 
1 95:1 411:2 1240:1 1391:2 1947:2 1970:2 2201:1 2210:2 2509:1 2511:2 2513:2 
0.06609856719757259 1:2 8:1 11:1 91:1 121:3 327:3 339:1 590:2 681:2 751:3 826:1 831:3 864:1 944:2 979:1 1156:1 1258:3 1261:3 1304:1 1643:2 1684:3 1688:1 1713:3 1766:1 2137:2 2194:2 2298:1 2509:1 2511:1 2513:1 2517:3 2721:1 3782:1 3966:1 4399:1 5403:1 
0.1652658554618201 4:1 8:2 11:1 91:1 92:1 95:7 121:5 135:1 146:1 200:5 207:6 298:1 301:1 310:1 339:3 346:3 389:2 457:1 468:2 616:2 647:1 695:1 708:1 751:8 753:1 775:1 795:1 797:3 831:2 847:1 854:2 947:1 979:2 1022:1 1048:9 1090:2 1144:2 1194:1 1230:4 1258:6 1289:1 1307:1 1436:2 1508:1 1532:2 1562:1 1564:2 1573:1 1632:3 1648:1 1669:2 1694:3 1703:1 1712:2 1713:2 1728:3 1745:1 1795:2 1816:1 1818:1 1856:1 1950:1 2086:2 2139:1 2176:1 2179:2 2180:11 2181:2 2203:1 2234:3 2252:2 2343:2 2370:1 2422:1 2454:1 2506:2 2507:1 2509:10 2510:3 2511:9 2513:4 2516:9 2517:9 2552:1 2560:1 2574:1 3005:1 3124:1 3239:1 3427:1 3435:1 3450:1 3495:1 3966:1 4120:1 4255:1 4399:1 4658:1 5115:1 
0.4416699999176668 8:2 91:6 95:7 121:7 200:7 219:2 290:2 326:2 339:3 346:4 389:2 465:2 468:2 558:2 616:2 628:1 647:2 708:2 751:10 766:2 831:2 847:4 971:2 979:2 1048:8 1090:1 1183:6 1230:2 1251:2 1255:2 1258:3 1307:2 1315:2 1508:2 1564:2 1654:2 1669:2 1694:4 1745:1 1932:1 1938:1 2066:2 2086:2 2174:1 2176:1 2179:2 2180:8 2181:2 2252:2 2506:6 2507:8 2508:2 2509:7 2510:8 2511:11 2512:6 2513:2 2516:8 2517:11 2560:1 2574:1 2607:1 2745:1 2948:1 3124:1 3282:1 3435:1 3942:1 3966:1 4399:1 4656:1 4658:1 5231:1 
0.0001621655245307083 8:1 91:2 95:8 109:1 121:7 200:4 202:1 310:3 326:1 339:2 346:7 352:2 384:2 411:2 465:1 468:2 628:1 708:2 751:8 766:2 771:1 831:2 847:4 850:1 918:1 936:2 971:2 979:3 1048:9 1090:2 1230:3 1251:2 1258:5 1307:1 1330:1 1508:1 1564:4 1669:4 1684:2 1693:1 1694:6 1712:1 1713:2 1745:1 1908:1 2007:2 2028:1 2066:1 2086:2 2139:1 2176:1 2179:2 2180:6 2181:2 2252:2 2343:2 2403:1 2506:4 2507:1 2508:7 2509:6 2510:1 2511:9 2513:2 2516:9 2517:11 2560:1 2607:1 2789:1 2948:1 3124:1 3282:1 3942:1 3966:1 4187:1 4257:1 4399:1 4424:1 4522:1 4658:1 5231:1 5257:1 
0.02731306980694421 12:1 91:3 95:4 195:1 289:1 299:1 301:1 310:2 330:1 531:1 738:2 751:3 907:3 986:1 990:1 997:1 1047:1 1058:1 1084:1 1114:1 1203:2 1208:2 1229:1 1248:1 1258:5 1335:2 1391:1 1711:1 1733:1 1734:1 1749:1 1803:2 1806:3 1896:1 1971:1 2001:2 2180:3 2228:2 2262:1 2291:1 2391:1 2420:2 2455:3 2480:1 2506:6 2507:2 2509:3 2510:3 2511:12 2512:3 2513:8 2514:3 2515:1 2517:1 2559:1 3363:1 3387:1 3662:1 3708:1 3836:1 3867:1 3896:1 3978:1 3990:1 4116:1 4172:1 4179:1 4958:1 5032:1 5202:1 5293:1 
0.03153542057432866 6:6 46:1 65:1 89:1 91:3 95:7 121:3 137:2 146:1 207:2 246:1 289:2 299:3 310:6 337:1 348:1 375:1 398:2 438:3 439:2 441:1 451:5 470:1 539:1 571:1 609:1 628:2 647:1 679:1 695:1 697:1 703:1 739:1 743:1 751:4 797:2 862:1 864:1 979:5 1039:1 1048:4 1090:3 1124:2 1144:3 1152:1 1172:3 1179:1 1209:1 1250:1 1258:2 1330:2 1335:3 1385:1 1391:5 1396:6 1463:1 1564:1 1627:1 1632:1 1635:1 1669:1 1677:2 1728:1 1756:1 1795:3 1860:1 1897:1 1947:1 1972:1 2007:1 2085:1 2148:1 2150:2 2160:1 2180:5 2181:1 2204:2 2261:2 2367:1 2405:1 2416:1 2439:6 2455:3 2457:1 2506:15 2508:2 2509:11 2511:16 2512:3 2513:11 2514:3 2516:4 2632:1 3179:1 3386:1 3427:1 3487:1 3695:1 3942:1 4114:1 4173:1 4187:1 4261:1 4337:1 4505:1 4799:1 4963:1 5031:1 5256:1 5261:1 5268:1 5441:1 5451:1 
0.1100143217026064 46:1 65:2 95:9 310:2 439:1 444:1 451:1 539:1 720:1 751:6 817:1 837:1 979:1 985:1 1018:1 1144:1 1172:2 1179:1 1246:2 1258:2 1316:1 1330:1 1419:3 1452:1 1574:1 1654:3 1690:2 1712:1 1755:2 1756:1 1795:1 1972:1 2007:3 2152:3 2179:2 2180:4 2252:2 2506:4 2509:3 2510:1 2511:5 2513:9 2517:2 2632:1 3487:1 4173:1 4174:1 4187:1 4373:1 4480:1 4822:1 5255:1 5256:1 
0.00585691281086538 46:1 65:1 91:3 93:1 95:10 100:4 121:4 174:1 207:2 246:2 299:1 339:1 340:1 439:1 451:4 470:2 562:2 616:3 695:1 697:1 720:1 739:1 751:8 771:2 862:1 1024:5 1048:3 1090:3 1124:1 1144:2 1149:1 1152:1 1172:2 1180:2 1258:2 1357:1 1419:1 1452:2 1495:1 1590:2 1677:2 1755:1 1795:2 1860:1 1897:1 1947:1 2007:1 2123:1 2156:1 2179:1 2180:6 2198:1 2252:2 2326:1 2362:1 2416:1 2437:1 2442:2 2500:1 2506:3 2508:1 2509:5 2510:2 2511:9 2513:10 2514:3 2516:3 2517:1 2632:1 3179:1 3779:1 4257:1 4348:1 4480:1 4711:1 5255:1 5324:1 5336:1 
0.1575701697753137 246:2 339:2 401:2 451:4 697:2 739:2 927:2 1090:2 1144:2 1152:2 1172:2 1222:2 1795:2 1947:2 2120:1 2442:2 2466:1 2509:2 2511:2 2513:4 3779:1 
0.02640953318858784 46:1 91:3 95:11 112:1 118:1 121:2 157:1 193:1 207:1 209:1 229:1 246:2 298:3 299:1 310:8 339:1 352:2 370:1 438:1 439:2 441:3 451:6 470:2 535:1 539:2 562:5 591:1 616:1 695:2 697:1 711:3 738:1 739:1 751:11 771:2 797:1 847:1 862:1 979:2 1023:1 1036:1 1048:2 1087:3 1090:3 1124:2 1144:5 1152:1 1172:2 1209:1 1250:2 1258:7 1296:1 1314:3 1330:2 1335:5 1389:3 1391:1 1412:1 1436:1 1441:1 1456:2 1485:1 1489:1 1565:1 1573:1 1590:5 1609:1 1617:1 1677:1 1684:2 1713:1 1795:5 1897:1 1903:1 1947:1 1972:1 2007:1 2030:1 2174:1 2180:6 2198:1 2252:2 2288:2 2326:1 2354:5 2380:6 2416:2 2442:1 2455:2 2500:1 2506:32 2507:3 2508:1 2509:16 2510:2 2511:14 2512:6 2513:20 2515:1 2516:2 2517:2 2632:1 2719:1 3005:1 3179:1 3212:1 3659:1 3699:1 3779:1 4017:1 4173:1 4179:1 4187:1 4213:1 4257:1 4561:1 4656:1 4708:1 4711:1 4790:1 4943:1 4993:1 5031:1 5337:1 5451:1 
0.0001238172217434943 58:2 65:1 89:2 91:7 93:1 95:6 121:4 146:1 207:10 298:1 301:1 307:1 310:2 339:1 379:1 438:3 439:2 441:2 444:1 451:1 486:2 539:1 628:1 695:1 720:1 738:1 751:9 779:4 793:1 864:1 879:1 924:1 934:1 949:1 979:4 1021:2 1036:1 1048:5 1114:1 1141:3 1144:6 1172:1 1246:1 1250:1 1258:9 1263:1 1316:1 1330:1 1331:1 1332:1 1335:1 1389:2 1391:2 1419:3 1442:2 1448:1 1463:2 1575:1 1578:1 1654:3 1672:1 1684:5 1693:1 1733:1 1755:1 1756:3 1774:1 1795:6 1806:1 1826:2 1860:1 1925:3 1972:1 1998:1 2017:6 2109:2 2130:1 2142:1 2150:1 2179:1 2180:8 2265:2 2362:4 2416:1 2437:1 2455:8 2506:20 2507:8 2509:4 2510:6 2511:21 2512:4 2513:12 2514:2 2515:1 2516:9 2517:1 2981:1 3052:1 3942:1 4173:1 4174:1 4179:1 4187:1 4226:1 4295:1 4505:1 4557:1 4909:1 5031:1 5202:1 5255:1 5256:1 5310:1 5324:1 
0.07685094338804073 46:1 95:6 246:2 310:2 339:2 451:5 539:2 571:1 616:2 651:3 697:1 720:1 739:1 751:4 765:3 837:1 970:3 985:1 1088:3 1090:2 1126:3 1144:4 1152:1 1172:1 1229:3 1258:3 1357:1 1452:1 1795:4 1947:1 2120:1 2179:1 2180:1 2252:2 2288:2 2326:1 2397:3 2442:1 2506:1 2509:3 2510:2 2511:5 2513:9 2517:1 2632:1 3779:1 4480:1 4822:1 5337:1 
0.267148267112895 6:3 14:1 95:4 146:1 246:1 356:1 441:1 451:4 539:1 549:1 595:1 616:2 628:2 697:1 739:1 751:1 864:1 931:1 979:1 1062:1 1090:1 1144:3 1152:1 1172:1 1330:1 1331:1 1396:3 1734:2 1795:3 1947:1 2007:1 2128:1 2197:1 2437:1 2455:1 2506:2 2511:1 2513:4 2514:1 3234:1 3695:1 3942:1 4187:1 5324:1 5414:1 
0.04579359925557491 91:1 95:1 224:1 264:1 289:3 310:1 330:1 339:1 438:1 457:1 459:1 751:2 907:3 979:3 997:1 1136:1 1203:1 1229:2 1258:2 1335:2 1504:2 1749:1 1947:1 2165:1 2180:2 2214:1 2392:2 2455:1 2483:2 2506:5 2509:3 2511:5 2513:3 2517:2 2542:1 2559:1 3633:1 3708:1 3738:1 3745:1 3920:1 4228:1 4234:1 4721:1 4749:1 5031:1 5142:1 5155:1 
0.02960216674272697 46:1 91:1 95:12 112:1 121:2 200:1 207:2 246:2 283:1 299:1 303:1 310:3 333:1 352:1 370:1 438:1 451:4 470:1 531:1 571:5 591:1 616:2 628:2 653:1 697:1 718:1 722:1 739:1 751:6 753:1 771:1 862:1 927:3 1048:3 1080:1 1090:3 1144:2 1152:1 1160:1 1172:3 1212:3 1222:3 1251:1 1258:2 1296:1 1330:1 1331:1 1335:1 1485:1 1566:1 1654:2 1677:1 1680:1 1755:1 1795:2 1860:1 1897:1 1947:1 2014:1 2016:7 2086:1 2180:4 2203:1 2326:1 2455:1 2506:6 2508:1 2509:6 2510:1 2511:4 2513:12 2514:1 2516:3 2517:2 2607:1 2632:1 2719:1 3179:1 3695:1 3851:1 3942:1 4159:1 4187:1 4213:1 4243:1 4257:1 4827:1 4993:1 5031:1 5081:1 5255:1 
0.03693615752427753 3:1 66:1 91:2 95:11 121:3 129:1 146:4 163:1 195:1 207:1 229:1 246:2 268:1 276:2 289:1 293:1 310:7 327:1 339:1 347:4 352:2 370:2 430:1 439:1 441:2 451:5 453:1 475:1 503:1 535:1 539:1 562:5 571:1 628:1 658:1 662:1 697:1 718:1 720:1 738:1 739:1 751:13 763:1 804:1 820:3 862:1 868:1 979:2 1000:2 1023:1 1031:1 1032:3 1048:2 1090:3 1107:1 1144:4 1152:1 1160:1 1163:1 1172:3 1236:1 1258:12 1296:1 1313:2 1314:5 1330:2 1335:7 1386:1 1391:2 1430:5 1436:1 1446:1 1549:1 1552:1 1556:1 1558:1 1570:1 1590:1 1622:1 1680:1 1684:1 1756:1 1795:4 1826:1 1860:1 1897:1 1908:1 1947:1 1961:1 1972:1 2007:1 2090:1 2126:1 2180:3 2226:1 2267:1 2326:1 2426:2 2455:2 2456:1 2500:2 2506:23 2507:1 2508:5 2509:14 2510:1 2511:20 2513:19 2514:1 2515:3 2516:2 2517:3 2719:1 2900:1 3655:1 3695:1 3760:1 3819:1 3886:1 4005:1 4041:1 4173:1 4179:1 4187:1 4306:1 4467:1 4772:1 4943:1 4974:1 4993:1 5020:1 5256:1 5284:1 
0.001227123732034656 46:1 91:1 95:1 246:2 298:1 310:1 370:1 401:3 439:1 444:1 451:4 539:1 596:2 628:1 697:1 720:1 739:1 743:1 751:3 837:1 927:2 969:1 1090:2 1144:3 1152:1 1172:2 1222:2 1258:3 1280:2 1316:1 1389:2 1407:3 1452:1 1795:3 1947:1 2038:2 2120:1 2154:3 2180:1 2326:1 2455:1 2506:6 2509:1 2510:1 2511:1 2512:1 2513:8 2632:1 3695:1 4174:1 4480:1 4822:1 4993:1 5268:1 
0.998632335382451 36:1 52:2 58:3 91:3 95:10 121:3 146:2 207:2 246:2 299:3 310:6 337:1 339:1 346:1 357:1 371:1 375:1 438:3 439:3 441:1 451:5 503:1 616:4 628:3 658:2 686:1 695:1 697:1 703:1 739:1 743:1 751:7 768:1 769:2 797:1 819:1 847:1 862:1 865:1 871:1 923:2 947:1 979:3 1018:1 1033:1 1048:2 1059:1 1090:3 1114:1 1144:4 1152:1 1163:1 1172:4 1174:1 1179:1 1225:3 1230:1 1250:2 1258:7 1289:1 1330:2 1335:4 1345:1 1346:5 1433:5 1507:1 1529:2 1622:4 1701:1 1705:1 1707:1 1769:1 1795:4 1860:1 1867:1 1897:1 1920:2 1925:4 1947:1 1972:2 1989:2 2029:1 2107:1 2150:1 2180:5 2204:1 2246:4 2261:1 2267:2 2326:1 2416:1 2455:4 2469:1 2506:24 2507:1 2508:2 2509:23 2510:5 2511:30 2512:5 2513:13 2516:2 2517:2 2837:1 2842:1 2884:1 3021:1 3239:1 3386:1 3487:1 3607:1 3694:1 3695:1 3942:1 4005:1 4017:1 4114:1 4120:1 4173:1 4187:1 4607:1 5031:1 5034:1 5202:1 5212:1 5268:1 
0.00587662906429698 66:1 86:1 88:1 91:3 95:10 120:1 121:2 131:1 137:5 146:1 177:1 187:1 246:2 268:1 289:1 298:1 301:2 310:3 327:1 340:1 352:3 451:3 458:2 459:1 503:2 562:5 633:1 639:1 695:1 697:1 711:1 738:2 739:1 751:12 753:1 758:1 771:1 797:3 837:1 854:1 862:1 968:1 997:1 1048:4 1080:1 1090:2 1144:2 1152:1 1172:3 1231:1 1236:1 1250:1 1251:1 1258:8 1314:1 1335:3 1376:1 1386:1 1391:2 1436:1 1486:1 1500:1 1554:1 1564:1 1628:1 1632:1 1635:3 1669:2 1684:2 1690:1 1728:2 1795:2 1808:2 1897:1 1911:5 1947:1 2007:2 2017:1 2038:1 2150:2 2179:3 2180:9 2181:1 2203:1 2207:1 2252:2 2261:1 2362:1 2422:1 2506:8 2507:2 2508:1 2509:12 2510:4 2511:10 2512:5 2513:15 2515:4 2516:4 2517:3 2718:1 2963:1 3115:1 3363:1 3386:1 3427:1 3965:1 4017:1 4041:1 4151:1 4179:1 4257:1 4306:1 4358:1 4563:1 4599:1 4771:1 5081:1 5425:1 5430:1 
0.06615380259973332 91:1 95:5 121:1 157:2 207:1 229:1 246:2 276:3 295:1 310:1 388:1 431:3 441:1 451:4 562:4 612:1 628:1 697:1 739:1 751:2 862:1 873:3 898:3 1048:2 1090:3 1114:1 1144:2 1152:1 1172:2 1258:6 1335:1 1452:1 1523:3 1540:3 1605:1 1625:1 1714:2 1795:2 1805:3 1860:1 1897:1 1947:1 2007:2 2038:3 2150:1 2179:1 2180:3 2252:2 2326:1 2437:1 2442:1 2508:10 2511:5 2513:10 2514:1 2515:2 2516:2 2517:2 3222:1 3779:1 3834:1 3942:1 4480:1 5202:1 5324:1 
0.02828597058931468 91:1 95:4 121:1 157:1 207:1 229:1 246:2 276:2 295:1 310:1 388:1 431:2 451:4 562:3 612:1 628:2 697:1 739:1 751:2 862:1 873:2 898:2 1048:2 1090:3 1114:1 1144:2 1152:1 1172:2 1258:4 1335:1 1523:2 1540:2 1605:1 1714:2 1795:2 1805:2 1860:1 1897:1 1947:1 2007:2 2038:2 2150:1 2180:2 2326:1 2508:8 2511:4 2513:7 2514:1 2515:2 2516:2 2517:1 3222:1 3695:1 3834:1 3942:1 5202:1 
0.1174607863965945 25:1 91:1 95:4 109:3 121:3 200:5 207:2 227:1 299:1 301:1 310:8 331:1 339:1 346:2 352:2 438:3 617:1 628:1 660:1 672:1 692:1 695:2 708:4 727:1 730:1 750:1 751:7 839:2 864:1 947:2 1048:8 1258:6 1289:3 1532:2 1564:2 1669:2 1689:5 1713:3 1850:1 1903:1 1909:1 1934:1 1972:2 2041:2 2066:4 2086:1 2180:4 2277:2 2307:1 2329:1 2455:1 2504:3 2506:10 2509:3 2510:2 2511:9 2513:2 2516:8 2517:7 2789:1 2948:1 3239:1 3492:1 3937:1 3942:1 4028:1 4120:1 4173:1 4496:1 4941:1 5031:1 5464:1 
0.1322499243934142 38:3 95:8 121:1 193:2 207:1 246:2 298:1 310:1 340:1 380:4 410:1 439:1 444:1 451:4 562:1 571:1 628:1 697:1 710:1 739:1 751:3 862:1 1048:2 1087:1 1090:3 1144:2 1152:1 1172:2 1316:1 1335:1 1386:1 1486:1 1677:1 1684:2 1756:1 1795:2 1897:1 1947:1 1999:2 2007:1 2180:4 2326:1 2362:2 2416:1 2506:2 2508:1 2509:1 2510:3 2511:5 2513:9 2516:2 3695:1 4129:1 4174:1 4306:1 5181:1 5256:1 
0.04051124953250777 58:2 95:8 121:1 207:1 246:2 298:1 310:1 339:3 375:1 439:1 441:1 451:6 539:1 612:3 616:2 628:1 697:1 739:1 751:1 771:1 862:1 864:1 934:1 979:1 1048:2 1090:3 1144:4 1152:1 1172:2 1209:1 1258:4 1331:1 1335:1 1389:5 1391:2 1442:2 1540:1 1680:1 1756:1 1795:4 1897:1 1947:1 2007:3 2150:1 2179:1 2180:2 2252:2 2326:1 2437:1 2442:1 2466:1 2506:2 2508:1 2509:4 2510:2 2511:10 2512:2 2513:8 2516:2 2517:1 3779:1 3942:1 4257:1 5256:1 5324:1 5451:1 
0.3301749804091065 32:5 65:2 82:1 85:1 93:1 95:11 121:2 207:1 221:3 246:2 288:3 298:1 299:2 310:3 338:1 352:1 365:1 370:1 397:3 439:2 444:1 451:5 479:1 539:1 616:5 639:1 694:1 697:1 703:1 720:1 738:1 739:1 751:5 771:1 840:1 862:1 865:1 879:1 899:4 979:4 993:3 1048:2 1090:3 1144:4 1152:1 1172:3 1250:2 1258:6 1271:3 1316:1 1335:2 1419:3 1622:1 1755:1 1795:4 1860:1 1867:2 1896:1 1897:1 1947:1 1992:2 2017:2 2150:1 2180:5 2216:8 2234:1 2250:2 2252:2 2271:1 2326:1 2442:1 2455:2 2463:4 2506:8 2508:2 2509:4 2511:6 2513:13 2516:2 2517:1 2711:1 3107:1 3307:1 3355:1 3779:1 3990:1 4110:1 4114:1 4174:1 4179:1 4257:1 4993:1 5106:1 5135:1 5255:1 
0.003932667014469756 65:1 91:5 95:13 146:1 207:1 246:1 285:1 301:1 310:4 341:1 371:1 386:1 438:1 439:1 441:2 451:5 486:1 535:2 539:2 562:7 595:1 616:4 653:1 695:1 697:1 720:1 739:1 743:1 751:15 758:1 797:1 862:1 879:1 979:3 1038:6 1048:3 1074:1 1090:2 1144:6 1152:1 1160:1 1172:4 1179:1 1194:1 1258:5 1296:2 1313:4 1330:1 1357:1 1386:1 1391:2 1485:2 1554:1 1564:1 1590:1 1632:1 1669:1 1680:1 1707:1 1730:1 1755:1 1756:1 1795:6 1860:2 1897:1 1947:1 2007:2 2126:2 2127:1 2142:1 2179:2 2180:6 2181:1 2204:1 2243:1 2252:2 2416:2 2426:1 2437:1 2442:1 2455:3 2506:14 2508:1 2509:11 2510:1 2511:11 2512:1 2513:22 2516:3 2517:3 2719:1 3171:1 3427:1 3487:1 3699:1 3739:1 3779:1 4187:1 4306:1 4550:1 4835:1 5031:1 5084:1 5204:1 5255:1 5256:1 5268:1 5284:1 5324:1 5414:1 
0.1990086472633493 11:1 46:2 91:3 95:4 107:2 109:3 121:6 163:1 200:3 207:5 214:1 298:4 310:2 346:3 352:1 389:3 468:3 490:1 617:2 731:1 751:8 771:2 831:2 847:9 850:4 947:5 1048:11 1230:3 1258:13 1315:1 1325:1 1335:1 1354:1 1452:2 1508:2 1559:1 1564:5 1654:2 1669:5 1684:4 1688:1 1713:2 1745:1 1824:1 2126:2 2137:2 2139:1 2180:7 2181:2 2234:2 2343:3 2506:1 2509:6 2511:5 2513:1 2516:11 2517:6 2560:1 2745:1 2789:1 2900:1 3124:1 3239:1 3435:1 4257:1 4399:1 4480:1 4945:1 5100:1 5231:1 5464:1 
0.6987651730079646 36:2 95:3 299:2 386:2 441:2 616:2 738:2 751:6 960:2 1048:2 1335:2 1467:2 1474:2 1833:2 1897:2 2180:4 2402:2 2490:4 2506:2 2508:2 2509:2 2511:2 2513:4 2516:2 3021:1 4179:1 4539:1 5054:1 
0.9848173825657265 36:2 95:3 299:2 386:2 441:2 571:2 738:2 751:6 960:2 1048:2 1126:2 1229:2 1335:2 1467:2 1474:2 1897:2 2180:4 2397:2 2402:2 2490:4 2506:2 2508:2 2509:2 2511:4 2513:4 2516:2 3021:1 4179:1 4539:1 5054:1 
0.5161705441571997 95:3 571:2 738:2 751:2 960:2 979:2 1048:2 1126:2 1229:2 1335:2 1467:2 1897:2 2180:2 2397:2 2402:2 2490:2 2508:2 2511:2 2513:2 2516:2 4179:1 5054:1 
1 36:2 95:3 299:2 386:2 441:2 616:2 738:2 751:6 960:2 1048:2 1150:2 1335:2 1467:2 1474:2 1833:2 1897:2 2180:4 2402:2 2490:4 2506:2 2508:2 2509:2 2511:2 2513:4 2516:2 3021:1 4179:1 4539:1 5054:1 
0.2875265241867764 95:3 616:2 738:2 751:2 960:2 979:2 1048:2 1335:2 1467:2 1833:2 1897:2 2180:2 2402:2 2490:2 2508:2 2513:2 2516:2 4179:1 5054:1 
0.4777078248332462 95:3 616:2 738:2 751:2 960:2 979:2 1048:2 1335:2 1467:2 1672:2 1833:2 1897:2 2180:2 2402:2 2490:2 2508:2 2513:2 2516:2 4179:1 5054:1 
0.03095882101304769 91:4 95:4 98:1 112:1 121:2 130:1 146:2 176:1 295:1 310:3 314:1 332:2 339:2 341:1 352:3 354:1 378:1 395:1 441:1 448:1 562:5 567:2 726:1 738:1 751:8 787:1 796:1 825:1 833:1 864:4 931:1 979:4 1009:1 1132:1 1147:1 1196:1 1229:1 1255:1 1258:4 1335:4 1391:1 1467:1 1470:1 1565:1 1584:1 1590:2 1632:1 1636:1 1663:1 1677:1 1728:2 1730:4 1787:1 1879:1 1971:1 2007:1 2009:1 2089:2 2157:1 2168:3 2169:1 2179:1 2180:5 2181:1 2187:1 2203:1 2204:1 2211:1 2252:2 2294:1 2315:1 2355:1 2396:1 2420:1 2422:2 2437:1 2443:1 2467:1 2506:4 2507:5 2508:7 2509:6 2510:3 2511:12 2512:2 2513:6 2515:4 2559:1 2704:1 2871:1 2882:1 3222:1 3427:1 3455:1 3840:1 3967:1 4172:1 4175:1 4179:1 4213:1 4240:1 4405:1 4682:1 4790:1 4825:1 4917:1 5054:1 5088:1 5236:1 5251:1 5302:1 5324:1 5419:1 
1 95:3 562:2 738:2 751:2 871:2 960:2 979:2 1048:2 1111:2 1335:2 1496:2 1897:2 2007:2 2180:2 2508:2 2513:2 2516:2 4179:1 4586:1 
0.04332009503436837 95:3 562:2 738:2 751:2 871:2 960:2 979:2 1048:2 1335:2 1467:2 1778:2 1897:2 2007:2 2180:2 2343:2 2508:2 2513:2 2516:2 4179:1 5054:1 
0.6878698021635135 95:3 562:2 738:2 751:2 871:2 960:2 979:2 1048:2 1111:2 1335:2 1496:2 1672:2 1897:2 2007:2 2180:2 2508:2 2513:2 2516:2 4179:1 4586:1 
0.04556579888383484 15:1 49:2 91:1 95:4 121:2 146:2 172:1 257:1 267:1 289:1 298:2 310:1 343:1 357:3 427:1 438:1 439:1 444:1 510:1 558:4 573:1 616:1 628:1 658:1 687:1 751:5 769:1 864:1 979:1 1030:1 1042:1 1223:2 1250:1 1258:1 1275:1 1330:1 1405:1 1414:1 1514:1 1550:3 1614:1 1654:2 1933:1 1954:2 2074:1 2180:1 2375:1 2455:2 2506:8 2507:1 2508:3 2509:5 2510:1 2511:8 2513:5 2842:1 2978:1 3043:1 3143:1 3334:1 3457:1 3646:1 3649:1 3800:1 3846:1 3851:1 3942:1 3981:1 4005:1 4073:1 4149:1 4187:1 4253:1 4890:1 4994:1 5031:1 
0.2796026528634552 95:3 379:2 738:2 751:2 871:2 960:2 979:2 1048:2 1335:2 1431:2 1496:2 1855:2 1897:2 2007:2 2180:2 2508:2 2509:2 2513:2 2516:2 2997:1 4179:1 4492:1 4586:1 
1 36:2 95:3 299:2 379:2 386:2 441:2 738:2 751:6 871:2 960:2 1048:2 1335:2 1431:2 1467:2 1474:2 1855:2 1897:2 2007:2 2180:4 2490:2 2506:2 2508:2 2509:4 2511:2 2513:4 2516:2 2997:1 3021:1 4179:1 4492:1 4539:1 5054:1 
1 95:1 189:2 346:2 1240:2 1243:2 1258:4 1391:2 1694:3 2429:2 2506:2 2509:4 2511:2 2513:2 2517:3 3558:1 3983:1 
0.03417770065791165 28:1 91:1 95:4 139:3 146:2 247:3 257:1 289:2 310:1 339:1 441:1 454:2 530:1 558:3 616:1 628:1 738:1 740:1 742:1 751:5 819:2 864:1 979:1 1095:3 1127:1 1142:1 1206:1 1258:3 1331:1 1370:1 1556:1 1919:1 2074:1 2075:1 2087:2 2102:1 2155:4 2179:3 2180:5 2277:2 2335:2 2508:6 2509:2 2511:2 2513:3 2780:1 3341:1 3442:1 3444:1 3648:1 3848:1 3901:1 3942:1 4179:1 4185:1 4267:1 4353:1 4379:1 4663:1 4941:1 5295:1 
1 91:1 95:2 146:1 298:1 310:1 339:1 558:1 616:1 751:1 819:1 897:1 1091:1 1240:1 1647:1 1947:1 1970:1 2180:1 2208:1 2210:1 2509:2 2511:2 2513:1 3619:1 5367:1 
0.0323430533070122 58:1 91:1 95:3 114:1 121:6 133:1 146:1 214:1 219:2 257:1 289:1 299:1 310:6 311:1 341:1 357:2 369:1 399:1 434:1 438:1 503:1 558:3 616:1 628:1 688:1 751:6 864:1 954:3 979:1 1127:1 1144:2 1330:2 1331:1 1335:1 1409:1 1496:1 1550:1 1586:1 1699:1 1753:1 1769:2 1795:2 1799:2 1950:1 1951:1 2075:1 2098:1 2155:1 2180:3 2219:1 2366:2 2419:1 2472:1 2506:3 2507:2 2508:2 2509:4 2510:6 2511:7 2512:2 2513:7 2517:1 2648:1 2799:1 2950:1 3184:1 3942:1 4187:1 4586:1 4754:1 5013:1 5031:1 5154:1 
0.2116231223533885 95:4 146:1 298:1 310:3 392:4 590:1 592:1 751:4 753:1 850:1 1048:3 1049:2 1159:1 1258:5 1311:1 1330:1 1445:2 1520:2 1554:1 1564:1 1581:1 1632:1 1654:1 1669:1 1691:2 1698:2 1888:1 1950:1 2021:2 2150:2 2179:4 2180:3 2203:1 2368:1 2496:1 2508:2 2509:3 2510:2 2511:4 2513:2 2516:3 2517:3 2848:1 3427:1 3598:1 4187:1 4237:1 4970:1 5403:1 
0.07813021753000536 4:1 18:1 73:1 77:2 91:3 95:8 121:5 141:1 146:1 200:1 289:2 290:1 298:2 301:1 308:1 310:3 311:2 318:1 332:1 339:2 352:1 354:1 388:1 408:2 432:1 438:1 467:2 535:1 568:2 601:1 616:2 628:1 660:1 738:1 751:9 832:2 837:3 839:1 864:1 880:1 912:1 979:1 983:1 990:1 996:1 1013:2 1018:1 1022:1 1049:2 1069:3 1072:1 1094:1 1133:1 1144:4 1229:1 1258:8 1320:1 1330:1 1331:2 1335:2 1436:1 1544:1 1556:1 1577:1 1579:1 1654:1 1691:3 1694:1 1742:1 1795:4 1825:1 1833:2 1861:1 1909:1 1925:1 1950:1 1971:1 1982:1 2037:1 2053:1 2127:1 2132:1 2164:6 2176:1 2178:1 2179:3 2180:5 2197:1 2243:1 2306:1 2338:1 2355:1 2357:1 2422:1 2455:2 2506:7 2507:4 2508:3 2509:6 2510:4 2511:11 2512:1 2513:10 2514:1 2517:7 2552:1 2559:1 2573:1 2674:1 2695:1 2768:1 3005:1 3234:1 3357:1 3942:1 4028:1 4172:1 4179:1 4187:1 4550:1 4637:1 4658:1 4667:1 4723:1 4835:1 4852:1 4906:1 5031:1 5068:1 5088:1 5213:1 5420:1 
0.004401048643864663 30:2 32:3 50:1 91:4 95:4 121:4 146:1 151:3 152:1 310:2 311:1 441:2 457:2 459:1 460:7 503:1 525:2 541:1 563:1 616:1 628:1 751:4 752:2 811:1 828:1 864:1 899:1 911:1 979:2 1105:1 1113:1 1131:1 1144:2 1148:2 1229:2 1258:7 1279:1 1335:1 1436:1 1464:2 1647:1 1697:1 1795:2 1980:1 1995:2 2075:4 2098:1 2180:2 2216:3 2395:1 2500:2 2506:3 2507:1 2508:1 2509:8 2510:2 2511:8 2512:1 2513:1 2559:1 2767:1 2783:1 2817:1 3005:1 3030:1 3046:1 3217:1 3241:1 3762:1 3802:1 3942:1 4044:1 4204:1 4504:1 4742:1 4955:1 5029:1 5098:1 5233:1 5273:1 
0.02528847282279453 25:1 91:2 95:8 109:1 121:4 146:2 151:1 200:2 219:2 299:2 310:8 338:1 339:1 346:2 352:1 413:1 632:1 647:2 697:1 751:6 830:1 831:2 864:1 865:3 891:2 907:3 944:4 947:3 964:1 972:1 979:4 991:2 1048:3 1067:1 1090:1 1094:1 1144:1 1174:1 1258:4 1259:1 1335:4 1376:3 1378:1 1391:1 1436:1 1447:1 1472:1 1495:1 1504:1 1562:1 1564:2 1575:1 1577:1 1582:2 1646:5 1654:1 1689:3 1698:1 1792:1 1795:1 1862:2 1873:1 1908:1 1910:2 1972:2 2065:3 2143:1 2181:1 2252:2 2277:2 2307:1 2329:2 2370:1 2496:1 2500:6 2506:5 2507:3 2509:5 2510:1 2511:10 2513:4 2516:8 2517:6 2574:1 2618:1 2789:1 3005:1 3239:1 3307:1 3492:1 3598:1 3936:1 4112:1 4173:1 4217:1 4397:1 4399:1 4549:1 4907:1 4941:1 5373:1 5374:1 5382:1 
0.02965118654442062 91:5 95:8 121:4 133:1 140:1 213:1 250:1 251:1 257:1 289:3 301:1 310:4 311:5 335:1 390:1 408:1 429:2 438:2 441:1 500:1 531:2 614:1 616:4 628:1 645:2 659:1 751:5 892:2 901:2 979:2 1000:1 1014:3 1144:10 1167:4 1223:4 1258:2 1262:2 1330:1 1335:1 1365:1 1424:3 1745:1 1795:10 1867:2 1902:2 1950:1 1951:1 2020:1 2061:1 2098:1 2099:1 2154:1 2287:1 2318:5 2361:2 2419:2 2434:2 2455:3 2504:1 2506:10 2509:8 2511:9 2512:1 2513:11 2515:1 2517:2 2595:1 2839:1 3045:1 3098:1 3302:1 3442:1 3603:1 3669:1 3942:1 4187:1 4252:1 4442:1 4584:1 4606:1 4637:1 5031:1 5231:1 5234:1 5423:1 
0.01394172361706268 49:1 91:4 95:4 105:4 121:2 146:2 173:2 188:1 257:2 289:1 301:1 310:5 338:1 343:1 352:3 357:2 369:1 469:1 500:1 503:1 541:1 542:1 558:4 573:1 584:1 616:1 628:1 751:3 766:1 864:1 865:1 875:1 891:1 899:1 917:1 1105:1 1131:1 1199:1 1229:2 1258:6 1291:1 1310:1 1311:1 1330:1 1335:1 1405:1 1413:1 1441:1 1483:1 1516:1 1550:2 1577:1 1586:3 1604:1 1618:1 1632:2 1699:1 1753:1 1755:1 1769:2 1908:1 1909:1 1925:1 1927:1 2067:1 2074:1 2148:1 2155:1 2167:1 2179:1 2180:1 2207:1 2219:3 2379:1 2391:1 2455:1 2463:1 2506:5 2507:3 2508:2 2509:9 2510:3 2511:14 2512:2 2513:9 2514:1 2559:1 2955:1 3154:1 3284:1 3307:1 3369:1 3427:1 3636:1 3800:1 3835:1 3891:1 3942:1 3975:1 4028:1 4127:1 4130:1 4187:1 4211:1 4238:1 4246:1 4384:1 4640:1 4895:1 4979:1 5091:1 5253:1 5255:1 
0.01709740231736901 18:1 36:1 95:5 146:1 298:1 299:2 301:2 310:5 331:1 339:2 377:1 388:1 408:1 438:2 616:1 628:1 738:2 751:5 753:5 771:1 864:1 979:2 982:1 990:1 1047:1 1182:1 1208:2 1246:1 1258:8 1288:2 1335:2 1389:1 1412:1 1447:1 1517:1 1519:1 1529:1 1598:1 1638:1 1644:1 1654:3 1806:2 1833:4 1950:1 1971:1 2156:1 2179:1 2180:10 2203:4 2262:2 2272:1 2458:1 2506:1 2507:2 2508:1 2509:8 2510:7 2511:8 2513:9 2514:4 2515:1 2517:6 2902:1 3021:1 3205:1 3452:1 3942:1 4119:1 4143:1 4172:1 4179:1 4257:1 4637:1 4645:1 4649:1 4815:1 4848:1 4973:1 5031:1 
0.3859499572429734 8:2 11:1 95:4 121:2 339:1 751:1 907:2 944:3 1145:3 1246:2 1442:1 1684:1 1691:1 1950:1 2007:2 2166:1 2509:1 2511:2 2513:2 2517:2 3756:1 3966:1 4632:1 
0.006484655090541741 36:2 47:1 91:3 95:10 110:1 118:1 121:2 146:1 159:2 235:1 289:3 290:1 295:1 298:2 310:10 341:3 352:3 370:1 371:2 441:2 444:2 448:1 523:1 549:1 581:1 595:1 616:4 628:1 738:3 741:1 746:2 751:5 804:1 817:1 832:1 864:1 880:2 906:2 931:1 979:5 1041:2 1142:1 1144:4 1182:1 1237:1 1242:1 1258:5 1316:1 1320:1 1331:1 1335:7 1412:1 1428:1 1589:1 1653:3 1707:1 1730:3 1768:1 1795:4 1833:7 1888:1 2037:3 2053:2 2072:2 2098:2 2180:5 2212:2 2218:2 2273:8 2290:2 2330:4 2388:3 2416:1 2426:3 2447:1 2452:2 2455:2 2457:1 2485:1 2506:16 2507:2 2508:4 2509:8 2510:2 2511:15 2513:9 2514:6 2515:3 2517:2 2604:1 2727:1 2913:1 2962:1 2977:1 2979:1 3021:1 3222:1 3244:1 3383:1 3687:1 3740:1 3820:1 3861:1 3942:1 3974:1 4174:1 4179:1 4212:1 4312:1 4373:1 4697:1 4991:1 4993:1 5213:1 5226:1 5284:1 5295:1 5414:1 
0.2639483969195538 4:1 8:2 11:1 25:1 91:2 95:6 121:10 200:3 202:2 207:2 310:3 326:2 339:3 346:7 348:1 389:1 468:2 590:2 617:1 708:3 729:1 751:13 831:2 847:2 851:1 907:2 925:1 947:4 1045:1 1048:6 1090:3 1156:1 1190:1 1230:2 1246:2 1251:1 1258:6 1335:3 1376:2 1410:1 1436:2 1452:1 1508:2 1564:2 1577:1 1654:2 1669:2 1684:2 1691:5 1694:2 1745:1 1823:1 1909:1 2007:2 2065:2 2066:1 2132:1 2139:4 2176:1 2180:3 2252:2 2409:1 2414:1 2506:6 2508:3 2509:5 2511:10 2513:2 2516:6 2517:9 2560:1 2948:1 3005:1 3124:1 3239:1 3282:1 3782:1 3966:1 4028:1 4399:1 4424:1 4480:1 4658:1 4945:1 5403:1 5464:1 
0.05726254740478065 91:9 95:8 121:2 129:1 146:1 289:1 298:1 310:4 311:1 352:1 369:2 441:3 558:3 573:1 616:3 628:1 666:1 738:1 751:10 811:1 841:3 864:1 912:1 954:1 979:1 1002:5 1105:1 1127:2 1128:2 1144:9 1258:5 1310:2 1330:2 1331:1 1335:1 1392:2 1413:1 1414:2 1428:1 1493:5 1503:1 1550:5 1561:1 1573:1 1622:1 1683:1 1699:1 1751:1 1753:1 1769:1 1780:1 1795:9 1860:1 1886:1 1905:2 1908:2 1919:1 1971:1 2005:1 2098:1 2135:3 2148:1 2155:1 2167:1 2174:1 2179:1 2180:5 2219:1 2228:1 2366:1 2395:1 2421:1 2455:1 2482:2 2506:4 2507:7 2508:1 2509:1 2510:8 2511:14 2512:2 2513:15 2604:1 2757:1 3072:1 3284:1 3572:1 3942:1 4172:1 4179:1 4187:1 4190:1 4330:1 4380:1 4384:1 4643:1 4656:1 5082:1 5093:1 5144:1 5154:1 5220:1 5233:1 5366:1 5443:1 
1 95:3 429:2 616:2 899:2 1240:1 1258:2 1277:2 1947:2 1970:2 2201:1 2210:2 2509:1 2513:2 
1 95:3 429:2 616:2 899:2 1240:1 1258:2 1277:2 1947:2 1970:2 2201:1 2210:2 2509:1 2513:2 
1 95:3 429:2 616:2 899:2 1240:1 1258:2 1277:2 1947:2 1970:2 2201:1 2210:2 2509:1 2513:2 
0.02409666093803955 40:2 91:1 95:3 121:2 310:4 326:2 339:1 343:2 346:5 389:4 616:2 617:2 750:1 751:3 835:4 847:3 851:1 936:2 947:1 1048:6 1258:2 1335:2 1564:3 1622:2 1669:3 1691:2 1694:1 1780:2 1909:1 1950:1 2100:4 2150:2 2174:1 2176:1 2180:2 2506:6 2508:6 2509:10 2511:3 2513:2 2516:6 2517:5 3239:1 3282:1 4028:1 4656:1 4658:1 4945:1 5464:1 
0.2322804503199252 8:2 11:1 25:2 91:4 95:5 121:8 200:9 207:6 299:1 310:2 346:2 358:2 389:3 429:2 468:2 503:1 590:1 616:2 617:1 619:1 731:1 732:3 751:7 771:2 831:2 847:1 851:1 899:2 947:1 979:2 1048:11 1230:5 1246:2 1258:7 1277:2 1311:1 1315:4 1335:1 1436:5 1452:1 1555:2 1564:5 1581:2 1654:1 1669:5 1684:1 1694:2 1798:1 1938:1 1950:2 2179:1 2180:5 2181:4 2196:1 2343:4 2484:1 2496:1 2506:4 2509:9 2513:4 2516:11 2517:9 2560:1 2745:1 3005:1 3239:1 3358:1 3966:1 4257:1 4399:1 4480:1 4945:1 5403:1 5464:1 5467:1 
0.05267180255963359 4:2 25:2 91:2 95:7 121:3 200:2 207:4 310:2 326:2 339:2 346:2 358:1 429:2 616:2 750:1 751:4 847:3 899:2 936:2 947:3 1048:8 1258:2 1277:2 1321:1 1330:1 1564:2 1669:2 1694:2 1873:1 1909:2 1938:2 2176:2 2179:2 2180:7 2252:2 2435:1 2507:1 2508:10 2509:4 2510:1 2511:6 2513:3 2516:8 2517:4 2552:1 3239:1 3282:1 3358:1 4028:1 4187:1 4658:1 
0.1329704289710161 91:3 95:4 112:1 121:1 146:1 263:1 289:1 296:2 310:5 338:1 339:2 352:1 355:1 378:1 430:1 438:1 459:1 516:2 531:1 544:2 602:1 604:4 639:2 654:1 751:3 781:1 864:1 979:1 1136:1 1226:1 1258:2 1331:1 1338:1 1492:1 1507:1 1597:1 1644:1 1745:1 1869:1 1908:1 2007:1 2068:1 2096:1 2180:1 2246:1 2286:1 2301:1 2314:2 2357:1 2401:1 2455:1 2471:1 2506:5 2507:4 2508:2 2509:7 2510:3 2511:19 2512:2 2513:2 2517:2 3307:1 3493:1 3738:1 3873:1 3919:1 3985:1 4213:1 4478:1 4607:1 4752:1 4818:1 4834:1 4917:1 4973:1 5020:1 5031:1 5195:1 5231:1 
0.3931479051583801 95:1 189:2 346:2 1240:2 1243:2 1258:4 1391:2 1691:1 1694:2 2431:2 2506:2 2509:4 2511:2 2513:2 2517:3 3448:1 3983:1 
0.8796466893651027 95:3 429:2 616:2 1240:1 1947:2 1970:2 2201:1 2210:2 2318:2 2509:1 2513:2 
0.02546798713197439 36:1 70:1 77:2 91:2 95:10 121:2 146:1 189:2 191:1 202:1 219:1 289:1 292:1 301:1 309:1 310:5 325:5 337:1 339:2 352:1 377:2 438:1 441:4 715:2 751:26 753:1 797:1 837:1 840:1 864:2 893:1 895:3 931:1 938:5 979:5 1012:1 1013:1 1049:1 1092:1 1121:2 1173:2 1229:2 1240:1 1243:2 1248:2 1258:6 1294:1 1330:2 1335:3 1391:1 1412:1 1436:1 1445:2 1446:2 1467:1 1535:3 1617:1 1644:1 1691:1 1837:1 1884:1 2007:2 2065:1 2077:1 2102:1 2157:1 2173:4 2176:1 2180:16 2181:3 2203:1 2261:1 2262:1 2263:2 2316:4 2337:1 2416:1 2471:1 2496:1 2506:10 2508:1 2509:11 2510:3 2511:13 2512:1 2513:3 2517:1 2559:1 3005:1 3021:1 3220:1 3386:1 3689:1 3919:1 3983:1 4187:1 4415:1 4424:1 4552:1 4658:1 4726:1 4898:1 4899:1 4906:1 5012:1 5031:1 5054:1 5066:1 5333:1 5462:1 
0.0600467640130766 8:3 11:1 48:1 91:5 95:7 121:7 146:1 189:2 200:2 310:4 326:3 339:3 346:2 389:3 446:1 465:2 468:2 590:1 617:2 642:1 751:6 823:1 831:2 847:5 944:6 955:1 979:3 1048:12 1184:1 1230:8 1243:2 1258:5 1378:1 1429:1 1452:1 1508:2 1564:4 1590:3 1669:3 1694:3 1712:2 2007:2 2049:3 2066:2 2139:4 2179:4 2180:10 2181:4 2252:2 2343:4 2370:2 2496:1 2506:3 2507:5 2508:4 2509:10 2510:3 2511:10 2512:2 2513:3 2516:12 2517:7 2560:1 2754:1 2948:1 3124:1 3275:1 3282:1 3435:1 3966:1 4399:1 4480:1 5403:1 5408:1 5452:1 5464:1 
0.009952366736420293 32:3 91:6 95:4 121:1 146:2 250:1 270:1 282:1 287:1 289:2 310:2 311:1 318:1 441:1 449:1 460:2 541:1 616:1 628:1 659:1 686:1 694:1 738:1 751:3 782:3 839:1 864:1 873:3 899:2 987:1 994:1 998:3 1000:1 1042:1 1094:1 1141:1 1144:4 1222:2 1258:6 1336:1 1391:1 1622:1 1647:1 1654:1 1677:1 1795:4 1802:1 1840:1 1867:1 1877:1 1975:2 2020:4 2098:1 2176:1 2180:1 2204:1 2216:3 2250:1 2331:1 2468:1 2506:4 2508:1 2509:4 2511:8 2513:5 2517:1 2759:1 3045:1 3355:1 3426:1 3694:1 3736:1 3831:1 3942:1 4179:1 4581:1 4658:1 4868:1 4962:1 4994:1 5208:1 
0.01165726866142163 91:7 95:6 121:4 132:1 139:1 144:1 146:1 155:1 166:1 186:1 188:1 223:3 257:1 276:1 279:1 280:1 289:2 299:3 310:3 390:1 429:1 510:2 525:1 616:1 658:1 686:1 751:6 839:1 843:1 863:1 864:3 899:1 945:1 946:2 952:2 979:7 1082:1 1114:1 1123:2 1141:1 1144:2 1159:1 1190:1 1199:1 1224:1 1229:1 1258:4 1275:2 1277:4 1330:2 1335:4 1397:1 1417:5 1436:1 1459:1 1460:1 1515:1 1588:2 1640:1 1654:1 1673:1 1683:1 1686:2 1711:1 1736:5 1795:2 1827:1 1828:1 1953:1 2055:4 2062:1 2095:1 2096:1 2098:2 2141:1 2159:1 2179:1 2180:2 2216:1 2301:1 2312:1 2329:1 2366:1 2506:9 2507:2 2508:8 2509:6 2510:5 2511:19 2512:1 2513:7 2517:1 2559:1 2598:1 2602:1 2684:1 2738:1 2784:1 2826:1 2935:1 2955:1 3005:1 3013:1 3020:1 3033:1 3095:1 3442:1 3572:1 3592:1 3649:1 3660:1 3690:1 3696:1 3783:1 3866:1 3891:1 3943:1 4005:1 4187:1 4195:1 4274:1 4414:1 4464:1 4478:1 5202:1 5387:1 5431:1 5434:1 
0.7442347899351357 95:1 346:2 558:2 1240:2 1258:4 1450:1 1691:3 2051:2 2364:1 2466:2 2509:2 2513:2 2517:3 3983:1 
0.2009602687661538 91:5 95:4 121:4 178:1 200:4 202:2 207:2 310:2 339:2 346:2 376:1 389:1 558:2 616:2 628:1 647:1 708:3 751:8 864:2 892:2 947:2 985:1 1027:1 1048:3 1051:1 1230:2 1258:5 1315:1 1331:2 1335:1 1436:4 1564:2 1574:1 1669:2 1691:3 1728:1 1742:2 1759:1 1909:1 1950:1 1969:1 1972:1 2065:1 2086:2 2132:1 2174:1 2179:1 2180:4 2329:1 2343:2 2476:1 2506:8 2509:6 2510:1 2511:10 2513:3 2516:3 2517:5 2560:1 2574:1 2745:1 3005:1 3239:1 3435:1 3942:1 4028:1 4173:1 4424:1 4656:1 4822:1 5016:1 5416:1 
0.06694770454697684 95:3 616:2 1121:2 1240:2 1258:4 1833:2 1947:2 2134:2 2466:2 2506:2 2509:4 2513:4 3689:1 
0.03795424119263583 4:2 8:4 46:2 91:6 95:8 121:7 179:1 200:8 207:5 219:2 268:1 310:2 326:2 339:6 346:2 352:1 358:2 376:1 389:3 438:2 468:2 503:1 558:2 616:2 617:1 647:2 751:17 831:2 839:1 847:2 850:1 851:2 892:2 936:2 947:2 979:6 1048:11 1051:2 1090:1 1171:1 1183:2 1230:4 1258:11 1311:2 1315:3 1335:2 1364:2 1411:1 1436:6 1441:1 1555:1 1564:3 1602:1 1669:3 1684:2 1691:7 1694:1 1728:2 1745:2 1759:2 1908:2 1909:1 1932:1 1936:1 1969:2 2086:3 2176:2 2179:2 2180:14 2181:3 2252:2 2323:1 2336:1 2343:2 2412:1 2447:2 2455:1 2506:5 2507:2 2508:6 2509:14 2510:4 2511:21 2512:3 2513:3 2516:11 2517:13 2552:1 2560:1 2574:1 2632:1 2745:1 2835:1 3005:1 3239:1 3282:1 3358:1 3435:1 3966:1 4028:1 4041:1 4361:1 4399:1 4658:1 5016:1 5031:1 5231:1 5464:1 
0.07100697853410444 49:2 95:3 121:2 153:1 289:1 301:1 310:3 434:2 439:1 480:2 558:2 616:1 628:1 658:2 738:1 751:1 755:1 864:1 951:1 954:2 979:2 1030:2 1091:1 1144:3 1209:1 1331:1 1413:1 1472:1 1795:3 1886:1 2097:2 2180:1 2506:2 2507:4 2508:3 2509:3 2510:5 2511:7 2513:2 2517:2 3457:1 3619:1 3942:1 4005:1 4179:1 4384:1 4675:1 5451:1 
0.02098198915728159 8:2 11:1 91:2 95:7 121:4 200:6 207:2 213:1 289:2 299:3 310:2 338:1 339:1 346:2 358:2 385:1 389:4 390:1 404:1 429:2 438:1 459:2 468:2 477:1 479:1 500:1 616:2 617:1 679:2 706:1 725:1 728:1 733:1 751:12 771:1 804:2 831:2 847:1 849:1 851:1 864:1 865:1 931:1 944:1 979:1 1045:1 1048:10 1049:2 1094:1 1230:6 1248:1 1258:12 1307:1 1335:7 1339:1 1365:1 1436:5 1442:1 1506:1 1508:1 1564:4 1621:1 1655:1 1669:4 1673:1 1684:1 1691:3 1712:2 1739:1 1793:1 1908:1 1932:1 1937:1 1972:1 1982:1 2005:1 2086:2 2101:1 2104:1 2139:1 2179:2 2180:9 2181:4 2243:1 2252:2 2279:1 2292:1 2318:3 2336:1 2343:4 2401:1 2454:1 2486:1 2492:1 2506:3 2507:1 2509:8 2510:2 2511:16 2513:3 2514:1 2515:1 2516:10 2517:7 2560:1 2768:1 2772:1 2839:1 3005:1 3039:1 3124:1 3291:1 3307:1 3358:1 3398:1 3435:1 3442:1 3450:1 3636:1 3680:1 3966:1 4066:1 4173:1 4191:1 4257:1 4399:1 4835:1 4940:1 4959:1 5031:1 5106:1 5432:1 5464:1 
0.02612699383391447 4:1 8:1 91:4 95:4 121:2 200:1 207:2 257:2 295:1 310:5 375:2 429:2 438:1 439:2 444:2 451:2 462:1 492:2 531:1 535:1 616:2 695:2 751:3 856:1 947:1 979:2 1022:1 1023:1 1048:2 1098:1 1144:2 1172:1 1179:2 1199:1 1258:7 1289:1 1296:1 1316:2 1330:1 1335:2 1338:1 1379:1 1391:2 1463:1 1554:1 1574:1 1579:2 1691:2 1713:1 1723:1 1728:1 1756:2 1795:2 1813:2 1972:1 2062:1 2150:2 2179:1 2180:2 2274:1 2277:1 2318:3 2447:1 2455:1 2471:1 2504:1 2506:10 2507:1 2508:5 2509:6 2510:1 2511:11 2513:5 2516:2 2517:2 2552:1 2719:1 2881:1 3222:1 3239:1 3487:1 3699:1 3891:1 3919:1 3966:1 4120:1 4173:1 4174:1 4187:1 4505:1 4936:1 4941:1 4943:1 5031:1 5061:1 5069:1 5156:1 5256:1 
0.05400558731185347 91:6 95:4 146:1 207:1 289:1 298:1 301:1 310:2 326:1 339:1 347:3 376:1 408:1 438:1 439:2 457:1 500:1 519:1 531:1 540:1 616:2 628:1 751:5 821:1 915:1 944:1 979:1 1094:1 1114:1 1229:2 1258:1 1330:1 1335:1 1606:3 1860:1 1920:1 2072:1 2180:3 2329:1 2369:2 2416:1 2443:1 2455:1 2506:8 2508:1 2509:3 2511:12 2512:1 2513:7 2515:2 2517:1 2559:1 2697:1 2962:1 3282:1 3322:1 3504:1 3636:1 3942:1 4187:1 4383:1 4637:1 4681:1 5031:1 5200:1 5202:1 5399:1 
0.02620395352955458 95:5 99:1 121:1 146:5 152:2 214:2 280:1 289:3 299:2 310:5 348:1 352:4 438:1 441:1 518:1 541:2 566:1 586:1 616:1 628:1 751:13 771:2 806:1 851:1 864:1 899:1 906:2 962:1 979:1 998:1 1022:1 1144:1 1229:1 1258:6 1328:1 1330:1 1331:2 1335:8 1374:6 1402:1 1412:1 1436:2 1449:1 1514:2 1577:4 1609:1 1641:1 1691:1 1750:1 1795:1 1876:1 1891:1 1941:9 2046:7 2098:1 2179:2 2180:13 2190:5 2210:1 2213:1 2217:1 2222:5 2416:1 2419:1 2444:1 2455:2 2458:1 2506:7 2507:2 2508:1 2509:4 2510:1 2511:9 2512:2 2513:7 2515:4 2517:2 2559:1 2724:1 2857:1 2866:1 3005:1 3143:1 3160:1 3228:1 3251:1 3411:1 3491:1 3942:1 3956:1 4177:1 4187:1 4257:1 4352:1 4364:1 4528:1 4602:1 4813:1 4844:1 4868:1 4952:1 5031:1 
0.03036106756919512 4:6 8:2 11:1 91:4 95:9 121:7 200:6 207:8 298:1 310:6 326:1 339:1 346:4 389:3 438:3 468:2 616:2 617:2 647:1 708:1 732:1 751:8 766:2 771:1 831:2 839:1 847:1 850:1 892:2 906:2 947:4 1048:12 1049:2 1090:1 1230:2 1258:10 1330:1 1335:1 1564:3 1579:1 1669:3 1684:1 1691:4 1694:2 1712:2 1818:1 1909:1 1962:1 1972:2 2046:3 2086:2 2142:1 2176:1 2180:5 2181:2 2252:2 2277:1 2329:1 2343:2 2379:2 2506:2 2508:1 2509:4 2511:15 2513:2 2516:12 2517:11 2552:1 2560:1 2574:1 3239:1 3282:1 3435:1 3966:1 4028:1 4173:1 4187:1 4257:1 4399:1 4658:1 4941:1 5031:1 5464:1 
0.009913574227409086 17:8 29:1 58:1 72:1 91:2 95:6 121:2 146:1 289:2 310:5 363:1 383:1 459:3 477:2 478:1 503:1 571:1 740:1 751:9 767:2 811:2 907:8 979:2 981:1 1007:1 1033:1 1229:2 1236:2 1258:3 1270:2 1326:1 1330:3 1331:1 1342:1 1361:1 1413:1 1471:1 1504:1 1573:1 1589:1 1768:1 1802:1 1960:3 1967:1 2030:1 2075:1 2090:1 2180:2 2181:2 2252:2 2401:3 2497:1 2506:8 2509:7 2510:3 2511:9 2512:3 2513:8 2559:1 2877:1 3319:1 3831:1 4107:1 4157:1 4187:1 4384:1 4467:1 4506:1 4526:1 4810:1 4934:1 5042:1 5101:1 5394:1 
0.05814656954301062 91:9 95:7 146:1 189:2 198:1 222:1 295:1 298:1 299:4 310:4 311:2 322:1 335:1 341:1 388:1 430:1 438:2 441:2 500:1 508:1 595:1 615:2 616:1 628:1 679:1 686:1 743:1 751:5 857:2 878:1 979:1 1006:2 1092:1 1144:4 1174:2 1184:3 1199:2 1243:7 1258:2 1324:1 1330:1 1335:3 1357:1 1429:3 1471:2 1573:1 1590:7 1730:1 1795:4 1836:2 1908:1 1915:4 1955:1 1972:1 2007:2 2049:3 2098:2 2180:3 2277:1 2416:1 2452:1 2455:3 2506:13 2507:6 2508:1 2509:5 2510:7 2511:19 2512:5 2513:9 2514:5 2515:2 2517:2 2755:1 3222:1 3636:1 3857:1 3891:1 3942:1 4173:1 4187:1 4502:1 4526:1 4761:1 4916:1 4941:1 5020:1 5031:1 5111:1 5268:1 5311:1 5408:1 5414:1 
0.159980014299054 8:1 11:1 46:2 91:1 95:7 121:3 146:2 189:2 196:1 200:3 207:8 310:4 338:2 339:1 371:1 389:2 441:1 446:1 465:2 468:2 590:2 637:1 751:5 771:1 831:2 847:4 850:1 865:2 944:4 979:3 1048:10 1049:2 1191:1 1230:2 1243:3 1258:6 1335:1 1428:1 1436:2 1522:1 1552:1 1564:2 1590:2 1654:4 1669:2 1684:2 1691:1 1712:2 1839:1 1950:1 2007:2 2049:2 2180:1 2181:2 2343:2 2454:1 2506:3 2507:3 2508:1 2509:7 2510:1 2511:9 2512:1 2513:3 2514:1 2516:10 2517:7 2560:1 2632:1 3005:1 3177:1 3307:1 3435:1 3450:1 3966:1 4257:1 4399:1 4409:1 4745:1 4927:1 5403:1 5426:1 
1 95:3 281:2 616:2 1230:2 1240:1 1947:2 2201:1 2246:2 2509:3 2511:2 2513:2 3983:1 
0.02840792464958866 91:3 95:5 121:1 133:1 144:1 146:2 172:1 257:1 310:2 311:1 339:1 357:1 457:1 503:1 509:1 541:3 558:3 616:1 628:1 673:1 751:7 917:1 973:1 979:2 993:1 1059:1 1127:3 1144:1 1229:2 1258:3 1330:1 1393:1 1413:1 1414:3 1448:1 1536:1 1550:3 1634:1 1666:1 1669:1 1745:1 1795:1 2005:1 2052:1 2062:1 2068:1 2155:1 2167:1 2180:3 2218:1 2220:1 2287:1 2455:1 2463:1 2506:5 2508:2 2509:2 2511:6 2512:1 2513:6 2517:1 2559:1 2874:1 2912:1 3316:1 3430:1 3799:1 3942:1 4149:1 4187:1 4221:1 4252:1 4274:1 4384:1 4636:1 4640:1 4748:1 5270:1 5402:1 
0.02083425345956877 91:1 95:4 118:2 137:1 189:2 216:2 265:3 280:1 298:1 301:1 310:4 339:1 341:1 370:1 371:1 438:1 457:1 536:2 550:4 722:1 738:1 751:8 771:2 837:1 864:2 1208:3 1229:1 1243:2 1258:5 1287:1 1314:1 1330:2 1335:5 1338:1 1402:1 1412:1 1554:1 1590:1 1654:1 1663:2 1730:1 1733:1 1806:1 1826:1 1881:1 1970:1 2007:1 2029:2 2034:4 2049:1 2076:1 2102:1 2179:1 2180:1 2185:1 2252:2 2272:1 2277:1 2356:1 2392:1 2397:1 2437:3 2483:1 2494:1 2506:13 2507:3 2508:5 2509:9 2510:3 2511:11 2513:1 2514:4 2515:2 2517:1 2808:1 3009:1 4095:1 4147:1 4159:1 4179:1 4187:1 4257:1 4364:1 4466:1 4627:1 4941:1 4993:1 5031:1 5046:1 5324:1 5346:1 5450:1 
0.006626947722505178 24:1 91:5 95:6 121:5 133:1 146:1 166:2 223:7 233:1 257:1 276:1 280:1 299:1 310:3 429:1 441:1 444:2 547:2 563:2 616:1 628:1 686:1 751:14 804:1 809:1 814:1 864:2 899:1 925:1 937:1 946:3 979:3 1123:1 1131:1 1144:1 1204:6 1223:2 1229:3 1258:3 1277:6 1330:4 1331:2 1335:1 1397:1 1401:1 1413:1 1417:7 1433:1 1444:1 1460:1 1483:1 1496:1 1515:2 1567:3 1574:1 1588:1 1620:1 1626:1 1665:3 1668:1 1795:1 1799:1 1867:3 1952:5 1968:2 2029:1 2068:1 2176:2 2179:2 2180:3 2221:1 2258:1 2268:1 2301:1 2438:3 2506:6 2508:7 2509:5 2510:1 2511:13 2512:1 2513:13 2559:1 3104:1 3217:1 3280:1 3382:1 3635:1 3651:1 3696:1 3710:1 3737:1 3785:1 3844:1 3942:1 4170:1 4187:1 4246:1 4252:1 4368:1 4384:1 4391:1 4586:1 4658:1 5084:1 5130:1 5210:1 5234:1 5265:1 
0.1925855609669742 4:4 8:2 25:2 46:1 91:8 95:6 121:8 146:1 200:6 207:8 219:3 289:1 326:1 339:2 346:2 358:1 376:1 389:2 465:1 468:2 490:1 558:3 616:2 628:1 647:1 708:1 728:1 751:10 766:1 831:3 847:2 979:2 1048:12 1051:1 1090:1 1183:1 1230:4 1251:1 1258:11 1273:1 1307:1 1311:1 1364:2 1508:1 1564:4 1631:2 1669:4 1691:4 1728:1 1745:1 1759:2 1816:1 1822:1 1946:1 1969:2 2029:1 2112:1 2139:4 2176:1 2179:1 2180:9 2181:4 2198:1 2252:2 2322:1 2338:1 2343:3 2379:1 2404:3 2472:1 2506:2 2507:2 2508:1 2509:8 2510:5 2511:10 2512:1 2513:3 2516:12 2517:11 2552:1 2560:1 2574:1 2632:1 2835:1 3124:1 3282:1 3358:1 3425:1 3435:1 3942:1 3966:1 4399:1 4658:1 4711:1 5016:1 5068:1 5231:1 
0.1422159043669201 8:1 25:4 79:2 95:5 121:7 207:2 216:1 298:2 299:2 301:2 310:2 468:1 590:2 593:2 617:2 624:4 685:1 751:8 766:1 831:5 850:2 907:1 944:3 947:4 979:1 1048:4 1144:1 1156:2 1230:4 1258:11 1261:4 1311:1 1335:4 1376:2 1442:1 1443:1 1452:1 1508:4 1574:1 1576:1 1582:5 1604:1 1628:1 1654:2 1688:3 1689:5 1709:3 1795:1 1803:2 2007:1 2086:1 2137:1 2139:4 2154:1 2179:1 2180:5 2252:2 2254:2 2283:1 2323:1 2500:4 2504:5 2506:1 2507:1 2509:1 2510:1 2511:3 2512:1 2513:1 2516:4 2517:9 2521:1 2560:1 2636:1 2699:1 3009:1 3124:1 3239:1 3369:1 3782:1 3966:1 4399:1 4480:1 5403:1 5464:1 
0.004152700858314024 9:3 91:3 95:8 121:3 146:3 243:1 271:1 287:1 298:1 310:4 311:1 352:4 383:1 404:4 406:1 429:2 541:1 586:1 587:1 595:1 616:1 628:1 738:3 751:11 756:1 804:2 819:1 864:2 865:1 885:1 892:1 956:1 962:1 979:5 990:1 994:1 996:1 1014:3 1035:1 1114:1 1144:2 1163:2 1223:2 1257:1 1258:11 1275:1 1276:1 1330:2 1331:2 1335:7 1339:1 1368:1 1401:1 1442:1 1506:6 1567:1 1573:1 1609:1 1654:1 1691:1 1705:1 1763:1 1773:1 1783:1 1795:2 1812:1 1840:3 1892:1 1897:1 1902:1 2013:1 2076:1 2161:1 2179:1 2180:2 2216:1 2318:2 2372:1 2416:2 2447:1 2506:9 2507:2 2508:4 2509:8 2510:1 2511:16 2512:4 2513:3 2515:6 2517:1 2545:1 2578:1 2595:1 2617:1 2659:1 2830:1 2888:1 2992:1 3016:1 3080:1 3246:1 3400:1 3411:1 3532:1 3603:1 3635:1 3643:1 3666:1 3698:1 3701:1 3736:1 3833:1 3942:1 4074:1 4100:1 4179:1 4187:1 4191:1 4408:1 4590:1 4832:1 5130:1 5172:1 5202:1 5341:1 5414:1 
1 58:2 95:3 346:2 1218:1 1240:2 1258:4 1389:2 1442:1 1691:3 2007:2 2430:2 2509:2 2510:2 2512:2 2513:2 2517:3 3983:1 
0.3181730687326871 58:2 95:3 290:3 310:1 339:1 392:3 751:2 979:1 1258:3 1282:2 1389:2 1448:1 1474:1 1479:1 1507:1 1554:1 1646:1 1691:1 1698:2 1712:2 1950:2 2007:2 2021:1 2179:2 2180:2 2282:1 2455:1 2496:1 2506:2 2509:2 2510:2 2511:3 2512:3 2513:2 2516:1 2517:3 2688:1 3598:1 4539:1 4542:1 4607:1 
0.02152049170486626 13:1 91:2 95:8 121:2 146:2 289:2 341:1 441:1 531:1 554:5 558:4 593:1 616:2 628:1 664:3 720:2 738:1 746:1 751:7 825:5 864:1 885:1 979:2 1008:1 1132:1 1144:1 1258:5 1307:1 1335:4 1403:2 1434:1 1445:1 1448:1 1478:1 1484:1 1556:1 1620:1 1667:1 1730:1 1795:1 1986:2 1990:2 2089:4 2180:4 2355:1 2357:1 2426:1 2428:2 2506:5 2507:3 2508:3 2509:3 2510:4 2511:12 2512:4 2513:14 2514:4 2515:2 2517:1 2785:1 3397:1 3942:1 3979:1 4058:1 4179:1 4205:1 4215:1 5083:1 5088:1 5151:1 5251:1 5284:1 5326:1 
0.01098911761220261 16:6 28:1 58:1 91:3 93:2 95:6 115:1 121:1 133:1 206:1 213:1 251:1 257:2 310:6 352:1 406:2 429:2 510:1 531:4 541:3 585:1 614:1 616:1 628:1 645:1 659:2 668:1 751:7 864:1 876:1 896:1 901:1 956:1 979:4 1110:8 1144:8 1164:1 1188:2 1198:1 1222:1 1258:9 1267:1 1293:1 1335:1 1372:1 1374:5 1436:1 1459:1 1508:1 1567:2 1591:1 1641:1 1654:3 1795:8 1811:1 1838:1 1908:1 1919:1 2020:6 2098:4 2104:1 2176:3 2181:2 2198:1 2204:1 2216:1 2220:1 2318:3 2329:1 2389:1 2416:1 2469:1 2471:1 2506:12 2507:1 2508:1 2509:12 2510:3 2511:11 2512:3 2513:5 2545:1 2614:1 2637:1 2801:1 3005:1 3035:1 3039:1 3045:1 3124:1 3130:1 3160:1 3330:1 3351:1 3611:1 3649:1 3919:1 3942:1 4562:1 4584:1 4606:1 4612:1 4658:1 4711:1 4748:1 4784:1 4897:1 5209:1 
0.02681694666476849 91:2 95:7 115:1 121:3 139:1 146:1 270:1 289:2 298:1 310:4 318:1 338:2 352:1 361:1 369:1 425:2 437:1 438:1 448:1 449:1 454:1 503:1 509:1 558:2 573:1 607:1 616:1 631:2 633:1 647:1 676:1 751:14 795:1 815:1 819:2 864:1 865:1 875:1 896:2 954:1 979:3 994:1 1036:1 1062:1 1094:4 1157:4 1163:1 1229:2 1258:8 1314:2 1335:2 1397:1 1405:1 1414:1 1436:2 1550:4 1556:2 1669:1 1683:1 1753:1 1769:1 1783:1 1827:1 1828:1 1854:1 1870:1 1876:1 1888:1 1908:1 2042:1 2088:1 2096:1 2102:1 2133:1 2162:2 2167:1 2179:1 2180:8 2181:1 2216:1 2219:3 2220:2 2230:1 2277:1 2332:1 2348:3 2506:11 2507:1 2508:2 2509:6 2510:3 2511:15 2513:3 2548:1 2559:1 2574:1 2801:1 3139:1 3284:1 3307:1 3431:1 3572:1 3583:1 3800:1 3956:1 4037:1 4149:1 4336:1 4462:1 4478:1 4562:1 4748:1 4941:1 5031:1 5050:1 5142:1 5341:1 5346:1 5431:1 5434:1 
0.03173716929189142 8:3 11:1 25:2 46:1 91:3 95:5 121:3 200:2 207:4 310:2 339:1 389:2 468:2 649:3 751:4 766:2 831:1 850:2 971:2 979:4 1048:4 1156:1 1230:2 1251:1 1258:6 1335:2 1436:1 1564:2 1575:1 1581:1 1646:2 1669:2 1688:3 1690:1 1713:1 2007:1 2139:1 2141:1 2180:3 2181:2 2234:1 2252:2 2343:2 2496:4 2500:2 2509:3 2511:3 2513:3 2516:6 2517:5 2560:1 2632:1 3005:1 3435:1 3782:1 3966:1 4399:1 
1 95:1 157:2 346:2 838:1 907:2 1240:2 1258:4 1448:1 1691:3 2431:2 2509:2 2513:2 2517:3 3983:1 
0.03819743890594981 32:4 91:3 95:5 121:2 169:1 174:1 257:2 280:1 298:1 301:1 310:2 448:1 459:1 464:3 497:1 531:1 616:1 628:1 676:1 694:2 740:1 751:4 757:1 846:1 899:1 1144:2 1163:1 1228:2 1258:4 1330:1 1335:2 1342:1 1352:1 1413:1 1436:1 1454:1 1482:1 1484:1 1559:1 1638:1 1654:1 1688:1 1795:2 1869:1 2073:4 2133:1 2208:1 2216:3 2304:1 2353:1 2455:1 2463:1 2506:5 2508:1 2509:3 2511:4 2513:2 2515:2 2517:3 2696:1 3005:1 3015:1 3355:1 3452:1 3725:1 3810:1 3942:1 4187:1 4209:1 4331:1 4348:1 4384:1 4802:1 5100:1 
0.1159888304342695 8:3 11:1 54:1 95:9 109:1 121:7 200:4 202:1 207:8 298:1 310:2 326:1 339:3 346:6 455:1 465:1 468:2 558:3 616:2 708:2 751:12 835:1 839:1 847:3 850:1 891:1 936:1 947:1 979:5 1022:1 1048:9 1090:2 1183:1 1230:2 1251:3 1258:5 1307:1 1330:1 1444:1 1508:2 1564:3 1628:1 1646:2 1691:5 1711:1 1908:1 2065:1 2066:1 2086:3 2100:1 2139:2 2176:1 2179:1 2180:10 2181:2 2252:2 2454:1 2506:5 2507:2 2508:3 2509:7 2510:2 2511:12 2512:1 2513:3 2516:11 2517:9 2560:1 2607:1 2789:1 2948:1 3124:1 3239:1 3282:1 3450:1 3966:1 4093:1 4187:1 4424:1 4658:1 5057:1 
0.02610296673550434 8:1 46:1 66:2 91:3 95:7 121:2 137:1 174:1 177:1 207:2 232:3 255:1 278:2 289:1 290:1 301:2 310:5 323:1 348:1 352:2 410:1 468:1 474:1 479:1 550:4 571:2 652:1 718:1 738:2 743:2 751:15 837:1 864:2 943:1 961:1 979:2 1048:3 1119:7 1126:3 1139:1 1175:1 1229:1 1258:6 1330:1 1335:2 1357:1 1376:1 1412:2 1419:1 1457:1 1463:1 1533:1 1654:1 1661:1 1733:1 1767:1 1806:2 1834:1 1888:1 1982:1 2058:1 2179:1 2264:1 2277:2 2397:1 2411:1 2420:1 2497:1 2506:3 2507:2 2508:6 2509:3 2510:5 2511:7 2512:3 2513:11 2514:4 2516:3 2517:2 2580:1 2632:1 2725:1 2768:1 2998:1 3034:1 3604:1 3662:1 3743:1 3966:1 4147:1 4179:1 4187:1 4261:1 4342:1 4348:1 4358:1 4465:1 4505:1 4523:1 4941:1 5013:1 5097:1 5268:1 5276:1 5349:1 5445:1 
0.03556601684981651 58:1 91:2 95:2 121:1 289:1 339:2 441:2 459:1 531:1 740:1 742:1 751:3 782:1 804:1 864:1 885:1 907:4 917:1 979:1 1030:1 1229:1 1330:1 1335:2 1504:2 1629:3 1892:1 2176:1 2180:2 2181:1 2401:2 2445:1 2506:1 2508:1 2509:3 2510:1 2511:3 2512:2 2513:5 2515:2 2559:1 3061:1 3194:1 3457:1 4185:1 4187:1 4593:1 4640:1 4658:1 5250:1 
0.03975934923756399 91:1 95:5 146:1 214:1 230:1 270:1 299:2 310:2 316:2 324:2 352:1 379:1 426:1 486:1 488:1 562:2 628:1 652:2 660:1 666:1 738:1 751:6 753:2 771:1 814:1 829:1 864:1 874:1 979:3 1022:1 1151:1 1208:2 1258:7 1330:1 1335:1 1419:1 1428:1 1436:1 1444:1 1597:1 1654:1 1742:1 1790:3 1793:1 1796:1 1925:1 2007:1 2156:3 2180:6 2203:1 2459:1 2509:4 2510:2 2511:6 2512:1 2513:8 2514:4 2517:2 3005:1 3631:1 3824:1 3942:1 4179:1 4187:1 4257:1 4368:1 4393:1 4548:1 4732:1 5309:1 
0.2452199562826265 8:2 11:1 91:4 95:8 121:6 200:3 207:6 289:1 310:1 339:3 346:4 465:2 468:2 616:2 617:1 672:1 708:2 751:7 831:2 847:7 892:2 906:2 947:2 979:3 1048:6 1090:1 1258:8 1335:1 1445:1 1564:3 1582:1 1646:4 1654:1 1669:3 1684:1 1691:2 1692:3 1713:2 1909:1 1913:1 2046:2 2066:3 2083:3 2086:2 2132:1 2176:2 2179:1 2180:2 2181:2 2234:2 2252:2 2260:1 2506:10 2509:9 2511:10 2513:2 2516:10 2517:9 2948:1 3239:1 3966:1 4028:1 4399:1 4549:1 4658:1 5464:1 
0.3190968932022102 8:2 11:1 95:3 121:4 198:1 339:1 346:2 389:2 429:2 468:2 616:2 624:1 751:5 766:2 831:2 971:2 1048:6 1230:4 1258:3 1307:1 1325:1 1419:1 1508:1 1564:2 1669:2 1691:1 1713:2 1936:1 1950:1 2086:2 2139:2 2179:2 2180:5 2181:2 2234:2 2318:2 2343:2 2454:1 2507:1 2509:3 2510:1 2511:4 2513:2 2516:6 2517:3 2521:1 2560:1 3124:1 3435:1 3450:1 3966:1 4399:1 
0.001648735549075594 8:2 11:1 91:2 95:7 121:5 146:1 200:4 202:1 207:6 248:2 289:1 299:1 310:4 339:4 346:6 377:1 390:1 394:1 455:1 457:1 468:2 617:1 708:2 751:9 847:3 944:1 947:1 979:2 991:1 1048:8 1061:1 1090:2 1230:2 1251:3 1258:8 1335:1 1501:1 1508:1 1522:1 1528:2 1564:2 1646:2 1654:2 1684:3 1691:4 1692:2 1909:1 2007:1 2066:1 2086:2 2139:1 2166:2 2176:1 2179:1 2180:7 2181:2 2196:1 2252:2 2336:1 2343:1 2454:2 2506:5 2507:1 2509:6 2511:13 2513:1 2514:1 2516:10 2517:9 2560:1 2607:1 2948:1 3008:1 3124:1 3177:1 3239:1 3442:1 3450:1 3966:1 4028:1 4424:1 4632:1 4658:1 4956:1 5057:1 5464:1 
0.164902886632866 8:2 11:1 95:5 121:2 200:2 207:3 299:1 310:3 331:2 339:2 346:2 429:2 468:2 550:1 616:2 638:1 683:1 751:7 847:2 864:1 899:2 979:2 991:2 1022:1 1048:4 1230:1 1256:1 1258:7 1277:2 1311:1 1335:2 1446:1 1508:1 1564:1 1577:1 1646:3 1654:3 1691:1 1698:2 1715:1 1950:1 2066:2 2086:2 2091:1 2139:1 2166:3 2179:1 2180:2 2181:2 2343:2 2509:3 2511:7 2513:2 2516:7 2517:3 2560:1 2948:1 3008:1 3124:1 3294:1 3598:1 3628:1 3966:1 4147:1 4632:1 5429:1 
0.106448054971442 8:1 25:2 95:6 121:4 326:2 339:1 346:2 358:1 389:4 429:2 465:1 468:2 616:2 628:1 730:1 751:5 831:2 847:5 899:2 979:3 1048:10 1230:5 1258:3 1277:2 1307:2 1354:1 1508:1 1564:4 1581:2 1669:4 1691:1 1745:1 1818:1 1819:1 1950:1 1956:2 2115:1 2139:1 2179:2 2180:5 2181:4 2343:3 2507:2 2508:2 2509:5 2510:2 2511:3 2513:2 2516:10 2517:5 2560:1 3124:1 3282:1 3358:1 3435:1 3942:1 3966:1 4399:1 4945:1 5231:1 
0.01244671818047846 11:1 46:2 85:1 91:7 95:5 121:2 145:1 175:1 176:1 189:2 256:2 278:1 295:2 299:1 310:2 314:1 327:2 332:2 339:3 341:1 352:2 354:1 372:1 378:1 441:1 545:1 567:2 628:1 679:1 738:1 751:10 758:1 771:1 825:1 833:1 864:4 892:1 933:1 979:2 1007:1 1009:1 1090:1 1092:1 1138:1 1159:1 1243:2 1258:7 1307:1 1331:2 1335:3 1430:1 1444:1 1452:1 1467:1 1565:1 1584:1 1632:1 1636:1 1690:1 1691:1 1728:2 1730:1 1745:1 1787:1 2007:2 2009:1 2089:2 2092:1 2126:1 2145:1 2157:1 2179:1 2180:6 2181:1 2187:1 2203:1 2204:1 2293:1 2306:1 2315:1 2396:1 2416:1 2420:1 2422:2 2437:1 2477:1 2506:8 2507:8 2508:7 2509:10 2510:7 2511:11 2512:2 2513:5 2515:2 2517:2 2632:1 2704:1 2722:1 2834:1 2851:1 2871:1 2898:1 2925:1 3049:1 3222:1 3391:1 3427:1 3460:1 3728:1 3783:1 3821:1 3942:1 4179:1 4240:1 4257:1 4441:1 4480:1 4540:1 4601:1 4682:1 4790:1 4825:1 4917:1 5054:1 5236:1 5275:1 5311:1 5324:1 
1 95:3 429:2 616:2 1240:1 1947:2 1970:2 2201:1 2210:2 2318:2 2509:1 2513:2 
0.001850201182625479 14:1 51:1 91:4 95:7 121:1 133:1 186:1 206:1 213:1 251:1 257:2 287:1 289:1 310:3 311:2 326:2 352:1 405:1 429:2 448:1 484:1 515:1 531:1 585:1 586:1 614:1 616:1 628:1 645:1 659:1 686:3 701:1 740:1 742:1 751:10 771:1 827:2 863:2 935:2 946:1 952:1 962:1 979:3 1059:1 1142:1 1144:9 1163:1 1198:1 1206:1 1207:1 1221:1 1223:2 1258:7 1279:1 1285:1 1312:1 1330:1 1335:3 1349:1 1370:1 1393:1 1413:1 1457:1 1459:1 1600:1 1640:1 1705:1 1795:9 1811:1 1908:1 1924:1 2010:1 2020:4 2101:3 2146:1 2179:1 2180:3 2196:1 2216:1 2277:1 2283:1 2318:3 2416:1 2458:1 2506:12 2508:6 2509:6 2510:1 2511:13 2512:1 2513:7 2912:1 3013:1 3045:1 3225:1 3282:1 3411:1 3726:1 3736:1 3830:1 3871:1 3901:1 3942:1 4104:1 4109:1 4185:1 4187:1 4252:1 4257:1 4267:1 4384:1 4553:1 4582:1 4584:1 4941:1 4955:1 5136:1 5193:1 5295:1 5442:1 
0.06628781378526923 36:1 91:1 95:4 183:2 296:2 299:2 310:3 352:3 544:2 616:1 628:1 696:2 738:2 751:2 753:3 754:1 781:2 864:1 874:2 888:1 990:1 1246:1 1258:3 1330:1 1362:1 1449:1 1519:2 1654:1 1691:1 1733:1 1806:1 1971:1 1998:1 2007:2 2180:6 2203:3 2226:1 2262:2 2506:1 2509:4 2510:3 2511:8 2513:5 2514:4 2517:3 3021:1 3662:1 3942:1 4172:1 4179:1 4187:1 4245:1 4541:1 4649:1 
0.1090905418957556 8:1 11:1 69:1 91:3 95:8 121:7 200:8 207:3 271:1 296:2 298:1 310:2 326:2 339:3 346:4 468:2 544:2 617:1 636:1 708:2 724:1 751:12 781:2 831:2 847:2 892:1 928:1 944:1 947:2 979:3 1048:7 1090:1 1183:2 1230:3 1258:8 1335:2 1436:3 1452:1 1552:1 1564:2 1632:1 1669:3 1691:4 1692:3 1694:1 1712:2 1715:1 1909:1 1939:1 2007:2 2066:3 2083:1 2115:1 2142:1 2174:1 2176:1 2179:1 2180:8 2181:2 2249:1 2252:2 2370:2 2496:1 2506:6 2507:2 2508:2 2509:8 2510:2 2511:10 2512:2 2513:3 2516:7 2517:10 2560:1 2948:1 3005:1 3239:1 3282:1 3427:1 3966:1 4028:1 4399:1 4480:1 4656:1 4657:1 4658:1 4849:1 5464:1 
0.002722900065446121 12:1 62:1 81:1 91:6 95:6 129:3 131:1 146:2 185:1 200:2 207:6 256:1 263:1 289:2 296:3 298:1 299:1 308:1 310:4 339:5 348:1 352:2 371:2 438:3 441:2 469:2 544:3 550:2 628:1 658:1 672:1 738:1 751:13 758:1 781:2 804:1 864:2 915:1 979:1 991:3 1022:1 1026:1 1039:1 1048:6 1229:2 1236:2 1256:1 1258:9 1296:1 1322:1 1330:1 1331:2 1334:1 1335:1 1369:3 1436:2 1445:1 1556:1 1654:1 1684:3 1692:1 1696:1 1739:1 1742:2 1755:1 1781:1 1859:1 1972:1 1981:2 2007:2 2038:1 2064:2 2109:3 2150:1 2180:9 2181:1 2184:2 2191:1 2261:2 2277:1 2296:2 2310:1 2359:4 2416:1 2455:6 2480:1 2506:19 2508:2 2509:17 2510:1 2511:26 2512:2 2513:4 2516:6 2517:4 2559:1 2576:1 2642:1 2719:1 2953:1 3005:1 3052:1 3322:1 3386:1 3446:1 3467:1 3500:1 3587:1 3680:1 3942:1 3978:1 4005:1 4147:1 4173:1 4179:1 4187:1 4337:1 4375:1 4601:1 4700:1 4723:1 4799:1 4941:1 5011:1 5015:1 5031:1 5091:1 5255:1 5327:1 5393:1 
0.04761670727991852 36:1 46:3 91:7 95:3 195:2 289:1 301:2 310:2 571:1 589:2 595:2 628:2 660:2 738:2 751:1 753:1 864:1 874:1 979:2 982:1 991:1 1047:1 1052:1 1122:1 1246:1 1248:3 1258:8 1288:1 1335:1 1421:1 1581:2 1620:1 1676:1 1733:3 1751:1 1806:3 1925:1 1998:3 2045:2 2109:1 2137:1 2180:2 2272:1 2286:1 2317:2 2349:3 2362:1 2379:1 2423:1 2427:1 2455:1 2458:1 2506:3 2507:4 2508:1 2509:4 2510:6 2511:20 2513:4 2514:6 2515:1 2517:2 3021:1 3052:1 3711:1 3942:1 4119:1 4179:1 4815:1 5414:1 
0.01716487369913265 1:1 11:1 25:5 95:3 121:8 207:2 216:1 298:2 299:2 301:2 310:2 337:1 590:2 617:2 624:4 628:1 685:1 751:8 766:1 831:4 850:2 907:2 944:3 947:4 979:1 991:1 1005:2 1048:4 1144:1 1156:2 1230:4 1258:9 1261:3 1311:1 1335:4 1376:2 1443:1 1452:1 1508:4 1574:1 1581:4 1604:1 1654:2 1688:4 1690:2 1795:1 1803:2 1849:2 2007:1 2129:1 2137:1 2139:5 2179:1 2180:5 2254:2 2278:1 2281:1 2404:5 2500:4 2506:1 2507:1 2509:1 2510:1 2511:2 2512:1 2513:2 2516:4 2517:10 2521:1 2560:1 2636:1 3009:1 3124:1 3239:1 3369:1 3691:1 3782:1 3890:1 3942:1 4399:1 4480:1 5403:1 5464:1 
0.2014595148969321 4:4 8:1 11:1 91:2 95:6 121:5 189:2 200:4 207:8 289:2 310:2 389:4 441:1 465:1 468:1 590:2 617:2 728:1 730:1 731:1 734:1 751:7 766:2 771:2 819:1 831:1 847:2 944:3 979:1 1005:1 1048:12 1156:2 1229:1 1230:5 1243:2 1258:10 1335:4 1391:1 1436:1 1508:1 1522:1 1564:4 1654:2 1669:4 1688:2 1690:1 1713:1 1732:1 1772:1 2005:1 2007:1 2139:2 2181:4 2252:2 2343:2 2379:2 2407:1 2410:1 2411:1 2413:1 2454:1 2483:1 2496:2 2500:2 2504:1 2506:2 2507:1 2509:6 2511:8 2513:2 2516:12 2517:8 2552:1 2559:1 2560:1 3005:1 3124:1 3177:1 3435:1 3450:1 3782:1 3966:1 4257:1 4399:1 5285:1 5403:1 5464:1 
0.9291547713580625 58:2 95:3 1240:1 1389:2 1947:2 1970:2 2007:2 2201:1 2210:2 2509:1 2510:2 2512:2 2513:2 
0.03870337976157062 43:1 91:3 95:2 96:1 121:1 138:1 146:2 188:1 223:1 234:1 257:1 290:1 299:2 301:2 305:1 309:1 310:5 312:1 339:1 341:1 429:2 441:1 451:3 453:1 499:1 572:1 599:1 674:2 747:1 751:4 754:1 847:1 864:1 899:2 931:1 947:1 979:3 1090:3 1112:1 1118:1 1171:1 1182:1 1256:1 1258:10 1277:3 1289:1 1298:1 1333:1 1372:1 1395:1 1412:1 1446:1 1449:2 1465:1 1533:2 1576:1 1632:1 1638:2 1644:3 1679:1 1692:2 1728:3 1804:1 2035:1 2056:1 2081:1 2102:1 2130:1 2149:1 2180:3 2181:2 2203:1 2316:1 2364:2 2422:1 2466:2 2471:1 2506:3 2507:4 2508:2 2509:4 2510:3 2511:8 2512:2 2513:4 2514:2 2515:3 2517:4 2592:1 2770:1 2955:1 3239:1 3451:1 3452:1 3919:1 4120:1 4520:1 4557:1 4597:1 4726:1 4753:1 4973:1 5008:1 5012:1 5381:1 5392:1 
0.03888937130054571 91:6 95:4 132:1 165:1 223:6 245:1 283:1 289:1 299:1 310:4 329:1 352:1 429:1 441:1 582:1 616:1 620:1 628:1 644:1 738:1 751:4 759:4 850:1 864:1 881:2 899:1 917:1 979:1 981:2 1043:1 1117:1 1123:1 1144:2 1163:1 1258:7 1275:1 1277:5 1283:3 1330:2 1335:1 1430:1 1483:1 1593:1 1609:2 1622:2 1671:1 1795:2 1799:3 1951:1 1961:2 2067:1 2098:1 2180:6 2203:1 2246:1 2416:1 2506:22 2509:12 2510:2 2511:16 2512:3 2513:12 2515:1 2517:1 2692:1 3088:1 3696:1 3942:1 4100:1 4102:1 4135:1 4179:1 4187:1 4238:1 4325:1 4434:1 4640:1 4810:1 4996:1 
0.01612357607900056 11:1 95:3 112:1 131:1 145:1 157:1 200:2 207:4 276:1 310:4 339:1 465:1 468:1 550:1 562:2 628:1 660:1 716:1 747:1 751:6 771:1 801:1 847:1 864:2 865:1 979:3 1048:6 1051:1 1144:1 1184:1 1258:4 1259:1 1331:1 1335:3 1347:1 1363:1 1376:1 1378:1 1436:2 1459:1 1508:1 1564:1 1623:1 1646:1 1654:2 1669:1 1688:1 1733:1 1750:1 1795:1 1806:1 1837:1 1972:1 1992:1 2041:1 2086:1 2139:1 2166:2 2388:1 2506:5 2507:2 2508:2 2509:4 2510:2 2511:9 2512:1 2513:2 2514:1 2515:1 2516:7 2517:3 2618:1 2770:1 3005:1 3124:1 3270:1 3396:1 3662:1 3687:1 3942:1 4147:1 4173:1 4213:1 4257:1 4377:1 4632:1 5016:1 5346:1 5408:1 
